64 64
0.000000 0.000000 0.000000 0.000000 0.000000 0.000000 0.000000 0.000000 0.000000 0.000000 0.000000 0.000000 0.000000 0.000000 0.000000 0.000000 0.000000 0.000000 0.000000 0.000000 0.000000 0.000000 0.000000 0.000000 0.000000 0.000000 0.000000 0.000000 0.000000 0.000000 0.000000 0.000000 0.000000 0.000000 0.000000 0.000000 0.000000 0.000000 0.000107 0.002632 0.012337 0.031361 0.061137 0.108046 0.176708 0.267216 0.377401 0.506287 0.653383 0.815509 0.988368 1.166163 1.343840 1.517655 1.681506 1.829861 1.958087 2.062181 2.138537 2.184421 2.213123 2.279092 2.441857 2.738245 3.193213
0.000000 0.000000 0.000000 0.000000 0.000000 0.000000 0.000000 0.000000 0.000000 0.000000 0.000000 0.000000 0.000000 0.000000 0.000000 0.000000 0.000000 0.000000 0.000000 0.000000 0.000000 0.000000 0.000000 0.000000 0.000000 0.000000 0.000000 0.000000 0.000000 0.000000 0.000000 0.000000 0.000000 0.000000 0.000000 0.000000 0.000000 0.000275 0.003876 0.016253 0.039962 0.077163 0.137457 0.224510 0.338305 0.477108 0.642721 0.833351 1.045153 1.271886 1.509458 1.752452 1.993361 2.225589 2.442994 2.639597 2.809708 2.948194 3.050864 3.114547 3.148850 3.204572 3.345586 3.613152 4.036786
0.000000 0.000000 0.000000 0.000000 0.000000 0.000000 0.000000 0.000000 0.000000 0.000000 0.000000 0.000000 0.000000 0.000000 0.000000 0.000000 0.000000 0.000000 0.000000 0.000000 0.000000 0.000000 0.000000 0.000000 0.000000 0.000000 0.000000 0.000000 0.000000 0.000000 0.000000 0.000000 0.000000 0.000000 0.000000 0.000000 0.000349 0.004532 0.018755 0.046156 0.089911 0.161602 0.265355 0.400708 0.568900 0.771578 1.007091 1.269851 1.555525 1.859336 2.172923 2.489122 2.800792 3.099748 3.378058 3.628824 3.845532 4.022341 4.154466 4.238632 4.282212 4.329993 4.450284 4.694603 5.092705
0.000000 0.000000 0.000000 0.000000 0.000000 0.000000 0.000000 0.000000 0.000000 0.000000 0.000000 0.000000 0.000000 0.000000 0.000000 0.000000 0.000000 0.000000 0.000000 0.000000 0.000000 0.000000 0.000000 0.000000 0.000000 0.000000 0.000000 0.000000 0.000000 0.000000 0.000000 0.000000 0.000000 0.000000 0.000000 0.000275 0.004385 0.019286 0.048963 0.097269 0.177573 0.294984 0.449366 0.644748 0.883179 1.162129 1.476284 1.823469 2.195365 2.584812 2.983967 3.383324 3.773960 4.146804 4.492788 4.803399 5.071100 5.289461 5.454478 5.564069 5.623021 5.672899 5.784272 6.008828 6.383517
0.000000 0.000000 0.000000 0.000000 0.000000 0.000000 0.000000 0.000000 0.000000 0.000000 0.000000 0.000000 0.000000 0.000000 0.000000 0.000000 0.000000 0.000000 0.000000 0.000000 0.000000 0.000000 0.000000 0.000000 0.000000 0.000000 0.000000 0.000000 0.000000 0.000000 0.000000 0.000000 0.000000 0.000000 0.000107 0.003539 0.017735 0.047974 0.098232 0.183393 0.310413 0.480133 0.698536 0.968777 1.287524 1.652360 2.059156 2.500297 2.968663 3.455002 3.949648 4.441764 4.919742 5.372608 5.790224 6.163409 6.484172 6.747959 6.951385 7.093386 7.184379 7.253354 7.362495 7.577312 7.942227
0.000000 0.000000 0.000000 0.000000 0.000000 0.000000 0.000000 0.000000 0.000000 0.000000 0.000000 0.000000 0.000000 0.000000 0.000000 0.000000 0.000000 0.000000 0.000000 0.000000 0.000000 0.000000 0.000000 0.000000 0.000000 0.000000 0.000000 0.000000 0.000000 0.000000 0.000000 0.000000 0.000000 0.000000 0.002417 0.014437 0.043359 0.092935 0.178494 0.310234 0.490061 0.725787 1.021869 1.375263 1.786175 2.249167 2.758148 3.306020 3.883554 4.478671 5.078074 5.668588 6.237608 6.773297 7.264748 7.702374 8.081194 8.396454 8.647704 8.840887 8.977016 9.079797 9.207191 9.426705 9.786611
0.000000 0.000000 0.000000 0.000000 0.000000 0.000000 0.000000 0.000000 0.000000 0.000000 0.000000 0.000000 0.000000 0.000061 0.000326 0.000718 0.001154 0.001627 0.002226 0.002834 0.003345 0.003805 0.004453 0.005118 0.005713 0.006430 0.007540 0.009016 0.010979 0.013587 0.016503 0.019464 0.022185 0.025464 0.035386 0.061368 0.107583 0.187068 0.315654 0.496592 0.739613 1.051211 1.430021 1.878107 2.390552 2.963188 3.589911 4.258836 4.955491 5.664918 6.372292 7.063504 7.725219 8.344707 8.910827 9.418347 9.861816 10.239605 10.556787 10.813917 11.014661 11.175243 11.338654 11.567699 11.922114
0.000000 0.000000 0.000000 0.000000 0.000000 0.000000 0.000000 0.000000 0.000000 0.000000 0.000157 0.000876 0.002369 0.004510 0.007114 0.010218 0.013643 0.017110 0.020528 0.024210 0.027908 0.031594 0.035783 0.040823 0.046666 0.053561 0.062232 0.071989 0.082131 0.092075 0.101239 0.109432 0.116351 0.126095 0.148817 0.191048 0.261502 0.380756 0.554419 0.793761 1.107909 1.497156 1.966099 2.514335 3.140887 3.838060 4.591650 5.384826 6.200978 7.024022 7.838200 8.628760 9.381531 10.083529 10.729651 11.313354 11.830812 12.286911 12.684435 13.024040 13.308178 13.543813 13.755840 13.999247 14.348865
0.000000 0.000000 0.000000 0.000000 0.000000 0.000000 0.000000 0.000002 0.000861 0.003831 0.008962 0.015912 0.024721 0.035112 0.046247 0.057089 0.067810 0.078621 0.089218 0.099801 0.110973 0.123280 0.136534 0.151922 0.169818 0.189596 0.210508 0.231146 0.250738 0.269255 0.285543 0.298184 0.309853 0.329410 0.365864 0.424336 0.527839 0.688517 0.915944 1.222895 1.612519 2.092809 2.667046 3.334557 4.086237 4.907572 5.782098 6.692860 7.623434 8.556510 9.474430 10.361230 11.202233 11.992827 12.724372 13.390167 13.995358 14.544963 15.038086 15.477172 15.857888 16.177937 16.452236 16.720116 17.063383
0.000000 0.000000 0.000000 0.000000 0.000000 0.000300 0.002937 0.009678 0.020989 0.036345 0.055151 0.077012 0.100494 0.124005 0.147560 0.171533 0.195531 0.219109 0.242885 0.267331 0.291921 0.317682 0.345808 0.375783 0.407087 0.438895 0.470576 0.501669 0.531133 0.557207 0.578746 0.596368 0.615206 0.645899 0.695440 0.781330 0.923851 1.130012 1.418083 1.796831 2.276976 2.864798 3.560388 4.353827 5.229267 6.169665 7.159168 8.181298 9.218340 10.252745 11.268001 12.247355 13.184072 14.066920 14.886537 15.647608 16.357752 17.015280 17.620975 18.170340 18.655781 19.067707 19.412096 19.715204 20.049927
0.000000 0.000000 0.000005 0.000848 0.004737 0.015187 0.033589 0.059097 0.090215 0.126595 0.166437 0.207470 0.248564 0.290637 0.333217 0.375411 0.417150 0.459444 0.501667 0.543866 0.588280 0.634591 0.681741 0.728836 0.774459 0.818480 0.860542 0.899118 0.933534 0.963861 0.988591 1.009705 1.036741 1.081155 1.150446 1.270112 1.451488 1.715264 2.074041 2.539777 3.123736 3.828952 4.646220 5.560235 6.554144 7.610859 8.711488 9.838469 10.975275 12.104584 13.209726 14.283545 15.314957 16.290422 17.209970 18.084351 18.912689 19.693390 20.422504 21.090345 21.684935 22.194035 22.613363 22.961613 23.296022
0.000000 0.000912 0.005116 0.017743 0.042379 0.078028 0.122562 0.175185 0.234510 0.297537 0.361601 0.426720 0.493106 0.559839 0.625405 0.690698 0.755720 0.819544 0.883666 0.949667 1.016919 1.084597 1.151120 1.215353 1.277088 1.334442 1.385476 1.430122 1.468275 1.498680 1.521854 1.545445 1.582621 1.639170 1.733718 1.889907 2.122472 2.452127 2.892399 3.459454 4.157331 4.979709 5.912945 6.941233 8.046983 9.212481 10.418954 11.647384 12.878340 14.096992 15.294761 16.460590 17.581381 18.654446 19.691414 20.691515 21.649536 22.563074 23.422495 24.212805 24.917208 25.522703 26.027079 26.437323 26.786463
0.004073 0.016323 0.043435 0.086936 0.144309 0.213058 0.292232 0.379209 0.470316 0.562980 0.657814 0.754487 0.850988 0.946152 1.040823 1.134164 1.225114 1.316155 1.407828 1.499320 1.589844 1.677550 1.761817 1.842518 1.917665 1.985214 2.045161 2.095813 2.135101 2.163767 2.186486 2.212956 2.255824 2.323670 2.448985 2.645616 2.938399 3.342977 3.877219 4.551440 5.363925 6.300386 7.344629 8.480411 9.691066 10.957868 12.262136 13.584605 14.907719 16.217947 17.506239 18.761244 19.975906 21.158764 22.319550 23.450674 24.547796 25.601009 26.592024 27.502054 28.319546 29.032494 29.627739 30.108776 30.494360
0.036547 0.082121 0.147951 0.230325 0.326643 0.435748 0.554098 0.677541 0.803633 0.933177 1.065652 1.197950 1.329107 1.459474 1.587601 1.712275 1.836257 1.959420 2.080667 2.199031 2.312271 2.419793 2.521324 2.614942 2.699244 2.774499 2.839101 2.891270 2.931517 2.960335 2.981941 3.010525 3.057042 3.143248 3.297534 3.540933 3.897974 4.385120 5.020231 5.803944 6.725147 7.769382 8.919555 10.157772 11.466123 12.827005 14.221258 15.631521 17.043407 18.445955 19.824974 21.170362 22.485884 23.790417 25.077003 26.344767 27.585283 28.776251 29.896101 30.931952 31.867416 32.689503 33.385063 33.943710 34.374409
0.131125 0.220994 0.330510 0.456905 0.598715 0.751727 0.911459 1.075581 1.244737 1.417909 1.591742 1.765905 1.939919 2.111434 2.278551 2.443808 2.606323 2.764458 2.916823 3.060708 3.195360 3.320456 3.434300 3.535794 3.625864 3.703531 3.767179 3.817899 3.856261 3.882342 3.903095 3.933931 3.987432 4.094927 4.280309 4.575029 4.996757 5.571619 6.307221 7.195631 8.220488 9.365413 10.614266 11.948533 13.348992 14.796696 16.275408 17.768909 19.267769 20.758688 22.227333 23.667383 25.098721 26.525743 27.946127 29.352901 30.729342 32.053436 33.307369 34.470829 35.528210 36.462128 37.256527 37.896736 38.379848
0.302037 0.440204 0.598350 0.774798 0.965395 1.165218 1.371176 1.584935 1.806990 2.032290 2.258682 2.485475 2.710030 2.929262 3.145038 3.355954 3.559825 3.754836 3.937705 4.106802 4.261461 4.399786 4.520378 4.624207 4.710897 4.780710 4.835650 4.877625 4.907230 4.925418 4.943419 4.978633 5.042212 5.171772 5.393900 5.737881 6.229772 6.890704 7.720248 8.704367 9.825621 11.065253 12.405119 13.827569 15.312944 16.843185 18.400816 19.977474 21.559353 23.132820 24.689554 26.236773 27.788908 29.344118 30.900188 32.442757 33.949604 35.406979 36.792931 38.086044 39.264893 40.308445 41.198223 41.919647 42.462009
0.553379 0.743932 0.956463 1.186760 1.429341 1.683164 1.949838 2.228144 2.512995 2.801544 3.091641 3.379435 3.660650 3.936270 4.205004 4.463996 4.710907 4.941884 5.154327 5.347513 5.519518 5.667960 5.792838 5.893801 5.970995 6.026656 6.064377 6.086596 6.094381 6.095783 6.109892 6.146371 6.225012 6.379949 6.640964 7.034938 7.597019 8.337400 9.248234 10.314913 11.520153 12.844485 14.267385 15.769437 17.332952 18.939240 20.576649 22.232267 23.892290 25.547068 27.194889 28.854769 30.530653 32.217522 33.904774 35.576073 37.216988 38.803940 40.319500 41.738941 43.034103 44.182907 45.165451 45.965107 46.569473
0.887666 1.137061 1.408537 1.699115 2.007234 2.331913 2.673863 3.027112 3.385820 3.746623 4.105813 4.458289 4.803022 5.139430 5.463614 5.772418 6.061688 6.327502 6.568636 6.783255 6.968319 7.123058 7.247960 7.342656 7.409359 7.452080 7.474151 7.476247 7.462253 7.444620 7.443485 7.472507 7.565801 7.749474 8.052176 8.502832 9.132439 9.942988 10.923120 12.057144 13.328679 14.718834 16.206305 17.771097 19.396982 21.071312 22.781443 24.510656 26.245281 27.978920 29.722692 31.494184 33.294647 35.109974 36.923725 38.725109 40.494419 42.211403 43.850437 45.386570 46.792221 48.041012 49.112267 49.987602 50.653008
1.311976 1.627065 1.970381 2.337582 2.727232 3.139588 3.567321 4.003074 4.442657 4.881826 5.314358 5.736459 6.148730 6.546694 6.926403 7.283797 7.613568 7.913318 8.181348 8.413821 8.608812 8.768197 8.891923 8.983256 9.046692 9.083542 9.093347 9.080000 9.051313 9.020324 9.006910 9.027329 9.124325 9.328920 9.672372 10.186901 10.882972 11.757144 12.796703 13.986320 15.308581 16.745630 18.277821 19.885908 21.554245 23.273907 25.032259 26.813778 28.609718 30.419388 32.256092 34.135715 36.050762 37.985756 39.926228 41.854160 43.750305 45.590981 47.346565 48.990311 50.497551 51.839802 52.993679 53.940334 54.663670
1.837242 2.236283 2.667629 3.127544 3.614083 4.122197 4.642298 5.168168 5.694842 6.215648 6.724221 7.220553 7.700837 8.160189 8.594315 8.997221 9.365109 9.696094 9.986928 10.235376 10.443407 10.613316 10.746834 10.845688 10.911146 10.945824 10.952063 10.932629 10.895297 10.853466 10.830016 10.845815 10.945487 11.164209 11.539310 12.108320 12.867056 13.797528 14.887553 16.122547 17.484926 18.956537 20.520298 22.160194 23.862404 25.614182 27.401941 29.212715 31.044161 32.905956 34.820484 36.793728 38.807076 40.847790 42.902786 44.947201 46.958851 48.910378 50.772449 52.514805 54.112282 55.540134 56.770458 57.782944 58.560608
2.487945 2.985602 3.518884 4.083663 4.677041 5.287794 5.907467 6.529649 7.147527 7.752870 8.342515 8.914426 9.462621 9.982076 10.466881 10.912052 11.315324 11.675358 11.990268 12.261839 12.494068 12.684776 12.834082 12.944908 13.020951 13.060952 13.067702 13.047762 13.006310 12.959596 12.932170 12.947806 13.049409 13.277231 13.676017 14.278402 15.081615 16.064091 17.198980 18.472406 19.868490 21.368317 22.957640 24.624960 26.355219 28.131723 29.939621 31.770128 33.628162 35.527065 37.491879 39.520561 41.600300 43.724358 45.870792 48.012539 50.117760 52.157761 54.105595 55.931770 57.607155 59.106865 60.403851 61.473911 62.299896
3.284483 3.894938 4.542866 5.225042 5.931796 6.651386 7.375632 8.097773 8.808560 9.500494 10.172691 10.819323 11.434091 12.011475 12.544335 13.029686 13.468347 13.860391 14.208930 14.516211 14.777597 14.992322 15.164503 15.295826 15.384872 15.433376 15.446581 15.430426 15.391534 15.348227 15.319262 15.331847 15.430809 15.664372 16.084362 16.710449 17.537546 18.550449 19.725765 21.033201 22.455084 23.977221 25.590052 27.280069 29.032505 30.826235 32.645077 34.486401 36.360207 38.286850 40.285538 42.345531 44.463963 46.637123 48.846684 51.056515 53.229412 55.334591 57.343117 59.227699 60.959068 62.512173 63.862263 64.980309 65.846046
4.252364 4.987916 5.762126 6.568684 7.393699 8.226540 9.058703 9.881228 10.683912 11.462728 12.214206 12.931550 13.609341 14.239840 14.819212 15.349345 15.832812 16.270746 16.661224 17.002172 17.294178 17.541067 17.741619 17.895634 18.001848 18.064423 18.091694 18.086163 18.051693 18.008015 17.976068 17.986097 18.084686 18.322674 18.754616 19.394493 20.235172 21.261068 22.453569 23.786510 25.229380 26.774319 28.408136 30.114605 31.879356 33.682808 35.505428 37.351063 39.232063 41.175114 43.188663 45.263855 47.405117 49.603077 51.839890 54.086105 56.299850 58.444687 60.491329 62.410690 64.173996 65.754654 67.130135 68.275894 69.167145
5.406481 6.274447 7.181749 8.116201 9.063583 10.012901 10.955038 11.878792 12.774705 13.640525 14.469067 15.253438 15.987635 16.668062 17.297739 17.882044 18.420143 18.906521 19.339577 19.720415 20.049831 20.327902 20.556667 20.734699 20.864199 20.950718 20.996397 20.999504 20.968973 20.925440 20.891701 20.897503 20.992653 21.234255 21.671839 22.316017 23.157516 24.184023 25.376543 26.713991 28.176348 29.741528 31.392122 33.111366 34.880939 36.682156 38.498566 40.338223 42.218048 44.162804 46.175415 48.254295 50.400597 52.607109 54.847996 57.095585 59.319485 61.479614 63.540539 65.473862 67.250839 68.841248 70.222771 71.373489 72.268188
6.736919 7.743572 8.787711 9.852520 10.924465 11.992601 13.046101 14.072374 15.064578 16.018257 16.924736 17.777025 18.573269 19.314016 20.003998 20.645454 21.233349 21.765392 22.244892 22.667700 23.033974 23.344427 23.601336 23.806900 23.964203 24.074345 24.136379 24.149830 24.125401 24.084780 24.046967 24.044655 24.132095 24.373152 24.811754 25.450466 26.282984 27.297058 28.478157 29.808964 31.277794 32.859711 34.520504 36.242481 38.004799 39.791817 41.593346 43.419006 45.289513 47.221233 49.218136 51.285023 53.422230 55.617004 57.844482 60.074875 62.280182 64.426605 66.480545 68.406860 70.177437 71.762749 73.134964 74.274948 75.160637
8.230515 9.380337 10.562581 11.759962 12.958914 14.148915 15.316394 16.447815 17.538401 18.581068 19.567347 20.496719 21.367746 22.183025 22.944695 23.647179 24.285286 24.864134 25.383833 25.844673 26.246199 26.587988 26.874258 27.105970 27.284851 27.413677 27.489225 27.515980 27.500816 27.461737 27.419123 27.405888 27.483501 27.715107 28.143278 28.768812 29.582767 30.575724 31.737038 33.058090 34.520809 36.098610 37.758663 39.472229 41.217514 42.981041 44.758904 46.561909 48.409981 50.314770 52.284904 54.325592 56.437645 58.603832 60.797646 62.993809 65.162178 67.271812 69.291290 71.189987 72.934174 74.494644 75.844421 76.961670 77.830147
9.871598 11.166831 12.489641 13.823563 15.153261 16.466593 17.749666 18.990080 20.182688 21.317616 22.393967 23.412355 24.371826 25.272448 26.110067 26.877644 27.576513 28.207836 28.769016 29.262108 29.690573 30.063061 30.374290 30.622932 30.812943 30.949163 31.034496 31.070602 31.061008 31.023043 30.974930 30.950588 31.012661 31.229380 31.637691 32.239937 33.028309 33.994255 35.131462 36.430878 37.873440 39.428066 41.070820 42.767216 44.487213 46.216183 47.958427 49.730289 51.544407 53.409195 55.340378 57.341934 59.412262 61.531933 63.675789 65.818565 67.933807 69.989868 71.953255 73.799011 75.497650 77.018127 78.333374 79.423317 80.267784
11.644197 13.088352 14.554299 16.025991 17.489628 18.930725 20.332134 21.683689 22.979927 24.217653 25.397072 26.517141 27.574217 28.564924 29.483000 30.326578 31.094011 31.783110 32.391552 32.922688 33.383781 33.777649 34.104126 34.363777 34.557079 34.690632 34.768269 34.795654 34.779724 34.736103 34.680683 34.640011 34.682285 34.877117 35.259705 35.831478 36.588318 37.523315 38.628326 39.891869 41.297665 42.817818 44.424484 46.090599 47.775272 49.461742 51.158455 52.888294 54.655537 56.469910 58.348145 60.296684 62.309307 64.366295 66.443878 68.517639 70.561020 72.546967 74.439728 76.214508 77.849579 79.318932 80.590622 81.640640 82.449883
13.533192 15.126359 16.738924 18.352823 19.952129 21.521072 23.042810 24.509089 25.917467 27.268326 28.561693 29.792967 30.957148 32.046116 33.055824 33.982994 34.824924 35.578075 36.242111 36.823074 37.322636 37.739567 38.075363 38.336159 38.531300 38.656517 38.714840 38.716450 38.670105 38.593899 38.509716 38.442631 38.456802 38.622070 38.972828 39.509331 40.227386 41.122749 42.185333 43.403595 44.760555 46.231499 47.788063 49.404381 51.044914 52.680592 54.323383 55.999454 57.706455 59.458672 61.272518 63.152664 65.092171 67.071671 69.067368 71.055672 73.012093 74.911255 76.722321 78.417458 79.977661 81.379402 82.593742 83.591042 84.351173
15.519801 17.265945 19.026224 20.782330 22.519028 24.217205 25.859657 27.445675 28.978222 30.455505 31.874514 33.226238 34.501080 35.695091 36.806042 37.826080 38.750683 39.575813 40.305428 40.939846 41.478050 41.918777 42.264584 42.525257 42.710789 42.822895 42.860725 42.831669 42.748936 42.625332 42.484653 42.355194 42.313763 42.433296 42.743595 43.237171 43.908115 44.752724 45.762333 46.926144 48.223946 49.631809 51.126495 52.677235 54.258160 55.835529 57.415577 59.025558 60.661266 62.339237 64.076241 65.874443 67.725868 69.612534 71.511711 73.400177 75.256615 77.057129 78.777573 80.385139 81.858665 83.178329 84.319969 85.252083 85.951584
17.587337 19.485111 21.393936 23.293396 25.165648 26.991503 28.760546 30.481085 32.149296 33.761169 35.310970 36.787666 38.181911 39.492760 40.710983 41.826820 42.836498 43.738403 44.535244 45.222115 45.798626 46.263042 46.621029 46.882706 47.054504 47.142422 47.155754 47.096088 46.972565 46.799362 46.598385 46.397526 46.271175 46.308617 46.548023 46.979939 47.593060 48.376743 49.322388 50.419601 51.647072 52.982315 54.402546 55.877426 57.381668 58.890190 60.398178 61.931187 63.484650 65.076653 66.724663 68.427071 70.176453 71.955849 73.745056 75.522141 77.268433 78.962631 80.580482 82.090576 83.467857 84.693756 85.747887 86.603218 87.231857
19.712807 21.762970 23.818436 25.858252 27.865215 29.824020 31.733709 33.595066 35.404648 37.158031 38.845776 40.453098 41.973568 43.402172 44.726974 45.938641 47.035004 48.016136 48.878208 49.616291 50.230049 50.718529 51.090328 51.351898 51.509708 51.571293 51.549694 51.456707 51.291595 51.065845 50.803368 50.531124 50.316460 50.250584 50.382977 50.722549 51.253353 51.959873 52.828133 53.846157 54.992371 56.244228 57.579342 58.968456 60.383999 61.810066 63.237095 64.682388 66.143486 67.638359 69.184586 70.777199 72.411743 74.072159 75.739548 77.396362 79.023987 80.602219 82.107414 83.508308 84.780640 85.903946 86.860802 87.626541 88.175537
21.874846 24.073393 26.272419 28.452297 30.597660 32.698975 34.752419 36.761124 38.720058 40.619709 42.446808 44.185337 45.831501 47.375896 48.805420 50.112461 51.297276 52.354935 53.279560 54.067352 54.716846 55.230728 55.614929 55.875122 56.019325 56.054985 55.997684 55.860062 55.651573 55.373333 55.048374 54.706833 54.400837 54.223564 54.235386 54.452507 54.874035 55.478844 56.248264 57.171383 58.223896 59.381317 60.621445 61.914459 63.232388 64.562767 65.898857 67.247078 68.606209 69.993477 71.425163 72.896255 74.403320 75.934723 77.472565 78.999405 80.499710 81.952362 83.335266 84.617180 85.775826 86.789703 87.640778 88.308151 88.768990
24.047083 26.390757 28.732759 31.054060 33.341965 35.588493 37.793041 39.954967 42.064072 44.108921 46.071457 47.940136 49.708450 51.365219 52.896881 54.298786 55.569714 56.700176 57.684860 58.519650 59.204422 59.742401 60.137043 60.395832 60.526031 60.537216 60.443111 60.257919 59.997688 59.668236 59.281883 58.871063 58.472347 58.178490 58.064087 58.147808 58.432022 58.911030 59.563274 60.368778 61.309746 62.361168 63.495380 64.683182 65.894279 67.118019 68.352692 69.595497 70.843468 72.112770 73.419205 74.758308 76.128174 77.521820 78.921875 80.310791 81.673775 82.992699 84.244286 85.399582 86.436226 87.334633 88.074394 88.637306 89.001991
26.205326 28.692669 31.176844 33.638680 36.072380 38.470623 40.828041 43.142101 45.398552 47.582623 49.676231 51.670731 53.556816 55.321140 56.951878 58.446800 59.798725 60.997810 62.039043 62.918011 63.636887 64.196411 64.600189 64.856613 64.972359 64.958923 64.828247 64.595551 64.279305 63.895985 63.451004 62.968903 62.479702 62.067844 61.821625 61.765587 61.901989 62.230930 62.744045 63.418449 64.228615 65.154701 66.171753 67.244637 68.340416 69.449188 70.571388 71.700508 72.828621 73.971642 75.142799 76.341080 77.567078 78.814323 80.068375 81.311882 82.529739 83.706047 84.819298 85.841263 86.749603 87.526733 88.151260 88.604904 88.869614
28.327641 30.956015 33.577637 36.183292 38.766621 41.315063 43.823738 46.283966 48.680981 50.996983 53.217064 55.331512 57.328949 59.195366 60.921761 62.504307 63.931374 65.194557 66.287834 67.208549 67.958771 68.537041 68.948303 69.200279 69.301849 69.262421 69.095245 68.816483 68.446022 68.003654 67.500763 66.947090 66.372070 65.843636 65.461601 65.259956 65.243141 65.411911 65.764725 66.290718 66.958626 67.743477 68.624779 69.572815 70.545769 71.530937 72.531754 73.537949 74.539368 75.548782 76.576790 77.627708 78.702286 79.796135 80.896729 81.988106 83.054100 84.080391 85.049110 85.932243 86.707581 87.358414 87.864761 88.206543 88.369667
30.391525 33.153759 35.914177 38.664585 41.394543 44.089832 46.742653 49.341339 51.869884 54.309662 56.649670 58.876938 60.977982 62.940628 64.757645 66.420403 67.916496 69.238243 70.379013 71.338531 72.116142 72.709984 73.126152 73.372055 73.458138 73.392334 73.188583 72.865234 72.442772 71.941795 71.376427 70.753601 70.097084 69.460320 68.939201 68.587624 68.413315 68.417114 68.600525 68.959961 69.471519 70.105972 70.839081 71.645775 72.487976 73.342995 74.212334 75.088791 75.956879 76.826187 77.706108 78.604233 79.520714 80.454689 81.395660 82.328407 83.237709 84.109200 84.927200 85.667046 86.305962 86.827354 87.213470 87.442802 87.503387
32.370987 35.265129 38.163490 41.054302 43.925369 46.760059 49.547112 52.274899 54.925201 57.480766 59.931957 62.262959 64.459160 66.511246 68.411560 70.146469 71.704895 73.078781 74.262840 75.256439 76.056702 76.662842 77.080727 77.319252 77.387779 77.294785 77.055260 76.688622 76.216713 75.658241 75.027679 74.337822 73.604416 72.871567 72.212570 71.708099 71.373215 71.209869 71.219910 71.401817 71.744492 72.218468 72.795784 73.450958 74.149506 74.867455 75.598709 76.337334 77.067085 77.790688 78.519623 79.259766 80.012901 80.781891 81.558105 82.326973 83.075653 83.789017 84.452797 85.045357 85.545425 85.935982 86.200348 86.317505 86.276268
34.246025 37.268715 40.299389 43.323723 46.326710 49.290730 52.201237 55.047157 57.808315 60.470627 63.023071 65.447685 67.730110 69.863708 71.837852 73.636391 75.249733 76.669373 77.891357 78.913231 79.731209 80.345741 80.762100 80.991173 81.040550 80.919601 80.644875 80.236504 79.716728 79.102333 78.407646 77.650894 76.847824 76.028793 75.242271 74.584183 74.087044 73.755310 73.590134 73.592987 73.755173 74.059967 74.475487 74.973434 75.520790 76.090820 76.678444 77.274460 77.859367 78.435333 79.009888 79.587402 80.174866 80.774361 81.381393 81.983025 82.567635 83.120949 83.629150 84.072182 84.431519 84.690704 84.833145 84.839340 84.698059
35.996284 39.140816 42.295654 45.443485 48.567142 51.649105 54.671455 57.623135 60.483578 63.241817 65.884384 68.391571 70.750671 72.956192 74.994026 76.847435 78.507957 79.966240 81.219658 82.263405 83.094162 83.712708 84.124557 84.340912 84.369568 84.220322 83.910927 83.462410 82.895599 82.226837 81.470909 80.648758 79.781502 78.883774 77.991653 77.182373 76.523170 76.022850 75.682465 75.506302 75.486053 75.613319 75.861595 76.198868 76.590950 77.007690 77.443382 77.892937 78.329132 78.754745 79.172318 79.585945 80.006058 80.433472 80.868164 81.300339 81.718849 82.111504 82.463676 82.756523 82.974884 83.103004 83.124825 83.022346 82.783905
37.600887 40.857765 44.126545 47.385586 50.617611 53.804718 56.926205 59.970703 62.918743 65.760277 68.480629 71.058723 73.483810 75.750496 77.841293 79.740494 81.439377 82.928635 84.206306 85.265198 86.103508 86.721245 87.125504 87.326202 87.332024 87.154198 86.810623 86.323212 85.710365 84.989052 84.175537 83.291641 82.362587 81.395599 80.417130 79.473427 78.653885 77.986298 77.472610 77.118584 76.918312 76.864388 76.942352 77.115608 77.350311 77.613075 77.891739 78.189919 78.476639 78.747986 79.007729 79.258286 79.509514 79.765083 80.025940 80.287315 80.539360 80.771515 80.968483 81.112137 81.191055 81.189659 81.093002 80.884453 80.552948
39.039318 42.397770 45.767315 49.124275 52.451157 55.729652 58.936871 62.060574 65.083389 67.995010 70.779984 73.416977 75.896545 78.212273 80.345192 82.280357 84.008255 85.520348 86.814278 87.881622 88.721703 89.333908 89.726967 89.909142 89.890541 89.683487 89.306404 88.780792 88.123329 87.351547 86.484161 85.542801 84.553658 83.527359 82.476105 81.428566 80.456078 79.624084 78.940552 78.411766 78.035263 77.802940 77.707413 77.716400 77.792938 77.903069 78.026108 78.167419 78.304367 78.419701 78.520973 78.610428 78.693687 78.779388 78.867172 78.957565 79.044350 79.116936 79.160507 79.157356 79.099449 78.971603 78.759354 78.448143 78.028221
40.293232 43.739693 47.195675 50.636467 54.043888 57.399178 60.678215 63.866997 66.950737 69.918625 72.754440 75.437683 77.959465 80.311607 82.475609 84.436440 86.183601 87.709793 89.011711 90.080826 90.916534 91.518639 91.896210 92.057129 92.012337 91.775543 91.365540 90.802338 90.101746 89.282433 88.364777 87.370598 86.325409 85.245621 84.133308 83.008591 81.910347 80.919601 80.071198 79.372307 78.824493 78.419533 78.151535 77.998039 77.916153 77.876205 77.849106 77.834534 77.818436 77.778145 77.721222 77.651245 77.572342 77.490158 77.408257 77.329475 77.253006 77.168480 77.061401 76.915085 76.724060 76.473770 76.149994 75.740128 75.236717
41.345528 44.864952 48.392361 51.902203 55.375088 58.792095 62.128662 65.367882 68.498039 71.507820 74.380150 77.096512 79.647507 82.023514 84.206886 86.182549 87.939003 89.470284 90.771767 91.835793 92.660919 93.248245 93.606354 93.743050 93.670204 93.403099 92.960426 92.360451 91.618622 90.755127 89.791069 88.749092 87.653198 86.523293 85.361168 84.176849 82.991402 81.861534 80.854584 79.992157 79.279053 78.708435 78.273697 77.959236 77.722641 77.535820 77.365242 77.200050 77.029915 76.835533 76.622108 76.395790 76.159615 75.915344 75.669373 75.425903 75.189178 74.951340 74.696953 74.412239 74.092957 73.725304 73.294846 72.791534 72.209526
42.181309 45.758018 49.341022 52.904446 56.427475 59.890614 63.269730 66.544868 69.706573 72.743484 75.637932 78.373611 80.940590 83.327835 85.518387 87.497711 89.253510 90.780724 92.073174 93.124954 93.933441 94.501266 94.836006 94.945671 94.843185 94.545143 94.069756 93.434219 92.653458 91.749344 90.742699 89.657990 88.517342 87.341995 86.138451 84.907669 83.663643 82.435448 81.285843 80.267845 79.397110 78.668808 78.075409 77.603691 77.218666 76.888741 76.582169 76.275597 75.955147 75.607086 75.240753 74.862518 74.474091 74.077293 73.673782 73.273003 72.881035 72.494347 72.097221 71.679886 71.237946 70.758537 70.227440 69.636467 68.980782
42.788761 46.406376 50.028835 53.629959 57.187550 60.681023 64.087273 67.384155 70.562042 73.611214 76.513443 79.254059 81.823952 84.209587 86.394936 88.366539 90.111702 91.625320 92.900558 93.932678 94.718742 95.262070 95.569695 95.649757 95.516167 95.186447 94.678864 94.009033 93.192207 92.250717 91.206078 90.083435 88.904701 87.690636 86.452156 85.185204 83.898712 82.613342 81.359550 80.201439 79.181831 78.304871 77.561874 76.940346 76.413513 75.946098 75.510979 75.074417 74.609894 74.112122 73.597610 73.073227 72.539101 71.996956 71.448189 70.899834 70.360207 69.829704 69.295853 68.752510 68.194481 67.609634 66.984581 66.312462 65.587921
43.159294 46.800987 50.446590 54.069241 57.645824 61.153759 64.571472 67.876183 71.055084 74.101524 76.997208 79.728462 82.287834 84.659172 86.826927 88.779366 90.504036 91.994530 93.244537 94.249733 95.007805 95.521584 95.798538 95.846603 95.680763 95.318382 94.779106 94.076477 93.226616 92.251694 91.174065 90.018532 88.808228 87.562988 86.295967 85.003159 83.685562 82.363838 81.054634 79.794548 78.641586 77.625809 76.743225 75.981110 75.319466 74.723389 74.166794 73.610405 73.012581 72.373505 71.716415 71.052505 70.380798 69.701805 69.019112 68.336464 67.660316 66.993309 66.329956 65.667900 65.001205 64.317863 63.606258 62.859940 62.071358
43.286842 46.936481 50.588696 54.216320 57.795883 61.303070 64.716652 68.014496 71.180412 74.209412 77.084435 79.792618 82.327507 84.672134 86.810539 88.732437 90.426445 91.884819 93.101875 94.072990 94.797272 95.276993 95.520050 95.534035 95.334343 94.939148 94.368507 93.634911 92.755325 91.751282 90.645706 89.463020 88.227203 86.958939 85.671211 84.360779 83.024536 81.677795 80.341118 79.030067 77.783913 76.645912 75.634262 74.741669 73.953873 73.238503 72.568741 71.901169 71.183594 70.416550 69.623367 68.828705 68.027870 67.222397 66.416313 65.614578 64.815437 64.022713 63.239567 62.466442 61.698605 60.924591 60.134285 59.320084 58.473248
43.168205 46.810905 50.452995 54.069187 57.635750 61.127487 64.521568 67.797676 70.937721 73.934853 76.775467 79.447243 81.943855 84.249657 86.347496 88.227699 89.880882 91.298798 92.475105 93.405510 94.090263 94.531960 94.737839 94.715836 94.481232 94.053482 93.451805 92.689590 91.783501 90.754990 89.626480 88.423264 87.168274 85.884651 84.584862 83.264542 81.920944 80.562637 79.210129 77.881447 76.592430 75.374619 74.253845 73.241982 72.337852 71.513237 70.739288 69.967110 69.144585 68.263962 67.349922 66.431175 65.511238 64.590919 63.673756 62.763824 61.858742 60.956085 60.065842 59.191021 58.329765 57.473537 56.612736 55.736477 54.837830
42.804222 46.425301 50.041130 53.630013 57.167515 60.629135 63.989273 67.229126 70.330299 73.282631 76.075829 78.698212 81.143402 83.398369 85.444954 87.273048 88.875465 90.244576 91.372871 92.256821 92.896500 93.296211 93.461861 93.402588 93.132629 92.672195 92.040520 91.252129 90.322769 89.274658 88.129044 86.911438 85.644615 84.352875 83.050171 81.728668 80.385902 79.030136 77.674736 76.341148 75.044617 73.793640 72.607758 71.504013 70.495155 69.572754 68.702362 67.833817 66.917824 65.941452 64.924789 63.892742 62.864353 61.840923 60.826168 59.820225 58.820374 57.829220 56.848873 55.884949 54.939423 54.009731 53.085976 52.154217 51.210438
42.199001 45.783058 49.358715 52.904381 56.397152 59.813847 63.126926 66.316574 69.365219 72.262077 74.995316 77.556068 79.937996 82.130089 84.115219 85.882095 87.424278 88.736031 89.810120 90.641953 91.231880 91.585289 91.708878 91.610794 91.305389 90.812668 90.152748 89.340210 88.391571 87.328438 86.171837 84.946251 83.675743 82.383423 81.085533 79.772171 78.439171 77.095955 75.752937 74.426987 73.136696 71.885933 70.675392 69.523903 68.447105 67.443665 66.485825 65.528831 64.529472 63.476234 62.375202 61.248203 60.121971 59.009205 57.908524 56.819523 55.738323 54.672958 53.624290 52.588871 51.572609 50.579124 49.598400 48.618889 47.636932
41.359879 44.891628 48.413754 51.901619 55.335075 58.692051 61.945103 65.071960 68.055321 70.885475 73.548500 76.036217 78.344025 80.462311 82.375885 84.073097 85.546867 86.793358 87.806938 88.581474 89.118111 89.421494 89.500885 89.363014 89.022667 88.498734 87.812317 86.978394 86.014191 84.940804 83.779427 82.553368 81.286339 80.002121 78.716621 77.419724 76.105637 74.783821 73.465416 72.162262 70.890015 69.652237 68.447624 67.282349 66.178719 65.131981 64.114304 63.082310 62.010719 60.892895 59.728806 58.529446 57.322838 56.131039 54.958035 53.796700 52.650967 51.525196 50.421421 49.336678 48.270737 47.225407 46.195633 45.176109 44.163280
40.297230 43.762039 47.216640 50.634899 53.994976 57.278080 60.458317 63.511292 66.417679 69.169525 71.754356 74.158928 76.382561 78.417770 80.250008 81.869705 83.268181 84.442215 85.388885 86.102287 86.582108 86.832870 86.865807 86.688240 86.313171 85.759750 85.048714 84.197159 83.220779 82.142494 80.981880 79.762856 78.507500 77.239799 75.974724 74.701469 73.414742 72.124008 70.839218 69.571426 68.330902 67.116295 65.929253 64.779533 63.677067 62.617535 61.573139 60.501827 59.384830 58.220863 57.011925 55.765541 54.500797 53.245678 52.008621 50.790890 49.594299 48.423180 47.278004 46.157257 45.062908 43.985958 42.921719 41.871319 40.834980
39.024574 42.408482 45.781960 49.118851 52.394173 55.590565 58.685146 61.652992 64.473312 67.136108 69.632973 71.948326 74.078964 76.022705 77.765953 79.299881 80.617233 81.713478 82.587456 83.235245 83.656006 83.852905 83.837471 83.619560 83.211243 82.630325 81.897789 81.031448 80.047722 78.969032 77.815613 76.610626 75.375305 74.132545 72.896095 71.653488 70.401100 69.150459 67.908440 66.684616 65.485847 64.306023 63.148216 62.025742 60.946232 59.898132 58.849918 57.768150 56.636276 55.455154 54.232853 52.974503 51.685024 50.383785 49.098598 47.837925 46.605610 45.401817 44.229443 43.087986 41.974735 40.882755 39.807739 38.742695 37.691719
37.558075 40.847767 44.127537 47.370811 50.552048 53.650414 56.647953 59.519810 62.245815 64.811119 67.210640 69.430664 71.462906 73.307648 74.955566 76.397278 77.627419 78.642006 79.439102 80.017159 80.376678 80.518845 80.455147 80.196312 79.755852 79.149933 78.399361 77.522247 76.535851 75.461899 74.321701 73.137268 71.930061 70.721703 69.520424 68.315956 67.105377 65.901039 64.710091 63.538303 62.385590 61.249523 60.135025 59.049965 58.001472 56.981487 55.952217 54.879520 53.754513 52.583252 51.373283 50.130970 48.855885 47.548370 46.239769 44.957561 43.704483 42.484280 41.300091 40.148319 39.026138 37.929829 36.854523 35.793888 34.748863
35.916622 39.099682 42.273697 45.411934 48.488953 51.481564 54.372017 57.138199 59.760765 62.222580 64.517448 66.635010 68.566002 70.306770 71.854118 73.199181 74.337090 75.266281 75.984085 76.489754 76.785278 76.872925 76.761459 76.462639 75.990906 75.362839 74.597977 73.714813 72.730446 71.666908 70.545639 69.388786 68.216965 67.051094 65.892639 64.731812 63.571346 62.419487 61.284294 60.169167 59.067482 57.980503 56.917461 55.880676 54.874954 53.891415 52.889694 51.843872 50.747147 49.605793 48.429970 47.224373 45.986496 44.714149 43.417286 42.132771 40.878445 39.660027 38.479553 37.331039 36.212135 35.120831 34.053593 33.005703 31.976452
34.121918 37.185844 40.243179 43.266071 46.229328 49.108654 51.885231 54.538254 57.048378 59.400444 61.585957 63.595444 65.420044 67.056259 68.499863 69.745209 70.788490 71.628502 72.265190 72.698029 72.928192 72.960609 72.802643 72.466415 71.965179 71.316994 70.541954 69.657494 68.681030 67.633034 66.537361 65.414200 64.285988 63.168175 62.059258 60.949089 59.844193 58.751720 57.675182 56.615501 55.569088 54.538609 53.528942 52.546242 51.597916 50.658558 49.691723 48.678883 47.623978 46.532764 45.409641 44.255421 43.070335 41.857365 40.617603 39.360191 38.123188 36.923336 35.757484 34.624550 33.523293 32.449711 31.401037 30.373734 29.367413
32.196674 35.130936 38.060860 40.959324 43.800159 46.558922 49.215374 51.750198 54.142590 56.379150 58.450001 60.348351 62.063290 63.592033 64.932846 66.077530 67.024948 67.774773 68.328613 68.688484 68.854439 68.831772 68.628281 68.257309 67.730591 67.065041 66.282623 65.402008 64.439415 63.413921 62.349148 61.267094 60.188828 59.124634 58.069324 57.016579 55.973007 54.943123 53.925430 52.921047 51.931728 50.959503 50.007847 49.086067 48.199718 47.310402 46.385666 45.418911 44.414970 43.380150 42.317604 41.228905 40.115990 38.976303 37.810978 36.626549 35.434002 34.264645 33.128052 32.024345 30.951893 29.909313 28.891096 27.893833 26.918905
30.164946 32.960587 35.754597 38.519257 41.229919 43.861710 46.392490 48.804668 51.077221 53.194691 55.146820 56.930309 58.535439 59.955738 61.191540 62.238876 63.091751 63.752319 64.224365 64.510490 64.613945 64.538887 64.292000 63.887840 63.339840 62.662403 61.875954 61.002625 60.059753 59.064190 58.037193 57.002377 55.980465 54.973122 53.975548 52.984840 52.005444 51.037823 50.077702 49.130150 48.196869 47.281925 46.394974 45.541988 44.715221 43.875198 43.000927 42.091778 41.149525 40.176849 39.180103 38.164104 37.129166 36.072262 34.995262 33.901741 32.793579 31.683069 30.590031 29.526884 28.495068 27.491066 26.510448 25.553875 24.623114
28.052570 30.701164 33.352139 35.976078 38.549015 41.047779 43.449356 45.734318 47.885048 49.882805 51.716938 53.381935 54.875309 56.188820 57.320251 58.270229 59.033836 59.609436 60.001781 60.216843 60.259338 60.134365 59.849014 59.414421 58.847797 58.163677 57.379799 56.517960 55.598507 54.639111 53.657906 52.677689 51.715363 50.767979 49.831295 48.904697 47.987663 47.076607 46.175648 45.283569 44.404991 43.553246 42.734386 41.950172 41.179390 40.390980 39.573185 38.725666 37.848381 36.946537 36.026279 35.088116 34.134827 33.165470 32.179615 31.179733 30.170006 29.154358 28.134384 27.128893 26.147566 25.190149 24.257030 23.348099 22.466618
25.887718 28.380590 30.881086 33.359772 35.790245 38.149925 40.418186 42.573814 44.599907 46.478966 48.197060 49.746113 51.125957 52.332588 53.363041 54.217499 54.893661 55.390488 55.710068 55.858608 55.844002 55.672447 55.352386 54.893665 54.312614 53.625370 52.849792 52.006767 51.115643 50.196308 49.267601 48.349556 47.449249 46.563236 45.688725 44.823376 43.961193 43.104248 42.256901 41.420727 40.604424 39.818062 39.067692 38.346619 37.631794 36.895878 36.135315 35.350544 34.542759 33.715733 32.874310 32.020790 31.155863 30.276218 29.382891 28.479942 27.572399 26.660820 25.742914 24.819094 23.903687 23.005350 22.127171 21.273491 20.448551
23.695660 26.028294 28.372084 30.699490 32.984127 35.202591 37.333466 39.357624 41.257759 43.018101 44.622372 46.061104 47.331028 48.432785 49.363491 50.124851 50.718082 51.140343 51.393669 51.484676 51.419704 51.207493 50.857704 50.380436 49.790859 49.106827 48.344620 47.525223 46.669876 45.796642 44.924911 44.071331 43.234215 42.411945 41.594826 40.779167 39.966198 39.159206 38.364235 37.587547 36.837090 36.117496 35.431709 34.772022 34.108288 33.425262 32.720825 31.999306 31.261694 30.511066 29.751953 28.983723 28.206251 27.418669 26.622011 25.819887 25.018274 24.211662 23.397942 22.578503 21.752254 20.927330 20.116772 19.329094 18.562889
21.500593 23.670650 25.854794 28.027256 30.162001 32.236687 34.229828 36.122173 37.895023 39.535740 41.029846 42.363014 43.529274 44.530956 45.367626 46.039806 46.551640 46.904713 47.098831 47.138466 47.032646 46.789486 46.417755 45.929535 45.338043 44.662941 43.921570 43.132420 42.317547 41.496807 40.688511 39.897049 39.121174 38.353733 37.582554 36.809509 36.039906 35.283749 34.544430 33.828205 33.141529 32.488342 31.863924 31.257517 30.641331 30.010462 29.364010 28.704679 28.035271 27.359962 26.680410 25.996479 25.307863 24.613834 23.917160 23.219271 22.522228 21.819429 21.109123 20.391804 19.667078 18.937214 18.209124 17.494497 16.793024
19.325529 21.332663 23.355804 25.371866 27.356159 29.285275 31.139311 32.899681 34.548908 36.070469 37.454086 38.686592 39.758362 40.666603 41.415638 42.006474 42.442673 42.729820 42.869473 42.865868 42.726639 42.460621 42.077770 41.589108 41.006908 40.348110 39.634403 38.883183 38.115921 37.353329 36.607666 35.874466 35.147030 34.415119 33.679203 32.947243 32.226749 31.522007 30.838171 30.181843 29.557663 28.962381 28.393021 27.829817 27.259861 26.680180 26.090643 25.493204 24.890091 24.286053 23.683916 23.083565 22.485281 21.886501 21.289488 20.695871 20.102057 19.500307 18.890545 18.271248 17.643555 17.010710 16.379301 15.747737 15.117213
0.000000 0.000000 0.000000 0.000000 0.000000 0.000000 0.000000 0.000000 0.000000 0.000000 0.000000 0.000000 0.000000 0.000000 0.000000 0.000000 0.000000 0.000000 0.000000 0.000000 0.000000 0.000000 0.000000 0.000000 0.000000 0.000000 0.000000 0.000000 0.000000 0.000000 0.000000 0.000000 0.000000 0.000000 0.000000 0.000000 0.000000 0.000000 0.000000 0.000000 0.000000 0.000000 0.000000 0.000000 0.000000 0.000000 0.000000 0.000000 0.000000 0.000000 0.000000 0.000000 0.000000 0.000000 0.000000 0.000000 0.000000 0.000000 0.000000 0.000000 0.000000 0.000000 0.000000 0.000000 0.000000