64 64
1.545831 1.269872 1.025582 0.810005 0.621957 0.465757 0.344301 0.255250 0.191713 0.148027 0.118259 0.093217 0.071598 0.054263 0.040341 0.029460 0.020606 0.013806 0.009026 0.005458 0.003074 0.001208 0.000141 0.000000 0.000000 0.000000 0.000000 0.000000 0.000000 0.000000 0.000000 0.000000 0.000000 0.001840 0.010795 0.034241 0.077371 0.144360 0.243015 0.379712 0.560098 0.783018 1.049941 1.358222 1.702835 2.076077 2.466921 2.864066 3.255548 3.629447 3.974933 4.281901 4.541154 4.745075 4.887706 4.964953 4.974719 4.916895 4.793231 4.607457 4.365107 4.073229 3.740512 3.376594 0.000000
1.301298 1.056009 0.837169 0.644333 0.479248 0.346289 0.246600 0.176811 0.128355 0.096730 0.074206 0.054698 0.038845 0.026946 0.017937 0.011281 0.006464 0.003579 0.001815 0.000814 0.000158 0.000000 0.000000 0.000000 0.000000 0.000000 0.000000 0.000000 0.000000 0.000000 0.000000 0.000000 0.000000 0.001464 0.009583 0.032060 0.074282 0.142740 0.244808 0.382929 0.560685 0.780196 1.043382 1.347507 1.686792 2.053824 2.439146 2.831017 3.217827 3.588503 3.931721 4.237104 4.495378 4.698857 4.841498 4.919115 4.929523 4.872610 4.750246 4.566134 4.325938 4.036683 3.706628 3.345134 0.000000
1.071401 0.853208 0.659221 0.491461 0.352199 0.243847 0.165873 0.113332 0.078625 0.056988 0.040068 0.026304 0.016434 0.009522 0.004988 0.002056 0.000720 0.000215 0.000010 0.000000 0.000000 0.000000 0.000000 0.000000 0.000000 0.000000 0.000000 0.000000 0.000000 0.000000 0.000000 0.000000 0.000000 0.000984 0.008039 0.028765 0.069624 0.140102 0.245939 0.387250 0.563848 0.780234 1.039454 1.339390 1.675035 2.037046 2.416294 2.803462 3.187195 3.555835 3.897723 4.202109 4.459408 4.661658 4.802746 4.878572 4.887156 4.828689 4.705437 4.521428 4.282311 3.994902 3.667459 3.309737 0.000000
0.857444 0.665203 0.497122 0.355696 0.243015 0.159047 0.102115 0.065592 0.043184 0.028657 0.017082 0.009006 0.004093 0.001402 0.000158 0.000000 0.000000 0.000000 0.000000 0.000000 0.000000 0.000000 0.000000 0.000000 0.000000 0.000000 0.000000 0.000000 0.000000 0.000000 0.000000 0.000000 0.000000 0.000501 0.006248 0.024632 0.064137 0.137084 0.246255 0.391148 0.569832 0.783720 1.039175 1.335426 1.667138 2.026444 2.404163 2.790464 3.173762 3.542120 3.883514 4.186904 4.442716 4.642962 4.781511 4.854275 4.859335 4.796976 4.669681 4.482020 4.240345 3.952178 3.626286 3.271618 0.000000
0.663581 0.496809 0.355501 0.241224 0.154180 0.092224 0.054778 0.032118 0.019193 0.010238 0.004233 0.001263 0.000142 0.000000 0.000000 0.000000 0.000000 0.000000 0.000000 0.000000 0.000000 0.000000 0.000000 0.000000 0.000000 0.000000 0.000000 0.000000 0.000000 0.000000 0.000000 0.000000 0.000000 0.000144 0.004332 0.020088 0.058877 0.133872 0.246413 0.394647 0.576327 0.790951 1.044515 1.338471 1.668544 2.029126 2.409948 2.798576 3.182991 3.551389 3.891943 4.193817 4.447505 4.645028 4.780279 4.849215 4.849975 4.782912 4.650594 4.457720 4.210900 3.918333 3.589664 3.234712 0.000000
0.491747 0.352228 0.238427 0.150069 0.086213 0.046302 0.024352 0.011945 0.005404 0.001471 0.000158 0.000000 0.000000 0.000000 0.000000 0.000000 0.000000 0.000000 0.000000 0.000000 0.000000 0.000000 0.000000 0.000000 0.000000 0.000000 0.000000 0.000000 0.000000 0.000000 0.000000 0.000000 0.000000 0.000006 0.002544 0.015681 0.054507 0.131545 0.246675 0.398158 0.582831 0.800916 1.057453 1.353803 1.687855 2.051933 2.435805 2.827307 3.213668 3.582403 3.922232 4.222610 4.473973 4.668388 4.799836 4.864368 4.860216 4.787835 4.649886 4.451118 4.198180 3.899605 3.565488 3.206939 0.000000
0.344646 0.232039 0.144727 0.081442 0.040492 0.018992 0.007232 0.002302 0.000181 0.000000 0.000000 0.000000 0.000000 0.000000 0.000000 0.000000 0.000000 0.000000 0.000000 0.000000 0.000000 0.000000 0.000000 0.000000 0.000000 0.000000 0.000000 0.000000 0.000000 0.000000 0.000000 0.000000 0.000000 0.000000 0.001072 0.012325 0.051964 0.130486 0.247920 0.402330 0.590688 0.814609 1.080351 1.385668 1.726581 2.095516 2.482580 2.876340 3.264293 3.634032 3.973604 4.272242 4.520746 4.711456 4.838491 4.898011 4.888373 4.810174 4.666191 4.461263 4.202293 3.897927 3.558031 3.193918 0.000000
0.224275 0.138427 0.076912 0.037013 0.015301 0.004715 0.000745 0.000000 0.000000 0.000000 0.000000 0.000000 0.000000 0.000000 0.000000 0.000000 0.000000 0.000000 0.000000 0.000000 0.000000 0.000000 0.000000 0.000000 0.000000 0.000000 0.000000 0.000000 0.000000 0.000000 0.000000 0.000000 0.000000 0.000000 0.000326 0.010894 0.051700 0.131604 0.251120 0.408435 0.602241 0.836144 1.113451 1.431016 1.782034 2.158066 2.549504 2.945732 3.334831 3.704644 4.043351 4.340172 4.585752 4.772468 4.894727 4.948896 4.933469 4.849165 4.698911 4.487757 4.222729 3.912404 3.566800 3.197233 0.000000
0.132529 0.073330 0.034578 0.013240 0.003440 0.000172 0.000000 0.000000 0.000000 0.000000 0.000000 0.000000 0.000000 0.000000 0.000000 0.000000 0.000000 0.000000 0.000000 0.000000 0.000000 0.000000 0.000000 0.000000 0.000000 0.000000 0.000000 0.000000 0.000000 0.000000 0.000000 0.000000 0.000000 0.000000 0.000700 0.012157 0.054020 0.135736 0.257171 0.418813 0.621170 0.866374 1.156508 1.486852 1.849137 2.234542 2.632657 3.032590 3.422970 3.792246 4.129349 4.423680 4.665946 4.848601 4.966049 5.014784 4.993498 4.903060 4.746443 4.528795 4.257246 3.940688 3.589392 3.214373 0.000000
0.070577 0.033381 0.012116 0.002954 0.000106 0.000000 0.000000 0.000000 0.000000 0.000000 0.000000 0.000000 0.000000 0.000000 0.000000 0.000000 0.000000 0.000000 0.000000 0.000000 0.000000 0.000000 0.000000 0.000000 0.000000 0.000000 0.000000 0.000000 0.000000 0.000000 0.000000 0.000000 0.000000 0.000006 0.002324 0.016595 0.059756 0.143073 0.267800 0.436286 0.648531 0.905189 1.207741 1.550265 1.924419 2.320014 2.726243 3.131796 3.524957 3.894857 4.230534 4.521938 4.760325 4.938272 5.050315 5.093110 5.065477 4.968403 4.805139 4.581038 4.303214 3.980536 3.623224 3.242604 0.000000
0.032739 0.011756 0.002949 0.000104 0.000000 0.000000 0.000000 0.000000 0.000000 0.000000 0.000000 0.000000 0.000000 0.000000 0.000000 0.000000 0.000000 0.000000 0.000000 0.000000 0.000000 0.000000 0.000000 0.000000 0.000000 0.000000 0.000000 0.000000 0.000000 0.000000 0.000000 0.000000 0.000000 0.000224 0.005248 0.024303 0.069144 0.154413 0.284709 0.462094 0.683674 0.951584 1.265788 1.620137 2.005648 2.411103 2.825726 3.237797 3.635725 4.007985 4.343453 4.632786 4.867384 5.040191 5.146219 5.182454 5.147939 5.043848 4.873581 4.642452 4.357754 4.028495 3.664773 3.277952 0.000000
0.012358 0.002825 0.000036 0.000000 0.000000 0.000000 0.000000 0.000000 0.000000 0.000000 0.000000 0.000000 0.000000 0.000000 0.000000 0.000000 0.000000 0.000000 0.000000 0.000000 0.000000 0.000000 0.000000 0.000000 0.000000 0.000000 0.000000 0.000000 0.000000 0.000000 0.000000 0.000000 0.000000 0.000921 0.009575 0.034189 0.082386 0.171035 0.309073 0.494987 0.726063 1.004724 1.330057 1.695385 2.090690 2.505950 2.928756 3.347379 3.749864 4.124579 4.460858 4.748900 4.980353 5.148681 5.249030 5.278605 5.236785 5.125113 4.947251 4.708674 4.416731 4.080159 3.709297 3.315189 0.000000
0.003078 0.000039 0.000000 0.000000 0.000000 0.000000 0.000000 0.000000 0.000000 0.000000 0.000000 0.000000 0.000000 0.000000 0.000000 0.000000 0.000000 0.000000 0.000000 0.000000 0.000000 0.000000 0.000000 0.000000 0.000000 0.000000 0.000000 0.000000 0.000000 0.000000 0.000000 0.000000 0.000006 0.002281 0.015223 0.045504 0.099502 0.194563 0.340547 0.534114 0.774381 1.063833 1.399309 1.774573 2.180352 2.604971 3.036220 3.461241 3.867996 4.244705 4.580535 4.866198 5.093601 5.256452 5.350498 5.373470 5.324557 5.205265 5.019385 4.772724 4.472860 4.128636 3.750253 3.348695 0.000000
0.000202 0.000000 0.000000 0.000000 0.000000 0.000000 0.000000 0.000000 0.000000 0.000000 0.000000 0.000000 0.000000 0.000000 0.000000 0.000000 0.000000 0.000000 0.000000 0.000000 0.000000 0.000000 0.000000 0.000000 0.000000 0.000000 0.000000 0.000000 0.000000 0.000000 0.000000 0.000000 0.000142 0.004460 0.021654 0.057574 0.120119 0.224574 0.378235 0.578874 0.827679 1.128416 1.476907 1.865071 2.282864 2.717624 3.156953 3.587866 3.997487 4.374309 4.707870 4.988758 5.209440 5.364459 5.449939 5.463538 5.405287 5.277566 5.083724 4.829053 4.521097 4.169167 3.783512 3.374882 0.000000
0.000000 0.000000 0.000000 0.000000 0.000000 0.000000 0.000000 0.000000 0.000000 0.000000 0.000000 0.000000 0.000000 0.000000 0.000000 0.000000 0.000000 0.000000 0.000000 0.000000 0.000000 0.000000 0.000000 0.000000 0.000000 0.000000 0.000000 0.000000 0.000000 0.000000 0.000000 0.000000 0.000462 0.007336 0.028525 0.070393 0.144438 0.259643 0.420765 0.629964 0.892229 1.209197 1.574191 1.977635 2.408031 2.853108 3.299516 3.734485 4.145430 4.520408 4.848893 5.122335 5.333634 5.477488 5.550291 5.550910 5.480458 5.341008 5.136583 4.873393 4.557873 4.198469 3.805575 3.390331 0.000000
0.000111 0.000000 0.000000 0.000000 0.000000 0.000000 0.000000 0.000000 0.000000 0.000000 0.000000 0.000000 0.000000 0.000000 0.000000 0.000000 0.000000 0.000000 0.000000 0.000000 0.000000 0.000000 0.000000 0.000000 0.000000 0.000000 0.000000 0.000000 0.000000 0.000000 0.000000 0.000000 0.001035 0.010440 0.035347 0.084777 0.170954 0.298460 0.473176 0.698365 0.980034 1.316408 1.698657 2.116800 2.559428 3.013769 3.466544 3.904130 4.314321 4.685520 5.007247 5.270760 5.469361 5.598560 5.655704 5.640419 5.553679 5.398592 5.180539 4.905131 4.580047 4.213510 3.814331 3.393615 0.000000
0.000739 0.000000 0.000000 0.000000 0.000000 0.000000 0.000000 0.000000 0.000000 0.000000 0.000000 0.000000 0.000000 0.000000 0.000000 0.000000 0.000000 0.000000 0.000000 0.000000 0.000000 0.000000 0.000000 0.000000 0.000000 0.000000 0.000000 0.000000 0.000000 0.000000 0.000000 0.000000 0.001879 0.013496 0.042619 0.100902 0.201830 0.349925 0.545561 0.791774 1.093928 1.449628 1.849303 2.282072 2.735764 3.197652 3.654724 4.093595 4.501333 4.866566 5.179383 5.431288 5.615784 5.728509 5.767272 5.732384 5.626126 5.452764 5.217215 4.926692 4.589230 4.213202 3.808116 3.382598 0.000000
0.001755 0.000006 0.000000 0.000000 0.000000 0.000000 0.000000 0.000000 0.000000 0.000000 0.000000 0.000000 0.000000 0.000000 0.000000 0.000000 0.000000 0.000000 0.000000 0.000000 0.000000 0.000000 0.000000 0.000000 0.000000 0.000000 0.000000 0.000000 0.000000 0.000000 0.000000 0.000000 0.002798 0.016534 0.051056 0.124151 0.247347 0.419759 0.638434 0.908526 1.232030 1.606923 2.023465 2.470159 2.934251 3.402698 3.862001 4.299428 4.702614 5.060002 5.361659 5.599790 5.768232 5.862904 5.882105 5.826474 5.698726 5.503761 5.248444 4.940410 4.587788 4.200029 3.785880 3.355147 0.000000
0.003022 0.000138 0.000000 0.000000 0.000000 0.000000 0.000000 0.000000 0.000000 0.000000 0.000000 0.000000 0.000000 0.000000 0.000000 0.000000 0.000000 0.000000 0.000000 0.000000 0.000000 0.000000 0.000000 0.000000 0.000000 0.000000 0.000000 0.000000 0.000000 0.000000 0.000000 0.000000 0.003617 0.020338 0.067819 0.162785 0.309647 0.505827 0.750080 1.045498 1.392065 1.786149 2.218448 2.677612 3.150526 3.623795 4.084075 4.518345 4.914717 5.262149 5.550965 5.773357 5.923632 5.998505 5.996739 5.919207 5.769058 5.551749 5.274486 4.946049 4.575894 4.173452 3.748950 3.311825 0.000000
0.004538 0.000378 0.000000 0.000000 0.000000 0.000000 0.000000 0.000000 0.000000 0.000000 0.000000 0.000000 0.000000 0.000000 0.000000 0.000000 0.000000 0.000000 0.000000 0.000000 0.000000 0.000000 0.000000 0.000000 0.000000 0.000000 0.000000 0.000000 0.000000 0.000000 0.000000 0.000000 0.004746 0.032177 0.099121 0.216666 0.386762 0.606847 0.878242 1.200234 1.569975 1.983291 2.430742 2.900335 3.379942 3.855908 4.315004 4.744485 5.132190 5.467514 5.741473 5.946622 6.077648 6.131502 6.107282 6.006516 5.832998 5.592411 5.292434 4.942419 4.553096 4.135362 3.699519 3.255798 0.000000
0.006057 0.000654 0.000000 0.000000 0.000000 0.000000 0.000000 0.000000 0.000000 0.000000 0.000000 0.000000 0.000000 0.000000 0.000000 0.000000 0.000000 0.000000 0.000000 0.000000 0.000000 0.000000 0.000000 0.000000 0.000000 0.000000 0.000000 0.000000 0.000000 0.000000 0.000000 0.000129 0.012380 0.056682 0.144670 0.284185 0.476590 0.721361 1.020065 1.368751 1.761736 2.193059 2.654530 3.133751 3.618027 4.094402 4.549997 4.971971 5.348917 5.670426 5.927584 6.113705 6.223920 6.255552 6.208213 6.083918 5.886741 5.622945 5.300693 4.929901 4.521661 4.087901 3.640203 3.188798 0.000000
0.007367 0.001011 0.000000 0.000000 0.000000 0.000000 0.000000 0.000000 0.000000 0.000000 0.000000 0.000000 0.000000 0.000000 0.000000 0.000000 0.000000 0.000000 0.000000 0.000000 0.000000 0.000000 0.000000 0.000000 0.000000 0.000000 0.000000 0.000000 0.000000 0.000000 0.000000 0.004067 0.030456 0.094122 0.202919 0.362794 0.577028 0.848145 1.173604 1.547769 1.963174 2.411807 2.885179 3.372078 3.859538 4.334795 4.784480 5.196977 5.560932 5.866443 6.105232 6.270765 6.358784 6.367188 6.296064 6.147931 5.927378 5.641018 5.297430 4.906744 4.480435 4.030917 3.570874 3.111633 0.000000
0.008317 0.001386 0.000000 0.000000 0.000000 0.000000 0.000000 0.000000 0.000000 0.000000 0.000000 0.000000 0.000000 0.000000 0.000000 0.000000 0.000000 0.000000 0.000000 0.000000 0.000000 0.000000 0.000000 0.000000 0.000000 0.000000 0.000000 0.000000 0.000000 0.000000 0.001407 0.015946 0.059899 0.142934 0.271210 0.450670 0.688636 0.986252 1.336989 1.734241 2.170091 2.634657 3.118291 3.610626 4.098793 4.570334 5.012933 5.414140 5.763301 6.051106 6.269754 6.413633 6.478693 6.463304 6.368217 6.196175 5.952318 5.643937 5.279793 4.870327 4.427396 3.963489 3.491729 3.024651 0.000000
0.008919 0.001684 0.000000 0.000000 0.000000 0.000000 0.000000 0.000000 0.000000 0.000000 0.000000 0.000000 0.000000 0.000000 0.000000 0.000000 0.000000 0.000000 0.000000 0.000000 0.000000 0.000000 0.000000 0.000000 0.000000 0.000000 0.000000 0.000000 0.000000 0.000246 0.007281 0.037008 0.099217 0.201246 0.348187 0.549099 0.811663 1.133771 1.507874 1.925356 2.378612 2.856591 3.348845 3.844235 4.331106 4.796624 5.229063 5.617058 5.949935 6.218806 6.416588 6.537656 6.578850 6.539472 6.420413 6.225123 5.959075 5.629498 5.245939 4.819166 4.360929 3.884244 3.402326 2.928761 0.000000
0.009132 0.001840 0.000000 0.000000 0.000000 0.000000 0.000000 0.000000 0.000000 0.000000 0.000000 0.000000 0.000000 0.000000 0.000000 0.000000 0.000000 0.000000 0.000000 0.000000 0.000000 0.000000 0.000000 0.000000 0.000000 0.000000 0.000000 0.000000 0.000000 0.002306 0.019707 0.066549 0.147478 0.268114 0.435358 0.659337 0.945473 1.289367 1.683770 2.118756 2.585576 3.073659 3.571545 4.067692 4.550632 5.008223 5.428586 5.800991 6.115655 6.364022 6.539277 6.636955 6.654414 6.590828 6.448000 6.229943 5.942397 5.593307 5.191988 4.749701 4.278789 3.791943 3.302565 2.823931 0.000000
0.009045 0.001822 0.000000 0.000000 0.000000 0.000000 0.000000 0.000000 0.000000 0.000000 0.000000 0.000000 0.000000 0.000000 0.000000 0.000000 0.000000 0.000000 0.000000 0.000000 0.000000 0.000000 0.000000 0.000000 0.000000 0.000000 0.000000 0.000000 0.000293 0.007827 0.039244 0.104493 0.204916 0.346677 0.537566 0.785210 1.093758 1.457301 1.868179 2.316787 2.792670 3.285560 3.784209 4.277265 4.752947 5.199832 5.606153 5.961128 6.255966 6.482598 6.634847 6.708562 6.701459 6.613907 6.448093 6.208181 5.900699 5.533652 5.116883 4.661453 4.179853 3.685225 3.190754 2.709718 0.000000
0.008689 0.001633 0.000000 0.000000 0.000000 0.000000 0.000000 0.000000 0.000000 0.000000 0.000000 0.000000 0.000000 0.000000 0.000000 0.000000 0.000000 0.000000 0.000000 0.000000 0.000000 0.000000 0.000000 0.000000 0.000000 0.000000 0.000000 0.000000 0.001963 0.019619 0.068745 0.155351 0.280886 0.449364 0.666668 0.938180 1.266758 1.647037 2.069945 2.526607 3.006096 3.498205 3.991587 4.475399 4.938538 5.369168 5.757516 6.093175 6.366418 6.569973 6.698443 6.747924 6.716933 6.606056 6.417866 6.157423 5.831311 5.448158 5.017956 4.551939 4.062417 3.562695 3.065970 2.585136 0.000000
0.008215 0.001312 0.000000 0.000000 0.000000 0.000000 0.000000 0.000000 0.000000 0.000000 0.000000 0.000000 0.000000 0.000000 0.000000 0.000000 0.000000 0.000000 0.000000 0.000000 0.000000 0.000000 0.000000 0.000000 0.000000 0.000000 0.000000 0.000651 0.010738 0.046075 0.118860 0.233444 0.389216 0.586311 0.829349 1.122802 1.468181 1.861280 2.292639 2.752709 3.230804 3.716718 4.199165 4.667140 5.110473 5.519266 5.883955 6.194778 6.443643 6.622975 6.726730 6.752032 6.697364 6.563810 6.354788 6.075372 5.732730 5.335562 4.894205 4.420155 3.925518 3.423333 2.926957 2.449104 0.000000
0.007747 0.000928 0.000000 0.000000 0.000000 0.000000 0.000000 0.000000 0.000000 0.000000 0.000000 0.000000 0.000000 0.000000 0.000000 0.000000 0.000000 0.000000 0.000000 0.000000 0.000000 0.000000 0.000000 0.000000 0.000000 0.000074 0.001921 0.010978 0.039439 0.098968 0.199593 0.343963 0.529790 0.755377 1.022945 1.336103 1.695018 2.096859 2.532538 2.991957 3.464195 3.938943 4.406043 4.854243 5.273401 5.654509 5.988810 6.268881 6.488202 6.639320 6.717244 6.717951 6.640100 6.485115 6.256368 5.959735 5.602567 5.193840 4.743939 4.264390 3.767648 3.266176 2.773250 2.301550 0.000000
0.008378 0.000583 0.000000 0.000000 0.000000 0.000000 0.000000 0.000000 0.000000 0.000000 0.000000 0.000000 0.000000 0.000000 0.000000 0.000000 0.000000 0.000000 0.000000 0.000000 0.000000 0.000000 0.000000 0.000000 0.000343 0.003607 0.016272 0.044067 0.095180 0.181179 0.310828 0.484834 0.700047 0.953409 1.244220 1.574286 1.944036 2.350556 2.786027 3.240365 3.702790 4.162117 4.608819 5.033123 5.424803 5.774711 6.075449 6.320308 6.503657 6.621596 6.669893 6.644617 6.544095 6.368706 6.122095 5.809984 5.440406 5.022620 4.566951 4.085052 3.589133 3.091885 2.605682 2.143250 0.000000
0.013687 0.001521 0.000022 0.000000 0.000000 0.000000 0.000000 0.000000 0.000000 0.000000 0.000000 0.000000 0.000000 0.000000 0.000000 0.000000 0.000000 0.000000 0.000000 0.000000 0.000000 0.000000 0.000017 0.000603 0.005148 0.021550 0.053102 0.102281 0.178193 0.292348 0.451126 0.653925 0.896985 1.176437 1.488852 1.833700 2.211338 2.618454 3.049413 3.493946 3.942055 4.382456 4.805100 5.200983 5.561093 5.877197 6.141688 6.348914 6.494306 6.574700 6.588426 6.534113 6.409426 6.214626 5.951972 5.627210 5.247889 4.823677 4.365322 3.884056 3.392244 2.902368 2.426404 1.976764 0.000000
0.030668 0.010145 0.002840 0.000359 0.000006 0.000000 0.000000 0.000000 0.000000 0.000000 0.000000 0.000000 0.000000 0.000000 0.000000 0.000000 0.000000 0.000000 0.000000 0.000000 0.000000 0.000030 0.000692 0.005927 0.024695 0.060245 0.112939 0.185872 0.288866 0.431553 0.618632 0.848580 1.117217 1.420032 1.751928 2.109540 2.491990 2.896838 3.318526 3.749020 4.178157 4.595727 4.991137 5.355343 5.680726 5.959467 6.185433 6.353117 6.458910 6.500772 6.477739 6.390384 6.239738 6.024759 5.747448 5.411944 5.025829 4.598327 4.140253 3.663153 3.178838 2.699548 2.237624 1.804168 0.000000
0.066725 0.034404 0.017816 0.008237 0.003132 0.000833 0.000108 0.000000 0.000000 0.000000 0.000000 0.000000 0.000000 0.000000 0.000000 0.000000 0.000000 0.000000 0.000000 0.000000 0.000017 0.000648 0.005776 0.025225 0.063305 0.119998 0.196177 0.295694 0.426703 0.597131 0.810675 1.065328 1.356596 1.679298 2.027664 2.395903 2.781008 3.180569 3.589462 4.001631 4.407661 4.798011 5.162665 5.493000 5.781057 6.020480 6.205601 6.332268 6.397467 6.399626 6.339369 6.217988 6.038343 5.802698 5.511269 5.167345 4.777003 4.349297 3.894821 3.425235 2.952034 2.487153 2.042310 1.628137 0.000000
0.129458 0.082407 0.052240 0.032533 0.020624 0.013293 0.009025 0.006770 0.005793 0.005207 0.004299 0.003043 0.001692 0.000575 0.000026 0.000006 0.000127 0.000417 0.000882 0.001486 0.002806 0.008281 0.026902 0.065514 0.124195 0.204534 0.306600 0.433190 0.591217 0.787302 1.024659 1.300989 1.611334 1.950000 2.310691 2.686490 3.072182 3.463933 3.857773 4.247751 4.626816 4.986160 5.317001 5.610370 5.859205 6.057758 6.201149 6.285824 6.309918 6.272996 6.175575 6.020394 5.811087 5.552638 5.247461 4.896889 4.505243 4.080721 3.633311 3.174315 2.715519 2.267993 1.842754 1.450441 0.000000
0.229761 0.170438 0.128029 0.097019 0.074430 0.058824 0.047310 0.038401 0.031622 0.026474 0.022279 0.018228 0.013789 0.009422 0.005992 0.004026 0.003828 0.005542 0.008125 0.011343 0.018101 0.035165 0.072909 0.132575 0.216158 0.323338 0.452546 0.605493 0.787849 1.005420 1.261673 1.554299 1.878272 2.228067 2.596491 2.976027 3.359874 3.741780 4.118215 4.483461 4.832328 5.157481 5.450961 5.705242 5.913200 6.069524 6.170360 6.213018 6.196314 6.120380 5.987289 5.799807 5.562593 5.280755 4.960908 4.604327 4.214030 3.795448 3.358338 2.913240 2.471503 2.043991 1.641584 1.274457 0.000000
0.385073 0.317527 0.265074 0.222752 0.187563 0.158614 0.134523 0.114001 0.095333 0.078907 0.065032 0.053716 0.044427 0.036271 0.029574 0.024929 0.022902 0.023562 0.027349 0.036710 0.053926 0.090084 0.150717 0.237046 0.348712 0.483525 0.639349 0.816938 1.020874 1.255866 1.525519 1.827844 2.158549 2.512135 2.881300 3.258962 3.636939 4.007805 4.365263 4.704942 5.021248 5.309312 5.563012 5.775762 5.941281 6.054624 6.112667 6.113588 6.056742 5.943211 5.775462 5.557399 5.294111 4.991680 4.656760 4.295366 3.907668 3.497877 3.073803 2.645613 2.224117 1.820305 1.443876 1.103829 0.000000
0.599042 0.525469 0.464304 0.411459 0.363954 0.320756 0.281411 0.245300 0.211514 0.179233 0.150593 0.126506 0.107907 0.093873 0.082318 0.073235 0.067000 0.065397 0.070866 0.087293 0.122320 0.185161 0.274907 0.391363 0.531755 0.693658 0.874394 1.073260 1.293856 1.540691 1.817895 2.123763 2.454345 2.803713 3.165840 3.533601 3.898851 4.254702 4.592354 4.905616 5.189666 5.439724 5.651778 5.820995 5.942868 6.012999 6.028211 5.987783 5.892023 5.742527 5.542130 5.295731 5.008776 4.687913 4.340204 3.973653 3.590388 3.192348 2.784566 2.376729 1.978694 1.600715 1.252001 0.941251 0.000000
0.868218 0.791463 0.724288 0.663244 0.605095 0.549165 0.494844 0.442010 0.391922 0.344322 0.299543 0.259090 0.224697 0.197587 0.177628 0.161845 0.150793 0.149046 0.161370 0.190250 0.247247 0.336786 0.456597 0.602113 0.769934 0.956927 1.159906 1.377054 1.611081 1.865269 2.143086 2.444440 2.765861 3.102849 3.450612 3.800808 4.145782 4.478938 4.792779 5.079210 5.331308 5.544520 5.715384 5.840847 5.918096 5.944459 5.917900 5.837396 5.704218 5.520670 5.290406 5.018125 4.710346 4.374066 4.016908 3.646556 3.269635 2.885065 2.496357 2.111148 1.738822 1.388964 1.070473 0.790895 0.000000
1.189119 1.113191 1.043807 0.977644 0.911725 0.845784 0.779168 0.712843 0.647899 0.584379 0.522663 0.463944 0.410779 0.365265 0.329264 0.305940 0.297249 0.302292 0.322867 0.365175 0.440950 0.551972 0.696272 0.867766 1.059913 1.268758 1.490802 1.722644 1.965994 2.223532 2.497543 2.789178 3.095474 3.412680 3.735639 4.059340 4.377796 4.681393 4.964342 5.219622 5.439804 5.617792 5.749739 5.833431 5.867221 5.850447 5.782580 5.663762 5.495184 5.280171 5.022615 4.728044 4.402745 4.054440 3.690998 3.320173 2.950120 2.580848 2.213618 1.853430 1.509289 1.189569 0.902631 0.655044 0.000000
1.558122 1.487752 1.421005 1.354477 1.284945 1.212683 1.137428 1.059853 0.980783 0.901713 0.822983 0.746180 0.673102 0.607340 0.557109 0.527817 0.519636 0.530087 0.557879 0.612627 0.703549 0.830880 0.992636 1.183528 1.396186 1.623040 1.860033 2.102937 2.351979 2.608049 2.873719 3.150881 3.437154 3.729063 4.022522 4.312167 4.593567 4.861457 5.108051 5.326132 5.510135 5.653191 5.748873 5.794147 5.788476 5.731459 5.624108 5.468732 5.267243 5.023249 4.741681 4.428056 4.088811 3.731881 3.365562 2.997633 2.636176 2.284613 1.940808 1.607730 1.293327 1.004988 0.749915 0.533584 0.000000
1.970769 1.911166 1.851504 1.788207 1.718624 1.643139 1.561712 1.474737 1.383312 1.289546 1.194412 1.099669 1.008421 0.930275 0.871717 0.835289 0.821988 0.832010 0.864169 0.927683 1.029741 1.168688 1.341971 1.544720 1.771139 2.011853 2.259398 2.509455 2.759762 3.010896 3.264596 3.522171 3.783862 4.045803 4.304755 4.556530 4.796051 5.019797 5.223017 5.400163 5.543098 5.647493 5.707187 5.717164 5.675844 5.583748 5.442521 5.254378 5.023276 4.753517 4.451009 4.121639 3.772409 3.410668 3.044938 2.683334 2.333430 2.000910 1.681850 1.377247 1.093013 0.835464 0.610585 0.423008 0.000000
2.419797 2.374654 2.325492 2.268931 2.202432 2.126433 2.041168 1.946941 1.845117 1.737997 1.627693 1.516809 1.416155 1.331139 1.265260 1.221004 1.200273 1.205410 1.237158 1.304584 1.411641 1.557116 1.736469 1.945056 2.177303 2.425839 2.679600 2.932298 3.180109 3.422935 3.661204 3.895736 4.128094 4.356360 4.576763 4.786609 4.981347 5.157422 5.311930 5.441125 5.540733 5.602885 5.624168 5.599054 5.524811 5.401505 5.231085 5.016399 4.761759 4.472059 4.153196 3.812368 3.456731 3.093935 2.732284 2.380178 2.044466 1.731610 1.437371 1.160491 0.905095 0.676798 0.481266 0.322904 0.000000
2.894147 2.866738 2.831434 2.784464 2.723873 2.649914 2.563271 2.463927 2.353813 2.235312 2.111888 1.993628 1.887777 1.797573 1.725081 1.672477 1.643824 1.640988 1.668194 1.734902 1.841271 1.986317 2.166325 2.374852 2.606845 2.855177 3.110352 3.361310 3.603183 3.834132 4.053844 4.263499 4.463217 4.653832 4.833023 4.997355 5.144900 5.271254 5.374630 5.452828 5.503345 5.522249 5.502836 5.442183 5.335686 5.183345 4.987051 4.750015 4.476283 4.171774 3.842316 3.495240 3.137975 2.778414 2.424337 2.084147 1.764507 1.472021 1.202974 0.954031 0.728013 0.530034 0.364741 0.235788 0.000000
3.381638 3.375085 3.355992 3.321533 3.269169 3.199935 3.114013 3.011923 2.895638 2.767998 2.639081 2.518379 2.409106 2.314753 2.235962 2.175686 2.138222 2.125876 2.144881 2.206092 2.307926 2.446537 2.620308 2.823430 3.049129 3.291257 3.540887 3.785893 4.018149 4.234220 4.433519 4.615766 4.781690 4.932237 5.067341 5.184799 5.282314 5.358259 5.409471 5.435627 5.435271 5.407327 5.347092 5.250012 5.112690 4.933071 4.713160 4.456749 4.167993 3.852492 3.516601 3.167505 2.812986 2.460600 2.117939 1.792988 1.492537 1.222741 0.980591 0.760950 0.565401 0.398258 0.263542 0.164171 0.000000
3.869764 3.886174 3.885733 3.865654 3.823997 3.761596 3.678700 3.575911 3.455827 3.324522 3.196348 3.075085 2.964116 2.866068 2.781538 2.714170 2.667506 2.644685 2.653116 2.704437 2.797285 2.926012 3.087513 3.279046 3.493217 3.723300 3.961081 4.195349 4.414542 4.613347 4.789916 4.943676 5.075391 5.185245 5.274727 5.344020 5.391109 5.415312 5.414943 5.389129 5.338299 5.262115 5.160360 5.027008 4.860103 4.655664 4.415116 4.142132 3.841686 3.518846 3.180477 2.833479 2.485602 2.144205 1.816790 1.510659 1.232575 0.988084 0.774413 0.584896 0.420382 0.284578 0.180330 0.109577 0.000000
4.345827 4.386466 4.406452 4.402558 4.373551 4.319963 4.242095 4.140764 4.019718 3.892230 3.766799 3.646871 3.535359 3.434233 3.344834 3.270643 3.214930 3.180862 3.177125 3.214727 3.294686 3.410205 3.555916 3.729839 3.927596 4.140409 4.361335 4.579632 4.782044 4.961143 5.113554 5.238516 5.335585 5.406034 5.450637 5.471083 5.468124 5.440838 5.389621 5.313385 5.213553 5.090815 4.946224 4.778691 4.582686 4.356294 4.098398 3.812453 3.503757 3.177381 2.840129 2.498964 2.161436 1.834757 1.526053 1.242019 0.989054 0.772192 0.588255 0.429698 0.296726 0.191953 0.117758 0.070714 0.000000
4.796795 4.862808 4.904068 4.917990 4.902973 4.860096 4.788806 4.691311 4.574943 4.454285 4.333281 4.216275 4.105115 4.001720 3.908260 3.827590 3.763138 3.717666 3.700406 3.722006 3.785637 3.884408 4.011865 4.164641 4.340516 4.532242 4.731544 4.929212 5.111393 5.268417 5.395622 5.491267 5.554858 5.587120 5.589228 5.563107 5.510754 5.433785 5.332928 5.208732 5.062244 4.895642 4.710649 4.509287 4.286831 4.040882 3.768821 3.473754 3.160556 2.834722 2.502406 2.170761 1.847160 1.538546 1.251653 0.992690 0.767459 0.580550 0.427417 0.299857 0.197981 0.123596 0.075338 0.043158 0.000000
5.210743 5.302291 5.365574 5.398064 5.398465 5.367404 5.304441 5.213105 5.106370 4.993988 4.878914 4.765939 4.656042 4.551300 4.454475 4.367916 4.295068 4.238500 4.206774 4.211077 4.255490 4.334757 4.441664 4.571088 4.721280 4.888061 5.062247 5.235430 5.394577 5.526979 5.627845 5.694376 5.725562 5.721856 5.684445 5.615517 5.517735 5.393312 5.245347 5.075861 4.886264 4.679379 4.457522 4.223669 3.978161 3.715526 3.433373 3.132962 2.819053 2.497623 2.174157 1.855774 1.549647 1.262402 1.000310 0.769039 0.573558 0.417861 0.295540 0.198516 0.126954 0.078621 0.045862 0.023011 0.000000
5.576272 5.693183 5.778611 5.830008 5.846758 5.828316 5.775271 5.693653 5.598423 5.495377 5.387466 5.279351 5.171580 5.066415 4.966926 4.875209 4.794487 4.727418 4.681045 4.667279 4.690784 4.748507 4.832707 4.937197 5.060021 5.198474 5.345079 5.490928 5.624349 5.730354 5.803718 5.841014 5.841477 5.803993 5.730883 5.623339 5.484981 5.318887 5.128086 4.916651 4.687768 4.444700 4.190621 3.928683 3.662055 3.385859 3.097402 2.795834 2.485626 2.172574 1.861840 1.560258 1.274804 1.011790 0.776955 0.575366 0.411123 0.287330 0.195280 0.127669 0.080434 0.047362 0.024378 0.009595 0.000000
5.883451 6.024908 6.132080 6.202559 6.235781 6.230689 6.188654 6.119736 6.036829 5.943826 5.843897 5.741311 5.636429 5.531733 5.430331 5.334269 5.246432 5.169699 5.109280 5.077289 5.079161 5.113925 5.173870 5.252412 5.346960 5.455183 5.572309 5.688949 5.794756 5.873376 5.918472 5.926723 5.897115 5.829094 5.723454 5.582325 5.409041 5.206993 4.980437 4.733612 4.470202 4.195436 3.913584 3.628512 3.344050 3.058643 2.767342 2.468383 2.165654 1.864641 1.570271 1.288828 1.027040 0.790828 0.585327 0.414887 0.282862 0.190880 0.126749 0.080524 0.047780 0.024929 0.010065 0.002409 0.000000
6.124031 6.288491 6.416464 6.505873 6.555284 6.563993 6.534403 6.479221 6.408910 6.326303 6.234858 6.138319 6.036994 5.933610 5.831081 5.731558 5.637599 5.552242 5.479217 5.429538 5.409676 5.420782 5.455719 5.507864 5.573668 5.651423 5.737926 5.824511 5.901547 5.952384 5.969015 5.948751 5.890134 5.793440 5.659005 5.489164 5.286198 5.055093 4.799583 4.524568 4.234742 3.935583 3.631675 3.328387 3.030468 2.739568 2.449216 2.156795 1.865200 1.579615 1.304764 1.046293 0.810689 0.603419 0.429013 0.290766 0.190532 0.125148 0.079355 0.046957 0.024921 0.010268 0.002489 0.000058 0.000000
6.291102 6.476961 6.624427 6.731789 6.797005 6.819563 6.803304 6.761850 6.704027 6.631841 6.549083 6.458945 6.361743 6.260436 6.157601 6.055574 5.956697 5.863970 5.780486 5.714226 5.673321 5.660875 5.670778 5.696403 5.733845 5.781720 5.837293 5.894091 5.942014 5.965151 5.953960 5.906191 5.820016 5.696784 5.536282 5.341664 5.114922 4.860828 4.582951 4.287612 3.979206 3.663347 3.345615 3.031791 2.727043 2.434994 2.149570 1.867398 1.590396 1.323461 1.071006 0.837944 0.630313 0.452783 0.308696 0.199310 0.124760 0.077603 0.045420 0.024339 0.010248 0.002498 0.000058 0.000000 0.000000
6.380091 6.585150 6.750601 6.874431 6.954678 6.990844 6.987823 6.959708 6.913843 6.851833 6.777704 6.694120 6.601503 6.502947 6.400650 6.297132 6.194703 6.096049 6.004323 5.923500 5.863437 5.828159 5.813591 5.813210 5.823359 5.842245 5.868052 5.895908 5.915387 5.911331 5.873527 5.799598 5.688153 5.540489 5.357152 5.141107 4.894820 4.623143 4.329965 4.021066 3.700991 3.376388 3.052836 2.736083 2.431668 2.144243 1.868902 1.601256 1.342369 1.096808 0.868464 0.661525 0.481454 0.331771 0.214297 0.129225 0.076199 0.043832 0.023164 0.010065 0.002489 0.000058 0.000000 0.000000 0.000000
6.388659 6.610245 6.791447 6.930314 7.024436 7.073490 7.083005 7.067367 7.032460 6.980264 6.914468 6.837372 6.749721 6.654470 6.553568 6.449621 6.344999 6.242087 6.143945 6.052308 5.975535 5.918860 5.881086 5.855800 5.839876 5.831629 5.829505 5.829751 5.822656 5.792503 5.729350 5.631506 5.497130 5.327964 5.124976 4.891174 4.629539 4.344722 4.041161 3.724521 3.399909 3.073370 2.750604 2.437593 2.140066 1.863088 1.602743 1.353415 1.115481 0.893142 0.689628 0.508572 0.354818 0.231093 0.138601 0.077075 0.042522 0.021812 0.009516 0.002447 0.000058 0.000000 0.000000 0.000000 0.000000
6.316278 6.551476 6.746072 6.898078 7.004841 7.065409 7.086489 7.081959 7.056812 7.013815 6.955831 6.885005 6.802604 6.711091 6.612447 6.509125 6.403674 6.298429 6.195827 6.097308 6.006682 5.931684 5.872386 5.823802 5.783659 5.750554 5.722776 5.697728 5.666121 5.611804 5.525359 5.405622 5.251386 5.063864 4.844775 4.597125 4.324306 4.030912 3.721692 3.402349 3.078045 2.754847 2.438609 2.134994 1.849789 1.588087 1.346472 1.118224 0.903370 0.705755 0.527955 0.373413 0.246447 0.149041 0.081207 0.041577 0.020539 0.008648 0.002332 0.000058 0.000000 0.000000 0.000000 0.000000 0.000000
6.164751 6.410318 6.615996 6.778900 6.896582 6.967129 6.998562 7.003178 6.986629 6.951860 6.901006 6.836175 6.759160 6.671753 6.576178 6.474462 6.369673 6.263954 6.158972 6.056269 5.956873 5.867355 5.788854 5.719330 5.657145 5.601624 5.551301 5.503591 5.450078 5.373776 5.266684 5.127964 4.956547 4.754241 4.522889 4.265414 3.985693 3.688264 3.378158 3.060834 2.741671 2.426756 2.121686 1.832016 1.563557 1.321102 1.101193 0.896340 0.706580 0.535333 0.384485 0.257465 0.157765 0.086231 0.041831 0.019539 0.007826 0.002056 0.000055 0.000000 0.000000 0.000000 0.000000 0.000000 0.000000
5.937790 6.190867 6.404684 6.576382 6.702433 6.781768 6.821802 6.833580 6.824423 6.796700 6.752090 6.692917 6.621147 6.538230 6.446387 6.347369 6.244751 6.140203 6.035043 5.930548 5.827500 5.727662 5.634158 5.546299 5.464964 5.389869 5.320095 5.253106 5.180345 5.084556 4.959812 4.805259 4.620247 4.406530 4.166609 3.903587 3.621252 3.324381 3.017811 2.707237 2.397919 2.095771 1.806190 1.534731 1.286978 1.067346 0.871672 0.692106 0.528990 0.385181 0.261941 0.162756 0.089897 0.042952 0.018963 0.007256 0.001664 0.000051 0.000000 0.000000 0.000000 0.000000 0.000000 0.000000 0.000000
5.641761 5.899020 6.118127 6.295600 6.427928 6.514785 6.561060 6.578495 6.575156 6.553116 6.513861 6.460027 6.393185 6.315029 6.227439 6.132343 6.033161 5.931391 5.828153 5.724397 5.620541 5.516792 5.412846 5.310746 5.213599 5.122135 5.036266 4.953432 4.864214 4.751774 4.612393 4.445570 4.250404 4.029386 3.784818 3.520100 3.239371 2.947354 2.648748 2.349400 2.054153 1.768935 1.498914 1.249476 1.025905 0.832071 0.662501 0.509540 0.374034 0.258044 0.162518 0.090866 0.043724 0.018666 0.006999 0.001384 0.000036 0.000000 0.000000 0.000000 0.000000 0.000000 0.000000 0.000000 0.000000
5.284747 5.542612 5.763821 5.943976 6.080904 6.173112 6.223961 6.245732 6.246418 6.228610 6.193827 6.144588 6.082474 6.009341 5.926440 5.836275 5.741738 5.644293 5.544849 5.444194 5.342116 5.238946 5.130562 5.019757 4.910945 4.807069 4.708569 4.613292 4.510129 4.384085 4.233496 4.057633 3.856152 3.631740 3.386438 3.124462 2.849369 2.566220 2.279660 1.995414 1.718110 1.453567 1.206595 0.982422 0.785964 0.620150 0.477852 0.352299 0.244865 0.156537 0.088659 0.043275 0.018385 0.007072 0.001324 0.000014 0.000000 0.000000 0.000000 0.000000 0.000000 0.000000 0.000000 0.000000 0.000000
4.876192 5.131072 5.350574 5.531310 5.670515 5.765913 5.820369 5.844999 5.847860 5.832875 5.801780 5.756320 5.698750 5.630401 5.552681 5.468580 5.379845 5.287819 5.193915 5.098219 5.000750 4.900383 4.793507 4.680241 4.565854 4.454018 4.347141 4.242535 4.127488 3.991205 3.832642 3.651366 3.447133 3.223019 2.981161 2.725791 2.460310 2.190150 1.919541 1.654001 1.398198 1.157492 0.936470 0.740211 0.573147 0.436781 0.322187 0.224316 0.144655 0.083104 0.041352 0.017935 0.007150 0.001487 0.000014 0.000000 0.000000 0.000000 0.000000 0.000000 0.000000 0.000000 0.000000 0.000000 0.000000
4.426810 4.674426 4.889658 5.068493 5.207113 5.304500 5.361540 5.387864 5.391418 5.377847 5.349163 5.306962 5.253629 5.189775 5.117817 5.040478 4.958260 4.873091 4.786111 4.697010 4.606126 4.510880 4.408237 4.299435 4.186055 4.072758 3.961995 3.851079 3.726921 3.583282 3.420245 3.236892 3.033404 2.813358 2.578539 2.333439 2.081511 1.827821 1.576605 1.333035 1.101679 0.887547 0.694928 0.528727 0.392563 0.286097 0.198696 0.127978 0.074555 0.038028 0.017225 0.007068 0.001770 0.000042 0.000000 0.000000 0.000000 0.000000 0.000000 0.000000 0.000000 0.000000 0.000000 0.000000 0.000000
3.947409 4.185241 4.393193 4.566979 4.703465 4.801499 4.860168 4.887142 4.890289 4.876845 4.849510 4.810067 4.760089 4.701052 4.635391 4.564733 4.489975 4.412670 4.333553 4.252645 4.169592 4.081021 3.985417 3.884269 3.778830 3.671028 3.562430 3.448441 3.318742 3.171540 3.006911 2.824524 2.625476 2.412639 2.188301 1.956858 1.721779 1.487630 1.258769 1.040000 0.835423 0.649945 0.487515 0.352780 0.248220 0.170430 0.109143 0.064119 0.033963 0.016454 0.006804 0.001933 0.000058 0.000000 0.000000 0.000000 0.000000 0.000000 0.000000 0.000000 0.000000 0.000000 0.000000 0.000000 0.000000
3.451196 3.676094 3.873397 4.040213 4.173079 4.269813 4.329563 4.356305 4.359059 4.344539 4.317609 4.280189 4.233027 4.178940 4.119578 4.055556 3.989018 3.920285 3.849834 3.778215 3.703904 3.623121 3.536850 3.445834 3.351561 3.255106 3.154274 3.041707 2.912125 2.765662 2.603193 2.425021 2.233365 2.030650 1.820101 1.605107 1.389552 1.177608 0.973352 0.781281 0.605298 0.449840 0.318759 0.215902 0.142768 0.090862 0.053846 0.029913 0.015417 0.006376 0.001757 0.000058 0.000000 0.000000 0.000000 0.000000 0.000000 0.000000 0.000000 0.000000 0.000000 0.000000 0.000000 0.000000 0.000000
2.950385 3.159399 3.344492 3.502198 3.629348 3.723159 3.783233 3.809874 3.812357 3.796523 3.769174 3.732458 3.688347 3.639076 3.585462 3.528605 3.469949 3.410287 3.349254 3.287347 3.221639 3.150613 3.075091 2.996219 2.915277 2.831995 2.741107 2.635804 2.512289 2.372071 2.216942 2.047190 1.866343 1.676823 1.482603 1.286606 1.092844 0.904966 0.727142 0.562919 0.416620 0.291773 0.192329 0.120671 0.075803 0.045544 0.026381 0.013871 0.005532 0.001293 0.000044 0.000000 0.000000 0.000000 0.000000 0.000000 0.000000 0.000000 0.000000 0.000000 0.000000 0.000000 0.000000 0.000000 0.000000
0.000000 0.000000 0.000000 0.000000 0.000000 0.000000 0.000000 0.000000 0.000000 0.000000 0.000000 0.000000 0.000000 0.000000 0.000000 0.000000 0.000000 0.000000 0.000000 0.000000 0.000000 0.000000 0.000000 0.000000 0.000000 0.000000 0.000000 0.000000 0.000000 0.000000 0.000000 0.000000 0.000000 0.000000 0.000000 0.000000 0.000000 0.000000 0.000000 0.000000 0.000000 0.000000 0.000000 0.000000 0.000000 0.000000 0.000000 0.000000 0.000000 0.000000 0.000000 0.000000 0.000000 0.000000 0.000000 0.000000 0.000000 0.000000 0.000000 0.000000 0.000000 0.000000 0.000000 0.000000 0.000000