64 64
27.515379 27.034716 26.556320 26.080711 25.608387 25.138763 24.669233 24.200111 23.731892 23.265087 22.800205 22.337769 21.878294 21.422298 20.969978 20.519201 20.069935 19.622719 19.178066 18.736532 18.298641 17.864939 17.435961 17.012257 16.592731 16.175772 15.761902 15.351658 14.945577 14.544199 14.148068 13.757725 13.373707 12.996555 12.626802 12.264985 11.911638 11.567287 11.232454 10.907660 10.592088 10.283933 9.983650 9.691744 9.407962 9.130172 8.855072 8.580770 8.307629 8.036057 7.766467 7.499276 7.234901 6.973759 6.716269 6.462845 6.213870 5.968780 5.727512 5.490151 5.256475 5.026772 4.801343 4.580485 4.364492
27.036135 26.550722 26.067923 25.588230 25.112162 24.639984 24.169029 23.698786 23.229763 22.762459 22.297396 21.835085 21.376049 20.920801 20.469826 20.021334 19.574646 19.130287 18.688791 18.250685 17.816505 17.386793 16.962080 16.542910 16.129118 15.718418 15.311044 14.907535 14.508416 14.114231 13.725508 13.342792 12.966607 12.597495 12.235987 11.882607 11.537885 11.202344 10.876498 10.560863 10.254977 9.956758 9.666557 9.383862 9.108160 8.837591 8.568160 8.299652 8.032465 7.767012 7.503699 7.242939 6.985140 6.730721 6.480091 6.233286 5.989728 5.749217 5.511853 5.277944 5.047789 4.821692 4.599950 4.382856 4.170705
26.565582 26.075687 25.588730 25.105221 24.625666 24.150574 23.678415 23.207283 22.737675 22.270103 21.805077 21.343113 20.884731 20.430454 19.980799 19.534775 19.090849 18.649536 18.211372 17.776875 17.346588 16.921040 16.500767 16.086304 15.678020 15.273721 14.872986 14.476343 14.084322 13.697458 13.316277 12.941314 12.573092 12.212146 11.858997 11.514174 11.178193 10.851576 10.534826 10.228456 9.932283 9.644031 9.362644 9.087955 8.820294 8.555827 8.292051 8.029364 7.768166 7.508859 7.251851 6.997547 6.746354 6.498613 6.253551 6.010812 5.770706 5.533531 5.299597 5.069201 4.842647 4.620231 4.402251 4.188998 3.980763
26.104151 25.610039 25.119194 24.632130 24.149351 23.671364 23.197882 22.726086 22.256123 21.788506 21.323742 20.862347 20.404844 19.951750 19.503590 19.060049 18.619064 18.180983 17.746325 17.315620 16.889399 16.468191 16.052530 15.642946 15.239975 14.842213 14.448249 14.058608 13.673818 13.294400 12.920886 12.553796 12.193660 11.840998 11.496329 11.160175 10.833048 10.515458 10.207912 9.910909 9.624317 9.344463 9.071018 8.804412 8.544113 8.285156 8.027064 7.770228 7.515047 7.261915 7.011239 6.763253 6.517407 6.273368 6.031446 5.791939 5.555156 5.321397 5.090965 4.864161 4.641281 4.422621 4.208478 3.999137 3.794889
25.652275 25.154215 24.659750 24.169392 23.683651 23.203041 22.727922 22.255688 21.785595 21.318153 20.853878 20.393280 19.936874 19.485182 19.038725 18.597664 18.159805 17.725132 17.294163 16.867422 16.445442 16.028749 15.617868 15.213333 14.815670 14.424417 14.037353 13.654844 13.277407 12.905563 12.539835 12.180743 11.828805 11.484541 11.148464 10.821085 10.502914 10.194458 9.896214 9.608257 9.329494 9.057512 8.792086 8.533569 8.279313 8.025898 7.773518 7.522560 7.273199 7.025586 6.779800 6.535367 6.292536 6.051616 5.812901 5.576705 5.343319 5.113051 4.886196 4.663056 4.443923 4.229094 4.018857 3.813500 3.613309
25.210377 24.708637 24.210817 23.717438 23.228996 22.746025 22.269030 21.796570 21.326578 20.859539 20.395973 19.936386 19.481297 19.031227 18.586697 18.148125 17.713573 17.282486 16.855385 16.432785 16.015217 15.603203 15.197272 14.797949 14.405757 14.020844 13.640808 13.265552 12.895591 12.531439 12.173615 11.822633 11.479006 11.143247 10.815866 10.497367 10.188257 9.889029 9.599336 9.318785 9.047617 8.783582 8.526243 8.274887 8.026129 7.777874 7.530442 7.284178 7.039297 6.795347 6.552501 6.311058 6.071321 5.833589 5.598164 5.365343 5.135431 4.908730 4.685541 4.466162 4.250886 4.040003 3.833801 3.632561 3.436560
24.778873 24.273727 23.772827 23.276691 22.785826 22.300755 21.821991 21.349213 20.879541 20.413132 19.950497 19.492144 19.038593 18.590361 18.147964 17.711924 17.280857 16.853531 16.430466 16.012182 15.599197 15.192036 14.791220 14.397269 14.010706 13.631990 13.259108 12.891227 12.528856 12.172512 11.822703 11.479941 11.144732 10.817583 10.498999 10.189480 9.889419 9.598124 9.315701 9.042582 8.778946 8.522544 8.272323 8.026185 7.781608 7.537639 7.294538 7.051925 6.809926 6.568822 6.328907 6.090494 5.853892 5.619414 5.387361 5.158041 4.931747 4.708785 4.489441 4.274009 4.062777 3.856027 3.654038 3.457089 3.265451
24.356430 23.848860 23.345652 22.847351 22.354507 21.867651 21.387390 20.914072 20.444952 19.979395 19.517912 19.061018 18.609226 18.163048 17.723003 17.289610 16.862146 16.438757 16.019903 15.606100 15.197866 14.795717 14.400175 14.011758 13.630983 13.258366 12.892738 12.532343 12.177678 11.829252 11.487566 11.153129 10.826440 10.508000 10.198263 9.897195 9.604188 9.319609 9.043862 8.777344 8.520386 8.270917 8.026071 7.784699 7.544242 7.303735 7.063320 6.823315 6.584034 6.345788 6.108886 5.873635 5.640344 5.409311 5.180837 4.955219 4.732749 4.513716 4.298408 4.087111 3.880102 3.677658 3.480055 3.287559 3.100438
23.940092 23.430620 22.925791 22.426144 21.932224 21.444572 20.963728 20.490229 20.022291 19.558123 19.098248 18.643196 18.193489 17.749653 17.312218 16.881706 16.457901 16.038628 15.624155 15.215000 14.811679 14.414706 14.024596 13.641856 13.266995 12.900521 12.542006 12.189097 11.842084 11.501450 11.167681 10.841260 10.522667 10.212343 9.909764 9.614918 9.328217 9.050056 8.780841 8.520964 8.270783 8.027256 7.787176 7.549305 7.311237 7.073129 6.835292 6.598039 6.361673 6.126503 5.892833 5.660963 5.431191 5.203811 4.979117 4.757397 4.538940 4.324027 4.112939 3.905950 3.703336 3.505365 3.312305 3.124418 2.941961
23.530182 23.019070 22.512875 22.012135 21.517403 21.029205 20.548098 20.074606 19.608082 19.145765 18.687990 18.235281 17.788160 17.347157 16.912788 16.485580 16.065666 15.650806 15.240963 14.836647 14.438375 14.046659 13.662005 13.284923 12.915914 12.555479 12.203709 11.858111 11.518566 11.185556 10.859563 10.541061 10.230146 9.926310 9.629918 9.341381 9.061104 8.789482 8.526802 8.273438 8.029130 7.789351 7.552507 7.317049 7.081425 6.845942 6.610909 6.376625 6.143395 5.911518 5.681288 5.453004 5.226954 5.003425 4.782706 4.565076 4.350813 4.140200 3.933502 3.730991 3.532934 3.339593 3.151226 2.968090 2.790437
23.127094 22.614607 22.107306 21.605738 21.110443 20.621965 20.140842 19.667612 19.202358 18.742107 18.286642 17.836481 17.392159 16.954189 16.523094 16.099394 15.683449 15.273165 14.868109 14.468800 14.075735 13.689433 13.310391 12.939119 12.576113 12.221868 11.876771 11.538592 11.206627 10.881347 10.563165 10.251604 9.946793 9.649141 9.359057 9.076809 8.802756 8.537330 8.280533 8.032474 7.791436 7.554893 7.321291 7.088317 6.855362 6.622728 6.390714 6.159617 5.929731 5.701353 5.474770 5.250270 5.028137 4.808649 4.592088 4.378727 4.168840 3.962692 3.760551 3.562677 3.369328 3.180763 2.997231 2.818981 2.646260
22.731230 22.217627 21.709480 21.207342 20.711750 20.223244 19.742363 19.269648 18.805561 18.347582 17.894636 17.447241 17.005920 16.571188 16.143566 15.723574 15.311688 14.906141 14.506041 14.111889 13.724194 13.343458 12.970183 12.604872 12.248014 11.900105 11.561630 11.230980 10.906696 10.588671 10.276696 9.971188 9.672470 9.380778 9.096583 8.820137 8.551539 8.291183 8.039455 7.795254 7.557439 7.324386 7.093930 6.863661 6.633592 6.404019 6.175235 5.947533 5.721198 5.496519 5.273777 5.053252 4.835221 4.619958 4.407734 4.198815 3.993464 3.791945 3.594513 3.401425 3.212929 3.029276 2.850709 2.677471 2.509799
22.342979 21.828524 21.319801 20.817352 20.321720 19.833441 19.353062 18.881115 18.418133 17.962629 17.512411 17.067984 16.629868 16.198582 15.774632 15.358547 14.950829 14.550180 14.155188 13.766353 13.384176 13.009161 12.641803 12.282598 11.932034 11.590605 11.258788 10.935424 10.617533 10.305405 9.999214 9.699323 9.406079 9.119637 8.840407 8.568809 8.305238 8.050084 7.802889 7.562027 7.327725 7.098407 6.870959 6.643609 6.416637 6.190335 5.964985 5.740876 5.518287 5.297500 5.078785 4.862420 4.648671 4.437804 4.230082 4.025766 3.825111 3.628372 3.435795 3.247631 3.064120 2.885506 2.712026 2.543911 2.381397
21.962734 21.447697 20.938652 20.436153 19.940741 19.452953 18.973330 18.502403 18.040710 17.587669 17.140388 16.699135 16.264427 15.836783 15.416714 15.004730 14.601341 14.205704 13.815976 13.432609 13.056104 12.686956 12.325661 11.972705 11.628580 11.293633 10.967533 10.649708 10.337281 10.030238 9.728868 9.433621 9.144950 8.863276 8.589012 8.322568 8.064330 7.814262 7.570600 7.333364 7.102856 6.877388 6.652895 6.428671 6.205000 5.982166 5.760449 5.540128 5.321474 5.104760 4.890253 4.678220 4.468919 4.262613 4.059553 3.859993 3.664181 3.472359 3.284774 3.101662 2.923260 2.749801 2.581515 2.418630 2.261370
21.590881 21.075521 20.566427 20.064140 19.569208 19.082167 18.603554 18.133904 17.673750 17.223133 16.778992 16.341116 15.910021 15.486218 15.070221 14.662535 14.263666 13.873136 13.488823 13.111075 12.740390 12.377256 12.022163 11.675518 11.337074 11.006919 10.684901 10.371030 10.062746 9.759912 9.462988 9.172413 8.888623 8.612034 8.343046 8.082057 7.829280 7.583071 7.343148 7.109818 6.883373 6.661581 6.440234 6.219335 5.999162 5.779990 5.562094 5.345742 5.131202 4.918737 4.708609 4.501073 4.296382 4.094789 3.896539 3.701876 3.511041 3.324272 3.141801 2.963860 2.790677 2.622480 2.459489 2.301925 2.150006
21.227119 20.712107 20.203449 19.701700 19.207508 18.721470 18.244122 17.776003 17.317638 16.869429 16.428631 15.994335 15.567052 15.147290 14.735558 14.332362 13.938204 13.552889 13.174141 12.802160 12.437434 12.080265 11.730364 11.387869 11.052758 10.725493 10.406584 10.096344 9.792370 9.494087 9.201935 8.916354 8.637758 8.366559 8.103144 7.847858 7.599346 7.356982 7.121075 6.891919 6.669801 6.451451 6.233449 6.016070 5.799582 5.584256 5.370361 5.158154 4.947899 4.739849 4.534258 4.331373 4.131444 3.934707 3.741405 3.551772 3.366042 3.184442 3.007199 2.834538 2.666677 2.503835 2.346226 2.194066 2.047596
20.871357 20.356998 19.849251 19.348667 18.855797 18.371201 17.895414 17.429079 16.972752 16.526960 16.089714 15.659197 15.235924 14.820398 14.413126 14.014574 13.625166 13.244904 12.871437 12.504644 12.144363 11.790834 11.443947 11.104152 10.771976 10.447934 10.132518 9.826172 9.526842 9.233430 8.946373 8.666091 8.392992 8.127471 7.869908 7.619332 7.374769 7.136527 6.904901 6.680182 6.462453 6.247460 6.032990 5.819313 5.606691 5.395389 5.185663 4.977768 4.771959 4.568480 4.367577 4.169490 3.974458 3.782713 3.594487 3.410007 3.229495 3.053176 2.881264 2.713978 2.551528 2.394136 2.242055 2.095514 1.954737
20.523970 20.010521 19.503939 19.004768 18.513567 18.030867 17.557215 17.093140 16.639179 16.195843 15.762070 15.335267 14.915851 14.504313 14.101131 13.706797 13.321777 12.946000 12.576637 12.213386 11.856090 11.505091 11.160949 10.824193 10.495352 10.174916 9.863374 9.561190 9.266821 8.978594 8.696934 8.422247 8.154929 7.895363 7.642938 7.396408 7.156067 6.922211 6.695126 6.475088 6.261494 6.050040 5.839283 5.629483 5.420898 5.213784 5.008391 4.804967 4.603752 4.404991 4.208916 4.015762 3.825757 3.639126 3.456092 3.276875 3.101687 2.930745 2.764258 2.602453 2.445569 2.293843 2.147498 2.006751 1.871815
20.183027 19.670729 19.165497 18.667889 18.178448 17.697720 17.226238 16.764536 16.313141 15.872573 15.442368 15.019464 14.604036 14.196578 13.797624 13.407221 13.025623 12.653065 12.286759 11.925928 11.571156 11.222996 10.881995 10.548676 10.223547 9.907098 9.599797 9.302094 9.012949 8.730207 8.454230 8.185418 7.924151 7.670072 7.421804 7.179595 6.943738 6.714521 6.492220 6.277087 6.067337 5.859597 5.652722 5.446967 5.242582 5.039814 4.838905 4.640097 4.443621 4.249712 4.058596 3.870498 3.685638 3.504234 3.326498 3.152642 2.982873 2.817410 2.656493 2.500357 2.349231 2.203332 2.062857 1.927946 1.798788
19.846607 19.335709 18.832088 18.336296 17.848875 17.370369 16.901310 16.442226 15.993647 15.556089 15.129557 14.710896 14.299662 13.895990 13.500328 13.113110 12.734529 12.364238 12.000212 11.641994 11.290149 10.945228 10.607757 10.278255 9.957214 9.645112 9.342404 9.049531 8.765838 8.488861 8.218844 7.956171 7.700650 7.450868 7.207010 6.969376 6.738252 6.513916 6.296633 6.086233 5.880370 5.676509 5.473681 5.272128 5.072094 4.873820 4.677537 4.483480 4.291874 4.102942 3.916905 3.733976 3.554369 3.378292 3.205945 3.037534 2.873302 2.713487 2.558289 2.407900 2.262528 2.122369 1.987614 1.858446 1.735039
19.515064 19.005829 18.504078 18.010359 17.525211 17.049175 16.582788 16.126575 15.681057 15.246613 14.823218 14.407862 13.999748 13.599337 13.207024 12.822484 12.446003 12.078137 11.717035 11.362005 11.013604 10.672384 10.338869 10.013563 9.696974 9.389570 9.091798 8.804083 8.526071 8.255128 7.991330 7.734591 7.483507 7.238216 6.999020 6.766207 6.540055 6.320828 6.108781 5.902752 5.700953 5.501131 5.302500 5.105297 4.909758 4.716113 4.524589 4.335410 4.148792 3.964953 3.784101 3.606444 3.432165 3.261431 3.094480 2.931551 2.772871 2.618656 2.469114 2.324450 2.184849 2.050501 1.921578 1.798252 1.680686
19.188774 18.681456 18.181831 17.690437 17.207813 16.734505 16.270847 15.817160 15.373926 14.941619 14.520668 14.108506 13.703730 13.306409 12.916243 12.533848 12.159853 11.794835 11.437069 11.085675 10.741210 10.404200 10.075162 9.754589 9.442958 9.140720 8.848311 8.566143 8.294096 8.029483 7.771778 7.519615 7.273109 7.032568 6.798277 6.570520 6.349562 6.135660 5.928856 5.726994 5.529417 5.333778 5.139482 4.946754 4.755824 4.566907 4.380225 4.195984 4.014394 3.835654 3.659954 3.487446 3.318370 3.152969 2.991474 2.834108 2.681083 2.532603 2.388864 2.250050 2.116339 1.987905 1.864906 1.747501 1.635841
18.868093 18.362957 17.865639 17.376474 16.895952 16.424572 15.962831 15.511220 15.070218 14.640303 14.221937 13.813149 13.410937 13.015542 12.627625 12.247821 11.876751 11.514992 11.160943 10.813568 10.473400 10.140963 9.816754 9.501255 9.194928 8.898212 8.611525 8.335268 8.069482 7.811126 7.558168 7.310728 7.069110 6.833605 6.604496 6.382046 6.166515 5.958145 5.756155 5.558613 5.365374 5.174015 4.984136 4.795955 4.609693 4.425559 4.243761 4.064505 3.887978 3.714309 3.543725 3.376473 3.212789 3.052902 2.897034 2.745388 2.598165 2.455553 2.317733 2.184877 2.057150 1.934707 1.817700 1.706271 1.600559
18.552376 18.048828 17.553064 17.065601 16.586945 16.117592 15.658039 15.208769 14.770269 14.343008 13.927141 13.520349 13.120123 12.727067 12.341842 11.965065 11.597345 11.239255 10.889302 10.546306 10.210794 9.883274 9.564231 9.254135 8.953431 8.662541 8.381872 8.111808 7.852105 7.598573 7.350418 7.107942 6.871445 6.641204 6.417488 6.200556 5.990648 5.787905 5.590352 5.397305 5.208527 5.021582 4.836246 4.652735 4.471257 4.292015 4.115209 3.940961 3.769448 3.600925 3.435639 3.273825 3.115706 2.961496 2.811400 2.665608 2.524307 2.387669 2.255864 2.129047 2.007371 1.890978 1.780007 1.674586 1.574841
18.238825 17.736927 17.242981 16.757494 16.280973 15.813917 15.356816 14.910160 14.474423 14.049280 13.634577 13.229721 12.831924 12.441655 12.059552 11.686230 11.322275 10.968257 10.622756 10.284491 9.953978 9.631709 9.318157 9.013776 8.718994 8.434222 8.159851 7.895795 7.640739 7.392076 7.148957 6.911679 6.680521 6.455755 6.237638 6.026415 5.822317 5.624762 5.431747 5.243360 5.059149 4.876738 4.696063 4.517332 4.340744 4.166452 3.994558 3.825315 3.658978 3.495786 3.335974 3.179760 3.027355 2.878958 2.734755 2.594927 2.459644 2.329067 2.203346 2.082626 1.967045 1.856735 1.751818 1.652412 1.558632
17.927574 17.427603 16.935745 16.452507 15.978393 15.513899 15.059520 14.615652 14.181580 13.757611 13.344472 12.941937 12.547009 12.159955 11.781397 11.411940 11.052158 10.702603 10.361903 10.028708 9.703522 9.386824 9.079069 8.780698 8.492127 8.213749 7.945380 7.685947 7.435618 7.192057 6.954202 6.722332 6.496722 6.277627 6.065299 5.859965 5.661785 5.468931 5.280616 5.097038 4.917481 4.739714 4.563806 4.389947 4.218194 4.048750 3.881878 3.717829 3.556843 3.399147 3.244959 3.094483 2.947916 2.805440 2.667231 2.533452 2.404258 2.279797 2.160207 2.045619 1.936155 1.831935 1.733069 1.639664 1.551822
17.618990 17.121216 16.631714 16.150993 15.679556 15.217894 14.766186 14.323639 13.890848 13.468554 13.057470 12.657648 12.266017 11.882599 11.507998 11.142809 10.787593 10.442882 10.107313 9.779512 9.459968 9.149141 8.847476 8.555398 8.273303 8.000854 7.737162 7.482511 7.237156 6.998916 6.766531 6.540273 6.320401 6.107165 5.900795 5.701514 5.508794 5.320670 5.137201 4.958574 4.783734 4.610712 4.439591 4.270441 4.103527 3.939110 3.777436 3.618747 3.463264 3.311204 3.162766 3.018142 2.877512 2.741045 2.608902 2.481232 2.358176 2.239866 2.126428 2.017979 1.914630 1.816486 1.723645 1.636202 1.554250
17.313431 16.818123 16.331251 15.853314 15.384818 14.925611 14.475051 14.033885 13.602873 13.182744 12.774201 12.377495 11.989581 11.610201 11.239959 10.879426 10.529149 10.189650 9.859533 9.537435 9.223827 8.919159 8.623859 8.338336 8.062011 7.794289 7.535480 7.285877 7.045739 6.813022 6.586304 6.365844 6.151890 5.944676 5.744426 5.551282 5.363459 5.180212 5.001724 4.828176 4.658084 4.489701 4.323213 4.158891 3.996994 3.837770 3.681452 3.528263 3.378413 3.232103 3.089517 2.950833 2.816216 2.685820 2.559790 2.438265 2.321368 2.209219 2.101931 1.999608 1.902346 1.810238 1.723374 1.641834 1.565510
17.011261 16.518692 16.034714 15.559832 15.093510 14.635405 14.186320 13.747034 13.318297 12.900823 12.495288 12.102098 11.718300 11.343361 10.977861 10.622357 10.277385 9.943445 9.619081 9.302978 8.995587 8.697350 8.408638 8.128644 7.857119 7.594378 7.340718 7.096414 6.861721 6.634720 6.413851 6.199359 5.991484 5.790447 5.596460 5.408927 5.226001 5.047758 4.874376 4.705926 4.540318 4.376538 4.214858 4.055533 3.898811 3.744923 3.594090 3.446519 3.302406 3.161935 3.025279 2.892597 2.764042 2.639755 2.519865 2.404493 2.293756 2.187754 2.086589 1.990352 1.899128 1.812998 1.732037 1.656318 1.584781
16.711853 16.223068 15.742443 15.269459 14.804285 14.347746 13.900639 13.463724 13.037741 12.623386 12.221331 11.832057 11.452770 11.082648 10.722260 10.372147 10.032824 9.704778 9.386453 9.076616 8.775710 8.483995 8.200560 7.925454 7.658999 7.401496 7.153232 6.914465 6.685438 6.464326 6.249470 6.041104 5.839456 5.644732 5.457024 5.274508 5.096604 4.923485 4.755144 4.591496 4.430456 4.271450 4.114735 3.960555 3.809138 3.660707 3.515464 3.373604 3.235306 3.100740 2.970064 2.843425 2.720959 2.602792 2.489039 2.379810 2.275204 2.175312 2.080221 1.990009 1.904751 1.824514 1.749365 1.678978 1.611729
16.412737 15.928636 15.451167 14.980532 14.517610 14.063272 13.618628 13.184564 12.761806 12.351039 11.952909 11.567953 11.193553 10.828613 10.473688 10.129307 9.795968 9.474126 9.162108 8.858798 8.564219 8.277561 7.999091 7.729138 7.468006 7.215989 6.973351 6.740342 6.517191 6.302129 6.093434 5.891333 5.696041 5.507750 5.325683 5.148198 4.975409 4.807218 4.643784 4.485014 4.328702 4.174618 4.023004 3.874088 3.728088 3.585207 3.445636 3.309554 3.177125 3.048507 2.923839 2.803256 2.686878 2.574819 2.467180 2.364054 2.265532 2.171688 2.082598 1.998330 1.918942 1.844495 1.774999 1.709055 1.646017
16.113939 15.632874 15.158150 14.690660 14.231273 13.780831 13.340142 12.909979 12.491088 12.084350 11.690580 11.310342 10.941187 10.581780 10.232660 9.894335 9.567287 9.251940 8.946484 8.649130 8.359467 8.077846 7.804599 7.540048 7.284481 7.038175 6.801382 6.574338 6.357255 6.148383 5.945984 5.750274 5.561449 5.379478 5.202485 5.030066 4.862107 4.698833 4.540490 4.386662 4.235215 4.086177 3.939773 3.796220 3.655719 3.518459 3.384617 3.254356 3.127827 3.005170 2.886514 2.771976 2.661665 2.555677 2.454102 2.357021 2.264508 2.176630 2.093447 2.015014 1.941383 1.872601 1.807974 1.746191 1.687270
15.813785 15.335535 14.864030 14.400154 13.944763 13.498683 13.062703 12.637585 12.224058 11.822804 11.434482 11.059690 10.696191 10.342649 9.999652 9.667688 9.347227 9.038544 8.738554 8.446097 8.161530 7.885201 7.617426 7.358510 7.108731 6.868348 6.637601 6.416708 6.205870 6.003316 5.807331 5.618116 5.435858 5.259418 5.087409 4.919752 4.756707 4.598524 4.445432 4.296568 4.150101 4.006208 3.865102 3.726983 3.592042 3.460449 3.332368 3.207946 3.087323 2.970620 2.857953 2.749426 2.645133 2.545157 2.449576 2.358455 2.271858 2.189839 2.112446 2.039725 1.971715 1.908162 1.847399 1.789163 1.733470
15.512219 15.037261 14.569446 14.109643 13.658699 13.217420 12.786585 12.366935 11.959178 11.563985 11.181989 10.813781 10.457251 10.110707 9.774685 9.449694 9.135777 8.832324 8.537281 8.249974 7.970758 7.699960 7.437886 7.184824 6.941039 6.706774 6.482255 6.267687 6.063251 5.867126 5.677654 5.495026 5.318960 5.147398 4.980105 4.817349 4.659383 4.506439 4.358727 4.214817 4.073419 3.934745 3.799000 3.666366 3.537018 3.411114 3.288802 3.170215 3.055475 2.944694 2.837972 2.735398 2.637053 2.543007 2.453325 2.368060 2.287262 2.210886 2.138897 2.071311 2.008115 1.948072 1.890484 1.835360 1.782716
15.209896 14.738692 14.275023 13.819746 13.373690 12.937647 12.512375 12.098601 11.697014 11.308266 10.932968 10.571695 10.222441 9.883381 9.555001 9.236843 8.928919 8.631431 8.342164 8.060668 7.787298 7.522394 7.266269 7.019259 6.781658 6.553690 6.335566 6.127476 5.929581 5.739977 5.557101 5.381073 5.210002 5.043121 4.880705 4.723006 4.570260 4.422677 4.280372 4.141442 4.005177 3.871779 3.741431 3.614306 3.490562 3.370344 3.253785 3.141001 3.032104 2.927189 2.826344 2.729611 2.637006 2.548571 2.464344 2.384351 2.308615 2.237150 2.169968 2.107074 2.047805 1.990947 1.936485 1.884426 1.834776
14.907454 14.440463 13.981389 13.531076 13.090337 12.659945 12.240648 11.833144 11.438111 11.056174 10.687932 10.333936 9.992234 9.660563 9.338492 9.026408 8.724717 8.433503 8.150469 7.875348 7.608485 7.350204 7.100804 6.860561 6.629730 6.408541 6.197204 5.995905 5.804801 5.621881 5.445704 5.275167 5.108759 4.946730 4.789340 4.636828 4.489413 4.347291 4.210325 4.076427 3.945331 3.817216 3.692250 3.570583 3.452353 3.337682 3.226680 3.119442 3.016052 2.916585 2.821099 2.729648 2.642272 2.559003 2.479868 2.404885 2.334064 2.267414 2.204934 2.146356 2.090300 2.036574 1.985183 1.936127 1.889409
14.605538 14.143200 13.689159 13.244236 12.809228 12.384896 11.971962 11.571115 11.183002 10.808235 10.447384 10.100921 9.766006 9.440384 9.124500 8.818775 8.523595 8.238871 7.962286 7.693752 7.433596 7.182129 6.939635 6.706371 6.482583 6.268483 6.064263 5.870099 5.686111 5.510125 5.340158 5.174489 5.013071 4.856174 4.704041 4.556893 4.414929 4.278329 4.146557 4.017648 3.891630 3.768672 3.648927 3.532532 3.419610 3.310272 3.204614 3.102719 3.004659 2.910493 2.820273 2.734037 2.651815 2.573631 2.499499 2.429426 2.363417 2.301467 2.243511 2.188313 2.135386 2.084730 2.036343 1.990223 1.946365
14.304775 13.847528 13.398940 12.959822 12.530952 12.113065 11.706875 11.313042 10.932203 10.564939 10.211254 9.871011 9.542202 9.222878 8.913464 8.614365 8.325951 8.047914 7.777987 7.516233 7.262971 7.018491 6.783066 6.556939 6.340333 6.133451 5.936471 5.749549 5.572706 5.403192 5.238393 5.077719 4.921442 4.769813 4.623057 4.481377 4.344956 4.213954 4.087268 3.963393 3.842489 3.724710 3.610197 3.499073 3.391450 3.287423 3.187076 3.090481 2.997697 2.908772 2.823745 2.742642 2.665485 2.592287 2.523050 2.457775 2.396456 2.339082 2.284784 2.232704 2.182837 2.135180 2.089724 2.046461 2.005384
14.005786 13.554049 13.111328 12.678413 12.256067 11.845005 11.445919 11.059455 10.685951 10.325187 9.977597 9.643641 9.321228 9.008475 8.705799 8.413581 8.132174 7.860997 7.597917 7.343126 7.096928 6.859597 6.631388 6.412532 6.203238 6.003689 5.814050 5.634399 5.464260 5.300426 5.140619 4.985085 4.834079 4.687831 4.546552 4.410426 4.279616 4.154223 4.032527 3.913714 3.797940 3.685346 3.576058 3.470188 3.367834 3.269080 3.173994 3.082639 2.995061 2.911296 2.831372 2.755306 2.683109 2.614781 2.550320 2.489716 2.432952 2.379538 2.328341 2.279306 2.232425 2.187685 2.145076 2.104407 2.065130
13.709182 13.263366 12.826907 12.400581 11.985126 11.581250 11.189484 10.809681 10.442266 10.087749 9.746603 9.419259 9.103517 8.797602 8.501913 8.216814 7.942646 7.678467 7.422412 7.174750 6.935770 6.705730 6.484871 6.273410 6.071537 5.879421 5.697145 5.524327 5.360556 5.201735 5.047059 4.896788 4.751160 4.610390 4.474664 4.344155 4.219007 4.099072 3.982378 3.868637 3.757991 3.650570 3.546483 3.445832 3.348701 3.255161 3.165272 3.079078 2.996619 2.917920 2.842994 2.771852 2.704494 2.640910 2.581089 2.525012 2.472429 2.422137 2.373962 2.327890 2.283906 2.241911 2.201376 2.162185 2.124305
13.415728 12.976057 12.546243 12.126873 11.718594 11.321380 10.935670 10.562038 10.201015 9.853089 9.518721 9.198303 8.889491 8.590661 8.302194 8.024439 7.757717 7.500656 7.251787 7.011405 6.779780 6.557161 6.343770 6.139807 5.945447 5.760790 5.585430 5.419393 5.261037 5.107331 4.957904 4.812999 4.672839 4.537617 4.407506 4.282656 4.163195 4.048529 3.936842 3.828164 3.722628 3.620347 3.521420 3.425936 3.333965 3.245567 3.160788 3.079666 3.002224 2.928477 2.858432 2.792087 2.729430 2.670449 2.615120 2.563330 2.513958 2.466659 2.421417 2.378167 2.336431 2.296063 2.257030 2.219294 2.182819
13.126690 12.692697 12.269817 11.856959 11.454636 11.063476 10.684070 10.316964 9.962675 9.621672 9.294393 8.981195 8.679555 8.388041 8.107016 7.836813 7.577703 7.327875 7.086337 6.853370 6.629226 6.414139 6.208316 6.011941 5.825130 5.647472 5.479038 5.318955 5.165882 5.017401 4.873322 4.733869 4.599242 4.469621 4.345160 4.225989 4.112223 4.002604 3.895909 3.792272 3.691809 3.594621 3.500797 3.410409 3.323519 3.240173 3.160407 3.084246 3.011703 2.942785 2.877486 2.815795 2.757694 2.703161 2.652144 2.603691 2.557275 2.512829 2.469918 2.428411 2.388270 2.349456 2.311930 2.275654 2.240589
12.842546 12.412983 11.995772 11.588816 11.192663 10.807922 10.435167 10.074929 9.727703 9.393939 9.074051 8.768369 8.474208 8.190349 7.917129 7.654858 7.403669 7.161441 6.927593 6.702379 6.486029 6.278752 6.080732 5.892105 5.712459 5.541808 5.379773 5.225093 5.077268 4.933944 4.795088 4.660916 4.531619 4.407368 4.288316 4.174591 4.066189 3.961345 3.859554 3.760914 3.665470 3.573312 3.484515 3.399140 3.317235 3.238837 3.163970 3.092647 3.024872 2.960642 2.899942 2.842752 2.789047 2.738794 2.691253 2.645642 2.601562 2.558927 2.517695 2.477829 2.439286 2.402027 2.366010 2.331193 2.297537
12.561237 12.135493 11.723482 11.322798 10.933179 10.555236 10.189573 9.836711 9.497122 9.171243 8.859457 8.561971 8.275902 8.000258 7.735353 7.481467 7.238506 7.004215 6.778350 6.561150 6.352823 6.153555 5.963505 5.782292 5.609838 5.446089 5.289686 5.140610 4.998143 4.860090 4.726535 4.597672 4.473675 4.354696 4.240869 4.132305 4.028624 3.928025 3.830451 3.736033 3.644887 3.557119 3.472824 3.392083 3.314967 3.241397 3.171299 3.104678 3.041527 2.981832 2.925572 2.872717 2.823236 2.776434 2.731172 2.687397 2.645070 2.604151 2.564600 2.526373 2.489427 2.453718 2.419203 2.385839 2.353584
12.282199 11.860739 11.453666 11.059839 10.677458 10.307085 9.949253 9.604457 9.273141 8.955705 8.652507 8.363622 8.086018 7.818938 7.562673 7.317476 7.082915 6.856799 6.639141 6.430154 6.230031 6.038936 5.856571 5.682721 5.517531 5.359737 5.209099 5.065797 4.928771 4.796097 4.667929 4.544444 4.425797 4.312119 4.203530 4.100121 4.000890 3.904515 3.811124 3.720832 3.633747 3.549961 3.469556 3.392605 3.319167 3.249295 3.183033 3.120413 3.061466 3.006126 2.954124 2.905137 2.858630 2.813689 2.770243 2.728253 2.687677 2.648473 2.610596 2.574000 2.538642 2.504473 2.471451 2.439527 2.408660
12.006474 11.590023 11.188386 10.801607 10.427085 10.064841 9.715384 9.379168 9.056610 8.748079 8.453899 8.173979 7.905181 7.646984 7.399654 7.163419 6.937383 6.719651 6.510389 6.309788 6.118019 5.934898 5.760057 5.593729 5.434871 5.282994 5.138286 5.000896 4.869355 4.742136 4.619414 4.501348 4.388070 4.279699 4.176331 4.077960 3.982957 3.890763 3.801497 3.715264 3.632157 3.552259 3.475642 3.402364 3.332479 3.266029 3.203046 3.143559 3.087455 3.034537 2.984800 2.937957 2.893132 2.850034 2.808402 2.768192 2.729360 2.691861 2.655647 2.620671 2.586886 2.554242 2.522694 2.492193 2.462696
11.736149 11.324406 10.928855 10.549010 10.182905 9.829329 9.488750 9.161597 8.848254 8.549055 8.264298 7.993659 7.733975 7.484948 7.246812 7.019777 6.802347 6.593182 6.392475 6.200401 6.016894 5.841459 5.674315 5.514719 5.361923 5.216121 5.077471 4.946072 4.820046 4.698332 4.581087 4.468450 4.360535 4.257443 4.159254 4.065590 3.974757 3.886678 3.801460 3.719194 3.639965 3.563844 3.490889 3.421154 3.354679 3.291411 3.231177 3.173976 3.119811 3.068679 3.020348 2.973960 2.929441 2.886805 2.846060 2.807215 2.770100 2.734291 2.699724 2.666348 2.634115 2.602975 2.572878 2.543778 2.515627
11.472433 11.065116 10.675886 10.303080 9.945740 9.601332 9.270111 8.952470 8.648763 8.359289 8.084314 7.823231 7.572939 7.333334 7.104625 6.886909 6.678202 6.477752 6.285731 6.102183 5.926545 5.758947 5.598915 5.445515 5.298930 5.159325 5.026832 4.901423 4.780952 4.664762 4.552996 4.445771 4.343185 4.245321 4.152241 4.062921 3.976184 3.892133 3.810863 3.732457 3.656985 3.584509 3.514959 3.448252 3.384408 3.323441 3.265359 3.210164 3.157853 3.108226 3.060455 3.014455 2.970237 2.927809 2.887181 2.848358 2.811350 2.776161 2.742800 2.710996 2.680290 2.650626 2.621954 2.594225 2.567392
11.216085 10.813805 10.430303 10.065044 9.716367 9.381598 9.060176 8.752463 8.458776 8.179388 7.914526 7.663222 7.422566 7.192598 6.973509 6.765136 6.565292 6.373674 6.190406 6.014949 5.847274 5.687100 5.533407 5.386345 5.246086 5.112768 4.986499 4.867033 4.752130 4.641459 4.535146 4.433290 4.335973 4.243259 4.155074 4.069825 3.987091 3.906964 3.829484 3.754586 3.682309 3.612693 3.545767 3.481554 3.420068 3.361317 3.305304 3.252025 3.201294 3.152318 3.105013 3.059389 3.015455 2.973219 2.932686 2.893862 2.856753 2.821364 2.787704 2.755781 2.725602 2.697154 2.669873 2.643482 2.617933
10.967823 10.571199 10.193672 9.835634 9.495531 9.170833 8.859618 8.562211 8.278896 8.009913 7.755456 7.514109 7.283293 7.063151 6.853845 6.654786 6.463910 6.281213 6.106312 5.938931 5.778922 5.625241 5.478003 5.337386 5.203536 5.076563 4.956553 4.842947 4.733593 4.628408 4.527498 4.430942 4.338807 4.251140 4.167345 4.085850 4.006639 3.929781 3.855339 3.783364 3.713893 3.646960 3.582588 3.520792 3.461581 3.404957 3.350918 3.299271 3.249265 3.200830 3.153975 3.108708 3.065036 3.022964 2.982496 2.943638 2.906394 2.870771 2.836774 2.804410 2.773691 2.744627 2.717230 2.691516 2.667195
10.728327 10.337955 9.966970 9.615787 9.284251 8.969698 8.669063 8.382303 8.109672 7.851377 7.607581 7.376316 7.155517 6.945351 6.745950 6.556133 6.374301 6.200288 6.033565 5.874034 5.720665 5.573548 5.432864 5.298769 5.171378 5.050779 4.937028 4.829156 4.725284 4.625422 4.529642 4.438000 4.350535 4.267261 4.186920 4.108699 4.032670 3.958899 3.887434 3.818320 3.751588 3.687264 3.625363 3.565895 3.508863 3.454267 3.401888 3.351027 3.301634 3.253720 3.207292 3.162354 3.118913 3.076971 3.036534 2.997602 2.960183 2.924280 2.889900 2.857051 2.825745 2.795991 2.767803 2.741200 2.716199
10.496709 10.113581 9.750004 9.406372 9.083006 8.778595 8.488962 8.213213 7.951576 7.704233 7.471284 7.250220 7.039579 6.839501 6.650052 6.469401 6.296539 6.130823 5.972067 5.819274 5.672518 5.531985 5.397820 5.270143 5.149037 5.034558 4.926729 4.824047 4.725182 4.630209 4.539193 4.452170 4.369169 4.289934 4.212918 4.137931 4.065040 3.994296 3.925743 3.859418 3.795344 3.733540 3.674017 3.616778 3.561823 3.508892 3.457346 3.407169 3.358366 3.310946 3.264913 3.220270 3.177022 3.135170 3.094718 3.055668 3.018024 2.981793 2.946979 2.913593 2.881644 2.851146 2.822114 2.794565 2.768521
10.270947 9.895729 9.540247 9.204855 8.889832 8.595167 8.317057 8.052811 7.802613 7.566609 7.344735 7.134111 6.933806 6.743936 6.564305 6.392795 6.228371 6.070626 5.918609 5.772403 5.632201 5.498161 5.370407 5.249033 5.134100 5.025642 4.923588 4.826014 4.732142 4.642038 4.555745 4.473292 4.394691 4.319086 4.245350 4.173545 4.103728 4.035942 3.970224 3.906603 3.845096 3.785716 3.728467 3.673349 3.620033 3.567978 3.517186 3.467664 3.419421 3.372460 3.326783 3.282395 3.239294 3.197485 3.156968 3.117747 3.079825 3.043208 3.007905 2.973922 2.941272 2.909971 2.880033 2.851480 2.824333
10.051662 9.684875 9.337981 9.011291 8.705048 8.419429 8.152780 7.900290 7.661754 7.437291 7.226546 7.026490 6.836629 6.657052 6.487091 6.324399 6.168083 6.017237 5.871971 5.732488 5.598952 5.471499 5.350228 5.235208 5.126482 5.024057 4.927641 4.835159 4.746252 4.660971 4.579347 4.501394 4.426994 4.354717 4.284205 4.215518 4.148701 4.083793 4.020822 3.959809 3.900767 3.843703 3.788615 3.735076 3.682683 3.631447 3.581377 3.532479 3.484757 3.438212 3.392848 3.348664 3.305661 3.263839 3.223202 3.183751 3.145491 3.108428 3.072569 3.037927 3.004512 2.972342 2.941435 2.911813 2.883499
9.839487 9.481625 9.143783 8.826231 8.529167 8.252735 7.996711 7.756195 7.529512 7.316751 7.117139 6.927750 6.748406 6.579177 6.418544 6.264067 6.114783 5.970844 5.832461 5.699809 5.573029 5.452228 5.337485 5.228848 5.126333 5.029931 4.938983 4.851558 4.767569 4.687048 4.610018 4.536481 4.465827 4.396814 4.329458 4.263809 4.199908 4.137784 4.077462 4.018953 3.962265 3.907385 3.853788 3.801230 3.749723 3.699273 3.649889 3.601572 3.554326 3.508150 3.463046 3.419010 3.376047 3.334154 3.293334 3.253589 3.214926 3.177349 3.140869 3.105498 3.071249 3.038143 3.006196 2.975435 2.945887
9.635025 9.286552 8.958196 8.650184 8.362677 8.095770 7.849497 7.621031 7.406357 7.205424 7.016901 6.838242 6.669461 6.510464 6.358222 6.210886 6.068655 5.931751 5.800354 5.674615 5.554649 5.440543 5.332349 5.230093 5.133773 5.043358 4.957685 4.875263 4.796122 4.720285 4.647759 4.578477 4.511164 4.445340 4.381060 4.318363 4.257283 4.197844 4.140059 4.083940 4.029420 3.975941 3.923391 3.871784 3.821126 3.771424 3.722681 3.674898 3.628076 3.582215 3.537312 3.493366 3.450379 3.408349 3.367279 3.327172 3.288033 3.249872 3.212698 3.176525 3.141371 3.107252 3.074194 3.042223 3.011369
9.438846 9.100194 8.781725 8.483626 8.206014 7.948943 7.712407 7.495261 7.292713 7.103702 6.926172 6.758279 6.600076 6.450210 6.305198 6.165052 6.029997 5.900224 5.775889 5.657117 5.544003 5.436604 5.334953 5.239058 5.148890 5.064367 4.983784 4.906292 4.831917 4.760668 4.692539 4.627052 4.562961 4.500246 4.438949 4.379107 4.320743 4.263875 4.208514 4.154492 4.101308 4.048943 3.997408 3.946712 3.896863 3.847862 3.799710 3.752407 3.705952 3.660343 3.615579 3.571657 3.528577 3.486340 3.444948 3.404405 3.364717 3.325896 3.287952 3.250901 3.214761 3.179556 3.145310 3.112054 3.079819
9.251478 8.923051 8.614840 8.326990 8.059580 7.812621 7.586071 7.379442 7.188968 7.011833 6.845258 6.688136 6.539707 6.397386 6.259694 6.126854 5.999067 5.876496 5.759274 5.647499 5.541242 5.440540 5.345406 5.255821 5.171744 5.092870 5.017294 4.944644 4.874934 4.808162 4.744277 4.682115 4.621160 4.561459 4.503047 4.445951 4.390190 4.335776 4.282376 4.229664 4.177658 4.126371 4.075810 4.025984 3.976894 3.928541 3.880924 3.834042 3.787892 3.742471 3.697777 3.653807 3.610562 3.568043 3.526252 3.485196 3.444881 3.405319 3.366526 3.328516 3.291313 3.254941 3.219429 3.184808 3.151115
9.073421 8.755580 8.457963 8.180669 7.923735 7.687133 7.470778 7.274471 7.095462 6.930041 6.774391 6.627110 6.487132 6.352255 6.221990 6.096543 5.976089 5.860763 5.750677 5.645902 5.546486 5.452447 5.363774 5.280432 5.202361 5.128862 5.058198 4.990287 4.925128 4.862708 4.802593 4.743595 4.685682 4.628893 4.573256 4.518792 4.465473 4.412840 4.360781 4.309313 4.258449 4.208199 4.158568 4.109560 4.061174 4.013412 3.966269 3.919742 3.873829 3.828525 3.783828 3.739736 3.696249 3.653370 3.611100 3.569449 3.528425 3.488043 3.448315 3.409266 3.370916 3.333296 3.296434 3.260369 3.225140
8.905122 8.598205 8.311481 8.045013 7.798794 7.572757 7.366779 7.180682 7.012605 6.858466 6.712607 6.574333 6.442419 6.315081 6.192325 6.074332 5.961248 5.853187 5.750232 5.652435 5.559821 5.472385 5.390101 5.312909 5.240736 5.172317 5.106459 5.043166 4.982429 4.924189 4.867340 4.811408 4.756433 4.702446 4.649467 4.597335 4.545654 4.494428 4.443677 4.393415 4.343651 4.294390 4.245637 4.197392 4.149652 4.102417 4.055681 4.009441 3.963692 3.918431 3.873654 3.829361 3.785551 3.742229 3.699399 3.657069 3.615252 3.573962 3.533219 3.493043 3.453464 3.414510 3.376218 3.338627 3.301780
8.746994 8.451298 8.175737 7.920331 7.685032 7.469737 7.274280 7.098448 6.940819 6.795943 6.659469 6.529892 6.405820 6.286095 6.170903 6.060396 5.954694 5.853889 5.758039 5.667173 5.581295 5.500385 5.424389 5.353238 5.286737 5.223185 5.162008 5.103202 5.046743 4.992181 4.938422 4.885452 4.833303 4.781984 4.731126 4.680582 4.630374 4.580522 4.531040 4.481939 4.433226 4.384902 4.336969 4.289425 4.242267 4.195492 4.149092 4.103065 4.057404 4.012107 3.967171 3.922594 3.878380 3.834531 3.791054 3.747961 3.705263 3.662980 3.621133 3.579746 3.538850 3.498480 3.458672 3.419472 3.380925
8.599412 8.315198 8.051032 7.806888 7.582680 7.378263 7.193440 7.027390 6.878816 6.742348 6.614941 6.493909 6.377549 6.265490 6.157888 6.054873 5.956541 5.862957 5.774158 5.690156 5.610930 5.536439 5.466617 5.401373 5.340198 5.281384 5.224754 5.170289 5.117901 5.066505 5.015729 4.965609 4.916017 4.866603 4.817383 4.768377 4.719608 4.671089 4.622832 4.574842 4.527125 4.479680 4.432505 4.385597 4.338952 4.292564 4.246427 4.200535 4.154884 4.109470 4.064291 4.019348 3.974641 3.930180 3.885969 3.842024 3.798359 3.754995 3.711956 3.669270 3.626972 3.585099 3.543692 3.502799 3.462471
8.463067 8.190194 7.937616 7.704901 7.491918 7.298421 7.123377 6.966284 6.826383 6.698237 6.579174 6.466396 6.357790 6.253416 6.153405 6.057863 5.966860 5.880443 5.798622 5.721389 5.648705 5.580513 5.516726 5.457243 5.401030 5.346817 5.294583 5.244305 5.195437 5.147043 5.099110 5.051296 5.003519 4.955810 4.908195 4.860693 4.813321 4.766088 4.719005 4.672071 4.625291 4.578661 4.532179 4.485838 4.439632 4.393557 4.347604 4.301768 4.256044 4.210430 4.164924 4.119526 4.074243 4.029079 3.984048 3.939162 3.894441 3.849907 3.805589 3.761517 3.717730 3.674267 3.631177 3.588509 3.546318
8.340776 8.077441 7.835706 7.614549 7.412593 7.228913 7.063218 6.915199 6.783631 6.663575 6.552365 6.447517 6.346681 6.249987 6.157542 6.069429 5.985695 5.906360 5.831420 5.760843 5.694575 5.632538 5.574635 5.520679 5.469120 5.419356 5.371363 5.324990 5.279165 5.233430 5.187569 5.141619 5.095613 5.049575 5.003528 4.957487 4.911465 4.865468 4.819501 4.773565 4.727659 4.681777 4.635916 4.590069 4.544228 4.498385 4.452536 4.406673 4.360793 4.314892 4.268972 4.223034 4.177084 4.131132 4.085189 4.039273 3.993409 3.947618 3.901932 3.856387 3.811024 3.765888 3.721029 3.676502 3.632369
8.233084 7.979338 7.747020 7.535310 7.343261 7.169313 7.013081 6.874229 6.750652 6.638445 6.534719 6.437397 6.344320 6.255276 6.170350 6.089599 6.013046 5.940691 5.872513 5.808461 5.748461 5.692422 5.640232 5.591395 5.544333 5.498856 5.454934 5.411750 5.368289 5.324574 5.280643 5.236530 5.192261 5.147856 5.103334 5.058706 5.013981 4.969164 4.924253 4.879251 4.834150 4.788947 4.743632 4.698202 4.652645 4.606957 4.561129 4.515156 4.469034 4.422761 4.376339 4.329772 4.283067 4.236238 4.189295 4.142262 4.095163 4.048026 4.000886 3.953783 3.906759 3.859865 3.813156 3.766689 3.720532