64 64
7.628244 7.746009 7.873509 8.010611 8.157166 8.313023 8.477741 8.649179 8.826763 9.010308 9.199622 9.394667 9.595778 9.802774 10.015429 10.232709 10.452971 10.675954 10.901409 11.129097 11.358764 11.590163 11.823050 12.057164 12.292260 12.527717 12.762199 12.995096 13.226104 13.454967 13.681435 13.906789 14.132069 14.357018 14.581379 14.804889 15.027298 15.248346 15.467784 15.685357 15.900820 16.113922 16.324425 16.532085 16.736668 16.937933 17.135658 17.329615 17.519581 17.705338 17.886675 18.063383 18.235264 18.402117 18.563755 18.719984 18.870632 19.015522 19.154488 19.287367 19.414009 19.534264 19.647991 19.755060 19.855724
7.762486 7.882417 8.012082 8.151345 8.300059 8.458066 8.624678 8.797795 8.977059 9.162285 9.353277 9.550949 9.754976 9.964889 10.180464 10.400880 10.624332 10.850492 11.079116 11.309955 11.542761 11.777283 12.013270 12.250467 12.488621 12.727399 12.965481 13.202049 13.436687 13.669133 13.899361 14.129227 14.358986 14.588379 14.817144 15.045021 15.271751 15.497079 15.720745 15.942499 16.162086 16.379263 16.593781 16.805397 17.013870 17.218971 17.420464 17.618114 17.811707 18.001020 18.185841 18.365955 18.541164 18.711266 18.876068 19.035381 19.189026 19.336828 19.478615 19.614231 19.743511 19.866314 19.982494 20.091917 20.195213
7.893045 8.015131 8.146952 8.288364 8.439224 8.599370 8.767759 8.942519 9.123427 9.310294 9.503116 9.703398 9.910271 10.123034 10.341459 10.564896 10.791450 11.020702 11.252405 11.486312 11.722172 11.959732 12.198737 12.438933 12.680064 12.921875 13.163426 13.403558 13.641732 13.877675 14.111917 14.346193 14.580331 14.814067 15.047137 15.279280 15.510235 15.739743 15.967543 16.193384 16.417009 16.638168 16.856613 17.072102 17.284389 17.493238 17.698414 17.899689 18.096834 18.289631 18.477863 18.661316 18.839787 19.013075 19.180981 19.343323 19.499910 19.650570 19.795130 19.933426 20.065304 20.190609 20.309204 20.420948 20.526939
8.019722 8.143954 8.277916 8.421467 8.574459 8.736733 8.906766 9.083130 9.265645 9.454118 9.649010 9.851769 10.061419 10.276965 10.498171 10.724521 10.954084 11.186338 11.421034 11.657921 11.896747 12.137256 12.379195 12.622307 12.866332 13.111015 13.355824 13.599371 13.840994 14.080353 14.318830 14.557405 14.795813 15.033787 15.271059 15.507368 15.742449 15.976037 16.207876 16.437710 16.665276 16.890327 17.112614 17.331884 17.547897 17.760412 17.969194 18.174011 18.374634 18.570841 18.762409 18.949133 19.130800 19.307205 19.478157 19.643459 19.802933 19.956398 20.103676 20.244608 20.379032 20.506800 20.627766 20.741829 20.850525
8.142325 8.268690 8.404781 8.550456 8.705603 8.870081 9.041919 9.220149 9.404642 9.595126 9.792738 9.998331 10.211060 10.429614 10.653785 10.883087 11.115604 11.350785 11.588365 11.828143 12.069861 12.313216 12.557965 12.803761 13.050344 13.297542 13.545057 13.791618 14.036474 14.279280 14.521903 14.764647 15.007160 15.249163 15.490433 15.730619 15.969446 16.206676 16.442102 16.675518 16.906736 17.135468 17.361471 17.584435 17.804087 18.020184 18.232489 18.440763 18.644783 18.844320 19.039156 19.229074 19.413866 19.593327 19.767256 19.935463 20.097761 20.253971 20.403917 20.547432 20.684359 20.814537 20.937830 21.054270 21.165607
8.260673 8.389287 8.528005 8.676570 8.834809 9.002372 9.176991 9.358044 9.545392 9.738854 9.939976 10.149043 10.365360 10.587484 10.815172 11.047966 11.284029 11.522614 11.763346 12.005921 12.250080 12.495621 12.742445 12.990315 13.239006 13.488473 13.738297 13.987517 14.235018 14.480844 14.726767 14.972761 15.218458 15.463598 15.708035 15.951400 16.193428 16.433958 16.672609 16.909081 17.143200 17.374830 17.603907 17.830229 18.053425 18.273193 18.489136 18.700918 18.908298 19.111044 19.308937 19.501776 19.689369 19.871552 20.048155 20.219042 20.384068 20.542965 20.695520 20.841564 20.980940 21.113487 21.239063 21.357912 21.471830
8.380593 8.513041 8.655505 8.807831 8.969686 9.140441 9.318145 9.502352 9.692800 9.889831 10.094807 10.307771 10.528239 10.754543 10.986216 11.222924 11.462709 11.704576 11.948231 12.193423 12.439937 12.687574 12.936318 13.186142 13.436954 13.688359 13.939870 14.191047 14.440420 14.688658 14.937071 15.185453 15.433406 15.680864 15.927647 16.173340 16.417845 16.660917 16.902372 17.142126 17.379707 17.614578 17.846527 18.075375 18.300999 18.523348 18.742165 18.957043 19.167656 19.373526 19.574486 19.770321 19.960871 20.145906 20.325153 20.498417 20.665569 20.826582 20.981327 21.129734 21.271585 21.406498 21.534267 21.655430 21.771719
8.511382 8.648734 8.795796 8.952422 9.118526 9.292605 9.473138 9.660083 9.853098 10.053418 10.262296 10.478944 10.703025 10.933323 11.169053 11.409565 11.652929 11.897846 12.144135 12.391748 12.640747 12.891311 13.142963 13.395157 13.647644 13.900258 14.152884 14.405122 14.655784 14.906311 15.156911 15.407371 15.657589 15.907134 16.155725 16.403517 16.650341 16.895922 17.140108 17.382431 17.622459 17.860094 18.094769 18.326105 18.553913 18.778057 18.998537 19.215485 19.428560 19.637304 19.841419 20.040449 20.233963 20.421745 20.603802 20.779940 20.949827 21.113354 21.270315 21.420551 21.563957 21.700478 21.829891 21.952888 22.070904
8.656949 8.798397 8.950130 9.111616 9.282278 9.460402 9.644620 9.834644 10.030766 10.234395 10.445961 10.665733 10.893454 11.127406 11.366059 11.609077 11.854940 12.102737 12.352275 12.603634 12.856168 13.109524 13.363417 13.617627 13.871670 14.125358 14.378715 14.631621 14.883925 15.136507 15.389097 15.641530 15.893454 16.144838 16.395832 16.646036 16.895159 17.143026 17.388947 17.632704 17.874474 18.113764 18.350340 18.584076 18.814373 19.040821 19.263250 19.481815 19.696585 19.907406 20.113756 20.315479 20.511885 20.702663 20.887691 21.066637 21.239267 21.405405 21.564690 21.716665 21.861324 21.998798 22.129030 22.253359 22.372816
8.819427 8.965753 9.121664 9.287243 9.462307 9.644222 9.832337 10.026476 10.226270 10.433619 10.648807 10.871440 11.101204 11.337043 11.577927 11.823332 12.071709 12.322456 12.575580 12.830351 13.086090 13.342159 13.597974 13.853588 14.109104 14.364305 14.618805 14.872646 15.126317 15.380576 15.634926 15.889053 16.143009 16.396805 16.649889 16.902147 17.153036 17.402004 17.649323 17.894796 18.137856 18.378456 18.616398 18.851463 19.083567 19.312490 19.537598 19.758390 19.974712 20.186768 20.394787 20.598331 20.797249 20.991062 21.178909 21.360598 21.535610 21.703476 21.864361 22.018345 22.164948 22.303722 22.434904 22.560282 22.680763
8.999999 9.150548 9.311324 9.481587 9.660139 9.845544 10.037499 10.235025 10.439159 10.651008 10.869838 11.095252 11.326921 11.564029 11.806029 12.053516 12.305498 12.559647 12.815326 13.072244 13.330101 13.588111 13.846346 14.104021 14.360904 14.617388 14.873362 15.128276 15.383305 15.639101 15.895187 16.151463 16.407518 16.663193 16.918116 17.171465 17.423300 17.673893 17.922474 18.168953 18.413166 18.654898 18.894106 19.130598 19.364126 19.594614 19.821697 20.044609 20.263163 20.477108 20.686447 20.891653 21.092449 21.288158 21.478374 21.661880 21.838678 22.008904 22.171797 22.327087 22.474991 22.615692 22.748539 22.875435 22.997301
9.198509 9.353873 9.519017 9.693604 9.876393 10.065380 10.260216 10.461387 10.669646 10.885143 11.107422 11.335524 11.569047 11.808409 12.052827 12.302591 12.556396 12.812933 13.071047 13.329526 13.588577 13.848421 14.108314 14.367965 14.627145 14.885135 15.141758 15.397568 15.654843 15.912479 16.170431 16.428577 16.686592 16.943495 17.199144 17.453789 17.706934 17.958422 18.208025 18.455301 18.700569 18.943579 19.183857 19.421696 19.656805 19.888216 20.116249 20.341082 20.561699 20.777895 20.989466 21.196239 21.398096 21.594805 21.785789 21.971338 22.150303 22.322027 22.486542 22.643860 22.793419 22.935249 23.070059 23.199240 23.322651
9.415222 9.574918 9.744411 9.923388 10.109792 10.302401 10.500978 10.705352 10.916902 11.135543 11.360151 11.590504 11.827300 12.069906 12.317440 12.569581 12.824897 13.082043 13.340904 13.601455 13.862211 14.122910 14.384130 14.645630 14.906322 15.165745 15.423786 15.681000 15.939618 16.199869 16.460052 16.719633 16.978476 17.236389 17.493097 17.748714 18.002995 18.254961 18.505238 18.753872 18.999863 19.243813 19.485733 19.724558 19.960157 20.193035 20.422394 20.648064 20.870510 21.088894 21.302658 21.510899 21.713470 21.910774 22.103050 22.289467 22.469717 22.643208 22.809479 22.968370 23.119957 23.263803 23.400053 23.530607 23.655912
9.649288 9.812855 9.986664 10.169889 10.359429 10.555594 10.757989 10.965616 11.179832 11.400519 11.627322 11.860686 12.100623 12.347042 12.597755 12.852151 13.108809 13.366465 13.625769 13.886771 14.149014 14.411413 14.673751 14.935854 15.197453 15.458323 15.718184 15.976993 16.237564 16.499666 16.761845 17.022747 17.282152 17.540939 17.799007 18.055244 18.309650 18.562853 18.813961 19.062956 19.310436 19.555490 19.797972 20.037674 20.274382 20.508148 20.738728 20.965866 21.189569 21.409456 21.624355 21.833908 22.037880 22.236328 22.429157 22.616138 22.797194 22.972239 23.140240 23.300926 23.454346 23.600159 23.737854 23.869951 23.996857
9.898594 10.066763 10.244740 10.430917 10.624297 10.823848 11.028962 11.239738 11.456476 11.678899 11.908433 12.145080 12.388213 12.637526 12.891211 13.147736 13.405681 13.664590 13.924451 14.185235 14.447831 14.711892 14.975237 15.237589 15.499907 15.762036 16.022751 16.284092 16.546768 16.810329 17.073492 17.335638 17.596504 17.856150 18.114557 18.371391 18.626595 18.880329 19.132254 19.382286 19.630568 19.876598 20.119429 20.359997 20.598001 20.832449 21.064249 21.293049 21.517685 21.738056 21.953732 22.164482 22.370167 22.569674 22.762890 22.950653 23.132748 23.308424 23.478123 23.640965 23.795864 23.942696 24.082668 24.216757 24.345058
10.162365 10.334374 10.516252 10.705614 10.902046 11.104775 11.312250 11.525169 11.744287 11.969831 12.202183 12.441561 12.687899 12.939646 13.195165 13.453654 13.713622 13.973845 14.234200 14.495595 14.758166 15.021810 15.285972 15.549536 15.812459 16.074650 16.336775 16.599901 16.864515 17.129375 17.393293 17.656729 17.919174 18.179590 18.438034 18.695601 18.951752 19.205727 19.458611 19.709839 19.958534 20.204803 20.448877 20.690161 20.928719 21.164755 21.397619 21.627243 21.852730 22.073301 22.289911 22.501858 22.708208 22.908731 23.103271 23.291832 23.474470 23.651495 23.822395 23.986458 24.142828 24.291412 24.432968 24.569075 24.700657
10.438254 10.613768 10.798692 10.991561 11.190678 11.395527 11.605228 11.820002 12.041676 12.270755 12.506116 12.748211 12.996696 13.250687 13.507683 13.767845 14.029809 14.291238 14.552866 14.814963 15.077374 15.340045 15.604078 15.868952 16.132395 16.395050 16.657856 16.922409 17.187975 17.453979 17.719496 17.984068 18.247330 18.508482 18.767805 19.025780 19.282389 19.537457 19.790977 20.042885 20.291965 20.538822 20.783857 21.025827 21.265297 21.502632 21.736500 21.966381 22.192274 22.413954 22.631165 22.843781 23.050587 23.252131 23.448141 23.637548 23.821301 23.999527 24.171221 24.336008 24.493959 24.644470 24.787437 24.926346 25.061695
10.723223 10.902237 11.090187 11.285645 11.487291 11.693794 11.904903 12.122213 12.346804 12.578600 12.817341 13.061993 13.312158 13.567471 13.826481 14.088215 14.351101 14.614320 14.877395 15.140069 15.402194 15.664598 15.928119 16.192696 16.457043 16.720589 16.983732 17.248732 17.514862 17.781904 18.049236 18.314859 18.578421 18.840591 19.101061 19.359388 19.616451 19.872744 20.126860 20.378679 20.628723 20.876434 21.121662 21.364899 21.605541 21.843405 22.078091 22.308207 22.534649 22.757484 22.975243 23.187786 23.395771 23.598211 23.794926 23.986067 24.171127 24.350006 24.522392 24.688255 24.847610 24.999372 25.145103 25.287195 25.425980
11.014546 11.197016 11.387694 11.585075 11.788622 11.996614 12.209013 12.429214 12.656602 12.890939 13.132474 13.379516 13.631194 13.887588 14.148438 14.411592 14.675391 14.939993 15.204387 15.467519 15.729749 15.992329 16.255239 16.518572 16.783545 17.047913 17.311420 17.576197 17.842731 18.110756 18.379320 18.645920 18.910194 19.173185 19.434635 19.693748 19.951666 20.208466 20.463144 20.715239 20.966026 21.214561 21.460342 21.704626 21.946411 22.184694 22.419472 22.650539 22.877731 23.100994 23.319262 23.532379 23.741135 23.944429 24.142078 24.334770 24.521126 24.700579 24.873894 25.041071 25.201307 25.354734 25.503805 25.649176 25.791573
11.309625 11.494688 11.687778 11.886899 12.091447 12.300761 12.515279 12.737733 12.967800 13.204757 13.448180 13.697296 13.950447 14.208409 14.470223 14.734632 14.999901 15.265240 15.530360 15.793981 16.056993 16.319658 16.581881 16.844582 17.108742 17.373602 17.637478 17.902096 18.168852 18.437647 18.706619 18.974140 19.239798 19.503513 19.765430 20.026024 20.284779 20.541712 20.796776 21.049847 21.301003 21.550180 21.797216 22.042158 22.284760 22.523449 22.758385 22.990580 23.218500 23.441807 23.660715 23.874886 24.084013 24.288298 24.487358 24.680862 24.868359 25.048832 25.223299 25.391563 25.552858 25.708899 25.860678 26.009825 26.155836
11.605250 11.792307 11.986922 12.187595 12.392899 12.603360 12.820360 13.044793 13.277071 13.516437 13.761484 14.011807 14.266882 14.526312 14.788852 15.054355 15.320998 15.586924 15.851921 16.116526 16.380299 16.642962 16.904728 17.167097 17.430248 17.694180 17.958429 18.223520 18.490435 18.759146 19.028372 19.296778 19.563841 19.828262 20.090986 20.352846 20.612432 20.869501 21.125061 21.379175 21.630699 21.880621 22.128967 22.374565 22.617399 22.856611 23.092422 23.325161 23.553797 23.777275 23.996956 24.212158 24.421797 24.627199 24.827644 25.021875 25.209951 25.392160 25.567780 25.736841 25.900202 26.058773 26.213428 26.366022 26.515568
11.897575 12.086314 12.281897 12.483630 12.689807 12.901437 13.120624 13.347021 13.581085 13.822348 14.068823 14.320076 14.576928 14.837659 15.101065 15.367487 15.635038 15.901405 16.166412 16.431597 16.696028 16.958616 17.220430 17.482412 17.744520 18.006800 18.271095 18.536968 18.804001 19.072182 19.341543 19.610800 19.878929 20.144341 20.408226 20.670822 20.931244 21.188766 21.444979 21.699863 21.952068 22.202888 22.452269 22.698524 22.941383 23.181528 23.418287 23.651356 23.880428 24.104767 24.325083 24.541037 24.751863 24.958233 25.159777 25.354733 25.543709 25.727415 25.904194 26.074583 26.240435 26.401348 26.559174 26.714788 26.867498
12.182890 12.373094 12.569446 12.771483 12.978921 13.191858 13.412456 13.640891 13.876516 14.118889 14.366591 14.619115 14.876981 15.138844 15.403522 15.670688 15.938415 16.205082 16.470598 16.735880 17.000576 17.263287 17.525307 17.786852 18.047897 18.308580 18.572304 18.838905 19.106037 19.373682 19.643028 19.913115 20.181705 20.448664 20.713713 20.976854 21.237871 21.496443 21.753336 22.008591 22.262062 22.513798 22.763800 23.010727 23.253937 23.494967 23.732689 23.966110 24.195515 24.421093 24.642052 24.858644 25.071026 25.278370 25.480587 25.676567 25.866814 26.051451 26.229679 26.402042 26.570276 26.733761 26.894577 27.053101 27.208624
12.457880 12.649088 12.846017 13.048232 13.256747 13.471015 13.692642 13.922783 14.159742 14.402796 14.651499 14.905294 15.163780 15.426602 15.692592 15.960326 16.227854 16.494705 16.760838 17.026119 17.290413 17.553591 17.815742 18.076815 18.336792 18.596212 18.859133 19.125868 19.393078 19.660475 19.929766 20.200323 20.469419 20.737850 21.004057 21.267773 21.529305 21.789156 22.046766 22.302454 22.557322 22.809999 23.060396 23.307928 23.552094 23.793781 24.032377 24.266199 24.496286 24.723007 24.944647 25.162220 25.376049 25.584383 25.787048 25.984524 26.176041 26.361403 26.541384 26.716131 26.886517 27.052868 27.216387 27.377638 27.536068
12.719209 12.910825 13.108138 13.310776 13.519949 13.735361 13.958005 14.189186 14.427242 14.670778 14.920237 15.175101 15.434038 15.697650 15.964761 16.232872 16.500071 16.767006 17.033619 17.298790 17.562492 17.826023 18.088242 18.348816 18.607735 18.866377 19.128496 19.394518 19.661795 19.929380 20.198631 20.469145 20.739162 21.008627 21.275991 21.540314 21.802589 22.063644 22.322012 22.578594 22.834589 23.088232 23.339071 23.587225 23.832596 24.074984 24.314201 24.548731 24.779760 25.007362 25.229982 25.448776 25.663776 25.873119 26.076534 26.275438 26.468229 26.654613 26.836243 27.013580 27.186184 27.355370 27.521473 27.685217 27.846664
12.963474 13.155073 13.352588 13.555708 13.765250 13.981506 14.205092 14.436822 14.675645 14.919553 15.169548 15.425177 15.684491 15.948723 16.216661 16.484961 16.751804 17.018719 17.285566 17.550533 17.813862 18.077253 18.339476 18.599531 18.857515 19.115675 19.377016 19.641848 19.909098 20.177134 20.446375 20.716652 20.987728 21.257965 21.526392 21.791452 22.054756 22.316784 22.576042 22.833820 23.090734 23.345371 23.596714 23.845732 24.092329 24.335463 24.575123 24.810822 25.042831 25.271114 25.495159 25.715199 25.931158 26.141529 26.346148 26.546255 26.740324 26.928164 27.111462 27.291241 27.466290 27.638056 27.806620 27.972849 28.137154
13.187439 13.378834 13.576383 13.779824 13.989624 14.206264 14.430646 14.662689 14.901773 15.146109 15.396437 15.652347 15.912153 16.176823 16.445124 16.713413 16.980083 17.246836 17.513515 17.778185 18.041307 18.304230 18.566299 18.825827 19.083179 19.340906 19.601511 19.865210 20.132175 20.400660 20.669931 20.940283 21.212082 21.483097 21.752317 22.018435 22.282801 22.545620 22.806097 23.065105 23.322844 23.578470 23.830482 24.080521 24.328325 24.572268 24.812395 25.049498 25.282528 25.511509 25.737196 25.958506 26.175320 26.386799 26.592896 26.794083 26.989485 27.179037 27.364210 27.546089 27.723740 27.897881 28.068760 28.237446 28.404392
13.388111 13.579107 13.776528 13.980174 14.190025 14.406717 14.631636 14.863770 15.102675 15.347431 15.597897 15.853675 16.114014 16.378954 16.647215 16.915295 17.181890 17.448357 17.714525 17.978851 18.241823 18.504213 18.765814 19.024815 19.281788 19.539112 19.799028 20.061691 20.328184 20.597118 20.866467 21.137159 21.409424 21.681225 21.951040 22.218464 22.483923 22.747461 23.009367 23.269632 23.528255 23.784777 24.037804 24.288919 24.537827 24.782637 25.023588 25.261990 25.496084 25.726101 25.953304 26.175903 26.393623 26.606375 26.813961 27.016256 27.213144 27.404438 27.591583 27.775307 27.955593 28.132019 28.305016 28.476139 28.645433
13.562780 13.753170 13.950294 14.153963 14.363660 14.580132 14.805285 15.037294 15.275724 15.520765 15.771173 16.026564 16.287331 16.552364 16.820274 17.087955 17.354479 17.620537 17.885958 18.149950 18.412678 18.674503 18.935377 19.193890 19.450640 19.707598 19.966890 20.228664 20.494616 20.763926 21.033438 21.304644 21.577242 21.849810 22.120165 22.388992 22.655571 22.919931 23.183296 23.444843 23.704412 23.961792 24.216106 24.468351 24.718309 24.964039 25.206121 25.445738 25.680944 25.912285 26.140905 26.364817 26.583498 26.797676 27.006748 27.210184 27.408680 27.601807 27.790880 27.976383 28.159138 28.337738 28.512783 28.686159 28.857536
13.708939 13.898643 14.095284 14.298692 14.508024 14.724124 14.949119 15.180797 15.418695 15.663657 15.913817 16.168798 16.429657 16.694614 16.961985 17.229122 17.495399 17.760925 18.025536 18.289068 18.551466 18.812683 19.072691 19.330816 19.587349 19.843979 20.102716 20.363852 20.629349 20.898794 21.168652 21.440390 21.713379 21.986580 22.257664 22.527763 22.795483 23.060858 23.325600 23.588449 23.849033 24.107304 24.363075 24.616508 24.867495 25.114243 25.357653 25.598461 25.834850 26.067684 26.297670 26.522909 26.742649 26.958328 27.168884 27.373539 27.573700 27.768711 27.959633 28.146950 28.331902 28.512564 28.689564 28.864988 29.038200
13.824387 14.013312 14.209298 14.412171 14.620938 14.836495 15.060997 15.292127 15.529416 15.773985 16.023716 16.278231 16.538881 16.803589 17.070238 17.336679 17.602539 17.867414 18.131155 18.394114 18.656084 18.916670 19.175833 19.433542 19.689856 19.946194 20.204458 20.465168 20.730320 20.999748 21.270084 21.542381 21.815826 22.089590 22.361553 22.632812 22.901701 23.168238 23.434296 23.698467 23.960127 24.219456 24.476700 24.731361 24.983406 25.231358 25.476133 25.718138 25.955868 26.190222 26.421553 26.648130 26.869114 27.086266 27.298286 27.504314 27.706083 27.902964 28.095655 28.284773 28.471684 28.654282 28.833122 29.010382 29.185205
13.907270 14.095315 14.290476 14.492564 14.700572 14.915394 15.139117 15.369500 15.606069 15.849972 16.099092 16.353060 16.613255 16.877539 17.143274 17.408876 17.674133 17.938255 18.201078 18.463352 18.724815 18.984741 19.243095 19.500362 19.756462 20.012547 20.270426 20.530880 20.795801 21.065161 21.336061 21.608942 21.882908 22.157225 22.430164 22.702522 22.972589 23.240389 23.507736 23.773239 24.036037 24.296574 24.555279 24.811220 25.064375 25.313662 25.559826 25.803055 26.042248 26.278111 26.510796 26.738722 26.961079 27.179682 27.393158 27.600666 27.803993 28.002684 28.197062 28.387917 28.576576 28.760981 28.941525 29.120396 29.296618
13.956098 14.143143 14.337325 14.538408 14.745466 14.959353 15.182060 15.411508 15.647203 15.890224 16.138563 16.391857 16.651386 16.915079 17.179712 17.444328 17.708815 17.972071 18.233940 18.495432 18.756304 19.015549 19.273144 19.529955 19.785841 20.041708 20.299299 20.559633 20.824444 21.093763 21.365276 21.638762 21.913317 22.188217 22.462194 22.735619 23.006878 23.275990 23.544622 23.811460 24.075457 24.337313 24.597471 24.854725 25.109055 25.359756 25.607332 25.851835 26.092541 26.329916 26.563972 26.793247 27.017056 27.237110 27.452011 27.661051 27.865911 28.066311 28.262276 28.454769 28.645012 28.831074 29.013172 29.193420 29.370844
13.969771 14.155696 14.348741 14.548630 14.754560 14.967305 15.188794 15.417124 15.651785 15.893742 16.141132 16.393604 16.652308 16.915234 17.178566 17.442047 17.705599 17.967886 18.228764 18.489399 18.749596 19.008144 19.265032 19.521379 19.777060 20.032753 20.290150 20.550472 20.815294 21.084667 21.356802 21.630917 21.906126 22.181677 22.456715 22.731197 23.003651 23.274090 23.544016 23.812183 24.077423 24.340683 24.602278 24.860878 25.116457 25.368605 25.617605 25.863434 26.105661 26.344530 26.579990 26.810608 27.035902 27.257408 27.473705 27.684284 27.890646 28.092621 28.290073 28.484074 28.675747 28.863319 29.046806 29.228193 29.406612
13.947582 14.132258 14.324025 14.522554 14.727180 14.938581 15.158689 15.385726 15.619178 15.859921 16.106207 16.357695 16.615431 16.877369 17.139252 17.401463 17.663916 17.925138 18.184992 18.444700 18.704145 18.961994 19.218218 19.474115 19.729597 19.985151 20.242449 20.502851 20.767805 21.037369 21.310116 21.584875 21.860798 22.137093 22.413181 22.688736 22.962381 23.234131 23.505354 23.774841 24.041367 24.306080 24.569073 24.829044 25.085949 25.339535 25.589958 25.837170 26.080883 26.321226 26.558105 26.790060 27.016827 27.239786 27.457443 27.669518 27.877359 28.080761 28.279581 28.474937 28.667912 28.856834 29.041534 29.223812 29.403030
13.889233 14.072536 14.262889 14.459914 14.663082 14.872947 15.091531 15.317112 15.549180 15.788577 16.033611 16.283947 16.540596 16.801275 17.061607 17.322411 17.583601 17.843668 18.102478 18.361204 18.619825 18.876961 19.132586 19.388050 19.643333 19.898787 20.156086 20.416637 20.681845 20.951759 21.225086 21.500507 21.777203 22.054342 22.331453 22.608091 22.882919 23.155933 23.428465 23.699245 23.967091 24.233265 24.497623 24.758972 25.017263 25.272245 25.524086 25.772713 26.017849 26.259632 26.497952 26.731207 26.959414 27.183813 27.402775 27.616287 27.825562 28.030220 28.230293 28.426842 28.620983 28.811100 28.996830 29.179747 29.359554
13.794836 13.976639 14.165461 14.360868 14.562419 14.770582 14.987519 15.211488 15.442000 15.679939 15.923587 16.172606 16.428062 16.687201 16.945881 17.205149 17.464920 17.723747 17.981483 18.239195 18.496922 18.753336 19.008423 19.263479 19.518574 19.773956 20.031357 20.292120 20.557697 20.828133 21.101992 21.378090 21.655603 21.933689 22.211782 22.489513 22.765501 23.039726 23.313549 23.585594 23.854782 24.122389 24.388058 24.650789 24.910501 25.166815 25.420052 25.670111 25.916580 26.159760 26.399502 26.634037 26.863617 27.089417 27.309631 27.524488 27.735134 27.940882 28.142075 28.339649 28.534836 28.725967 28.912552 29.095854 29.276031
13.664919 13.845100 14.032278 14.225975 14.425772 14.632093 14.847263 15.069483 15.298282 15.534657 15.776781 16.024336 16.278500 16.535793 16.792738 17.050344 17.308554 17.566051 17.822710 18.079369 18.336132 18.591825 18.846432 19.101118 19.356030 19.611376 19.868961 20.130011 20.396067 20.667170 20.941513 21.218294 21.496664 21.775784 22.054813 22.333635 22.610743 22.886120 23.161205 23.434467 23.705006 23.973984 24.240898 24.505003 24.766136 25.023705 25.278305 25.529774 25.777481 26.021996 26.263115 26.498888 26.729767 26.956890 27.178295 27.394398 27.606312 27.812988 28.015175 28.213615 28.409704 28.601677 28.788916 28.972366 29.152676
13.500414 13.678862 13.864295 14.056208 14.254124 14.458502 14.671785 14.892125 15.119078 15.353776 15.594261 15.840221 16.092939 16.348135 16.603252 16.859087 17.115589 17.371683 17.627239 17.882833 18.138565 18.393538 18.647724 18.902084 19.156809 19.412155 19.670015 19.931412 20.198051 20.469940 20.744736 21.022190 21.301445 21.581659 21.861584 22.141466 22.419655 22.696121 22.972397 23.246822 23.518717 23.788948 24.057043 24.322495 24.585007 24.843744 25.099670 25.352484 25.601313 25.847103 26.089506 26.326466 26.558559 26.786903 27.009420 27.226658 27.439711 27.647167 27.850197 28.049372 28.246206 28.438835 28.626499 28.809902 28.990082
13.302637 13.479262 13.662859 13.852942 14.048862 14.251232 14.462499 14.680840 14.905848 15.138745 15.377483 15.621756 15.872729 16.125675 16.378895 16.632845 16.887506 17.142122 17.396566 17.651093 17.905735 18.159977 18.413805 18.667889 18.922424 19.177797 19.436014 19.697847 19.965162 20.237898 20.513117 20.791224 21.071390 21.352716 21.633503 21.914385 22.193598 22.471100 22.748466 23.023987 23.297213 23.568565 23.837746 24.104511 24.368309 24.628128 24.885326 25.139368 25.389214 25.636200 25.879749 26.117838 26.351067 26.580465 26.804010 27.022284 27.236286 27.444403 27.648136 27.847925 28.045322 28.238422 28.426283 28.609453 28.789215
13.073304 13.248023 13.429707 13.617923 13.811743 14.012095 14.221201 14.437438 14.660438 14.891396 15.128286 15.370812 15.619693 15.870260 16.121513 16.373487 16.626179 16.879246 17.132570 17.386026 17.639519 17.893034 18.146549 18.400417 18.654755 18.910187 19.168825 19.431200 19.699276 19.972845 20.248484 20.527222 20.808304 21.090715 21.372351 21.654121 21.934290 22.212803 22.491100 22.767637 23.042162 23.314449 23.584623 23.852650 24.117580 24.378407 24.636806 24.891907 25.142673 25.390762 25.635263 25.874407 26.108700 26.338936 26.563421 26.782635 26.997351 27.206038 27.410330 27.610649 27.808392 28.001781 28.189606 28.372379 28.551401
12.814473 12.987232 13.166937 13.353262 13.544902 13.743271 13.950047 14.164090 14.385066 14.613914 14.848869 15.089645 15.336027 15.584098 15.833317 16.083227 16.333824 16.585279 16.837469 17.089874 17.342157 17.594942 17.848198 18.101908 18.356039 18.611555 18.870676 19.133728 19.402632 19.676928 19.953014 20.232342 20.514332 20.797737 21.080235 21.362743 21.643785 21.923298 22.202320 22.479778 22.755554 23.028564 23.299618 23.568834 23.834684 24.096464 24.355972 24.611897 24.863510 25.112591 25.357788 25.597908 25.833204 26.064013 26.289333 26.509413 26.724548 26.933765 27.138453 27.339270 27.537094 27.730576 27.918158 28.100378 28.278311
12.528549 12.699317 12.876985 13.061300 13.250800 13.447178 13.651530 13.863295 14.082291 14.308825 14.541766 14.780752 15.024259 15.269722 15.516850 15.764623 16.013018 16.262798 16.513842 16.765207 17.016233 17.268280 17.521324 17.774935 18.028843 18.284466 18.544115 18.808010 19.077799 19.352606 19.629206 19.909075 20.191948 20.476185 20.759590 21.042622 21.324440 21.604973 21.884455 22.162731 22.439531 22.713175 22.984987 23.255157 23.521786 23.784489 24.044857 24.301451 24.553864 24.803667 25.049385 25.290380 25.526506 25.757689 25.983738 26.204485 26.419832 26.629570 26.834505 27.035828 27.233437 27.426702 27.613949 27.795372 27.971931
12.218148 12.387009 12.562599 12.744730 12.932218 13.126568 13.328451 13.537874 13.754969 13.978954 14.209820 14.446913 14.687228 14.929980 15.174954 15.420522 15.666618 15.914666 16.164547 16.414747 16.664625 16.915926 17.168793 17.422358 17.676033 17.931784 18.191992 18.456932 18.727631 19.002636 19.279846 19.560194 19.843904 20.128740 20.413128 20.696411 20.978901 21.260365 21.540129 21.819099 22.096584 22.370840 22.643280 22.914043 23.181337 23.444967 23.705824 23.962957 24.216164 24.466301 24.712391 24.954165 25.190868 25.422262 25.648918 25.870070 26.085455 26.295618 26.500797 26.702522 26.899727 27.092396 27.279146 27.459564 27.634573
11.886203 12.053184 12.226679 12.406534 12.592201 12.784364 12.983881 13.190912 13.405967 13.627418 13.856146 14.090957 14.328037 14.567990 14.810601 15.053904 15.297776 15.544033 15.792582 16.041542 16.290482 16.541025 16.793736 17.047167 17.300741 17.556637 17.817425 18.083498 18.354971 18.630020 18.907837 19.188742 19.473045 19.758343 20.043520 20.327023 20.610062 20.892174 21.172203 21.451731 21.729479 22.004356 22.277279 22.548204 22.816036 23.080627 23.341530 23.599064 23.853073 24.103092 24.349407 24.591829 24.828829 25.060287 25.287415 25.508678 25.723930 25.934380 26.139900 26.341742 26.538536 26.730185 26.916245 27.095465 27.268814
11.535906 11.701010 11.872408 12.049953 12.233862 12.423781 12.620954 12.825742 13.038488 13.257556 13.484034 13.716049 13.950041 14.187110 14.427058 14.668024 14.909869 15.154287 15.401223 15.648909 15.897185 16.146965 16.399382 16.652632 16.906334 17.162395 17.423759 17.691002 17.962986 18.237993 18.516359 18.797983 19.082500 19.368143 19.653772 19.937584 20.221031 20.503393 20.783773 21.063448 21.341202 21.616623 21.889759 22.160580 22.428810 22.694029 22.954863 23.212652 23.467125 23.716892 23.963264 24.205948 24.443045 24.674551 24.901745 25.122917 25.338015 25.548605 25.754631 25.956196 26.152491 26.342840 26.527824 26.705872 26.877478
11.170661 11.333884 11.503203 11.678417 11.860571 12.048264 12.243055 12.445882 12.655999 12.872910 13.096871 13.325653 13.556774 13.790891 14.027804 14.266382 14.506474 14.749003 14.993981 15.240357 15.488061 15.737326 15.989196 16.242247 16.496361 16.752613 17.014542 17.282942 17.555094 17.829964 18.108814 18.391354 18.675623 18.961472 19.247128 19.531399 19.814873 20.097235 20.378113 20.657333 20.934929 21.210751 21.483757 21.754284 22.022774 22.288059 22.548897 22.806782 23.061146 23.310726 23.556995 23.799349 24.036406 24.268047 24.494724 24.715645 24.930672 25.141254 25.347748 25.548843 25.744244 25.933344 26.116756 26.293543 26.463621
10.794029 10.955152 11.122404 11.295536 11.475679 11.661263 11.853813 12.054615 12.262125 12.476958 12.698096 12.923392 13.151693 13.382791 13.616493 13.852631 14.091051 14.331670 14.574526 14.819553 15.066672 15.315835 15.566829 15.819659 16.074282 16.330999 16.593458 16.862471 17.134611 17.409506 17.688755 17.971901 18.255915 18.541563 18.826981 19.111668 19.394867 19.677059 19.958151 20.236717 20.513979 20.789829 21.062544 21.332611 21.600965 21.865883 22.126858 22.384460 22.638271 22.887791 23.133564 23.375141 23.612001 23.843704 24.069412 24.289932 24.505035 24.715464 24.922028 25.122643 25.316767 25.504700 25.686144 25.861504 26.030428
10.409716 10.568348 10.733543 10.905039 11.082740 11.266254 11.456974 11.655312 11.860616 12.073264 12.291325 12.513000 12.738445 12.966470 13.196893 13.430536 13.667263 13.905964 14.146634 14.390270 14.636789 14.885857 15.136051 15.388616 15.643732 15.901380 16.164316 16.433012 16.705042 16.980288 17.259829 17.542946 17.826977 18.111822 18.396828 18.681574 18.964499 19.246334 19.526894 19.805044 20.081785 20.356913 20.629265 20.898945 21.166414 21.430780 21.691847 21.948668 22.201746 22.451153 22.695927 22.936548 23.173058 23.404190 23.629017 23.848976 24.064123 24.274502 24.480556 24.680380 24.873268 25.059725 25.239235 25.413012 25.580929
10.020913 10.177184 10.340343 10.510279 10.685490 10.866982 11.055863 11.251712 11.455029 11.665251 11.880080 12.098287 12.320618 12.545525 12.772830 13.003941 13.238722 13.475490 13.714164 13.956363 14.202250 14.450766 14.700688 14.952944 15.208520 15.467381 15.730528 15.998240 16.270044 16.545816 16.825497 17.108082 17.392031 17.675825 17.960236 18.244339 18.527073 18.808222 19.087761 19.365593 19.641483 19.915400 20.187222 20.456396 20.722485 20.986132 21.246758 21.502748 21.754921 22.003683 22.247410 22.486893 22.722517 22.952631 23.176846 23.396090 23.611132 23.821524 24.026350 24.225000 24.416803 24.601398 24.779398 24.951437 25.118013
9.630729 9.785334 9.946551 10.114385 10.287696 10.467215 10.653698 10.847550 11.048916 11.256344 11.467857 11.683095 11.901696 12.123446 12.348174 12.576715 12.808929 13.043722 13.280988 13.521705 13.766701 14.014329 14.264226 14.516485 14.772473 15.032513 15.295263 15.561855 15.833307 16.109493 16.389071 16.670927 16.954044 17.237169 17.520449 17.803438 18.085735 18.365894 18.644220 18.921480 19.196218 19.468733 19.739771 20.007854 20.272596 20.535267 20.794596 21.049870 21.301105 21.548370 21.791161 22.029482 22.263367 22.492302 22.716030 22.934626 23.149422 23.359325 23.562473 23.759729 23.950092 24.133043 24.309685 24.480225 24.644798
9.242802 9.395901 9.555558 9.721016 9.892754 10.070327 10.254170 10.446119 10.645474 10.849810 11.058394 11.270546 11.485422 11.703984 11.926406 12.152340 12.381649 12.614429 12.850572 13.090159 13.333624 13.580300 13.830108 14.082993 14.339398 14.599809 14.861835 15.127533 15.398499 15.674527 15.953781 16.234711 16.516510 16.798994 17.080688 17.362356 17.643299 17.922440 18.199720 18.475492 18.749062 19.020348 19.289696 19.556379 19.820168 20.080959 20.338678 20.593071 20.843061 21.088516 21.330212 21.567060 21.798901 22.026501 22.249603 22.467979 22.682011 22.890451 23.092236 23.287420 23.476091 23.657944 23.833176 24.002432 24.164677
8.860736 9.012282 9.170184 9.333797 9.503926 9.679580 9.860933 10.050912 10.247570 10.449096 10.654937 10.863661 11.075418 11.290833 11.510857 11.734150 11.960583 12.191307 12.426284 12.665073 12.906720 13.152369 13.402007 13.655579 13.912894 14.172208 14.433477 14.698827 14.969146 15.244042 15.522700 15.802511 16.082867 16.363850 16.644312 16.924025 17.202951 17.480877 17.757101 18.030813 18.303015 18.573072 18.840162 19.105263 19.367722 19.626364 19.882294 20.135136 20.383556 20.627401 20.867346 21.102409 21.332417 21.558525 21.780848 21.999083 22.211515 22.418001 22.618219 22.811211 22.998055 23.178810 23.353155 23.520525 23.681040
8.487755 8.637364 8.793401 8.955954 9.124101 9.297873 9.477551 9.664728 9.858316 10.057434 10.260017 10.465719 10.674685 10.887591 11.104475 11.325102 11.549346 11.777967 12.011658 12.249053 12.489587 12.734125 12.983507 13.237662 13.494808 13.753137 14.013623 14.278610 14.547985 14.821424 15.098542 15.377036 15.656005 15.934857 16.213707 16.491226 16.767933 17.044132 17.318485 17.590660 17.860998 18.129025 18.394388 18.657423 18.917624 19.174629 19.428364 19.678738 19.925428 20.167885 20.405233 20.638357 20.867071 21.091606 21.313002 21.530006 21.740685 21.944925 22.142881 22.334240 22.519192 22.698727 22.871868 23.037605 23.196739
8.125952 8.274101 8.428526 8.589586 8.756239 8.928398 9.106474 9.290541 9.481048 9.677117 9.876630 10.079484 10.286308 10.496779 10.710495 10.928425 11.150902 11.377878 11.609508 11.845297 12.085141 12.329020 12.578043 12.831674 13.087604 13.345584 13.605581 13.869446 14.137622 14.409425 14.684302 14.960997 15.238137 15.514918 15.791037 16.066584 16.341137 16.614502 16.886757 17.157431 17.425308 17.691082 17.954777 18.215155 18.472902 18.728008 18.979197 19.226906 19.471487 19.711628 19.946922 20.177969 20.405376 20.628904 20.848557 21.063061 21.271797 21.473711 21.669262 21.858997 22.042652 22.220388 22.391792 22.556538 22.713999
7.777899 7.924694 8.078199 8.237268 8.402544 8.573789 8.749809 8.931203 9.118583 9.310721 9.507207 9.707899 9.912484 10.120448 10.331835 10.547324 10.767988 10.993529 11.222881 11.456991 11.696051 11.939987 12.188257 12.439730 12.694320 12.951845 13.211802 13.473788 13.740282 14.010263 14.282752 14.556611 14.831444 15.105732 15.379141 15.652287 15.924274 16.194838 16.464573 16.732582 16.998484 17.261915 17.522787 17.781013 18.036224 18.288311 18.537163 18.782335 19.023687 19.261288 19.494854 19.724178 19.950127 20.172491 20.389288 20.600933 20.806894 21.006763 21.200294 21.388287 21.570707 21.746336 21.915884 22.079258 22.235096
7.446191 7.591725 7.743524 7.901584 8.065588 8.235148 8.409785 8.588650 8.772733 8.961124 9.154564 9.352914 9.555037 9.760737 9.970518 10.184585 10.403294 10.626611 10.854535 11.087111 11.325282 11.568734 11.815296 12.064675 12.317795 12.574442 12.833213 13.093989 13.357936 13.625703 13.895576 14.166241 14.437564 14.709081 14.980191 15.249981 15.519138 15.787314 16.053589 16.318647 16.582123 16.842955 17.100964 17.356609 17.609049 17.858089 18.104168 18.346426 18.584623 18.819557 19.051254 19.279476 19.503675 19.723099 19.937336 20.145597 20.348598 20.546316 20.738466 20.924711 21.104954 21.279091 21.446754 21.607738 21.761911
7.132173 7.276436 7.426952 7.583872 7.746605 7.914873 8.087618 8.264053 8.445156 8.630767 8.821140 9.016143 9.215738 9.419828 9.628373 9.841506 10.058539 10.279750 10.506248 10.738168 10.975103 11.216002 11.460657 11.708883 11.960371 12.214839 12.471928 12.730617 12.992453 13.257189 13.523712 13.791025 14.058783 14.326841 14.594595 14.861732 15.127612 15.392363 15.655901 15.917572 16.177496 16.435574 16.691046 16.943233 17.192772 17.439112 17.681566 17.920748 18.156582 18.388960 18.618652 18.845064 19.066628 19.282711 19.493631 19.699266 19.899448 20.094912 20.285400 20.469809 20.647921 20.820276 20.985897 21.144537 21.296955
6.837019 6.979997 7.129700 7.285288 7.446749 7.613838 7.784427 7.958473 8.137229 8.320638 8.507998 8.699826 8.896852 9.099286 9.306849 9.518591 9.734499 9.955003 10.180316 10.410958 10.645554 10.883874 11.126505 11.373199 11.622828 11.874871 12.129136 12.385169 12.643860 12.905394 13.168118 13.431918 13.696119 13.960087 14.224209 14.487836 14.750489 15.011860 15.271812 15.530169 15.786610 16.040985 16.293112 16.542610 16.788628 17.031488 17.271177 17.507483 17.740936 17.971546 18.198446 18.421312 18.639515 18.852585 19.060316 19.263330 19.461578 19.654644 19.842461 20.024927 20.201479 20.371191 20.534660 20.691856 20.842318
6.561409 6.703590 6.851879 7.006488 7.167141 7.332036 7.500820 7.673402 7.849635 8.030280 8.215597 8.405550 8.600462 8.800851 9.006335 9.216791 9.432182 9.652531 9.877134 10.105197 10.337267 10.573866 10.814263 11.058155 11.305276 11.554787 11.805836 12.058143 12.312544 12.570221 12.829389 13.089294 13.349495 13.609803 13.869637 14.129158 14.388148 14.645942 14.902224 15.156849 15.409628 15.660246 15.908532 16.154297 16.397205 16.636986 16.873888 17.108160 17.339333 17.566940 17.790392 18.009130 18.223576 18.433680 18.639141 18.839766 19.035641 19.226339 19.411640 19.591572 19.765629 19.933529 20.095081 20.250307 20.398697
6.305568 6.446503 6.594041 6.747676 6.906680 7.070036 7.237739 7.408271 7.581969 7.760585 7.944142 8.132957 8.326777 8.525118 8.728420 8.937462 9.152128 9.371128 9.594049 9.820807 10.051485 10.285562 10.523395 10.764336 11.007789 11.253509 11.500856 11.749454 11.999372 12.252140 12.506803 12.762733 13.018961 13.275091 13.530929 13.786187 14.040670 14.294430 14.546871 14.797655 15.046413 15.293114 15.537485 15.779371 16.019098 16.256464 16.491095 16.722633 16.950645 17.174496 17.393995 17.609432 17.820574 18.027639 18.230770 18.429142 18.622356 18.810604 18.993469 19.170519 19.341984 19.507999 19.667637 19.820484 19.966419
6.068545 6.208655 6.355126 6.507803 6.665525 6.827647 6.993603 7.162365 7.334341 7.511391 7.693839 7.881319 8.073699 8.271121 8.473864 8.681268 8.893064 9.109683 9.330983 9.556434 9.785522 10.017769 10.252575 10.489650 10.728933 10.970226 11.213248 11.457822 11.703636 11.951170 12.200489 12.451460 12.703143 12.955018 13.206727 13.457728 13.707876 13.957045 14.204975 14.451532 14.696357 14.939149 15.179959 15.418878 15.655483 15.889769 16.121269 16.349239 16.573353 16.793633 17.010143 17.222628 17.431183 17.635605 17.835484 18.031151 18.222042 18.407557 18.587584 18.762478 18.931681 19.094719 19.251701 19.402075 19.545532
5.848864 5.988064 6.133982 6.285773 6.442017 6.602745 6.767329 6.935004 7.106018 7.281807 7.462754 7.649001 7.840605 8.037241 8.238414 8.444070 8.654231 8.868743 9.087470 9.310283 9.536414 9.765392 9.996895 10.230503 10.465892 10.703072 10.941870 11.181922 11.423084 11.665339 11.909446 12.154830 12.401052 12.647868 12.894849 13.141488 13.387371 13.632174 13.875710 14.117931 14.358854 14.598309 14.835964 15.071478 15.304630 15.534999 15.762263 15.986414 16.207363 16.424843 16.638647 16.848680 17.054646 17.256311 17.453547 17.645996 17.833710 18.016754 18.194639 18.366777 18.532974 18.693151 18.847000 18.994587 19.135994
5.645516 5.783562 5.928336 6.078458 6.233535 6.393440 6.557151 6.724184 6.894262 7.068640 7.248583 7.433669 7.623645 7.818474 8.018126 8.222284 8.430721 8.642947 8.858599 9.077440 9.299319 9.524172 9.751680 9.981523 10.213379 10.446940 10.681896 10.918039 11.154841 11.391584 11.630033 11.869893 12.110634 12.351882 12.593390 12.835024 13.076412 13.317199 13.557072 13.795748 14.032977 14.268579 14.502303 14.733959 14.963229 15.189842 15.413658 15.634666 15.852637 16.067268 16.278437 16.485905 16.689222 16.888165 17.082724 17.272690 17.457706 17.637489 17.811977 17.981047 18.144398 18.301788 18.453297 18.598902 18.738173
0.000000 0.000000 0.000000 0.000000 0.000000 0.000000 0.000000 0.000000 0.000000 0.000000 0.000000 0.000000 0.000000 0.000000 0.000000 0.000000 0.000000 0.000000 0.000000 0.000000 0.000000 0.000000 0.000000 0.000000 0.000000 0.000000 0.000000 0.000000 0.000000 0.000000 0.000000 0.000000 0.000000 0.000000 0.000000 0.000000 0.000000 0.000000 0.000000 0.000000 0.000000 0.000000 0.000000 0.000000 0.000000 0.000000 0.000000 0.000000 0.000000 0.000000 0.000000 0.000000 0.000000 0.000000 0.000000 0.000000 0.000000 0.000000 0.000000 0.000000 0.000000 0.000000 0.000000 0.000000 0.000000