64 64
7.544147 7.859833 8.196815 8.557313 8.947189 9.379227 9.867844 10.423894 11.050667 11.745726 12.337595 12.884232 13.766298 14.473186 15.377810 16.082914 17.065809 17.952204 18.707157 19.467363 20.192471 20.846268 21.417543 21.910957 22.168043 21.970364 21.376987 20.617977 20.117046 20.192406 20.893835 21.998161 23.106997 23.739367 23.783476 23.395231 22.787167 22.096172 21.360329 20.614017 19.816319 19.054543 18.426716 17.983725 17.728512 17.611851 17.525427 17.356060 17.046700 16.707308 16.348211 15.987893 15.677913 15.414119 15.201390 15.047505 14.951524 14.931754 14.988776 15.108968 15.120867 15.071007 15.499746 15.823636 15.971740
7.627116 7.714800 8.279518 8.789101 8.794159 8.635464 9.721817 10.670094 11.304274 12.006587 12.363010 12.766124 13.557166 14.356790 15.223194 16.062439 17.229828 18.361986 19.076010 19.802258 20.526859 21.167257 21.706881 22.192499 22.612648 22.738644 22.427540 21.858271 21.443117 21.481894 22.043331 22.937393 23.815775 24.307533 24.398436 24.148632 23.663261 23.088171 22.451357 21.741140 20.929382 20.119400 19.421553 18.909384 18.585655 18.394512 18.240559 18.032043 17.697987 17.294041 16.871672 16.472477 16.120781 15.816652 15.570548 15.384678 15.265175 15.232438 15.278443 15.392743 15.564026 15.758361 15.941800 16.106468 16.262213
7.699560 7.652241 8.371078 9.116415 8.535182 7.854772 9.116080 10.882970 11.668703 12.378191 12.983143 13.550414 14.461761 15.199490 16.144636 16.889727 17.912819 18.814100 19.519960 20.220131 20.843910 21.336769 21.748844 22.164108 22.687256 23.187193 23.392756 23.254387 23.082039 23.157087 23.538946 24.127871 24.640205 24.922647 24.979008 24.764854 24.380407 23.918344 23.393349 22.756123 21.989792 21.193434 20.471308 19.904457 19.506773 19.238485 19.031788 18.785498 18.398081 17.915451 17.440609 16.997976 16.605175 16.261721 15.976903 15.753445 15.605799 15.550432 15.579179 15.681813 15.843525 16.031010 16.210930 16.381218 16.549198
8.288083 8.418211 9.004974 9.534571 9.559645 9.061019 9.804622 11.128869 12.142193 12.858247 13.625419 14.437944 15.277059 16.121523 16.954380 17.764414 18.543499 19.286146 19.991070 20.643955 21.110456 21.416317 21.626947 21.942028 22.485556 23.241383 23.979633 24.402620 24.564116 24.736507 24.964275 25.226511 25.427225 25.538832 25.515285 25.284689 24.952356 24.570599 24.152430 23.634155 22.965853 22.239796 21.552729 20.975954 20.540667 20.223831 19.951368 19.614361 19.131365 18.586819 18.072350 17.585733 17.141649 16.747751 16.416346 16.152849 15.980448 15.899520 15.902296 15.981671 16.120638 16.289722 16.471991 16.652954 16.833647
8.841189 9.232452 9.617893 10.020478 10.453600 10.786689 11.096432 11.904816 12.706443 13.430553 14.204477 15.018157 15.846321 16.678150 17.498274 18.292587 19.055664 19.784609 20.478277 21.053659 21.355501 21.443665 21.475225 21.701559 22.263638 23.147837 24.184193 25.053753 25.548468 25.824055 25.979450 26.078400 26.148739 26.131283 25.972309 25.724253 25.444078 25.129072 24.793011 24.404552 23.871595 23.267799 22.674877 22.148766 21.706799 21.319862 20.942560 20.481419 19.898703 19.311754 18.757736 18.228863 17.731028 17.281181 16.896585 16.594431 16.389839 16.277361 16.250099 16.300459 16.409445 16.557241 16.736042 16.929399 17.128916
9.286916 9.708516 10.125121 10.553926 11.016507 11.519335 12.069780 12.676439 13.347670 14.082701 14.864200 15.668848 16.483538 17.295561 18.093277 18.868763 19.610443 20.314968 20.988922 21.488400 21.649982 21.602129 21.543112 21.727980 22.315643 23.285927 24.453760 25.530571 26.215879 26.590511 26.771355 26.811993 26.777391 26.636814 26.374598 26.060555 25.776390 25.543476 25.327429 25.075558 24.712244 24.258093 23.782629 23.320244 22.880146 22.425493 21.926949 21.349405 20.711124 20.062798 19.428383 18.834541 18.301996 17.833076 17.423817 17.088148 16.847771 16.697536 16.632111 16.645657 16.719063 16.837530 17.006769 17.209759 17.434881
9.766257 10.220920 10.669326 11.131175 11.628357 12.160874 12.737821 13.366625 14.049241 14.792035 15.576354 16.211731 16.765297 17.795095 18.725147 19.472687 20.189287 20.870131 21.523098 21.993950 22.121384 22.060678 22.005424 22.207827 22.821362 23.821028 25.014847 26.112183 26.828161 27.228844 27.389288 27.381443 27.279926 27.040430 26.672045 26.278675 25.969559 25.785206 25.685490 25.593832 25.414791 25.117514 24.761934 24.369061 23.939779 23.450188 22.845032 22.160229 21.429977 20.688931 19.997301 19.359203 18.793510 18.336653 17.964951 17.632442 17.352686 17.161072 17.049160 17.013199 17.040398 17.124563 17.273273 17.483524 17.731789
10.265719 10.754251 11.073944 11.321256 12.109193 12.839578 13.444389 14.091491 14.787804 15.535750 16.319023 16.702898 17.077391 18.238695 19.379652 20.094677 20.781372 21.441200 22.082174 22.595341 22.794245 22.834322 22.878590 23.158415 23.797632 24.762112 25.871550 26.859863 27.486609 27.826439 27.931404 27.909328 27.770102 27.422598 26.956635 26.500099 26.171278 26.027626 26.020977 26.057364 26.026152 25.836769 25.579849 25.264511 24.866255 24.326664 23.622633 22.810900 21.895229 21.014471 20.293623 19.735546 19.263443 18.846750 18.508457 18.204908 17.901125 17.656321 17.488192 17.398170 17.379179 17.426455 17.546057 17.752483 18.016006
10.772153 11.294826 11.397186 11.518636 12.508070 13.527798 14.159513 14.827596 15.538549 16.246042 17.028639 17.649530 18.202978 18.974945 19.525681 20.521637 21.384586 22.037746 22.676132 23.243801 23.600580 23.808599 24.030182 24.415337 25.067070 25.939011 26.880245 27.663893 28.177910 28.446205 28.528713 28.504532 28.313627 27.891352 27.360228 26.866755 26.523739 26.395842 26.447420 26.575310 26.651205 26.552799 26.337458 26.065180 25.688244 25.101883 24.294371 23.239765 22.074226 21.056633 20.317520 19.867687 19.602777 19.353960 19.095251 18.812223 18.487335 18.182215 17.957743 17.811295 17.746174 17.756424 17.850483 18.041502 18.307478
11.286667 11.823997 12.212759 12.536789 13.398202 14.142396 14.803461 15.497025 16.273010 16.990046 17.770023 18.542084 19.323725 19.178360 18.878519 20.512432 22.010921 22.667633 23.308987 23.915112 24.408791 24.802181 25.194189 25.691694 26.337944 27.086502 27.816778 28.425161 28.845984 29.089758 29.193213 29.177635 28.969957 28.530720 27.986019 27.480463 27.119305 26.978861 27.044191 27.207617 27.329906 27.281895 27.098022 26.854355 26.470081 25.832981 24.891592 23.619864 22.264832 21.120975 20.347040 19.981764 19.890419 19.839851 19.702299 19.460470 19.120564 18.762503 18.480766 18.275381 18.159939 18.130241 18.198290 18.367052 18.627947
11.806968 12.341449 12.912703 13.523194 14.162633 14.773943 15.461635 16.020132 16.568502 17.537647 18.478453 19.247236 20.018238 19.710396 19.292622 21.015423 22.669262 23.332794 23.983170 24.612219 25.174217 25.670801 26.171043 26.720373 27.335867 27.981804 28.596180 29.119734 29.522606 29.789909 29.922516 29.931454 29.763063 29.363482 28.851978 28.355495 27.982424 27.814056 27.850368 27.985071 28.083138 28.020405 27.856001 27.640413 27.266415 26.594486 25.551758 24.178101 22.732391 21.505035 20.704403 20.378389 20.382421 20.447681 20.395138 20.169380 19.805737 19.407917 19.065294 18.801878 18.632612 18.562017 18.598375 18.740343 18.989302
12.324691 12.852339 13.427687 14.052493 14.715527 15.352851 16.066332 16.404203 16.809061 17.987627 19.174343 19.942421 20.670153 21.021948 21.225908 22.348869 23.353743 24.032738 24.688343 25.315565 25.912880 26.472883 27.009745 27.559132 28.141165 28.741861 29.312258 29.828293 30.259499 30.555788 30.720236 30.762409 30.668236 30.360920 29.921429 29.464035 29.091137 28.878878 28.840889 28.890341 28.899916 28.780560 28.620256 28.421259 28.092234 27.445459 26.394735 25.047829 23.625027 22.399849 21.582457 21.232674 21.216991 21.266605 21.206621 20.948120 20.545959 20.117399 19.716480 19.394716 19.169668 19.051430 19.054892 19.168413 19.396370
12.830945 13.359758 13.938833 14.565820 15.233198 15.931408 16.657454 17.252716 17.783276 18.813108 19.766043 20.544384 21.284504 21.987947 22.674528 23.357088 24.055265 24.753738 25.411730 26.029387 26.613777 27.178989 27.735622 28.290339 28.856630 29.441097 30.027514 30.584488 31.058901 31.398497 31.597376 31.673607 31.645565 31.466280 31.125759 30.705790 30.297411 30.012285 29.886660 29.844162 29.744202 29.575821 29.405842 29.207935 28.927282 28.371325 27.436020 26.221962 24.925629 23.773209 22.954020 22.524855 22.374891 22.267883 22.065405 21.701612 21.277334 20.847101 20.422106 20.054142 19.772095 19.603931 19.565176 19.645081 19.850199
13.328974 13.865254 14.449711 15.077744 15.745667 16.446333 17.177166 17.934681 18.715229 19.512194 20.319204 21.116852 21.883585 22.615976 23.327272 24.039024 24.762070 25.472090 26.132864 26.737793 27.305285 27.855335 28.402559 28.962852 29.545958 30.159498 30.786577 31.382614 31.909107 32.312107 32.565605 32.680477 32.695225 32.602551 32.327572 31.888212 31.424986 31.060585 30.845310 30.708824 30.581202 30.423706 30.233673 30.022781 29.754358 29.324554 28.589373 27.561636 26.446249 25.423965 24.620516 24.074652 23.688343 23.323088 22.890417 22.404482 21.961708 21.533180 21.134678 20.772600 20.455591 20.237230 20.146908 20.186949 20.362871
13.829051 14.370912 14.959076 15.592923 16.321827 17.064774 17.756893 18.457916 19.238428 20.041065 20.855711 21.675554 22.470850 23.092693 23.615374 24.571285 25.449793 26.163387 26.821650 27.416969 27.975588 28.521395 29.067862 29.642933 30.251657 30.895823 31.559572 32.200108 32.790745 33.270000 33.601963 33.783909 33.839355 33.746140 33.434795 32.954754 32.436020 32.005070 31.717451 31.552267 31.445053 31.320332 31.119104 30.882874 30.597816 30.233625 29.687355 28.887966 27.969799 27.061996 26.264847 25.580048 24.954479 24.330574 23.700678 23.133184 22.656479 22.225191 21.854872 21.524000 21.202265 20.948380 20.810823 20.804016 20.940277
14.330512 14.736442 15.109692 16.024660 17.001289 17.790001 18.438000 19.034729 19.756817 20.560759 21.381336 22.218697 23.040712 23.470371 23.879026 24.998066 26.094725 26.801929 27.456844 28.048725 28.609936 29.167088 29.732040 30.323450 30.959000 31.632730 32.329372 33.016922 33.676048 34.238903 34.651337 34.902153 34.982616 34.867901 34.528370 34.012783 33.450413 32.971939 32.646343 32.461117 32.363453 32.263668 32.075962 31.785463 31.427874 31.019125 30.547157 29.978050 29.278503 28.480982 27.686081 26.900692 26.106550 25.312555 24.571304 23.939837 23.413671 22.974365 22.621208 22.311346 21.995836 21.718435 21.544638 21.496614 21.588871
14.827908 15.028863 15.262297 16.362158 17.600925 18.409220 19.037189 19.587500 20.266390 21.070555 21.896988 22.734365 23.571285 24.244093 24.818258 25.803200 26.678522 27.376062 28.032488 28.633123 29.209602 29.785532 30.372435 30.991566 31.661058 32.365719 33.092453 33.817589 34.528336 35.169739 35.623283 35.882851 35.982517 35.873283 35.540836 35.052544 34.532478 34.051052 33.679016 33.466801 33.360081 33.261730 32.999691 32.567265 32.101295 31.649708 31.203123 30.725531 30.182228 29.548683 28.830500 28.024523 27.157026 26.309340 25.530308 24.843115 24.277578 23.828552 23.474619 23.162161 22.838285 22.541670 22.344254 22.263039 22.318279
15.315411 15.752964 16.107338 16.976933 17.930428 18.738377 19.429667 20.048697 20.764189 21.568985 22.390987 23.220764 24.056587 24.883646 25.690731 26.460537 27.192564 27.886644 28.546898 29.170490 29.771734 30.373083 30.991343 31.646631 32.350502 33.084812 33.834888 34.590218 35.319965 35.975468 36.428272 36.700073 36.815517 36.747513 36.475822 36.074020 35.641228 35.229599 34.861656 34.618042 34.471096 34.244446 33.741432 33.138924 32.598190 32.122738 31.704844 31.329475 30.909330 30.397623 29.768637 29.056387 28.234720 27.370886 26.567883 25.854311 25.254103 24.777355 24.409782 24.088879 23.749134 23.432783 23.213181 23.104834 23.127546
15.789178 16.332613 16.821659 17.341097 18.018627 18.803953 19.605326 20.420065 21.247763 22.047382 22.855207 23.671143 24.493502 25.308079 26.094328 26.857716 27.604633 28.324472 29.006527 29.657557 30.296944 30.932814 31.592655 32.292622 33.027828 33.779327 34.526524 35.270565 35.996979 36.632313 37.084389 37.366539 37.497608 37.503677 37.358898 37.110035 36.803520 36.477997 36.155704 35.883610 35.609749 35.120293 34.377209 33.630123 33.027859 32.558655 32.241837 31.986704 31.692896 31.285225 30.738743 30.093378 29.351103 28.516850 27.702541 26.954441 26.312761 25.793516 25.387808 25.043522 24.701601 24.385134 24.139740 24.006844 23.993773
16.226999 16.687256 17.096426 17.547529 18.135935 18.898249 19.800339 20.759642 21.681860 22.492218 23.279963 24.076399 24.857237 25.617920 26.363449 27.113617 27.881977 28.648418 29.396332 30.099384 30.778917 31.467455 32.184837 32.933670 33.686089 34.427525 35.153519 35.868454 36.578842 37.202785 37.658588 37.951397 38.119949 38.203499 38.212151 38.126938 37.971767 37.751320 37.463013 37.148525 36.710579 36.002144 35.113625 34.298592 33.676167 33.257751 33.038639 32.886505 32.661919 32.305927 31.786448 31.171541 30.503325 29.721291 28.891747 28.119394 27.443590 26.879230 26.424044 26.035202 25.686708 25.375826 25.107172 24.938065 24.884012
16.641787 17.037418 17.386864 17.792534 18.356102 19.126848 20.043600 21.018585 21.979506 22.834272 23.628302 24.395798 25.107391 25.819550 26.543751 27.296150 28.090363 28.909622 29.729410 30.514437 31.251789 31.994631 32.774811 33.553780 34.305042 35.031723 35.733650 36.421917 37.109253 37.744862 38.214352 38.536228 38.759949 38.914764 39.031265 39.085346 39.059708 38.936775 38.688351 38.326984 37.784279 37.009159 36.119617 35.349010 34.783157 34.431099 34.264454 34.149559 33.918514 33.379520 32.591835 32.183357 31.687729 30.937431 30.111509 29.332050 28.625534 28.017540 27.512049 27.092243 26.738182 26.413076 26.112169 25.886856 25.782974
17.077684 17.445160 17.770460 18.157125 18.705725 19.421814 20.258272 21.185177 22.133959 22.990614 23.784876 24.564034 25.264582 25.943876 26.671371 27.460369 28.301029 29.173962 30.061220 30.925413 31.737774 32.536991 33.352245 34.138348 34.887901 35.606606 36.291653 36.950977 37.615337 38.272934 38.787514 39.172493 39.446663 39.646881 39.804901 39.928574 39.992706 39.938499 39.731266 39.384182 38.875618 38.210136 37.459652 36.825020 36.374363 36.086422 35.931126 35.775520 35.450855 34.540627 33.473236 33.150166 32.865097 32.139065 31.189631 30.163321 29.678146 29.202650 28.678755 28.238680 27.852610 27.489647 27.140606 26.855577 26.689968
17.544418 17.931875 18.275297 18.672615 19.194754 19.806030 20.531012 21.365200 22.241673 23.041311 23.835140 24.639156 25.384632 26.074604 26.826733 27.663816 28.565708 29.495796 30.440176 31.369648 32.249569 33.108269 33.945625 34.731503 35.474567 36.183647 36.860218 37.503006 38.150345 38.805279 39.373356 39.812225 40.130486 40.366234 40.558666 40.717442 40.808979 40.785797 40.658539 40.428276 40.055096 39.565342 39.046539 38.593853 38.280323 38.057003 37.871365 37.606312 37.068634 36.114346 35.042595 34.501160 33.965652 33.278732 32.177792 31.039818 30.704908 30.461807 29.920126 29.448088 29.015249 28.591875 28.024647 27.443554 27.439743
18.025606 18.475674 18.876781 19.311699 19.797417 20.311493 20.913866 21.626919 22.387852 23.111254 23.903877 24.741003 25.538345 26.281374 27.068808 27.957140 28.911221 29.889769 30.879263 31.856367 32.787937 33.697605 34.562244 35.361019 36.102329 36.799110 37.467709 38.094917 38.719158 39.347202 39.914627 40.370708 40.711208 40.990593 41.218708 41.377979 41.473808 41.527599 41.544632 41.481430 41.268059 40.968922 40.654663 40.385841 40.191921 40.020794 39.773945 39.331627 38.516109 37.521400 36.559937 35.713146 34.987289 34.363472 33.606804 32.718552 32.254044 31.756222 31.184875 30.670536 30.184143 29.693840 28.816692 28.014187 28.087320
18.482004 19.014803 19.491232 19.976210 20.452379 20.902473 21.399229 21.989086 22.626753 23.304024 24.092611 24.954374 25.635479 26.180496 27.227930 28.317139 29.329763 30.347919 31.359941 32.362854 33.329823 34.285564 35.187164 36.010471 36.763725 37.462990 38.114697 38.716949 39.313721 39.878674 40.360916 40.774326 41.124100 41.404404 41.623577 41.805576 41.972626 42.142452 42.319424 42.450691 42.425991 42.277233 42.090443 41.921768 41.788803 41.616718 41.286041 40.647526 39.702488 38.654758 37.629200 36.707493 35.963936 35.393936 34.882568 34.327980 33.681866 33.018124 32.415173 31.849915 31.293507 30.732960 30.031313 29.315144 29.169628
18.907789 19.471800 20.021915 20.553823 21.053394 21.481951 21.909712 22.399185 22.980394 23.650637 24.425215 25.260212 25.698511 26.094919 27.318947 28.678608 29.741940 30.804981 31.836565 32.842293 33.847271 34.844242 35.786079 36.643135 37.424686 38.137447 38.778442 39.365227 39.923744 40.401146 40.789398 41.140083 41.462315 41.712009 41.905663 42.084145 42.324978 42.624016 42.967869 43.260288 43.405231 43.378006 43.274727 43.150139 42.996391 42.740986 42.313587 41.634312 40.696205 39.634361 38.591679 37.681576 36.973228 36.416542 35.940990 35.447643 34.844425 34.182949 33.550312 32.935661 32.310844 31.696211 31.115984 30.593849 30.166975
19.336037 19.858215 20.394447 20.939133 21.466505 21.906673 22.326172 22.813553 23.411108 24.083769 24.830597 25.591156 26.207441 26.744202 27.844881 28.998478 30.091284 31.180893 32.238113 33.240295 34.253574 35.279148 36.281384 37.215565 38.054558 38.787300 39.432762 40.014576 40.532196 40.944740 41.269241 41.581211 41.872944 42.054001 42.161377 42.256325 42.431652 42.769249 43.284199 43.840664 44.184860 44.243206 44.207073 44.094521 43.878723 43.562450 43.118664 42.475746 41.550880 40.500248 39.495823 38.654968 38.008312 37.468021 36.975883 36.472229 35.865417 35.207550 34.556995 33.911480 33.256241 32.617039 32.023697 31.486435 31.023674
19.755953 20.210484 20.685270 21.180307 21.542589 21.804665 22.507078 23.180450 23.803253 24.505487 25.222490 25.908590 26.590349 27.337845 28.230692 29.242678 30.320280 31.423552 32.493176 33.478058 34.471203 35.517147 36.585842 37.628075 38.585098 39.391758 40.055073 40.642216 41.146126 41.543243 41.857792 42.166393 42.431137 42.529068 42.460236 42.328362 42.345749 42.661827 43.293137 44.100155 44.764847 45.004135 44.984894 44.870152 44.614937 44.204174 43.659031 42.971039 42.085308 41.163628 40.286774 39.538425 38.971634 38.494022 38.000000 37.436249 36.787907 36.130634 35.480301 34.828808 34.165073 33.514328 32.918022 32.376492 31.898947
20.171246 20.547319 20.947405 21.379049 21.463734 21.585098 22.486921 23.426455 24.061646 24.777248 25.491276 26.137365 26.788054 27.542791 28.425747 29.412584 30.472792 31.573116 32.607864 33.564980 34.539173 35.605507 36.740295 37.891632 38.974701 39.901287 40.633080 41.257656 41.767109 42.150181 42.480122 42.818123 43.084000 43.108223 42.843582 42.541191 42.422497 42.673000 43.347466 44.285439 45.163551 45.652210 45.721661 45.602348 45.194260 44.531406 43.781647 42.966122 42.159626 41.442783 40.850445 40.313026 39.835945 39.426296 38.957699 38.336361 37.665512 37.012737 36.364975 35.715107 35.033875 34.348312 33.733028 33.206944 32.767090
20.597004 20.893616 21.219181 21.585884 21.842720 22.059393 22.793421 23.507772 24.141275 24.852533 25.585415 26.283766 26.985388 27.749918 28.612650 29.574425 30.621613 31.674494 32.647308 33.561047 34.519802 35.604946 36.794376 38.043900 39.242012 40.285183 41.126549 41.778950 42.275833 42.661892 42.996922 43.333481 43.658035 43.706200 43.415001 43.054821 42.912544 43.094105 43.692791 44.627113 45.573742 46.188793 46.344635 46.171665 45.565540 44.680851 43.716850 42.750996 41.993774 41.491505 41.180672 40.934357 40.594330 40.239994 39.800941 39.194206 38.523449 37.872467 37.233440 36.550430 35.803169 35.069351 34.435413 33.928787 33.494991
20.668909 21.134727 21.548159 21.845621 22.182228 22.571323 23.027519 23.567080 24.183302 24.883205 25.647032 26.407053 27.167091 27.953058 28.804665 29.739195 30.752653 31.752626 32.660992 33.522968 34.473927 35.580322 36.818703 38.128906 39.411331 40.556839 41.486526 42.153557 42.672966 43.086304 43.408115 43.765503 44.179726 44.354267 44.182610 43.906181 43.821770 44.019005 44.527534 45.325539 46.149593 46.699608 46.844452 46.549206 45.797050 44.768707 43.691612 42.688068 41.953751 41.577465 41.471947 41.447617 41.264153 40.956146 40.573982 40.037834 39.395607 38.749950 38.098652 37.348030 36.535763 35.759140 35.104782 34.591434 34.126877
20.811785 21.365372 21.951454 22.178656 22.448931 22.790424 23.211863 23.713778 24.302084 24.983664 25.795120 26.629908 27.391163 28.141338 28.976204 29.877867 30.841248 31.644985 32.280426 33.358860 34.460358 35.572285 36.838192 38.177452 39.510700 40.737537 41.726665 42.449783 43.022263 43.466019 43.800377 44.192776 44.663719 44.982258 45.029362 44.975559 45.032135 45.306461 45.782955 46.383148 46.952728 47.307629 47.309811 46.882263 46.038589 44.966427 43.889103 42.965904 42.325275 42.041626 42.020836 42.080429 41.978199 41.720818 41.393505 40.910629 40.319542 39.687336 38.994781 38.187080 37.323601 36.511868 35.836514 35.292587 34.795856
21.845295 22.168339 22.440643 22.599077 22.828650 23.128750 23.506126 23.969547 24.522919 25.221260 26.094799 26.960062 27.687115 28.346262 29.104221 29.963984 30.872953 31.409561 31.894114 33.146255 34.489120 35.594769 36.842533 38.190960 39.546135 40.827522 41.901623 42.644497 43.173962 43.615681 44.055542 44.595402 45.137260 45.603279 45.888649 46.118824 46.400410 46.773064 47.214123 47.660805 47.946304 48.001007 47.740028 47.219563 46.387596 45.408951 44.462120 43.671452 43.154068 42.942379 42.935532 42.950378 42.789143 42.531738 42.229942 41.765499 41.194176 40.578182 39.889099 39.098541 38.204514 37.314701 36.598843 36.052731 35.579975
22.755558 22.425947 22.814470 23.148666 23.105410 23.021286 23.698885 24.345203 24.859764 25.547348 26.411638 27.245258 27.917490 28.507273 29.191355 29.996489 30.847271 31.594734 32.269390 33.406132 34.530762 35.621193 36.838531 38.163250 39.515514 40.838970 41.855598 42.449440 42.901951 43.400181 44.016151 44.778751 45.563194 46.247726 46.767525 47.221088 47.715801 48.210529 48.636978 48.939529 48.941765 48.618233 48.115658 47.563110 46.845783 46.045559 45.330978 44.755165 44.346405 44.152046 44.057987 43.904400 43.604748 43.309578 42.936382 42.432213 41.855137 41.246857 40.604408 39.855778 38.996014 38.092648 37.333397 36.806919 36.393993
23.252693 22.642376 23.212366 23.832989 23.399080 23.044056 23.898903 24.843094 25.312321 25.913794 26.681534 27.436165 28.068682 28.646097 29.311289 30.061899 30.862469 31.722820 32.633625 33.564960 34.544380 35.620052 36.807243 38.090416 39.421574 40.713600 41.560978 42.019497 42.417892 43.015045 43.854401 44.889488 45.946114 46.861534 47.507065 48.112759 48.762005 49.334663 49.757904 49.977028 49.736935 49.174606 48.548721 47.979790 47.419415 46.826561 46.346828 45.985222 45.624718 45.322186 45.038536 44.693481 44.339840 43.994301 43.520161 42.937672 42.296173 41.687515 41.096687 40.371517 39.568363 38.771252 38.059273 37.596016 37.272575
24.551424 24.125153 24.422253 24.655260 24.513248 24.331373 24.917099 25.472843 25.886339 26.373974 26.987871 27.642820 28.251905 28.862246 29.524342 30.216396 30.965599 31.772406 32.626362 33.529011 34.499500 35.560734 36.717781 37.964706 39.310219 40.496372 41.204750 41.607182 41.996387 42.677952 43.735054 45.042496 46.351017 47.446766 48.145687 48.733318 49.432095 50.065807 50.522953 50.696404 50.398361 49.810452 49.136822 48.523251 48.027313 47.644493 47.368519 47.057171 46.590557 46.098095 45.595871 45.147881 44.848198 44.557991 44.072838 43.384270 42.676510 42.060501 41.450748 40.743713 40.012695 39.340961 38.759254 38.366680 38.156563
25.870962 25.739471 25.650677 25.619343 25.651939 25.762318 25.957659 26.233829 26.580891 26.995872 27.490515 28.048037 28.629061 29.226273 29.826561 30.454670 31.137362 31.874195 32.661572 33.514423 34.452808 35.485569 36.617550 37.847385 39.214001 40.340946 40.977413 41.374508 41.822262 42.572796 43.758179 45.264393 46.738934 47.927208 48.678848 49.247864 49.885216 50.521275 51.050053 51.252995 50.995281 50.458244 49.808407 49.176929 48.679550 48.378395 48.172298 47.777569 47.166233 46.492775 45.892494 45.483616 45.272198 45.071682 44.636074 43.914410 43.165096 42.529747 41.870483 41.171631 40.531052 39.974155 39.509689 39.170589 38.978848
27.087652 26.919302 26.789320 26.718302 26.708046 26.770422 26.908932 27.119982 27.393566 27.728745 28.149036 28.639656 29.155251 29.674074 30.194778 30.749706 31.353277 32.012547 32.734909 33.532814 34.438705 35.444790 36.548504 37.747265 39.105492 40.292770 40.999996 41.461014 41.975594 42.785313 44.040977 45.593399 47.048260 48.164028 48.889591 49.484322 50.154007 50.803944 51.326118 51.552277 51.386070 50.960388 50.406620 49.850719 49.406120 49.114033 48.807102 48.282700 47.568340 46.829380 46.225853 45.863117 45.719261 45.618034 45.270603 44.613132 43.885239 43.234798 42.562447 41.867485 41.268745 40.783211 40.369446 40.047325 39.741554
28.255402 28.205530 28.042480 27.934067 27.884468 27.898491 27.974680 28.113600 28.309498 28.562761 28.898920 29.306391 29.739889 30.170744 30.603149 31.079571 31.605856 32.187950 32.838737 33.584087 34.443687 35.418179 36.489552 37.648109 38.973221 40.273849 41.172611 41.810925 42.442226 43.343800 44.647915 46.056091 47.244537 48.088600 48.675068 49.337135 50.071796 50.781555 51.317966 51.594803 51.552700 51.263626 50.856049 50.428383 50.050755 49.755608 49.375069 48.768772 47.988918 47.256916 46.694355 46.369587 46.264954 46.249840 46.029972 45.494587 44.834991 44.194771 43.547817 42.901745 42.331169 41.842175 41.401917 41.025394 40.576061
29.406750 29.557817 29.368263 29.223801 29.137806 29.102575 29.114288 29.178774 29.290688 29.456215 29.699432 30.008930 30.344133 30.680984 31.029543 31.427362 31.876593 32.384842 32.807392 33.254593 34.155899 35.009026 36.267521 37.530163 38.799011 40.132984 41.277409 42.154495 42.947029 43.934616 45.171688 46.303654 47.117439 47.607212 48.108437 48.824677 49.615139 50.384026 51.016785 51.401943 51.517056 51.386898 51.116566 50.799480 50.495998 50.214352 49.825790 49.197098 48.464104 47.809883 47.317944 47.028549 46.928616 46.926964 46.820385 46.402134 45.843498 45.258736 44.666328 44.112061 43.573318 43.044693 42.564682 42.083103 41.489227
31.037909 30.951027 30.735655 30.553827 30.423796 30.336281 30.284576 30.271849 30.296000 30.372866 30.515724 30.713894 30.942755 31.175920 31.443998 31.764568 32.138119 32.576084 32.695396 32.924763 33.697151 34.591373 35.950489 37.389015 38.570866 39.843716 41.090710 42.197170 43.153881 44.136719 45.186817 46.020237 46.511059 46.846096 47.382286 48.105297 48.920204 49.754086 50.479893 50.974937 51.227989 51.271534 51.154461 50.947319 50.705978 50.442299 50.097260 49.569183 48.970692 48.418549 47.999718 47.736004 47.607033 47.544754 47.433533 47.119591 46.671574 46.187637 45.671833 45.185505 44.686291 44.156467 43.648335 43.089600 42.377224
32.624641 32.370403 32.125469 31.903337 31.716825 31.567751 31.448887 31.355833 31.293085 31.279139 31.316044 31.394625 31.503290 31.641479 31.821899 32.060879 32.360584 32.735630 33.042690 33.370071 34.155411 34.906616 36.063503 37.211342 38.279110 39.478680 40.654316 41.768887 42.799496 43.744843 44.589516 45.212498 45.648655 46.079258 46.641022 47.320663 48.117550 48.970032 49.749966 50.326572 50.693069 50.877052 50.897564 50.809486 50.646824 50.432415 50.183189 49.842411 49.409309 48.974171 48.604790 48.343029 48.167999 48.012215 47.783497 47.483673 47.144863 46.740669 46.268082 45.771847 45.317024 44.890282 44.441246 43.888420 43.107288
34.097542 33.815468 33.532661 33.258579 33.006168 32.777592 32.575897 32.398117 32.247520 32.139793 32.068207 32.024765 32.012577 32.053856 32.146202 32.297440 32.525921 32.841148 33.249035 33.765247 34.406708 35.174038 35.897747 36.611294 37.795792 39.025051 40.123520 41.160381 42.128399 43.039165 43.827457 44.424210 44.921310 45.416687 45.937374 46.564285 47.313961 48.132603 48.917946 49.533009 49.996475 50.307976 50.433075 50.443443 50.388027 50.282520 50.126854 49.927292 49.663689 49.353027 49.050022 48.781643 48.538807 48.273949 47.976318 47.667366 47.284775 46.795128 46.283089 45.805832 45.405399 45.100002 44.830490 44.444607 43.721035
35.576881 35.265049 34.939804 34.600609 34.271744 33.958565 33.663921 33.388664 33.141617 32.931633 32.746811 32.589760 32.470524 32.399204 32.398251 32.473495 32.628975 32.880665 33.234657 33.700962 34.289745 34.995037 35.437057 35.938744 37.186375 38.477413 39.494919 40.464569 41.390114 42.266922 43.075485 43.727680 44.284782 44.798435 45.299168 45.877419 46.559647 47.316505 48.060253 48.677715 49.209747 49.624226 49.866123 49.977829 50.029812 50.036346 49.980972 49.867085 49.698700 49.489231 49.251774 48.990601 48.713886 48.423134 48.112568 47.761703 47.251556 46.617496 45.985661 45.474339 45.142326 44.979931 44.897125 44.733421 44.153057
37.022060 36.681545 36.307301 35.905605 35.496944 35.093987 34.700684 34.322441 33.968636 33.648293 33.360771 33.100838 32.874699 32.695271 32.591969 32.583797 32.670387 32.862511 33.164722 33.577282 34.109531 34.750576 35.340660 35.914959 36.944477 37.912746 38.804344 39.722527 40.605755 41.447029 42.253876 42.982689 43.623249 44.188160 44.700230 45.246845 45.863762 46.540985 47.208824 47.831573 48.396149 48.852413 49.176968 49.399670 49.578518 49.706963 49.756603 49.727211 49.627953 49.475674 49.287762 49.066624 48.814003 48.526123 48.211376 47.804005 47.184120 46.430939 45.710804 45.162964 44.841694 44.740227 44.770760 44.746815 44.325974
38.412235 38.030636 37.602551 37.139713 36.660950 36.174957 35.688068 35.212685 34.761524 34.344543 33.958794 33.596863 33.264896 32.978298 32.766987 32.659878 32.664692 32.787766 33.030800 33.390602 33.864273 34.442532 35.103828 35.829342 36.582771 37.351982 38.129192 38.959518 39.796223 40.598171 41.375546 42.139229 42.866074 43.510181 44.065128 44.610756 45.186245 45.788624 46.406303 47.016541 47.562191 48.018051 48.368736 48.680424 48.987545 49.257931 49.434200 49.495495 49.474319 49.391972 49.262005 49.088657 48.863708 48.597569 48.307701 47.876404 47.206329 46.405830 45.651920 45.042236 44.646130 44.497116 44.528412 44.506893 44.172371
39.746223 39.321545 38.842575 38.322014 37.776485 37.216179 36.649567 36.094353 35.557518 35.044579 34.557922 34.088474 33.646088 33.255611 32.939217 32.727310 32.639824 32.683918 32.859482 33.162659 33.584049 34.106018 34.701439 35.360977 36.057774 36.772923 37.497589 38.222782 38.976357 39.745003 40.496887 41.241169 41.980728 42.694256 43.320545 43.898060 44.472652 45.068615 45.678490 46.246349 46.749989 47.180019 47.537891 47.914757 48.316181 48.701374 49.010628 49.175068 49.241138 49.239311 49.183533 49.074310 48.904110 48.691654 48.432064 48.029320 47.397682 46.627426 45.874714 45.185287 44.693420 44.425793 44.370438 44.269573 43.983158
40.988247 40.526688 40.003296 39.435696 38.839939 38.222782 37.588825 36.961315 36.345345 35.737171 35.141243 34.563354 34.016064 33.523407 33.110649 32.807823 32.637566 32.605427 32.710266 32.949696 33.312313 33.776691 34.310211 34.902351 35.542645 36.207302 36.880856 37.559223 38.238373 38.919014 39.634884 40.360016 41.086033 41.814686 42.513958 43.162251 43.784435 44.399609 44.964672 45.440575 45.876366 46.299198 46.736046 47.191647 47.657341 48.122086 48.523830 48.795448 48.958927 49.053787 49.086517 49.058754 48.966290 48.825020 48.600040 48.271801 47.748787 47.093800 46.378944 45.662109 45.071110 44.677670 44.477283 44.303810 44.048744
42.147514 41.654736 41.089951 40.476055 39.835247 39.178391 38.497734 37.804852 37.110294 36.410168 35.710182 35.027119 34.378349 33.796860 33.305458 32.925312 32.676788 32.570881 32.608955 32.779133 33.073090 33.472775 33.949936 34.485645 35.068100 35.676308 36.297108 36.922276 37.552479 38.190464 38.847775 39.527935 40.232445 40.964417 41.708221 42.424122 43.089046 43.634041 44.028889 44.381203 44.796432 45.314930 45.904743 46.504341 47.068714 47.582951 48.051201 48.415024 48.676159 48.841179 48.923088 48.969376 48.996124 48.978378 48.829376 48.566872 48.190517 47.702614 47.099678 46.429642 45.793873 45.266922 44.880062 44.628403 44.498199
43.246838 42.718758 42.119801 41.472775 40.794075 40.096577 39.374580 38.624340 37.849800 37.063839 36.272354 35.499012 34.769650 34.109901 33.544144 33.090256 32.770069 32.594906 32.563015 32.665005 32.892456 33.226028 33.644260 34.128387 34.649723 35.195892 35.758610 36.328640 36.906094 37.501095 38.122757 38.777157 39.464100 40.177830 40.909302 41.640411 42.243431 42.587387 42.808624 43.073631 43.532696 44.215084 45.044041 45.850044 46.547832 47.127621 47.642868 48.063610 48.354568 48.521324 48.638538 48.765903 48.927555 49.063580 49.066952 48.906200 48.642105 48.329227 47.908936 47.354622 46.691895 46.021030 45.487671 45.208012 45.283478
44.268589 43.706039 43.081024 42.414761 41.714935 40.986958 40.228218 39.430187 38.581249 37.713192 36.851185 36.010807 35.214584 34.483971 33.848099 33.328312 32.939152 32.697033 32.593723 32.628925 32.789520 33.052528 33.406551 33.839077 34.302410 34.782040 35.280460 35.794563 36.324833 36.878674 37.467216 38.094616 38.756966 39.448387 40.158661 40.848957 41.290558 41.463734 41.572971 41.811455 42.337978 43.176445 44.216621 45.258347 46.095589 46.749195 47.291149 47.725979 47.993774 48.159744 48.320301 48.538647 48.833946 49.125542 49.295418 49.304932 49.138607 48.918308 48.671162 48.254215 47.604706 46.898346 46.371483 46.170544 46.356541
45.197147 44.592880 43.945709 43.272560 42.573898 41.837688 41.061985 40.226589 39.328094 38.398426 37.472244 36.568764 35.716080 34.930565 34.233673 33.652302 33.202202 32.891205 32.718304 32.680866 32.763470 32.953228 33.245342 33.618263 34.024689 34.442909 34.879742 35.338432 35.827499 36.345242 36.902969 37.499722 38.131107 38.793198 39.483074 40.098923 40.431187 40.516193 40.578289 40.834999 41.431271 42.394180 43.591537 44.786987 45.734715 46.424458 46.983219 47.426991 47.700058 47.889137 48.094036 48.393463 48.814213 49.259506 49.598564 49.778137 49.746025 49.609058 49.474838 49.190437 48.644238 48.038834 47.613674 47.511387 47.658230
46.076164 45.413914 44.737831 44.059292 43.368996 42.643791 41.871281 41.028046 40.113632 39.142673 38.163193 37.194809 36.282101 35.447853 34.701530 34.065849 33.556480 33.174694 32.928795 32.815300 32.819302 32.939457 33.163738 33.471687 33.815498 34.178509 34.565720 34.975956 35.420929 35.908203 36.436062 37.000282 37.594444 38.217663 38.875565 39.446411 39.770111 39.866608 39.960815 40.273693 40.944656 41.986908 43.246986 44.479908 45.451183 46.132301 46.722851 47.214355 47.543297 47.791981 48.068218 48.454346 48.978073 49.556435 50.049995 50.375355 50.474045 50.444202 50.411572 50.260185 49.883354 49.442368 49.155846 49.121704 49.222282
46.963383 46.253971 45.535477 44.840500 44.150646 43.436348 42.675541 41.851059 40.949287 39.960163 38.934662 37.912121 36.938263 36.046650 35.255775 34.567543 33.996609 33.550041 33.231228 33.039303 32.966530 33.018948 33.174812 33.412720 33.692963 33.999050 34.336941 34.705910 35.112644 35.563877 36.054005 36.567928 37.113018 37.695595 38.323414 38.902878 39.297352 39.507137 39.716316 40.128513 40.867695 41.925632 43.147812 44.308693 45.204041 45.876804 46.524555 47.109478 47.541962 47.892700 48.270767 48.754169 49.362381 50.052147 50.669609 51.107151 51.313709 51.404472 51.488857 51.483150 51.281708 51.033222 50.906445 50.943352 51.037411
47.871254 47.144890 46.400749 45.669361 44.962910 44.248875 43.497841 42.696217 41.814499 40.833706 39.779499 38.719131 37.696651 36.752026 35.902035 35.162617 34.535633 34.026272 33.635933 33.365303 33.221779 33.203129 33.287720 33.453991 33.673378 33.921120 34.209549 34.540321 34.911739 35.309090 35.735729 36.193577 36.686230 37.225449 37.824680 38.438301 38.931690 39.327286 39.720871 40.269436 41.062805 42.087311 43.201000 44.212418 44.987530 45.682659 46.394032 47.089382 47.665421 48.169231 48.681610 49.263847 49.948902 50.717236 51.423054 51.943527 52.248920 52.479404 52.697353 52.887032 52.906681 52.860325 52.896832 53.070297 53.264511
48.833084 48.091499 47.338741 46.579281 45.836662 45.103161 44.354912 43.561592 42.693539 41.729713 40.674995 39.592369 38.543633 37.556934 36.653316 35.865704 35.190716 34.619587 34.158741 33.814571 33.602001 33.512508 33.530155 33.623531 33.776936 33.965324 34.199562 34.484772 34.803314 35.139450 35.496517 35.887276 36.324905 36.818573 37.379894 37.996342 38.592697 39.159489 39.756863 40.451351 41.298782 42.266247 43.245895 44.083664 44.810028 45.558247 46.328270 47.119663 47.874424 48.551479 49.205555 49.897640 50.659840 51.481430 52.246048 52.834358 53.269978 53.652912 54.014668 54.375107 54.658550 54.861702 55.096416 55.444271 55.810509
49.868484 49.109180 48.337627 47.560070 46.771084 46.002739 45.249969 44.462860 43.604225 42.648605 41.607727 40.512558 39.447796 38.441055 37.504513 36.669685 35.952919 35.309780 34.750938 34.328106 34.064819 33.943771 33.912960 33.934746 34.019489 34.146465 34.318916 34.541817 34.793373 35.062069 35.347389 35.667713 36.041080 36.486225 36.961849 37.472134 38.093960 38.816238 39.606842 40.446144 41.330669 42.243408 43.108444 43.914444 44.704002 45.511089 46.350101 47.218754 48.101025 48.942905 49.746338 50.551430 51.390339 52.247372 53.054050 53.749634 54.351608 54.892982 55.401104 55.899426 56.403595 56.871410 57.323711 57.828667 58.364643
50.948906 50.172760 49.385429 48.584663 47.764572 46.955555 46.176235 45.384102 44.538242 43.600418 42.578026 41.482670 40.409790 39.388027 38.439205 37.574524 36.764828 36.003914 35.341057 34.847759 34.549187 34.421192 34.394978 34.389393 34.400536 34.460358 34.569809 34.714298 34.886120 35.079453 35.294983 35.545403 35.852333 36.162178 36.454750 36.836697 37.407871 38.194038 39.143990 40.162971 41.125835 42.026405 42.914135 43.791462 44.666725 45.551899 46.469170 47.417843 48.368736 49.308418 50.234276 51.148067 52.059322 52.965260 53.853657 54.697292 55.462036 56.164158 56.823509 57.464371 58.112888 58.765305 59.401928 60.024979 60.656815
52.068443 51.284256 50.490631 49.669716 48.819759 47.975220 47.161419 46.350082 45.499413 44.575783 43.580284 42.512722 41.437378 40.406654 39.448811 38.547852 37.626595 36.747780 35.995304 35.442482 35.119480 34.990536 34.964893 34.962883 34.920307 34.907185 34.943184 35.003990 35.088192 35.199875 35.348846 35.532085 35.738876 35.855274 35.975033 36.234917 36.728432 37.492649 38.512333 39.694817 40.857063 41.853245 42.800797 43.758884 44.727299 45.698811 46.698406 47.724827 48.748158 49.760227 50.760555 51.753250 52.745792 53.734390 54.713692 55.675255 56.591343 57.445744 58.255089 59.042492 59.823101 60.607059 61.363449 62.080002 62.780788
53.257839 52.460968 51.654289 50.820309 49.952202 49.071594 48.218693 47.380165 46.507092 45.588226 44.619724 43.585983 42.525841 41.496300 40.530540 39.579952 38.582397 37.616482 36.799362 36.205208 35.855381 35.707237 35.673096 35.657772 35.575897 35.491276 35.448959 35.424931 35.421070 35.449512 35.525681 35.642952 35.728020 35.695610 35.679279 35.789268 36.142387 36.845932 37.904221 39.209282 40.551216 41.734734 42.801399 43.847561 44.906628 45.968842 47.050945 48.150890 49.247364 50.331947 51.402878 52.469566 53.533875 54.601223 55.668419 56.721653 57.754948 58.749043 59.697113 60.620502 61.525158 62.414822 63.278015 64.095795 64.875473
54.544525 53.727482 52.899235 52.046581 51.161205 50.253265 49.358692 48.482727 47.580776 46.658226 45.711033 44.701973 43.657230 42.633373 41.664856 40.692127 39.663387 38.659092 37.809319 37.187927 36.801495 36.614189 36.538906 36.480911 36.354717 36.207623 36.093956 35.987938 35.896622 35.846844 35.847473 35.900360 35.897785 35.780807 35.664352 35.623962 35.850342 36.481369 37.533939 38.896996 40.351723 41.691292 42.916004 44.064865 45.210785 46.361546 47.526176 48.701466 49.869976 51.026913 52.162903 53.296310 54.433208 55.580360 56.729691 57.868469 58.996113 60.096531 61.166180 62.212437 63.237560 64.232986 65.182831 66.081573 66.941147
55.952019 55.107788 54.243458 53.353909 52.442383 51.509945 50.570415 49.648125 48.728306 47.801880 46.852573 45.849869 44.821251 43.813053 42.846001 41.888069 40.871796 39.875351 39.025921 38.388107 37.955536 37.703560 37.559174 37.429096 37.239773 37.039616 36.867527 36.695610 36.529011 36.402008 36.322052 36.305454 36.284931 36.158852 35.948689 35.756607 35.865978 36.459717 37.532589 38.913437 40.393120 41.816044 43.167587 44.427197 45.646656 46.878624 48.120144 49.369942 50.610363 51.832863 53.036030 54.236691 55.448139 56.670448 57.895264 59.119762 60.336090 61.530853 62.698208 63.848381 64.983391 66.080009 67.117378 68.087936 69.005936
57.463425 56.593323 55.679817 54.740009 53.784649 52.816078 51.834663 50.873035 49.938633 49.003906 48.042519 47.037746 46.029915 45.037342 44.070690 43.145424 42.176964 41.230240 40.406666 39.756008 39.271065 38.932198 38.690807 38.471157 38.207905 37.961884 37.742630 37.519531 37.296436 37.105156 36.953999 36.873024 36.867451 36.721085 36.403500 36.109310 36.149303 36.718365 37.808765 39.239243 40.746147 42.168953 43.596252 44.935955 46.219906 47.523220 48.835484 50.150013 51.451958 52.739044 54.012688 55.286201 56.565773 57.858307 59.160767 60.470371 61.772972 63.061729 64.329056 65.576599 66.802864 67.983688 69.100327 70.147095 71.127724
59.015625 58.133961 57.178841 56.180222 55.170845 54.156399 53.144661 52.156742 51.203491 50.248100 49.270973 48.274624 47.292591 46.315315 45.353115 44.440754 43.543240 42.661858 41.862892 41.198807 40.661751 40.236187 39.883419 39.548340 39.231136 38.949001 38.695740 38.435658 38.170052 37.924610 37.714516 37.583103 37.532131 37.341949 37.009197 36.707413 36.738441 37.296158 38.375252 39.808033 41.331871 42.770592 44.214329 45.582672 46.921005 48.279270 49.654251 51.029350 52.391544 53.735760 55.071789 56.411961 57.762127 59.130600 60.518234 61.909023 63.275703 64.620735 65.962448 67.318115 68.672447 69.959534 71.151703 72.269691 73.313683
60.557777 59.685543 58.707191 57.659298 56.595119 55.543148 54.510506 53.500134 52.517929 51.538975 50.542717 49.564426 48.613220 47.654831 46.695713 45.772415 44.905994 44.080776 43.311626 42.635506 42.046886 41.534771 41.070667 40.654305 40.302540 39.990059 39.704002 39.416294 39.119621 38.826092 38.567444 38.400806 38.249916 38.001682 37.721951 37.496090 37.576488 38.142029 39.196415 40.585190 42.109550 43.578461 44.986446 46.346172 47.721977 49.120564 50.545166 51.979362 53.397007 54.794346 56.190884 57.598850 59.024570 60.472454 61.943851 63.378944 64.755692 66.125008 67.528786 68.990776 70.488762 71.943481 73.254013 74.438087 75.544060