64 64
50.174080 49.889778 49.578480 49.233269 48.848129 48.424198 47.962666 47.464863 46.932175 46.366089 45.768150 45.139996 44.483322 43.799873 43.091457 42.359917 41.607143 40.835045 40.036308 39.185524 38.285683 37.341995 36.359772 35.343956 34.299740 33.232513 32.147552 31.049589 29.943619 28.834194 27.726110 26.624104 25.532717 24.456257 23.398821 22.363836 21.349842 20.359722 19.397890 18.466793 17.566006 16.699812 15.872293 15.086946 14.346643 13.653666 13.009685 12.415612 11.871577 11.377702 10.933633 10.538554 10.191217 9.889998 9.632929 9.417755 9.241976 9.102898 8.997674 8.923361 8.876948 8.855406 8.855723 8.896593 8.945474
50.067917 49.783188 49.471466 49.131981 48.754963 48.339119 47.885628 47.395767 46.870930 46.312542 45.722157 45.101364 44.451839 43.775307 43.073555 42.348400 41.601707 40.835384 40.044266 39.201851 38.309814 37.373314 36.397652 35.388165 34.350117 33.288132 32.206989 31.111925 30.008089 28.900547 27.794086 26.692932 25.601534 24.524235 23.465134 22.426910 21.408003 20.412395 19.444527 18.507257 17.599930 16.726664 15.891624 15.098368 14.349848 13.648421 12.995570 12.392098 11.838741 11.335725 10.882756 10.479074 10.123493 9.814426 9.549949 9.327837 9.145614 9.000604 8.889968 8.810764 8.759973 8.734557 8.731485 8.764665 8.811768
49.963825 49.678680 49.366570 49.027912 48.658817 48.251148 47.805782 47.323967 46.807064 46.256493 45.673756 45.060444 44.418182 43.748699 43.053734 42.335087 41.594624 40.834209 40.050755 39.217262 38.333572 37.404800 36.435986 35.432003 34.398174 33.339840 32.262283 31.170652 30.069517 28.963840 27.858513 26.758261 25.667458 24.589918 23.529734 22.488461 21.465223 20.464663 19.491270 18.548285 17.634914 16.755035 15.912859 15.112030 14.355585 13.645551 12.983479 12.370755 11.808216 11.296147 10.834329 10.422066 10.058216 9.741254 9.469293 9.240143 9.051357 8.900278 8.784080 8.699822 8.644488 8.615026 8.608389 8.633292 8.678608
49.861893 49.576366 49.263905 48.924900 48.559643 48.160210 47.723045 47.249374 46.740505 46.197842 45.622879 45.017151 44.382282 43.719963 43.031914 42.319927 41.585819 40.831444 40.055607 39.231575 38.356339 37.434799 36.472134 35.473587 34.444458 33.390060 32.315689 31.226568 30.127848 29.024494 27.920784 26.821320 25.730637 24.653080 23.592415 22.548325 21.521368 20.516428 19.538031 18.589785 17.670898 16.784861 15.935972 15.127924 14.363283 13.644410 12.973352 12.351583 11.780011 11.259002 10.788404 10.367582 9.995462 9.670564 9.391049 9.154770 8.959307 8.802024 8.680115 8.590647 8.530598 8.496914 8.486536 8.502625 8.546146
49.762234 49.476360 49.163551 48.824245 48.458885 48.066250 47.637367 47.171917 46.671177 46.136536 45.569443 44.971420 44.344063 43.689037 43.008041 42.302837 41.575226 40.826851 40.057701 39.242435 38.375233 37.461090 36.505135 35.512592 34.488731 33.438831 32.368172 31.281969 30.185356 29.083380 27.980928 26.882664 25.792484 24.714600 23.652992 22.606356 21.576292 20.567556 19.584702 18.631647 17.707783 16.816088 15.960845 15.145203 14.372321 13.644925 12.965154 12.334563 11.754133 11.224307 10.745008 10.315674 9.935286 9.602422 9.315298 9.071801 8.869551 8.705936 8.578171 8.483331 8.418399 8.380320 8.366020 8.372812 8.414536
49.664951 49.378746 49.065639 48.726059 48.360458 47.969326 47.548668 47.091522 46.599018 46.072495 45.513382 44.923183 44.303459 43.655849 42.981907 42.283058 41.561039 40.817631 40.054199 39.248138 38.389553 37.483395 36.534748 35.548794 34.530773 33.485935 32.419529 31.336775 30.242788 29.142614 28.041142 26.943111 25.853085 24.775293 23.712612 22.663012 21.629871 20.617912 19.631166 18.673744 17.745478 16.848421 15.986389 15.163315 14.382588 13.647021 12.958831 12.319652 11.730556 11.192060 10.704162 10.266369 9.877731 9.536886 9.242100 8.991310 8.782168 8.612098 8.478333 8.377962 8.307981 8.265331 8.246929 8.249729 8.283925
49.570145 49.283634 48.970253 48.630432 48.264626 47.873322 47.456882 47.008133 46.523949 46.005650 45.454624 44.872181 44.259666 43.618641 42.950748 42.257664 41.541103 40.802845 40.044678 39.248417 38.399048 37.501469 36.560726 35.581955 34.570343 33.531139 32.469555 31.390785 30.299952 29.202074 28.102068 27.004667 25.914455 24.835794 23.771530 22.719450 21.683167 20.667595 19.677294 18.715948 17.783390 16.880583 16.012146 15.182116 14.393966 13.650592 12.954296 12.306797 11.709244 11.162238 10.665857 10.219679 9.822824 9.473995 9.171508 8.913352 8.697225 8.520578 8.380674 8.274624 8.199428 8.152030 8.129348 8.128319 8.154466
49.477905 49.191116 48.877495 48.537472 48.171497 47.780067 47.363701 46.921619 46.445515 45.934891 45.391083 44.815514 44.209667 43.575092 42.913395 42.226242 41.515320 40.782394 40.029232 39.243015 38.403450 37.515057 36.582809 35.611816 34.607216 33.574215 32.518017 31.443787 30.356640 29.261595 28.163540 27.067253 25.977303 24.898087 23.831522 22.776115 21.736725 20.717850 19.723526 18.757294 17.820204 16.912216 16.037922 15.201433 14.406312 13.655527 12.951459 12.295921 11.690141 11.134810 10.630080 10.175605 9.770580 9.413773 9.103559 8.837978 8.614776 8.431443 8.285270 8.173387 8.092811 8.040493 8.013351 8.008314 8.026302
49.388332 49.101295 48.787468 48.447159 48.080750 47.688686 47.271477 46.829639 46.360592 45.857292 45.320663 44.752098 44.153076 43.525101 42.869766 42.188705 41.483608 40.756184 40.008209 39.231670 38.402515 37.523899 36.600758 35.638130 34.641136 33.614933 32.564693 31.495569 30.412657 29.320965 28.225393 27.130697 26.041489 24.962149 23.893518 22.835007 21.791847 20.768707 19.769508 18.797836 17.855808 16.943094 16.063517 15.221101 14.419473 13.661685 12.950209 12.286932 11.673183 11.109723 10.596793 10.134129 9.720997 9.356230 9.038274 8.765221 8.534867 8.344742 8.192171 8.074311 7.988199 7.930791 7.899014 7.889785 7.900073
49.300674 49.012829 48.698048 48.356747 47.989334 47.596291 47.178108 46.735310 46.268448 45.772598 45.243279 44.681873 44.089809 43.468594 42.819778 42.144989 41.445877 40.724148 39.981541 39.214119 38.395969 37.527737 36.614300 35.660641 34.671844 33.653034 32.609344 31.545914 30.467791 29.380005 28.287436 27.194849 26.106852 25.027859 23.957439 22.896288 21.849052 20.820501 19.815369 18.838001 17.891130 16.973387 16.088713 15.240911 14.433264 13.668913 12.950407 12.279724 11.658272 11.086906 10.565950 10.095217 9.674055 9.301368 8.975665 8.695106 8.457531 8.260519 8.101433 7.977458 7.885653 7.822992 7.786401 7.772804 7.779158
49.211899 48.923069 48.607327 48.265064 47.896725 47.502750 47.083664 46.639977 46.172249 45.680752 45.158871 44.604752 44.019798 43.405487 42.763367 42.095009 41.402069 40.686214 39.949169 39.190109 38.383556 37.526302 36.623169 35.679096 34.699108 33.688282 32.651741 31.594570 30.521826 29.438498 28.349472 27.259514 26.173233 25.094954 24.022919 22.958420 21.906847 20.873322 19.862617 18.879150 17.926508 17.003914 16.113997 15.260688 14.447501 13.677046 12.951910 12.274165 11.645310 11.066277 10.537481 10.058825 9.629727 9.249172 8.915738 8.627645 8.382792 8.178808 8.013099 7.882878 7.785234 7.717154 7.675580 7.657436 7.659678
49.121799 48.832043 48.515377 48.172218 47.802994 47.408169 46.988235 46.543732 46.075207 45.583260 45.067390 44.520676 43.942978 43.335735 42.700455 42.038708 41.352112 40.642319 39.911030 39.159370 38.365005 37.519337 36.627110 35.693230 34.722656 33.720436 32.691635 31.641321 30.574535 29.496237 28.411308 27.324514 26.240416 25.162359 24.088018 23.020418 21.965025 20.927000 19.911173 18.922005 17.963478 17.035324 16.139906 15.281149 14.462114 13.685893 12.954554 12.270122 11.634169 11.047738 10.511315 10.024891 9.587969 9.199615 8.858477 8.562839 8.310666 8.099638 7.927201 7.790613 7.686986 7.613335 7.566612 7.543751 7.541701
49.030483 48.739830 48.422295 48.078289 47.708244 47.312622 46.891926 46.446671 45.977436 45.484791 44.969364 44.429619 43.859314 43.259281 42.631008 41.976036 41.295959 40.592419 39.867077 39.121655 38.340054 37.506569 36.625862 35.702774 34.742229 33.749222 32.728771 31.685925 30.625683 29.552996 28.472734 27.389185 26.306454 25.228266 24.152201 23.082083 22.023409 20.981380 19.960884 18.966427 18.002161 17.068851 16.167601 15.302711 14.477860 13.695523 12.958169 12.267432 11.624728 11.031174 10.487352 9.993342 9.548732 9.152660 8.803862 8.500686 8.241161 8.023025 7.843771 7.700702 7.590963 7.511590 7.459524 7.431692 7.425210
48.938030 48.646526 48.328171 47.983379 47.612564 47.216213 46.794815 46.348888 45.879013 45.385765 44.869762 44.331650 43.768757 43.176086 42.554985 41.906952 41.233582 40.536465 39.817276 39.077682 38.308449 37.487728 36.619148 35.707470 34.757568 33.774391 32.762905 31.728128 30.675034 29.608316 28.532146 27.451241 26.370241 25.292402 24.215233 23.143188 22.081793 21.036287 20.011597 19.012289 18.042559 17.104368 16.197678 15.326707 14.495281 13.706635 12.962959 12.265935 11.616832 11.016459 10.465492 9.964093 9.511941 9.108261 8.751862 8.441169 8.174275 7.948982 7.762835 7.613182 7.497081 7.411421 7.353649 7.320975 7.310264
48.844536 48.552223 48.233101 47.887566 47.516056 47.119034 46.696999 46.250488 45.780048 45.286278 44.769787 44.231232 43.671280 43.086128 42.472343 41.831432 41.164932 40.474442 39.761589 39.028038 38.269917 37.462559 36.606697 35.707050 34.768402 33.795662 32.793774 31.767569 30.721298 29.659758 28.587788 27.510143 26.431475 25.354506 24.276884 23.203522 22.139982 21.091536 20.063145 19.059437 18.084660 17.141727 16.230017 15.353323 14.515555 13.720042 12.969543 12.265982 11.610334 11.003461 10.445616 9.937051 9.477529 9.066360 8.702436 8.384263 8.110002 7.877516 7.684192 7.526732 7.403182 7.311367 7.248579 7.211624 7.197009
48.750095 48.457020 48.137180 47.790958 47.418804 47.021175 46.598583 46.151546 45.680626 45.186420 44.669533 44.130619 43.570351 42.989361 42.383072 41.749443 41.090004 40.406322 39.700005 38.972694 38.224209 37.430798 36.588261 35.701233 34.774464 33.812721 32.820240 31.801765 30.762207 29.706448 28.639324 27.565577 26.489847 25.414322 24.336906 23.262856 22.197760 21.146923 20.115355 19.107719 18.128317 17.180754 16.264467 15.382435 14.538651 13.736544 12.978953 12.268137 11.605686 10.992054 10.427601 9.912109 9.445406 9.026895 8.655544 8.329943 8.048125 7.806364 7.603256 7.437716 7.307880 7.211144 7.144307 7.103764 7.085707
48.654800 48.361012 48.040493 47.693645 47.320911 46.922745 46.499660 46.052174 45.580853 45.086288 44.569092 44.029922 43.469437 42.888355 42.287151 41.660976 41.008774 40.332085 39.632504 38.911644 38.171062 37.392178 36.563560 35.689697 34.774670 33.823078 32.839752 31.829565 30.797386 29.748072 28.686436 27.617218 26.545057 25.471581 24.395042 23.320953 22.254915 21.202261 20.168043 19.156975 18.173399 17.221281 16.300880 15.413916 14.564472 13.756057 12.991615 12.273495 11.603475 10.982738 10.411362 9.889156 9.415484 8.989786 8.611065 8.275419 7.981000 7.728400 7.517029 7.345377 7.211010 7.110756 7.040940 6.997658 6.976777
48.558746 48.264290 47.943150 47.595734 47.222466 46.823833 46.400322 45.952457 45.480824 44.985985 44.468571 43.929230 43.368629 42.787479 42.186501 41.566029 40.921238 40.251740 39.559090 38.844894 38.110786 37.346340 36.531429 35.669884 34.766304 33.825367 32.851868 31.850636 30.826494 29.784290 28.728800 27.664761 26.596806 25.526011 24.451046 23.377573 22.311213 21.257339 20.221024 19.207029 18.219753 17.263224 16.339092 15.447630 14.592898 13.778499 13.007462 12.282245 11.604714 10.976182 10.397400 9.868136 9.387666 8.952708 8.558887 8.208498 7.902915 7.642158 7.425137 7.249642 7.112511 7.010211 6.938734 6.893724 6.870716
48.462036 48.166954 47.845234 47.497303 47.123569 46.724533 46.300667 45.852512 45.380630 44.885612 44.368065 43.828648 43.268028 42.686913 42.086025 41.466114 40.827408 40.165283 39.479767 38.772224 38.043793 37.290565 36.489113 35.640373 34.748875 33.819260 32.856247 31.864632 30.849207 29.814775 28.766096 27.707886 26.644775 25.577333 24.504644 23.432463 22.366432 21.311935 20.274099 19.257708 18.267216 17.306704 16.378941 15.483431 14.623808 13.803765 13.026421 12.294331 11.609465 10.973234 10.386489 9.848631 9.352001 8.897348 8.488180 8.126530 7.813174 7.547520 7.327452 7.150197 7.012381 6.909900 6.838193 6.792505 6.768102
48.364758 48.069088 47.746857 47.398468 47.024338 46.624943 46.200802 45.752426 45.280384 44.785259 44.267670 43.728275 43.167732 42.586754 41.986061 41.366409 40.728554 40.072269 39.393005 38.690990 37.967796 37.223572 36.436184 35.600864 34.722092 33.804436 32.852581 31.871241 30.865198 29.839203 28.798006 27.746288 26.688669 25.625278 24.555578 23.485380 22.420334 21.365847 20.327070 19.308836 18.315634 17.351603 16.420246 15.521170 14.657081 13.831759 13.048418 12.309706 11.617699 10.973767 10.372604 9.808977 9.289377 8.818383 8.397988 8.029215 7.711782 7.443941 7.223574 7.047415 6.911306 6.810506 6.739980 6.694643 6.669573
48.267014 47.970818 47.648117 47.299313 46.924850 46.525181 46.100830 45.652298 45.180176 44.685036 44.167496 43.628204 43.067841 42.487099 41.886513 41.266495 40.627769 39.971104 39.296669 38.600426 37.882713 37.145088 36.372345 35.551064 34.685638 33.780594 32.840534 31.870146 30.874147 29.857262 28.824207 27.779650 26.728176 25.669561 24.603582 23.536064 22.472675 21.418844 20.379734 19.360220 18.364836 17.397764 16.462814 15.560687 14.692582 13.862370 13.073363 12.328309 11.627262 10.958240 10.325356 9.737080 9.199353 8.715864 8.288536 7.916214 7.597808 7.331607 7.114515 6.942368 6.810270 6.712919 6.644883 6.600843 6.575778
48.168900 47.872223 47.549103 47.199951 46.825207 46.425335 46.000839 45.552242 45.080109 44.585041 44.067638 43.528419 42.967762 42.386299 41.784733 41.163769 40.524155 39.866634 39.192001 38.500549 37.788563 37.056377 36.297340 35.490688 34.639229 33.747425 32.819817 31.861031 30.875740 29.868637 28.844404 27.807665 26.763006 25.709911 24.648378 23.584267 22.523220 21.470695 20.431877 19.411674 18.414652 17.445055 16.506731 15.601811 14.730167 13.895488 13.100980 12.339855 11.602117 10.898791 10.239939 9.632736 9.082189 8.590851 8.159100 7.787078 7.472584 7.212224 7.001853 6.836456 6.710485 6.618163 6.553766 6.511835 6.487341
48.070522 47.773399 47.449921 47.100475 46.725513 46.325497 45.900932 45.452339 44.980118 44.484646 43.966507 43.426319 42.864716 42.282364 41.679939 41.058182 40.417801 39.759575 39.084282 38.392731 37.685379 36.958893 36.210922 35.419483 34.582596 33.704655 32.790134 31.843605 30.869696 29.873041 28.858286 27.830046 26.792860 25.746040 24.689714 23.629721 22.571726 21.521177 20.483292 19.462997 18.464914 17.493307 16.552092 15.644373 14.769693 13.929005 13.105659 12.299765 11.525624 10.794995 10.116426 9.496339 8.937317 8.441979 8.011498 7.644738 7.338562 7.088008 6.887527 6.731334 6.613319 6.527349 6.467511 6.428312 6.404810
47.971981 47.674469 47.350670 47.000992 46.625809 46.225391 45.800194 45.350708 44.877464 44.381031 43.861973 43.320919 42.758495 42.175365 41.572231 40.949799 40.308807 39.650021 38.974220 38.282204 37.574810 36.852680 36.112862 35.337200 34.515476 33.652004 32.751209 31.817587 30.855703 29.870169 28.865568 27.846485 26.817455 25.777674 24.727306 23.672176 22.617939 21.570065 20.533770 19.514015 18.515436 17.542370 16.598766 15.688197 14.802646 13.918290 13.045756 12.201286 11.398452 10.647335 9.955217 9.325859 8.764076 8.272023 7.849228 7.493032 7.199049 6.961565 6.773743 6.628808 6.520215 6.441591 6.386956 6.350888 6.328622
47.873253 47.575089 47.250496 46.899853 46.523575 46.122086 45.695873 45.245422 44.771275 44.273979 43.754116 43.212307 42.649185 42.065426 41.461704 40.838741 40.197273 39.538067 38.861904 38.169586 37.461941 36.739822 36.004021 35.243618 34.437637 33.589241 32.702782 31.782700 30.833504 29.859743 28.865963 27.856718 26.836506 25.804543 24.760899 23.711378 22.661627 21.617117 20.583084 19.564497 18.566046 17.592085 16.645998 15.712237 14.770424 13.833793 12.920417 12.045788 11.221672 10.455455 9.753702 9.123043 8.566779 8.085248 7.676282 7.335699 7.057816 6.835958 6.662830 6.530729 6.432590 6.361933 6.312833 6.280044 6.258985
47.771652 47.472290 47.146553 46.794830 46.417507 46.015045 45.587914 45.136597 44.661640 44.163597 43.643044 43.100601 42.536911 41.952629 41.348454 40.725098 40.083302 39.423820 38.747444 38.054977 37.347244 36.625092 35.889385 35.138523 34.348854 33.516125 32.644608 31.738697 30.802830 29.841496 28.859209 27.860466 26.849737 25.826368 24.790222 23.747063 22.702538 21.662109 20.631027 19.614273 18.616566 17.639109 16.655655 15.654931 14.656816 13.676946 12.731833 11.834725 10.993279 10.217656 9.516160 8.893422 8.350757 7.886613 7.497121 7.176630 6.918262 6.714417 6.557229 6.438869 6.351741 6.289273 6.245713 6.215919 6.195674
47.666016 47.365532 47.038727 46.685986 46.307720 45.904373 45.476402 45.024330 44.548664 44.049973 43.528847 42.985893 42.421745 41.837086 41.232586 40.608978 39.966988 39.307381 38.630947 37.938484 37.230816 36.508797 35.773289 35.025143 34.249016 33.432434 32.576469 31.685337 30.763424 29.815174 28.845030 27.857466 26.856895 25.842896 24.815018 23.778990 22.740440 21.704819 20.677382 19.663128 18.658539 17.628647 16.571331 15.509570 14.464195 13.450870 12.481263 11.564548 10.714215 9.940443 9.249388 8.643505 8.122033 7.681524 7.316457 7.019809 6.783646 6.599603 6.459337 6.354864 6.278757 6.224288 6.185644 6.158217 6.138413
47.556473 47.254921 46.927124 46.573452 46.194317 45.790161 45.361465 44.908718 44.432453 43.933235 43.411640 42.868294 42.303818 41.718895 41.114208 40.490482 39.848442 39.188854 38.512508 37.820202 37.112762 36.391045 35.655899 34.908215 34.142117 33.338352 32.498138 31.622402 30.715071 29.780537 28.823198 27.847464 26.857731 25.853878 24.835037 23.806906 22.775080 21.745007 20.721933 19.694830 18.623625 17.514385 16.392073 15.279565 14.196963 13.156032 12.164841 11.239655 10.392742 9.631974 8.961159 8.380470 7.887043 7.475581 7.139012 6.869101 6.657015 6.493820 6.370883 6.280166 6.214431 6.166917 6.132322 6.106649 6.086733
47.443111 47.140564 46.811844 46.457317 46.077404 45.672531 45.243195 44.789879 44.313126 43.813484 43.291534 42.747906 42.183228 41.598183 40.993439 40.369724 39.727779 39.068356 38.392250 37.700256 36.993202 36.271938 35.537327 34.790241 34.030304 33.238350 32.410355 31.549683 30.657557 29.737370 28.793480 27.830238 26.852003 25.859037 24.850029 23.830570 22.806232 21.782221 20.738123 19.632534 18.477072 17.298655 16.122263 14.970158 13.854650 12.789528 11.790112 10.869816 10.038447 9.301362 8.659863 8.111825 7.652315 7.274292 6.969296 6.728054 6.541052 6.398988 6.293132 6.215523 6.158692 6.116878 6.085431 6.060694 6.039975
47.326050 47.022579 46.693005 46.337700 45.957085 45.551598 45.121716 44.667934 44.190781 43.690823 43.168640 42.624855 42.060101 41.475044 40.870388 40.246822 39.605110 38.946003 38.270283 37.578751 36.872242 36.151596 35.417675 34.671360 33.913551 33.133663 32.317612 31.468756 30.590673 29.685463 28.755655 27.805563 26.839491 25.858149 24.859753 23.849749 22.832546 21.778915 20.646923 19.452023 18.222973 16.986900 15.768148 14.578685 13.436445 12.361661 11.368403 10.466090 9.661816 8.958231 8.354119 7.845059 7.424167 7.082822 6.811369 6.599732 6.437937 6.316534 6.226811 6.160477 6.111193 6.073855 6.044383 6.019626 5.997361
47.205402 46.901073 46.570721 46.214725 45.833488 45.427467 44.997128 44.542976 44.065536 43.565376 43.043079 42.499252 41.934547 41.349617 40.745167 40.121895 39.480556 38.821899 38.146721 37.455811 36.750000 36.030136 35.297073 34.551697 33.794903 33.024139 32.220406 31.383575 30.517183 29.624823 28.709536 27.773232 26.819977 25.850986 24.863985 23.861597 22.807333 21.657988 20.431473 19.158373 17.867842 16.586111 15.325445 14.107371 12.954846 11.885697 10.912239 10.040332 9.273726 8.612323 8.052380 7.587300 7.208414 6.905739 6.668666 6.486563 6.349243 6.247214 6.171323 6.114598 6.071384 6.037136 6.008377 5.982576 5.958052
47.081280 46.776169 46.445114 46.088493 45.706734 45.300270 44.869572 44.415150 43.937531 43.437271 42.914963 42.371220 41.806683 41.222012 40.617897 39.995060 39.354240 38.696186 38.021687 37.331551 36.626598 35.907673 35.175632 34.431366 33.675758 32.909626 32.118599 31.294168 30.439835 29.559155 28.655718 27.733063 26.793272 25.837328 24.858261 23.813196 22.656570 21.407389 20.097878 18.759184 17.419264 16.091166 14.799623 13.570438 12.424139 11.375742 10.434854 9.604670 8.885015 8.273026 7.762552 7.344985 7.010101 6.746810 6.543829 6.390232 6.275734 6.190279 6.126195 6.077242 6.038370 6.005704 5.976414 5.948618 5.921184
46.953819 46.647984 46.316296 45.959141 45.576935 45.170113 44.739155 44.284565 43.806866 43.306622 42.784431 42.240883 41.676636 41.092350 40.488708 39.866440 39.226273 38.568970 37.895309 37.206100 36.502159 35.784332 35.053482 34.310482 33.556229 32.791634 32.012032 31.200382 30.358484 29.489859 28.598066 27.686666 26.759262 25.811405 24.786106 23.633224 22.371367 21.034204 19.654722 18.262568 16.871937 15.510234 14.206329 12.983610 11.859646 10.846232 9.949718 9.170985 8.505976 7.948997 7.491660 7.123593 6.833289 6.608847 6.438601 6.311479 6.216478 6.145155 6.090645 6.047362 6.010990 5.978383 5.947425 5.916837 5.885976
46.823132 46.516647 46.184402 45.826790 45.444218 45.037136 44.606010 44.151352 43.673683 43.173569 42.651592 42.108368 41.544533 40.960762 40.357735 39.736164 39.096790 38.440380 37.767708 37.079571 36.376801 35.660236 34.930733 34.189171 33.436440 32.673466 31.900583 31.102074 30.272984 29.416786 28.536995 27.637156 26.714579 25.715969 24.578230 23.314720 21.959755 20.548016 19.110811 17.663637 16.236160 14.860364 13.562686 12.363482 11.277000 10.311544 9.469980 8.750423 8.145950 7.647791 7.245563 6.927423 6.680896 6.493596 6.353668 6.249151 6.170745 6.110924 6.063517 6.023739 5.988082 5.954175 5.920583 5.886586 5.851971
46.689350 46.382282 46.049561 45.691574 45.308727 44.901470 44.470272 44.015640 43.538109 43.038227 42.516590 41.973808 41.410507 40.827377 40.225086 39.604359 38.965927 38.310547 37.639008 36.952106 36.250656 35.535507 34.807522 34.067566 33.316532 32.555336 31.784885 30.999113 30.183197 29.339792 28.472374 27.578362 26.603582 25.486532 24.229855 22.866686 21.432240 19.958433 18.461882 16.974142 15.530288 14.159937 12.886483 11.726858 10.691600 9.785348 9.007486 8.353001 7.812957 7.375576 7.028729 6.759439 6.554635 6.401705 6.287730 6.202428 6.137559 6.086335 6.043457 6.005032 5.968413 5.932002 5.894989 5.857143 5.818617
46.552605 46.245029 45.911907 45.553619 45.170582 44.763245 44.332073 43.877575 43.400280 42.900742 42.379551 41.837322 41.274693 40.692326 40.090916 39.471157 38.833801 38.179604 37.509346 36.823826 36.123856 35.410286 34.683971 33.945782 33.196613 32.437370 31.668972 30.891371 30.088993 29.258751 28.398966 27.454367 26.359612 25.116621 23.752979 22.302626 20.799931 19.261913 17.720676 16.213657 14.773849 13.427877 12.195592 11.090063 10.117953 9.280169 8.572655 7.987382 7.513372 7.136891 6.844116 6.621302 6.455081 6.331645 6.239586 6.169917 6.115186 6.069541 6.028667 5.989624 5.950623 5.910769 5.869805 5.827907 5.785499
46.413040 46.105022 45.771568 45.413067 45.029922 44.622593 44.191544 43.737270 43.260319 42.761238 42.240616 41.699059 41.137218 40.555748 39.955334 39.336685 38.700550 38.047684 37.378853 36.694862 35.996529 35.284691 34.560219 33.823956 33.076820 32.319698 31.553518 30.779203 29.990253 29.170050 28.262932 27.200346 25.973135 24.615976 23.159050 21.634928 20.061689 18.472761 16.907871 15.402744 13.986815 12.682994 11.507175 10.468346 9.569115 8.806700 8.173863 7.659907 7.251765 6.934675 6.693245 6.513315 6.380354 6.281634 6.207390 6.149461 6.101401 6.058432 6.017288 5.975977 5.933499 5.889577 5.844413 5.798482 5.752386
46.270782 45.962395 45.628681 45.270046 44.886890 44.479660 44.048817 43.594883 43.118382 42.619858 42.099918 41.559158 40.998222 40.417770 39.818497 39.201096 38.566322 37.914913 37.247658 36.565350 35.868805 35.158867 34.436375 33.702217 32.957272 32.202450 31.438656 30.666828 29.885183 29.022142 28.003111 26.802086 25.454222 23.996367 22.460316 20.860380 19.230570 17.612560 16.045544 14.562372 13.188787 11.943055 10.836706 9.874673 9.055729 8.373552 7.817805 7.375342 7.031338 6.770251 6.576077 6.433401 6.328051 6.249417 6.188582 6.138460 6.093769 6.050880 6.007576 5.962742 5.916070 5.867789 5.818446 5.768694 5.719221
46.125977 45.817291 45.483410 45.124714 44.741619 44.334572 43.904049 43.450546 42.974602 42.476749 41.957603 41.417755 40.857849 40.278545 39.680534 39.064518 38.431236 37.781441 37.115898 36.435425 35.740822 35.032928 34.312595 33.580692 32.838112 32.085747 31.324514 30.554947 29.726383 28.760981 27.597763 26.269930 24.814980 23.271109 21.654299 19.991793 18.327009 16.702459 15.154381 13.711846 12.396669 11.222977 10.197540 9.320648 8.587340 7.987923 7.509350 7.136465 6.853127 6.643213 6.490417 6.378380 6.295473 6.231987 6.180146 6.134114 6.089865 6.044922 5.998040 5.948874 5.897680 5.845075 5.791769 5.738551 5.685483
45.978775 45.669857 45.335873 44.977207 44.594265 44.187500 43.757385 43.304405 42.829113 42.332047 41.813808 41.274990 40.716240 40.138210 39.541595 38.927094 38.295441 37.647396 36.983723 36.305225 35.612717 34.907024 34.189007 33.459522 32.719467 31.969732 31.211227 30.403208 29.472397 28.353441 27.057371 25.616127 24.069136 22.439478 20.753204 19.049250 17.372108 15.761957 14.252076 12.867750 11.626151 10.536574 9.601147 8.815738 8.171169 7.654594 7.251061 6.943929 6.716258 6.551408 6.432225 6.345076 6.279140 6.225895 6.178904 6.133693 6.087500 6.038923 5.987565 5.933721 5.878040 5.821342 5.764311 5.706586 5.650994
45.829311 45.520241 45.186230 44.827667 44.444969 44.038570 43.608948 43.156612 42.682076 42.185905 41.668686 41.131012 40.573536 39.996906 39.401814 38.788963 38.159081 37.512924 36.851261 36.174892 35.484623 34.781292 34.065742 33.338840 32.601467 31.854528 31.069370 30.169758 29.079147 27.810783 26.394279 24.854536 23.219120 21.511486 19.775574 18.052101 16.384514 14.809949 13.357409 12.047412 10.892162 9.896018 9.056496 8.365394 7.810142 7.375158 7.043161 6.796439 6.618112 6.490086 6.397830 6.329527 6.275151 6.227566 6.181807 6.134779 6.084896 6.031695 5.975511 5.917001 5.857129 5.795372 5.734301 5.675208 5.618346
45.677738 45.368576 45.034622 44.676247 44.293873 43.887939 43.458912 43.007301 42.533638 42.038467 41.522369 40.985966 40.429882 39.854782 39.261345 38.650269 38.022293 37.378166 36.718662 36.044563 35.356689 34.655865 33.942940 33.218777 32.484253 31.722563 30.855890 29.802439 28.555391 27.149801 25.622366 23.991632 22.269302 20.503370 18.740217 17.021118 15.385568 13.866544 12.488256 11.266116 10.207138 9.310822 8.570262 7.973549 7.505167 7.147429 6.881792 6.689987 6.553185 6.454900 6.382999 6.327370 6.279535 6.233644 6.186217 6.135452 6.080804 6.022624 5.961605 5.898328 5.832676 5.768454 5.706009 5.645642 5.587603
45.524208 45.215042 44.881207 44.523102 44.141132 43.735752 43.307415 42.856636 42.383942 41.889877 41.375027 40.839996 40.285431 39.711979 39.120323 38.511162 37.885227 37.243271 36.586060 35.914379 35.229046 34.530884 33.820740 33.099476 32.360184 31.526026 30.520134 29.304037 27.912971 26.384317 24.751448 23.024483 21.236841 19.435949 17.670158 15.978527 14.395738 12.949965 11.660198 10.536511 9.580759 8.787714 8.146417 7.641678 7.255576 6.968912 6.762455 6.616982 6.513900 6.439493 6.382528 6.334310 6.288632 6.241260 6.190071 6.134415 6.074634 6.011477 5.944249 5.875969 5.808836 5.743241 5.679527 5.617985 5.558956
45.368877 45.059761 44.726131 44.368382 43.986908 43.582165 43.154613 42.704765 42.233139 41.740288 41.226795 40.693268 40.140335 39.568653 38.978901 38.371784 37.748028 37.108376 36.453598 35.784485 35.101845 34.406494 33.699284 32.979305 32.179432 31.227512 30.052916 28.685677 27.162500 25.522346 23.779737 21.973293 20.143385 18.332699 16.587805 14.945070 13.433503 12.076014 10.886105 9.868423 9.019811 8.330629 7.786295 7.368883 7.058672 6.835551 6.679770 6.571054 6.494126 6.436694 6.389142 6.344555 6.298473 6.248034 6.192064 6.131099 6.066230 5.995541 5.924965 5.855212 5.786715 5.719858 5.654980 5.594958 5.540560
45.211895 44.902912 44.569565 44.212242 43.831348 43.427338 43.000668 42.551842 42.081390 41.589863 41.077839 40.545918 39.994736 39.424946 38.837234 38.232288 37.610840 36.973637 36.321438 35.655029 34.975224 34.282833 33.578705 32.816856 31.919033 30.797211 29.462898 27.954418 26.313261 24.560827 22.726648 20.861912 19.012285 17.216125 15.514174 13.939432 12.514908 11.257781 10.175948 9.268733 8.528232 7.940815 7.488817 7.152194 6.910025 6.741881 6.626480 6.546423 6.488286 6.441443 6.398164 6.353400 6.304377 6.250051 6.189887 6.123631 6.051721 5.979345 5.907309 5.836205 5.766460 5.698457 5.637759 5.580409 5.524292
45.053429 44.744640 44.411655 44.054840 43.674614 43.271412 42.845715 42.398026 41.928848 41.438744 40.928299 40.398102 39.848793 39.281021 38.695465 38.092823 37.473816 36.839191 36.189713 35.526154 34.849323 34.160038 33.435009 32.588272 31.530127 30.239920 28.756664 27.122416 25.368547 23.514500 21.613672 19.714903 17.866259 16.107161 14.468216 12.977841 11.653209 10.505404 9.536722 8.741417 8.107222 7.617034 7.250710 6.986773 6.803847 6.680393 6.596390 6.537165 6.490986 6.449202 6.406081 6.358406 6.304998 6.245831 6.179305 6.107997 6.035764 5.963165 5.890730 5.818945 5.748253 5.687159 5.627078 5.567984 5.510156
44.893623 44.585106 44.252548 43.896328 43.516853 43.114563 42.689941 42.243462 41.775665 41.287094 40.778336 40.249973 39.702652 39.137024 38.553749 37.953537 37.337101 36.705193 36.058559 35.397995 34.724289 34.030254 33.228886 32.244934 31.011307 29.564838 27.947866 26.199869 24.335344 22.404840 20.461094 18.553713 16.728903 15.024725 13.466253 12.073730 10.858727 9.826007 8.972447 8.287548 7.755253 7.355680 7.066921 6.866687 6.733127 6.644115 6.583237 6.537558 6.497400 6.456232 6.410307 6.358163 6.299650 6.232393 6.161842 6.090182 6.017713 5.944988 5.872529 5.802463 5.740891 5.679330 5.618136 5.557647 5.498185
44.732651 44.424484 44.092430 43.736877 43.358234 42.956944 42.533478 42.088318 41.622002 41.135071 40.628101 40.101696 39.556480 38.993103 38.412239 37.814583 37.200855 36.571789 35.928146 35.270706 34.599194 33.845661 32.934326 31.770662 30.373617 28.785406 27.050596 25.186598 23.234577 21.252020 19.289988 17.398272 15.619197 13.986072 12.521858 11.237536 10.138518 9.223343 8.483888 7.905494 7.468830 7.151816 6.931417 6.785151 6.689783 6.626465 6.580980 6.542495 6.503563 6.459797 6.409365 6.351957 6.284265 6.213804 6.142363 6.070355 5.997744 5.924984 5.856063 5.794198 5.731963 5.669741 5.607890 5.546748 5.486624
44.570671 44.262905 43.931446 43.576645 43.198917 42.798714 42.376495 41.932755 41.468018 40.982834 40.477764 39.953419 39.410423 38.849426 38.271091 37.676117 37.065212 36.439133 35.798611 35.143150 34.436668 33.590092 32.510593 31.176607 29.629873 27.915865 26.064484 24.101282 22.086885 20.075815 18.120115 16.266478 14.552475 13.005992 11.644872 10.475849 9.496272 8.698588 8.069982 7.592106 7.243033 6.999211 6.837197 6.733707 6.666901 6.621113 6.584238 6.547775 6.506570 6.458323 6.402502 6.334968 6.264935 6.193528 6.121285 6.048718 5.976055 5.908406 5.846635 5.784094 5.721180 5.658278 5.595743 5.533916 5.472960
44.407833 44.100567 43.769760 43.415787 43.039066 42.640034 42.219158 41.776932 41.313873 40.830528 40.327469 39.805302 39.264641 38.706135 38.130451 37.538284 36.930344 36.307232 35.666615 34.997608 34.206551 33.222675 31.966354 30.474926 28.793711 26.963942 25.001682 22.964027 20.910654 18.894987 16.968111 15.172382 13.540203 12.093513 10.843968 9.793597 8.934033 8.251103 7.727674 7.342396 7.071480 6.890646 6.776356 6.704706 6.657889 6.622408 6.588569 6.550307 6.504728 6.451005 6.384259 6.315021 6.244004 6.171762 6.098826 6.025703 5.959149 5.897892 5.835444 5.772218 5.708614 5.645011 5.581770 5.519228 5.456656
44.244331 43.937614 43.607533 43.254478 42.878834 42.481068 42.061630 41.621006 41.159721 40.678329 40.177391 39.657501 39.119286 38.563389 37.990479 37.401237 36.795345 36.170086 35.525322 34.793205 33.897568 32.734299 31.312916 29.678080 27.877436 25.929548 23.879482 21.791452 19.722057 17.725348 15.848600 14.129025 12.593105 11.256504 10.124607 9.193542 8.451325 7.877903 7.451974 7.149897 6.946795 6.818385 6.740186 6.691328 6.656833 6.625659 6.590676 6.548245 6.497149 6.431875 6.363820 6.293566 6.221684 6.148721 6.075204 6.008745 5.947717 5.885697 5.822574 5.758660 5.694355 5.630036 5.566066 5.502693 5.437800
44.080189 43.774162 43.444920 43.092861 42.718399 42.321983 41.904060 41.465141 41.005737 40.526386 40.027653 39.510128 38.974422 38.421162 37.851006 37.261967 36.652401 36.023514 35.345924 34.522785 33.468067 32.132191 30.558659 28.795622 26.877037 24.828299 22.715389 20.600492 18.539145 16.583494 14.775925 13.147883 11.719526 10.500107 9.488784 8.676042 8.045384 7.574085 7.236411 7.007139 6.861063 6.773818 6.721571 6.687403 6.658783 6.627338 6.588518 6.540628 6.477527 6.411057 6.341960 6.270817 6.198191 6.124629 6.058085 5.997186 5.935021 5.871941 5.808126 5.743524 5.678510 5.613464 5.548745 5.483848 5.416589
43.911533 43.606541 43.278458 42.927692 42.554634 42.159740 41.743465 41.306313 40.848785 40.371429 39.874802 39.359497 38.826115 38.275017 37.702854 37.109386 36.495800 35.856468 35.098904 34.155247 32.921825 31.426081 29.715435 27.836105 25.804499 23.679514 21.528214 19.409388 17.378712 15.483938 13.761871 12.237713 10.925081 9.826794 8.936034 8.238058 7.712130 7.333242 7.073464 6.906096 6.806294 6.748920 6.714110 6.687724 6.659966 6.625162 6.581046 6.520906 6.456436 6.388903 6.318897 6.246994 6.173754 6.106915 6.046502 5.984472 5.921184 5.856986 5.792220 5.726933 5.661209 5.595426 5.529930 5.462783 5.393251
43.736397 43.432507 43.105659 42.756245 42.384678 41.991394 41.576855 41.141556 40.686005 40.210743 39.716335 39.203358 38.671410 38.116795 37.540092 36.942505 36.325203 35.634914 34.784031 33.670605 32.270157 30.628691 28.796980 26.800428 24.678608 22.501842 20.334789 18.234932 16.255440 14.438776 12.815626 11.404624 10.212781 9.236630 8.463754 7.874730 7.445240 7.148190 6.955091 6.838746 6.773874 6.737083 6.712338 6.688252 6.657856 6.618025 6.561687 6.499638 6.434090 6.365634 6.294856 6.222329 6.154936 6.095387 6.033862 5.970726 5.906332 5.841030 5.775157 5.709027 5.642595 5.576073 5.509291 5.439744 5.368045
43.554962 43.252239 42.926697 42.578712 42.208702 41.817112 41.404396 40.971043 40.517570 40.044514 39.552418 39.039818 38.503387 37.944122 37.363182 36.761768 36.125114 35.348820 34.366287 33.079422 31.525085 29.753101 27.806627 25.705536 23.517550 21.312599 19.151703 17.091925 15.181701 13.457618 11.943812 10.652195 9.583261 8.727560 8.067536 7.579731 7.237114 7.011187 6.873341 6.797174 6.756622 6.732589 6.711937 6.686195 6.651159 6.599532 6.540328 6.477191 6.410711 6.341476 6.270069 6.201830 6.143528 6.082896 6.020293 5.956079 5.890605 5.824219 5.757255 5.690040 5.622831 5.555571 5.486824 5.414998 5.341257
43.367420 43.065918 42.741737 42.395260 42.026886 41.637077 41.226269 40.794956 40.343658 39.872894 39.379940 38.862309 38.321102 37.757477 37.172596 36.566422 35.867161 34.995811 33.841282 32.393009 30.699062 28.811687 26.751253 24.569078 22.338558 20.127085 17.993797 15.993011 14.167547 12.547611 11.150605 9.981687 9.035035 8.295609 7.741447 7.345884 7.079841 6.914061 6.820715 6.773304 6.748590 6.730839 6.709826 6.680016 6.634089 6.578155 6.517860 6.453786 6.386523 6.316658 6.247255 6.190594 6.131248 6.069575 6.005933 5.940676 5.874154 5.806709 5.738676 5.670377 5.602121 5.533908 5.462808 5.388842 5.313195
43.173943 42.873734 42.550987 42.206081 41.839436 41.451469 41.042660 40.613480 40.164375 39.691513 39.193275 38.670746 38.125057 37.557350 36.968819 36.335537 35.549458 34.542149 33.219559 31.623135 29.804770 27.804657 25.647886 23.407885 21.157469 18.960043 16.873974 14.948603 13.220632 11.713555 10.437884 9.392101 8.564580 7.935419 7.478829 7.165572 6.965346 6.848938 6.789675 6.761180 6.744905 6.728441 6.704158 6.665005 6.612760 6.555734 6.494502 6.429646 6.361755 6.291413 6.236225 6.178568 6.118230 6.055566 5.990929 5.924671 5.857137 5.788668 5.719594 5.650233 5.580895 5.510870 5.437540 5.361586 5.284186
42.974747 42.675880 42.354630 42.011375 41.646519 41.260483 40.853760 40.426552 39.974342 39.496063 38.992805 38.465649 37.915745 37.344254 36.749294 36.048454 35.167561 33.990685 32.512192 30.781860 28.852577 26.743305 24.512917 22.237686 19.987963 17.824543 15.803003 13.966906 12.346342 10.957783 9.805072 8.880613 8.167303 7.640869 7.272402 7.030925 6.885727 6.808399 6.772845 6.755732 6.742203 6.723207 6.691927 6.643778 6.590445 6.532485 6.470475 6.404997 6.336635 6.280047 6.224482 6.165889 6.104618 6.041018 5.975437 5.908226 5.839725 5.770270 5.700190 5.629800 5.559400 5.486939 5.411338 5.333564 5.254574
42.770012 42.472557 42.152870 41.811329 41.448334 41.064327 40.659306 40.228260 39.770515 39.287083 38.779049 38.247551 37.693707 37.118717 36.492748 35.706390 34.691368 33.351784 31.730556 29.881187 27.842421 25.643518 23.361763 21.072859 18.843006 16.731684 14.789516 13.053576 11.547280 10.280447 9.250320 8.443384 7.837615 7.405073 7.114553 6.934151 6.833537 6.785602 6.764781 6.752924 6.738113 6.714298 6.670845 6.621614 6.567353 6.508624 6.445999 6.380059 6.321675 6.268600 6.212162 6.152701 6.090559 6.026084 5.959619 5.891509 5.822093 5.751700 5.680656 5.609273 5.537492 5.462525 5.384682 5.305113 5.224711
42.559956 42.263969 41.945915 41.606159 41.245110 40.862568 40.453190 40.016483 39.553425 39.065086 38.552563 38.016968 37.459480 36.877190 36.183495 35.305801 34.126350 32.636093 30.886059 28.930025 26.787121 24.520309 22.208645 19.925619 17.733837 15.690054 13.839170 12.211913 10.824757 9.680636 8.770495 8.075398 7.569091 7.220742 6.997658 6.867822 6.802010 6.774037 6.761240 6.749863 6.731199 6.694626 6.649049 6.598719 6.543698 6.484363 6.421289 6.360719 6.310523 6.256644 6.199409 6.139152 6.076211 6.010927 5.943643 5.874696 5.804421 5.733146 5.661190 5.588861 5.515226 5.437943 5.358045 5.276685 5.194958
42.344795 42.050339 41.733971 41.396069 41.036301 40.649078 40.233898 39.791748 39.323639 38.830647 38.313881 37.774479 37.213615 36.600555 35.823929 34.819424 33.482468 31.854435 29.990063 27.928759 25.701258 23.387646 21.066111 18.806232 16.668686 14.705963 12.956560 11.444301 10.178654 9.155934 8.361209 7.770756 7.354820 7.080472 6.914350 6.825087 6.785121 6.769003 6.758980 6.744720 6.716158 6.674076 6.627025 6.575427 6.519686 6.459916 6.396785 6.349844 6.298919 6.244319 6.186367 6.125391 6.061728 5.995712 5.927679 5.857965 5.786898 5.714802 5.641992 5.568758 5.492908 5.413511 5.331758 5.248803 5.207099
42.124741 41.831871 41.517258 41.180546 40.815899 40.422729 40.001965 39.554615 39.081703 38.584312 38.063576 37.520641 36.953041 36.275700 35.413918 34.252552 32.769852 31.017567 29.050953 26.889786 24.597763 22.256800 19.943642 17.723637 15.655256 13.785063 12.144836 10.751373 9.607291 8.702627 8.017138 7.522982 7.187674 6.977006 6.857750 6.799873 6.777180 6.766913 6.755796 6.735323 6.696834 6.653273 6.604930 6.552231 6.495614 6.435486 6.386164 6.338568 6.287000 6.231765 6.173182 6.111573 6.047270 5.980602 5.911902 5.841497 5.769712 5.696865 5.623267 5.548860 5.470848 5.389548 5.306149 5.239483 5.222427
41.900017 41.608799 41.295357 40.953712 40.582985 40.184090 39.757984 39.305664 38.828201 38.326683 37.802242 37.256054 36.661541 35.905003 34.928455 33.614662 31.998594 30.135384 28.067478 25.824200 23.487411 21.138464 18.850780 16.686422 14.699846 12.931227 11.405406 10.132211 9.107670 8.316018 7.732296 7.325272 7.060570 6.903507 6.821672 6.786946 6.774124 6.765172 6.750415 6.717488 6.677225 6.632364 6.582908 6.529292 6.471955 6.419154 6.375177 6.327019 6.274901 6.219125 6.160003 6.097853 6.033000 5.965769 5.896486 5.825474 5.753052 5.679534 5.605222 5.529307 5.449356 5.366372 5.281543 5.256991 5.238746
41.670849 41.380859 41.062592 40.714729 40.338142 39.933743 39.502522 39.045490 38.563725 38.058338 37.530468 36.979263 36.327106 35.491711 34.369415 32.913567 31.176016 29.213976 27.049524 24.744024 22.381962 20.043188 17.796473 15.701451 13.807003 12.146603 10.738121 9.584574 8.675762 7.990626 7.500239 7.170807 6.966782 6.853719 6.800687 6.781426 6.772979 6.762097 6.737262 6.699508 6.657526 6.611484 6.561095 6.506742 6.449582 6.408813 6.364011 6.315331 6.262760 6.206540 6.146976 6.084383 6.019076 5.951378 5.881606 5.810079 5.737109 5.663003 5.588061 5.510394 5.428734 5.344293 5.291547 5.275483 5.256104
41.437218 41.142681 40.818062 40.464184 40.081951 39.672279 39.236183 38.774689 38.288876 37.779808 37.248413 36.675701 35.948891 35.013611 33.742630 32.156586 30.311089 28.253540 26.009596 23.661110 21.292063 18.979586 16.788090 14.773913 12.979610 11.431830 10.141500 9.105046 8.306581 7.720492 7.314527 7.053027 6.900038 6.822054 6.790199 6.779683 6.771659 6.756086 6.721007 6.681520 6.637988 6.590762 6.539619 6.484710 6.440159 6.398581 6.353028 6.303682 6.250712 6.194152 6.134250 6.071315 6.005658 5.937593 5.867432 5.795487 5.722067 5.647469 5.571803 5.492411 5.409278 5.325688 5.312116 5.294994 5.274545