64 64
22.721251 23.517355 24.317139 25.119652 25.923933 26.729034 27.533993 28.337870 29.139717 29.938585 30.733644 31.524563 32.310486 33.090458 33.863537 34.628788 35.385284 36.132141 36.868427 37.593288 38.305851 39.005260 39.690697 40.361340 41.016392 41.655090 42.276661 42.880386 43.465561 44.031487 44.577499 45.102970 45.607288 46.090034 46.550678 46.988655 47.403446 47.794525 48.161442 48.503719 48.820969 49.112804 49.378872 49.618843 49.832439 50.019402 50.179504 50.312565 50.418423 50.496956 50.548080 50.571728 50.567875 50.536327 50.464813 50.346493 50.181728 49.971024 49.715023 49.414490 49.070328 48.683563 48.255356 47.786980 47.279816
22.756865 23.556833 24.359779 25.165001 25.972010 26.779879 27.587650 28.394369 29.199139 30.001621 30.801064 31.596485 32.386940 33.171444 33.949078 34.718887 35.479954 36.231373 36.972233 37.701664 38.418793 39.122765 39.812744 40.487919 41.147491 41.790680 42.416725 43.024914 43.614502 44.184814 44.735188 45.264973 45.773552 46.260342 46.724785 47.166321 47.584461 47.978767 48.348892 48.694370 49.014786 49.309765 49.578945 49.822010 50.038662 50.228653 50.391747 50.527760 50.636539 50.717949 50.771900 50.798325 50.797230 50.767838 50.696365 50.577877 50.412731 50.201435 49.944626 49.643074 49.297691 48.909531 48.479717 48.009533 47.500393
22.786037 23.590117 24.397200 25.206375 26.016739 26.827377 27.637728 28.447561 29.256346 30.063091 30.866817 31.666561 32.461334 33.250195 34.032185 34.806370 35.571823 36.327629 37.072887 37.806717 38.528233 39.236588 39.930958 40.610504 41.274437 41.921970 42.552353 43.164837 43.758709 44.333279 44.887878 45.421860 45.934605 46.425522 46.894035 47.339622 47.761757 48.159954 48.533760 48.882751 49.206524 49.504719 49.776993 50.023094 50.242760 50.435734 50.601788 50.740723 50.852386 50.936653 50.993423 51.022640 51.024273 50.996796 50.925537 50.807053 50.641708 50.430004 50.172581 49.870232 49.523846 49.134476 48.703262 48.231514 47.720612
22.808651 23.616571 24.427517 25.240583 26.054844 26.869627 27.684713 28.499208 29.312172 30.122976 30.930790 31.734640 32.533546 33.326557 34.112720 34.891090 35.660740 36.420757 37.170231 37.908276 38.634018 39.346596 40.045177 40.728939 41.397072 42.048801 42.683357 43.300003 43.898022 44.476715 45.035408 45.573456 46.090244 46.585171 47.057648 47.507172 47.933201 48.335243 48.712856 49.065609 49.393097 49.694946 49.970818 50.220417 50.443451 50.639690 50.808895 50.950901 51.065567 51.152744 51.212376 51.244400 51.248775 51.223038 51.152172 51.033875 50.868519 50.656605 50.398781 50.095821 49.748634 49.358257 48.925854 48.452686 47.940166
22.824614 23.636106 24.450645 25.267361 26.086060 26.906080 27.726471 28.546270 29.364532 30.180302 30.992636 31.800596 32.603439 33.400406 34.190544 34.972908 35.746574 36.510605 37.264114 38.006199 38.735989 39.452614 40.155247 40.843056 41.515232 42.170994 42.809578 43.430241 44.032261 44.614929 45.177589 45.719582 46.240276 46.739094 47.215443 47.668777 48.098598 48.504406 48.885731 49.242157 49.573257 49.878689 50.158096 50.411167 50.637627 50.837227 51.009747 51.154999 51.272842 51.363152 51.425827 51.460831 51.468121 51.444141 51.373947 51.256088 51.090935 50.878994 50.620926 50.317482 49.969585 49.578270 49.144714 48.670181 48.156082
22.833849 23.648632 24.466833 25.288267 26.111998 26.937069 27.762520 28.587387 29.410721 30.231564 31.048969 31.861988 32.669693 33.471153 34.265450 35.051682 35.829163 36.597034 37.354393 38.100338 38.833996 39.554497 40.261005 40.952698 41.628754 42.288391 42.930855 43.555378 44.161251 44.747768 45.314251 45.860058 46.384544 46.887119 47.367214 47.824272 48.257774 48.667236 49.052177 49.412174 49.746838 50.055767 50.338627 50.595112 50.824944 51.027843 51.203621 51.352085 51.473076 51.566463 51.632164 51.670128 51.680313 51.658031 51.588680 51.471451 51.306713 51.094978 50.836876 50.533184 50.184826 49.792839 49.358383 48.882751 48.367264
22.836311 23.654985 24.477894 25.304096 26.132616 26.962484 27.792747 28.622440 29.450603 30.276276 31.098515 31.916365 32.728893 33.535172 34.334267 35.125275 35.907291 36.679428 37.440796 38.190548 38.927895 39.652096 40.362320 41.057716 41.737492 42.400852 43.047024 43.675262 44.284843 44.875061 45.445232 45.994713 46.522865 47.029087 47.512806 47.973469 48.410542 48.823555 49.212025 49.575516 49.913631 50.225986 50.512226 50.772053 51.005177 51.211338 51.390327 51.541954 51.666042 51.762482 51.831192 51.872086 51.885151 51.864540 51.796234 51.679852 51.515736 51.304405 51.046509 50.742821 50.394115 50.001358 49.565678 49.088345 48.570717
22.833508 23.656641 24.484045 25.314754 26.147802 26.982224 27.817051 28.651320 29.484066 30.314333 31.141159 31.963602 32.780724 33.591583 34.395264 35.190834 35.977402 36.754066 37.519958 38.274185 39.015919 39.744305 40.458519 41.157768 41.841259 42.508213 43.157944 43.789738 44.402878 44.996647 45.570377 46.123390 46.655083 47.164822 47.652046 48.116192 48.556740 48.973202 49.365089 49.731983 50.073456 50.389160 50.678711 50.941807 51.178173 51.387531 51.569668 51.724403 51.851559 51.951027 52.022697 52.066509 52.082436 52.063534 51.996418 51.880905 51.717335 51.506184 51.248077 50.943771 50.594143 50.200233 49.763168 49.284222 48.764782
22.826231 23.653559 24.485189 25.320148 26.157476 26.996187 27.835329 28.673922 29.511003 30.345615 31.176798 32.003601 32.825077 33.640297 34.448318 35.248234 36.039131 36.820107 37.590294 38.348808 39.094795 39.827408 40.545830 41.249252 41.936878 42.607941 43.261677 43.897373 44.514290 45.111763 45.689110 46.245686 46.780876 47.294083 47.784737 48.252274 48.696198 49.115993 49.511215 49.881405 50.226166 50.545116 50.837902 51.104187 51.343689 51.556141 51.741318 51.899006 52.029030 52.131264 52.205582 52.251907 52.270203 52.252464 52.186062 52.071041 51.907738 51.696632 51.438347 51.133636 50.783386 50.388638 49.950516 49.470303 48.949371
22.814396 23.645658 24.481249 25.320202 26.161545 27.004295 27.847492 28.690161 29.531326 30.370039 31.205334 32.036255 32.861847 33.681175 34.493320 35.297348 36.092354 36.877426 37.651695 38.414280 39.164314 39.900963 40.623394 41.330803 42.022385 42.697361 43.354992 43.994537 44.615280 45.216518 45.797596 46.357864 46.896687 47.413483 47.907661 48.378674 48.826012 49.249176 49.647686 50.021114 50.369038 50.691082 50.986885 51.256130 51.498512 51.713768 51.901665 52.061993 52.194580 52.299294 52.375996 52.424629 52.445141 52.428638 52.363174 52.248878 52.086098 51.875305 51.617104 51.312298 50.961731 50.566460 50.127609 49.646477 49.124424
22.797939 23.632872 24.472164 25.314842 26.159935 27.006464 27.853462 28.699949 29.544956 30.387520 31.226669 32.061459 32.890930 33.714146 34.530174 35.338093 36.136974 36.925922 37.704060 38.470501 39.224380 39.964859 40.691093 41.402294 42.097637 42.776356 43.437695 44.080921 44.705307 45.310162 45.894821 46.458622 47.000938 47.521172 48.018753 48.493126 48.943760 49.370171 49.771877 50.148434 50.499432 50.824486 51.123230 51.395359 51.640556 51.858555 52.049118 52.212048 52.347160 52.454311 52.533394 52.584320 52.607037 52.591923 52.527615 52.414291 52.252281 52.042061 51.784260 51.479637 51.129074 50.733601 50.294373 49.812641 49.289837
22.776814 23.615143 24.457865 25.304008 26.152588 27.002636 27.853176 28.703220 29.551807 30.397970 31.240732 32.079151 32.912258 33.739117 34.558792 35.370358 36.172897 36.965500 37.747284 38.517361 39.274876 40.018978 40.748829 41.463615 42.162533 42.844814 43.509682 44.156418 44.784279 45.392582 45.980652 46.547832 47.093502 47.617050 48.117897 48.595493 49.049305 49.478844 49.883629 50.263222 50.617199 50.945171 51.246792 51.521725 51.769672 51.990349 52.183537 52.349018 52.486614 52.596180 52.677608 52.730801 52.755718 52.742180 52.679260 52.567135 52.406151 52.196793 51.939671 51.635532 51.285294 50.889957 50.450676 49.968735 49.445518
22.750965 23.592421 24.438303 25.287640 26.139444 26.992748 27.846560 28.699913 29.551825 30.401325 31.247454 32.089249 32.925747 33.756008 34.579094 35.394085 36.200043 36.996075 37.781288 38.554790 39.315723 40.063236 40.796490 41.514675 42.216972 42.902618 43.570839 44.220898 44.852070 45.463665 46.054993 46.625397 47.174267 47.700977 48.204964 48.685650 49.142521 49.575081 49.982841 50.365360 50.722218 51.053024 51.357433 51.635094 51.885712 52.109020 52.304771 52.472759 52.612804 52.724758 52.808502 52.863949 52.891052 52.879276 52.817963 52.707298 52.547615 52.339390 52.083237 51.779911 51.430302 51.035435 50.596455 50.114639 49.591389
22.720358 23.564667 24.413443 25.265697 26.120461 26.976748 27.833576 28.689968 29.544945 30.397537 31.246775 32.091694 32.931339 33.764763 34.591026 35.409187 36.218346 37.017574 37.805981 38.582695 39.346840 40.097549 40.834003 41.555378 42.260876 42.949696 43.621082 44.274292 44.908600 45.523308 46.117733 46.691216 47.243130 47.772926 48.280041 48.763901 49.223953 49.659672 50.070583 50.456211 50.816128 51.149933 51.457245 51.737732 51.991093 52.217041 52.415321 52.585743 52.728111 52.842281 52.928154 52.985619 53.014652 53.004581 52.944828 52.835571 52.677185 52.470127 52.215038 51.912689 51.563992 51.169926 50.731602 50.250278 49.727364
22.684963 23.531849 24.383240 25.238150 26.095600 26.954601 27.814180 28.673349 29.531130 30.386551 31.238644 32.086441 32.928982 33.765324 34.594509 35.415627 36.227734 37.029934 37.821323 38.601025 39.368149 40.121857 40.861305 41.585674 42.294151 42.985958 43.660320 44.316582 44.954113 45.572186 46.170078 46.747124 47.302650 47.836033 48.346664 48.833958 49.297375 49.736385 50.150494 50.539246 50.902187 51.238941 51.549110 51.832378 52.088394 52.316925 52.517693 52.690487 52.835144 52.951496 53.039433 53.098881 53.129780 53.121540 53.063450 52.955692 52.798611 52.592690 52.338551 52.036964 51.688847 51.295227 50.857277 50.376286 49.853672
22.644756 23.493950 24.347679 25.204964 26.064823 26.926279 27.788336 28.650015 29.510342 30.368338 31.223024 32.073444 32.918633 33.757633 34.589516 35.413338 36.228168 37.033104 37.827244 38.609699 39.379604 40.136089 40.878342 41.605732 42.317505 43.012833 43.690926 44.350979 44.992264 45.614021 46.215557 46.796173 47.355217 47.892056 48.406075 48.896690 49.363350 49.805534 50.222748 50.614521 50.980408 51.320019 51.632965 51.918907 52.177544 52.408577 52.611763 52.786892 52.933784 53.052284 53.142265 53.203651 53.236397 53.230202 53.173996 53.067966 52.912441 52.707916 52.455002 52.154469 51.807224 51.414303 50.976875 50.496231 49.973797
22.599730 23.450941 24.306736 25.166128 26.028130 26.891760 27.756027 28.619957 29.482557 30.342861 31.199894 32.052677 32.900261 33.741680 34.576000 35.402287 36.219608 37.027050 37.823704 38.608894 39.381924 40.141876 40.887878 41.619072 42.334599 43.033646 43.715412 44.379105 45.023975 45.649277 46.254299 46.838352 47.400776 47.940929 48.458206 48.952019 49.421810 49.867054 50.287251 50.681946 51.050674 51.393066 51.708698 51.997253 52.258419 52.491901 52.697464 52.874870 53.023941 53.144539 53.236530 53.299843 53.334408 53.330444 53.276348 53.172268 53.018559 52.815689 52.564270 52.265079 51.919018 51.527100 51.090511 50.610546 50.088612
22.549879 23.402836 24.260414 25.121628 25.985498 26.851032 27.717241 28.583149 29.447765 30.310118 31.169220 32.024117 32.873837 33.717434 34.553951 35.382469 36.202396 37.012913 37.813099 38.602001 39.378708 40.142330 40.891972 41.626774 42.345886 43.048473 43.733749 44.400909 45.049210 45.677891 46.286247 46.873589 47.439251 47.982586 48.502983 48.999866 49.472664 49.920864 50.343945 50.741451 51.112930 51.457989 51.776237 52.067337 52.330952 52.566818 52.774673 52.954304 53.105522 53.228180 53.322151 53.387344 53.423717 53.422157 53.370388 53.268501 53.116859 52.915909 52.666264 52.368694 52.024097 51.633503 51.198071 50.719116 50.198009
22.495209 23.349625 24.208712 25.071472 25.936930 26.804096 27.671976 28.539591 29.405951 30.270082 31.131010 31.987759 32.839375 33.685249 34.524632 35.356552 36.180019 36.994080 37.797783 38.590199 39.370396 40.137486 40.890579 41.628807 42.351315 43.057270 43.745876 44.416340 45.067894 45.699802 46.311348 46.901829 47.470577 48.016960 48.540352 49.040173 49.515865 49.966888 50.392742 50.792965 51.167103 51.514736 51.835514 52.129059 52.395061 52.633240 52.843338 53.025139 53.178452 53.303123 53.399036 53.466087 53.504242 53.505238 53.456009 53.356571 53.207226 53.008453 52.760864 52.465210 52.122379 51.733410 51.299461 50.821819 50.301891
22.435728 23.291325 24.151632 25.015671 25.882439 26.750956 27.620235 28.489288 29.357126 30.222780 31.085455 31.944647 32.799347 33.648563 34.491291 35.326538 36.153336 36.970726 37.777744 38.573467 39.356956 40.127323 40.883671 41.625130 42.350845 43.059994 43.751762 44.425354 45.080013 45.714985 46.329548 46.923016 47.494709 48.044003 48.570255 49.072891 49.551338 50.005077 50.433601 50.836422 51.213104 51.563244 51.886448 52.182358 52.450680 52.691101 52.903381 53.087296 53.242649 53.369293 53.467106 53.535992 53.575901 53.579575 53.533115 53.436329 53.289547 53.093224 52.847954 52.554497 52.213737 51.826710 51.394554 50.918568 50.400146
22.371466 23.227964 24.089214 24.954241 25.822042 26.691641 27.562042 28.432274 29.301867 30.170050 31.035793 31.898081 32.755894 33.608215 34.454060 35.292427 36.122341 36.942844 37.752968 38.551781 39.338364 40.111801 40.871223 41.615723 42.344467 43.056618 43.751369 44.427917 45.085506 45.723377 46.340813 46.937119 47.511620 48.063667 48.592644 49.097961 49.579052 50.035389 50.466454 50.871773 51.250916 51.603451 51.928993 52.227200 52.497749 52.740345 52.954739 53.140705 53.298054 53.426620 53.526299 53.596989 53.638618 53.645061 53.601585 53.507706 53.363724 53.170097 52.927429 52.636463 52.298073 51.913288 51.483250 51.009239 50.492668
22.302450 23.159563 24.021473 24.887209 25.755770 26.626265 27.498352 28.371119 29.243532 30.114559 30.983152 31.848310 32.709000 33.564205 34.412937 35.254204 36.087009 36.910412 37.723434 38.525139 39.314606 40.090927 40.853207 41.600559 42.332142 43.047127 43.744675 44.424007 45.084354 45.724964 46.345112 46.944092 47.521252 48.075916 48.607483 49.115349 49.598957 50.057762 50.491268 50.898975 51.280464 51.635296 51.963097 52.263515 52.536209 52.780910 52.997356 53.185322 53.344608 53.475060 53.576565 53.649006 53.692356 53.701595 53.661312 53.570564 53.429634 53.238979 52.999176 52.710979 52.375263 51.993027 51.565422 51.093719 50.579327
22.228725 23.086164 23.948460 24.814791 25.684872 26.557749 27.432379 28.307711 29.182703 30.056330 30.927547 31.795334 32.658665 33.516537 34.367928 35.211868 36.047359 36.873432 37.689137 38.493530 39.285671 40.064667 40.829613 41.579624 42.313869 43.031479 43.731663 44.413605 45.076542 45.719719 46.342422 46.943928 47.523590 48.080730 48.614750 49.125034 49.611027 50.072178 50.507999 50.918003 51.301723 51.658768 51.988731 52.291260 52.566036 52.812767 53.031193 53.221092 53.382263 53.514557 53.617844 53.692028 53.737041 53.749077 53.712219 53.624817 53.487183 53.299736 53.063087 52.777950 52.445190 52.065811 51.640957 51.171890 50.660011
22.150337 23.008015 23.871559 24.740017 25.612343 26.487494 27.364408 28.242062 29.119400 29.995382 30.868980 31.739166 32.604904 33.465206 34.319035 35.165424 36.003368 36.831905 37.650082 38.456944 39.251564 40.033031 40.800449 41.552929 42.289627 43.009689 43.712315 44.396690 45.062042 45.707626 46.332722 46.936604 47.518612 48.078083 48.614407 49.126972 49.615231 50.078621 50.516636 50.928802 51.314674 51.673809 52.005848 52.310410 52.587185 52.835873 53.056217 53.247997 53.410999 53.545074 53.650101 53.725979 53.772652 53.787411 53.754173 53.670357 53.536255 53.352291 53.119049 52.837242 52.507740 52.131519 51.709736 51.243637 50.734596
22.068640 22.928123 23.793600 24.664017 25.538336 26.415503 27.294470 28.174196 29.053633 29.931736 30.807474 31.679817 32.547745 33.410229 34.266273 35.114883 35.955067 36.785851 37.606274 38.415398 39.212284 39.996017 40.765705 41.520454 42.259418 42.981754 43.686638 44.373264 45.040874 45.688694 46.316010 46.922108 47.506313 48.067970 48.606461 49.121178 49.611557 50.077053 50.517151 50.931377 51.319279 51.680431 52.014435 52.320946 52.599636 52.850208 53.072403 53.265987 53.430767 53.566589 53.673309 53.750843 53.799141 53.816490 53.787075 53.707069 53.576740 53.396507 53.166935 52.888748 52.562794 52.190052 51.771641 51.308811 50.802948
21.986416 22.847542 23.714697 24.586826 25.462885 26.341825 27.222595 28.104143 28.985434 29.865417 30.743055 31.617323 32.487194 33.351643 34.209671 35.060272 35.902462 36.735268 37.557735 38.368896 39.167847 39.953640 40.725391 41.482224 42.223259 42.947670 43.654633 44.343334 45.013012 45.662899 46.292278 46.900436 47.486687 48.050381 48.590900 49.107628 49.600002 50.067474 50.509541 50.925713 51.315533 51.678596 52.014481 52.322853 52.603374 52.855751 53.079773 53.275234 53.441910 53.579632 53.688255 53.767670 53.817799 53.837772 53.812599 53.736801 53.610622 53.434475 53.208912 52.934631 52.612473 52.243416 51.828571 51.369186 50.866634
21.903788 22.766306 23.634884 24.508472 25.386024 26.266483 27.148806 28.031935 28.914833 29.796455 30.675755 31.551706 32.423279 33.289459 34.149235 35.001610 35.845589 36.680202 37.504478 38.317478 39.118263 39.905914 40.679535 41.438240 42.181164 42.907459 43.616314 44.306915 44.978489 45.630283 46.261559 46.871609 47.459747 48.025330 48.567722 49.086323 49.580566 50.049904 50.493809 50.911808 51.303524 51.668606 52.006641 52.317249 52.600086 52.854816 53.081169 53.278893 53.447762 53.587616 53.698288 53.779682 53.831722 53.854122 53.833435 53.762074 53.640285 53.468468 53.247147 52.977036 52.658947 52.293846 51.882854 51.427193 50.928226
21.820808 22.684467 23.554216 24.429008 25.307796 26.189529 27.073154 27.957619 28.841873 29.724888 30.605606 31.483002 32.356045 33.223721 34.085011 34.938927 35.784466 36.620659 37.446545 38.261150 39.063568 39.852871 40.628155 41.388531 42.133148 42.861141 43.571701 44.264019 44.937313 45.590828 46.223835 46.835621 47.425503 47.992821 48.536953 49.057304 49.553486 50.024986 50.471252 50.891788 51.286091 51.653721 51.994251 52.307304 52.592518 52.849575 53.078201 53.278133 53.449154 53.591091 53.703785 53.787132 53.841057 53.865505 53.849510 53.782803 53.665627 53.498363 53.281548 53.015846 52.702095 52.341236 51.934368 51.482708 50.987629
21.737528 22.602066 23.472731 24.348476 25.228251 26.111000 26.995674 27.881226 28.766600 29.650751 30.532648 31.411251 32.285530 33.154457 34.017036 34.872265 35.719135 36.556694 37.383945 38.199966 39.003807 39.794544 40.571289 41.333141 42.079239 42.808739 43.520824 44.214676 44.889511 45.544579 46.179157 46.792519 47.384155 47.953548 48.500065 49.023045 49.521885 49.996006 50.444862 50.867939 51.264740 51.634834 51.977772 52.293190 52.580719 52.840046 53.070877 53.272961 53.446079 53.590065 53.704739 53.790005 53.845787 53.872040 53.860733 53.798882 53.686543 53.524071 53.311981 53.050953 52.741795 52.385437 51.982971 51.535610 51.044708
21.653999 22.519157 23.390490 24.266928 25.147432 26.030949 26.916428 27.802811 28.689056 29.574108 30.456936 31.336500 32.211769 33.081730 33.945358 34.801655 35.649643 36.488335 37.316750 38.133945 38.938995 39.730972 40.508968 41.272095 42.019489 42.750305 43.463715 44.158920 44.835140 45.491901 46.128582 46.744427 47.338715 47.910744 48.459858 48.985405 49.486794 49.963432 50.414768 50.840290 51.239502 51.611961 51.957226 52.274933 52.564697 52.826225 53.059204 53.263382 53.438557 53.584530 53.701145 53.788303 53.845913 53.873943 53.867004 53.810215 53.702915 53.545456 53.338345 53.082241 52.777927 52.426350 52.028553 51.585773 51.099312
21.570276 22.435806 23.307537 24.184420 25.065403 25.949434 26.835461 27.722431 28.609293 29.495005 30.378519 31.258804 32.134830 33.005577 33.870026 34.727177 35.576038 36.415638 37.244987 38.063160 38.869198 39.662193 40.441231 41.205441 41.953934 42.685871 43.400749 44.097927 44.776577 45.435905 46.075130 46.693504 47.290314 47.864834 48.416424 48.944427 49.448246 49.927277 50.380985 50.808853 51.210381 51.585110 51.932621 52.252525 52.544464 52.808117 53.043179 53.249401 53.426571 53.574482 53.693020 53.782028 53.841446 53.871220 53.868221 53.816692 53.714645 53.562420 53.360516 53.109566 52.810360 52.463806 52.070965 51.633026 51.151318
21.486425 22.352062 23.223944 24.101013 24.982222 25.866512 26.752842 27.640144 28.527380 29.413496 30.297459 31.178226 32.054764 32.926056 33.791092 34.648861 35.498371 36.338654 37.168728 37.987644 38.794472 39.588268 40.368156 41.133408 41.883537 42.617691 43.334995 44.034588 44.715652 45.377388 46.019020 46.639778 47.238956 47.815849 48.369785 48.900127 49.406242 49.887573 50.343544 50.773643 51.177383 51.554302 51.903976 52.226006 52.520031 52.785744 53.022823 53.231037 53.410145 53.559975 53.680359 53.771191 53.832382 53.863884 53.864285 53.818207 53.721615 53.574844 53.378372 53.132820 52.838955 52.497692 52.110069 51.677258 51.200569
21.402512 22.268007 23.139776 24.016781 24.897955 25.782259 26.668629 27.556021 28.443378 29.329657 30.213814 31.094820 31.971636 32.843239 33.708626 34.566784 35.416718 36.257454 37.088020 37.907475 38.714874 39.509750 40.291393 41.058868 41.811264 42.547668 43.267223 43.969078 44.652401 45.316399 45.960270 46.583286 47.184704 47.763824 48.319977 48.852516 49.360832 49.844334 50.302467 50.734711 51.140556 51.519577 51.871315 52.195389 52.491432 52.759121 52.998161 53.208298 53.389301 53.540981 53.663193 53.755802 53.818737 53.851955 53.855095 53.814651 53.723717 53.582600 53.391777 53.151863 52.863598 52.527870 52.145721 51.718307 51.246914
21.318605 22.183697 23.055107 23.931782 24.812675 25.696730 26.582899 27.470123 28.357357 29.243547 30.127668 31.008663 31.885515 32.757195 33.622692 34.481003 35.331139 36.172104 37.003029 37.823521 38.632721 39.429646 40.213341 40.982883 41.737343 42.475838 43.197491 43.901443 44.586868 45.252964 45.898945 46.524063 47.127579 47.708797 48.267036 48.801655 49.312042 49.797600 50.257782 50.692051 51.099926 51.480938 51.834660 52.160698 52.458675 52.728279 52.969219 53.181217 53.364056 53.517548 53.641537 53.735886 53.800537 53.835434 53.840553 53.805916 53.720829 53.585583 53.400635 53.166569 52.884140 52.554207 52.177784 51.756027 51.290207
21.234781 22.099215 22.970001 23.846100 24.726456 25.610018 26.495722 27.382536 28.269398 29.155256 30.039083 30.919830 31.796476 32.667999 33.533375 34.391609 35.241852 36.083748 36.916359 37.738667 38.549709 39.348484 40.134052 40.905483 41.661850 42.402260 43.125835 43.831726 44.519093 45.187138 45.835075 46.462147 47.067619 47.650803 48.210999 48.747574 49.259907 49.747410 50.209530 50.645729 51.055519 51.438427 51.794044 52.121960 52.421803 52.693253 52.936008 53.149811 53.334431 53.489677 53.615398 53.711472 53.777802 53.814350 53.821087 53.791904 53.712845 53.583672 53.404800 53.176819 52.900448 52.576542 52.206108 51.790264 51.330276
21.151119 22.014639 22.884552 23.759815 24.639380 25.522184 26.407187 27.293331 28.179573 29.064856 29.948145 30.828405 31.704605 32.575722 33.440914 34.299854 35.151573 35.995045 36.829262 37.653198 38.465878 39.266327 40.053593 40.826729 41.584827 42.326981 43.052319 43.759975 44.449135 45.118969 45.768707 46.397598 47.004883 47.589882 48.151909 48.690311 49.204475 49.693806 50.157742 50.595768 51.007370 51.392097 51.749512 52.079220 52.380844 52.654057 52.898571 53.114117 53.300461 53.457420 53.584831 53.682568 53.750557 53.788727 53.797073 53.772499 53.699657 53.576733 53.404156 53.182472 52.912388 52.594749 52.230541 51.820866 51.366982
21.067707 21.930050 22.798836 23.673008 24.551525 25.433331 26.317375 27.202602 28.087969 28.972431 29.854942 30.734472 31.610111 32.481598 33.348000 34.208252 35.061321 35.906174 36.741795 37.567169 38.381306 39.183239 39.972015 40.746685 41.506332 42.250053 42.976986 43.686249 44.377029 45.048508 45.699902 46.330448 46.939419 47.526096 48.089809 48.629917 49.145782 49.636829 50.102478 50.542213 50.955532 51.341972 51.701088 52.032505 52.335838 52.610744 52.856949 53.074173 53.262188 53.420803 53.549854 53.649227 53.718826 53.758598 53.768532 53.747593 53.681141 53.564667 53.398571 53.183388 52.919819 52.608677 52.250935 51.847683 51.400139
20.984619 21.845537 22.712938 23.585770 24.462988 25.343538 26.226372 27.110434 27.994688 28.878075 29.759617 30.639053 31.515570 32.388103 33.255581 34.116951 34.971165 35.817196 36.654022 37.480640 38.296051 39.099281 39.889378 40.665394 41.426414 42.171551 42.899895 43.610603 44.302845 44.975807 45.628700 46.260761 46.871262 47.459488 48.024761 48.566437 49.083889 49.576519 50.043774 50.485111 50.900047 51.288097 51.648838 51.981869 52.286819 52.563358 52.811172 53.030018 53.219643 53.379864 53.510517 53.611477 53.682655 53.724003 53.735497 53.717091 53.657192 53.547344 53.387920 53.179451 52.922600 52.618179 52.267143 51.870556 51.429611
20.901955 21.761198 22.626951 23.498192 24.373859 25.252901 26.134272 27.016928 27.899813 28.782509 29.664503 30.544693 31.422007 32.295380 33.163731 34.026005 34.881172 35.728180 36.566017 37.393681 38.210171 39.014519 39.805748 40.582939 41.345158 42.091511 42.821110 43.533100 44.226639 44.900925 45.555161 46.188595 46.800484 47.390121 47.956825 48.499939 49.018841 49.512943 49.981682 50.424519 50.840965 51.230534 51.592800 51.927368 52.233852 52.511932 52.761303 52.981686 53.172867 53.334648 53.466846 53.569366 53.642097 53.684975 53.698002 53.681194 53.627701 53.524639 53.372078 53.170517 52.920597 52.623119 52.279007 51.889317 51.455227
20.819807 21.677113 22.540981 23.410372 24.284237 25.161524 26.041189 26.922468 27.805208 28.688366 29.570862 30.451599 31.329506 32.203495 33.072510 33.935497 34.791397 35.639187 36.477840 37.306351 38.123734 38.928997 39.721188 40.499367 41.262611 42.010010 42.740688 43.453793 44.148476 44.823929 45.479362 46.114006 46.727142 47.318039 47.886036 48.430466 48.950699 49.446152 49.916260 50.360489 50.778324 51.169319 51.533020 51.869034 52.176979 52.456520 52.707375 52.929245 53.121922 53.285194 53.418903 53.522926 53.597164 53.641567 53.656109 53.640804 53.592548 53.496449 53.350922 53.156452 52.913666 52.623341 52.286369 51.903805 51.476807
20.738274 21.593391 22.455118 23.322409 24.194221 25.069546 25.948261 26.829639 27.712578 28.595985 29.478767 30.359840 31.238119 32.112526 32.982006 33.845482 34.701931 35.550293 36.389565 37.218739 38.036808 38.842808 39.635769 40.414757 41.178837 41.927116 42.658710 43.372753 44.068413 44.744869 45.401344 46.037064 46.651295 47.243328 47.812481 48.358078 48.879524 49.376213 49.847572 50.293076 50.712208 51.104527 51.469570 51.806931 52.116257 52.397194 52.649441 52.872738 53.066849 53.231567 53.366737 53.472221 53.547932 53.593819 53.609848 53.596043 53.551628 53.462650 53.324329 53.137131 52.901672 52.618690 52.289097 51.913879 51.494198
20.657452 21.510134 22.369467 23.234411 24.104343 24.979147 25.857759 26.739077 27.622005 28.505447 29.388304 30.269489 31.147932 32.022549 32.892269 33.756046 34.612823 35.461571 36.301266 37.130898 37.949471 38.756012 39.549561 40.329170 41.093918 41.842896 42.575230 43.290054 43.986526 44.663837 45.321198 45.957832 46.573021 47.166031 47.736198 48.282856 48.805382 49.303177 49.775677 50.222347 50.642677 51.036209 51.402496 51.741123 52.051739 52.333984 52.587574 52.812222 53.007706 53.173813 53.310387 53.417297 53.494450 53.541782 53.559284 53.546951 53.504841 53.423122 53.292175 53.112423 52.884476 52.609047 52.287018 51.919365 51.507221
20.577452 21.427450 22.284184 23.147617 24.017097 24.891539 25.769825 26.650867 27.533560 28.416813 29.299532 30.180630 31.059021 31.933628 32.803394 33.667259 34.524174 35.373093 36.213013 37.042904 37.861801 38.668694 39.462635 40.242691 41.007915 41.757427 42.490322 43.205757 43.902878 44.580883 45.238972 45.876381 46.492371 47.086235 47.657276 48.204853 48.728336 49.227112 49.700638 50.148361 50.569786 50.964432 51.331871 51.671677 51.983498 52.266983 52.521828 52.747768 52.944561 53.112003 53.249935 53.358227 53.436775 53.485535 53.504467 53.493587 53.452950 53.377773 53.254345 53.082203 52.861942 52.594257 52.279995 51.920116 51.515739
20.498377 21.345764 22.201330 23.064089 23.932938 24.806784 25.684538 26.565077 27.447327 28.330175 29.212536 30.093327 30.971453 31.845856 32.715454 33.579197 34.436039 35.284943 36.124882 36.954853 37.773853 38.580917 39.375076 40.155384 40.920921 41.670776 42.404072 43.119946 43.817558 44.496094 45.154755 45.792782 46.409435 47.003998 47.575787 48.124153 48.648453 49.148102 49.622536 50.071198 50.493607 50.889271 51.257759 51.598656 51.911598 52.196239 52.452274 52.679424 52.877476 53.046192 53.185436 53.295063 53.374969 53.425117 53.445457 53.436012 53.396828 53.326473 53.210705 53.046345 52.833942 52.574169 52.267868 51.915977 51.519573
20.421165 21.267462 22.122082 22.983938 23.851936 24.724974 25.601959 26.481787 27.363371 28.245602 29.127394 30.007660 30.885319 31.759295 32.628521 33.491943 34.348511 35.197186 36.036953 36.866802 37.685730 38.492764 39.286949 40.067337 40.832996 41.583031 42.316555 43.032696 43.730633 44.409534 45.068619 45.707115 46.324284 46.919407 47.491806 48.040825 48.565834 49.066219 49.541435 49.990932 50.414207 50.810791 51.180229 51.522129 51.836109 52.121826 52.378975 52.607281 52.806519 52.976463 53.116959 53.227871 53.309105 53.360603 53.382324 53.374294 53.336552 53.269127 53.161163 53.004726 52.800343 52.548668 52.250504 51.906780 51.518555
20.347961 21.193048 22.046505 22.907242 23.774162 24.646179 25.522182 26.401079 27.281778 28.163176 29.044182 29.923716 30.800694 31.674032 32.542675 33.405571 34.261658 35.109913 35.949306 36.778831 37.597496 38.404327 39.198345 39.978626 40.744236 41.494270 42.227844 42.944096 43.642189 44.321301 44.980648 45.619461 46.236992 46.832539 47.405407 47.954945 48.480522 48.981537 49.457420 49.907639 50.331680 50.729073 51.099380 51.442184 51.757118 52.043831 52.302021 52.531406 52.731758 52.902870 53.044575 53.156727 53.239246 53.292061 53.315147 53.308495 53.272182 53.206264 53.105602 52.957226 52.761009 52.517601 52.227753 51.892387 51.512543
20.278948 21.122608 21.974680 22.834080 23.699705 24.570477 25.445282 26.323030 27.202625 28.082973 28.962986 29.841570 30.717649 31.590149 32.458008 33.320164 34.175575 35.023201 35.862022 36.691040 37.509251 38.315670 39.109348 39.889332 40.654713 41.404568 42.138027 42.854221 43.552303 44.231468 44.890926 45.529900 46.147655 46.743477 47.316681 47.866604 48.392628 48.894135 49.370575 49.821396 50.246101 50.644207 51.015274 51.358891 51.674686 51.962318 52.221466 52.451874 52.653286 52.825500 52.968361 53.081718 53.165474 53.219574 53.243984 53.238708 53.203796 53.139328 53.043907 52.903728 52.715828 52.480827 52.199471 51.872650 51.501354
20.214201 21.056213 21.906681 22.764519 23.628639 24.497940 25.371334 26.247717 27.125999 28.005081 28.883879 29.761307 30.636280 31.507729 32.374588 33.235809 34.090336 34.937138 35.775196 36.603500 37.421059 38.226887 39.020039 39.799553 40.564518 41.314022 42.047192 42.763145 43.461067 44.140125 44.799534 45.438522 46.056355 46.652309 47.225704 47.775883 48.302216 48.804108 49.280979 49.732288 50.157547 50.556259 50.927994 51.272339 51.588913 51.877380 52.137417 52.368759 52.571178 52.744442 52.888401 53.002907 53.087872 53.143211 53.168915 53.164993 53.131474 53.068436 52.975975 52.844116 52.664673 52.438236 52.165524 51.847408 51.484863
20.153242 20.993917 21.842585 22.698647 23.561037 24.428656 25.300417 26.175219 27.051968 27.929571 28.806946 29.683002 30.556660 31.426853 32.292515 33.152588 34.006031 34.851810 35.688900 36.516304 37.333015 38.138069 38.930500 39.709362 40.473736 41.222717 41.955425 42.670982 43.368568 44.047352 44.706558 45.345409 45.963169 46.559120 47.132576 47.682873 48.209396 48.711533 49.188721 49.640415 50.066109 50.465328 50.837635 51.182610 51.499878 51.789093 52.049953 52.282169 52.485516 52.659771 52.804783 52.920387 53.006500 53.063065 53.090038 53.087429 53.055275 52.993668 52.902691 52.778290 52.607422 52.389687 52.125771 51.816521 51.462894
20.092836 20.933189 21.781355 22.636299 23.496981 24.362705 25.232613 26.105618 26.980623 27.856539 28.732269 29.606745 30.478882 31.347607 32.211861 33.070587 33.922745 34.767300 35.603233 36.429531 37.245216 38.049301 38.840824 39.618855 40.382462 41.130737 41.862804 42.577812 43.274895 43.953259 44.612103 45.250664 45.868202 46.464001 47.037376 47.587673 48.114246 48.616508 49.093895 49.545856 49.971886 50.371513 50.744289 51.089798 51.407669 51.697556 51.959152 52.192177 52.396385 52.571575 52.717567 52.834240 52.921474 52.979218 53.007427 53.006111 52.975311 52.915108 52.825603 52.706135 52.543980 52.335072 52.080097 51.779869 51.435318
20.032503 20.872284 21.719898 22.574306 23.434462 24.299322 25.167849 26.038994 26.912041 27.786049 28.659935 29.532621 30.403021 31.270073 32.132717 32.989895 33.840569 34.683697 35.518276 36.343285 37.157745 37.960670 38.751114 39.528122 40.290783 41.038185 41.769451 42.483719 43.180145 43.857922 44.516254 45.154373 45.771545 46.367050 46.940208 47.490353 48.016865 48.519135 48.996593 49.448708 49.874969 50.274887 50.648033 50.993999 51.312389 51.602859 51.865120 52.098881 52.303886 52.479954 52.626884 52.744564 52.832878 52.891758 52.921173 52.921127 52.891659 52.832848 52.744801 52.627655 52.474216 52.274265 52.028366 51.737301 51.401981
19.972301 20.811268 21.658079 22.511703 23.371094 24.235216 25.103012 25.973440 26.845446 27.717987 28.590025 29.460707 30.329172 31.194345 32.055176 32.910599 33.759583 34.601097 35.434116 36.257648 37.070694 37.872280 38.661446 39.437260 40.198799 40.945148 41.675438 42.388805 43.084408 43.761440 44.419106 45.056633 45.673294 46.268364 46.841167 47.391037 47.917347 48.419498 48.896919 49.349079 49.775452 50.175571 50.548992 50.895306 51.214130 51.505116 51.767956 52.002373 52.208118 52.384995 52.532818 52.651443 52.740795 52.800777 52.831367 52.832573 52.804417 52.746986 52.660381 52.544754 52.398041 52.207157 51.970451 51.688690 51.362755
19.912296 20.750196 21.595964 22.448559 23.306948 24.170078 25.036905 25.906385 26.777464 27.649105 28.520258 29.389885 30.256954 31.120432 31.979315 32.832787 33.679882 34.519581 35.350861 36.172714 36.984158 37.784214 38.571930 39.346367 40.106598 40.851730 41.580872 42.293175 42.987793 43.663910 44.320763 44.957546 45.573544 46.168041 46.740353 47.289814 47.815796 48.317711 48.794971 49.247055 49.673439 50.073650 50.447254 50.793827 51.112984 51.404404 51.667744 51.902756 52.109177 52.286797 52.435452 52.554996 52.645329 52.706379 52.738113 52.740536 52.713676 52.657608 52.572445 52.458321 52.315357 52.133640 51.906254 51.633846 51.317047
19.852558 20.689152 21.533627 22.384953 23.242085 24.103985 24.969603 25.837894 26.707809 27.578308 28.448345 29.316881 30.182882 31.045319 31.903173 32.755428 33.601070 34.439121 35.268585 36.088570 36.898232 37.696571 38.482651 39.255527 40.014282 40.758018 41.485851 42.196922 42.890388 43.565453 44.221313 44.857216 45.472404 46.066185 46.637871 47.186790 47.712326 48.213863 48.690857 49.142742 49.569031 49.969231 50.342915 50.689655 51.009075 51.300827 51.564606 51.800133 52.007156 52.185471 52.334904 52.455307 52.546593 52.608665 52.641510 52.645119 52.619534 52.564816 52.481075 52.368332 52.226646 52.052490 51.833599 51.569550 51.261158
19.793159 20.628197 21.471140 22.320948 23.176588 24.037018 24.901184 25.768047 26.636559 27.505684 28.374367 29.241579 30.106285 30.967457 31.824068 32.675110 33.519581 34.356483 35.184834 36.003662 36.812012 37.608929 38.393505 39.164806 39.921955 40.664116 41.390469 42.100143 42.792309 43.466152 44.120884 44.755741 45.369987 45.962952 46.533966 47.082359 47.607491 48.108749 48.585556 49.037354 49.463627 49.863903 50.237720 50.584656 50.904343 51.196415 51.460567 51.696518 51.904022 52.082874 52.232903 52.353958 52.445961 52.508793 52.542336 52.546593 52.521580 52.467335 52.383980 52.271610 52.130402 51.960136 51.749607 51.494041 51.194206
19.734177 20.567419 21.408581 22.256632 23.110537 23.969248 24.831730 25.696930 26.563805 27.431314 28.298416 29.164074 30.027250 30.886929 31.742077 32.591694 33.434765 34.270306 35.097328 35.914867 36.721962 37.517670 38.301060 39.071228 39.827271 40.568329 41.293518 42.002079 42.693256 43.366253 44.020252 44.654495 45.268242 45.860771 46.431396 46.979443 47.504280 48.005299 48.481918 48.933598 49.359814 49.760086 50.133953 50.480988 50.800812 51.093048 51.357395 51.593540 51.801239 51.980270 52.130436 52.251579 52.343597 52.406395 52.439907 52.444149 52.419125 52.364887 52.281532 52.169178 52.027985 51.858162 51.655136 51.407764 51.116325
19.675694 20.506893 21.346031 22.192089 23.044014 23.900776 24.761324 25.624622 26.489626 27.355293 28.220579 29.084448 29.945873 30.803829 31.657299 32.505260 33.346722 34.180687 35.006168 35.822212 36.627842 37.422138 38.204166 38.973183 39.728310 40.468651 41.193329 41.901478 42.592270 43.264877 43.918507 44.552395 45.165798 45.758003 46.328300 46.876049 47.400589 47.901337 48.377693 48.829128 49.255104 49.655148 50.028801 50.375641 50.695278 50.987347 51.251530 51.487537 51.695110 51.874016 52.024078 52.145134 52.237072 52.299805 52.333279 52.337479 52.312431 52.258186 52.174831 52.062500 51.921341 51.751564 51.552708 51.313423 51.030117
19.617788 20.446705 21.283588 22.127401 22.977114 23.831682 24.690065 25.551224 26.414120 27.277706 28.140947 29.002804 29.862251 30.718266 31.569824 32.415920 33.255547 34.087723 34.911461 35.725948 36.530338 37.323673 38.105003 38.873379 39.627892 40.367634 41.091728 41.799316 42.489552 43.161625 43.814743 44.448132 45.061054 45.652786 46.222641 46.769951 47.294090 47.794437 48.270424 48.721497 49.147129 49.546856 49.920212 50.266766 50.586140 50.877964 51.141918 51.377716 51.585094 51.763844 51.913754 52.034676 52.126503 52.189137 52.222542 52.226688 52.201607 52.147343 52.064003 51.951694 51.810585 51.640858 51.442753 51.211300 50.936249
19.560555 20.386951 21.221329 22.062664 22.909922 23.762062 24.618046 25.476833 26.337389 27.198662 28.059626 28.919241 29.776482 30.630331 31.479763 32.323780 33.161629 33.992401 34.815086 35.628689 36.432220 37.224709 38.005211 38.772781 39.526512 40.265484 40.988831 41.695690 42.385223 43.056606 43.709057 44.341805 44.954105 45.545238 46.114513 46.661278 47.184933 47.684910 48.160606 48.611454 49.036922 49.436508 49.809753 50.156208 50.475483 50.767189 51.031025 51.266678 51.473892 51.652439 51.802128 51.922806 52.014359 52.076702 52.109798 52.113628 52.088234 52.033676 51.950050 51.837502 51.696201 51.526360 51.328232 51.101341 50.834614
19.504086 20.327717 21.159357 21.997976 22.842539 23.692017 24.545364 25.401550 26.259525 27.118261 27.976715 28.833868 29.688686 30.540413 31.388172 32.230934 33.067657 33.897320 34.718922 35.531456 36.333942 37.125408 37.904911 38.671501 39.424267 40.162304 40.884739 41.590710 42.279385 42.949932 43.601646 44.233864 44.845810 45.436741 46.005939 46.552727 47.076431 47.576439 48.052135 48.502960 48.928398 49.327919 49.701080 50.047424 50.366558 50.658123 50.921776 51.157234 51.364220 51.542519 51.691933 51.812321 51.903561 51.965565 51.998306 52.001759 51.975960 51.920975 51.836914 51.723896 51.582115 51.411766 51.213112 50.986416 50.727066
19.448465 20.269102 21.097769 21.933432 22.775068 23.621643 24.472124 25.325470 26.180641 27.036610 27.892487 28.747562 29.600805 30.451155 31.297558 32.138977 32.974380 33.802753 34.623074 35.434357 36.235615 37.025879 37.804199 38.569633 39.321270 40.058224 40.779823 41.485241 42.173611 42.844090 43.495853 44.128098 44.740047 45.330978 45.900150 46.446892 46.970543 47.470467 47.946072 48.396790 48.822090 49.221466 49.594452 49.940613 50.259544 50.550880 50.814293 51.049488 51.256195 51.434196 51.583302 51.703354 51.794235 51.855873 51.888222 51.891277 51.865055 51.809635 51.725113 51.611637 51.469368 51.298519 51.099350 50.872128 50.616631
19.393799 20.211205 21.036655 21.869135 22.707615 23.551060 24.398436 25.248724 26.101263 26.955179 27.809402 28.662861 29.514509 30.363279 31.208126 32.048012 32.881905 33.708786 34.527657 35.337498 36.137344 36.926228 37.703384 38.468063 39.219292 39.956146 40.677704 41.383080 42.071388 42.741791 43.393463 44.025608 44.637455 45.228252 45.797298 46.343880 46.867371 47.367115 47.842525 48.293037 48.718113 49.117249 49.489986 49.835880 50.154533 50.445583 50.708683 50.943558 51.149929 51.327583 51.476322 51.596001 51.686504 51.747738 51.779667 51.782288 51.755642 51.699768 51.614788 51.500832 51.358074 51.186741 50.987064 50.759331 50.503860
19.340185 20.154121 20.976131 21.805195 22.640278 23.480434 24.325098 25.173296 26.023960 26.876020 27.728403 28.580051 29.429901 30.276894 31.119991 31.958149 32.790344 33.615551 34.432777 35.241360 36.040417 36.828953 37.605972 38.370495 39.121567 39.858250 40.579628 41.284821 41.972935 42.643131 43.294590 43.926517 44.538132 45.128689 45.697472 46.243805 46.767014 47.266476 47.741596 48.191803 48.616573 49.015385 49.387791 49.733341 50.051640 50.342331 50.605064 50.839554 51.045536 51.222794 51.371117 51.490379 51.580456 51.641266 51.672749 51.674927 51.647816 51.591476 51.506023 51.391598 51.248360 51.076538 50.876358 50.648132 50.392166
19.287653 20.097967 20.916304 21.741840 22.574078 23.412004 24.254559 25.100660 25.949251 26.799253 27.649599 28.499226 29.347080 30.192108 31.033258 31.869503 32.700169 33.524422 34.341221 35.149521 35.948299 36.736546 37.513271 38.277496 39.028267 39.764641 40.485706 41.190567 41.878353 42.548222 43.199345 43.830917 44.442173 45.032379 45.600800 46.146759 46.669594 47.168674 47.643402 48.093212 48.517574 48.915981 49.287968 49.633110 49.950981 50.241234 50.503532 50.737587 50.943127 51.119926 51.267803 51.386604 51.476215 51.536552 51.567577 51.569286 51.541695 51.484882 51.398952 51.284042 51.140327 50.968025 50.767365 50.538651 50.282200
19.234003 20.042137 20.858200 21.681389 22.511278 23.346878 24.187115 25.030926 25.877232 26.724976 27.573082 28.420500 29.266159 30.109221 30.949070 31.784653 32.614895 33.438721 34.255089 35.062962 35.861298 36.649105 37.425385 38.189163 38.939484 39.675415 40.396027 41.100426 41.787758 42.457161 43.107811 43.738914 44.349705 44.939426 45.507378 46.052849 46.575199 47.073792 47.548031 47.997356 48.421223 48.819145 49.190632 49.535275 49.852654 50.142410 50.404205 50.637756 50.842793 51.019096 51.166473 51.284779 51.373894 51.433735 51.464260 51.465469 51.437393 51.380089 51.293674 51.178280 51.034084 50.861301 50.660179 50.431000 50.174080