64 64
0.331730 0.456207 0.522293 0.454488 0.328331 0.289820 0.308232 0.331794 0.360224 0.394559 0.435836 0.483567 0.537139 0.593767 0.653226 0.709189 0.754087 0.787616 0.809909 0.822436 0.858048 0.939799 1.048636 1.186697 1.354834 1.554656 1.788270 2.055461 2.353189 2.676968 3.023645 3.391192 3.776511 4.175850 4.586602 5.006586 5.429563 5.850213 6.263189 6.664232 7.049345 7.413534 7.752986 8.066056 8.348411 8.593828 8.798875 9.008738 9.174253 9.281914 9.334810 9.334584 9.281190 9.176033 9.022041 8.823936 8.587438 8.362893 8.107310 7.822754 7.512301 7.177861 6.822833 6.451628 6.068652
0.283278 0.319494 0.345793 0.310745 0.265863 0.272555 0.287346 0.307310 0.332187 0.363074 0.400997 0.445490 0.496004 0.550061 0.606022 0.658512 0.700140 0.730600 0.750510 0.765067 0.802007 0.892018 1.010470 1.158432 1.336011 1.543244 1.782060 2.050763 2.348190 2.672332 3.020307 3.388401 3.773815 4.173047 4.583360 5.002336 5.427407 5.851395 6.267935 6.673570 7.063480 7.432590 7.777417 8.094775 8.380504 8.628813 8.836371 9.054162 9.220581 9.325047 9.370996 9.362065 9.298739 9.183496 9.018053 8.807732 8.558545 8.304243 8.035016 7.737948 7.415111 7.069594 6.705440 6.326225 5.936319
0.334422 0.266788 0.253320 0.248214 0.248604 0.254454 0.265663 0.282060 0.303413 0.330803 0.365312 0.406497 0.453845 0.505244 0.558618 0.608306 0.647224 0.675231 0.693883 0.714296 0.748834 0.846887 0.974695 1.132306 1.320215 1.535956 1.779381 2.050461 2.348695 2.673493 3.021743 3.390036 3.774164 4.171061 4.578980 4.995784 5.420061 5.846151 6.266310 6.676068 7.070009 7.443997 7.794152 8.115972 8.404517 8.655112 8.872900 9.097784 9.264736 9.369328 9.412350 9.396749 9.325630 9.201921 9.026560 8.806213 8.546761 8.264296 7.984996 7.676544 7.342281 6.986720 6.614049 6.228202 5.832190
0.474423 0.313674 0.245165 0.236636 0.233550 0.235891 0.243581 0.256472 0.274353 0.298223 0.329284 0.367117 0.411283 0.459849 0.510550 0.558874 0.595920 0.622132 0.641607 0.669276 0.709355 0.804411 0.942770 1.111334 1.308965 1.532814 1.780933 2.055763 2.356174 2.680058 3.025949 3.391214 3.773165 4.167908 4.572611 4.986793 5.409835 5.837005 6.259968 6.672507 7.069756 7.448022 7.802438 8.128408 8.420141 8.672709 8.916326 9.139297 9.305633 9.410671 9.454405 9.436437 9.360406 9.229097 9.045629 8.817924 8.552467 8.252677 7.955482 7.638435 7.296191 6.932762 6.552002 6.158650 5.757359
0.545641 0.343810 0.236651 0.224804 0.218341 0.217269 0.221530 0.230999 0.245485 0.265845 0.293446 0.327905 0.368920 0.414468 0.462313 0.509400 0.546321 0.571854 0.594064 0.629150 0.680936 0.766688 0.915114 1.093744 1.299715 1.530682 1.785971 2.064855 2.367029 2.690159 3.032717 3.393525 3.770447 4.161250 4.564198 4.976628 5.397850 5.824800 6.249146 6.663262 7.063384 7.444693 7.802258 8.131568 8.426637 8.683446 8.958311 9.179190 9.344176 9.450838 9.494790 9.476731 9.398508 9.264381 9.079173 8.847935 8.575596 8.270894 7.944985 7.622448 7.274819 6.905835 6.520262 6.122423 5.716913
0.468989 0.303818 0.228811 0.213526 0.203592 0.199071 0.199965 0.206119 0.217311 0.234207 0.258359 0.289449 0.327337 0.369702 0.417263 0.511571 0.582367 0.575133 0.551940 0.591935 0.655456 0.739779 0.889826 1.077003 1.290075 1.528956 1.791323 2.074560 2.377716 2.700121 3.039724 3.395524 3.767127 4.153228 4.552659 4.963727 5.383647 5.809875 6.234179 6.649432 7.051605 7.435342 7.795589 8.127643 8.425825 8.726335 8.999892 9.219572 9.383276 9.489419 9.533875 9.515895 9.437083 9.301303 9.118199 8.889917 8.615419 8.306160 7.968556 7.627706 7.276634 6.904910 6.516845 6.116872 5.710029
0.327717 0.250817 0.225124 0.206179 0.192424 0.183968 0.180860 0.183101 0.190632 0.203903 0.224604 0.252386 0.287117 0.326152 0.418927 0.594085 0.699119 0.655029 0.551177 0.549985 0.624063 0.721390 0.865668 1.060559 1.282010 1.528396 1.796470 2.083052 2.386381 2.706699 3.043733 3.396136 3.763416 4.144484 4.538726 4.946919 5.365470 5.791279 6.216266 6.633152 7.036731 7.421863 7.783664 8.117842 8.444551 8.767412 9.040250 9.259461 9.422436 9.526504 9.570829 9.553794 9.472061 9.333065 9.152493 8.930818 8.662918 8.355085 8.018779 7.655998 7.298927 6.927011 6.538961 6.139423 5.733789
0.278122 0.251467 0.227048 0.205228 0.187708 0.175294 0.168064 0.166040 0.169191 0.177842 0.193922 0.217634 0.248473 0.281606 0.400735 0.605705 0.722176 0.661801 0.526035 0.497702 0.582964 0.693093 0.844961 1.047315 1.276961 1.529538 1.801816 2.090543 2.393908 2.711167 3.044192 3.393589 3.757529 4.134303 4.523244 4.927016 5.344722 5.770205 6.195575 6.613237 7.017709 7.403780 7.766971 8.119745 8.485823 8.807014 9.078701 9.297787 9.463750 9.565948 9.606477 9.589028 9.508941 9.369780 9.190668 8.974439 8.714518 8.413102 8.080533 7.721408 7.340609 6.967195 6.581631 6.185120 5.783195
0.288035 0.260089 0.234199 0.210685 0.189971 0.173743 0.162519 0.156347 0.155217 0.159273 0.170418 0.187603 0.209181 0.232800 0.309175 0.469091 0.564611 0.519420 0.423415 0.434619 0.528697 0.649397 0.827195 1.036303 1.272378 1.529696 1.804725 2.094790 2.397631 2.713688 3.043342 3.387715 3.747520 4.121213 4.506948 4.907258 5.323246 5.747856 6.172392 6.589389 6.993435 7.379817 7.759745 8.159847 8.523389 8.842796 9.113309 9.335279 9.499232 9.595875 9.633111 9.617401 9.545526 9.414883 9.239800 9.026287 8.771120 8.477464 8.152194 7.799831 7.425217 7.033097 6.641965 6.250408 5.853455
0.302695 0.273990 0.246787 0.221779 0.199271 0.179702 0.097603 0.064550 0.082129 0.148679 0.152028 0.159594 0.170401 0.182049 0.197852 0.261863 0.313032 0.302471 0.293735 0.359179 0.470330 0.623782 0.809301 1.024485 1.265568 1.526561 1.803282 2.093475 2.396538 2.711755 3.039077 3.379418 3.734545 4.105556 4.489795 4.887655 5.301808 5.725051 6.147262 6.562200 6.964993 7.372921 7.798891 8.195276 8.556207 8.873775 9.142422 9.361140 9.517611 9.609114 9.648454 9.639175 9.573676 9.454597 9.289062 9.079638 8.830145 8.545758 8.229961 7.887257 7.521814 7.138093 6.741591 6.337903 5.942298
0.321286 0.293087 0.265006 0.238661 0.214635 0.193211 0.052474 0.047041 0.046590 0.142993 0.136536 0.133046 0.131270 0.130431 0.131378 0.138557 0.154851 0.181542 0.233636 0.319152 0.441661 0.599368 0.790670 1.010967 1.255854 1.519877 1.797693 2.088045 2.390139 2.703609 3.029313 3.367874 3.720665 4.088492 4.470994 4.867559 5.280023 5.701255 6.120511 6.532913 6.967228 7.411973 7.833862 8.227663 8.585776 8.900564 9.165276 9.376904 9.527765 9.619924 9.664596 9.660995 9.600724 9.488922 9.331364 9.130849 8.891780 8.617689 8.312472 7.980563 7.626037 7.253180 6.867189 6.472918 6.075867
0.343830 0.316380 0.288756 0.261505 0.236110 0.213136 0.125815 0.033091 0.091466 0.141178 0.123453 0.107780 0.093029 0.079387 0.090015 0.103645 0.117891 0.146745 0.202571 0.290080 0.415473 0.577895 0.774306 0.998485 1.245292 1.510264 1.789137 2.079360 2.379932 2.691105 3.014516 3.352312 3.704463 4.070811 4.451302 4.846533 5.257645 5.675871 6.092484 6.564108 7.023592 7.525993 7.980299 8.317970 8.609320 8.918299 9.179458 9.388661 9.541175 9.638173 9.686360 9.683699 9.627043 9.523204 9.373840 9.182652 8.954737 8.692453 8.399180 8.078766 7.735237 7.373394 6.998526 6.615167 6.228674
0.370386 0.343802 0.316896 0.290089 0.263847 0.239464 0.217581 0.195432 0.170519 0.142734 0.113334 0.085038 0.057077 0.051500 0.062352 0.073347 0.086376 0.116388 0.174657 0.266075 0.394659 0.560622 0.759717 0.985893 1.233073 1.497492 1.776404 2.065915 2.364816 2.674412 2.996289 3.331725 3.682911 4.049454 4.429511 4.824263 5.233291 5.673295 6.166024 6.639040 7.162333 7.771149 8.255130 8.519824 8.678585 8.918286 9.182233 9.393360 9.549528 9.651912 9.701509 9.700706 9.652180 9.557162 9.417470 9.237001 9.019488 8.768229 8.486975 8.178973 7.847598 7.497773 7.134257 6.761605 6.385318
0.401005 0.375391 0.349305 0.323158 0.297358 0.272309 0.247326 0.218788 0.185858 0.148256 0.107598 0.066208 0.024009 0.031523 0.039637 0.048063 0.060283 0.090269 0.151026 0.247577 0.378928 0.546472 0.746121 0.972266 1.218414 1.481609 1.758915 2.047059 2.345055 2.653680 2.973916 3.307855 3.656945 4.023106 4.404806 4.799436 5.220399 5.739797 6.248444 6.731520 7.305646 7.959740 8.445882 8.660426 8.737930 8.910730 9.168422 9.385851 9.548326 9.655163 9.709539 9.715438 9.674816 9.589020 9.460535 9.291935 9.086067 8.846902 8.578781 8.284231 7.966057 7.628477 7.275431 6.911863 6.543442
0.352854 0.304220 0.303123 0.330071 0.335360 0.310327 0.280828 0.245455 0.203890 0.157287 0.106784 0.051460 0.012015 0.016740 0.022204 0.028142 0.039380 0.069314 0.132300 0.232114 0.366541 0.534766 0.733824 0.958703 1.204033 1.465415 1.739401 2.025189 2.321558 2.628369 2.947630 3.280227 3.628801 3.994766 4.376857 4.770374 5.264590 5.820170 6.357398 6.861153 7.395090 7.994763 8.445271 8.654304 8.748451 8.931193 9.159988 9.368823 9.538814 9.655058 9.718479 9.731528 9.698508 9.622369 9.505325 9.349003 9.156445 8.933043 8.680580 8.400835 8.096503 7.771267 7.428772 7.073827 6.711533
0.140926 0.064198 0.093314 0.200826 0.315555 0.350744 0.317013 0.275177 0.225720 0.170411 0.109086 0.040513 0.005052 0.007409 0.010327 0.013871 0.023679 0.054279 0.117992 0.218632 0.355063 0.525904 0.726002 0.949078 1.192650 1.451161 1.722128 2.004585 2.297889 2.601954 2.918119 3.250292 3.599316 3.964075 4.343544 4.736423 5.312341 5.910887 6.484328 7.012603 7.485135 7.959085 8.347280 8.586743 8.766293 8.979347 9.174745 9.355145 9.520623 9.646729 9.721698 9.747602 9.725085 9.658918 9.551928 9.409984 9.235267 9.029155 8.793101 8.528576 8.238416 7.925772 7.593886 7.247133 6.892128
0.000000 0.000000 0.000000 0.003182 0.222556 0.363248 0.355147 0.307196 0.251175 0.187868 0.114863 0.033767 0.001156 0.002359 0.003830 0.005464 0.013964 0.044817 0.107773 0.208553 0.346769 0.518508 0.718349 0.941325 1.182834 1.438815 1.706799 1.985460 2.274807 2.575495 2.889507 3.218543 3.564892 3.928099 4.306101 4.701176 5.351261 5.994608 6.604196 7.157305 7.636967 8.038171 8.368834 8.637586 8.856482 9.040995 9.204296 9.356115 9.501628 9.630174 9.719503 9.760313 9.752357 9.696632 9.603427 9.477888 9.320745 9.133226 8.914660 8.666060 8.389969 8.088959 7.766390 7.429262 7.152766
0.000000 0.000000 0.000000 0.000000 0.139658 0.356819 0.395897 0.342244 0.279993 0.207630 0.124322 0.032398 0.000000 0.000116 0.000562 0.001252 0.009261 0.039847 0.103320 0.203480 0.341364 0.512497 0.711199 0.933279 1.172423 1.426003 1.690586 1.964682 2.248795 2.545852 2.856827 3.183045 3.526024 3.887967 4.266677 4.665372 5.361994 6.045202 6.688284 7.266407 7.761184 8.166206 8.489314 8.743236 8.941491 9.100655 9.236203 9.362420 9.490108 9.613582 9.713273 9.768282 9.775639 9.735582 9.659174 9.550428 9.409885 9.240152 9.039310 8.806901 8.545224 8.256403 7.946454 7.705343 7.568453
0.000000 0.000000 0.000000 0.000000 0.138740 0.381588 0.440018 0.381168 0.312064 0.230362 0.137381 0.035606 0.000000 0.000000 0.000000 0.000000 0.007146 0.037663 0.102378 0.202930 0.340815 0.510903 0.708033 0.927232 1.163677 1.413270 1.673396 1.942004 2.221077 2.512514 2.819316 3.143223 3.484804 3.844349 4.220714 4.613002 5.321400 6.040624 6.715123 7.317470 7.830162 8.244931 8.567418 8.814324 8.999834 9.139788 9.256166 9.365929 9.480986 9.598525 9.700028 9.769350 9.789822 9.770720 9.713424 9.621933 9.498482 9.345595 9.162744 8.947174 8.700724 8.424799 8.176975 8.067835 7.992495
0.000000 0.000000 0.000000 0.000000 0.247956 0.458014 0.488192 0.424079 0.347468 0.257150 0.154754 0.041790 0.000000 0.000000 0.000000 0.000000 0.006725 0.037646 0.103514 0.206345 0.343720 0.511390 0.705652 0.920914 1.153557 1.398530 1.652909 1.916832 2.190528 2.476244 2.777231 3.097057 3.436514 3.793275 4.166942 4.558443 5.214494 5.965643 6.667844 7.293818 7.826486 8.257649 8.589515 8.836544 9.016748 9.149086 9.255634 9.355611 9.462790 9.576607 9.679976 9.760420 9.796448 9.796568 9.760241 9.687590 9.582645 9.447457 9.282351 9.083407 8.851160 8.587061 8.389415 8.311092 8.197659
0.077269 0.000000 0.041438 0.227006 0.439503 0.566712 0.540569 0.470866 0.386577 0.285710 0.170921 0.044721 0.000000 0.000000 0.000000 0.000000 0.006968 0.039043 0.105595 0.208726 0.345356 0.510910 0.700703 0.911453 1.138442 1.377627 1.626313 1.884767 2.153333 2.434286 2.730938 3.045641 3.380509 3.734203 4.106107 4.497642 5.034475 5.811044 6.537681 7.187484 7.743712 8.197027 8.545734 8.803026 8.986705 9.118502 9.222198 9.319164 9.424570 9.540103 9.648553 9.738569 9.792901 9.812569 9.796687 9.743237 9.656207 9.538600 9.390569 9.208097 8.990229 8.738006 8.514937 8.366015 8.164885
0.458708 0.389541 0.425249 0.535482 0.642016 0.657608 0.596493 0.519762 0.424258 0.311674 0.184928 0.044892 0.000000 0.000000 0.000000 0.000000 0.007971 0.042299 0.107573 0.208410 0.342177 0.505001 0.692177 0.898996 1.120277 1.352506 1.594915 1.846392 2.109688 2.386576 2.678502 2.988561 3.318146 3.668323 4.039198 4.431637 4.835818 5.570013 6.317300 6.990772 7.575531 8.056924 8.429279 8.705406 8.904726 9.046353 9.154599 9.253664 9.362004 9.482038 9.598995 9.701499 9.776174 9.815777 9.819726 9.785362 9.714732 9.613444 9.481194 9.314346 9.110126 8.868862 8.597017 8.353367 8.068192
0.775628 0.736930 0.744477 0.774805 0.770946 0.720835 0.652618 0.565887 0.459611 0.336151 0.197213 0.058697 0.000000 0.000000 0.000000 0.000069 0.009964 0.045786 0.109018 0.206377 0.337611 0.497231 0.680961 0.882990 1.098452 1.324463 1.559688 1.804704 2.060449 2.330698 2.618415 2.924696 3.250804 3.598287 3.969010 4.361300 4.766839 5.248933 6.009673 6.703443 7.314844 7.828634 8.236433 8.544968 8.770146 8.931772 9.054819 9.165487 9.282419 9.408716 9.533482 9.648587 9.741868 9.801042 9.823641 9.807501 9.752894 9.667042 9.548861 9.394754 9.202106 8.971899 8.706846 8.410934 8.089415
0.927936 0.914510 0.898998 0.876453 0.839588 0.782722 0.705908 0.609774 0.493662 0.360077 0.209242 0.044287 0.000000 0.000000 0.000000 0.000791 0.012373 0.047729 0.110977 0.206442 0.333330 0.488225 0.666524 0.862470 1.071224 1.290597 1.519013 1.757301 2.007344 2.271299 2.552962 2.855847 3.179452 3.525028 3.895533 4.288212 4.694687 5.107613 5.625242 6.337215 6.975806 7.523138 7.968511 8.316285 8.580142 8.775627 8.924872 9.057516 9.190331 9.327729 9.460572 9.588099 9.693914 9.768766 9.807920 9.807966 9.768499 9.695546 9.590549 9.448845 9.267717 9.047825 8.792088 8.505156 8.191803
1.000391 0.987998 0.972414 0.948649 0.906092 0.841638 0.756951 0.652263 0.527382 0.384043 0.222563 0.047023 0.000000 0.000000 0.000000 0.001825 0.014578 0.049974 0.113328 0.206528 0.328917 0.477738 0.648849 0.837239 1.038854 1.251196 1.473442 1.705804 1.950326 2.209682 2.486729 2.783702 3.103243 3.448645 3.819520 4.213386 4.620225 5.035055 5.453705 5.912507 6.574533 7.152657 7.636502 8.028468 8.339126 8.581429 8.772073 8.937357 9.093744 9.245126 9.388041 9.528504 9.640480 9.724421 9.775447 9.788204 9.761760 9.678512 9.548099 9.400224 9.246922 9.074614 8.850284 8.572579 8.268654
1.075019 1.062307 1.046069 1.018384 0.969316 0.898039 0.806313 0.694119 0.561640 0.409272 0.238593 0.053910 0.000000 0.000000 0.000000 0.002667 0.016581 0.053386 0.115301 0.204034 0.321084 0.464465 0.629366 0.810427 1.004841 1.209890 1.425481 1.651752 1.890586 2.145179 2.417174 2.708860 3.024892 3.370478 3.742449 4.136215 4.544019 4.962063 5.388474 5.821754 6.255523 6.739534 7.262254 7.699764 8.062160 8.359966 8.606286 8.814801 9.000785 9.167318 9.323019 9.473857 9.590326 9.674840 9.728303 9.750323 9.691259 9.540653 9.362556 9.171935 8.996735 8.867462 8.754867 8.583561 8.319663
1.149574 1.136397 1.117633 1.084382 1.029581 0.952342 0.854502 0.736005 0.596914 0.436871 0.258564 0.066297 0.000000 0.000000 0.000000 0.003068 0.018808 0.056442 0.116223 0.200009 0.311820 0.449391 0.607686 0.782005 0.969414 1.168186 1.376578 1.596275 1.828838 2.076679 2.344218 2.633305 2.947885 3.292097 3.664781 4.058431 4.467235 4.887427 5.320271 5.760225 6.199895 6.632263 7.045682 7.430558 7.776176 8.133428 8.436666 8.693584 8.912479 9.099252 9.272232 9.427747 9.523310 9.568466 9.602769 9.620737 9.528572 9.334347 9.047650 8.735670 8.507601 8.410995 8.411829 8.408467 8.286096
1.223456 1.209403 1.185242 1.146852 1.087163 1.004902 0.901953 0.778448 0.633850 0.467746 0.283471 0.085289 0.000000 0.000000 0.000000 0.003607 0.020570 0.057308 0.116699 0.197751 0.302875 0.433252 0.583514 0.750695 0.931200 1.123146 1.325907 1.539332 1.766241 2.009666 2.272748 2.559101 2.872412 3.214928 3.587660 3.980067 4.387858 4.809490 5.246118 5.690831 6.135573 6.574560 6.997984 7.393558 7.750241 8.058995 8.314339 8.578853 8.831608 9.045533 9.235752 9.346911 9.365189 9.347604 9.355367 9.354891 9.264899 9.067944 8.691207 8.578143 8.438840 8.275329 8.090071 8.126588 8.157812
1.276608 1.225652 1.180434 1.152714 1.122653 1.055990 0.948996 0.821818 0.673047 0.502569 0.314044 0.111703 0.000000 0.000000 0.000000 0.003992 0.021436 0.057571 0.116290 0.195034 0.294427 0.416861 0.559761 0.719996 0.894202 1.079589 1.275673 1.483579 1.705538 1.945807 2.206470 2.488714 2.797341 3.138127 3.510791 3.902216 4.307172 4.728345 5.164682 5.612152 6.063145 6.509108 6.942182 7.349848 7.718595 8.037665 8.300701 8.506161 8.764481 9.010900 9.188650 9.220528 9.159965 9.084443 9.064716 9.062316 9.005340 8.812464 8.694307 8.589344 8.457883 8.302328 8.124570 7.927897 8.024467
1.237809 1.130633 1.061164 1.047485 1.065475 1.065783 0.995847 0.866309 0.714874 0.541752 0.350740 0.146040 0.000000 0.000000 0.000000 0.003958 0.021513 0.058201 0.114531 0.190278 0.286384 0.403316 0.540462 0.694405 0.862432 1.041872 1.231982 1.434639 1.652004 1.886594 2.142248 2.421068 2.726035 3.064829 3.434857 3.823961 4.225513 4.643680 5.076338 5.523743 5.979653 6.434827 6.877961 7.296565 7.675882 8.004628 8.276712 8.490488 8.713946 8.984480 9.132128 9.106034 8.987315 8.883545 8.868091 8.854424 8.853462 8.768032 8.696778 8.599118 8.474607 8.325541 8.154222 7.963426 7.963260
1.150208 0.989944 0.897655 0.896432 0.959863 1.025044 1.023026 0.911928 0.759447 0.585431 0.393704 0.188461 0.000000 0.000000 0.000000 0.003684 0.021391 0.057888 0.113253 0.186923 0.278913 0.390304 0.521721 0.670747 0.833127 1.007491 1.193327 1.390979 1.603053 1.832780 2.083610 2.358870 2.661174 2.995464 3.360549 3.744591 4.141799 4.554597 4.982121 5.428293 5.888159 6.351742 6.803928 7.230335 7.617992 7.955981 8.238502 8.462441 8.671265 8.954479 9.093844 9.049070 8.908843 8.876698 8.860851 8.837763 8.856907 8.805079 8.699064 8.607410 8.488715 8.345053 8.178602 7.991996 8.008768
1.084193 0.885069 0.775483 0.781512 0.876809 0.988972 1.037045 0.959056 0.806790 0.633452 0.442765 0.238741 0.025870 0.000000 0.000000 0.003958 0.020812 0.057239 0.113346 0.184925 0.271742 0.378648 0.505535 0.649761 0.808027 0.977898 1.158958 1.351918 1.559607 1.785980 2.033785 2.305732 2.603460 2.930901 3.288714 3.666552 4.057483 4.463331 4.886700 5.329513 5.790070 6.258141 6.717430 7.151597 7.546511 7.894490 8.188434 8.423988 8.635107 8.917419 9.084829 9.066997 8.945993 8.871937 8.856530 8.866103 8.991739 9.042452 8.878988 8.612736 8.499349 8.360307 8.197855 8.126118 8.139012
1.099149 0.882847 0.763866 0.769508 0.874116 1.003460 1.070245 1.008087 0.857490 0.686057 0.497613 0.296339 0.086462 0.000000 0.000000 0.003992 0.021029 0.057090 0.112341 0.182957 0.268141 0.372540 0.496223 0.636323 0.791005 0.957152 1.133729 1.322701 1.526423 1.748251 1.992697 2.261504 2.555160 2.874506 3.222883 3.591952 3.973869 4.371217 4.789030 5.230146 5.688437 6.156851 6.618519 7.058770 7.464926 7.824282 8.129322 8.376101 8.601935 8.870130 9.083933 9.139169 9.073642 8.991821 8.966702 9.031653 9.163145 9.270124 9.217784 8.980186 8.733281 8.556881 8.447096 8.372869 8.287823
1.218406 1.010200 0.890968 0.887023 0.974494 1.086039 1.135017 1.058562 0.911021 0.743091 0.558362 0.360955 0.155242 0.000000 0.000000 0.003680 0.021991 0.057380 0.111704 0.182209 0.266351 0.370775 0.493060 0.631283 0.782235 0.945129 1.119030 1.304300 1.504115 1.722141 1.961684 2.225904 2.515457 2.827896 3.166735 3.525659 3.897568 4.284102 4.693354 5.129632 5.584090 6.048805 6.510731 6.956459 7.370700 7.739943 8.056048 8.314797 8.547359 8.815471 9.060735 9.209283 9.223592 9.196322 9.191358 9.237271 9.314928 9.371426 9.346375 9.218093 9.038940 8.858811 8.701350 8.550970 8.360100
1.420283 1.242166 1.131043 1.110171 1.158508 1.219426 1.218248 1.110141 0.966443 0.803513 0.624017 0.431985 0.231697 0.026871 0.000000 0.003909 0.022267 0.058785 0.113186 0.182161 0.265308 0.369430 0.493018 0.631441 0.782007 0.942583 1.113213 1.295302 1.491167 1.704879 1.941015 2.200942 2.485159 2.793451 3.123117 3.471772 3.833743 4.209029 4.606765 5.033350 5.480420 5.939234 6.398906 6.845962 7.264628 7.642140 7.969024 8.239976 8.469735 8.762589 9.026417 9.306507 9.462660 9.438925 9.373285 9.392974 9.412885 9.394587 9.330543 9.238529 9.116918 8.965159 8.786814 8.586098 8.366747
1.647807 1.513655 1.415817 1.373116 1.369031 1.358912 1.288530 1.162799 1.022685 0.866037 0.693172 0.507908 0.314408 0.115753 0.000500 0.004628 0.022720 0.059939 0.114565 0.182109 0.265898 0.372147 0.498372 0.638719 0.789721 0.949471 1.118143 1.297520 1.490476 1.700655 1.931074 2.185551 2.465209 2.770093 3.094395 3.435012 3.788058 4.152490 4.536961 4.949948 5.385225 5.837001 6.292098 6.736111 7.156352 7.540034 7.876601 8.160568 8.397138 8.723973 9.080503 9.501383 9.747626 9.701962 9.510159 9.429454 9.410270 9.373806 9.314828 9.227077 9.109766 8.962441 8.787206 8.587728 8.368617
1.830987 1.744173 1.660928 1.595362 1.535999 1.452125 1.339822 1.216774 1.080215 0.929403 0.764180 0.586937 0.401456 0.210227 0.011676 0.005420 0.024266 0.060452 0.113465 0.181295 0.269719 0.380719 0.510724 0.654620 0.807371 0.967735 1.135064 1.311673 1.501142 1.707181 1.932808 2.181721 2.456955 2.758027 3.081897 3.418492 3.763999 4.118001 4.488679 4.885303 5.306630 5.748050 6.195937 6.636753 7.058197 7.447543 7.793988 8.089229 8.350323 8.696854 9.113163 9.600739 9.876287 9.804566 9.549385 9.408790 9.387937 9.353957 9.299357 9.215984 9.101182 8.956588 8.784011 8.585711 8.366549
1.926090 1.869286 1.797927 1.713053 1.616269 1.509245 1.393546 1.270996 1.138518 0.993230 0.835666 0.667095 0.490693 0.308073 0.116488 0.007043 0.026113 0.060515 0.111634 0.181962 0.276536 0.394349 0.529220 0.677522 0.834034 0.995412 1.162784 1.337329 1.522498 1.723484 1.945669 2.192000 2.463281 2.760085 3.083452 3.418884 3.759403 4.106637 4.466757 4.847830 5.253406 5.680307 6.119468 6.556356 6.977734 7.371054 7.724483 8.029813 8.324339 8.677596 9.042064 9.473135 9.725566 9.680206 9.482910 9.394756 9.373008 9.339188 9.286797 9.205503 9.092443 8.949364 8.778085 8.581567 8.363007
2.004658 1.943558 1.868804 1.780779 1.680684 1.570350 1.451699 1.326385 1.196236 1.056999 0.906582 0.746805 0.579838 0.406859 0.223719 0.033267 0.026940 0.060856 0.112838 0.188219 0.288963 0.412562 0.553617 0.705779 0.866081 1.030944 1.198811 1.372586 1.556201 1.754318 1.972364 2.214634 2.482666 2.776784 3.099326 3.434911 3.773610 4.116353 4.468503 4.838675 5.230399 5.642710 6.070740 6.501101 6.920291 7.314991 7.673678 7.986909 8.318770 8.674730 8.959451 9.248485 9.439771 9.454997 9.398610 9.390361 9.369250 9.334908 9.281254 9.199342 9.019013 8.772997 8.705828 8.577374 8.359157
2.088421 2.021504 1.942206 1.851150 1.748439 1.635386 1.513994 1.386348 1.254160 1.119124 0.975790 0.824513 0.667023 0.504162 0.331277 0.150738 0.029142 0.064707 0.121080 0.202804 0.309584 0.438590 0.585559 0.743805 0.908462 1.076592 1.247112 1.421420 1.604118 1.800339 2.014457 2.251513 2.516243 2.809712 3.130233 3.466139 3.805095 4.145787 4.492371 4.854657 5.237595 5.639288 6.055238 6.478194 6.894259 7.289397 7.650510 7.968318 8.341840 8.698145 8.977932 9.180547 9.311556 9.380320 9.403729 9.398352 9.376675 9.340460 9.282658 9.198463 8.913891 8.600146 8.599062 8.572527 8.351336
2.177224 2.104376 2.019550 1.923997 1.818707 1.703645 1.580159 1.450405 1.316522 1.180240 1.042104 0.898862 0.751440 0.600050 0.439489 0.270567 0.105196 0.075206 0.135938 0.223675 0.338410 0.475865 0.630012 0.794833 0.964113 1.135919 1.309647 1.485892 1.667305 1.859616 2.070144 2.305561 2.569242 2.861378 3.179015 3.513100 3.851638 4.192562 4.537574 4.895320 5.274869 5.672201 6.081548 6.498025 6.909139 7.302872 7.667144 7.990336 8.408539 8.758917 9.031554 9.227402 9.352287 9.415943 9.433104 9.424195 9.398256 9.355256 9.290859 9.201689 9.017595 8.790347 8.696187 8.562249 8.336711
2.270926 2.191669 2.101219 2.000599 1.891174 1.774114 1.649264 1.518036 1.382718 1.245771 1.109204 0.972471 0.835349 0.696386 0.549497 0.393057 0.240979 0.099719 0.159047 0.253569 0.375851 0.521714 0.682998 0.853798 1.028945 1.205038 1.381041 1.558204 1.740206 1.932855 2.143194 2.377735 2.640418 2.931812 3.248260 3.580469 3.918476 4.259624 4.605733 4.963217 5.341120 5.735427 6.142811 6.554707 6.963724 7.357671 7.723086 8.096175 8.510983 8.851881 9.115643 9.303791 9.420463 9.474600 9.486968 9.474266 9.440164 9.385709 9.312324 9.213713 9.088479 8.934566 8.752335 8.544252 8.313334
2.350507 2.283197 2.186584 2.080729 1.966821 1.846269 1.720380 1.588978 1.454551 1.319697 1.186204 1.054649 0.923975 0.794669 0.661166 0.518669 0.379350 0.251225 0.194357 0.295248 0.423883 0.575524 0.743502 0.920650 1.101755 1.282027 1.460537 1.639359 1.823430 2.019076 2.232649 2.467996 2.729492 3.021163 3.338636 3.670984 4.009778 4.352023 4.699634 5.057305 5.433150 5.825245 6.231437 6.644469 7.053281 7.445188 7.809052 8.237066 8.641043 8.971887 9.226649 9.405165 9.511087 9.557928 9.567115 9.547534 9.502812 9.435298 9.349561 9.239264 9.101191 8.934213 8.739883 8.521360 8.283515
2.420304 2.377969 2.275173 2.163865 2.045950 1.922621 1.795991 1.667801 1.537416 1.406484 1.276849 1.149652 1.024755 0.901435 0.776495 0.645426 0.518568 0.404418 0.315231 0.349053 0.483711 0.640995 0.815755 0.999298 1.185269 1.369652 1.551557 1.734344 1.922112 2.120451 2.335594 2.573329 2.838174 3.131283 3.450649 3.785019 4.125854 4.469394 4.818787 5.177115 5.549973 5.940629 6.346585 6.759288 7.167764 7.559433 7.947262 8.401541 8.792261 9.112409 9.357269 9.526170 9.625063 9.667392 9.669050 9.638571 9.581064 9.500982 9.400703 9.275921 9.123084 8.941389 8.732470 8.499099 8.250362
2.509666 2.475613 2.367791 2.252539 2.131548 2.007815 1.882785 1.757735 1.632516 1.506399 1.381019 1.257971 1.138138 1.020975 0.903653 0.781173 0.662057 0.560990 0.486092 0.439738 0.556081 0.720378 0.900869 1.090390 1.281255 1.470294 1.657537 1.844015 2.034929 2.236473 2.454673 2.696012 2.964717 3.261694 3.583742 3.921272 4.263496 4.608394 4.959407 5.317996 5.689709 6.078111 6.482397 6.894207 7.301756 7.692677 8.139802 8.579955 8.959521 9.268839 9.502239 9.661380 9.755643 9.793824 9.788486 9.746891 9.676152 9.582755 9.467050 9.325588 9.156837 8.958407 8.731032 8.479992 8.217195
2.632403 2.578657 2.466319 2.348005 2.226511 2.103636 1.980731 1.858540 1.737854 1.617299 1.496881 1.378293 1.262647 1.150898 1.041151 0.928326 0.817518 0.727789 0.665606 0.632454 0.640332 0.812120 0.998453 1.192995 1.389389 1.584438 1.776681 1.968404 2.163520 2.369138 2.591985 2.837628 3.109625 3.410566 3.735638 4.076484 4.419781 4.765572 5.117542 5.476741 5.847391 6.232893 6.634161 7.042388 7.446720 7.867602 8.337106 8.765167 9.131280 9.427207 9.650700 9.805446 9.895219 9.928918 9.918155 9.868904 9.788113 9.681113 9.548838 9.389109 9.202513 8.984625 8.737132 8.465997 8.186241
2.777206 2.686688 2.570978 2.451609 2.330502 2.208877 2.088223 1.968979 1.851807 1.736843 1.622074 1.508415 1.397354 1.289540 1.185846 1.082838 0.983343 0.904976 0.856280 0.837187 0.846610 0.916005 1.108243 1.308187 1.511037 1.712389 1.911425 2.108951 2.309733 2.520630 2.747455 2.996470 3.272604 3.576526 3.904585 4.247633 4.592160 4.938766 5.290979 5.649704 6.018712 6.399169 6.795427 7.198813 7.636634 8.101825 8.542521 8.948181 9.300572 9.585877 9.802610 9.951060 10.036201 10.068332 10.054300 9.999594 9.909410 9.788129 9.638930 9.459927 9.254037 9.017574 8.750929 8.460478 8.159844
2.915519 2.799668 2.682264 2.562447 2.441821 2.321786 2.203108 2.086904 1.973171 1.862692 1.754073 1.645948 1.539696 1.436213 1.336209 1.241551 1.155247 1.089753 1.054193 1.050002 1.075155 1.124164 1.234172 1.441337 1.650969 1.859237 2.064220 2.268334 2.475390 2.690073 2.919991 3.172762 3.451798 3.757082 4.087807 4.432827 4.778393 5.125349 5.477088 5.834552 6.200811 6.576856 6.999609 7.460302 7.914348 8.404024 8.851562 9.192316 9.475891 9.748460 9.955761 10.096850 10.177690 10.208901 10.194021 10.134995 10.035557 9.899693 9.733521 9.535697 9.309737 9.055005 8.770061 8.460188 8.137374
3.045167 2.920199 2.799496 2.678738 2.558706 2.439946 2.323376 2.209802 2.099767 1.993159 1.890228 1.788158 1.687082 1.588230 1.491955 1.402673 1.329259 1.278077 1.257069 1.267989 1.308910 1.373351 1.456155 1.588674 1.806297 2.021233 2.232450 2.442664 2.655734 2.877042 3.112344 3.367117 3.646131 3.952735 4.284834 4.629364 4.975617 5.323557 5.674760 6.031382 6.458495 6.901986 7.342320 7.773168 8.250942 8.805623 9.266097 9.540769 9.706329 9.913345 10.112084 10.248769 10.329431 10.358713 10.339205 10.273122 10.162673 10.013969 9.831044 9.615002 9.368714 9.092609 8.789077 8.461043 8.117271
3.194647 3.055179 2.925169 2.801144 2.679569 2.561371 2.446492 2.335557 2.228907 2.126334 2.028035 1.932246 1.836786 1.742731 1.650725 1.566472 1.503168 1.465901 1.460455 1.487565 1.542580 1.622153 1.718966 1.828837 1.972921 2.196906 2.417003 2.633851 2.853262 3.080167 3.319471 3.576781 3.856551 4.163253 4.493919 4.837829 5.185210 5.534867 5.953364 6.398155 6.835307 7.264546 7.684395 8.090946 8.579338 9.146141 9.594898 9.825248 9.926596 10.082026 10.276392 10.411634 10.492560 10.519567 10.492575 10.415522 10.292636 10.128682 9.928555 9.694722 9.427193 9.129501 8.806087 8.460377 8.098708
3.373381 3.215164 3.068952 2.934450 2.807638 2.686652 2.571455 2.461829 2.358088 2.259590 2.165452 2.075412 1.985943 1.896764 1.809631 1.731796 1.675088 1.652348 1.661567 1.701821 1.771388 1.866331 1.979351 2.106012 2.239894 2.391315 2.621373 2.846264 3.070240 3.299071 3.539385 3.798028 4.080272 4.388259 4.717494 5.062068 5.430953 5.888404 6.338446 6.778615 7.207791 7.623083 8.023735 8.408441 8.835824 9.334604 9.739442 9.962192 10.080901 10.258888 10.448184 10.582835 10.661592 10.682322 10.646644 10.558807 10.424450 10.245543 10.026838 9.771623 9.482805 9.163641 8.820406 8.456450 8.077641
3.584898 3.405687 3.240638 3.088808 2.950220 2.821833 2.702688 2.591644 2.487765 2.391116 2.300752 2.215373 2.131632 2.047933 1.967168 1.896510 1.846299 1.833805 1.856980 1.910426 1.993549 2.105078 2.237561 2.382941 2.535062 2.689249 2.844660 3.077153 3.305933 3.535812 3.775805 4.034123 4.316594 4.624127 4.953710 5.346272 5.808492 6.267384 6.714895 7.150728 7.572146 7.973610 8.356553 8.719731 9.068472 9.449890 9.792230 10.033194 10.226224 10.443645 10.626348 10.758469 10.834192 10.849685 10.805694 10.706191 10.556629 10.360803 10.122692 9.845823 9.535101 9.194150 8.829957 8.447206 8.050654
3.831867 3.630688 3.444463 3.273188 3.116504 2.974575 2.845528 2.728710 2.622858 2.525604 2.435877 2.352558 2.274192 2.196393 2.122213 2.058459 2.015904 2.009735 2.042953 2.111960 2.213526 2.344988 2.496920 2.660528 2.829813 2.999284 3.166584 3.332058 3.558114 3.791143 4.031550 4.288436 4.567841 4.872014 5.246418 5.701351 6.167587 6.628123 7.075461 7.506979 7.919328 8.309353 8.676953 9.023248 9.349719 9.657205 9.942692 10.201152 10.432998 10.643538 10.801918 10.892524 10.944742 10.969876 10.954111 10.863807 10.697769 10.482755 10.220998 9.917872 9.582530 9.220281 8.835294 8.433250 8.020312
4.114002 3.890980 3.682169 3.489750 3.313190 3.152683 3.008984 2.881223 2.768682 2.668852 2.578349 2.495942 2.420409 2.347490 2.279453 2.221968 2.186715 2.186685 2.226136 2.310390 2.432630 2.583531 2.755305 2.938241 3.124270 3.309100 3.489501 3.664103 3.838251 4.062205 4.304719 4.560155 4.834659 5.164330 5.582580 6.037626 6.504402 6.964097 7.410015 7.837609 8.243457 8.625763 8.983056 9.317919 9.631331 9.923310 10.192525 10.437906 10.663925 10.828992 10.906311 10.933818 10.956120 10.990340 11.016606 10.986739 10.843876 10.606459 10.321377 9.992479 9.628301 9.240377 8.836929 8.417575 7.989429
4.432504 4.189044 3.958915 3.745358 3.548871 3.369233 3.207603 3.065438 2.941558 2.834638 2.741601 2.658814 2.583941 2.513914 2.450894 2.399465 2.370005 2.375257 2.422619 2.516671 2.654419 2.824521 3.016506 3.218757 3.420890 3.619244 3.809959 3.993223 4.173015 4.357664 4.590235 4.844424 5.132038 5.496192 5.907671 6.357008 6.820290 7.275985 7.717960 8.142205 8.543774 8.922080 9.272845 9.598743 9.904065 10.187900 10.449466 10.692045 10.899687 10.989227 10.987151 10.953238 10.944221 10.981815 11.042220 11.064626 10.976210 10.735239 10.423105 10.066788 9.675123 9.260818 8.836897 8.402740 7.961658
4.790071 4.528853 4.279705 4.046072 3.830415 3.632629 3.453840 3.294095 3.154331 3.035792 2.937280 2.852279 2.776559 2.707808 2.647850 2.600085 2.573436 2.583285 2.639585 2.744852 2.895113 3.080991 3.290308 3.507723 3.723206 3.931127 4.129761 4.318735 4.504345 4.693799 4.900845 5.153761 5.459702 5.818244 6.221637 6.661630 7.118615 7.568995 8.005667 8.426930 8.826153 9.200948 9.548537 9.867473 10.168019 10.449442 10.711627 10.962867 11.140897 11.175918 11.113888 11.076007 11.099948 11.058149 11.106919 11.158331 11.101324 10.870039 10.529051 10.143970 9.725717 9.287088 8.841329 8.391701 7.940766
5.188138 4.910891 4.644572 4.393214 4.160338 3.947080 3.751363 3.574337 3.418458 3.285174 3.174006 3.082080 3.014441 2.963696 2.912287 2.857878 2.814600 2.817107 2.882781 2.999851 3.160848 3.357027 3.576317 3.804937 4.030519 4.246542 4.451224 4.646869 4.837487 5.031126 5.237780 5.483816 5.780991 6.128679 6.523273 6.954479 7.404169 7.849544 8.280834 8.697774 9.096214 9.468819 9.813988 10.132726 10.433406 10.718185 10.990954 11.253343 11.424213 11.437851 11.347985 11.346450 11.356947 11.297565 11.277393 11.325346 11.262204 11.017149 10.643017 10.227470 9.784644 9.324721 8.857756 8.391998 7.934169
5.623302 5.332099 5.052176 4.786851 4.539406 4.310624 4.099500 3.907385 3.735711 3.586042 3.459713 3.378416 3.342032 3.315405 3.273235 3.208227 3.135943 3.103329 3.155241 3.282398 3.451556 3.653703 3.877591 4.109503 4.341696 4.566207 4.778364 4.978963 5.173860 5.370957 5.580050 5.815543 6.100026 6.435532 6.819503 7.241628 7.682014 8.121774 8.547954 8.960795 9.357593 9.732138 10.079656 10.405797 10.713627 11.006933 11.293075 11.569695 11.768097 11.798698 11.718395 11.635777 11.629622 11.552335 11.590255 11.593006 11.477160 11.182750 10.775575 10.328476 9.858535 9.376539 8.890819 8.411469 7.946031
6.091318 5.790207 5.500062 5.223241 4.962790 4.720438 4.495904 4.289742 4.102811 3.937314 3.806253 3.749300 3.740168 3.735557 3.700595 3.623151 3.522100 3.455625 3.474305 3.595582 3.769580 3.974912 4.200259 4.434108 4.667668 4.894448 5.110075 5.314719 5.512996 5.712328 5.921801 6.152819 6.425443 6.750458 7.121517 7.531080 7.960423 8.393479 8.815342 9.225554 9.622921 10.002572 10.359760 10.697198 11.014558 11.321364 11.624681 11.916121 12.155910 12.240201 12.208630 12.134615 12.073228 12.043538 12.018985 11.936934 11.729941 11.362868 10.922688 10.446113 9.949372 9.446049 8.943513 8.451873 7.980153
6.589014 6.280643 5.982728 5.697258 5.425918 5.171607 4.934783 4.715493 4.515123 4.335505 4.207999 4.165020 4.171033 4.177916 4.146302 4.059130 3.939858 3.848545 3.839214 3.941470 4.114968 4.318098 4.540590 4.772995 5.005295 5.231427 5.447411 5.652954 5.851941 6.052137 6.263679 6.498820 6.766328 7.079196 7.438195 7.834738 8.252715 8.676839 9.095407 9.506572 9.907951 10.294558 10.661218 11.007814 11.340256 11.665067 11.985337 12.285799 12.545194 12.708194 12.750833 12.721504 12.663486 12.591319 12.485504 12.299212 11.981263 11.557309 11.083783 10.577031 10.054088 9.531129 9.016376 8.516253 8.038541
7.111333 6.797706 6.494901 6.202541 5.922340 5.657383 5.409737 5.179443 4.967252 4.774735 4.643200 4.597504 4.600976 4.605409 4.569688 4.477150 4.353210 4.250883 4.227136 4.315061 4.483449 4.679581 4.895508 5.121715 5.348793 5.571867 5.787679 5.994412 6.196058 6.400111 6.617437 6.857012 7.127591 7.434341 7.782386 8.167460 8.577256 8.992685 9.406497 9.817770 10.221542 10.613128 10.987422 11.319798 11.626050 11.951153 12.303120 12.645294 12.926208 13.132909 13.249621 13.266850 13.211490 13.094439 12.903439 12.610616 12.218415 11.761611 11.257520 10.721757 10.173513 9.632156 9.108294 8.602310 8.121010
7.653808 7.337468 7.030982 6.732371 6.444647 6.171298 5.914955 5.675151 5.452733 5.250484 5.099541 5.031624 5.013275 5.001198 4.954867 4.860099 4.742252 4.646462 4.625498 4.711874 4.868398 5.054979 5.261184 5.478724 5.698478 5.916523 6.131093 6.340504 6.547455 6.769426 6.998429 7.240730 7.508328 7.818673 8.165209 8.542363 8.944682 9.351423 9.759166 10.167892 10.572618 10.966736 11.298064 11.604638 11.895455 12.170658 12.498978 12.901950 13.269279 13.519911 13.648515 13.690190 13.632451 13.472957 13.216008 12.871690 12.451462 11.966839 11.433623 10.871678 10.301361 9.746299 9.216406 8.709200 8.227894
8.211925 7.894242 7.584302 7.280923 6.987053 6.706878 6.443281 6.195990 5.966744 5.756490 5.577349 5.471243 5.415601 5.374081 5.311743 5.217650 5.114296 5.039755 5.035923 5.128022 5.269644 5.442245 5.636413 5.843351 6.056833 6.271490 6.484851 6.711376 6.941799 7.172158 7.408476 7.656041 7.922687 8.227432 8.576810 8.957397 9.355908 9.755585 10.159657 10.567272 10.970158 11.336388 11.630994 11.946583 12.217148 12.431932 12.692284 13.104415 13.554226 13.883378 14.020746 14.042825 13.964749 13.780375 13.494283 13.120009 12.671055 12.161139 11.604297 11.020441 10.434396 9.874012 9.345277 8.841265 8.360160
8.779000 8.461392 8.148964 7.841788 7.543566 7.258111 6.988438 6.736500 6.502218 6.285322 6.088400 5.935441 5.833376 5.755020 5.674264 5.583089 5.499367 5.454398 5.478040 5.565847 5.691934 5.848823 6.030265 6.227108 6.434586 6.652399 6.892915 7.129200 7.364361 7.601308 7.843456 8.098273 8.369910 8.663651 9.015385 9.397441 9.790785 10.186922 10.589844 10.995651 11.394310 11.713793 12.029618 12.360650 12.568421 12.771151 13.064917 13.338965 13.838302 14.215845 14.374456 14.372099 14.269888 14.062371 13.749799 13.345580 12.868933 12.336802 11.762933 11.166276 10.576820 10.018997 9.494088 8.993658 8.511572
9.349401 9.031219 8.718356 8.408992 8.107602 7.818317 7.545737 7.290273 7.051564 6.830598 6.629044 6.447950 6.300254 6.185498 6.087418 6.000899 5.939386 5.924696 5.957744 6.029920 6.140416 6.280529 6.447653 6.637399 6.857662 7.098225 7.338581 7.577065 7.815463 8.057806 8.307939 8.568784 8.845351 9.140759 9.484203 9.863791 10.248368 10.639189 11.035013 11.433022 11.824117 12.175640 12.527863 12.840255 12.977399 13.207820 13.489979 13.724192 14.178812 14.555860 14.705386 14.671365 14.537974 14.303559 13.967028 13.539165 13.040606 12.489548 11.905677 11.309635 10.726518 10.174911 9.655436 9.158690 8.672691