64 64
6.898642 6.751013 6.604498 6.459704 6.319225 6.184579 6.057314 5.937695 5.826629 5.724250 5.629197 5.540625 5.458428 5.540384 5.653320 5.695419 5.648140 5.504115 5.288533 5.042488 4.817027 4.642062 4.529192 4.408176 4.277778 4.135335 3.979530 3.809349 3.625550 3.430362 3.226003 3.015144 2.800552 2.585054 2.370939 2.160419 1.956207 1.760954 1.576853 1.404976 1.247202 1.102342 0.968388 0.845252 0.733344 0.633693 0.545479 0.469226 0.490225 0.543903 0.588121 0.618221 0.631270 0.626202 0.602359 0.561203 0.518723 0.478006 0.438597 0.400970 0.366797 0.338145 0.314595 0.294825 0.331730
7.277826 7.120971 6.964283 6.809208 6.658329 6.513197 6.374755 6.244560 6.122621 6.010294 5.906825 5.811477 5.723035 5.780865 5.863186 5.884696 5.826048 5.681225 5.474319 5.242054 5.023575 4.843361 4.724462 4.598695 4.463287 4.315780 4.154449 3.977917 3.787035 3.584362 3.372617 3.154194 2.931556 2.707589 2.485209 2.266980 2.054834 1.851436 1.659404 1.480633 1.315364 1.161975 1.020675 0.891357 0.773648 0.668610 0.575878 0.495380 0.491923 0.548833 0.596090 0.629220 0.645096 0.642497 0.620657 0.579980 0.535452 0.493287 0.452602 0.413698 0.377431 0.346282 0.320558 0.298473 0.283278
7.665229 7.500866 7.334950 7.170158 7.009054 6.853725 6.704338 6.562515 6.428062 6.302857 6.187516 6.082201 5.983690 6.005286 6.048386 6.046260 5.977401 5.836998 5.646218 5.441432 5.226347 5.035539 4.910776 4.779564 4.639354 4.486751 4.319408 4.136160 3.938380 3.728514 3.509007 3.282762 3.052690 2.821066 2.590695 2.364548 2.145296 1.934702 1.735322 1.549692 1.377321 1.216106 1.067492 0.932121 0.809377 0.699385 0.602702 0.518436 0.496684 0.555302 0.604516 0.639548 0.657043 0.655791 0.635098 0.594897 0.548487 0.504986 0.463302 0.423405 0.385821 0.355303 0.379185 0.390675 0.334422
8.062978 7.887890 7.713269 7.539707 7.368755 7.202641 7.041338 6.887309 6.740639 6.602045 6.473258 6.353863 6.246611 6.248882 6.247141 6.218514 6.140171 6.005560 5.835038 5.643600 5.422517 5.216418 5.086339 4.949801 4.804280 4.646989 4.474051 4.284186 4.079121 3.861636 3.634678 3.400874 3.162921 2.923940 2.686474 2.452979 2.226440 2.009511 1.803791 1.611385 1.431890 1.263736 1.108268 0.967103 0.839823 0.725662 0.625414 0.538070 0.504428 0.563677 0.613668 0.649242 0.667181 0.666282 0.645839 0.605668 0.557703 0.512945 0.470527 0.429927 0.391646 0.411088 0.522901 0.571143 0.474423
8.481613 8.290266 8.101618 7.916863 7.735552 7.558273 7.384904 7.217673 7.058236 6.906652 6.764245 6.629375 6.567957 6.534541 6.490596 6.432434 6.342426 6.206109 6.037176 5.840457 5.614324 5.386103 5.250826 5.108809 4.957725 4.794796 4.616533 4.420523 4.208708 3.983921 3.749164 3.507572 3.262298 3.015845 2.771251 2.531335 2.298241 2.074883 1.863767 1.665085 1.478224 1.303910 1.142528 0.995824 0.864386 0.746888 0.643571 0.553875 0.515282 0.573937 0.623433 0.658351 0.675626 0.674061 0.652945 0.612088 0.562914 0.517098 0.474175 0.433172 0.394488 0.448597 0.597129 0.660001 0.545641
8.924843 8.713197 8.505149 8.303878 8.109680 7.921068 7.735998 7.555574 7.381959 7.215281 7.057085 6.943501 6.887007 6.824033 6.750974 6.665599 6.553993 6.406781 6.231868 6.030233 5.800700 5.544543 5.403379 5.256352 5.100161 4.931202 4.746233 4.543811 4.325512 4.094060 3.852198 3.603116 3.350104 3.096516 2.845124 2.598605 2.359878 2.130884 1.914126 1.709545 1.516123 1.335811 1.169501 1.017978 0.882693 0.762608 0.656872 0.565526 0.528930 0.585904 0.633763 0.666844 0.682351 0.679145 0.656585 0.614461 0.564681 0.518327 0.475350 0.434411 0.395732 0.414398 0.523431 0.568717 0.468989
9.392947 9.158663 8.928663 8.706285 8.493568 8.289905 8.091676 7.897727 7.709922 7.527254 7.373152 7.287159 7.198248 7.103576 6.999898 6.884884 6.752998 6.598706 6.417890 6.211381 5.979507 5.720364 5.543444 5.390860 5.230109 5.055572 4.863636 4.654444 4.429385 4.190968 3.942404 3.686624 3.426630 3.165825 2.907637 2.655106 2.410583 2.176900 1.954534 1.743761 1.544832 1.359125 1.188559 1.033236 0.894587 0.772484 0.665184 0.572794 0.545092 0.599397 0.644713 0.675245 0.688476 0.683194 0.658687 0.614912 0.565204 0.518978 0.476442 0.436111 0.397957 0.365365 0.384702 0.390423 0.327717
9.885438 9.628404 9.374076 9.128110 8.892299 8.667446 8.452095 8.242753 8.038686 7.861712 7.740802 7.622375 7.500572 7.372719 7.235886 7.093172 6.947175 6.782595 6.595776 6.383948 6.149119 5.889341 5.669646 5.511952 5.346105 5.166372 4.967772 4.751513 4.520133 4.275146 4.019663 3.757087 3.490842 3.223750 2.959129 2.700437 2.450797 2.211892 1.984298 1.767540 1.563673 1.373670 1.199222 1.041149 0.899869 0.776301 0.668313 0.575552 0.564196 0.615655 0.657863 0.685093 0.695367 0.687496 0.660748 0.615464 0.566587 0.521127 0.479458 0.440122 0.402852 0.368127 0.336415 0.306686 0.278122
10.397541 10.117486 9.838531 9.566241 9.305108 9.055931 8.818309 8.590175 8.408975 8.252026 8.099611 7.947515 7.791407 7.629686 7.463101 7.299614 7.137285 6.960876 6.765934 6.549543 6.310985 6.050640 5.782461 5.619746 5.448326 5.262189 5.057261 4.834426 4.596577 4.345720 4.084076 3.815095 3.542329 3.269392 2.999347 2.735160 2.480184 2.235912 2.002441 1.780783 1.572291 1.378971 1.201492 1.041417 0.898555 0.774009 0.666175 0.573774 0.587300 0.635233 0.673807 0.697484 0.704400 0.693381 0.663741 0.617044 0.569406 0.525120 0.484633 0.446604 0.410531 0.376884 0.346119 0.317103 0.288035
10.937158 10.629214 10.322083 10.021056 9.731644 9.456480 9.193300 8.962256 8.818968 8.631102 8.445119 8.258583 8.067459 7.876018 7.688647 7.504324 7.324095 7.133950 6.929326 6.707686 6.466512 6.205408 5.923388 5.716314 5.539336 5.345301 5.132659 4.902717 4.658111 4.401730 4.134724 3.860193 3.581732 3.302993 3.027650 2.759002 2.498634 2.248351 2.009320 1.783003 1.570979 1.374725 1.195370 1.033889 0.890522 0.765742 0.658801 0.570627 0.615167 0.659067 0.693279 0.712551 0.715285 0.700369 0.667177 0.619782 0.573783 0.531076 0.492106 0.455691 0.421120 0.388853 0.359319 0.331189 0.302695
11.505644 11.170371 10.834459 10.502145 10.178210 9.869010 9.576451 9.381498 9.217454 8.995567 8.775319 8.554200 8.336547 8.122919 7.914815 7.710440 7.510850 7.307035 7.091434 6.861428 6.617147 6.355783 6.074756 5.803467 5.620786 5.418540 5.197370 4.959993 4.707833 4.444165 4.171499 3.891813 3.608469 3.324917 3.044735 2.771001 2.505626 2.249419 2.004890 1.774461 1.559548 1.361137 1.180742 1.018689 0.875783 0.751646 0.646343 0.607509 0.647611 0.686556 0.715315 0.729403 0.727236 0.707782 0.670478 0.623850 0.579887 0.539144 0.502047 0.467542 0.434767 0.404168 0.376120 0.349024 0.321286
12.093086 11.733331 11.370780 11.008339 10.650057 10.302008 9.969966 9.821266 9.603022 9.344723 9.094831 8.851423 8.612095 8.376838 8.146480 7.920722 7.700510 7.482909 7.255963 7.017116 6.766763 6.504562 6.225069 5.929848 5.694548 5.483422 5.253384 5.007545 4.747844 4.476645 4.197415 3.911855 3.623354 3.335089 3.050383 2.771388 2.500189 2.238956 1.989761 1.755519 1.538071 1.338560 1.157660 0.996190 0.854494 0.732049 0.629067 0.647881 0.683244 0.716452 0.738782 0.747033 0.739372 0.714857 0.673685 0.629466 0.587921 0.549512 0.514654 0.482339 0.451638 0.422983 0.396631 0.370681 0.343830
12.853167 12.313317 11.924502 11.533390 11.142942 10.758578 10.512963 10.278876 9.983846 9.693526 9.419596 9.154503 8.894095 8.637229 8.385258 8.137605 7.895485 7.660394 7.422201 7.175027 6.917552 6.652180 6.374666 6.082205 5.768746 5.543643 5.303838 5.048142 4.780013 4.501084 4.214581 3.922746 3.628433 3.335216 3.044915 2.760025 2.482987 2.216821 1.964092 1.726682 1.507303 1.307098 1.126653 0.966620 0.826956 0.707248 0.665706 0.690153 0.720564 0.747219 0.762506 0.764350 0.750742 0.720780 0.678266 0.636887 0.598128 0.562402 0.530140 0.500278 0.471915 0.445461 0.420963 0.396234 0.370386
13.643819 13.123500 12.611722 12.148742 11.752060 11.411847 11.091284 10.746748 10.390296 10.059609 9.752792 9.464560 9.182579 8.904269 8.631160 8.362561 8.099504 7.843897 7.592878 7.336557 7.071763 6.801248 6.522606 6.232208 5.917339 5.599664 5.350452 5.085130 4.807366 4.519885 4.225334 3.926831 3.626048 3.325708 3.029110 2.738214 2.455370 2.184135 1.927902 1.688556 1.467641 1.267385 1.088258 0.930351 0.793659 0.704588 0.712733 0.732695 0.757990 0.777300 0.785256 0.780225 0.760365 0.735246 0.712707 0.682688 0.638880 0.588424 0.548735 0.521573 0.495787 0.471773 0.449218 0.425745 0.401005
14.412298 13.914346 13.414303 12.937241 12.492159 12.070271 11.648167 11.224803 10.826406 10.454814 10.108875 9.787704 9.484096 9.184779 8.890313 8.600591 8.316026 8.039449 7.772725 7.506206 7.233586 6.957147 6.675924 6.382629 6.065824 5.726018 5.394049 5.118433 4.831096 4.535130 4.232258 3.925877 3.617259 3.309113 3.004302 2.706392 2.418653 2.143043 1.882811 1.641319 1.420069 1.220194 1.042913 0.888016 0.767923 0.754295 0.758124 0.773887 0.793465 0.805132 0.805645 0.793521 0.788375 0.798112 0.806188 0.789611 0.739321 0.665165 0.591785 0.546437 0.523450 0.502089 0.481410 0.428744 0.352854
15.172031 14.653093 14.141701 13.643654 13.151793 12.667173 12.215610 11.795791 11.376143 10.945132 10.520714 10.139286 9.801647 9.480027 9.164186 8.853239 8.547649 8.249928 7.962594 7.685028 7.404332 7.121153 6.834999 6.534926 6.214213 5.872200 5.512622 5.153271 4.854260 4.547616 4.235636 3.920307 3.603122 3.286192 2.973133 2.667574 2.373571 2.094141 1.831048 1.586997 1.365089 1.166374 0.991539 0.856350 0.817370 0.800114 0.800222 0.812180 0.825143 0.829201 0.822333 0.813519 0.839580 0.887767 0.925187 0.921688 0.865877 0.769906 0.664582 0.585442 0.555099 0.536502 0.455352 0.295287 0.140926
15.954060 15.390311 14.845443 14.312391 13.791378 13.321074 12.917253 12.520405 12.082507 11.588068 11.063752 10.565172 10.147213 9.792068 9.453436 9.121332 8.794614 8.475748 8.167648 7.872997 7.583911 7.293697 7.000363 6.691578 6.363576 6.018394 5.655848 5.281133 4.897368 4.563474 4.239360 3.912235 3.584846 3.258723 2.937203 2.624337 2.323489 2.038754 1.773024 1.527624 1.304798 1.107027 0.970814 0.902657 0.860500 0.840379 0.837516 0.845712 0.851443 0.848095 0.834079 0.836231 0.889714 0.967545 1.027258 1.034411 0.976056 0.865880 0.738749 0.635853 0.590916 0.544506 0.356185 0.093191 0.000000
16.830820 16.186939 15.575531 15.007886 14.481515 14.057532 13.695008 13.319338 12.863706 12.308416 11.688121 11.074991 10.543053 10.130469 9.758656 9.403361 9.055523 8.715803 8.386805 8.071185 7.769924 7.471488 7.170065 6.852930 6.516783 6.166106 5.800650 5.421926 5.034226 4.640736 4.247451 3.907428 3.567423 3.230131 2.899943 2.579396 2.272156 1.981368 1.710966 1.463849 1.250547 1.114604 1.011713 0.940294 0.895770 0.873661 0.868707 0.872377 0.870948 0.860560 0.839788 0.847932 0.915778 1.007300 1.077725 1.083446 1.024857 0.923038 0.790688 0.680866 0.631071 0.534688 0.268246 0.000000 0.000000
17.865175 17.156263 16.408342 15.735745 15.204568 14.807271 14.463719 14.093636 13.619985 13.014381 12.317069 11.610728 10.983314 10.495572 10.085644 9.697878 9.327313 8.967449 8.619456 8.285212 7.965184 7.654247 7.342076 7.014689 6.670465 6.312114 5.942610 5.560299 5.168441 4.769493 4.368422 3.969912 3.580001 3.206626 2.864892 2.535450 2.221422 1.925292 1.679430 1.468314 1.292343 1.150869 1.043399 0.968156 0.922003 0.898826 0.892285 0.890594 0.882452 0.865544 0.841542 0.846114 0.908757 0.995680 1.057728 1.043733 0.988918 0.920437 0.815001 0.713913 0.675588 0.557093 0.263078 0.000000 0.000000
18.837284 18.183493 17.391943 16.569349 15.931327 15.520118 15.164692 14.773818 14.274575 13.633037 12.885618 12.119783 11.430622 10.884858 10.434440 10.009385 9.611490 9.232194 8.866087 8.513695 8.173702 7.843552 7.516318 7.177263 6.824353 6.458898 6.083710 5.698634 5.302325 4.897766 4.488295 4.081150 3.681920 3.295962 2.927853 2.582700 2.265910 1.981340 1.728807 1.509530 1.325971 1.178366 1.065995 0.986725 0.938279 0.914975 0.906451 0.899225 0.885003 0.865213 0.846014 0.837986 0.878518 0.944816 0.992540 0.975866 0.932259 0.886882 0.812978 0.741895 0.724218 0.631576 0.368469 0.035018 0.000000
19.571651 19.000702 18.287088 17.442715 16.676811 16.180050 15.779108 15.344256 14.807144 14.139143 13.370110 12.583050 11.872028 11.299683 10.807654 10.344303 9.911283 9.510230 9.126158 8.755535 8.396029 8.045692 7.696255 7.343301 6.983367 6.612007 6.230508 5.839515 5.438188 5.027593 4.610923 4.194290 3.783199 3.384852 3.006522 2.652305 2.325285 2.030516 1.770587 1.544501 1.353426 1.199070 1.080953 0.997707 0.946144 0.921034 0.909995 0.897482 0.882138 0.867661 0.853964 0.840972 0.849743 0.885633 0.919224 0.916573 0.888898 0.853881 0.808421 0.781827 0.776696 0.738179 0.556500 0.299698 0.077269
20.168222 19.627817 18.981627 18.214170 17.410055 16.806786 16.336908 15.837490 15.252992 14.565002 13.799664 13.023577 12.321037 11.741201 11.210382 10.707453 10.236454 9.802760 9.399670 9.009951 8.632664 8.262753 7.893596 7.522192 7.147291 6.766994 6.377861 5.979814 5.572858 5.156203 4.732234 4.306547 3.885068 3.473972 3.081332 2.715239 2.379096 2.074363 1.804485 1.571725 1.374562 1.213861 1.090095 1.002643 0.947648 0.919890 0.903246 0.892154 0.882598 0.873895 0.865889 0.858441 0.851411 0.855537 0.868517 0.871804 0.860514 0.844870 0.836574 0.836218 0.832930 0.826696 0.755487 0.604633 0.458708
20.752563 20.259684 19.610109 18.884851 18.106304 17.441105 16.891941 16.321314 15.689206 14.985171 14.234731 13.489358 12.814286 12.210032 11.638720 11.097271 10.588618 10.116883 9.684621 9.277110 8.882975 8.496589 8.109469 7.718830 7.324362 6.925864 6.523277 6.116488 5.702413 5.280430 4.850002 4.415733 3.984252 3.561822 3.155556 2.774755 2.426314 2.112516 1.833120 1.591062 1.388503 1.230707 1.116969 1.032567 0.967919 0.922520 0.899730 0.891950 0.887276 0.884453 0.882268 0.880461 0.878814 0.877850 0.878287 0.880342 0.884086 0.888533 0.892568 0.894262 0.892791 0.888295 0.880942 0.840415 0.775628
21.412338 21.019821 20.385015 19.621542 18.827995 18.125788 17.504757 16.868113 16.192720 15.476461 14.742794 14.031216 13.353870 12.705110 12.092325 11.512232 10.964766 10.454135 9.984419 9.555607 9.145595 8.743077 8.339898 7.932191 7.519421 7.101704 6.680161 6.254860 5.827275 5.397192 4.960715 4.519229 4.078760 3.645630 3.227378 2.833092 2.471327 2.146271 1.858124 1.606772 1.411490 1.279167 1.185962 1.111364 1.042815 0.979277 0.925369 0.899958 0.898464 0.899949 0.903533 0.907385 0.911147 0.915524 0.921257 0.928530 0.941200 1.024352 1.082261 1.034652 0.960293 0.953308 0.947554 0.939027 0.927936
22.211035 21.909565 21.299189 20.467497 19.614489 18.856846 18.198534 17.524832 16.817652 16.090397 15.357598 14.631612 13.918303 13.227656 12.570543 11.949488 11.362605 10.813076 10.307945 9.849366 9.421900 9.002884 8.583524 8.159334 7.729475 7.293363 6.852351 6.408601 5.962411 5.516218 5.067770 4.616177 4.174267 3.745633 3.324438 2.912654 2.523750 2.178497 1.881068 1.630280 1.457388 1.352299 1.284377 1.223023 1.150644 1.068969 0.985420 0.927240 0.918527 0.922981 0.930226 0.939520 0.948665 0.958428 0.969490 0.981891 1.073684 1.289926 1.405293 1.303951 1.101516 1.021508 1.017297 1.010195 1.000391
23.106581 22.841566 22.203327 21.286478 20.359570 19.560995 18.895239 18.224314 17.512625 16.769737 16.008926 15.249788 14.503700 13.777202 13.077240 12.411222 11.782492 11.196054 10.624624 10.082577 9.606809 9.192770 8.808007 8.397058 7.949749 7.496362 7.036982 6.575454 6.111999 5.649129 5.187987 4.740214 4.315156 3.898610 3.477808 3.050624 2.629678 2.243325 1.919963 1.677593 1.523135 1.436126 1.385229 1.332084 1.256273 1.159090 1.053628 0.971698 0.947753 0.955040 0.964941 0.977319 0.991564 1.006721 1.023112 1.040337 1.187041 1.460946 1.601426 1.478492 1.222195 1.092621 1.089887 1.084133 1.075019
23.922937 23.598331 22.883705 21.914469 20.974575 20.188484 19.556038 18.912802 18.205679 17.456099 16.676102 15.887774 15.108245 14.345771 13.607273 12.899258 12.230484 11.541894 10.824106 10.166405 9.632394 9.224524 8.901226 8.581669 8.179256 7.708328 7.231587 6.752401 6.271661 5.793339 5.327450 4.899204 4.494412 4.091241 3.672212 3.231721 2.782002 2.355588 1.991202 1.740311 1.590749 1.509415 1.460663 1.409373 1.330525 1.224399 1.108413 1.017273 0.986587 0.996137 1.008489 1.023111 1.040160 1.060505 1.082005 1.103452 1.201370 1.421504 1.540376 1.442431 1.243254 1.166318 1.164567 1.158979 1.149574
24.384558 23.942657 23.191135 22.301073 21.450695 20.745714 20.180494 19.581766 18.886330 18.138529 17.350477 16.541418 15.731874 14.932906 14.156457 13.411686 12.673961 11.837845 10.976501 10.429856 9.929576 9.454780 8.987206 8.694781 8.383706 7.925729 7.432571 6.937835 6.441847 5.948722 5.484118 5.071035 4.683176 4.290969 3.872440 3.420394 2.948661 2.491073 2.092707 1.813066 1.651998 1.559651 1.500325 1.441919 1.361126 1.255550 1.143234 1.059220 1.035688 1.046161 1.060715 1.077314 1.096457 1.119884 1.146192 1.169831 1.205170 1.314946 1.388100 1.338939 1.252772 1.240535 1.238842 1.233143 1.223456
24.470407 23.975643 23.285686 22.541616 21.846851 21.268253 20.788937 20.223734 19.545464 18.808023 18.019672 17.198008 16.365992 15.538969 14.729506 13.946489 13.116916 12.162198 11.413651 10.823103 10.279220 9.770432 9.276453 8.817053 8.569781 8.147784 7.638307 7.128320 6.619453 6.113370 5.644926 5.234118 4.852308 4.463804 4.043618 3.583358 3.097749 2.623875 2.207110 1.899294 1.712103 1.592669 1.511952 1.439672 1.358081 1.262215 1.167551 1.105557 1.097286 1.106157 1.121369 1.139594 1.160813 1.185726 1.212767 1.259526 1.339333 1.420410 1.461329 1.445772 1.389838 1.334738 1.311992 1.306185 1.276608
24.413139 23.944263 23.363071 22.765381 22.241718 21.804930 21.383322 20.836185 20.180986 19.460007 18.678732 17.853157 17.006649 16.157860 15.319216 14.500671 13.609245 12.586001 11.868016 11.233467 10.643827 10.094160 9.570336 9.055852 8.784120 8.371426 7.847025 7.322544 6.801815 6.285609 5.801934 5.378356 4.987021 4.590874 4.164903 3.700562 3.212839 2.739714 2.325886 2.011057 1.787327 1.631873 1.521674 1.432199 1.349583 1.270415 1.202967 1.171345 1.170187 1.176590 1.190039 1.207995 1.230408 1.255113 1.291134 1.396107 1.549384 1.683973 1.744870 1.710739 1.602670 1.475421 1.394628 1.338247 1.237809
24.475269 24.051319 23.561846 23.086712 22.697130 22.354153 21.947025 21.414188 20.790689 20.094500 19.329899 18.509430 17.653801 16.785187 15.920547 15.070496 14.166162 13.134253 12.335066 11.658517 11.023755 10.429233 9.867797 9.330801 9.047029 8.595672 8.058286 7.521677 6.989826 6.465326 5.960428 5.509593 5.093061 4.678484 4.241690 3.777383 3.300987 2.846163 2.452832 2.149823 1.903737 1.756461 1.649088 1.510294 1.377343 1.313686 1.275827 1.259432 1.254344 1.256993 1.267024 1.282648 1.302948 1.326540 1.389308 1.557184 1.771945 1.951034 2.028420 1.978911 1.827486 1.639432 1.474996 1.320313 1.150208
24.752869 24.375637 23.948057 23.538591 23.188761 22.864588 22.457909 21.951681 21.367594 20.703842 19.964449 19.157583 18.302275 17.419857 16.531963 15.652076 14.763853 13.772363 12.813602 12.093004 11.415663 10.776525 10.172764 9.727588 9.343096 8.824369 8.274270 7.727569 7.186854 6.654838 6.136160 5.648547 5.196129 4.756276 4.307759 3.847680 3.391142 2.967490 2.607137 2.307687 2.100387 2.021427 1.930271 1.741829 1.520488 1.415260 1.382771 1.361519 1.351977 1.350734 1.355746 1.366768 1.382529 1.402163 1.489088 1.692226 1.940899 2.145201 2.231962 2.173742 1.997586 1.774518 1.538946 1.306411 1.084193
25.105394 24.792128 24.398579 23.997839 23.638895 23.303196 22.919102 22.452162 21.905920 21.279877 20.571619 19.785318 18.938665 18.054182 17.151318 16.244955 15.352808 14.430076 13.468124 12.557994 11.813720 11.136786 10.620008 10.144593 9.624994 9.060667 8.499568 7.942721 7.393503 6.854528 6.331229 5.822159 5.332994 4.866909 4.408092 3.955948 3.524220 3.135252 2.792540 2.484799 2.302037 2.253321 2.172365 1.961437 1.694462 1.545442 1.507705 1.481695 1.466959 1.460523 1.459106 1.464175 1.473403 1.486934 1.569259 1.770122 2.016793 2.220254 2.306849 2.248246 2.071619 1.847958 1.596183 1.343248 1.099149
25.388544 25.144070 24.789850 24.389210 24.015326 23.683884 23.341413 22.919418 22.411226 21.823269 21.147892 20.387058 19.556223 18.676308 17.766449 16.843319 15.922201 15.023554 14.131677 13.260408 12.459831 11.755703 11.124907 10.510225 9.894861 9.304344 8.733111 8.168047 7.611525 7.068028 6.541298 6.030492 5.531641 5.049564 4.585225 4.142439 3.729158 3.347262 2.997139 2.682371 2.458906 2.366309 2.260862 2.055228 1.818059 1.698578 1.655071 1.622665 1.600422 1.586570 1.578458 1.576365 1.578237 1.584128 1.633143 1.791715 2.000645 2.177356 2.254126 2.203670 2.050671 1.860466 1.659783 1.449008 1.218406
25.585958 25.418402 25.112812 24.735155 24.359097 24.037203 23.724970 23.349693 22.884434 22.331970 21.692270 20.961397 20.150253 19.278795 18.369040 17.436562 16.493929 15.564301 14.667275 13.810380 12.993254 12.235417 11.522305 10.841975 10.192361 9.573987 8.978530 8.408469 7.848103 7.302001 6.774104 6.260473 5.762153 5.282066 4.821651 4.382448 3.968929 3.582295 3.226027 2.904183 2.626040 2.438805 2.284063 2.103951 1.946976 1.873482 1.823869 1.785300 1.754076 1.731385 1.715064 1.705136 1.699184 1.696781 1.708932 1.794766 1.936639 2.065877 2.124304 2.088267 1.977412 1.846499 1.741576 1.606771 1.420283
25.697714 25.624100 25.388695 25.056410 24.693636 24.370739 24.073902 23.742661 23.322670 22.808193 22.201803 21.502974 20.716351 19.860359 18.954102 18.015530 17.059841 16.107456 15.179868 14.287810 13.450387 12.656781 11.903872 11.189183 10.508572 9.863512 9.251099 8.670453 8.107849 7.561042 7.032447 6.516903 6.017453 5.539088 5.083238 4.647216 4.232827 3.842545 3.480941 3.152565 2.863741 2.619501 2.420148 2.264425 2.149516 2.069993 2.011956 1.966538 1.927581 1.896185 1.870844 1.851370 1.836508 1.825290 1.735151 1.626274 1.813516 1.966399 2.001014 1.980653 1.919664 1.858832 1.829313 1.771301 1.647807
25.733707 25.765839 25.615088 25.341515 25.018299 24.693010 24.396839 24.098083 23.724554 23.250740 22.679434 22.010141 21.251394 20.414396 19.517431 18.576786 17.611248 16.644470 15.693521 14.778556 13.914751 13.089091 12.302584 11.554679 10.844871 10.175526 9.546747 8.957397 8.393342 7.846318 7.315790 6.799206 6.299543 5.822854 5.369578 4.935462 4.519378 4.125842 3.759803 3.425115 3.128598 2.876009 2.667530 2.503285 2.379071 2.288858 2.220945 2.166636 2.119802 2.080727 2.046150 2.016869 1.991676 1.970079 1.742790 1.519763 1.732173 1.957749 1.967951 1.960481 1.939695 1.921800 1.910006 1.888276 1.830987
25.703794 25.837946 25.790707 25.595354 25.316660 24.996250 24.697123 24.417946 24.087612 23.656170 23.121601 22.485886 21.754671 20.939323 20.055294 19.118307 18.149010 17.169975 16.201050 15.272531 14.378908 13.525297 12.714301 11.938558 11.202295 10.509228 9.864004 9.269073 8.704704 8.158504 7.626146 7.107222 6.607751 6.131251 5.677837 5.243304 4.826378 4.430564 4.062549 3.763123 3.490025 3.200989 2.939744 2.763148 2.629274 2.528472 2.449993 2.386390 2.331375 2.283929 2.240781 2.200664 2.164861 2.132073 2.020475 1.869384 1.977500 2.024992 1.980149 1.957220 1.965906 1.990225 1.994604 1.967738 1.926090
25.627354 25.855902 25.908556 25.798700 25.571953 25.279623 24.973997 24.704809 24.412001 24.023046 23.526314 22.925291 22.223001 21.433834 20.566534 19.637970 18.668987 17.681835 16.697773 15.753607 14.838291 13.960970 13.127515 12.331301 11.574711 10.863137 10.201350 9.602743 9.038353 8.492288 7.958572 7.437998 6.935582 6.456302 6.002313 5.567684 5.150095 4.752881 4.419644 4.183811 3.938002 3.615753 3.274596 3.044224 2.899794 2.755751 2.611671 2.514543 2.476585 2.474668 2.454088 2.403460 2.355280 2.310501 2.269668 2.233394 2.158237 2.033427 1.919885 1.867324 1.889998 1.964860 2.040643 2.052071 2.004658
25.524456 25.828682 25.972574 25.939861 25.772585 25.524691 25.229712 24.962353 24.699600 24.350868 23.892803 23.325876 22.655731 21.892492 21.048248 20.133284 19.167749 18.176199 17.181009 16.219261 15.284901 14.390494 13.537813 12.723807 11.950495 11.224485 10.548548 9.946970 9.382370 8.836200 8.301413 7.780458 7.276389 6.795715 6.340992 5.907184 5.489500 5.091847 4.779707 4.564865 4.326365 3.990459 3.615774 3.348002 3.128013 2.860041 2.622675 2.484959 2.467886 2.539122 2.621610 2.625263 2.564188 2.505456 2.451217 2.380214 2.214165 2.002379 1.822810 1.739657 1.773540 1.894490 2.037285 2.120163 2.088421
25.393450 25.751310 25.978823 26.031425 25.929632 25.723829 25.456274 25.193256 24.950836 24.644472 24.221535 23.688726 23.050360 22.314629 21.493752 20.597097 19.641891 18.651203 17.646915 16.666088 15.714877 14.804524 13.937942 13.108988 12.321582 11.583573 10.904463 10.293889 9.728089 9.182611 8.649710 8.130020 7.627544 7.147819 6.692897 6.260032 5.843910 5.446242 5.107386 4.856410 4.597948 4.269672 3.921364 3.643060 3.299907 2.914188 2.588802 2.412070 2.413044 2.550797 2.729734 2.834305 2.792424 2.718278 2.648642 2.525499 2.288542 2.009257 1.759974 1.618836 1.641200 1.806938 2.026881 2.177949 2.177224
25.250788 25.644873 25.944632 26.081142 26.049658 25.892143 25.653996 25.396788 25.168478 24.903288 24.518610 24.015154 23.407162 22.699936 21.902147 21.026365 20.086441 19.101906 18.093746 17.092028 16.125416 15.197954 14.318506 13.479596 12.682619 11.934529 11.257785 10.640946 10.071519 9.527600 8.998773 8.483711 7.985366 7.507739 7.054301 6.623725 6.209747 5.814417 5.441725 5.125174 4.831704 4.523642 4.237104 3.936756 3.502022 3.029460 2.638996 2.431763 2.442364 2.624166 2.849713 2.991538 2.975127 2.899974 2.844285 2.705544 2.432072 2.080842 1.737275 1.529199 1.526670 1.714239 1.993213 2.223613 2.270926
25.121008 25.524517 25.881424 26.095394 26.132059 26.029081 25.822325 25.577625 25.358133 25.125233 24.783312 24.310419 23.729105 23.046959 22.273626 21.421255 20.497929 19.522810 18.515738 17.501539 16.514585 15.570675 14.676541 13.828905 13.026273 12.281887 11.602211 10.981897 10.410204 9.868289 9.344985 8.836268 8.343081 7.870957 7.421393 6.994814 6.585139 6.191880 5.819265 5.471527 5.152145 4.864097 4.610308 4.280840 3.807812 3.298738 2.879396 2.654943 2.662181 2.814505 2.989003 3.098189 3.073326 2.999782 2.973508 2.898272 2.646142 2.231817 1.823577 1.560517 1.523095 1.701503 1.996829 2.261341 2.350507
25.016581 25.404083 25.795902 26.075489 26.178579 26.125275 25.955687 25.732420 25.521767 25.312992 25.014797 24.575668 24.018185 23.359163 22.608181 21.778131 20.873661 19.909019 18.906225 17.889444 16.883245 15.915433 15.003926 14.146255 13.349689 12.609843 11.931236 11.312167 10.740026 10.199543 9.681457 9.181128 8.696822 8.232465 7.789213 7.369143 6.965419 6.576567 6.207668 5.864141 5.547501 5.260390 5.004666 4.695742 4.246215 3.758130 3.350831 3.124421 3.095234 3.149676 3.218755 3.236905 3.153699 3.078968 3.078892 3.083088 2.900822 2.489565 2.056093 1.758985 1.682036 1.820863 2.083936 2.327160 2.420304
24.947701 25.300835 25.697536 26.020983 26.182907 26.177402 26.050549 25.855978 25.656044 25.469673 25.212912 24.812218 24.277607 23.638710 22.907757 22.095427 21.209978 20.257097 19.258869 18.237146 17.220188 16.236673 15.307180 14.440908 13.640598 12.904528 12.231671 11.617438 11.050701 10.515865 10.004151 9.513985 9.041397 8.587786 8.154232 7.742610 7.347670 6.966719 6.604655 6.267092 5.956289 5.672066 5.416258 5.159076 4.787390 4.370634 4.011778 3.796971 3.705663 3.623748 3.478652 3.278619 3.095781 3.082343 3.186743 3.276436 3.182566 2.837246 2.418979 2.110518 1.993989 2.069701 2.257604 2.428481 2.509666
24.907455 25.218515 25.598234 25.937124 26.140715 26.182999 26.104597 25.940948 25.758804 25.598356 25.379681 25.019886 24.512531 23.889482 23.173792 22.376488 21.506287 20.563362 19.542078 18.472380 17.423580 16.447466 15.551120 14.701706 13.896360 13.162707 12.498401 11.891225 11.331300 10.808722 10.309134 9.831056 9.373293 8.932726 8.512054 8.112933 7.730695 7.361038 7.008594 6.679154 6.375758 6.096785 5.843235 5.617055 5.355077 5.019430 4.694923 4.483648 4.314453 4.004449 3.540726 3.072228 2.816072 2.881720 3.159688 3.433039 3.475247 3.215219 2.846078 2.547466 2.394856 2.393568 2.477964 2.576699 2.632403
24.889294 25.164171 25.509340 25.843264 26.075214 26.161749 26.122408 25.989454 25.833063 25.699989 25.518108 25.198599 24.721428 24.113525 23.407827 22.621239 21.758587 20.776100 19.668818 18.525068 17.418867 16.416807 15.559597 14.814288 14.097977 13.387074 12.731153 12.132415 11.581334 11.071784 10.589802 10.129074 9.687718 9.264610 8.861396 8.478543 8.112106 7.756673 7.417341 7.098478 6.803301 6.531323 6.282297 6.035813 5.755321 5.433556 5.147138 4.955276 4.688644 4.140712 3.452298 3.086099 2.841100 2.681133 3.099564 3.549715 3.748838 3.559654 3.247766 2.972957 2.790994 2.721805 2.737936 2.779712 2.777206
24.889006 25.133572 25.450735 25.773607 26.015800 26.129978 26.122149 26.017612 25.885183 25.776749 25.631947 25.349632 24.901745 24.309498 23.609911 22.825800 21.941248 20.881483 19.691936 18.441051 17.228418 16.179585 15.350410 14.707286 14.139047 13.534616 12.928905 12.342914 11.804811 11.308235 10.842885 10.403297 9.995880 9.603639 9.213902 8.837864 8.488854 8.151180 7.827432 7.521132 7.235544 6.972506 6.685489 6.343647 5.929692 5.542396 5.274328 5.104271 4.808739 4.183264 3.759073 3.499127 3.235250 2.970794 3.194504 3.732839 4.020236 3.909164 3.633110 3.377164 3.185738 3.077307 3.030154 2.994955 2.915519
24.907763 25.129150 25.420742 25.727436 25.971468 26.103502 26.119925 26.036736 25.922571 25.836092 25.723557 25.474125 25.051914 24.473839 23.775558 22.986267 22.060205 20.940559 19.675091 18.309929 17.228153 16.194532 15.213189 14.529073 14.080119 13.597138 13.075033 12.524999 12.002614 11.520345 11.072906 10.663929 10.295619 9.936690 9.567875 9.198186 8.858085 8.541821 8.253327 7.978069 7.693600 7.397103 7.040414 6.593897 6.073917 5.615408 5.328389 5.178833 4.931626 4.483755 4.217678 3.942257 3.660619 3.376393 3.564705 4.074595 4.327045 4.240997 4.003249 3.768615 3.568210 3.415571 3.296562 3.176122 3.045167
24.948809 25.153917 25.421574 25.710285 25.951527 26.091669 26.121407 26.051960 25.952742 25.884382 25.797184 25.573969 25.171532 24.604132 23.902632 23.102638 22.152023 21.008081 19.693216 18.415720 17.360039 16.329313 15.350599 14.442739 14.046077 13.638882 13.179099 12.679229 12.175443 11.711727 11.283579 10.900962 10.557954 10.224490 9.882957 9.537959 9.216331 8.932924 8.688847 8.447034 8.171472 7.819861 7.399542 6.897816 6.329752 5.963757 5.731844 5.494226 5.315350 4.979659 4.701820 4.412150 4.113986 3.852022 4.207006 4.572618 4.708017 4.564285 4.319363 4.090134 3.877809 3.683312 3.506461 3.344407 3.194647
25.016367 25.206541 25.451658 25.721943 25.952158 26.091825 26.129574 26.069063 25.979237 25.924683 25.855396 25.651554 25.263134 24.700445 23.991165 23.177254 22.234121 21.107071 19.803165 18.504438 17.454477 16.429688 15.457103 14.554272 14.114290 13.712338 13.279317 12.809869 12.326394 11.884339 11.477880 11.112229 10.783049 10.468614 10.154577 9.842179 9.545522 9.285017 9.065725 8.848509 8.591376 8.231883 7.796752 7.314178 6.773816 6.485694 6.258692 6.021292 6.007784 5.813106 5.443547 5.066375 4.833766 4.831421 5.012599 5.183787 5.154235 4.916303 4.647420 4.392637 4.153708 3.933019 3.729865 3.544348 3.373381
25.120039 25.284941 25.500513 25.746735 25.961037 26.096512 26.136782 26.085352 26.004704 25.958427 25.901150 25.708975 25.327984 24.763447 24.042654 23.212132 22.293070 21.218456 19.989529 18.639687 17.507549 16.492016 15.528587 14.749104 14.289729 13.835402 13.393009 12.920815 12.457788 12.039961 11.657153 11.308032 10.991252 10.694758 10.400583 10.112273 9.838869 9.585692 9.370597 9.163731 8.930416 8.625975 8.251924 7.850998 7.405447 7.031953 6.826394 6.807786 6.880065 6.837692 6.580593 6.255589 5.990586 5.884736 5.876283 5.814102 5.597242 5.296943 5.005535 4.726243 4.461556 4.215345 3.986491 3.777534 3.584898
25.260204 25.386690 25.570562 25.789324 25.979847 26.103214 26.142279 26.098408 26.029467 25.988686 25.938227 25.749157 25.366650 24.793564 24.056927 23.207655 22.296381 21.293100 20.173712 18.945255 17.725103 16.640276 15.762081 15.078759 14.504257 13.988084 13.507771 13.013752 12.572382 12.179775 11.822033 11.496648 11.200817 10.917073 10.637869 10.366938 10.105393 9.855847 9.634043 9.429800 9.226162 9.016281 8.747810 8.449224 8.146370 7.885984 7.740593 7.719349 7.766974 7.766580 7.591270 7.306467 7.027761 6.815221 6.610397 6.342650 6.024323 5.704973 5.392645 5.090802 4.802288 4.531637 4.279191 4.046330 3.831867
25.428398 25.510023 25.660557 25.848061 26.008688 26.111500 26.142952 26.107117 26.054422 26.021305 25.967546 25.773115 25.380245 24.791721 24.039217 23.177069 22.254908 21.284147 20.254881 19.161179 18.052120 17.019445 16.120422 15.349580 14.690098 14.121825 13.585011 13.088552 12.670063 12.303995 11.973044 11.673366 11.400083 11.130027 10.865072 10.607013 10.358666 10.123193 9.903852 9.707998 9.539078 9.397434 9.236493 9.040608 8.864260 8.728170 8.642131 8.605390 8.569742 8.455640 8.252116 8.002527 7.730682 7.438859 7.129804 6.806787 6.473399 6.137107 5.806193 5.484018 5.174011 4.880793 4.606042 4.350166 4.114002
25.596676 25.651339 25.771856 25.919327 26.047758 26.123960 26.141954 26.116636 26.083002 26.056601 25.990053 25.780832 25.369865 24.766218 24.003542 23.129744 22.195839 21.213589 20.194210 19.170414 18.157488 17.179180 16.281006 15.488417 14.798008 14.176157 13.618282 13.145714 12.751194 12.412091 12.108178 11.836085 11.580717 11.327316 11.080333 10.839362 10.607105 10.387417 10.186967 10.011937 9.866603 9.751100 9.662003 9.572976 9.483832 9.417779 9.369666 9.310477 9.193234 9.005966 8.776739 8.520973 8.241449 7.940664 7.621419 7.286998 6.940762 6.590187 6.243401 5.903481 5.574591 5.261856 4.966397 4.689648 4.432504
25.761520 25.824049 25.921896 26.017838 26.098213 26.147800 26.152018 26.132231 26.113768 26.090439 26.006163 25.772011 25.337305 24.715740 23.936419 23.047527 22.100679 21.108809 20.079645 19.049528 18.056316 17.126913 16.266520 15.482841 14.781432 14.162406 13.629396 13.182899 12.813388 12.501166 12.226134 11.980910 11.745291 11.513625 11.289079 11.068799 10.856387 10.656834 10.477780 10.325373 10.203082 10.112967 10.050457 10.011034 9.987143 9.961125 9.915177 9.834589 9.708050 9.530048 9.301311 9.041832 8.757079 8.450005 8.123306 7.780068 7.423506 7.061962 6.702463 6.347966 6.003592 5.674129 5.360570 5.065820 4.790071
25.994663 26.074741 26.133690 26.156582 26.167500 26.177845 26.166193 26.151001 26.146803 26.120243 26.014172 25.746469 25.280174 24.627958 23.821960 22.912090 21.951429 20.951738 19.918407 18.888802 17.902666 16.986485 16.148603 15.391380 14.715588 14.123171 13.617035 13.197830 12.854236 12.569918 12.324572 12.106342 11.895956 11.692556 11.495274 11.300904 11.114008 10.938707 10.783635 10.655166 10.557655 10.492822 10.456844 10.443640 10.444191 10.436790 10.405811 10.337044 10.219781 10.048934 9.823420 9.561744 9.273898 8.962714 8.631369 8.282345 7.918840 7.549729 7.180740 6.815424 6.459742 6.117138 5.789425 5.479949 5.188138
26.287191 26.379807 26.396290 26.345629 26.263973 26.204594 26.178358 26.176296 26.180483 26.145966 26.011335 25.700735 25.190651 24.495909 23.651358 22.713932 21.737495 20.732788 19.702105 18.682150 17.708612 16.811457 15.998039 15.267810 14.620331 14.056911 13.579456 13.186998 12.870534 12.615098 12.402054 12.214630 12.035706 11.866538 11.702095 11.539608 11.382236 11.234926 11.106022 11.004128 10.933047 10.893927 10.883755 10.895252 10.915103 10.922065 10.902177 10.841391 10.730366 10.564415 10.342227 10.079026 9.789613 9.476809 9.143187 8.790922 8.424067 8.051319 7.676696 7.304751 6.941620 6.589567 6.250776 5.928790 5.623302
26.543119 26.635757 26.622639 26.515965 26.368822 26.236349 26.195059 26.207748 26.213959 26.166126 25.992025 25.628920 25.063349 24.317358 23.430248 22.460800 21.465481 20.453880 19.428501 18.423315 17.470449 16.598434 15.793666 15.059729 14.426002 13.907787 13.504102 13.164236 12.869745 12.636908 12.458642 12.306644 12.165754 12.036271 11.909984 11.784042 11.660588 11.544280 11.445298 11.372396 11.329422 11.317013 11.331474 11.365210 11.399002 11.416636 11.404559 11.348598 11.241330 11.078528 10.858588 10.595949 10.306739 9.993709 9.659714 9.306778 8.939070 8.564571 8.187462 7.812751 7.445028 7.086151 6.739063 6.407154 6.091318
26.684504 26.761812 26.733223 26.607544 26.430134 26.265339 26.217323 26.243649 26.249254 26.175817 25.948048 25.524330 24.899696 24.099762 23.166082 22.162622 21.147499 20.128807 19.105312 18.114355 17.188932 16.308937 15.466012 14.710710 14.086147 13.628417 13.325818 13.093356 12.862362 12.644159 12.492486 12.381413 12.285812 12.201051 12.117195 12.031851 11.945661 11.865156 11.800416 11.759052 11.746046 11.761835 11.800928 11.850805 11.895199 11.921105 11.913718 11.860601 11.755175 11.594040 11.375344 11.115543 10.828788 10.517580 10.184041 9.831632 9.465055 9.090840 8.712948 8.336599 7.965735 7.602145 7.249225 6.910952 6.589014
26.675018 26.732653 26.705893 26.594349 26.424982 26.279202 26.252396 26.288879 26.282396 26.162931 25.871487 25.381174 24.694321 23.834629 22.851418 21.814644 20.779743 19.755032 18.738129 17.762796 16.847269 15.930223 15.052043 14.278903 13.666668 13.265403 13.053296 12.927819 12.797693 12.623669 12.503406 12.440283 12.394298 12.358281 12.320583 12.279484 12.235349 12.195220 12.167684 12.160816 12.180541 12.225153 12.284948 12.346119 12.399150 12.430161 12.424646 12.372393 12.267564 12.106726 11.889853 11.634829 11.352765 11.045332 10.715296 10.365369 10.000675 9.627953 9.250782 8.874098 8.501099 8.134646 7.779024 7.437724 7.111333
26.534336 26.575500 26.565310 26.492746 26.372990 26.289007 26.305859 26.343056 26.299892 26.117069 25.753420 25.189518 24.433447 23.510710 22.477524 21.410818 20.361919 19.332573 18.324852 17.371275 16.448927 15.510442 14.616821 13.841939 13.248599 12.884212 12.732739 12.691999 12.654531 12.563882 12.495182 12.481874 12.489305 12.504678 12.517043 12.523489 12.524960 12.528230 12.541419 12.572426 12.626460 12.697163 12.771713 12.842371 12.901896 12.935504 12.930185 12.877408 12.772344 12.611816 12.397743 12.149837 11.874251 11.573153 11.248387 10.903384 10.543076 10.172909 9.797711 9.421417 9.048215 8.681233 8.325504 7.982687 7.653808
26.327162 26.360939 26.381098 26.361076 26.320698 26.320284 26.377874 26.389589 26.287178 26.027946 25.580469 24.932266 24.096409 23.107534 22.029325 20.940851 19.886902 18.859907 17.867243 16.934998 16.020668 15.093476 14.214981 13.461552 12.899706 12.563653 12.442117 12.451316 12.486423 12.479276 12.469216 12.504760 12.567804 12.636657 12.701465 12.758420 12.807764 12.856904 12.914182 12.985702 13.071184 13.161428 13.249357 13.328849 13.392529 13.427985 13.421531 13.367612 13.262785 13.103710 12.896500 12.658108 12.391127 12.096972 11.778865 11.439817 11.086008 10.720630 10.348368 9.975113 9.603601 9.238558 8.883542 8.540835 8.211925
26.143482 26.181990 26.237280 26.278809 26.323439 26.395765 26.448877 26.406176 26.227896 25.878567 25.334032 24.589294 23.665737 22.607714 21.488239 20.384882 19.333553 18.314465 17.343056 16.440710 15.576717 14.702012 13.874723 13.170837 12.655247 12.358385 12.256622 12.282697 12.353471 12.390450 12.426476 12.507884 12.625886 12.750144 12.869152 12.976914 13.075927 13.173632 13.276439 13.385571 13.496337 13.604523 13.705570 13.793304 13.860352 13.896400 13.889637 13.837106 13.734208 13.578277 13.383815 13.156877 12.900155 12.614786 12.304018 11.971838 11.623765 11.264547 10.897907 10.529315 10.162258 9.800775 9.448733 9.107391 8.779000
26.073442 26.118982 26.205343 26.301935 26.404291 26.484985 26.489239 26.376707 26.108776 25.655762 25.001583 24.150734 23.135029 22.009773 20.855703 19.746006 18.699907 17.696009 16.750530 15.884414 15.093082 14.310166 13.577370 12.955563 12.500398 12.240232 12.151571 12.175251 12.239605 12.287065 12.367742 12.494432 12.661503 12.841041 13.012920 13.172109 13.322001 13.468019 13.612234 13.753257 13.889407 14.050452 14.191485 14.264076 14.295971 14.331807 14.329256 14.280144 14.180259 14.035446 13.856760 13.644548 13.400494 13.126535 12.823711 12.498194 12.155106 11.800076 11.440172 11.078499 10.717368 10.362133 10.014298 9.676551 9.349401