64 64
1.439939 1.502728 1.571804 1.646159 1.723976 1.804247 1.886144 1.969777 2.054259 2.138584 2.221662 2.302707 2.381281 2.456609 2.527797 2.594306 2.656095 2.713946 2.774211 2.837284 2.900782 2.964026 3.026658 3.088282 3.147359 3.203413 3.271405 3.346770 3.404802 3.435059 3.447083 3.465022 3.493099 3.516369 3.535177 3.556967 3.584835 3.618354 3.660460 3.714109 3.778455 3.851178 3.932289 4.021695 4.117839 4.218665 4.323391 4.431163 4.542340 4.656798 4.774154 4.894494 5.017070 5.137923 5.255936 5.376904 5.502321 5.629846 5.757868 5.884699 6.008176 6.126215 6.246363 6.373533 6.505212
1.430687 1.499962 1.575358 1.655373 1.739874 1.829457 1.922153 2.016213 2.110349 2.203227 2.294008 2.381738 2.465399 2.544108 2.616982 2.683429 2.743593 2.797982 2.851137 2.906554 2.963243 3.021154 3.078251 3.132304 3.183368 3.262494 3.376799 3.483670 3.547052 3.553212 3.515450 3.468698 3.454497 3.466139 3.473699 3.485517 3.503667 3.529429 3.566828 3.616044 3.675631 3.744286 3.821298 3.906882 4.000790 4.101863 4.208252 4.318425 4.431879 4.548709 4.668384 4.790366 4.914747 5.041604 5.172086 5.309258 5.450928 5.595001 5.739286 5.882066 6.021270 6.155747 6.295727 6.441626 6.590984
1.430432 1.506157 1.588006 1.678130 1.775080 1.876854 1.981373 2.086738 2.191451 2.294440 2.394282 2.489601 2.579254 2.662296 2.737807 2.805441 2.865119 2.917056 2.963461 3.009981 3.056652 3.103625 3.150578 3.198002 3.257709 3.383979 3.542566 3.678490 3.746468 3.729091 3.643873 3.534595 3.455168 3.439711 3.435739 3.436940 3.446897 3.467510 3.500036 3.543933 3.597908 3.661680 3.734248 3.815526 3.905795 4.004315 4.110026 4.221627 4.337156 4.455498 4.576629 4.700279 4.826063 4.956860 5.100965 5.253116 5.410406 5.570694 5.731457 5.890150 6.044878 6.196325 6.354662 6.518470 6.684725
1.438786 1.523383 1.618587 1.722255 1.832201 1.946310 2.062969 2.180507 2.297041 2.410727 2.519854 2.622951 2.718808 2.806694 2.885776 2.955382 3.015392 3.065967 3.107851 3.145896 3.182883 3.218816 3.253825 3.288673 3.365666 3.524806 3.713213 3.869119 3.940788 3.907521 3.788187 3.632744 3.503073 3.449215 3.432204 3.422506 3.422441 3.435075 3.461509 3.500815 3.550305 3.609769 3.678195 3.755282 3.841127 3.936649 4.040487 4.151289 4.267643 4.387642 4.510143 4.634760 4.761597 4.899619 5.051064 5.215024 5.385732 5.560188 5.735372 5.908801 6.077825 6.245550 6.421001 6.601507 6.783395
1.460300 1.559369 1.668833 1.786360 1.909632 2.036869 2.166395 2.296592 2.425277 2.549849 2.668413 2.779429 2.882024 2.975270 3.057982 3.129540 3.189924 3.239650 3.279182 3.310634 3.338835 3.364578 3.388258 3.410383 3.486719 3.654083 3.856470 4.021491 4.094301 4.053302 3.918041 3.740685 3.588616 3.515590 3.494764 3.480221 3.473649 3.476945 3.490427 3.514061 3.549060 3.597321 3.657179 3.729419 3.813764 3.907367 4.009460 4.118566 4.233443 4.353169 4.475713 4.599986 4.730726 4.875721 5.034015 5.204463 5.385032 5.569719 5.756151 5.941908 6.123124 6.304129 6.493505 6.688192 6.882193
1.507203 1.619752 1.741877 1.871427 2.006902 2.147088 2.290280 2.433263 2.573659 2.709165 2.837306 2.956861 3.066548 3.165191 3.251543 3.325305 3.386629 3.436221 3.474506 3.500834 3.520312 3.535955 3.549725 3.566886 3.628882 3.777655 3.962788 4.118470 4.186128 4.146825 4.023438 3.844356 3.677186 3.604861 3.601232 3.618747 3.627315 3.622169 3.623661 3.631508 3.647545 3.675824 3.718061 3.775403 3.844367 3.925789 4.021473 4.126564 4.237594 4.353643 4.474089 4.597394 4.733242 4.884127 5.048403 5.224574 5.411252 5.605005 5.799286 5.992286 6.182033 6.374875 6.575251 6.779505 6.979831
1.590662 1.716928 1.851365 1.992123 2.137950 2.287480 2.439021 2.590817 2.741211 2.886478 3.024240 3.152365 3.269170 3.373236 3.463684 3.540176 3.603431 3.653862 3.690257 3.712964 3.724178 3.734455 3.748864 3.766574 3.801432 3.907697 4.050842 4.177306 4.245710 4.230047 4.105546 3.904501 3.736488 3.680173 3.700998 3.771844 3.850040 3.880652 3.872340 3.866941 3.867759 3.876668 3.895456 3.925767 3.971362 4.030832 4.102029 4.187181 4.287742 4.396001 4.508903 4.629974 4.769049 4.923784 5.092530 5.273201 5.463737 5.662500 5.864347 6.063890 6.258920 6.456750 6.664553 6.874820 7.079039
1.718372 1.857061 2.002594 2.153790 2.309185 2.467205 2.625778 2.782854 2.936831 3.087037 3.232092 3.366855 3.488870 3.597398 3.691523 3.771834 3.837686 3.888002 3.922551 3.942272 3.955812 3.969797 3.986469 4.005089 4.024372 4.074190 4.168552 4.270175 4.341257 4.339913 4.200253 4.002575 3.856754 3.810435 3.859192 3.985484 4.132725 4.229734 4.234956 4.219734 4.205142 4.193475 4.187408 4.188640 4.200684 4.228165 4.272272 4.328343 4.398839 4.487222 4.588156 4.704478 4.840324 4.994236 5.164471 5.347410 5.540359 5.741163 5.947638 6.152461 6.351911 6.552774 6.761569 6.971512 7.177938
1.895897 2.046372 2.202679 2.363195 2.526292 2.689881 2.852086 3.011341 3.166997 3.319114 3.466153 3.606368 3.735474 3.848836 3.946282 4.027402 4.091881 4.139366 4.170804 4.195911 4.218261 4.237809 4.257495 4.277533 4.297462 4.327539 4.386292 4.467563 4.542195 4.544305 4.420444 4.252384 4.123315 4.082000 4.155586 4.323567 4.520907 4.669359 4.704482 4.679705 4.649707 4.616853 4.584444 4.555323 4.532794 4.521799 4.527711 4.552432 4.589877 4.643585 4.717984 4.822808 4.950819 5.098839 5.264104 5.445136 5.638548 5.839560 6.045955 6.254456 6.457212 6.658984 6.864729 7.070562 7.273615
2.128062 2.290120 2.456306 2.624865 2.793652 2.960587 3.124722 3.287717 3.448071 3.603600 3.752165 3.892727 4.024182 4.142540 4.241678 4.321115 4.380456 4.420747 4.453792 4.484946 4.513000 4.536555 4.557009 4.579732 4.617929 4.673566 4.743004 4.821623 4.907945 4.932649 4.846642 4.706161 4.591263 4.565766 4.657601 4.845479 5.064629 5.230642 5.273440 5.235845 5.189198 5.135229 5.076261 5.015719 4.957595 4.907021 4.869969 4.852653 4.855314 4.872203 4.910939 4.987331 5.100749 5.237315 5.394224 5.567315 5.754914 5.954277 6.158996 6.366688 6.571822 6.770715 6.970635 7.169701 7.365341
2.419118 2.592579 2.768219 2.943929 3.118732 3.295213 3.470584 3.642230 3.807331 3.963596 4.109911 4.245345 4.369977 4.483622 4.582618 4.659287 4.712179 4.750969 4.785151 4.815403 4.842616 4.868145 4.892463 4.931499 4.995214 5.080044 5.177853 5.287804 5.406409 5.477744 5.444026 5.355196 5.280666 5.280929 5.382445 5.569162 5.777036 5.923086 5.941811 5.888409 5.819040 5.737795 5.649461 5.556603 5.462464 5.371718 5.290799 5.226627 5.185765 5.165121 5.166757 5.206784 5.289064 5.409287 5.551626 5.714081 5.891562 6.082449 6.283751 6.488119 6.690875 6.883615 7.075622 7.265919 7.451905
2.764446 2.948641 3.133708 3.322984 3.515595 3.707284 3.894839 4.074891 4.243322 4.388970 4.515382 4.630071 4.738719 4.843234 4.941356 5.025370 5.086130 5.129462 5.164512 5.192951 5.217625 5.241137 5.277773 5.342228 5.431480 5.543133 5.675890 5.822637 5.977598 6.119073 6.170143 6.163643 6.152098 6.186672 6.292134 6.457975 6.604155 6.663918 6.624791 6.570907 6.512909 6.422918 6.300529 6.170856 6.038319 5.907363 5.782288 5.670223 5.578751 5.513836 5.476097 5.477184 5.521026 5.610868 5.735679 5.881722 6.047017 6.225698 6.416524 6.614559 6.808585 6.994109 7.176008 7.356063 7.535028
3.161501 3.360843 3.568119 3.779988 3.991310 4.197906 4.396188 4.568372 4.704540 4.815322 4.911453 5.002914 5.094958 5.189735 5.284636 5.375252 5.463329 5.537826 5.586547 5.616325 5.641687 5.670921 5.727341 5.812850 5.926985 6.069742 6.234151 6.415357 6.610740 6.810584 6.965761 7.058152 7.123778 7.198515 7.306030 7.396777 7.411873 7.349396 7.265331 7.217648 7.191224 7.144276 7.028159 6.858455 6.682226 6.506429 6.335516 6.175833 6.033667 5.916536 5.836172 5.794168 5.794638 5.842144 5.939703 6.066206 6.213934 6.378907 6.555287 6.738612 6.921756 7.097688 7.270699 7.445812 7.619582
3.622331 3.849415 4.084693 4.321112 4.553586 4.778567 4.963624 5.097744 5.192944 5.263074 5.322855 5.384469 5.456027 5.540477 5.633247 5.734844 5.848398 5.953350 6.036841 6.087000 6.111817 6.160608 6.241114 6.351201 6.489263 6.657265 6.852648 7.067913 7.299485 7.536570 7.764571 7.955258 8.099761 8.217745 8.306051 8.288205 8.174615 8.026771 7.920842 7.878841 7.881388 7.875082 7.795650 7.605957 7.384346 7.159723 6.939665 6.729500 6.537221 6.367654 6.238069 6.151956 6.107323 6.109296 6.162641 6.263391 6.389322 6.536307 6.693906 6.857869 7.026706 7.196351 7.365002 7.534569 7.701987
4.161721 4.421835 4.687136 4.952563 5.211641 5.429659 5.580865 5.676218 5.729545 5.751653 5.758532 5.770893 5.804691 5.868314 5.962663 6.093929 6.243220 6.388786 6.509688 6.594511 6.646542 6.711423 6.814025 6.948214 7.113149 7.305377 7.524672 7.773508 8.038141 8.306417 8.566607 8.803820 9.007049 9.164066 9.222236 9.134955 8.962753 8.782228 8.658409 8.616396 8.634056 8.650255 8.589725 8.395036 8.129082 7.855061 7.583182 7.321328 7.075994 6.855150 6.672328 6.540502 6.450217 6.405951 6.412814 6.400022 6.382786 6.617180 6.828458 6.972343 7.128219 7.293261 7.457038 7.619890 7.779818
4.783344 5.074767 5.373245 5.670408 5.942176 6.136200 6.255361 6.304120 6.288323 6.232697 6.169031 6.123847 6.116724 6.157705 6.253524 6.409812 6.609328 6.824038 7.007071 7.137450 7.241978 7.328724 7.441286 7.593229 7.781254 7.998529 8.244318 8.518243 8.810963 9.106826 9.393722 9.657333 9.885557 10.068771 10.132865 10.040323 9.857142 9.664601 9.530649 9.480500 9.490818 9.497976 9.423749 9.206717 8.898057 8.576401 8.252876 7.938108 7.640056 7.365804 7.130660 6.949501 6.813738 6.723144 6.683501 6.509204 6.382422 6.658267 6.956200 7.085166 7.229241 7.385930 7.544981 7.700171 7.851595
5.519020 5.836893 6.149529 6.464714 6.729088 6.901482 6.974592 6.947318 6.846031 6.709303 6.573471 6.469814 6.421816 6.441150 6.541561 6.722545 6.964555 7.235754 7.498050 7.711675 7.879240 8.005381 8.121352 8.280837 8.481627 8.719153 8.992165 9.290309 9.604471 9.923410 10.232621 10.519711 10.777228 10.988037 11.088411 11.027103 10.866735 10.684888 10.546919 10.478333 10.456728 10.420467 10.295446 10.025204 9.673926 9.305943 8.933099 8.565996 8.216134 7.889688 7.601057 7.369047 7.188738 7.052629 6.966317 6.857640 6.763693 6.930519 7.084973 7.195655 7.327178 7.472425 7.625561 7.774040 7.916079
6.400494 6.736004 7.048644 7.340693 7.571826 7.711639 7.719419 7.611594 7.428790 7.214358 7.010481 6.852297 6.764930 6.762925 6.865018 7.067844 7.345687 7.664858 7.989002 8.292439 8.540975 8.716047 8.844190 9.005278 9.210273 9.460226 9.753033 10.074216 10.408443 10.746357 11.073062 11.382337 11.668800 11.905581 12.059484 12.060583 11.952913 11.803294 11.668922 11.572824 11.495562 11.385077 11.177822 10.837195 10.444395 10.030448 9.608683 9.191602 8.790820 8.415560 8.074600 7.791540 7.566716 7.385075 7.250351 7.168055 7.142716 7.163145 7.217329 7.305716 7.419911 7.552847 7.697107 7.840414 7.970282
7.392397 7.742610 8.049491 8.309278 8.484216 8.563667 8.505644 8.326730 8.072579 7.791281 7.527549 7.319454 7.194463 7.171371 7.272443 7.489453 7.794359 8.151618 8.202600 8.076207 8.893382 9.446582 9.597429 9.757153 9.962191 10.216872 10.517030 10.851958 11.204137 11.557499 11.903972 12.232221 12.541466 12.802155 12.994076 13.075052 13.037971 12.934056 12.808436 12.680359 12.534462 12.330672 12.022456 11.627999 11.196707 10.740374 10.272208 9.805780 9.354061 8.930173 8.541461 8.207374 7.935952 7.708564 7.527391 7.398641 7.327968 7.319633 7.348650 7.413221 7.507909 7.624846 7.758060 7.894921 8.013510
8.440490 8.806524 9.112914 9.345974 9.465399 9.475288 9.357658 9.122623 8.812740 8.476609 8.162172 7.910200 7.750107 7.705683 7.801258 8.023291 8.344989 8.728469 8.177977 7.557158 8.963857 10.202336 10.377246 10.529486 10.727502 10.977245 11.275424 11.611687 11.973064 12.341284 12.706548 13.054466 13.378698 13.659636 13.867813 13.997779 14.033043 13.977353 13.861889 13.701180 13.485112 13.187404 12.810340 12.382544 11.915517 11.420755 10.910639 10.399387 9.900477 9.427457 8.990857 8.604968 8.285277 8.015076 7.790256 7.617797 7.508201 7.470045 7.474388 7.515078 7.589425 7.687928 7.807329 7.934682 8.043869
9.499228 9.880804 10.196502 10.418744 10.500539 10.458958 10.297833 10.019748 9.668194 9.292059 8.938510 8.650468 8.458788 8.393246 8.476247 8.694395 9.020010 9.416316 9.164288 8.614679 9.656980 10.846834 11.168684 11.315416 11.502097 11.739305 12.023432 12.348319 12.703643 13.082974 13.462044 13.828150 14.167864 14.461593 14.683347 14.821435 14.877534 14.851926 14.742919 14.547675 14.272681 13.927285 13.521718 13.066522 12.572561 12.050283 11.509028 10.958761 10.417759 9.898774 9.415322 8.978582 8.609115 8.297698 8.032614 7.820589 7.677792 7.609983 7.590419 7.607866 7.661472 7.741550 7.844027 7.959361 8.058889
10.548500 10.943705 11.271840 11.502967 11.580241 11.521904 11.331819 11.026264 10.649385 10.247199 9.869509 9.554851 9.335942 9.248626 9.313728 9.519147 9.835482 10.225213 10.512512 10.394551 10.662902 11.442698 11.965951 12.104287 12.277792 12.501170 12.769547 13.077045 13.418800 13.788787 14.172296 14.548705 14.898971 15.199307 15.429139 15.573210 15.628752 15.590532 15.454223 15.228728 14.924446 14.551385 14.120032 13.641683 13.127217 12.586684 12.029146 11.461746 10.889629 10.329767 9.804553 9.324705 8.908231 8.554142 8.250128 8.003942 7.831419 7.735594 7.693161 7.688360 7.721388 7.783288 7.868825 7.969167 8.059462
11.580838 11.990139 12.338469 12.598742 12.700652 12.655819 12.456509 12.139852 11.754373 11.341916 10.951004 10.623590 10.386515 10.279778 10.325084 10.507422 10.800588 11.164313 11.425442 11.485364 11.859901 12.478760 12.775254 12.901638 13.062585 13.271246 13.521829 13.809073 14.133287 14.486625 14.856838 15.229312 15.581823 15.881951 16.110914 16.253834 16.288694 16.216492 16.047247 15.783884 15.435595 15.020709 14.556622 14.058838 13.537827 12.998322 12.442002 11.869845 11.289837 10.710636 10.150727 9.637787 9.182918 8.790718 8.451738 8.176906 7.976868 7.855236 7.790042 7.762287 7.773090 7.815080 7.883582 7.969600 8.053197
12.611717 13.034503 13.409301 13.714096 13.864884 13.841432 13.654916 13.346518 12.969721 12.567507 12.178157 11.847319 11.605125 11.485554 11.508520 11.658273 11.912005 12.229743 12.223043 12.080742 12.535292 13.336678 13.601911 13.706738 13.847422 14.038080 14.268157 14.534833 14.838257 15.170732 15.521111 15.879413 16.223944 16.513184 16.734840 16.856119 16.857647 16.738792 16.502298 16.164656 15.753739 15.290771 14.793632 14.277596 13.753724 13.226273 12.694675 12.154600 11.578050 10.973887 10.390782 9.872759 9.426921 9.023181 8.653775 8.352050 8.126787 7.980016 7.892150 7.842543 7.832721 7.856334 7.907023 7.976723 8.049812
13.667720 14.102832 14.504554 14.855695 15.058291 15.064853 14.909654 14.633886 14.281951 13.904889 13.535051 13.211037 12.967237 12.835188 12.830088 12.939367 13.142200 13.398253 13.541360 13.253744 13.353301 14.007563 14.443269 14.516602 14.629927 14.798622 15.007141 15.253230 15.533852 15.841283 16.167233 16.503645 16.829641 17.102451 17.297892 17.379606 17.329779 17.134594 16.812548 16.394236 15.911069 15.391967 14.858648 14.325590 13.802673 13.293370 12.795177 12.260373 11.666048 11.056159 10.478590 9.974543 9.567545 9.211605 8.859197 8.533917 8.284041 8.114065 8.003427 7.933757 7.906102 7.912511 7.945976 8.000550 8.060207
14.793428 15.235898 15.646436 16.005289 16.249067 16.306890 16.201279 15.974539 15.669352 15.332271 14.995090 14.679364 14.424352 14.269202 14.228148 14.292050 14.439020 14.632569 14.843076 14.905629 14.840765 15.129136 15.300921 15.336470 15.419301 15.557429 15.736835 15.956881 16.211325 16.490961 16.788465 17.096762 17.396345 17.646238 17.802408 17.826187 17.693230 17.409092 17.000193 16.500767 15.945897 15.368285 14.796801 14.248977 13.730350 13.245064 12.768280 12.212847 11.607644 11.009564 10.465872 10.006530 9.643650 9.343416 9.045210 8.721644 8.452611 8.264291 8.134122 8.044356 7.996517 7.984427 8.000024 8.039996 8.087086
15.958077 16.399199 16.796898 17.149767 17.413406 17.530560 17.492279 17.329815 17.087282 16.794987 16.483521 16.175453 15.913448 15.736516 15.730658 15.790320 15.822330 15.873693 16.006235 16.131094 16.190838 16.188961 16.166512 16.161293 16.210369 16.313156 16.460987 16.648642 16.870598 17.118950 17.383352 17.657242 17.924074 18.139942 18.247494 18.197096 17.970577 17.592510 17.097336 16.521067 15.900179 15.270700 14.662518 14.097294 13.588449 13.132096 12.663323 12.108010 11.511358 10.927752 10.413249 10.002733 9.696234 9.460195 9.217470 8.918988 8.638759 8.436304 8.286543 8.178774 8.112039 8.079638 8.076431 8.099062 8.137269
17.121771 17.551546 17.933374 18.276384 18.549059 18.713602 18.744644 18.658163 18.473782 18.221600 17.939545 17.647015 17.381369 17.254234 17.337549 17.400311 17.310106 17.152433 17.125509 17.165014 17.156609 17.102621 17.026148 16.982164 16.996506 17.063801 17.178404 17.331671 17.516582 17.727125 17.956234 18.190752 18.417946 18.590378 18.633396 18.501446 18.187563 17.721527 17.144829 16.501242 15.827990 15.158254 14.522505 13.948275 13.448251 13.018225 12.568812 12.037746 11.452494 10.873260 10.382788 10.018651 9.760145 9.572477 9.394423 9.134240 8.849162 8.637141 8.470643 8.344800 8.260376 8.207708 8.184602 8.194754 8.229182
18.282549 18.700256 19.060797 19.380358 19.653698 19.844460 19.934032 19.907009 19.768522 19.560740 19.311272 19.039234 18.772600 18.675055 18.776396 18.813198 18.633043 18.340319 18.171387 18.135248 18.080256 17.983202 17.874990 17.798800 17.777838 17.808090 17.752144 17.662401 18.014692 18.319874 18.509604 18.701105 18.884407 19.004938 18.977268 18.765738 18.378164 17.847801 17.213348 16.515961 15.799391 15.098838 14.448069 13.870878 13.377460 12.966949 12.566974 12.083380 11.519350 10.959929 10.490213 10.151808 9.914101 9.739744 9.583739 9.355385 9.085108 8.867612 8.689020 8.548303 8.447584 8.378769 8.341660 8.341481 8.369878
19.430094 19.837238 20.181662 20.477261 20.731344 20.929598 21.040899 21.038288 20.939837 20.767344 20.552015 20.302950 20.033419 19.860067 19.861271 19.821363 19.604126 19.306126 19.143749 19.061098 18.638725 18.027235 18.392500 18.607843 18.243650 17.763214 17.935175 17.981688 18.429167 18.900064 19.045616 19.190886 19.328402 19.396877 19.312084 19.045033 18.609482 18.031023 17.350302 16.611961 15.858465 15.136135 14.477674 13.901166 13.417067 13.023687 12.686959 12.271341 11.762285 11.243150 10.796297 10.464198 10.204513 9.991862 9.804795 9.572591 9.331369 9.116141 8.934380 8.789232 8.679450 8.600172 8.555601 8.547458 8.565955
20.560471 20.957712 21.285099 21.555418 21.782217 21.966545 22.071253 22.073002 21.984158 21.824930 21.617977 21.371460 21.090050 20.818754 20.648853 20.508167 20.310886 19.980907 19.659164 19.764399 18.978807 18.043711 18.718962 19.406252 18.377735 17.310724 18.202410 18.976675 19.227858 19.392775 19.440207 19.541826 19.693228 19.783426 19.684565 19.383368 18.749304 17.885664 17.428413 16.826391 16.049244 15.314130 14.653945 14.084090 13.609505 13.228642 12.927917 12.600951 12.177691 11.719833 11.296925 10.944723 10.629578 10.339510 10.068845 9.817338 9.586413 9.372729 9.199444 9.062005 8.954970 8.876398 8.831493 8.815695 8.824466
21.666479 22.048824 22.355646 22.601612 22.801811 22.952765 23.026299 23.017513 22.927761 22.757540 22.525772 22.261223 21.969187 21.680912 21.417025 21.197725 21.032303 20.543800 20.069530 20.305330 20.232100 19.501371 19.663252 19.920620 19.016237 18.284517 19.266420 19.780809 19.434055 19.521263 19.599298 19.666727 19.712446 19.675936 19.918159 19.796782 18.750208 17.491453 17.406115 17.190020 16.412439 15.674682 15.009747 14.441285 13.974175 13.602990 13.314887 13.057163 12.732819 12.341682 11.937229 11.546792 11.152228 10.765454 10.422270 10.141179 9.883905 9.658534 9.486304 9.361049 9.267920 9.201151 9.162572 9.143368 9.143278
22.735088 23.096613 23.379795 23.310926 22.889051 23.222801 23.775103 23.879721 23.755951 23.553869 23.300869 23.015940 22.715900 22.420496 22.149694 21.768610 21.358030 21.307222 21.131084 21.251200 21.299023 20.871799 20.435385 20.301105 19.994471 20.005079 20.515327 20.108000 19.420902 19.488516 19.692795 19.739264 19.597263 19.518848 20.066086 20.278275 19.289236 17.926821 17.622526 17.590586 16.955982 16.217312 15.546917 14.975328 14.511615 14.149139 13.869039 13.631658 13.355145 13.022182 12.641817 12.210311 11.737915 11.288292 10.901614 10.574411 10.269732 10.018246 9.831977 9.700954 9.616882 9.573259 9.551846 9.539161 9.536355
23.756109 24.093523 24.351324 23.675676 22.502283 23.151510 24.400330 24.691076 24.504848 24.248156 23.959080 23.658195 23.351122 23.057701 22.790802 22.185087 21.629847 21.891178 22.192331 22.130814 22.066031 21.868231 21.589491 21.554665 21.336576 21.421652 21.396593 20.927963 20.236740 20.030079 19.930613 19.938551 20.034426 20.177986 20.701298 20.812862 20.282396 19.134703 18.330605 18.072426 17.658728 16.933052 16.266832 15.692683 15.227631 14.865381 14.585765 14.353074 14.106397 13.800535 13.423225 12.972831 12.462827 11.958762 11.512051 11.120070 10.773033 10.495278 10.288879 10.146678 10.058260 10.017060 10.006909 10.010166 10.023143
24.729307 25.037720 25.270264 24.811104 23.995899 24.608921 25.442408 25.460781 25.229481 24.928362 24.597656 24.122843 23.579189 23.521717 23.424568 23.076097 22.700623 22.839554 22.939560 22.911940 22.883171 22.841280 22.786560 22.699594 22.570118 22.257702 21.797964 21.640642 21.261696 20.767162 20.436132 20.347980 20.540733 20.921715 21.276079 21.352745 21.094492 20.455114 19.604597 19.102991 18.360962 17.427015 17.006824 16.586321 16.115528 15.750187 15.469013 15.224631 14.982341 14.689500 14.307278 13.833308 13.301954 12.759558 12.251335 11.798367 11.420912 11.118753 10.886701 10.725107 10.630781 10.584270 10.569950 10.582379 10.620880
25.648815 25.929060 26.137186 26.150618 26.037567 26.277327 26.366272 26.208786 25.950241 25.622772 25.269087 24.551260 23.862995 23.965879 24.125416 23.962509 23.854855 23.791172 23.767445 23.768784 23.772751 23.757648 23.715868 23.637863 23.508322 22.937740 22.306250 22.285896 21.984535 21.245838 21.067657 21.058878 21.172920 21.480936 21.821394 21.956705 21.806307 21.431732 20.720968 19.851009 18.985514 18.064764 17.815870 17.639746 17.173725 16.805161 16.510349 16.245737 15.974163 15.654625 15.251416 14.762924 14.219655 13.672474 13.144339 12.660251 12.249212 11.917376 11.655977 11.470344 11.360901 11.306381 11.289620 11.304575 11.356303
26.502686 26.762424 26.950796 27.081446 27.161064 27.186142 27.123812 26.949974 26.683472 26.349941 25.830452 25.092152 24.819927 24.819834 24.561575 24.658005 24.730690 24.702927 24.706591 24.735098 24.767523 24.779131 24.749945 24.516045 24.134623 24.029522 23.684250 23.502714 22.774275 21.902870 21.855007 22.036386 22.105774 22.163874 22.162685 22.525551 22.611126 22.335339 21.487160 20.514380 20.048761 19.514507 19.150595 18.777630 18.336340 17.979546 17.677925 17.395218 17.090683 16.731571 16.298660 15.800166 15.273295 14.750942 14.225072 13.717598 13.276945 12.910375 12.615146 12.398956 12.264244 12.195825 12.171959 12.186259 12.246187
27.285679 27.537489 27.565388 27.448900 27.765671 27.949509 27.882885 27.703547 27.439236 27.124454 26.369688 25.636709 25.785875 25.628687 25.115101 25.393747 25.721754 25.729305 25.772665 25.831890 25.888021 25.919277 25.904402 25.420824 24.864660 25.036625 25.106297 24.700970 24.114632 23.452112 23.304312 23.266554 23.283527 23.007170 22.695591 23.135185 23.332701 22.851608 22.467569 21.792318 21.351250 20.712057 19.921732 19.696754 19.475967 19.167965 18.893494 18.609358 18.289734 17.927143 17.493505 17.006920 16.508850 15.999131 15.480353 14.965288 14.498241 14.098455 13.774098 13.528724 13.356530 13.259445 13.221729 13.236546 13.295650
28.017656 28.269461 28.058962 27.790842 28.270208 28.702135 28.646397 28.481050 28.088440 27.574596 27.054880 26.231272 26.696941 26.832958 26.500170 26.669561 26.813057 26.858389 26.939644 27.036863 27.121193 27.167936 27.158169 26.914520 26.502836 26.468546 26.231974 25.817547 25.448446 25.118660 24.837282 24.681730 24.647066 24.482685 24.184185 24.358200 24.017153 23.348808 23.079416 22.608452 22.188263 21.340387 20.436008 20.434122 20.534765 20.307333 20.092382 19.844822 19.557022 19.210873 18.817944 18.379776 17.768732 17.067772 16.765564 16.384426 15.898913 15.474633 15.124663 14.850700 14.644622 14.511139 14.453880 14.461629 14.505219
28.714952 28.973372 29.013632 28.911991 29.241390 29.440357 29.416849 29.293453 28.716047 28.097597 27.492277 26.908287 27.452902 28.049982 27.971380 27.959150 27.995134 28.075186 28.188410 28.314608 28.425863 28.492973 28.493664 28.409199 28.246977 27.954273 27.540466 27.104494 26.735634 26.488070 26.295500 26.166643 26.071646 25.973316 25.820137 25.622259 25.229643 24.599159 23.869278 22.998302 22.721888 22.357924 21.656271 21.562252 21.497953 21.361702 21.249842 21.096624 20.877180 20.594133 20.260866 19.883986 19.108841 18.289854 18.133095 17.962616 17.471575 17.032465 16.658182 16.355133 16.120663 15.955798 15.868612 15.849161 15.867223
29.387192 29.657135 29.867151 30.020521 30.124638 30.185823 30.202663 30.141560 29.859451 29.447214 29.187885 28.713303 29.008133 29.191076 29.151943 29.178461 29.250275 29.360598 29.497887 29.644670 29.776573 29.865595 29.888172 29.827528 29.680370 29.414986 29.036848 28.626524 28.269226 28.027882 27.877495 27.756111 27.480206 27.085482 27.019091 26.822794 26.409098 25.827894 25.002224 24.101545 23.680517 23.271671 22.854942 22.580950 22.441414 22.400116 22.394150 22.358747 22.254467 22.082602 21.823349 21.505548 20.992399 20.337635 19.768345 18.951559 18.910107 18.751558 18.356461 18.029356 17.768259 17.567211 17.443016 17.386631 17.366001
30.046144 30.331999 30.562292 30.741177 30.871433 30.961678 31.022907 31.028347 30.972069 30.852089 30.710541 30.577497 30.466759 30.398821 30.392708 30.446877 30.545689 30.679377 30.841198 31.013489 31.171524 31.283834 31.308872 31.244675 31.113499 30.923878 30.662834 30.349844 30.030327 29.777342 29.620029 29.477505 28.925259 28.268812 28.199999 28.073137 27.472858 26.750368 25.999149 25.277901 24.634542 24.101736 23.720621 23.506548 23.438705 23.476477 23.433006 23.304594 23.557184 23.651878 23.503794 23.246199 22.919777 22.515270 21.304577 20.069250 20.322317 20.608902 20.196611 19.845861 19.555790 19.320452 19.155945 19.052698 18.989967
30.698618 31.014456 31.274496 31.483519 31.646717 31.774019 31.882483 31.955021 31.965357 31.915627 31.831522 31.746578 31.677069 31.639833 31.660400 31.737850 31.857460 32.010792 32.192894 32.390827 32.577286 32.686306 32.683460 32.601540 32.482632 32.376263 32.278973 32.134640 31.941496 31.718813 31.491570 31.238186 30.811718 30.168612 29.840670 29.362978 28.642948 27.843208 27.036337 26.280987 25.629410 25.119051 24.770645 24.592720 24.575438 24.683058 24.505171 24.343519 24.864304 25.296881 25.258604 25.078426 24.652016 24.027674 23.489542 22.694021 22.535555 22.187393 22.003979 21.775652 21.455946 21.188171 20.979223 20.827627 20.716227
31.354366 31.708797 32.005466 32.250088 32.453140 32.623989 32.781151 32.904686 32.953457 32.948811 32.921364 32.886219 32.862217 32.874123 32.938419 33.039703 33.179829 33.354713 33.559368 33.782211 33.989162 34.069843 34.040665 33.957123 33.863548 33.830238 33.861134 33.898537 33.888096 33.729153 33.445988 33.059280 32.629913 32.107670 31.491966 30.771019 29.942087 29.073950 28.248833 27.513672 26.891769 26.397636 26.067204 25.909893 25.773201 25.700520 26.019674 26.233593 26.716660 27.031187 27.081341 26.978035 26.310694 25.479399 25.333685 25.199844 24.416945 23.721542 23.769491 23.788528 23.442118 23.138277 22.885298 22.685135 22.526146
31.867258 32.406780 32.749050 33.039478 33.287338 33.492001 33.659100 33.796047 33.880424 33.915657 33.922741 33.922176 33.946316 34.024570 34.157688 34.326412 34.508114 34.709511 34.949188 35.217102 35.432278 35.502277 35.332878 35.049976 35.216541 35.397202 35.493004 35.633717 35.739372 35.638496 35.315552 34.851551 34.345802 33.782749 33.081322 32.237988 31.317820 30.416885 29.606953 28.931538 28.388090 27.941774 27.623390 27.474901 27.131523 26.937233 27.572044 28.273748 28.605394 28.814865 28.873335 28.782284 28.304861 27.581694 27.243658 26.854603 26.312565 25.827496 25.855104 25.775137 25.464613 25.069897 24.642607 24.332449 24.192368
32.301243 33.108772 33.498100 33.840168 34.112534 34.323154 34.494568 34.639256 34.756020 34.820972 34.836300 34.853977 34.922470 35.071690 35.292446 35.564659 35.847935 36.119633 36.400112 36.710960 36.951172 37.046551 36.699184 36.324711 36.688721 37.136768 37.276340 37.429260 37.535515 37.438988 37.113258 36.658302 36.153290 35.547104 34.751114 33.816231 32.839367 31.793673 30.810768 30.427954 30.106623 29.740934 29.450911 29.158199 28.800426 28.973524 29.620035 29.959543 30.013111 30.371445 30.529335 30.387728 30.009392 29.518942 28.972734 28.420618 27.983488 27.773270 27.714211 27.641804 27.259995 26.637062 26.019852 25.604317 25.507051
33.185688 33.824116 34.266777 34.631683 34.909821 35.126766 35.311497 35.455944 35.550755 35.602745 35.624790 35.665451 35.784397 36.006348 36.328178 36.725227 37.145836 37.558628 37.929672 38.276264 38.572319 38.729137 38.658806 38.495735 38.789085 39.042213 39.151455 39.239956 39.304623 39.221550 38.943840 38.536545 38.067242 37.424881 36.567509 35.582603 34.581112 33.335884 32.276402 32.110924 32.090446 31.799582 31.551039 31.029772 30.649879 31.161024 31.792404 31.701843 31.470993 31.856136 32.036041 31.627153 31.435537 31.060909 30.502008 29.945358 29.333431 28.906567 29.193115 29.351978 28.821497 27.989262 27.241375 26.726601 26.616657
34.068367 34.602104 35.072662 35.437576 35.718788 35.943420 36.109890 36.220654 36.288429 36.313950 36.335655 36.407539 36.582336 36.879791 37.148460 37.435753 38.226746 38.942455 39.468624 39.912392 40.287495 40.541122 40.708611 40.844688 40.936390 40.974442 40.997177 41.015278 41.027771 40.967606 40.825554 40.522415 40.070091 39.411175 38.538414 37.387367 36.153767 35.418442 34.724049 34.486156 34.321560 34.098568 33.895893 33.605949 33.353386 33.681789 34.044025 34.084679 33.870636 33.970837 33.620228 33.041718 32.986259 32.810467 32.242355 31.683468 30.831694 30.227850 30.698629 31.040020 30.410267 29.455742 28.545790 27.882153 27.719833
34.928562 35.500763 35.966938 36.323376 36.598404 36.792522 36.913513 36.994411 37.033974 37.033302 37.055740 37.145916 37.353970 37.716312 37.850483 38.103226 39.173313 40.240227 40.887417 41.475540 41.991409 42.425270 42.738235 42.939518 42.979774 42.922676 42.837753 42.773468 42.741680 42.738312 42.714268 42.522190 42.107277 41.484596 40.651962 39.307610 37.977161 37.613159 37.437439 37.032276 36.772827 36.581211 36.406101 36.296490 36.273853 36.334827 36.336006 36.193542 36.343185 36.261932 35.879765 35.423122 35.258644 34.915596 34.367435 33.815113 33.187153 32.701160 32.978596 32.991272 32.287704 31.268026 30.193350 29.403337 29.166775
35.911812 36.515770 36.989399 37.205143 37.242149 37.593048 37.795151 37.830727 37.833355 37.819088 37.835102 37.933151 38.176132 38.603458 39.057438 39.561947 40.560951 41.463898 42.208855 42.932804 43.600983 44.219170 44.749893 45.041779 45.038589 44.900360 44.717209 44.570324 44.524235 44.581360 44.625027 44.505692 44.147831 43.597858 42.862328 41.878338 40.675495 40.005909 39.861752 39.628159 39.375324 39.195457 39.043690 38.963875 38.949455 38.852215 38.330708 38.167751 38.384098 38.253811 38.176159 38.090698 37.796329 37.383121 36.886703 36.346832 35.845699 35.545479 35.483040 35.285397 34.595654 33.556656 32.395271 31.504988 31.179037
37.046173 37.667107 38.152630 38.159744 38.017303 38.455624 38.813625 38.785515 38.743805 38.705704 38.716194 38.839092 39.121109 39.610840 40.304955 41.121143 41.935623 42.745953 43.572868 44.406776 45.207989 45.967575 46.642170 47.065601 47.095776 46.916794 46.682598 46.513508 46.478233 46.553436 46.602829 46.510563 46.180027 45.696411 45.092415 44.403515 43.360600 42.397270 42.298733 42.312889 42.054138 41.858566 41.727684 41.669258 41.650356 41.317589 40.829426 40.904213 40.904579 40.376431 40.434071 40.579994 40.357658 40.029488 39.624538 39.094543 38.526344 38.143780 37.960297 37.787327 37.235771 36.265415 35.123058 34.186493 33.757656
38.377438 39.004753 39.494576 39.710743 39.668015 39.916958 40.002922 39.921131 39.846107 39.770885 39.772850 39.926861 40.265331 40.818665 41.586922 42.465538 43.310261 44.116573 44.951981 45.871590 46.684185 47.378571 48.395916 49.078949 49.203060 49.056461 48.843494 48.682823 48.644733 48.680519 48.683163 48.549980 48.204643 47.754425 47.255363 46.704502 46.019302 45.314449 45.133591 44.936756 44.663731 44.476658 44.377705 44.315792 44.266911 44.089142 43.824936 43.930832 43.736942 43.229092 43.165794 43.079483 42.878738 42.586975 42.166077 41.599461 41.020721 40.599857 40.346699 40.196140 39.860680 39.062916 38.024868 37.149544 36.676994
39.908802 40.549606 41.046913 41.386444 41.530033 41.520264 41.412918 41.286476 41.167000 41.073544 41.072681 41.246067 41.642483 42.275646 43.113308 43.987408 44.754311 45.478065 46.293156 47.259369 47.962360 48.707623 50.069695 51.142673 51.398445 51.338886 51.174755 51.034382 50.976261 50.941055 50.849121 50.615681 50.215225 49.772743 49.327015 48.866852 48.285397 47.674919 47.548985 47.388191 47.153397 47.002121 46.907143 46.810234 46.697819 46.576729 45.993275 45.136372 45.458275 45.438297 45.450829 45.381657 45.140335 44.797977 44.264080 43.668228 43.150658 42.624523 42.188282 42.211948 42.038029 41.493156 40.682415 39.953651 39.480259
41.645573 42.087334 42.264309 42.915104 43.242523 43.202568 43.069534 42.907200 42.747265 42.637852 42.648640 42.847389 43.287754 43.990845 44.865463 45.687977 46.348351 46.995922 47.756031 48.700554 49.694241 50.731670 52.133755 53.141296 53.578579 53.661606 53.566158 53.448437 53.356468 53.233334 53.021606 52.661797 52.178974 51.668091 51.203690 50.821270 50.133690 49.458637 49.539062 49.668892 49.486721 49.350639 49.209461 49.039490 48.847202 48.636997 47.303490 45.942944 46.405224 46.907490 47.125046 47.328548 47.035812 46.628933 46.075775 45.492519 45.011993 44.335297 43.783157 43.884560 43.850582 43.399857 42.845757 42.276947 41.834358
43.562275 43.697941 43.670582 44.518993 45.154137 45.095486 44.951431 44.777241 44.606689 44.498474 44.522797 44.752777 45.235939 45.969654 46.843983 47.636333 48.247276 48.838421 49.200333 49.613895 51.244473 52.879887 54.136559 55.082542 55.640018 55.888424 55.873505 55.777882 55.649258 55.443447 55.117504 54.606312 53.978306 53.356953 52.845154 52.468719 51.760998 50.893181 51.368969 51.640236 51.541924 51.418404 51.228584 50.977497 50.700497 50.402370 49.663368 48.562130 48.607956 48.804478 49.026787 49.013763 48.731434 48.323357 47.788170 47.248524 46.811153 46.391563 45.981197 45.927139 45.676262 45.202202 44.704685 44.234776 43.883305
45.604584 46.093460 46.127434 46.532131 47.076939 47.177311 47.046658 46.884441 46.724171 46.640400 46.694550 46.954380 47.458721 48.210827 49.081272 49.872452 50.513779 51.080879 50.911182 50.942051 52.815556 54.880165 56.096664 57.023712 57.606491 57.930328 57.992050 57.917336 57.769970 57.523914 57.133858 56.444382 55.607796 54.849987 54.258987 53.854485 52.846451 51.920376 52.561123 53.220695 53.207272 53.127094 52.940983 52.657661 52.303818 51.938721 51.586861 50.921932 50.320309 50.495274 50.745239 50.622383 50.396545 50.049145 49.575756 49.091175 48.707317 48.482746 48.318451 48.047104 47.626965 47.102325 46.557991 46.090469 45.782600
47.624847 48.391495 48.566174 48.521584 49.035263 49.406441 49.318649 49.195564 49.067509 49.020931 49.121223 49.407379 49.915352 50.666027 51.549072 52.378063 53.090042 53.705711 53.992981 54.245270 55.672619 57.097713 58.135345 58.924263 59.476761 59.830238 59.959545 59.924961 59.800644 59.563728 59.036034 58.122971 57.084057 56.189724 55.526108 55.133457 54.622303 53.893753 54.054401 54.544132 54.697357 54.678185 54.510262 54.217949 53.810478 53.213947 52.556606 52.336582 52.057053 52.148163 52.253242 52.206223 52.064220 51.825943 51.470669 50.922207 50.363171 50.436802 50.447079 50.160263 49.551907 48.763966 48.369354 47.955307 47.521275
49.625782 50.304970 50.587521 50.972515 51.526577 51.717201 51.693260 51.638027 51.579529 51.584702 51.698944 51.924763 52.366882 53.105766 54.079800 55.048779 55.853600 56.509396 57.090725 57.730549 58.239391 58.656837 59.828903 60.704964 61.186214 61.573349 61.789906 61.849407 61.776764 61.522667 60.860962 59.809143 58.651299 57.652546 56.962345 56.598953 56.442024 56.038536 55.607727 55.917248 56.271889 56.260147 56.085495 55.760242 55.316936 54.411102 53.271221 52.901329 53.530685 53.730717 53.746677 53.792137 53.749306 53.621899 53.417400 52.748699 52.113125 52.370003 52.617336 52.292484 51.422832 50.450500 50.053001 49.624405 49.003918
51.675117 52.183945 52.520138 53.345451 53.947330 54.059296 54.109753 54.142643 54.172882 54.190685 54.177063 54.259441 54.616001 55.337070 56.386871 57.539280 58.517853 59.239063 59.810200 60.413265 60.346783 60.166939 61.290218 62.382793 62.794693 63.210125 63.502357 63.677345 63.712360 63.452377 62.765507 61.685730 60.515240 59.516544 58.858315 58.541706 58.436058 58.283691 57.987167 58.056526 58.093449 57.999077 57.760113 57.366787 56.874023 56.185238 54.752712 53.922230 54.590816 55.239758 55.275948 55.368774 55.423252 55.382889 55.296177 55.015774 54.486748 54.222336 54.142483 54.139561 53.610855 52.693729 51.912060 51.040096 50.272587
53.859409 54.614510 55.070503 55.746620 56.181427 56.368263 56.504387 56.639687 56.748249 56.722816 56.560936 56.510967 56.789124 57.486794 58.506878 59.669796 60.728523 61.503540 62.099331 62.716923 63.017239 62.911854 63.522980 64.056976 64.419907 64.814201 65.168221 65.473038 65.635681 65.445305 64.834702 63.865589 62.810394 61.934395 61.367119 61.118637 61.029400 60.970604 60.790379 60.496735 60.262379 59.999012 59.593029 59.084568 58.512630 57.954399 57.196968 56.265789 56.281235 56.691994 56.853504 56.946892 57.042126 57.077522 57.059456 57.006821 56.567764 55.672291 55.341591 55.669460 55.502117 54.632423 53.445763 52.278889 51.434937
56.210724 57.071434 57.392612 57.335735 58.058994 58.600582 58.819962 59.049854 59.219437 59.176704 58.973351 58.867565 59.100159 59.740044 60.632992 61.594265 62.465870 63.174622 63.772102 64.411484 65.002983 65.391495 65.591583 65.806259 66.119934 66.482933 66.886955 67.286499 67.569801 67.522881 67.050095 66.311203 65.482765 64.820358 64.398872 64.222328 64.111252 63.927589 63.556557 63.127968 62.732380 62.243431 61.627136 60.961227 60.281250 59.683830 59.174572 58.450344 57.865261 58.110458 58.481113 58.578129 58.671940 58.722370 58.721489 58.684460 58.436859 57.872383 57.541973 57.483479 57.009544 56.012390 54.692329 53.462437 52.671768
58.685959 59.459320 59.245903 58.815689 59.771660 60.757801 61.044155 61.346512 61.602642 61.633465 61.502728 61.460896 61.708408 62.250271 62.941910 63.610458 64.215744 64.738625 65.215492 65.821793 66.509369 67.064301 67.403427 67.633492 67.931641 68.313858 68.767639 69.216644 69.566635 69.671371 69.385521 68.897133 68.346619 67.901573 67.643929 67.522209 67.374252 67.018181 66.485100 65.945488 65.363235 64.654953 63.846043 63.023502 62.249298 61.554375 60.933556 60.306801 59.785088 59.897072 60.122437 60.287003 60.396000 60.414677 60.376717 60.302254 60.167725 59.937206 59.618347 59.153301 58.406300 57.303986 55.958092 54.805283 54.189861
61.238232 61.888214 61.989208 61.771519 62.403904 62.911026 63.191326 63.547382 63.918541 64.138077 64.191582 64.290527 64.596352 65.075493 65.573700 65.977638 66.286072 66.551598 66.854805 67.384216 68.121254 68.798828 69.269341 69.591652 69.929497 70.352669 70.840927 71.299225 71.648544 71.821503 71.768768 71.508247 71.180244 70.907448 70.768173 70.639320 70.385368 69.938148 69.366753 68.754120 68.019081 67.158066 66.214821 65.279785 64.421516 63.553829 62.742760 62.097759 61.697056 61.597515 61.758739 62.027767 62.203430 62.183491 62.090065 61.951908 61.764751 61.496433 61.155800 60.657185 59.800308 58.722767 57.510365 56.552387 56.175396
63.807487 64.312599 64.596329 64.770401 64.932175 65.114616 65.368675 65.716759 66.174736 66.615349 66.951797 67.288345 67.703445 68.186699 68.554840 68.722778 68.732368 68.701057 68.831627 69.268295 69.962982 70.612068 71.020287 71.376747 71.839714 72.438583 73.009216 73.428833 73.726456 73.943207 74.070023 74.048546 73.922966 73.784477 73.637383 73.400307 73.016678 72.532387 71.967590 71.330254 70.591560 69.712250 68.718941 67.735596 66.775345 65.738998 64.748535 63.947372 63.461601 63.338707 63.521408 63.849422 64.090256 64.060616 63.888313 63.669910 63.392136 63.065056 62.711899 62.208717 61.346016 60.351685 59.410606 58.743317 58.623951
66.316002 66.718964 66.937408 67.072273 67.205818 67.370316 67.570908 67.853951 68.321198 68.932800 69.583435 70.201401 70.798401 71.353806 71.673958 71.664391 71.423370 71.186661 71.189003 71.500793 71.885773 72.134911 72.333961 72.691864 73.330704 74.150040 74.933853 75.467064 75.775818 76.055275 76.286240 76.418556 76.465149 76.425713 76.240005 75.925163 75.495735 75.012711 74.467903 73.853996 73.161705 72.339996 71.359566 70.365044 69.334702 68.186996 67.078270 66.176636 65.616035 65.442039 65.590866 65.896454 66.119942 66.058197 65.785820 65.453720 65.083000 64.699387 64.350975 63.905872 63.145756 62.274078 61.584148 61.244293 61.353886