64 64
21.579277 22.308107 23.035618 23.676188 24.180887 24.646902 25.122524 25.628477 26.151447 26.656752 27.105124 27.452494 27.673893 27.809925 27.890985 27.924864 27.919943 27.886456 27.843140 27.802549 27.766054 27.731342 27.692755 27.648748 27.600084 27.549015 27.495481 27.442759 27.395069 27.358208 27.340666 27.352701 27.406221 27.510733 27.673464 27.896130 28.169645 28.481857 28.819225 29.167337 29.507362 29.821028 30.090044 30.296438 30.424456 30.463783 30.414631 30.284872 30.083954 29.818268 29.497324 29.134157 28.743807 28.343143 27.946711 27.570726 27.248316 26.996744 26.809917 26.659615 26.511475 26.352999 26.199066 26.096905 26.073442
20.988272 21.690760 22.367184 22.993900 23.560604 24.124508 24.681091 25.244989 25.830276 26.385075 26.873867 27.260183 27.524130 27.715593 27.835512 27.898220 27.925833 27.932335 27.931822 27.922590 27.902859 27.877111 27.839640 27.791967 27.734789 27.670506 27.601082 27.530718 27.464195 27.406658 27.366341 27.352114 27.374071 27.442385 27.564968 27.747049 27.983505 28.263245 28.573938 28.900867 29.224985 29.528067 29.790730 29.995117 30.125019 30.170424 30.129467 30.006834 29.815098 29.562744 29.259703 28.918304 28.552353 28.176338 27.803951 27.463385 27.188044 26.980885 26.819155 26.673710 26.521704 26.364862 26.226389 26.136770 26.121443
20.271406 20.950829 21.596670 22.211048 22.855711 23.530960 24.202698 24.839079 25.471128 26.060440 26.570576 26.978762 27.293713 27.514090 27.640835 27.704359 27.744982 27.801598 27.877390 27.946836 27.980270 27.980379 27.956123 27.911020 27.851223 27.778158 27.696978 27.613094 27.531656 27.458788 27.400288 27.363499 27.356899 27.391890 27.476433 27.616962 27.811911 28.053144 28.330488 28.629658 28.931339 29.216902 29.466698 29.662710 29.790432 29.840096 29.808325 29.698139 29.519625 29.284109 29.002207 28.685299 28.345026 27.993923 27.651215 27.357677 27.134531 26.969007 26.828665 26.686649 26.533930 26.380913 26.258766 26.201040 26.221060
19.552837 20.198145 20.813330 21.427517 22.105776 22.863079 23.645695 24.357409 25.028095 25.639595 26.154324 26.592701 26.950018 27.168732 27.274652 27.307156 27.355026 27.467896 27.640938 27.823206 27.960148 28.016327 28.023336 27.992043 27.936024 27.861477 27.775568 27.684546 27.593639 27.509872 27.439226 27.386847 27.358145 27.363726 27.416189 27.519180 27.672098 27.871180 28.109543 28.374172 28.646191 28.906452 29.136253 29.318588 29.439848 29.490374 29.466490 29.370050 29.207815 28.992371 28.734018 28.441883 28.127159 27.803913 27.501810 27.261845 27.087395 26.954586 26.829475 26.691349 26.539024 26.396833 26.298916 26.275450 26.325336
18.911152 19.506556 20.078791 20.678104 21.369463 22.163696 22.994576 23.761396 24.451443 25.084373 25.633127 26.120489 26.495621 26.707674 26.772074 26.772175 26.824392 26.991865 27.262760 27.570007 27.829287 27.975315 28.026035 28.018969 27.973701 27.907904 27.826731 27.736366 27.643970 27.555693 27.478436 27.417330 27.376173 27.361143 27.385334 27.457600 27.574167 27.732307 27.928843 28.152859 28.388508 28.616707 28.820028 28.982929 29.092905 29.140604 29.122189 29.038198 28.893423 28.697001 28.460102 28.192411 27.905750 27.616415 27.363665 27.172878 27.036913 26.926493 26.812536 26.680281 26.536819 26.413662 26.348225 26.358742 26.433678
18.398691 18.916082 19.419977 19.975843 20.667400 21.494574 22.329178 23.095642 23.792980 24.454132 25.046192 25.576447 25.977564 26.187683 26.230801 26.213594 26.272606 26.482815 26.834915 27.250387 27.619513 27.853889 27.955879 27.977139 27.951302 27.903360 27.836269 27.756496 27.671911 27.588264 27.512224 27.449709 27.404507 27.379406 27.383867 27.429264 27.515594 27.638615 27.794989 27.975744 28.169546 28.360348 28.532696 28.672073 28.766918 28.808550 28.792229 28.717276 28.587387 28.409212 28.192669 27.949583 27.692347 27.443714 27.239368 27.089823 26.982182 26.887276 26.780079 26.655790 26.530815 26.436184 26.407719 26.454899 26.543154
18.013021 18.427025 18.850151 19.342382 20.000360 20.828798 21.680958 22.418606 23.108747 23.781572 24.401827 24.967289 25.421501 25.664724 25.731628 25.732349 25.812094 26.054258 26.457140 26.938166 27.376070 27.664959 27.810574 27.858131 27.858898 27.836109 27.793217 27.734434 27.668007 27.599413 27.534319 27.478998 27.436491 27.409615 27.405216 27.431982 27.492298 27.583935 27.703331 27.844093 27.995445 28.146639 28.285088 28.398100 28.474751 28.507101 28.489483 28.420616 28.302742 28.141953 27.947088 27.729906 27.503342 27.297766 27.137365 27.023373 26.936537 26.851484 26.750690 26.636904 26.535549 26.477274 26.487099 26.557953 26.637934
17.678139 18.014542 18.337160 18.741768 19.328018 20.122705 20.988169 21.730267 22.409687 23.079166 23.710300 24.297443 24.818188 25.146749 25.301603 25.371675 25.499582 25.772425 26.193050 26.684282 27.128038 27.422977 27.588402 27.657316 27.689669 27.698942 27.682255 27.646450 27.606316 27.568134 27.531317 27.496042 27.465128 27.443529 27.436613 27.452671 27.494217 27.559996 27.648272 27.753906 27.866852 27.979685 28.083817 28.169626 28.226589 28.247047 28.225668 28.160418 28.053213 27.909143 27.736034 27.545069 27.354696 27.194981 27.076855 26.990936 26.917088 26.835247 26.738297 26.638968 26.565065 26.542252 26.576828 26.645473 26.696478
17.268633 17.574184 17.819193 18.133017 18.613968 19.330454 20.162556 20.949469 21.666939 22.339172 22.979788 23.575823 24.134808 24.588545 24.875267 25.073658 25.283703 25.592197 26.007957 26.459791 26.845304 27.118275 27.280218 27.374607 27.439930 27.471323 27.468863 27.457397 27.452971 27.461245 27.473335 27.481466 27.477871 27.469479 27.467436 27.479101 27.507992 27.554075 27.616865 27.694180 27.777279 27.857517 27.929892 27.988792 28.026455 28.034607 28.008734 27.946365 27.848536 27.719608 27.571302 27.414305 27.270302 27.158098 27.074837 27.004484 26.932798 26.847427 26.752562 26.667511 26.619553 26.620996 26.661957 26.702642 26.702023
16.722078 17.055408 17.282595 17.523546 17.902634 18.502893 19.268915 20.070055 20.833838 21.530535 22.197306 22.814341 23.376535 23.909678 24.344971 24.690201 25.011572 25.363138 25.754295 26.135832 26.463991 26.713245 26.886091 27.018305 27.109011 27.144201 27.152082 27.163927 27.201590 27.268124 27.347399 27.417540 27.461723 27.479061 27.489828 27.509134 27.543558 27.586132 27.628906 27.670069 27.717070 27.769829 27.818644 27.855408 27.875042 27.872416 27.842649 27.783558 27.696333 27.590755 27.477526 27.363056 27.267624 27.193695 27.132141 27.064192 26.981192 26.884907 26.791191 26.719622 26.689144 26.700289 26.724653 26.716423 26.638639
16.094379 16.494814 16.740768 16.940929 17.255156 17.759720 18.428419 19.183840 19.951984 20.680685 21.370794 22.015209 22.588232 23.122952 23.626480 24.085079 24.494480 24.885067 25.262978 25.619295 25.932899 26.196388 26.416382 26.592505 26.703938 26.740429 26.755749 26.790123 26.873545 27.004951 27.159554 27.303814 27.408726 27.465151 27.507576 27.562286 27.623707 27.676647 27.709866 27.722404 27.727459 27.740484 27.763466 27.781881 27.784805 27.770891 27.740116 27.693132 27.628679 27.554094 27.472437 27.395617 27.334141 27.283592 27.227594 27.151955 27.053370 26.944975 26.849419 26.786287 26.759556 26.757826 26.736822 26.656101 26.478432
15.496428 15.949703 16.222464 16.445990 16.760410 17.203131 17.767124 18.423075 19.129330 19.826942 20.522598 21.206018 21.793821 22.324354 22.830626 23.317768 23.774576 24.198446 24.590528 24.955112 25.295923 25.606297 25.874304 26.093536 26.233759 26.290392 26.325785 26.390673 26.517088 26.707705 26.933111 27.149805 27.318153 27.426968 27.521124 27.624043 27.721882 27.798594 27.840828 27.846439 27.827681 27.807806 27.801359 27.796930 27.789282 27.772938 27.746716 27.712452 27.669876 27.619284 27.555456 27.493725 27.439520 27.387859 27.324652 27.236280 27.124275 27.009718 26.912346 26.844618 26.803383 26.760252 26.668242 26.490509 26.188244
14.960488 15.435082 15.755651 16.046261 16.399885 16.821918 17.306293 17.844120 18.432156 19.049400 19.716688 20.412981 21.014360 21.538679 22.043289 22.533525 23.002033 23.446444 23.857405 24.246346 24.617849 24.966087 25.277279 25.536457 25.721834 25.824240 25.900377 26.006178 26.176144 26.414690 26.694893 26.970154 27.193943 27.357430 27.509037 27.661800 27.800879 27.909531 27.971710 27.986341 27.963793 27.926817 27.899525 27.886560 27.879259 27.869997 27.854206 27.827765 27.789709 27.739748 27.677170 27.611197 27.545486 27.476383 27.394985 27.291794 27.171770 27.053249 26.949259 26.864140 26.787758 26.677052 26.489470 26.190092 25.743301
14.486644 14.953872 15.330771 15.701860 16.108084 16.537617 16.974415 17.416409 17.879250 18.386869 18.999290 19.665592 20.271544 20.796352 21.295622 21.777071 22.242523 22.695036 23.124336 23.535761 23.933998 24.310579 24.649431 24.944153 25.196402 25.366926 25.500360 25.654757 25.867260 26.145737 26.462358 26.774866 27.038622 27.247719 27.449551 27.644958 27.819998 27.960077 28.046753 28.077610 28.064711 28.028446 28.001997 27.996355 27.996607 27.997902 27.992971 27.971060 27.928242 27.864752 27.786863 27.701796 27.613205 27.519892 27.419188 27.305058 27.178875 27.053804 26.935083 26.818079 26.682028 26.478893 26.172934 25.731964 25.131971
14.020627 14.481194 14.920847 15.365036 15.829074 16.274166 16.684219 17.063076 17.432829 17.856823 18.395195 19.009052 19.597351 20.127754 20.617956 21.083380 21.537659 21.987564 22.427387 22.861544 23.285114 23.686289 24.026234 24.318304 24.610933 24.878197 25.108313 25.337036 25.592710 25.900074 26.237995 26.566963 26.851473 27.099375 27.339525 27.562096 27.760672 27.922123 28.028549 28.076328 28.079666 28.061768 28.054424 28.063417 28.075979 28.087721 28.091135 28.071880 28.022493 27.944853 27.845001 27.737713 27.623615 27.506405 27.388271 27.264002 27.129808 26.991945 26.844765 26.676508 26.452271 26.134907 25.693253 25.098198 24.350861
13.540651 13.995873 14.462049 14.874394 15.295089 15.771859 16.257345 16.682625 17.045120 17.430643 17.917587 18.475906 19.025194 19.551928 20.032270 20.481485 20.926491 21.368023 21.810181 22.259212 22.704718 23.088116 23.387859 23.657022 23.955177 24.294014 24.649670 25.002874 25.337399 25.666023 26.009846 26.341534 26.646847 26.930132 27.193396 27.429110 27.634945 27.802973 27.917862 27.979603 28.001858 28.009802 28.029024 28.053865 28.077925 28.099442 28.107548 28.089800 28.035730 27.948095 27.833220 27.707581 27.576452 27.442352 27.309334 27.170172 27.019497 26.852104 26.641884 26.374632 26.061670 25.627783 25.041170 24.290689 23.404299
13.108213 13.460382 13.718066 13.914776 14.236032 14.759566 15.408893 16.054691 16.614107 17.073015 17.538103 18.052502 18.571260 19.086382 19.560444 19.998919 20.435661 20.874449 21.315229 21.766962 22.185213 22.487127 22.729301 22.982992 23.304670 23.696724 24.141298 24.611422 25.052374 25.423658 25.773750 26.120821 26.453276 26.761230 27.038303 27.278700 27.477659 27.640289 27.756567 27.829092 27.870333 27.904186 27.941475 27.977049 28.008667 28.034811 28.044138 28.025002 27.969713 27.877653 27.759640 27.627853 27.486780 27.341177 27.192066 27.029789 26.843449 26.622252 26.307016 25.918179 25.506701 24.962605 24.231136 23.335621 22.326519
12.708616 12.872060 12.816344 12.747343 12.912389 13.448984 14.273185 15.176764 16.001671 16.665134 17.197184 17.710621 18.215887 18.722853 19.190493 19.624243 20.057001 20.496572 20.944008 21.360348 21.679565 21.886919 22.073589 22.327278 22.701889 23.186356 23.718180 24.258537 24.771973 25.200655 25.579138 25.944118 26.291847 26.615707 26.904003 27.144682 27.336548 27.490456 27.607182 27.688812 27.747566 27.794056 27.833836 27.871674 27.906122 27.930702 27.935030 27.911469 27.852497 27.760366 27.647663 27.517035 27.368216 27.208118 27.030558 26.824032 26.577854 26.281704 25.894989 25.404104 24.854462 24.155716 23.291037 22.271730 21.167561
12.339523 12.328321 12.071190 11.824105 11.863015 12.376008 13.291520 14.333768 15.325538 16.155651 16.798883 17.383297 17.931259 18.426952 18.885094 19.320847 19.754345 20.197136 20.633259 20.991034 21.233423 21.376841 21.535782 21.811464 22.251595 22.822578 23.445423 24.035934 24.582005 25.040558 25.439554 25.819952 26.173037 26.500393 26.795591 27.047020 27.244919 27.396870 27.516312 27.606546 27.670656 27.714186 27.747282 27.768614 27.780401 27.791464 27.796362 27.779606 27.723497 27.631018 27.517546 27.378904 27.213640 27.021063 26.793444 26.523663 26.203415 25.819712 25.351299 24.774321 24.072577 23.236494 22.262447 21.150730 19.981705
12.017664 11.957106 11.686450 11.434562 11.471103 11.970346 12.838735 13.843436 14.831000 15.704923 16.406210 17.042496 17.649794 18.154587 18.614891 19.065161 19.509539 19.955711 20.365730 20.676321 20.894148 21.036661 21.215353 21.532053 22.024925 22.657827 23.337269 23.957176 24.494789 24.947321 25.354965 25.741060 26.094172 26.416363 26.708939 26.960955 27.166744 27.326637 27.454449 27.551418 27.621214 27.669930 27.674572 27.639393 27.604370 27.589655 27.595156 27.600571 27.577850 27.499075 27.364716 27.194601 26.990137 26.747122 26.458544 26.117655 25.716497 25.240318 24.669470 23.986170 23.180731 22.249039 21.192989 20.024300 18.811172
11.764234 11.785238 11.622864 11.490324 11.609296 12.091507 12.853285 13.732265 14.600280 15.391340 16.076040 16.731314 17.365509 17.894247 18.367292 18.839796 19.304577 19.759182 20.157589 20.450136 20.693064 20.894756 21.144215 21.522404 22.051832 22.699038 23.377863 23.980145 24.481077 24.908823 25.315617 25.697300 26.043217 26.355671 26.638136 26.880039 27.077795 27.238043 27.367851 27.471342 27.547899 27.586651 27.540670 27.448978 27.361952 27.315056 27.319019 27.351973 27.363266 27.304577 27.146309 26.935707 26.682333 26.380972 26.026499 25.611485 25.126266 24.559082 23.897871 23.127087 22.241392 21.240520 20.134596 18.939796 17.690077
11.548198 11.716182 11.712384 11.711989 11.907509 12.376854 13.057775 13.819069 14.551950 15.229087 15.850930 16.490456 17.103542 17.637426 18.125380 18.622189 19.117838 19.589340 20.006512 20.323061 20.611494 20.913668 21.257389 21.700691 22.256960 22.885151 23.512289 24.045910 24.491100 24.901684 25.300604 25.670588 26.004511 26.302418 26.568272 26.791922 26.976196 27.127316 27.249872 27.347542 27.423363 27.434956 27.340971 27.197823 27.068289 26.997849 26.998518 27.042452 27.071156 27.023632 26.854128 26.598850 26.294172 25.934690 25.513592 25.023911 24.459082 23.812305 23.077702 22.241631 21.300158 20.257372 19.125216 17.916138 16.642952
11.309124 11.628330 11.804328 11.927367 12.174330 12.629442 13.257488 13.938084 14.567021 15.146829 15.724252 16.322149 16.878599 17.382263 17.878578 18.403790 18.933090 19.428881 19.887611 20.263987 20.610577 20.997011 21.439064 21.939106 22.502388 23.090914 23.639643 24.091097 24.505665 24.910921 25.294996 25.645483 25.958967 26.240339 26.486025 26.692301 26.863138 26.999399 27.107676 27.192949 27.257736 27.243046 27.117811 26.943233 26.786165 26.696253 26.686424 26.725870 26.751030 26.691137 26.495546 26.193060 25.836109 25.420071 24.936769 24.381054 23.749098 23.039120 22.248592 21.364716 20.386431 19.317558 18.167843 16.948944 15.674209
11.029697 11.448117 11.780073 12.041392 12.338608 12.783900 13.356876 13.947578 14.508409 15.065781 15.636336 16.190201 16.689648 17.152836 17.649153 18.193884 18.749500 19.269804 19.763775 20.225445 20.650042 21.090214 21.576777 22.107912 22.661819 23.193628 23.662849 24.093290 24.512081 24.906534 25.272636 25.604210 25.899370 26.162323 26.388405 26.576633 26.728413 26.846191 26.935320 27.004202 27.054262 27.038063 26.909599 26.728489 26.561863 26.458847 26.430880 26.444775 26.438181 26.335571 26.085413 25.736137 25.329227 24.859934 24.320484 23.707819 23.021711 22.260818 21.426111 20.509436 19.504776 18.416187 17.255430 16.034525 14.764587
10.729459 11.201628 11.600436 11.951896 12.307917 12.738161 13.244516 13.778295 14.352811 14.954614 15.522073 16.034420 16.494907 16.945187 17.450197 18.011730 18.581024 19.115116 19.630085 20.148706 20.653236 21.148769 21.659521 22.184954 22.702475 23.180000 23.623634 24.059452 24.473650 24.854986 25.204147 25.518301 25.785479 26.006924 26.206207 26.388290 26.540897 26.650698 26.722708 26.774679 26.809774 26.808641 26.708145 26.549799 26.394203 26.286201 26.231979 26.200533 26.133747 25.960545 25.644367 25.252462 24.798468 24.278229 23.688505 23.026268 22.294186 21.490644 20.616585 19.671675 18.647461 17.549782 16.386312 15.167889 13.908992
10.390901 10.911242 11.371623 11.774125 12.166083 12.585486 13.058407 13.589834 14.174034 14.781178 15.338791 15.825250 16.272911 16.741272 17.265327 17.843531 18.424339 18.970177 19.500374 20.031000 20.562208 21.092260 21.615643 22.130426 22.622328 23.085026 23.529171 23.961843 24.368309 24.737497 25.069746 25.339470 25.538132 25.706352 25.878626 26.057766 26.231241 26.360743 26.419548 26.447815 26.484121 26.514503 26.478048 26.363943 26.234739 26.125534 26.039392 25.948778 25.801708 25.538408 25.170135 24.739048 24.243507 23.679777 23.046558 22.342134 21.569155 20.728344 19.821613 18.853804 17.816252 16.711653 15.549913 14.342042 13.103208
10.045558 10.582342 11.038198 11.421960 11.964157 12.470627 12.938400 13.445844 14.000936 14.570026 15.099830 15.576153 16.035910 16.530273 17.079952 17.670637 18.257980 18.813116 19.357384 19.891350 20.422161 20.946133 21.461950 21.967112 22.452448 22.910942 23.353674 23.778936 24.174362 24.530106 24.833918 25.035418 25.167065 25.283983 25.433460 25.601517 25.712530 25.761948 25.811470 25.881763 25.992855 26.087566 26.135323 26.104784 26.006292 25.893747 25.770487 25.612467 25.376629 25.050177 24.651970 24.185865 23.653563 23.053633 22.384481 21.645987 20.840097 19.969288 19.035412 18.045689 16.999697 15.895232 14.742112 13.549794 12.333389
9.737378 10.264060 10.640950 11.018810 11.691006 12.334593 12.823307 13.320602 13.835838 14.351045 14.847153 15.320457 15.796428 16.312246 16.881386 17.476118 18.060181 18.619999 19.172878 19.707546 20.229462 20.742167 21.245712 21.734997 22.200846 22.645681 23.079241 23.493402 23.875244 24.219919 24.485798 24.629263 24.706293 24.787670 24.891451 24.928146 24.848160 24.779791 24.815668 24.969275 25.230148 25.501715 25.658121 25.689848 25.620874 25.502125 25.342016 25.127739 24.848549 24.497738 24.075672 23.581978 23.018822 22.388943 21.690605 20.923717 20.091127 19.194750 18.238951 17.231894 16.180008 15.079915 13.938847 12.765883 11.576478
9.440085 9.960952 10.445975 10.911103 11.569695 12.162205 12.669020 13.164204 13.654350 14.131313 14.598956 15.072860 15.560170 16.086235 16.657730 17.246607 17.817520 18.374651 18.923992 19.454464 19.962906 20.459984 20.945915 21.413940 21.858805 22.285757 22.700346 23.095718 23.462917 23.797478 24.038561 24.151205 24.202732 24.253468 24.258297 24.092890 23.825005 23.638113 23.878635 24.073103 24.298855 24.763092 25.077427 25.166712 25.106169 24.966797 24.782305 24.541721 24.236128 23.862982 23.421383 22.909391 22.326090 21.671556 20.949287 20.160555 19.307085 18.390907 17.418230 16.398973 15.341172 14.250544 13.127810 11.980536 10.824588
9.140358 9.659805 10.210851 10.789388 11.373797 11.931882 12.460112 12.962208 13.440044 13.898603 14.351933 14.820807 15.312512 15.838254 16.395807 16.963810 17.521374 18.069599 18.603989 19.115097 19.603722 20.081284 20.546165 20.989965 21.412735 21.822163 22.216879 22.592482 22.941725 23.262585 23.505152 23.624336 23.686041 23.711700 23.608082 23.289715 22.881821 22.993519 23.249109 23.446989 23.586016 23.990858 24.426262 24.571018 24.502518 24.340076 24.130972 23.863012 23.532566 23.141455 22.684412 22.158766 21.561575 20.889521 20.147596 19.342876 18.476662 17.549206 16.567305 15.543292 14.485277 13.404971 12.306507 11.191433 10.075704
8.830381 9.356497 9.906792 10.479401 11.074847 11.652022 12.188825 12.696936 13.173524 13.631195 14.084938 14.547059 15.032743 15.549895 16.086033 16.625490 17.165909 17.699255 18.214190 18.702168 19.161596 19.609875 20.047308 20.465124 20.869808 21.259375 21.630655 21.982395 22.294512 22.568674 22.817944 22.993382 23.122522 23.174210 23.024492 22.648951 22.182053 22.257229 22.516672 22.718481 22.859987 23.300444 23.764729 23.907642 23.804008 23.614628 23.378368 23.087200 22.739479 22.334530 21.866108 21.331255 20.725191 20.043537 19.287352 18.470608 17.596758 16.665567 15.683818 14.661963 13.611156 12.544269 11.471854 10.393991 9.322042
8.718690 9.035993 9.590666 10.165067 10.756196 11.337626 11.875834 12.377607 12.852501 13.317286 13.778620 14.238808 14.710922 15.207004 15.719416 16.233145 16.749722 17.260120 17.751577 18.211889 18.640911 19.052649 19.456530 19.849117 20.228640 20.593557 20.941313 21.232626 21.459633 21.655554 21.848270 22.053251 22.286055 22.498055 22.483837 22.179005 21.749474 21.424492 21.681953 21.885546 22.149664 22.720583 23.095104 23.152348 22.996231 22.781416 22.522415 22.214993 21.856533 21.441837 20.965960 20.425058 19.796032 19.079023 18.301645 17.492489 16.647123 15.736130 14.761599 13.750558 12.713355 11.664787 10.615741 9.576119 8.553182
8.788628 8.926210 9.259149 9.836193 10.420938 10.997026 11.534539 12.030709 12.501446 12.966850 13.430276 13.892690 14.354153 14.821157 15.299738 15.786791 16.274967 16.753555 17.210501 17.638149 18.035225 18.415236 18.786997 19.149771 19.501516 19.841650 20.149082 20.352261 20.457954 20.486496 20.535202 20.720234 21.059227 21.475960 21.763288 21.712109 21.450781 21.191641 21.142832 21.366903 21.769627 22.166245 22.353544 22.271713 22.077225 21.842634 21.567055 21.246040 20.876961 20.456495 19.977634 19.397644 18.701344 17.933533 17.136189 16.343130 15.549076 14.712715 13.789861 12.796629 11.783336 10.762410 9.744485 8.742731 7.772118
8.851948 8.958972 9.093234 9.487509 10.064287 10.634258 11.169245 11.666722 12.134221 12.590991 13.049016 13.508154 13.962100 14.404781 14.847959 15.297721 15.746784 16.185701 16.604883 16.999365 17.365053 17.713644 18.052242 18.385408 18.708918 19.022959 19.273638 19.384752 19.334309 19.174229 19.082495 19.205673 19.592558 20.170801 20.740000 21.032206 21.027924 20.929237 20.931273 21.086809 21.316399 21.474684 21.442524 21.272600 21.060873 20.810150 20.519732 20.185766 19.806957 19.381697 18.883366 18.235785 17.474062 16.659464 15.847522 15.076751 14.339788 13.585209 12.752153 11.804304 10.823805 9.841934 8.866861 7.912585 6.993661
8.903700 8.979753 9.075564 9.203332 9.684853 10.246510 10.778280 11.273508 11.736048 12.184153 12.634655 13.084157 13.526624 13.949365 14.356982 14.763857 15.169207 15.565154 15.945307 16.305311 16.639509 16.958078 17.266733 17.568895 17.863909 18.150419 18.357979 18.390667 18.212151 17.916412 17.716652 17.783234 18.177601 18.825291 19.541636 20.093645 20.348963 20.403597 20.437605 20.509933 20.557581 20.508848 20.372091 20.188120 19.961378 19.696039 19.391251 19.045639 18.659910 18.229458 17.696348 16.997742 16.188297 15.342128 14.525301 13.780977 13.098000 12.417582 11.666121 10.787487 9.848489 8.914011 7.993202 7.098239 6.239676
8.945482 8.989030 9.047579 9.133747 9.293097 9.836650 10.358167 10.845092 11.299103 11.737906 12.180346 12.618733 13.044847 13.447055 13.821912 14.182159 14.539021 14.891110 15.231818 15.555607 15.861974 16.154026 16.436680 16.709965 16.975239 17.231314 17.423300 17.430656 17.206398 16.858025 16.607683 16.633236 17.005754 17.653000 18.386852 18.984459 19.342619 19.482985 19.514774 19.509241 19.465378 19.372074 19.225498 19.029037 18.789551 18.511894 18.195448 17.841349 17.449829 17.015203 16.462540 15.743402 14.917048 14.063887 13.255631 12.538529 11.897489 11.269935 10.577140 9.758909 8.869978 7.990959 7.132651 6.305401 5.516842
8.974479 8.981230 9.000918 9.044114 9.116445 9.404956 9.905643 10.379445 10.821871 11.249281 11.678914 12.102465 12.508612 12.888293 13.234521 13.550393 13.859483 14.167198 14.468112 14.755477 15.034706 15.302173 15.559680 15.807289 16.043222 16.268141 16.462637 16.506390 16.334108 16.025661 15.788512 15.797235 16.121655 16.697088 17.351082 17.882204 18.204611 18.319344 18.334845 18.315199 18.262493 18.165689 18.012390 17.807859 17.559439 17.272175 16.946817 16.587172 16.191198 15.753551 15.213149 14.511139 13.705569 12.874990 12.091432 11.400580 10.784417 10.181257 9.516489 8.734622 7.903136 7.087480 6.299009 5.544771 4.833009
8.988315 8.956404 8.935032 8.932700 8.957025 9.005844 9.426641 9.878386 10.305770 10.721009 11.133263 11.536693 11.918472 12.272645 12.590982 12.870455 13.133793 13.397720 13.658980 13.915116 14.165108 14.407920 14.641159 14.863566 15.072496 15.266633 15.449331 15.565447 15.517071 15.327954 15.162596 15.176456 15.434740 15.884574 16.379725 16.785976 17.015074 17.083067 17.084419 17.052298 16.995277 16.897230 16.741190 16.533371 16.281404 15.989590 15.660188 15.297039 14.899240 14.459846 13.953690 13.284699 12.500332 11.704282 10.978817 10.348544 9.761336 9.156718 8.492437 7.734508 6.967290 6.222393 5.509091 4.831963 4.200596
8.985772 8.915259 8.852103 8.804570 8.778194 8.773767 8.935877 9.356003 9.761126 10.161611 10.554061 10.930794 11.285225 11.611122 11.900224 12.147821 12.368216 12.589954 12.814536 13.038795 13.260091 13.478121 13.688633 13.886853 14.069633 14.236270 14.390316 14.536070 14.619446 14.594804 14.538135 14.571985 14.756242 15.052289 15.377743 15.632453 15.754251 15.786108 15.775908 15.734860 15.676579 15.577104 15.420907 15.214400 14.964339 14.673401 14.345537 13.984535 13.588752 13.150394 12.626025 11.961326 11.203586 10.461161 9.811574 9.262018 8.747979 8.170118 7.491462 6.777459 6.080196 5.410613 4.774989 4.177945 3.624881
8.971442 8.861292 8.755777 8.662171 8.583667 8.524187 8.489443 8.828614 9.203807 9.580378 9.947667 10.295612 10.619093 10.913467 11.171709 11.390486 11.577186 11.759630 11.947237 12.138123 12.330930 12.522816 12.708802 12.883813 13.043025 13.186338 13.316081 13.436385 13.552889 13.647432 13.705664 13.768319 13.891840 14.073009 14.253697 14.376019 14.436847 14.454457 14.434226 14.389008 14.327130 14.224327 14.069864 13.867648 13.622623 13.336208 13.013853 12.659770 12.269220 11.816154 11.224351 10.540587 9.823824 9.151007 8.584374 8.116334 7.674694 7.157939 6.522763 5.878265 5.256314 4.665760 4.109307 3.587550 3.104725
8.945844 8.796646 8.647960 8.507591 8.379701 8.266929 8.177909 8.309168 8.651637 8.996631 9.331853 9.648204 9.938599 10.201446 10.429471 10.619905 10.774547 10.918746 11.069582 11.226939 11.389924 11.554675 11.714106 11.866134 12.005149 12.128320 12.238185 12.337708 12.431039 12.522070 12.612177 12.702114 12.797360 12.899926 12.997006 13.070226 13.110803 13.117265 13.092246 13.046873 12.976317 12.864122 12.708874 12.511876 12.272693 11.995009 11.684188 11.339677 10.957506 10.477811 9.842070 9.125584 8.424082 7.815391 7.327915 6.934768 6.569935 6.154524 5.626259 5.056181 4.512293 3.998172 3.513455 3.059809 2.638484
8.912009 8.724156 8.532766 8.345791 8.170279 8.010150 7.868594 7.803645 8.117677 8.425328 8.724369 9.008685 9.267307 9.495908 9.689843 9.847344 9.970140 10.078921 10.195290 10.320060 10.451453 10.586128 10.719922 10.849126 10.968841 11.075486 11.168239 11.250379 11.326343 11.399064 11.471390 11.543508 11.615377 11.687524 11.751998 11.796668 11.816899 11.810635 11.782651 11.733974 11.650528 11.527493 11.367583 11.172344 10.940246 10.674206 10.375710 10.042955 9.674124 9.194026 8.560674 7.856101 7.179391 6.611292 6.181167 5.860982 5.581484 5.257390 4.818836 4.322167 3.849601 3.403890 2.983643 2.589257 2.254759
8.872199 8.648876 8.415824 8.184099 7.962495 7.757553 7.569673 7.404281 7.609088 7.884060 8.142350 8.390348 8.616092 8.807726 8.964542 9.086784 9.177346 9.253453 9.336700 9.429226 9.528480 9.632536 9.740607 9.848161 9.948288 10.038435 10.117935 10.187170 10.250640 10.310344 10.368828 10.428391 10.485633 10.535609 10.570724 10.590811 10.593627 10.574741 10.534091 10.470136 10.374822 10.245008 10.082782 9.888838 9.663260 9.407898 9.121545 8.803672 8.453512 8.014883 7.433564 6.785772 6.166266 5.651908 5.272293 5.000509 4.768293 4.490474 4.102463 3.672160 3.263490 2.877906 2.513286 2.187744 1.966204
8.827047 8.572742 8.303044 8.029694 7.764000 7.514705 7.283265 7.070796 7.135316 7.379550 7.600851 7.805585 7.992555 8.147670 8.266514 8.352933 8.410146 8.453842 8.504109 8.564754 8.634135 8.708730 8.789936 8.875244 8.956614 9.032233 9.100279 9.160066 9.214632 9.266611 9.316544 9.364166 9.408538 9.442719 9.461455 9.462022 9.444619 9.409767 9.357141 9.280280 9.174725 9.040527 8.878910 8.688204 8.470484 8.226110 7.954244 7.654774 7.327586 6.955665 6.466133 5.912056 5.374953 4.923989 4.584677 4.333734 4.108596 3.834985 3.469572 3.097315 2.744989 2.412840 2.099904 1.862490 1.748008
8.775418 8.495457 8.194839 7.884837 7.578557 7.285393 7.009927 6.754435 6.699310 6.913361 7.103817 7.266903 7.409700 7.527268 7.610254 7.658548 7.678950 7.688860 7.707128 7.736862 7.776894 7.826053 7.882156 7.945224 8.008839 8.070179 8.128608 8.181443 8.229567 8.275892 8.319399 8.359383 8.392074 8.411686 8.414745 8.401022 8.370059 8.323600 8.260503 8.175867 8.086297 7.950823 7.749240 7.534880 7.357367 7.145013 6.888853 6.609087 6.307920 5.989818 5.614252 5.174115 4.733288 4.348744 4.039740 3.787153 3.540681 3.243908 2.912103 2.592927 2.291142 2.006880 1.746179 1.585316 1.545040
8.709386 8.408567 8.084456 7.744095 7.400162 7.066076 6.748647 6.452211 6.301068 6.486694 6.648610 6.779974 6.878964 6.953426 6.998839 7.009345 6.991602 6.968750 6.955500 6.956004 6.969489 6.994961 7.030311 7.071684 7.118328 7.166166 7.214805 7.261726 7.304604 7.344695 7.383618 7.417401 7.439779 7.446936 7.437465 7.412103 7.373156 7.320978 7.249254 7.159046 7.077315 6.934769 6.690415 6.420538 6.256171 6.127924 5.928904 5.670601 5.395973 5.108309 4.811014 4.485021 4.142210 3.821743 3.537279 3.275392 3.001092 2.709243 2.424960 2.081373 1.714906 1.583187 1.443999 1.324540 1.321389
8.625579 8.303590 7.959004 7.595462 7.222957 6.854820 6.500175 6.164397 5.952699 6.109798 6.240843 6.339932 6.399358 6.429152 6.434024 6.407989 6.356112 6.301609 6.258698 6.231910 6.221188 6.226230 6.242460 6.266185 6.296794 6.331588 6.368561 6.407495 6.445986 6.482050 6.513832 6.539264 6.552828 6.551102 6.534505 6.504166 6.461657 6.403429 6.306583 6.175956 6.068796 5.901326 5.631318 5.348426 5.206608 5.159405 5.048589 4.833029 4.584608 4.326221 4.060324 3.792160 3.526210 3.263342 3.002608 2.744723 2.490697 2.241181 2.000333 1.590518 1.193835 1.170896 1.181972 1.078682 1.074516
8.522763 8.181720 7.819221 7.437397 7.044185 6.649775 6.265180 5.894469 5.670601 5.795564 5.893981 5.958519 5.980127 5.960951 5.919518 5.856376 5.772854 5.690058 5.620501 5.570044 5.537445 5.523630 5.523014 5.531348 5.548313 5.571261 5.598715 5.628463 5.659331 5.688043 5.713246 5.730788 5.737611 5.730628 5.710095 5.678761 5.634799 5.573119 5.441708 5.234939 5.051955 4.838720 4.571717 4.340663 4.278160 4.294642 4.254373 4.094022 3.870601 3.639644 3.405650 3.172484 2.941058 2.712835 2.487706 2.266026 2.049240 1.838999 1.637066 1.374660 1.085613 1.026879 0.959082 0.867336 0.834199
8.404447 8.046429 7.667907 7.271248 6.862409 6.450671 6.041463 5.643121 5.454113 5.544306 5.607795 5.635443 5.618346 5.553942 5.462682 5.357546 5.243267 5.135270 5.021427 4.913151 4.845292 4.831203 4.852149 4.870150 4.876454 4.889114 4.907061 4.927801 4.948918 4.969808 4.988217 5.000505 5.001007 4.990376 4.970297 4.938881 4.891350 4.829305 4.684412 4.416353 4.138530 3.878256 3.644576 3.512673 3.528701 3.578260 3.574930 3.450727 3.250079 3.045663 2.841037 2.637566 2.435893 2.238742 2.044993 1.856210 1.673255 1.498134 1.331952 1.175345 1.029783 0.894709 0.776237 0.697123 0.645641
8.273933 7.901182 7.509114 7.100485 6.680348 6.254991 5.829252 5.409607 5.297887 5.354925 5.380905 5.368544 5.310456 5.205309 5.064829 4.915104 4.769768 4.593471 4.381838 4.198913 4.095762 4.087704 4.151881 4.235853 4.278061 4.284048 4.293767 4.306818 4.321631 4.335748 4.347110 4.353461 4.351110 4.339440 4.317468 4.281936 4.233172 4.171460 4.044280 3.796413 3.492465 3.213946 3.025549 2.953161 2.972018 3.018818 3.014172 2.894241 2.716703 2.537607 2.358395 2.179958 2.004811 1.835453 1.670647 1.512318 1.361145 1.217793 1.083713 0.959083 0.843208 0.737018 0.639068 0.563617 0.514472
8.135945 7.751444 7.347773 6.929277 6.500277 6.064326 5.627006 5.196222 5.198074 5.224717 5.214358 5.159166 5.057446 4.910254 4.724120 4.533132 4.336336 4.060471 3.756694 3.503236 3.364366 3.362967 3.470623 3.632010 3.752506 3.765991 3.760004 3.769217 3.779650 3.788883 3.750371 3.678155 3.742391 3.776607 3.750456 3.711914 3.662308 3.601674 3.509612 3.315867 3.064862 2.827230 2.660010 2.562668 2.521688 2.517836 2.495483 2.397713 2.262113 2.104303 1.946604 1.791467 1.641673 1.498775 1.361537 1.231801 1.109394 0.994849 0.888583 0.790170 0.699570 0.618428 0.543412 0.475078 0.420850
7.990129 7.597278 7.185664 6.758729 6.321441 5.879787 5.437793 5.105131 5.142075 5.141127 5.094022 4.998838 4.854949 4.664586 4.436930 4.209964 3.947985 3.594202 3.223994 2.918535 2.750590 2.749995 2.899045 3.128750 3.309694 3.347433 3.316508 3.311421 3.320757 3.329643 3.214390 3.083101 3.189921 3.296547 3.266393 3.226982 3.177627 3.117079 3.045604 2.924372 2.744041 2.559467 2.371953 2.189282 2.055152 1.976734 1.920203 1.876616 1.837013 1.742018 1.604537 1.452036 1.292572 1.158385 1.061724 0.991715 0.914612 0.824336 0.740251 0.662449 0.592583 0.530119 0.473182 0.420316 0.373166
7.837597 7.438272 7.020772 6.588690 6.148194 5.704291 5.260577 5.099168 5.112421 5.082466 5.002165 4.870847 4.688997 4.460620 4.199160 3.942585 3.637570 3.245013 2.843109 2.512544 2.329090 2.322675 2.486421 2.740425 2.942068 2.987345 2.942834 2.927948 2.939555 2.950126 2.903660 2.815755 2.874857 2.901109 2.867023 2.824916 2.772793 2.711513 2.640953 2.561180 2.453419 2.302810 2.062755 1.794783 1.566288 1.410511 1.347440 1.373062 1.423976 1.424360 1.288041 1.086434 0.897646 0.766436 0.711223 0.714504 0.727723 0.695929 0.628240 0.566012 0.510652 0.462645 0.421198 0.382361 0.347681
7.676870 7.272490 6.851211 6.418271 5.977901 5.534060 5.090832 5.105315 5.094619 5.034280 4.921930 4.758324 4.545251 4.286884 4.001651 3.724300 3.415386 3.028610 2.633838 2.307929 2.120182 2.100908 2.235524 2.456774 2.630300 2.657804 2.617646 2.609663 2.621302 2.630161 2.630884 2.622370 2.604468 2.576609 2.539283 2.492905 2.438498 2.375729 2.304411 2.225480 2.140095 1.990094 1.714660 1.385545 1.094682 0.916447 0.879180 0.955643 1.074682 1.128712 0.977899 0.728548 0.510780 0.380557 0.361216 0.429281 0.524471 0.575805 0.541119 0.492484 0.449926 0.414447 0.385046 0.358675 0.333974
7.500383 7.096122 6.675722 6.244260 5.806677 5.365958 5.088175 5.105381 5.074267 4.986490 4.844367 4.651238 4.410374 4.132271 3.836049 3.544992 3.259588 2.916375 2.564007 2.270355 2.091212 2.052197 2.128366 2.266691 2.368191 2.363590 2.343211 2.344157 2.350106 2.354779 2.352342 2.341243 2.320952 2.290851 2.251344 2.203871 2.148204 2.084953 2.014364 1.937327 1.855177 1.693058 1.403352 1.063254 0.768232 0.595372 0.574298 0.677290 0.829846 0.886179 0.717128 0.435904 0.206475 0.167097 0.132359 0.195386 0.350853 0.465997 0.477638 0.440899 0.409407 0.382619 0.361151 0.342641 0.323562
7.308344 6.907325 6.491810 6.066164 5.634433 5.200041 5.067369 5.070471 5.024804 4.922402 4.760425 4.541055 4.279130 3.991985 3.689660 3.390265 3.120642 2.848074 2.562602 2.316607 2.153037 2.090338 2.107152 2.151412 2.159145 2.136457 2.125027 2.120311 2.117862 2.113185 2.104568 2.088767 2.064783 2.032353 1.991096 1.941036 1.883805 1.820473 1.751515 1.677768 1.600919 1.463146 1.203008 0.891542 0.619507 0.461726 0.446768 0.548202 0.694626 0.728982 0.539244 0.255613 0.123946 0.096488 0.072668 0.067182 0.251262 0.396447 0.433973 0.406702 0.382991 0.362640 0.344812 0.329230 0.313613
7.101362 6.706600 6.298341 5.881695 5.459353 5.034238 5.004951 4.992327 4.932766 4.818407 4.645387 4.417901 4.153299 3.902869 3.621687 3.293836 2.987985 2.755995 2.545279 2.351273 2.204019 2.116507 2.071771 2.033762 1.992124 1.963604 1.944458 1.930681 1.917421 1.902046 1.884199 1.861919 1.832898 1.796573 1.752817 1.701795 1.644131 1.581440 1.515536 1.446936 1.376728 1.283722 1.087775 0.837745 0.613223 0.479759 0.462600 0.538623 0.645222 0.652800 0.459747 0.207327 0.065473 0.047672 0.032153 0.063666 0.240223 0.376008 0.406401 0.385451 0.366161 0.348160 0.331778 0.317528 0.305129
6.880229 6.493724 6.096019 5.690500 5.279343 4.885299 4.892458 4.864989 4.792956 4.669110 4.491246 4.268974 4.059817 3.886486 3.632689 3.279525 2.910962 2.645485 2.457461 2.297756 2.163224 2.053675 1.967385 1.903565 1.857073 1.822086 1.794756 1.770130 1.744479 1.717728 1.689474 1.659382 1.624405 1.583655 1.537520 1.486389 1.430621 1.371057 1.308832 1.245491 1.181618 1.117378 1.006543 0.839737 0.678753 0.575503 0.550620 0.585829 0.631623 0.609736 0.459533 0.267564 0.103403 0.024207 0.050905 0.161275 0.297039 0.387633 0.388838 0.370824 0.353353 0.336859 0.321788 0.308661 0.298107
6.648424 6.271283 5.884402 5.490414 5.091552 4.735224 4.725763 4.684608 4.601487 4.471611 4.299909 4.094985 3.932822 3.808638 3.585461 3.229563 2.839251 2.556013 2.374054 2.212681 2.074217 1.959635 1.869609 1.802010 1.750094 1.708411 1.671852 1.635044 1.597214 1.558623 1.519675 1.480751 1.441059 1.397403 1.349433 1.297949 1.243840 1.187678 1.130188 1.072515 1.015465 0.957878 0.899339 0.819416 0.725724 0.654381 0.620678 0.611900 0.593740 0.560024 0.490326 0.374609 0.267246 0.212951 0.228611 0.296231 0.369106 0.392462 0.375902 0.359570 0.343663 0.328698 0.314970 0.303020 0.292854
6.405679 6.039864 5.664404 5.280939 4.892982 4.516116 4.491780 4.440307 4.354013 4.233230 4.080102 3.895525 3.725387 3.597991 3.394876 3.078056 2.730394 2.486476 2.312171 2.153126 2.013040 1.894959 1.800897 1.728376 1.669480 1.618773 1.570009 1.521086 1.472197 1.423390 1.375034 1.327779 1.282148 1.235847 1.187414 1.136717 1.084458 1.031622 0.979283 0.928035 0.878127 0.827690 0.777308 0.728648 0.682693 0.639628 0.600710 0.567252 0.539114 0.514113 0.492119 0.454045 0.404198 0.373309 0.373641 0.392054 0.396425 0.381264 0.366299 0.351652 0.337458 0.323970 0.311262 0.299335 0.308570
6.152702 5.798014 5.432642 5.060248 4.684928 4.310212 4.178183 4.123242 4.050136 3.953535 3.828440 3.670727 3.483641 3.315739 3.119245 2.870287 2.621526 2.433850 2.265979 2.112087 1.972525 1.852576 1.755450 1.678321 1.612636 1.550779 1.489282 1.428328 1.368377 1.309975 1.253681 1.199671 1.075417 0.910871 0.974781 1.001364 0.952094 0.903670 0.856748 0.811928 0.769199 0.727014 0.685881 0.647158 0.611298 0.579045 0.551275 0.527625 0.506434 0.487719 0.471622 0.457314 0.443256 0.429175 0.415117 0.401136 0.387296 0.373671 0.360344 0.347258 0.334290 0.321445 0.308944 0.306723 0.350174
5.887855 5.543403 5.189727 4.830352 4.469249 4.110330 3.805755 3.761310 3.705827 3.632321 3.535047 3.411763 3.265082 3.093747 2.907659 2.728176 2.558543 2.391849 2.232120 2.083584 1.948295 1.828818 1.729350 1.648391 1.575675 1.503210 1.430409 1.358286 1.287804 1.219934 1.155451 1.095177 0.851207 0.605556 0.745143 0.892425 0.846772 0.802594 0.760752 0.722319 0.686629 0.652934 0.621453 0.592888 0.567019 0.544286 0.523957 0.505221 0.488201 0.473104 0.459534 0.450466 0.444580 0.434817 0.418454 0.398340 0.381456 0.368952 0.356557 0.344249 0.332015 0.319844 0.307747 0.321985 0.389738
5.610275 5.277650 4.937389 4.592818 4.247700 3.906013 3.571429 3.369447 3.331835 3.280976 3.212731 3.128718 3.026777 2.902405 2.769564 2.635849 2.499484 2.356411 2.207030 2.065993 1.936453 1.821453 1.721536 1.637112 1.595800 1.541951 1.433169 1.311674 1.230341 1.154295 1.082413 1.015783 0.880090 0.708050 0.776406 0.808271 0.765357 0.725619 0.689299 0.656948 0.627479 0.601468 0.578507 0.557842 0.539102 0.521397 0.504753 0.489218 0.475080 0.462129 0.458098 0.464892 0.470621 0.465454 0.445799 0.415691 0.384950 0.364911 0.353398 0.341937 0.330498 0.319063 0.307620 0.329001 0.404390
5.323164 5.003767 4.678409 4.350221 3.999834 3.637635 3.305724 3.022418 2.916385 2.914444 2.880640 2.835910 2.777114 2.702384 2.625439 2.541159 2.440061 2.321140 2.188116 2.055702 1.934123 1.824603 1.726580 1.678738 1.701911 1.671978 1.524876 1.322795 1.192201 1.109779 1.032226 0.960748 0.896540 0.840521 0.792174 0.747453 0.706779 0.670968 0.639889 0.612447 0.588133 0.567547 0.550450 0.534073 0.518231 0.503060 0.488771 0.475697 0.463382 0.455478 0.467110 0.488485 0.504533 0.503325 0.480721 0.441798 0.398645 0.365487 0.350912 0.340347 0.329753 0.319098 0.308362 0.322237 0.386992
5.030441 4.725596 4.416515 4.059467 3.646598 3.245442 2.913197 2.674002 2.506705 2.503352 2.549921 2.543650 2.525654 2.502293 2.474037 2.432097 2.371387 2.285107 2.173830 2.052241 1.938047 1.833418 1.736893 1.716283 1.769933 1.750183 1.582838 1.340173 1.172899 1.084912 1.002401 0.926560 0.858602 0.799662 0.750302 0.706733 0.667949 0.634750 0.607086 0.582555 0.561314 0.543405 0.528110 0.513930 0.500212 0.487202 0.475109 0.463385 0.451986 0.452202 0.475095 0.506496 0.529467 0.530997 0.506793 0.462622 0.411857 0.370301 0.350108 0.340286 0.330358 0.320460 0.310928 0.310393 0.350854