64 64
13.173479 12.351281 11.551458 10.762585 9.983274 9.223509 8.500257 7.823173 7.197423 6.627370 6.158220 5.740330 5.343487 5.013721 4.788736 4.639674 4.560945 4.543253 4.550630 4.555182 4.549121 4.523565 4.480914 4.426429 4.719350 5.105673 5.489938 5.872790 6.256091 6.641010 7.026925 7.415000 7.802221 8.188851 8.568598 8.917933 9.220549 9.463116 9.657365 9.789307 9.882694 9.989039 10.134032 10.312012 10.497936 10.699571 10.955977 11.272060 11.641967 11.983407 12.254703 12.447515 12.731879 13.400555 14.106932 14.883353 15.685520 16.567961 17.512260 18.360296 19.074697 19.679489 20.257568 20.891701 21.579277
13.444255 12.619670 11.811727 11.023027 10.262415 9.526966 8.824466 8.164845 7.548436 7.021616 6.611298 6.208156 5.768678 5.365253 5.088217 4.909352 4.795394 4.745713 4.721481 4.696312 4.660656 4.608433 4.546519 4.468555 4.567588 4.948954 5.328855 5.709004 6.092027 6.478351 6.865370 7.252885 7.639089 8.023780 8.402864 8.765119 9.081541 9.340196 9.555852 9.730216 9.863213 9.965219 10.051916 10.133327 10.236728 10.383480 10.575647 10.820583 11.069417 11.216104 11.270644 11.585548 12.194943 12.861409 13.549170 14.319835 15.130828 15.957184 16.871954 17.732679 18.440836 19.057947 19.659843 20.307171 20.988272
13.624055 12.804421 12.003561 11.227770 10.482479 9.767846 9.084164 8.434076 7.822837 7.324091 6.933189 6.529798 6.067735 5.625783 5.310915 5.109442 4.969245 4.891816 4.842467 4.791014 4.727424 4.653645 4.570090 4.471601 4.395303 4.772542 5.150212 5.529515 5.909394 6.290555 6.676207 7.064185 7.449585 7.833738 8.214423 8.583022 8.917571 9.201533 9.440640 9.627267 9.752395 9.834654 9.890748 9.932082 9.993842 10.096428 10.234829 10.331059 10.244722 10.121347 10.448472 10.758346 11.144821 11.904610 12.742899 13.639372 14.531419 15.380254 16.216017 17.004133 17.656498 18.256428 18.896767 19.578730 20.271406
13.750174 12.943826 12.157602 11.395256 10.660069 9.954021 9.278669 8.637094 8.030868 7.507004 7.086723 6.666043 6.210633 5.782708 5.471145 5.249804 5.087675 4.983067 4.912395 4.838529 4.756369 4.666903 4.563805 4.446107 4.315865 4.575930 4.952034 5.329098 5.706676 6.084206 6.464876 6.849977 7.235261 7.620768 8.005184 8.381310 8.734260 9.040075 9.299385 9.496847 9.617044 9.685206 9.720783 9.741495 9.776067 9.833945 9.878228 9.729720 9.416797 9.762863 10.111734 10.419547 10.698236 10.985974 11.821058 12.897161 13.929905 14.841819 15.631876 16.313410 16.897152 17.459021 18.113300 18.848038 19.552837
13.848918 13.052062 12.275048 11.522410 10.795499 10.092686 9.418077 8.776543 8.171044 7.610038 7.127930 6.681420 6.247377 5.865958 5.567782 5.327842 5.144574 5.014562 4.926821 4.844744 4.753731 4.647127 4.528842 4.399308 4.263127 4.361641 4.733071 5.106480 5.480699 5.855135 6.232088 6.613035 6.996307 7.383641 7.773733 8.156450 8.528614 8.858985 9.135004 9.339858 9.461690 9.525530 9.549180 9.556151 9.560336 9.561442 9.483754 9.094549 9.086281 9.487257 9.865868 10.175846 10.418828 10.635420 11.094470 12.282556 13.410604 14.360815 15.158656 15.782990 16.294178 16.817656 17.478081 18.232405 18.911152
13.919436 13.132213 12.364380 11.616545 10.889205 10.185490 9.509718 8.866502 8.258096 7.688606 7.164034 6.687512 6.266578 5.904759 5.596239 5.342254 5.143909 4.994428 4.894254 4.813063 4.715068 4.602384 4.480188 4.347711 4.209676 4.131682 4.496929 4.864618 5.234052 5.603923 5.976445 6.352041 6.730725 7.116684 7.508959 7.898219 8.283106 8.638149 8.936360 9.158279 9.291325 9.354688 9.368655 9.351135 9.313731 9.257607 9.093768 8.905004 8.758842 9.236532 9.664313 9.986521 10.205542 10.371826 10.680057 11.864743 13.016891 13.961802 14.753566 15.378928 15.894110 16.410589 17.062490 17.787271 18.398691
14.047058 13.235746 12.426041 11.676634 10.949229 10.244460 9.566300 8.919638 8.306911 7.731747 7.199423 6.712520 6.279022 5.901741 5.581597 5.315087 5.103942 4.943329 4.837531 4.751812 4.651237 4.537818 4.413846 4.283019 4.146247 4.011376 4.241640 4.603359 4.966363 5.329362 5.695103 6.064768 6.438232 6.822132 7.213722 7.607709 7.993659 8.359859 8.683325 8.935895 9.092267 9.161088 9.160714 9.113023 9.034639 8.938535 8.915924 8.901979 8.598145 8.987587 9.461253 9.799263 10.027430 10.189081 10.598006 11.639266 12.701956 13.597755 14.376352 15.020416 15.557528 16.105894 16.787302 17.491951 18.013021
14.233000 13.391216 12.497782 11.700884 10.974178 10.269202 9.589528 8.940254 8.324049 7.743951 7.205614 6.710894 6.265642 5.875399 5.541873 5.266585 5.048086 4.880111 4.767152 4.685098 4.587971 4.464031 4.329371 4.199893 4.067306 3.936691 3.967117 4.321256 4.677010 5.032919 5.390342 5.753469 6.123169 6.504522 6.894223 7.289025 7.669364 8.027580 8.365761 8.652951 8.839737 8.918471 8.907340 8.839182 8.729962 8.606514 8.847801 8.987194 8.845772 8.717201 9.230104 9.597847 9.848593 10.032185 10.720030 11.575543 12.453964 13.260901 13.981460 14.618480 15.163728 15.772493 16.503279 17.191387 17.678139
14.305018 13.449645 12.520227 11.689474 10.963099 10.258772 9.578583 8.927582 8.308869 7.725073 7.181974 6.682073 6.229027 5.831167 5.490998 5.210445 4.984875 4.809742 4.702309 4.634675 4.538092 4.396950 4.239784 4.101933 3.975315 3.851201 3.734657 4.023404 4.370456 4.718427 5.067986 5.424386 5.789027 6.165737 6.551800 6.940449 7.313680 7.664671 7.998007 8.302193 8.520864 8.614643 8.605290 8.528618 8.406834 8.408432 8.724565 9.009629 9.103335 9.096355 9.203742 9.457383 9.822229 10.310376 10.933201 11.622423 12.327483 13.011803 13.616908 14.189074 14.711722 15.323740 16.085564 16.776859 17.268633
14.182921 13.337367 12.443904 11.646262 10.918386 10.213173 9.533312 8.881777 8.262486 7.677902 7.133307 6.633053 6.179440 5.779052 5.435334 5.150504 4.918469 4.735303 4.625607 4.560966 4.461789 4.305401 4.132329 3.988041 3.868839 3.753805 3.645217 3.714139 4.051799 4.390345 4.731850 5.080183 5.438117 5.809063 6.188937 6.569078 6.932746 7.277276 7.607684 7.909383 8.138088 8.249434 8.253617 8.151959 7.977217 8.136071 8.482356 8.892379 9.209423 9.373709 9.529604 9.771256 10.109067 10.531851 11.053889 11.644226 12.255265 12.837462 13.338161 13.785283 14.210438 14.733679 15.471128 16.184902 16.722078
13.972427 13.151077 12.333442 11.581168 10.851496 10.144727 9.464239 8.813704 8.196805 7.615212 7.072478 6.573900 6.121599 5.719909 5.373760 5.084165 4.848214 4.658028 4.517645 4.431676 4.322704 4.165725 3.994929 3.859604 3.747154 3.642417 3.543756 3.457435 3.722362 4.053020 4.387411 4.726989 5.076223 5.437603 5.809339 6.181487 6.538462 6.876237 7.198184 7.491417 7.721428 7.851009 7.812386 7.613811 7.465364 7.681261 8.065281 8.600808 9.101587 9.421730 9.653098 9.897068 10.174870 10.517063 10.975858 11.521441 12.096509 12.632661 13.097338 13.452325 13.764585 14.166816 14.781976 15.501666 16.094379
13.845111 13.046152 12.265838 11.507349 10.772170 10.064368 9.384383 8.734252 8.119011 7.541228 7.001948 6.505959 6.056055 5.655592 5.307796 5.013026 4.772923 4.575248 4.396471 4.262416 4.137978 3.989415 3.842267 3.720661 3.610382 3.513779 3.424547 3.345570 3.387017 3.711589 4.039221 4.371076 4.709880 5.060005 5.422962 5.785503 6.133679 6.464943 6.777791 7.060654 7.286739 7.397455 7.273601 6.996840 6.958216 7.148231 7.554335 8.208702 8.891625 9.378101 9.661443 9.882052 10.105118 10.381305 10.759732 11.232975 11.767592 12.308015 12.787031 13.131043 13.394218 13.745918 14.233622 14.871965 15.496428
13.799726 12.992201 12.201104 11.433153 10.690744 9.979619 9.348835 8.733213 8.086020 7.483448 6.958092 6.450690 5.985401 5.586580 5.238690 4.939781 4.695430 4.489388 4.293827 4.120168 3.971747 3.830027 3.696281 3.574494 3.465467 3.371209 3.286667 3.217734 3.172073 3.369899 3.691559 4.015603 4.344076 4.683724 5.034097 5.385230 5.724442 6.050115 6.356899 6.634052 6.856138 6.921957 6.739479 6.484997 6.499564 6.682064 7.104389 7.799705 8.612344 9.268838 9.649278 9.840689 9.983092 10.159361 10.385216 10.699159 11.154380 11.759171 12.348411 12.782188 13.071248 13.398131 13.832966 14.377385 14.960488
13.749760 12.936843 12.137969 11.360980 10.611279 9.945278 9.396931 8.815785 8.151719 7.502168 6.947090 6.426400 5.929633 5.515334 5.167413 4.866779 4.618615 4.403590 4.194895 4.003363 3.836440 3.688724 3.547417 3.422305 3.313977 3.220932 3.141222 3.079485 3.043402 3.033890 3.344559 3.661052 3.981527 4.309869 4.645950 4.986238 5.318474 5.640304 5.944334 6.221145 6.448692 6.497649 6.306761 6.213948 6.226317 6.416362 6.857352 7.537469 8.371498 9.114902 9.568506 9.757887 9.828776 9.830539 9.818261 9.950924 10.329483 10.974315 11.725214 12.358358 12.772874 13.109891 13.503547 13.966418 14.486644
13.693788 12.879053 12.076269 11.292377 10.535408 9.900113 9.385380 8.816020 8.150513 7.480364 6.902604 6.379226 5.870457 5.445759 5.098282 4.797718 4.547255 4.323730 4.104247 3.895772 3.709783 3.548448 3.403539 3.273873 3.164425 3.070794 2.993893 2.931663 2.891556 2.878797 3.002748 3.312637 3.624188 3.941259 4.265194 4.595087 4.920963 5.239391 5.544322 5.824613 6.064646 6.152624 6.071866 6.100917 6.164862 6.389585 6.838892 7.485551 8.255239 8.978148 9.447640 9.660622 9.683238 9.488265 9.258990 9.226049 9.536970 10.196913 11.059482 11.859147 12.436603 12.817871 13.181373 13.575748 14.020627
13.632031 12.816961 12.013497 11.227439 10.465604 9.789502 9.234756 8.648475 7.982698 7.335493 6.787598 6.277080 5.788402 5.379216 5.033798 4.734627 4.482614 4.253331 4.026383 3.803887 3.600063 3.419986 3.267003 3.133782 3.020078 2.921755 2.835909 2.766351 2.719946 2.703840 2.723072 2.974416 3.277947 3.583950 3.896265 4.215516 4.535582 4.852621 5.160998 5.444237 5.693720 5.855923 5.986251 6.111374 6.260636 6.532503 6.977681 7.572347 8.231617 8.845364 9.288939 9.560884 9.522918 9.168772 8.790577 8.657641 8.922793 9.582343 10.489922 11.363276 12.040806 12.479383 12.814621 13.155561 13.540651
13.564166 12.749966 11.947787 11.163189 10.401001 9.669893 9.022466 8.398043 7.747722 7.149583 6.639358 6.149832 5.702663 5.317306 4.975865 4.679147 4.424741 4.193287 3.961592 3.730082 3.511476 3.314133 3.143997 3.002105 2.876333 2.762411 2.663654 2.586533 2.532591 2.510834 2.525584 2.648332 2.943827 3.241379 3.542066 3.850398 4.167798 4.485474 4.796928 5.084445 5.334845 5.547346 5.889843 6.141672 6.386565 6.702292 7.128092 7.643448 8.180041 8.653636 9.055489 9.358144 9.295198 8.891583 8.460864 8.295377 8.540559 9.182864 10.068146 10.963245 11.670139 12.128502 12.444947 12.762403 13.108213
13.492120 12.679764 11.879829 11.097411 10.337543 9.605063 8.904818 8.243155 7.625257 7.054752 6.534164 6.064692 5.641078 5.262496 4.927186 4.632968 4.376914 4.144602 3.911240 3.675267 3.446110 3.234354 3.045546 2.875176 2.727431 2.597275 2.484409 2.395291 2.331364 2.302157 2.309873 2.358979 2.624228 2.913925 3.205665 3.507210 3.821027 4.141007 4.454249 4.745218 4.998653 5.249034 5.670680 6.044793 6.376305 6.727161 7.127436 7.561496 7.978230 8.370080 8.744083 9.011634 8.999127 8.668185 8.290597 8.144951 8.376136 8.966634 9.787226 10.668753 11.376000 11.807558 12.117826 12.417607 12.708616
13.419084 12.610013 11.813185 11.033490 10.275990 9.545733 8.847712 8.187407 7.569656 6.998981 6.480089 6.012844 5.592618 5.217827 4.889655 4.598405 4.342693 4.109652 3.877509 3.641361 3.406624 3.181443 2.964563 2.762121 2.583057 2.429847 2.301713 2.197145 2.120602 2.080334 2.079068 2.120474 2.328043 2.608805 2.894630 3.190403 3.499226 3.816340 4.129500 4.424970 4.685163 4.927900 5.329015 5.723691 6.110924 6.489608 6.869974 7.252152 7.631088 8.001989 8.361092 8.608292 8.654060 8.457795 8.207760 8.122651 8.348816 8.906672 9.678796 10.487405 11.116470 11.494431 11.812540 12.112161 12.339523
13.345201 12.540524 11.747753 10.971947 10.217999 9.491099 8.796869 8.140166 7.526237 6.959482 6.442344 5.974444 5.556761 5.187198 4.861084 4.574897 4.321578 4.089359 3.860204 3.627495 3.391018 3.148553 2.903277 2.669786 2.457464 2.269496 2.112512 1.991490 1.904070 1.852870 1.840444 1.870228 2.055834 2.330492 2.612720 2.902439 3.204469 3.514054 3.822492 4.118297 4.387873 4.623475 4.939504 5.317470 5.698182 6.078505 6.458730 6.837249 7.209586 7.575362 7.931800 8.208930 8.334365 8.305990 8.204037 8.218077 8.476806 9.001616 9.681549 10.345743 10.822465 11.171860 11.508154 11.819646 12.017664
13.272861 12.471617 11.683189 10.912211 10.163563 9.442525 8.753930 8.102519 7.492961 6.930387 6.416481 5.950354 5.533961 5.168440 4.827678 4.515147 4.251843 4.037631 3.842602 3.630143 3.390804 3.130008 2.861142 2.597633 2.350691 2.127972 1.936454 1.786971 1.683541 1.621997 1.598141 1.617903 1.808521 2.080704 2.358391 2.642688 2.937682 3.238781 3.538324 3.829504 4.103452 4.349329 4.566433 4.877228 5.245242 5.619298 5.993639 6.370883 6.747168 7.116948 7.475964 7.802273 8.005137 8.121275 8.202410 8.340763 8.629037 9.085759 9.624824 10.103395 10.476501 10.838177 11.192049 11.527916 11.764234
13.211021 12.409929 11.623258 10.856510 10.113787 9.399848 8.718173 8.073350 7.469997 6.911640 6.398700 5.934583 5.521673 5.108028 4.687842 4.323217 4.055463 3.883926 3.753707 3.605617 3.391019 3.118207 2.831258 2.543117 2.265399 2.010101 1.787603 1.607910 1.479900 1.397699 1.359064 1.369249 1.589768 1.857772 2.130680 2.410209 2.698057 2.990692 3.282457 3.566547 3.835470 4.087383 4.319915 4.534371 4.756740 5.121304 5.495977 5.875698 6.257255 6.633095 6.998829 7.350920 7.644588 7.854584 8.040339 8.275949 8.586315 8.967173 9.372390 9.744795 10.101859 10.472684 10.850154 11.223721 11.548198
13.160191 12.360314 11.575167 10.810941 10.072852 9.364060 8.688928 8.051827 7.455784 6.901063 6.390309 5.928058 5.471880 4.952981 4.442622 4.025533 3.753730 3.630262 3.595043 3.532143 3.372319 3.030504 2.614410 2.428930 2.204118 1.920749 1.669930 1.463963 1.310540 1.207009 1.151122 1.152053 1.401372 1.663752 1.933187 2.207451 2.488237 2.770521 3.054117 3.334375 3.602055 3.854886 4.095342 4.325116 4.543361 4.755626 4.997783 5.375607 5.759221 6.140791 6.512215 6.867485 7.206588 7.510285 7.774727 8.040442 8.344591 8.682737 9.021487 9.360052 9.713467 10.076038 10.472206 10.896729 11.309124
13.115335 12.320868 11.540524 10.779409 10.043646 9.339192 8.669736 8.038431 7.447243 6.896921 6.390310 5.916666 5.384106 4.776524 4.192039 3.733443 3.460328 3.377404 3.420229 3.443926 3.339286 2.896280 2.391628 2.281069 2.167820 1.864883 1.591409 1.362198 1.187699 1.063615 0.988147 1.006907 1.246919 1.502799 1.767780 2.036914 2.309974 2.583946 2.859521 3.137309 3.406306 3.662840 3.908582 4.147582 4.380027 4.605821 4.828119 5.044371 5.274830 5.653911 6.026385 6.386562 6.731456 7.061605 7.376012 7.675465 7.981989 8.299377 8.627217 8.970816 9.329775 9.698373 10.100821 10.562131 11.029697
13.075811 12.288091 11.514298 10.759517 10.028809 9.327400 8.661924 8.035357 7.446153 6.898599 6.395668 5.900255 5.320698 4.662656 4.036556 3.554439 3.283987 3.226472 3.306947 3.380986 3.316386 3.009914 2.579557 2.388027 2.147097 1.833783 1.544653 1.298374 1.106226 0.892638 0.690155 0.897572 1.128134 1.375977 1.635174 1.900460 2.167436 2.434562 2.704466 2.979022 3.248569 3.510271 3.766437 4.016325 4.260091 4.499751 4.734065 4.960372 5.179379 5.390118 5.594543 5.933002 6.282294 6.618388 6.941552 7.255415 7.573317 7.897064 8.232462 8.585882 8.955978 9.343306 9.754504 10.225514 10.729459
13.041800 12.261638 11.495243 10.747667 10.023975 9.329176 8.667348 8.040711 7.454189 6.908713 6.403376 5.897404 5.156452 4.250288 3.874261 3.555579 3.289314 3.235885 3.308330 3.378357 3.311912 3.080486 2.777677 2.458342 2.134353 1.816705 1.519983 1.263678 1.058778 0.719149 0.626575 0.823026 1.044848 1.285262 1.539150 1.799977 2.062176 2.324242 2.590298 2.860384 3.131474 3.400899 3.668234 3.931508 4.189313 4.443889 4.691971 4.929579 5.155815 5.371044 5.574896 5.772908 5.968828 6.200896 6.524094 6.845649 7.165083 7.495321 7.840584 8.205040 8.589189 8.993180 9.417451 9.877671 10.390901
13.013101 12.241247 11.483021 10.743469 10.027629 9.340027 8.681868 8.057064 7.470366 6.923161 6.415713 5.915349 4.960936 3.944712 3.775479 3.731852 3.469831 3.396438 3.420319 3.429683 3.315097 3.061061 2.763156 2.446959 2.125894 1.809657 1.512015 1.250410 1.038803 0.802398 0.590372 0.777967 0.992731 1.228583 1.477496 1.733967 1.992091 2.253420 2.517545 2.784617 3.057944 3.336822 3.614980 3.890846 4.164345 4.435396 4.698410 4.947526 5.182298 5.402760 5.610335 5.808431 6.003660 6.201453 6.405780 6.610800 6.805171 7.107827 7.465187 7.842556 8.237909 8.654900 9.095169 9.551238 10.045558
12.989575 12.226717 11.477383 10.746603 10.039129 9.356487 8.702434 8.081069 7.492652 6.939890 6.428023 5.943039 5.280128 4.511075 4.255327 4.008396 3.750190 3.636828 3.582878 3.495084 3.297982 3.034170 2.744137 2.434177 2.118738 1.809407 1.516912 1.256335 1.041447 0.874054 0.752866 0.756759 0.965711 1.196596 1.442730 1.696074 1.952120 2.213121 2.478348 2.747098 3.024294 3.309501 3.598579 3.889584 4.179935 4.466582 4.744272 5.007076 5.254049 5.483537 5.696027 5.896266 6.091153 6.286577 6.486780 6.687601 6.878362 7.061482 7.242995 7.491544 7.899880 8.326768 8.778258 9.248453 9.737378
12.971153 12.217923 11.478146 10.756645 10.055225 9.377590 8.727695 8.105408 7.513631 6.956136 6.434964 5.955647 5.493515 5.044438 4.624155 4.267518 4.012034 3.848128 3.704997 3.508779 3.259627 2.999270 2.718066 2.417216 2.111170 1.812079 1.529655 1.276592 1.064118 0.893847 0.770881 0.755621 0.959538 1.186786 1.431860 1.685323 1.942204 2.202627 2.469065 2.744576 3.029084 3.320824 3.621473 3.927233 4.233805 4.536780 4.831056 5.108396 5.368788 5.607101 5.826171 6.031528 6.226976 6.418623 6.610548 6.805051 6.994695 7.174762 7.351488 7.529812 7.709608 8.002638 8.464319 8.944936 9.440085
12.957839 12.214815 11.485017 10.750783 10.021423 9.331668 8.694633 8.101832 7.525399 6.961792 6.433528 5.945499 5.503694 5.093671 4.716514 4.395453 4.139844 3.926773 3.709895 3.471378 3.219400 2.955720 2.680854 2.392191 2.100351 1.814299 1.544618 1.303212 1.097422 0.931809 0.811807 0.772016 0.972807 1.198504 1.443440 1.699274 1.960436 2.222629 2.492716 2.775240 3.069316 3.374324 3.687731 4.005759 4.303804 4.581899 4.872211 5.182004 5.494495 5.766272 5.993543 6.205400 6.403322 6.590924 6.775521 6.961760 7.146640 7.323342 7.494882 7.665811 7.837317 8.008924 8.187573 8.638993 9.140358
12.949339 12.217010 11.454437 10.655396 9.853793 9.104260 8.465096 7.937096 7.462420 6.954663 6.421068 5.927105 5.478099 5.074308 4.713521 4.397819 4.129045 3.892228 3.663338 3.425145 3.171592 2.906377 2.633162 2.357189 2.081800 1.812536 1.558438 1.329883 1.135437 0.979089 0.866515 0.803062 1.004009 1.230327 1.476684 1.736881 2.003003 2.270682 2.546009 2.835971 3.142587 3.463640 3.792791 4.078892 4.307250 4.535544 4.813606 5.157664 5.541768 5.906164 6.189538 6.407590 6.608392 6.797358 6.977506 7.154757 7.330459 7.501515 7.665483 7.827268 7.987907 8.145847 8.306963 8.473203 8.830381
12.943241 12.197396 11.368659 10.457221 9.526639 8.699721 8.054371 7.590765 7.235064 6.870289 6.396641 5.899000 5.443265 5.031278 4.666306 4.347253 4.075364 3.834427 3.605544 3.368348 3.116103 2.854014 2.587526 2.321054 2.061550 1.811107 1.572971 1.357390 1.175561 1.031536 0.930914 0.869859 1.051341 1.280347 1.528537 1.792683 2.064892 2.340928 2.625908 2.927930 3.249382 3.585109 3.906083 4.125230 4.288795 4.472856 4.739623 5.112849 5.562818 6.016790 6.391549 6.637723 6.840803 7.027836 7.203460 7.372331 7.537748 7.699308 7.853186 8.002776 8.149633 8.291394 8.430943 8.571942 8.718690
12.932498 12.155734 11.252977 10.213589 9.171864 8.276230 7.619024 7.204154 6.945601 6.705431 6.393584 5.952523 5.454534 4.981021 4.606600 4.284653 4.010090 3.767265 3.536039 3.304066 3.062412 2.811020 2.555934 2.301911 2.052549 1.815811 1.595995 1.395000 1.224918 1.091959 1.004215 0.956287 1.109811 1.343172 1.595732 1.865324 2.145169 2.433770 2.731574 3.048071 3.384594 3.734983 4.030261 4.202683 4.322544 4.478092 4.740307 5.135952 5.632738 6.151389 6.593489 6.883926 7.088786 7.273260 7.443665 7.604576 7.759081 7.907347 8.048884 8.184087 8.313021 8.434669 8.550294 8.666513 8.788628
12.918391 12.120575 11.160213 10.045445 8.935937 7.993641 7.322741 6.929796 6.722774 6.603422 6.453629 6.086496 5.543686 4.969872 4.534753 4.209095 3.933045 3.690570 3.462558 3.241113 3.014245 2.777366 2.536817 2.297725 2.061665 1.836127 1.628146 1.441801 1.286909 1.168301 1.090126 1.051336 1.176778 1.416581 1.674901 1.952496 2.244497 2.548434 2.862813 3.194530 3.544822 3.908212 4.198053 4.360160 4.469946 4.620279 4.885301 5.291625 5.806501 6.350019 6.820042 7.132936 7.339394 7.522335 7.688979 7.842364 7.985474 8.119849 8.244813 8.362017 8.473049 8.572944 8.663856 8.755109 8.851948
12.897429 12.108841 11.145210 10.025342 8.905558 7.950476 7.266574 6.862710 6.648639 6.561547 6.452153 6.114487 5.551735 4.934045 4.456451 4.125323 3.846065 3.608905 3.389727 3.179474 2.968774 2.749889 2.527047 2.304785 2.085461 1.875678 1.680307 1.507379 1.365007 1.258407 1.190868 1.157555 1.250109 1.498376 1.765501 2.054617 2.360623 2.679932 3.013040 3.361105 3.725198 4.100493 4.418971 4.612221 4.750521 4.922052 5.197581 5.602317 6.105658 6.630409 7.080156 7.378134 7.586492 7.768482 7.929956 8.076163 8.208979 8.330072 8.439757 8.537919 8.626087 8.703391 8.771763 8.836446 8.903700
12.873185 12.109845 11.207167 10.149699 9.081161 8.149762 7.455788 7.009986 6.731413 6.534997 6.324441 5.946667 5.396852 4.786243 4.290702 3.930864 3.672516 3.496614 3.318268 3.119072 2.922843 2.724184 2.521853 2.319114 2.120378 1.930560 1.754148 1.598937 1.471778 1.375107 1.311617 1.277402 1.329782 1.585923 1.863483 2.165989 2.487796 2.824172 3.175276 3.539830 3.916567 4.302664 4.669461 4.929706 5.130681 5.347618 5.641852 6.034813 6.499595 6.968685 7.356949 7.614984 7.823354 8.005475 8.163526 8.302314 8.424880 8.532650 8.628294 8.709987 8.777154 8.831819 8.874894 8.909915 8.945482
12.850431 12.095023 11.289717 10.346646 9.373647 8.496186 7.796796 7.287271 6.901938 6.527298 6.142853 5.681138 5.103885 4.475784 3.952870 3.559590 3.331407 3.241252 3.183974 3.060317 2.878704 2.696958 2.516505 2.336524 2.162807 1.999193 1.783918 1.552612 1.540735 1.519612 1.460480 1.426997 1.418648 1.681655 1.970858 2.286332 2.622180 2.974694 3.342595 3.723629 4.114165 4.510729 4.908852 5.257167 5.540681 5.817141 6.134271 6.507906 6.916692 7.307232 7.612970 7.844812 8.051086 8.231176 8.385392 8.515600 8.628842 8.726215 8.807670 8.871108 8.916116 8.947490 8.965425 8.971405 8.974479
12.826788 12.060160 11.306873 10.502204 9.645645 8.834846 8.133873 7.552823 7.041887 6.545702 6.028267 5.473872 4.820807 4.140503 3.543058 3.120187 2.921518 2.909217 2.968220 2.967709 2.832891 2.670236 2.511307 2.355855 2.211060 2.077458 1.793484 1.524196 1.597071 1.688203 1.636258 1.606042 1.598671 1.788886 2.088621 2.416054 2.764478 3.131074 3.513492 3.908730 4.312111 4.719745 5.125927 5.526523 5.895802 6.234529 6.574605 6.926324 7.275031 7.582576 7.839600 8.068109 8.269552 8.445553 8.595644 8.721133 8.824602 8.909671 8.974052 9.017187 9.040343 9.047510 9.041026 9.019704 8.988315
12.802597 12.025747 11.263009 10.514050 9.760376 9.013798 8.314381 7.675137 7.082993 6.506021 5.941627 5.333015 4.599098 3.842057 3.187484 2.745291 2.567934 2.608914 2.752370 2.846063 2.781594 2.641188 2.506342 2.379706 2.265662 2.161820 2.005258 1.828392 1.862000 1.874081 1.834536 1.812687 1.809514 1.909484 2.217983 2.554270 2.913317 3.292443 3.687132 4.094356 4.509058 4.926018 5.340695 5.747026 6.141856 6.521667 6.880804 7.214157 7.521514 7.803042 8.056946 8.283379 8.481295 8.651193 8.795698 8.915518 9.009819 9.080839 9.127781 9.151368 9.153513 9.137314 9.105173 9.052743 8.985772
12.780028 11.992573 11.220941 10.464619 9.725276 9.008594 8.319827 7.657444 7.021845 6.418432 5.852260 5.218959 4.455143 3.667661 2.991048 2.542682 2.372718 2.431827 2.607697 2.744348 2.724717 2.609079 2.501362 2.406770 2.326075 2.253648 2.189846 2.140522 2.103880 2.073819 2.051607 2.043284 2.049646 2.083319 2.362472 2.705398 3.071872 3.460501 3.866015 4.283127 4.706725 5.131549 5.552571 5.964446 6.362603 6.742883 7.101063 7.432567 7.736341 8.014944 8.267262 8.490995 8.685643 8.850292 8.988104 9.100700 9.186426 9.243129 9.273283 9.277860 9.259844 9.220029 9.157711 9.074087 8.971442
12.760856 11.961429 11.181842 10.419086 9.673376 8.949911 8.251265 7.582036 6.941759 6.334172 5.764595 5.154217 4.417150 3.654593 2.995893 2.554958 2.376053 2.413579 2.563339 2.685952 2.665240 2.576358 2.498629 2.436704 2.391582 2.352821 2.320576 2.299937 2.289049 2.283306 2.283129 2.292950 2.316186 2.364637 2.523856 2.871748 3.243701 3.638282 4.050907 4.476144 4.907375 5.337871 5.763154 6.178156 6.578094 6.959048 7.316082 7.644481 7.944825 8.221298 8.471416 8.691671 8.882664 9.044979 9.177301 9.280149 9.352951 9.395167 9.409501 9.397468 9.359742 9.294258 9.200869 9.083819 8.945844
12.745615 11.933725 11.146902 10.378568 9.627276 8.895287 8.187865 7.510859 6.867274 6.256908 5.684501 5.120770 4.459212 3.770719 3.168483 2.800411 2.636402 2.582314 2.605240 2.658282 2.607407 2.546405 2.499478 2.470122 2.460107 2.457031 2.458666 2.466926 2.481396 2.498977 2.523548 2.557001 2.605085 2.671360 2.762964 3.054882 3.430190 3.828060 4.244135 4.673686 5.109071 5.544110 5.972211 6.387860 6.787069 7.166211 7.520810 7.848735 8.148492 8.422224 8.669222 8.887133 9.074986 9.233250 9.358882 9.450848 9.510767 9.539096 9.537363 9.507135 9.447313 9.355715 9.233884 9.084253 8.912009
12.734577 11.911674 11.117172 10.343820 9.585520 8.846162 8.131584 7.447793 6.800503 6.188448 5.611416 5.073271 4.516252 3.929510 3.457665 3.210511 3.058952 2.891749 2.719901 2.615868 2.554237 2.520336 2.503875 2.506451 2.529699 2.564021 2.599333 2.638066 2.679748 2.721910 2.769177 2.829218 2.906923 3.000193 3.116569 3.256193 3.632828 4.031681 4.447868 4.878174 5.314630 5.750205 6.178327 6.592964 6.988741 7.363646 7.716509 8.043307 8.342093 8.614773 8.860054 9.075972 9.260432 9.411833 9.528766 9.610639 9.658760 9.673496 9.654453 9.603372 9.519130 9.401920 9.254066 9.076187 8.872199
12.728094 11.896019 11.093719 10.313272 9.548986 8.803968 8.084202 7.395679 6.743403 6.127511 5.546624 5.005175 4.507958 4.029450 3.678362 3.549690 3.422436 3.129875 2.764336 2.563219 2.513803 2.505406 2.518893 2.552610 2.607837 2.678081 2.746533 2.814840 2.884044 2.951686 3.022206 3.107258 3.214164 3.340612 3.485000 3.632480 3.852104 4.249754 4.663472 5.090348 5.524045 5.957151 6.382854 6.794708 7.187558 7.558673 7.907459 8.231095 8.528842 8.800083 9.042008 9.254146 9.433157 9.576384 9.684070 9.735316 9.736723 9.721521 9.701369 9.662628 9.574702 9.433909 9.261306 9.057918 8.827047
12.726832 11.886449 11.074306 10.287763 9.519386 8.770794 8.047632 7.354580 6.695662 6.075853 5.493427 4.952199 4.457671 4.014246 3.730092 3.673388 3.546755 3.188744 2.753441 2.546645 2.504298 2.513761 2.555788 2.619495 2.705508 2.807729 2.908946 3.006792 3.103214 3.195869 3.290907 3.399877 3.530840 3.687315 3.858519 4.032881 4.204736 4.480308 4.890354 5.312018 5.739805 6.167319 6.587488 6.994976 7.385099 7.754119 8.097804 8.417212 8.710998 8.977539 9.214266 9.419730 9.591422 9.726295 9.783392 9.752691 9.687431 9.636194 9.616899 9.610141 9.571128 9.448681 9.254198 9.028839 8.775418
12.729126 11.880169 11.060130 10.269488 9.498618 8.748145 8.021667 7.323834 6.661151 6.039783 5.461382 4.925946 4.438754 4.003409 3.710443 3.684966 3.593294 3.210866 2.759128 2.575319 2.540255 2.558240 2.622538 2.715375 2.831050 2.961150 3.093570 3.221243 3.343831 3.460929 3.581209 3.714687 3.868583 4.046031 4.238015 4.432902 4.630246 4.827409 5.124930 5.540613 5.960790 6.379609 6.792377 7.193260 7.578722 7.943780 8.284331 8.600369 8.888617 9.146247 9.375010 9.572156 9.734830 9.840343 9.814988 9.703276 9.575087 9.488221 9.466640 9.488373 9.496765 9.424397 9.229810 8.984454 8.709386
12.732444 11.878454 11.053373 10.260150 9.487832 8.735153 8.007039 7.309291 6.647927 6.029490 5.458555 4.933660 4.458513 4.033939 3.795812 3.832934 3.760049 3.374991 2.881742 2.661935 2.634727 2.660539 2.734437 2.850576 2.991715 3.146643 3.307046 3.463157 3.612232 3.755132 3.900940 4.059006 4.235328 4.427335 4.631502 4.844295 5.058901 5.276315 5.495578 5.770791 6.183412 6.594054 6.997850 7.390468 7.768622 8.127178 8.463529 8.774656 9.056898 9.306911 9.525734 9.711784 9.861853 9.920267 9.831205 9.657712 9.480870 9.364708 9.336213 9.373352 9.411082 9.370323 9.188454 8.921659 8.625579
12.738236 11.881915 11.054215 10.259200 9.486752 8.735981 8.010853 7.317012 6.661533 6.051136 5.491636 4.982018 4.522075 4.112366 3.896908 3.926235 3.856735 3.491534 3.028790 2.811039 2.791845 2.824955 2.906558 3.032619 3.190398 3.367532 3.551149 3.732112 3.908364 4.080498 4.254109 4.437038 4.631382 4.831994 5.042763 5.265912 5.493081 5.731493 5.976580 6.220798 6.461379 6.803806 7.197441 7.580668 7.948993 8.299602 8.628953 8.933253 9.207498 9.448510 9.656857 9.831277 9.968981 9.999708 9.879631 9.675221 9.470233 9.334139 9.293068 9.324158 9.361127 9.318975 9.129454 8.839773 8.522763
12.745868 11.889249 11.062053 10.269341 9.501289 8.755389 8.036860 7.352079 6.708302 6.111315 5.568326 5.078782 4.637198 4.245869 3.991995 3.929798 3.816525 3.524473 3.179358 3.025940 3.014690 3.054405 3.142540 3.273700 3.438132 3.625037 3.826183 4.032342 4.237368 4.437630 4.638526 4.842858 5.048985 5.257455 5.472314 5.697475 5.938198 6.192706 6.457855 6.721564 6.972095 7.176836 7.388415 7.760155 8.117617 8.457778 8.776623 9.071042 9.335827 9.567080 9.763658 9.925662 10.051412 10.086239 9.972189 9.771296 9.564173 9.417261 9.356735 9.356960 9.356098 9.274370 9.049788 8.740238 8.404447
12.757860 11.902285 11.080655 10.294538 9.533996 8.796774 8.090544 7.421171 6.795644 6.219698 5.696885 5.227993 4.806860 4.435975 4.121944 3.937073 3.779630 3.562661 3.371999 3.310002 3.306306 3.352173 3.443405 3.576788 3.745458 3.934673 4.141817 4.366935 4.598449 4.824612 5.045845 5.265140 5.482284 5.697446 5.915314 6.143218 6.391950 6.657991 6.931687 7.208612 7.463367 7.669332 7.797192 7.929316 8.274515 8.602368 8.908727 9.190480 9.442841 9.662508 9.847244 9.995259 10.108023 10.162611 10.086300 9.920520 9.733589 9.583427 9.493855 9.443883 9.376656 9.225835 8.950842 8.625663 8.273933
12.778009 11.926803 11.112168 10.335979 9.587981 8.866393 8.180033 7.533958 6.932194 6.379426 5.878380 5.430428 5.031881 4.682318 4.383002 4.136008 3.940029 3.793792 3.698305 3.654591 3.662131 3.715464 3.808893 3.942618 4.113864 4.305512 4.516655 4.747712 4.989873 5.230301 5.466369 5.697416 5.923169 6.144147 6.365253 6.599883 6.852034 7.118612 7.396032 7.671941 7.921635 8.125083 8.256520 8.290025 8.418248 8.732047 9.024525 9.291951 9.530023 9.735995 9.907329 10.042067 10.139133 10.198097 10.176438 10.063035 9.910412 9.763627 9.640968 9.528057 9.379840 9.144432 8.836228 8.498919 8.135945
12.807561 11.963863 11.159864 10.398023 9.670043 8.973678 8.314265 7.694024 7.118470 6.590668 6.112024 5.686614 5.311663 4.983110 4.684497 4.422672 4.228237 4.113199 4.065850 4.054910 4.071743 4.128382 4.225136 4.362234 4.534628 4.727129 4.939702 5.172522 5.418444 5.665377 5.905126 6.139589 6.368536 6.591682 6.815811 7.055159 7.309152 7.572877 7.843603 8.111281 8.347626 8.540685 8.675733 8.720520 8.671940 8.842729 9.119222 9.371016 9.592839 9.782465 9.938831 10.059823 10.142099 10.184977 10.187219 10.128219 10.012627 9.871466 9.718694 9.542624 9.313542 9.028299 8.709551 8.361917 7.990129
12.849064 12.016271 11.227990 10.487648 9.789019 9.122663 8.492376 7.901976 7.354972 6.852340 6.398607 5.996574 5.644587 5.298260 4.950755 4.656722 4.460442 4.379725 4.397778 4.468587 4.529539 4.586648 4.686149 4.824847 4.996041 5.189826 5.403889 5.637120 5.882171 6.131522 6.373170 6.607634 6.834804 7.054654 7.277464 7.515985 7.766809 8.025260 8.287209 8.541958 8.761826 8.938070 9.062297 9.112759 9.071909 8.942554 9.189662 9.422803 9.626797 9.798713 9.939012 10.045046 10.113267 10.140909 10.128066 10.073583 9.977345 9.840509 9.663150 9.445213 9.188374 8.895678 8.570420 8.216285 7.837597
12.905491 12.087754 11.322481 10.613296 9.946174 9.313017 8.715672 8.158307 7.640410 7.165627 6.737344 6.358991 6.011269 5.618327 5.225257 4.902147 4.704980 4.656461 4.734998 4.879535 5.012406 5.091095 5.190684 5.327760 5.496812 5.691333 5.905545 6.137371 6.378685 6.624793 6.865577 7.097701 7.320534 7.535293 7.754198 7.987161 8.230710 8.479886 8.730742 8.967761 9.167212 9.320956 9.424793 9.467175 9.424675 9.296692 9.237099 9.449157 9.633160 9.786420 9.909025 9.998354 10.051590 10.065483 10.037908 9.969424 9.861951 9.716126 9.530547 9.305756 9.043122 8.745384 8.415879 8.058942 7.676870
12.981149 12.187639 11.450609 10.774151 10.140752 9.543952 8.983925 8.459538 7.972049 7.525811 7.124632 6.771751 6.414980 5.994582 5.574644 5.235682 5.042235 5.020283 5.142173 5.339713 5.526765 5.640870 5.737457 5.870960 6.037803 6.230814 6.441352 6.667726 6.902907 7.140962 7.376400 7.602440 7.818732 8.026727 8.237628 8.460712 8.692660 8.928616 9.164502 9.381151 9.558221 9.687711 9.766156 9.791855 9.743232 9.609506 9.400075 9.451473 9.613640 9.747061 9.850985 9.922224 9.958577 9.957819 9.917460 9.838370 9.721148 9.566146 9.373336 9.142844 8.876281 8.575999 8.244926 7.885285 7.500383
13.080072 12.317637 11.613919 10.972020 10.374690 9.813704 9.289193 8.798623 8.343809 7.928693 7.556829 7.231226 6.884693 6.469879 6.054111 5.721358 5.539578 5.532971 5.674745 5.894074 6.103036 6.233318 6.325483 6.454180 6.616745 6.804955 7.008930 7.226010 7.450328 7.675852 7.901083 8.116147 8.322443 8.521677 8.721061 8.930216 9.145856 9.364267 9.581152 9.775768 9.928693 10.032638 10.084655 10.086022 10.027492 9.891173 9.677516 9.431432 9.569992 9.682167 9.766239 9.818765 9.837449 9.820560 9.768667 9.680929 9.555463 9.392048 9.192703 8.957698 8.688139 8.385597 8.052629 7.691432 7.308344
13.206573 12.479758 11.812355 11.205830 10.644824 10.117413 9.627213 9.171202 8.750496 8.368953 8.028822 7.732768 7.429705 7.059910 6.684382 6.382864 6.218479 6.216468 6.352320 6.557630 6.748969 6.861521 6.949918 7.072755 7.227821 7.407246 7.600896 7.805521 8.015687 8.224967 8.433785 8.636657 8.829175 9.014708 9.198410 9.389829 9.585196 9.781498 9.975131 10.145807 10.273268 10.351759 10.376667 10.350473 10.273065 10.132405 9.919473 9.642627 9.503350 9.593072 9.656385 9.689748 9.690309 9.658628 9.594767 9.496739 9.363619 9.194401 8.989512 8.749904 8.477053 8.172640 7.838470 7.479398 7.101362
13.359875 12.671910 12.043272 11.472007 10.944579 10.452732 9.997384 9.577561 9.191718 8.843345 8.536160 8.271671 8.031234 7.739054 7.433686 7.182207 7.042194 7.036501 7.144270 7.303444 7.442905 7.518179 7.603353 7.718416 7.861880 8.029666 8.210164 8.399420 8.592378 8.782909 8.971410 9.157597 9.336938 9.506010 9.667796 9.835512 10.007059 10.177581 10.343513 10.488188 10.588683 10.641814 10.640528 10.587003 10.483404 10.329843 10.117311 9.844225 9.523258 9.478520 9.519990 9.533776 9.517068 9.470934 9.394458 9.285924 9.144027 8.968361 8.759264 8.517491 8.243294 7.937912 7.605283 7.251553 6.880229
13.536738 12.891528 12.302471 11.766602 11.273813 10.818358 10.398540 10.015285 9.666200 9.353139 9.078790 8.845059 8.652989 8.455449 8.234932 8.045796 7.934160 7.919207 7.983714 8.077714 8.144893 8.197337 8.277880 8.382942 8.512695 8.666455 8.831182 9.002717 9.175643 9.344931 9.511231 9.677271 9.839602 9.991994 10.131938 10.270648 10.411419 10.551235 10.686141 10.801849 10.874655 10.900402 10.875248 10.796253 10.666887 10.491507 10.269987 9.999841 9.686100 9.341028 9.358027 9.350563 9.317142 9.256567 9.167496 9.048482 8.898284 8.716858 8.504228 8.261127 7.987290 7.684313 7.357760 7.011750 6.648424
13.734097 13.131422 12.583012 12.084969 11.628475 11.210598 10.827363 10.480432 10.169890 9.893681 9.653399 9.450284 9.283565 9.146358 9.012640 8.888279 8.805527 8.779837 8.796103 8.819047 8.843433 8.891996 8.965723 9.059835 9.174376 9.311228 9.459285 9.611735 9.762630 9.907990 10.051242 10.194165 10.333821 10.466251 10.586120 10.694674 10.802007 10.906823 11.005755 11.089059 11.132225 11.129204 11.079440 10.977688 10.825524 10.627481 10.389374 10.112070 9.801869 9.465935 9.170037 9.142772 9.092995 9.018087 8.916736 8.788635 8.632243 8.446672 8.231145 7.986706 7.714266 7.415986 7.096876 6.759414 6.405679
13.945819 13.388293 12.882808 12.424877 12.006664 11.627673 11.283591 10.974148 10.700846 10.460718 10.254461 10.079457 9.935031 9.816594 9.718715 9.640667 9.582988 9.548500 9.532214 9.532740 9.552928 9.595395 9.659331 9.741676 9.841880 9.960089 10.089539 10.220916 10.348479 10.469182 10.587977 10.705005 10.818830 10.925622 11.022500 11.104815 11.177108 11.245116 11.306006 11.353885 11.366155 11.333929 11.258237 11.133849 10.960998 10.743837 10.487690 10.198485 9.881885 9.539917 9.171525 8.912133 8.846042 8.758391 8.647013 8.511068 8.348773 8.158882 7.941013 7.695881 7.425223 7.133390 6.822793 6.495090 6.152702
14.170454 13.661306 13.201020 12.799514 12.446959 12.121385 11.806284 11.508801 11.256426 11.050613 10.873406 10.724053 10.601302 10.500960 10.418151 10.352674 10.304671 10.273365 10.255085 10.252201 10.267377 10.302608 10.354753 10.423157 10.507689 10.607332 10.716582 10.825423 10.928487 11.025892 11.118858 11.208007 11.292862 11.371529 11.440151 11.496237 11.536789 11.566545 11.588965 11.599071 11.579633 11.518147 11.415373 11.269141 11.076698 10.842292 10.570961 10.268407 9.938690 9.576060 9.192037 8.796102 8.582738 8.483001 8.361746 8.217364 8.048798 7.854936 7.635416 7.390594 7.123514 6.838830 6.537599 6.219994 5.887855
14.407701 13.948785 13.565519 13.260910 12.992287 12.725153 12.436973 12.137354 11.862544 11.655569 11.505285 11.379027 11.277191 11.194012 11.124898 11.071020 11.031372 10.999983 10.978662 10.971436 10.980835 11.006744 11.045959 11.099347 11.166719 11.246960 11.334805 11.421760 11.501565 11.574384 11.641323 11.701606 11.755781 11.802882 11.841230 11.866984 11.877713 11.872790 11.855496 11.826608 11.775820 11.685378 11.555224 11.386843 11.175637 10.924415 10.638944 10.323152 9.970237 9.586777 9.181615 8.760507 8.327962 8.194678 8.062916 7.910500 7.736422 7.539247 7.318523 7.074464 6.811695 6.533439 6.239997 5.932096 5.610275
14.658479 14.264770 13.984716 13.779563 13.595158 13.385530 13.122518 12.818494 12.520622 12.286206 12.145427 12.041259 11.958431 11.891302 11.834930 11.789958 11.752350 11.720923 11.697702 11.685552 11.687801 11.701672 11.726842 11.764276 11.813684 11.874213 11.941649 12.007756 12.064221 12.111634 12.151315 12.182568 12.205091 12.219398 12.224402 12.218442 12.197838 12.160372 12.107769 12.040484 11.956208 11.837755 11.680706 11.488706 11.259149 10.991891 10.692253 10.357452 9.979753 9.568106 9.134601 8.688123 8.231719 7.893357 7.751763 7.591449 7.411859 7.211767 6.990225 6.747589 6.489603 6.217626 5.931963 5.633448 5.323164
14.926236 14.608472 14.418335 14.300102 14.187981 14.027531 13.789985 13.490949 13.183750 12.934526 12.790920 12.707618 12.641829 12.587974 12.553314 12.529111 12.498991 12.458427 12.415243 12.388532 12.381565 12.382413 12.392336 12.412682 12.443832 12.486060 12.534284 12.579544 12.611675 12.633471 12.645268 12.647260 12.638976 12.620318 12.591265 12.550839 12.497336 12.427683 12.341105 12.238597 12.120215 11.976541 11.795145 11.578942 11.329230 11.045751 10.728659 10.365700 9.958363 9.517882 9.056007 8.580788 8.099644 7.614522 7.429182 7.261813 7.077077 6.874155 6.652482 6.412677 6.159698 5.894118 5.616435 5.328020 5.030441