64 64
108.770241 108.109215 107.398155 106.647667 105.868332 105.073120 104.274788 103.484390 102.714333 101.978523 101.298805 100.705627 100.230042 99.909363 99.776077 99.851425 100.166374 100.763557 101.666931 102.889275 104.488815 106.600510 109.316101 112.577927 116.067619 119.182556 121.286667 122.469513 123.129227 123.429070 123.546745 123.591812 123.500519 123.131668 122.360458 121.405342 120.388969 119.316147 118.166695 116.920914 114.602287 110.917511 106.459732 101.984207 97.981056 94.742409 92.525330 91.345291 90.938194 90.850273 90.641342 89.943222 88.584923 86.516243 83.799828 80.249062 75.945312 71.388977 66.993393 62.984367 59.415955 56.314121 54.027740 52.407871 51.200504
109.935043 109.221352 108.453674 107.642647 106.799477 105.935974 105.067451 104.204178 103.358932 102.545654 101.788918 101.113976 100.552620 100.141136 99.915733 99.905785 100.152267 100.711006 101.630432 102.913803 104.611794 106.865257 109.725960 113.067429 116.558716 119.630013 121.692039 122.774490 123.361343 123.677963 123.844902 123.866737 123.696632 123.199585 122.317146 121.277573 120.146904 118.929001 117.621468 116.008629 113.007042 108.709625 103.736481 98.891708 94.816704 91.811493 89.948479 89.103813 89.223328 89.196945 89.211472 88.765961 87.707741 85.914040 82.982635 78.961044 74.290413 69.420906 64.975578 61.072437 57.916214 55.391376 53.473679 51.964443 50.646046
111.036957 110.273415 109.451790 108.583344 107.679527 106.752228 105.816498 104.884216 103.967972 103.083427 102.252953 101.502525 100.863846 100.372627 100.068672 99.993103 100.198486 100.752747 101.732170 103.162094 105.017815 107.384651 110.306587 113.586761 116.851631 119.508194 121.289429 122.309471 122.919724 123.307922 123.578499 123.660362 123.506836 123.029007 122.219757 121.152336 119.899040 118.506241 117.036705 115.117027 111.679054 106.885490 101.521049 96.507164 92.404587 89.554047 88.586784 88.748573 88.763184 88.571259 88.200539 87.828102 86.963791 85.129448 81.709129 77.246155 72.417053 67.559731 63.241318 59.656399 56.904331 54.912460 53.370293 51.957035 50.524990
112.064072 111.253021 110.380379 109.457527 108.496414 107.509155 106.510567 105.513840 104.531090 103.579704 102.681114 101.861893 101.155045 100.597466 100.231972 100.108475 100.291885 100.867577 101.922539 103.490311 105.499931 107.957275 110.815582 113.860710 116.705765 118.905487 120.382011 121.320122 121.929504 122.352196 122.700554 122.870834 122.796593 122.465691 121.812225 120.807121 119.486000 117.976967 116.496353 114.418068 110.709435 105.604614 100.054802 95.081787 91.108170 88.362717 88.412628 88.412933 88.188934 87.822594 87.327385 86.957771 86.206207 83.977501 80.093666 75.206955 70.206482 65.619576 61.692402 58.646942 56.397289 54.848728 53.621197 52.358696 50.855274
113.008774 112.152336 111.231125 110.256638 109.241226 108.197609 107.140327 106.083244 105.039101 104.025688 103.064835 102.184357 101.418633 100.808235 100.398720 100.247246 100.427139 101.031540 102.148888 103.789711 105.872192 108.351501 111.057289 113.788269 116.230110 118.093544 119.298470 120.033463 120.534218 120.932335 121.316742 121.577286 121.650948 121.487846 120.981277 120.081123 118.808876 117.290817 115.764183 113.488304 109.597397 104.388969 98.897354 94.188057 90.598366 88.430046 88.404305 88.132149 87.581757 86.946228 86.375961 86.089561 85.247025 82.563782 78.295464 73.107529 67.918182 63.547279 60.241482 57.824722 56.079842 54.921032 54.013100 52.905079 51.416092
113.866508 112.967491 112.000473 110.977272 109.910240 108.812630 107.699875 106.585770 105.484741 104.414284 103.397408 102.462921 101.647469 100.996025 100.559593 100.398232 100.581940 101.202736 102.338272 103.991859 106.086342 108.518509 111.054535 113.529015 115.655746 117.156944 118.039490 118.529861 118.846474 119.139397 119.481323 119.780846 119.970436 119.998978 119.723213 119.008255 117.843613 116.315437 114.590370 112.067551 107.955162 102.792343 97.644829 93.400078 90.294128 88.285690 88.282578 87.818283 87.004234 86.151642 85.482910 85.283096 84.040108 80.830368 76.127045 70.774681 65.638847 61.560905 58.786568 56.926193 55.634724 54.777935 54.086052 53.170158 51.669353
114.630630 113.691650 112.681679 111.612740 110.498123 109.350967 108.186974 107.019684 105.864891 104.742027 103.674980 102.693993 101.838226 101.155632 100.702187 100.539734 100.727570 101.347206 102.472267 104.127533 106.238846 108.615334 111.021950 113.210602 114.963364 116.065750 116.583275 116.790131 116.867325 117.023811 117.276329 117.553810 117.803947 117.942909 117.816673 117.279579 116.264519 114.821968 112.923027 110.220627 106.019264 101.051468 96.370354 92.668869 90.083336 88.515900 87.951576 87.576355 86.672005 85.659370 84.885071 84.042229 81.835968 77.985626 73.116058 68.028938 63.409317 59.834015 57.436684 55.857475 54.888359 54.305298 53.783401 52.960121 51.483604
115.300201 114.323784 113.273804 112.162338 111.002747 109.808479 108.597145 107.381401 106.178581 105.009125 103.898132 102.878166 101.991074 101.286591 100.822685 100.658264 100.844772 101.455818 102.582687 104.251579 106.372292 108.673233 110.871841 112.727081 114.080193 114.814720 114.973045 114.889847 114.788216 114.829803 114.997330 115.236282 115.467133 115.563049 115.380844 114.819962 113.910736 112.664597 110.903214 108.283730 104.265800 99.670044 95.389465 92.096924 89.923782 88.684647 87.959213 87.298454 86.328217 85.157028 83.545120 81.406960 78.350609 74.266548 69.724548 65.308197 61.450726 58.376053 56.311783 54.967548 54.190334 53.749928 53.293373 52.446609 50.950203
115.872871 114.860489 113.773384 112.622971 111.422455 110.186707 108.931480 107.671036 106.424568 105.214851 104.068611 103.019936 102.111702 101.396500 100.931633 100.770340 100.956337 101.562286 102.686707 104.373772 106.492645 108.661591 110.590851 112.107658 113.089806 113.460686 113.306046 113.015312 112.804382 112.755371 112.837677 112.994682 113.127945 113.111435 112.789871 112.104912 111.146042 110.029182 108.568062 106.277107 102.739853 98.523430 94.410248 91.207771 89.229294 88.224091 87.519646 86.513435 84.979538 82.841499 80.149139 77.224060 73.897247 70.063049 66.226830 62.758846 59.655727 57.128338 55.400955 54.265682 53.609184 53.206516 52.683048 51.709736 50.062870
116.348404 115.301109 114.178101 112.992020 111.754936 110.482735 109.188278 107.889297 106.606171 105.363823 104.190849 103.124260 102.209213 101.497726 101.045242 100.894333 101.079666 101.680573 102.802071 104.495285 106.591652 108.621819 110.300125 111.487923 112.119240 112.144196 111.762955 111.341911 111.053841 110.921257 110.917130 110.968941 110.994270 110.886475 110.461365 109.638580 108.537766 107.379570 106.032310 104.082573 101.142265 97.069672 92.896492 89.669556 87.782265 86.581673 85.459496 84.125717 82.095100 79.090378 75.755371 72.499283 69.337051 66.106583 63.033676 60.321983 57.958881 56.114315 54.711384 53.734665 53.094822 52.603123 51.912014 50.734409 48.854404
116.725288 115.648163 114.490875 113.269722 111.999878 110.694794 109.367340 108.036926 106.725746 105.460312 104.272385 103.201553 102.294670 101.603813 101.175392 101.037918 101.223755 101.825531 102.951080 104.647606 106.709526 108.626823 110.062073 110.942192 111.207420 110.945152 110.388290 109.890640 109.537651 109.328102 109.234016 109.191673 109.143730 108.987511 108.534782 107.626259 106.333694 104.968887 103.527779 101.765175 98.886169 94.802353 90.668198 87.478531 85.340118 83.731743 82.198318 80.557854 78.111847 74.894363 71.460365 68.287239 65.512909 62.804089 60.341370 58.337490 56.823643 55.538326 54.389313 53.462284 52.734066 52.020042 51.058372 49.591034 47.436668
117.014603 115.912628 114.726112 113.470848 112.166260 110.827042 109.471169 108.117058 106.787590 105.511116 104.321655 103.261948 102.382561 101.729721 101.334427 101.209549 101.396233 101.998810 103.133392 104.854385 106.921547 108.736168 109.895477 110.402138 110.336281 109.855164 109.173080 108.610031 108.198082 107.926125 107.765343 107.656830 107.566902 107.409782 106.979240 106.047729 104.558754 102.757141 100.891968 98.890961 95.736977 91.565018 87.609230 84.535225 82.139000 80.273132 78.521667 76.581398 74.019379 71.036583 67.964890 65.176308 62.730190 60.476894 58.610458 57.298512 56.413788 55.503284 54.527122 53.533104 52.600834 51.591576 50.272511 48.438854 45.966190
117.246910 116.119896 114.907822 113.624107 112.283737 110.908081 109.521133 108.144188 106.802269 105.525558 104.348869 103.315186 102.477486 101.878403 101.526451 101.426300 101.624390 102.233711 103.379585 105.127228 107.191353 108.854637 109.684967 109.817139 109.485931 108.803757 108.064445 107.470451 107.024841 106.712975 106.511215 106.382729 106.287666 106.135941 105.633766 104.486465 102.716621 100.487556 98.118561 95.471931 92.013168 87.938972 84.228867 81.197403 78.779266 76.796333 74.970810 73.004494 70.632660 68.053108 65.508438 63.185673 61.082035 59.302914 57.956501 57.085484 56.504204 55.892632 55.025955 53.906990 52.673771 51.328064 49.605022 47.368355 44.564499
117.463608 116.310730 115.068054 113.751434 112.379875 110.974274 109.557541 108.156982 106.803513 105.528358 104.367996 103.368401 102.582306 102.043793 101.750450 101.708260 101.946510 102.570518 103.726791 105.462029 107.448494 108.926216 109.460670 109.275681 108.663689 107.806671 107.062927 106.475761 106.027985 105.707504 105.491020 105.370598 105.302689 104.970741 104.145340 102.720612 100.670296 98.122398 95.287888 92.067169 88.375053 84.536514 81.122444 78.246536 75.869019 73.816383 72.007278 70.185486 68.118599 65.994591 63.984062 62.103554 60.411896 59.011532 57.929523 57.240650 56.844421 56.406506 55.599079 54.349987 52.813564 51.105690 48.995319 46.380348 43.324936
117.716354 116.531937 115.253777 113.901009 112.495445 111.059196 109.617569 108.200035 106.837570 105.563454 104.417091 103.448624 102.713875 102.248543 102.037270 102.076714 102.386215 103.041481 104.194527 105.878098 107.748924 109.052597 109.317352 108.806610 107.869301 106.897522 106.164017 105.619286 105.216957 104.927925 104.723213 104.621071 104.388336 103.734528 102.552452 100.628403 98.062408 95.156113 91.993553 88.596146 85.078758 81.773125 78.766991 76.103790 73.828514 71.827904 70.017754 68.257896 66.440811 64.688271 63.116467 61.663910 60.298798 59.069893 58.112770 57.528301 57.205250 56.786022 55.948284 54.573627 52.767521 50.732445 48.328030 45.478401 42.308468
118.030556 116.814697 115.503242 114.116653 112.677483 111.211632 109.747314 108.314934 106.946129 105.675453 104.544563 103.605476 102.918259 102.525322 102.416008 102.571404 102.984062 103.708023 104.868454 106.473801 108.186668 109.299431 109.322975 108.491844 107.247360 106.151695 105.410629 104.918861 104.588852 104.361397 104.206779 104.030319 103.481430 102.244324 100.189323 97.516884 94.476959 91.325104 88.189751 85.016937 82.021355 79.386414 77.055588 74.777168 72.587029 70.595016 68.832466 67.110687 65.467552 64.005920 62.724659 61.553928 60.433929 59.357841 58.436440 57.818748 57.421761 56.919777 55.968933 54.419468 52.385971 50.139198 47.606785 44.670116 41.491947
118.444832 117.201500 115.859077 114.441216 112.972656 111.482048 109.997932 108.550781 107.175323 105.905281 104.784698 103.871330 103.231300 102.904236 102.887177 103.166992 103.700500 104.516525 105.705368 107.235687 108.717094 109.535912 109.364151 108.340454 106.884232 105.631584 104.839104 104.402824 104.162682 104.003548 103.896996 103.488670 102.203949 99.963173 97.057991 93.731461 90.328522 87.196815 84.379883 81.786491 79.441864 77.403999 75.620567 73.771675 71.800179 69.857468 68.144035 66.532677 64.968086 63.693092 62.601551 61.655392 60.753387 59.786762 58.831982 58.050987 57.429089 56.698792 55.555683 53.839939 51.660950 49.322289 46.797947 43.842628 40.632374
119.015915 117.751633 116.384979 114.940926 113.446907 111.933395 110.429565 108.967606 107.580498 106.305229 105.192619 104.302696 103.695084 103.416702 103.458076 103.786385 104.353981 105.200142 106.375244 107.725357 108.828880 109.411148 109.174652 108.089630 106.572182 105.254616 104.424400 104.037827 103.872765 103.767014 103.613884 102.554543 100.289589 97.184807 93.516541 89.760704 86.379761 83.565018 81.152512 79.060272 77.249901 75.693466 74.338623 72.868042 71.202637 69.413422 67.717590 66.184196 64.675507 63.530487 62.588905 61.788574 61.019836 60.140083 59.115303 58.068520 57.089031 56.027187 54.646400 52.792126 50.571270 48.267956 45.745728 42.727016 39.507751
119.797791 118.519966 117.137634 115.676254 114.163582 112.630898 111.108429 109.629242 108.230881 106.951744 105.848640 104.985237 104.397972 104.118675 104.139633 104.401138 104.875191 105.603394 106.610138 107.663818 108.461357 108.857285 108.681778 107.669571 106.244217 104.982353 104.117867 103.638390 103.419922 103.326591 102.884598 101.002365 97.909981 94.068115 89.993858 86.258102 83.170761 80.722458 78.702202 76.925629 75.383888 74.105148 73.045509 71.844994 70.400116 68.754250 67.048561 65.532433 64.226715 63.305614 62.565620 61.842152 61.067547 60.108242 58.922054 57.548531 56.143669 54.724800 53.073498 51.112667 48.953758 46.699162 44.065117 40.959984 37.697708
120.846283 119.563141 118.173607 116.702728 115.177780 113.628647 112.088608 110.593811 109.191589 107.925407 106.851532 106.019226 105.433388 105.084175 104.978859 105.075386 105.359734 105.882599 106.592148 107.328362 107.919991 108.163872 107.980186 107.104622 105.810104 104.609802 103.625557 102.830994 102.443359 102.326508 101.290268 98.698334 95.104988 90.964745 86.958672 83.528839 80.836876 78.740494 76.999886 75.388161 73.930061 72.636787 71.431580 70.214798 68.897774 67.403824 65.767616 64.227730 63.193329 62.546459 62.090080 61.450798 60.549324 59.348026 57.864712 56.133106 54.315178 52.580124 50.713596 48.696632 46.598560 44.333984 41.567436 38.418606 35.255234
122.213760 120.932388 119.543716 118.071350 116.541733 114.985680 113.436218 111.936852 110.538643 109.300499 108.272705 107.482224 106.875153 106.408966 106.099609 105.977852 106.062073 106.371475 106.805542 107.259079 107.587990 107.581635 107.230858 106.483650 105.275635 104.031631 102.836197 101.739014 101.038383 100.578583 98.950684 95.957275 92.126442 88.176590 84.553482 81.578270 79.266762 77.446831 75.866905 74.340141 72.709625 71.075859 69.543991 68.154625 66.828979 65.407051 63.806225 62.294941 61.391125 60.996323 60.709694 60.034035 58.939266 57.411846 55.557552 53.493732 51.381172 49.400051 47.409534 45.462528 43.466183 41.230915 38.460445 35.395771 32.539318
123.959663 122.681694 121.299118 119.834389 118.310387 116.759911 115.214409 113.728363 112.360718 111.162354 110.162819 109.398483 108.760361 108.174492 107.699257 107.412209 107.314545 107.446854 107.661186 107.856071 107.848412 107.504211 106.929764 106.111694 104.931686 103.637054 102.221916 100.759987 99.603531 98.527016 96.409370 93.174683 89.363968 85.782555 82.725525 80.240379 78.269806 76.621704 75.074203 73.382614 71.460182 69.465996 67.584572 65.923225 64.391907 62.864670 61.276291 59.818298 58.939220 58.622070 58.281128 57.438503 56.016018 54.095192 51.820534 49.438042 47.265778 45.220814 43.308128 41.588291 39.859550 37.713951 35.136391 32.442768 29.933424
126.137161 124.860443 123.486893 122.040695 120.536507 119.004265 117.481483 116.024467 114.697052 113.534409 112.540100 111.747566 111.072906 110.428894 109.903702 109.523842 109.283966 109.195076 109.167084 108.967926 108.468849 107.718422 106.935341 106.005974 104.845909 103.521637 101.952393 100.170250 98.558456 96.811844 94.245186 90.861382 87.197990 84.010757 81.408646 79.246407 77.521423 76.003967 74.404594 72.405991 70.150558 67.828423 65.634750 63.629066 61.795013 60.094906 58.496319 57.061913 56.168911 55.685574 55.063457 53.929832 52.109978 49.665203 47.019390 44.643951 42.631989 40.814472 39.252666 37.930260 36.434998 34.514816 32.323051 29.990479 27.654655
128.777084 127.500954 126.138191 124.716194 123.247765 121.745262 120.256104 118.837845 117.540970 116.375992 115.335442 114.448235 113.743355 113.122810 112.599930 112.155807 111.723953 111.283218 110.704659 109.917931 108.941437 107.870049 106.879128 105.887245 104.790726 103.536110 101.979858 100.195419 98.329025 96.030190 93.093681 89.544174 85.839951 82.716263 80.211105 78.225349 76.692612 75.316811 73.617775 71.464058 68.969627 66.353004 63.844601 61.505592 59.369320 57.457272 55.775726 54.351940 53.398594 52.699047 51.706203 50.208611 47.899689 45.084755 42.420918 40.271435 38.595268 37.252216 36.256569 35.303627 33.992756 32.323883 30.258579 27.996420 25.862783
131.869781 130.593536 129.245132 127.848145 126.415176 124.954346 123.494873 122.091980 120.779099 119.549759 118.381447 117.345627 116.539604 115.942932 115.425079 114.890259 114.196220 113.107651 111.740677 110.385925 109.064148 107.781891 106.637970 105.548851 104.473167 103.327400 101.991158 100.453926 98.631119 96.236557 92.997093 88.985573 84.866302 81.480850 78.916901 77.034752 75.647484 74.377403 72.698082 70.542435 67.989342 65.180496 62.372879 59.735847 57.347286 55.248863 53.469509 52.046074 51.058521 50.111141 48.722061 46.792011 44.218578 41.542160 39.192554 37.330280 36.114830 35.339371 34.752079 33.936604 32.634804 30.870878 28.770493 26.573257 24.597004
135.337143 134.064850 132.733566 131.362549 129.949997 128.512527 127.071243 125.642975 124.240456 122.883873 121.576027 120.399734 119.431595 118.745598 118.149582 117.394234 116.158615 114.246727 112.174675 110.404861 108.852158 107.487137 106.280937 105.140602 104.061699 103.005714 101.870651 100.558281 98.922256 96.577148 93.083481 88.619850 83.916428 80.110527 77.503922 75.743019 74.542946 73.413269 71.835503 69.772049 67.239922 64.337578 61.317890 58.455151 55.888508 53.694172 51.890366 50.495728 49.465446 48.150612 46.378468 44.057583 41.455032 39.020916 37.119328 35.832184 35.090691 34.523880 33.946476 33.114033 31.735380 29.913498 27.815575 25.685827 23.817108
139.032822 137.766205 136.452881 135.104431 133.707764 132.270309 130.807007 129.309525 127.786873 126.298965 124.882980 123.506172 122.262840 121.430313 120.617401 119.505859 117.537361 114.834290 112.267174 110.234711 108.627579 107.265602 106.049873 104.935905 103.908577 102.891708 101.819672 100.615067 99.015701 96.599632 92.907860 88.040108 82.792282 78.573486 76.056961 74.508064 73.495201 72.538132 71.139931 69.183014 66.707718 63.803959 60.687351 57.680206 55.008003 52.795845 51.062721 49.801643 48.688416 47.057968 45.000481 42.410053 39.725250 37.475063 35.950100 35.038651 34.481194 33.979572 33.376049 32.496971 31.093765 29.292967 27.272392 25.234840 23.441673
142.725769 141.465149 140.175293 138.846497 137.457672 136.011948 134.510605 132.942001 131.308914 129.436615 127.471817 126.121758 124.420708 122.974632 122.459137 121.094307 118.421570 115.271523 112.392281 109.725822 107.392654 106.586418 105.665222 104.754227 103.880341 102.883224 101.811134 100.573517 98.882484 96.323296 92.451477 87.314896 81.744034 77.220009 74.749352 73.437233 72.615662 71.767693 70.479591 68.662704 66.292030 63.414349 60.282059 57.225117 54.564556 52.410110 50.812859 49.656219 48.391571 46.562653 44.261448 41.457611 38.703609 36.511726 35.140427 34.418072 34.023102 33.542099 32.853073 31.934128 30.577667 28.881767 26.997576 25.075014 23.268099
146.212509 144.971344 143.698380 142.378174 140.998978 139.539703 137.976624 136.304520 134.547668 132.061951 129.547882 128.233871 126.107552 123.925240 123.384308 122.075485 119.052696 115.666412 112.533615 108.940796 105.770493 105.198730 105.154129 104.488411 103.800072 102.805046 101.735878 100.461662 98.714455 96.050911 92.074020 86.748146 80.988136 76.207245 73.722290 72.635910 71.959663 71.168182 69.937790 68.204453 65.917824 63.073540 59.968552 56.932167 54.331470 52.364082 50.910950 49.811337 48.401104 46.432774 43.919144 40.937710 38.119766 35.941639 34.619247 33.973885 33.647644 33.121700 32.352032 31.420193 30.149195 28.575525 26.810797 24.963539 23.153957
149.292099 148.046646 146.771255 145.449173 144.038910 142.509033 140.839325 139.047867 137.162308 134.924942 132.480057 130.770294 128.422821 125.960907 124.675003 122.638580 119.499573 116.021088 112.766502 109.499435 106.341919 105.424973 104.940636 104.150185 103.395119 102.457512 101.365395 100.103683 98.399956 95.788322 91.808998 86.373352 80.430099 75.552361 73.069283 72.239189 71.667572 70.908737 69.675064 67.931091 65.616615 62.789696 59.711861 56.731789 54.249916 52.470890 51.178024 50.059181 48.581749 46.589115 43.913994 40.812943 37.940872 35.735939 34.390984 33.718372 33.326122 32.715298 31.812597 30.736952 29.504795 28.104851 26.570738 24.837898 22.997158
151.758377 150.484161 149.177826 147.796082 146.278259 144.627533 142.838303 140.932785 138.918152 136.875610 134.749359 132.389145 129.927643 127.607201 125.433891 123.032555 119.977829 116.439682 113.138069 110.300415 107.912827 106.252312 104.867935 103.425499 102.509331 101.645531 100.503410 99.280098 97.658104 95.152229 91.274063 85.928162 79.968521 75.116417 72.780556 72.173088 71.716362 70.986366 69.722847 67.888298 65.488327 62.642784 59.574493 56.618374 54.190868 52.586433 51.424095 50.236294 48.790173 46.800564 44.093239 40.954613 38.023323 35.760967 34.326294 33.514790 32.928493 32.037830 30.860870 29.625853 28.402527 27.174761 25.899195 24.444286 22.701153
153.470490 152.132233 150.713211 149.185226 147.515930 145.716965 143.784531 141.742111 139.621017 137.503922 135.280472 132.788712 130.163803 127.855316 125.754272 123.561798 120.517685 116.798363 113.492226 110.498940 107.938187 106.038460 104.148613 102.649483 101.559570 100.371567 99.146446 97.904541 96.300697 93.905128 90.235428 85.081474 79.277534 74.625328 72.584694 72.139320 71.845093 71.166412 69.889610 67.992073 65.491272 62.539574 59.405975 56.479153 54.195030 52.678707 51.468685 50.253582 48.835533 46.852901 44.180771 41.044716 38.079498 35.767895 34.154564 33.090752 32.193039 30.937040 29.512106 28.138754 26.944252 25.896667 24.836563 23.628811 22.101307
154.338699 152.883804 151.269028 149.513306 147.647430 145.663803 143.572968 141.410095 139.266174 137.231049 135.153061 132.616241 130.009354 127.964859 126.058121 124.021126 120.996437 116.994278 113.588936 110.161072 107.201271 104.908455 102.837601 101.377975 100.093811 98.615608 97.290482 95.954575 94.358788 92.063835 88.469276 83.517387 78.169739 74.069443 72.371864 71.977783 71.856438 71.285355 70.082962 68.175926 65.590233 62.506798 59.305912 56.446083 54.171249 52.561626 51.371567 50.104458 48.559830 46.521915 43.859814 40.783493 37.847733 35.472866 33.666199 32.423443 31.222864 29.691675 28.066511 26.581678 25.391485 24.449707 23.545937 22.539234 21.223024
154.389618 152.754837 150.893738 148.869644 146.765625 144.588150 142.365952 140.199509 138.151215 136.265274 134.450394 132.397903 130.281113 128.440918 126.267265 124.163841 121.566315 117.711540 113.462418 109.026474 106.260185 104.106590 101.568939 99.645195 97.909203 96.306755 94.911041 93.508453 91.908714 89.507362 85.895287 81.267151 76.559502 73.196022 71.820671 71.496872 71.487289 71.123695 70.116646 68.314949 65.747543 62.640877 59.333893 56.275414 53.887512 52.402744 51.206871 49.787956 48.066853 45.839565 43.139179 40.165020 37.326210 34.929459 33.083084 31.685667 30.286053 28.606707 26.863895 25.306450 24.110090 23.209740 22.375957 21.475962 20.367147
153.765121 151.930801 149.589661 146.966934 144.972916 142.848404 140.565536 138.386505 136.349945 134.699158 133.248352 131.741653 130.270264 128.706177 126.626884 124.603813 122.397736 118.633804 113.143494 107.786659 104.959221 102.569336 99.633644 97.128769 94.990219 93.277534 91.880745 90.527908 88.879616 86.266602 82.656342 78.387894 74.403526 71.742683 70.642906 70.407211 70.440697 70.333061 69.654099 68.085548 65.639854 62.556446 59.204891 55.991840 53.422390 52.091167 50.939415 49.430649 47.554886 45.204262 42.483761 39.063820 35.520573 34.103523 32.784519 31.177456 29.498491 27.125006 24.929214 24.155191 23.363722 22.450006 21.618792 20.761127 19.718531
152.700836 150.605408 147.743591 144.672226 142.688965 140.759674 138.448303 136.234085 134.214417 132.755081 131.610580 130.504791 129.320602 127.912857 126.217789 124.336212 122.096954 118.177971 112.866150 107.546967 103.751244 100.045876 96.612450 93.722267 91.344696 89.529457 88.150551 86.888702 85.115005 82.414200 78.890800 75.034851 71.692337 69.574707 68.632545 68.499565 68.648209 68.785072 68.413971 67.207176 65.067696 62.142643 58.440388 54.235291 51.861912 51.450535 50.680992 49.163994 47.244694 44.767811 41.928425 38.060635 34.332729 33.557011 32.618828 30.345613 28.844957 25.976345 23.517193 23.402983 22.834558 21.239666 20.944086 20.365053 19.182167
151.369553 149.081589 146.450012 143.400665 140.885208 138.334274 135.664825 133.880447 132.186874 130.759583 129.645645 128.522568 127.202278 125.543434 123.646545 121.764206 119.427727 115.987549 111.390373 106.459442 101.467606 96.796165 92.816307 89.535255 86.941635 85.042107 83.690048 82.450722 80.617920 78.095192 76.619408 75.238213 73.987785 72.703934 71.314621 69.843498 68.367432 66.396362 65.678345 65.491997 64.046547 61.239803 56.369087 50.229630 49.726200 51.093277 50.639641 49.180855 47.332150 44.586983 41.542458 39.170204 36.475834 35.117382 32.776974 30.044443 28.965488 27.423561 25.308121 24.250195 21.849701 20.162025 20.314976 20.105839 18.726854
149.520248 147.258499 144.868546 142.058609 139.077087 135.868866 132.950012 131.387924 130.100067 128.552536 127.222046 125.591072 123.738594 121.516296 119.191177 116.988243 114.706551 112.140770 108.409660 103.412224 98.057350 92.857407 88.357224 86.736259 85.374512 84.287598 83.405128 82.602539 81.701370 80.617325 79.449661 77.807899 75.853027 75.292679 74.002602 72.423843 71.643616 69.339363 66.771133 65.841087 64.237305 61.882248 56.833824 51.205124 50.987778 51.427185 50.510235 49.480381 47.771885 44.914436 42.182720 40.287846 38.026615 36.234436 34.090023 31.599077 30.089796 28.346853 26.739714 24.729261 22.184933 20.946026 20.934633 19.865286 18.399101
146.148834 144.052963 141.726349 138.777054 135.712173 133.503845 131.160324 129.459290 127.536736 125.414185 123.693069 121.913300 119.518257 116.593529 113.765633 111.347015 109.299370 107.345497 104.256943 99.492790 93.962959 90.849258 88.906517 87.181770 85.785210 84.736198 84.034424 83.562607 83.049126 82.309982 81.491196 79.302444 76.954987 76.881706 75.864182 74.118134 74.180962 73.134407 71.050743 69.532593 67.917221 66.565155 63.015465 57.535042 57.017536 55.752899 52.956440 50.003475 47.379230 44.242958 42.513763 40.859074 37.997589 36.203682 35.054100 33.180470 30.877069 28.325594 26.632338 25.397469 23.618818 22.479305 21.217567 19.705587 18.295273
139.003983 136.820679 135.086090 132.403610 130.261093 129.793472 128.833130 126.661110 123.888252 121.166397 119.362724 117.650604 115.036865 111.723549 108.588478 106.108879 104.220695 102.475105 99.562546 94.849503 92.956444 90.999512 88.978241 87.203346 85.773537 84.750359 84.154419 83.851456 83.598831 83.202232 82.758385 81.707100 80.198372 80.126701 78.999565 77.507217 77.571892 77.309189 75.876892 74.440887 73.148422 72.340172 68.261261 62.874439 60.804241 59.925728 57.204865 52.552917 47.602390 43.302471 42.370731 41.445930 39.144398 36.874916 35.117382 33.633392 31.626650 29.363068 27.399986 25.763382 24.364584 22.821461 21.226269 19.698557 18.239351
126.114120 123.599350 122.561172 121.349380 122.072952 124.187386 124.783730 123.071503 120.036758 117.388176 115.606384 113.518433 110.685135 107.427444 104.235481 101.605858 99.560387 97.416847 95.512550 94.194847 92.522690 90.592880 88.652458 86.943314 85.558929 84.586166 84.042107 83.811905 83.689438 83.559685 83.456444 83.285172 83.034019 82.733185 81.848450 80.388252 80.719681 80.440300 79.158966 79.251160 78.896690 77.251930 74.548576 69.925156 66.259331 63.556915 60.410622 55.081150 50.968712 48.384708 44.885193 42.235207 40.472359 37.936184 35.520172 33.828846 32.110970 30.136427 27.907957 25.709507 24.255150 22.873339 21.238005 19.676085 18.022099
108.418373 105.728134 105.012390 105.960938 109.585999 113.600838 116.237679 117.966568 117.033775 114.388161 112.066849 109.457146 106.693886 103.701126 100.630447 97.709045 95.634308 95.457558 94.589211 93.195732 91.549248 89.741661 87.985611 86.408646 85.112183 84.204285 83.723267 83.558571 83.535713 83.594055 83.780121 83.977783 84.147141 84.337486 83.513680 82.033707 82.244301 83.458755 82.897446 83.381485 82.706207 80.774200 78.962997 76.742126 72.614731 68.467812 65.512619 61.060371 57.161896 53.792797 49.453094 44.726059 41.095516 38.882271 36.362820 34.291782 32.272217 30.228073 28.170204 26.084122 24.462288 22.846176 21.186905 19.604742 17.704134
86.007225 83.522179 84.371780 88.183510 94.661400 100.146484 104.628273 109.141708 111.997742 110.848755 108.054115 105.425705 102.810852 100.085762 97.095375 94.132500 94.468056 94.110832 93.110779 91.720901 90.178848 88.541985 86.960716 85.535492 84.344154 83.507889 83.111359 83.053909 83.171761 83.393791 83.780899 84.282410 84.842316 85.495499 85.592140 83.659378 83.226868 85.407028 86.922722 86.407890 85.173988 83.688515 81.860710 80.133064 77.244682 73.116249 69.593742 66.085236 61.768681 57.143497 52.472122 47.838879 43.301258 38.983116 36.706532 34.393456 32.173321 30.098301 28.163389 26.297764 24.466707 22.703844 21.020739 19.433035 17.628695
72.830917 73.618683 74.507500 75.915749 77.393166 84.438416 92.149055 98.892708 104.403816 105.948883 103.726227 101.032349 98.403244 95.629303 92.541634 92.619843 92.762169 92.243797 91.197029 89.893089 88.489288 87.080841 85.691780 84.417160 83.325836 82.592018 82.270905 82.302933 82.550591 82.945801 83.482323 84.196777 85.073837 86.098305 86.630081 85.931831 85.365463 87.234184 88.461967 87.245689 84.633629 84.725319 83.883972 81.930328 78.827545 75.152733 71.797379 68.463295 64.370895 59.640591 54.849445 50.089935 45.407520 40.884483 36.570671 33.982800 31.770901 29.708519 27.790583 25.967407 24.176443 22.396013 20.686380 19.109873 17.262749
71.693138 72.220543 72.842300 73.889969 75.151840 76.598450 77.954689 87.787651 95.556503 99.332016 98.598045 95.799149 92.786224 89.610970 90.062523 90.614014 90.585922 89.721321 88.324539 87.545944 86.569763 85.360596 84.176865 83.052788 82.082375 81.456734 81.226822 81.330360 81.699463 82.269577 82.951782 83.787292 84.845985 86.129089 87.325531 88.089439 89.071129 89.482796 89.252914 86.576378 83.528992 83.730362 84.637329 82.675140 78.785522 74.931923 72.155037 69.861168 65.909752 61.313118 56.575493 51.733589 46.961761 42.333080 37.927689 33.792530 31.026560 29.018667 27.165672 25.416872 23.667021 21.876162 20.163721 18.603525 17.031986
70.300461 70.861382 71.540985 72.345474 73.250366 74.264175 75.650887 77.275238 85.098663 90.948395 91.793137 89.320961 85.961571 86.912270 87.802582 88.192093 88.063805 86.801872 85.248535 84.720863 84.095001 83.274994 82.402107 81.402588 80.571243 80.046410 79.897804 80.113548 80.609146 81.314125 82.106392 83.010513 84.141769 85.534691 87.089561 88.634430 90.034386 90.748215 89.974060 87.905624 84.975937 85.439888 85.593407 83.461769 79.470573 75.820999 72.848900 70.424156 66.632996 62.146370 57.597042 52.731411 47.925800 43.255959 38.815941 34.655403 30.603943 27.422794 26.043539 24.631432 22.904184 21.127075 19.441652 17.899309 16.522427
68.620140 69.176834 69.874283 70.695763 71.687195 72.826805 74.135117 75.599945 77.147255 81.507072 83.582596 81.867058 83.235588 84.346123 85.100166 85.438255 85.319542 84.517143 83.325684 82.432655 81.432915 80.944672 80.410652 79.517380 78.817619 78.403275 78.347092 78.650314 79.237785 80.008362 80.864616 81.811058 82.983566 84.373360 85.870476 87.411568 88.865898 89.956764 90.072678 87.966911 86.457230 86.737091 85.833282 81.839088 78.507545 77.065918 74.929268 71.591858 67.213402 62.624081 57.908569 53.077740 48.294666 43.649681 39.234108 35.104153 30.721251 26.733625 24.537827 23.591473 21.904539 20.159746 18.508083 16.986231 15.643102
66.686249 67.219688 67.927139 68.761932 69.760605 70.911469 72.190102 73.580841 75.019150 76.455727 77.872009 79.189598 80.389969 81.392708 82.117607 82.471848 82.393921 81.935036 81.237801 80.293587 79.312477 78.795494 78.122566 77.371361 76.804810 76.504028 76.524399 76.882034 77.212921 77.396790 78.518799 79.992584 81.289665 82.521767 83.798973 85.342384 86.821747 86.917130 85.469147 86.059860 86.209999 86.179611 83.985855 80.639290 78.071922 77.212318 75.178116 71.447716 66.999542 62.299458 57.546806 52.793488 47.932083 43.132904 39.042896 35.156120 31.224199 27.556713 25.021893 22.674837 20.684353 18.983936 17.362064 15.873761 14.542779
64.541801 65.067284 65.749748 66.602036 67.597473 68.719215 69.938515 71.228920 72.538872 73.825317 75.084137 76.270576 77.354210 78.282089 78.978516 79.348045 79.321587 78.651985 77.608391 77.335167 76.916496 76.193390 75.473099 74.844475 74.398483 74.201698 74.281555 74.665871 74.516678 74.016228 75.090752 77.369057 78.910339 79.918274 80.991768 82.457901 83.945793 82.359200 79.786507 81.905632 84.544182 83.029411 80.764954 80.239883 78.981796 76.403206 73.222054 69.623589 65.337372 61.035622 56.426060 51.577988 46.822212 42.142929 38.348259 34.842400 31.285959 28.115778 25.322945 22.811195 20.574162 18.619196 16.941559 15.491375 14.185678
62.207302 62.720684 63.396976 64.230431 65.206635 66.294403 67.451920 68.672424 69.896431 71.068184 72.203163 73.281075 74.263489 75.113564 75.766472 76.115936 76.113388 74.795433 72.915527 73.065094 73.607498 73.047043 72.379921 71.322998 70.159195 70.872070 71.531303 71.892799 72.134201 71.888939 72.637131 74.393204 75.812775 76.652809 77.454697 78.906914 80.354713 80.342506 79.071526 80.668449 81.311523 79.176163 77.480705 78.149475 77.316498 74.122108 70.527245 66.972198 63.038837 58.847015 53.712463 48.759003 45.064465 41.419147 37.777599 34.211056 30.838045 27.833651 25.162088 22.748375 20.604452 18.717627 17.086018 15.665535 14.385623
59.683144 60.204952 60.890881 61.706390 62.636364 63.681553 64.806229 65.826912 66.781609 68.100609 69.278038 70.260818 71.167084 71.934349 72.506012 72.802177 72.648041 70.730247 67.994675 68.463356 69.729324 69.545403 68.864296 67.003990 65.241196 66.369873 68.065430 68.513245 69.017647 69.375374 69.683823 70.911575 72.032356 72.600441 73.234856 74.471527 75.766518 77.064987 77.898354 77.892365 76.908653 75.639259 75.088036 75.284035 73.913177 71.188881 67.975723 64.715157 60.814270 55.567589 49.183041 45.107918 42.934143 40.061951 36.395485 33.162766 30.171766 27.347357 24.799049 22.495218 20.433064 18.596518 17.012117 15.639009 14.398246
56.959480 57.511337 58.218395 59.047276 59.980003 60.996929 62.075848 62.834808 63.582798 64.969963 66.282959 67.182388 67.996262 68.664749 69.130089 69.204788 68.442551 66.420959 64.053436 63.885647 65.620964 65.093254 63.209606 62.907875 62.376911 62.988770 63.991901 64.621811 64.940453 64.915993 65.369316 66.544228 67.636192 68.258369 68.906616 69.720177 70.491783 71.697578 72.751938 72.597412 71.840706 72.144455 72.434456 71.538269 69.885567 67.491295 64.581131 61.743057 58.098927 52.179039 45.846802 43.056583 41.089211 37.774075 34.370934 31.732628 29.280214 26.669216 24.230511 21.818401 19.366213 17.671253 16.564037 15.247089 13.629064
54.022545 54.599838 55.339340 56.192341 57.130329 58.141460 59.200153 60.131737 60.954327 61.853027 62.447433 63.719193 64.721558 65.268814 65.612183 65.177666 63.781837 62.638512 60.815090 59.593288 60.966370 59.956669 57.139389 57.832043 59.434109 59.530823 59.705025 59.907272 60.167908 60.118443 60.477951 61.794220 62.681572 63.324421 64.072220 64.793976 65.315910 66.077057 66.440170 65.866478 65.686150 66.604004 67.309769 66.297508 64.519669 62.740337 60.170265 57.634037 54.899254 50.331703 45.364635 42.109520 38.605339 35.342590 32.762428 30.382757 27.799189 25.633307 23.459551 20.825453 18.026173 16.458448 15.856189 14.378324 12.015821
50.817833 51.381699 52.125671 53.005783 53.959808 54.972290 56.020851 57.076389 58.087090 58.277081 58.405952 59.911377 61.268486 61.674976 61.852383 61.181274 59.717537 58.238117 55.955917 54.981358 55.604950 55.634609 54.203941 54.307037 54.691219 54.392815 54.636711 54.815258 55.237503 55.195225 55.267071 55.975201 56.656288 57.516705 58.166122 58.410919 59.165066 59.830746 59.400982 58.789528 58.676590 59.372803 59.568363 58.993675 58.426094 57.905392 56.069233 53.571579 51.211670 47.913807 43.835739 40.162884 36.188095 33.059814 30.920986 28.563696 26.113836 24.310297 22.509144 20.280756 17.984259 16.436548 15.439223 13.660955 11.595277
47.292355 47.807384 48.516300 49.382278 50.355061 51.383152 52.437244 53.479935 54.477280 55.098019 55.487564 56.626640 56.970631 56.516582 56.759777 56.247440 55.077053 51.866016 50.338646 50.295261 49.108208 48.690758 50.095943 50.013351 48.878216 47.880306 48.965260 49.852959 49.974838 49.698898 49.049568 48.751873 49.256104 50.473877 50.930340 50.690163 51.993401 53.215759 53.292500 53.143032 53.475441 53.239338 52.020706 51.920006 52.812218 52.972145 51.482510 49.335129 47.402325 44.306442 40.584316 37.487858 34.194447 30.769396 27.742592 25.428158 24.059780 23.038902 21.406572 19.497238 17.749180 16.192474 14.833995 13.422750 12.038596
43.448910 43.874794 44.496017 45.296104 46.241024 47.271099 48.328926 49.371578 50.364948 51.272728 51.909428 52.114628 51.237659 50.310444 50.271267 49.996449 48.309441 45.911884 45.870564 46.723732 43.482269 41.717621 42.895168 44.476803 43.546959 41.526783 42.211563 43.491997 42.887711 42.264202 40.911686 40.059727 40.870232 42.344986 42.981941 43.321098 45.394043 47.213871 47.521877 46.932571 47.151505 48.113232 47.380875 47.793282 48.068951 46.604851 45.491699 44.059521 41.925800 40.241638 37.082088 34.105877 31.899755 28.948505 25.119051 22.049891 20.971540 20.040024 19.586430 18.379995 16.740671 15.278644 13.994387 12.852575 11.853662
39.256134 39.545246 40.050224 40.752525 41.622047 42.614040 43.665730 44.700932 45.669464 46.470264 46.585369 45.860203 45.087368 44.895336 44.700996 43.886127 42.874016 41.232460 41.430386 41.069183 39.346317 36.844959 36.444511 37.997284 37.734417 35.736820 35.422989 35.589954 34.491192 33.530094 32.151073 31.209087 32.184216 33.499805 34.592258 36.032219 38.482639 40.520741 41.116440 39.952305 40.274879 42.130749 42.256004 43.365093 43.232403 41.326359 40.585846 38.990330 36.578934 35.613182 33.387646 30.405567 29.028276 27.352648 24.342047 21.566618 19.347734 17.372591 17.310884 17.108555 15.602753 14.255927 13.061659 11.996715 11.059852
34.642921 34.783150 35.160015 35.752777 36.518429 37.417709 38.380367 39.332325 40.216450 40.847389 40.688889 39.295044 38.628349 38.814583 37.677002 36.565796 35.676712 34.873142 34.289482 33.427319 32.394112 32.136616 31.562239 31.872715 31.194118 29.623173 28.560310 28.229176 26.780483 25.937620 24.800390 23.810833 23.901899 24.844633 26.437679 28.564676 31.039268 33.328873 35.282330 35.498772 35.842129 36.824604 36.421040 37.640797 38.560181 37.569504 36.779800 35.564087 33.519566 32.617004 30.599409 27.983215 26.643394 25.090509 23.152334 21.316742 19.450998 17.215416 16.553795 15.658618 14.312081 13.083080 11.979361 10.998301 10.131968
29.548500 29.500959 29.700016 30.130009 30.731043 31.470861 32.290077 33.111965 33.896233 34.541763 34.384651 33.231441 32.768238 32.317741 30.215416 28.439211 27.037683 25.928112 25.721958 24.680344 22.961329 24.225639 25.463581 24.501110 24.356874 22.526152 20.245941 19.435558 19.561853 19.135057 18.141689 17.067673 16.669376 17.286959 18.896338 21.186365 23.814156 26.461462 29.094341 30.356768 30.795179 31.317432 31.132793 31.512026 31.589249 31.971020 31.861502 30.976151 29.912052 28.760460 27.063234 25.039902 23.621517 22.283022 20.697832 19.227358 17.812395 16.441547 15.103314 13.837243 12.669291 11.600287 10.610914 9.715521 8.886847
24.311407 23.850731 23.867950 24.088123 24.441669 24.955469 25.579304 26.226446 26.869757 27.431387 27.420490 26.821165 26.332727 25.224865 23.099224 20.963787 18.870043 17.252003 16.862904 16.578531 15.318696 17.120016 18.293705 17.367071 18.110563 17.454607 14.670973 13.120703 13.187146 13.117927 12.055902 11.193929 10.820273 11.159581 12.388262 14.265696 16.715513 19.343237 21.668949 23.184238 24.056425 24.815710 25.031099 24.449673 23.544167 23.899096 24.277061 24.794390 24.616909 23.873613 22.717794 21.095177 20.090666 18.904633 17.523754 16.225569 14.997066 13.813887 12.662268 11.576291 10.578716 9.667123 8.818646 8.018072 7.249034
21.012838 20.355730 19.660028 18.894154 18.178530 18.395212 18.706638 19.086626 19.492249 19.867105 20.037312 19.766260 18.923588 17.249964 15.510294 13.901789 11.881452 10.195477 9.651226 10.291610 10.950636 12.614296 13.984490 13.329192 13.540402 12.753235 10.996905 8.962411 8.272011 7.687291 6.959938 6.454875 6.111100 6.129199 6.753711 7.992004 9.792967 11.815366 13.662170 15.107289 16.308294 17.557940 18.631575 19.103731 18.525778 17.398188 16.544329 17.894493 18.925999 18.597654 17.808466 16.728058 15.966209 15.047680 13.869034 12.776858 11.752907 10.752151 9.787022 8.867005 8.022148 7.253433 6.532131 5.821875 5.139511
17.685202 17.221739 16.902876 16.312855 15.511479 14.549059 13.531326 12.576658 11.933923 12.092847 12.213727 12.275151 12.046434 10.956355 9.368408 7.870657 6.140418 4.557727 3.993822 4.552895 5.999457 7.670658 8.805618 9.053001 8.479112 7.304790 5.775084 4.309771 3.204137 2.580811 2.157856 1.739162 1.359807 1.111898 1.246350 1.871246 2.932744 4.299191 5.603921 6.754515 8.077831 9.776483 11.585391 12.933263 13.358297 12.651493 11.619880 12.190966 12.606931 12.680648 12.555849 12.041341 11.599018 10.817804 9.822921 8.927832 8.093517 7.290706 6.491050 5.721237 5.026232 4.380024 3.755026 3.147861 2.563036
14.412371 14.422948 14.306842 13.883637 13.213041 12.383799 11.455862 10.435819 9.518227 8.612204 7.629560 6.591589 5.538638 4.515303 3.683858 2.663878 1.886473 1.226482 0.695918 0.298090 0.629797 2.057896 3.010544 3.335942 3.009453 1.928023 0.372293 0.000000 0.000000 0.000000 0.000000 0.000000 0.000000 0.000000 0.000000 0.000000 0.000000 0.000000 0.000000 0.000000 0.106823 1.988715 4.021044 5.602636 6.414549 6.621500 6.300123 5.992938 5.991689 6.278133 6.627305 6.732020 6.587487 6.135943 5.384029 4.660945 4.019912 3.426874 2.817662 2.207379 1.628829 1.091212 0.572111 0.059054 0.000000
11.281797 11.352833 11.311476 10.971201 10.429320 9.766038 9.038872 8.288692 7.605245 6.869058 6.060194 5.193662 4.306112 3.443308 2.635731 1.906954 1.272301 0.747150 0.339312 0.044322 0.000000 0.000000 0.000000 0.000000 0.000000 0.000000 0.000000 0.000000 0.000000 0.000000 0.000000 0.000000 0.000000 0.000000 0.000000 0.000000 0.000000 0.000000 0.000000 0.000000 0.000000 0.000000 0.000000 0.000000 0.000000 0.000000 0.000000 0.000000 0.000000 0.000000 0.191313 0.630915 0.974927 1.051286 0.630435 0.061801 0.000000 0.000000 0.000000 0.000000 0.000000 0.000000 0.000000 0.000000 0.000000
8.366714 8.242153 8.082963 7.890615 7.640530 7.307088 6.885424 6.387341 5.838779 5.247603 4.600826 3.903913 3.182189 2.486311 1.845577 1.273560 0.784675 0.387734 0.085974 0.000000 0.000000 0.000000 0.000000 0.000000 0.000000 0.000000 0.000000 0.000000 0.000000 0.000000 0.000000 0.000000 0.000000 0.000000 0.000000 0.000000 0.000000 0.000000 0.000000 0.000000 0.018226 0.029988 0.000000 0.000000 0.000000 0.000000 0.000000 0.000000 0.000000 0.000000 0.000000 0.000000 0.000000 0.000000 0.000000 0.000000 0.000000 0.000000 0.000000 0.000000 0.000000 0.000000 0.000000 0.000000 0.000000