64 64
8.366714 8.242153 8.082963 7.890615 7.640530 7.307088 6.885424 6.387341 5.838779 5.247603 4.600826 3.903913 3.182189 2.486311 1.845577 1.273560 0.784675 0.387734 0.085974 0.000000 0.000000 0.000000 0.000000 0.000000 0.000000 0.000000 0.000000 0.000000 0.000000 0.000000 0.000000 0.000000 0.000000 0.000000 0.000000 0.000000 0.000000 0.000000 0.000000 0.000000 0.018226 0.029988 0.000000 0.000000 0.000000 0.000000 0.000000 0.000000 0.000000 0.000000 0.000000 0.000000 0.000000 0.000000 0.000000 0.000000 0.000000 0.000000 0.000000 0.000000 0.000000 0.000000 0.000000 0.000000 0.000000
5.736105 5.754608 5.714525 5.639536 5.516264 5.312215 5.018649 4.646680 4.222034 3.762230 3.261217 2.723678 2.174325 1.645810 1.164626 0.745982 0.396646 0.116232 0.000000 0.000000 0.000000 0.000000 0.000000 0.000000 0.000000 0.000000 0.000000 0.000000 0.000000 0.000000 0.000000 0.000000 0.000000 0.000000 0.000000 0.000000 0.000000 0.000164 0.000404 0.007635 0.089789 0.081643 0.001190 0.001233 0.001190 0.001069 0.000881 0.000649 0.000404 0.000184 0.000034 0.000000 0.000000 0.000000 0.000000 0.000000 0.000000 0.000000 0.000000 0.000000 0.000000 0.000000 0.000000 0.000000 0.000000
3.462296 3.583620 3.635385 3.650889 3.622709 3.517898 3.322971 3.053007 2.736963 2.393097 2.027646 1.637338 1.247072 0.888267 0.571052 0.301192 0.075675 0.000000 0.000000 0.000000 0.000000 0.000000 0.000000 0.000000 0.000000 0.000000 0.000000 0.000000 0.000000 0.000000 0.000000 0.000000 0.000000 0.000000 0.000000 0.000000 0.000000 0.002960 0.007495 0.035714 0.113127 0.086119 0.014109 0.014026 0.013185 0.011675 0.009666 0.007404 0.005209 0.003455 0.002318 0.001402 0.000632 0.000127 0.000000 0.000000 0.000000 0.000000 0.000000 0.000000 0.000000 0.000000 0.000000 0.000000 0.000000
1.599238 1.778700 1.891855 1.963172 1.985917 1.933856 1.804142 1.612262 1.382932 1.136181 0.882578 0.622606 0.373040 0.172087 0.016119 0.000000 0.000000 0.000000 0.000000 0.000000 0.000000 0.000000 0.000000 0.000000 0.000000 0.000000 0.033784 0.000000 0.000000 0.000000 0.000000 0.000000 0.000000 0.000000 0.000000 0.000000 0.000000 0.009632 0.026399 0.038117 0.044815 0.047749 0.049175 0.049019 0.047289 0.044084 0.039589 0.034073 0.027888 0.021459 0.015281 0.009909 0.005937 0.003571 0.001941 0.000729 0.000100 0.000000 0.000000 0.000000 0.000000 0.000000 0.000000 0.000000 0.037259
0.180189 0.382628 0.516863 0.597714 0.626775 0.591029 0.493823 0.351154 0.185205 0.014580 0.000000 0.000000 0.000000 0.000000 0.000000 0.000000 0.000000 0.000000 0.000000 0.000000 0.000000 0.000000 0.000000 0.000000 0.000000 0.000000 0.160897 0.000000 0.000000 0.000000 0.000000 0.000000 0.000000 0.000000 0.000000 0.000000 0.000000 0.002697 0.043158 0.075244 0.095156 0.103829 0.106096 0.105862 0.103199 0.098211 0.091100 0.082160 0.071773 0.060403 0.048588 0.036937 0.026112 0.016826 0.009829 0.005542 0.003065 0.001252 0.000282 0.000002 0.000000 0.000000 0.000000 0.000000 0.132710
0.000000 0.000000 0.000000 0.000000 0.000000 0.000000 0.000000 0.000000 0.000000 0.000000 0.000000 0.000000 0.000000 0.000000 0.000000 0.000000 0.000000 0.000000 0.000000 0.000000 0.000000 0.000000 0.000000 0.000000 0.000000 0.000000 0.000000 0.000000 0.000000 0.000000 0.000000 0.000000 0.000000 0.000000 0.000000 0.000000 0.000000 0.000000 0.047960 0.108593 0.152877 0.177200 0.184243 0.183928 0.180289 0.173438 0.163596 0.151078 0.136298 0.119760 0.102046 0.083817 0.065793 0.048750 0.033505 0.020904 0.011809 0.006511 0.003428 0.001313 0.000303 0.000000 0.000000 0.000000 0.125931
0.000000 0.000000 0.000000 0.000000 0.000000 0.000000 0.000000 0.000000 0.000000 0.000000 0.000000 0.000000 0.000000 0.000000 0.000000 0.000000 0.000000 0.000000 0.000000 0.000000 0.000000 0.000000 0.000000 0.000000 0.000000 0.000000 0.000000 0.000000 0.000000 0.000000 0.000000 0.000000 0.000000 0.000000 0.000000 0.000000 0.000000 0.000000 0.046354 0.137761 0.211551 0.259804 0.280815 0.282355 0.277703 0.268921 0.256243 0.240012 0.220672 0.198765 0.174921 0.149850 0.124333 0.099208 0.075361 0.053711 0.035197 0.020764 0.011240 0.006182 0.002911 0.000979 0.000139 0.000000 0.000000
0.000000 0.000000 0.000000 0.000000 0.000000 0.000000 0.000000 0.000000 0.000000 0.000000 0.000000 0.000000 0.000000 0.000000 0.000000 0.000000 0.000000 0.000000 0.000000 0.000000 0.000000 0.000000 0.000000 0.000000 0.000000 0.000000 0.000000 0.000000 0.000000 0.000000 0.000000 0.000000 0.000000 0.000000 0.000000 0.000000 0.000000 0.000000 0.048867 0.170420 0.274430 0.349408 0.390344 0.399920 0.394361 0.383588 0.367989 0.347928 0.323884 0.296437 0.266263 0.234125 0.200861 0.167374 0.134619 0.103588 0.075297 0.050772 0.031032 0.017078 0.009107 0.004719 0.001863 0.000476 0.000000
0.000000 0.000000 0.000000 0.000000 0.000000 0.000000 0.000000 0.000000 0.000000 0.000000 0.000000 0.000000 0.000000 0.000000 0.000000 0.000000 0.000000 0.000000 0.000000 0.000000 0.000000 0.000000 0.000000 0.000000 0.000000 0.000000 0.000000 0.000000 0.000000 0.000000 0.000000 0.000000 0.000000 0.000000 0.000000 0.000000 0.000000 0.000000 0.067139 0.216727 0.348426 0.449615 0.511445 0.533923 0.528974 0.516162 0.497568 0.473584 0.444718 0.411590 0.374921 0.335528 0.294308 0.252227 0.210308 0.169619 0.131251 0.096310 0.065900 0.041105 0.022974 0.012034 0.006435 0.002768 0.000863
0.000000 0.000000 0.000000 0.000000 0.000000 0.000000 0.000000 0.000000 0.000000 0.000000 0.000000 0.000000 0.000000 0.000000 0.000000 0.000000 0.000000 0.000000 0.000000 0.000000 0.000000 0.000000 0.000000 0.000000 0.000000 0.000000 0.000000 0.000000 0.000000 0.000000 0.000000 0.000000 0.000000 0.000000 0.000000 0.000000 0.000000 0.000000 0.345297 0.387577 0.441831 0.565499 0.646156 0.681539 0.680054 0.665165 0.643522 0.615541 0.581763 0.542844 0.499555 0.452762 0.403420 0.352561 0.301278 0.250708 0.202023 0.156408 0.115049 0.079115 0.049740 0.028010 0.014595 0.007821 0.003503
0.000000 0.000000 0.000000 0.000000 0.000000 0.000000 0.000000 0.000000 0.000000 0.000000 0.000000 0.000000 0.000000 0.000000 0.000000 0.000000 0.000000 0.000000 0.000000 0.000000 0.000000 0.000000 0.000000 0.000000 0.000000 0.000000 0.000000 0.000000 0.000000 0.000000 0.000000 0.000000 0.000000 0.000000 0.000000 0.000000 0.000000 0.045809 0.590005 0.577132 0.561696 0.702350 0.797617 0.843274 0.845934 0.828942 0.804213 0.772185 0.733431 0.688647 0.638647 0.584351 0.526772 0.467005 0.406210 0.345598 0.286418 0.229936 0.177418 0.130117 0.089254 0.055999 0.031459 0.016307 0.008710
0.000000 0.000000 0.000000 0.000000 0.000000 0.000000 0.000000 0.000000 0.000000 0.000000 0.000000 0.000000 0.000000 0.000000 0.000000 0.000000 0.000000 0.000000 0.000000 0.000000 0.000000 0.000000 0.000000 0.000000 0.000000 0.000000 0.000000 0.000000 0.000000 0.000000 0.000000 0.000000 0.000000 0.000000 0.000000 0.000000 0.000000 0.136371 0.540233 0.527509 0.712857 0.863946 0.968066 1.019689 1.024784 1.005676 0.977840 0.941740 0.897976 0.847285 0.790526 0.728669 0.662785 0.594031 0.523635 0.452883 0.383096 0.315619 0.251802 0.192981 0.140460 0.095495 0.059276 0.032913 0.016944
0.000000 0.000000 0.000000 0.000000 0.000000 0.000000 0.000000 0.000000 0.000000 0.000000 0.000000 0.000000 0.000000 0.000000 0.000000 0.000000 0.000000 0.000000 0.000000 0.000000 0.000000 0.000000 0.000000 0.000000 0.000000 0.000000 0.000000 0.000000 0.000000 0.000000 0.000000 0.000000 0.000000 0.000000 0.000000 0.000000 0.077348 0.281536 0.496986 0.707456 0.897194 1.051564 1.157857 1.210182 1.214633 1.193408 1.162465 1.122288 1.073511 1.016907 0.953379 0.883948 0.809741 0.731978 0.651953 0.571022 0.490582 0.412056 0.336874 0.266453 0.202182 0.145399 0.097381 0.059317 0.032301
0.000000 0.000000 0.000000 0.000000 0.000000 0.000000 0.000000 0.000000 0.000000 0.000000 0.000000 0.000000 0.000000 0.000000 0.000000 0.000000 0.000000 0.000000 0.000000 0.000000 0.000000 0.000000 0.000000 0.000000 0.000000 0.000000 0.000000 0.000000 0.000000 0.000000 0.000000 0.000000 0.000000 0.000000 0.000000 0.174190 0.336960 0.502680 0.717834 0.926518 1.113224 1.263613 1.365185 1.412821 1.413388 1.390059 1.356025 1.311793 1.258029 1.195541 1.125276 1.048305 0.965810 0.879070 0.789446 0.698363 0.607292 0.517733 0.431192 0.349170 0.273135 0.204511 0.144653 0.094834 0.056226
0.000000 0.000000 0.000000 0.000000 0.000000 0.000000 0.000000 0.000000 0.000000 0.000000 0.000000 0.000000 0.000000 0.000000 0.000000 0.000000 0.000000 0.000000 0.000000 0.000000 0.000000 0.000000 0.000000 0.000000 0.000000 0.000000 0.000000 0.000000 0.000000 0.000000 0.000000 0.000000 0.000000 0.207637 0.541645 0.805014 0.925576 0.925149 0.979327 1.179397 1.356051 1.495593 1.586073 1.624352 1.618861 1.593452 1.556362 1.508124 1.449428 1.381122 1.304194 1.219762 1.129063 1.033436 0.934305 0.833162 0.731551 0.631044 0.533227 0.439679 0.351948 0.271537 0.199883 0.138339 0.088155
0.207859 0.087913 0.000000 0.000000 0.000000 0.000000 0.000000 0.000000 0.000000 0.000000 0.000000 0.000000 0.000000 0.000000 0.000000 0.000000 0.000000 0.000000 0.000000 0.000000 0.000000 0.000000 0.000000 0.000000 0.000000 0.000000 0.000000 0.000000 0.000000 0.000000 0.043737 0.163887 0.288678 0.640924 1.020623 1.327941 1.505236 1.550825 1.485505 1.457203 1.617698 1.740395 1.814692 1.840360 1.828790 1.801337 1.761247 1.709072 1.645532 1.571509 1.488032 1.396267 1.297501 1.193132 1.084645 0.973599 0.861605 0.750311 0.641376 0.536455 0.437174 0.345115 0.261793 0.188638 0.126977
0.390939 0.290256 0.264559 0.351372 0.330701 0.305594 0.287808 0.203939 0.000000 0.000000 0.000000 0.000000 0.000000 0.000000 0.000000 0.000000 0.000000 0.000000 0.000000 0.000000 0.000000 0.000000 0.000000 0.000000 0.000000 0.000000 0.000000 0.061191 0.182129 0.301060 0.418896 0.536405 0.659257 1.009807 1.369726 1.670656 1.895471 2.022582 2.045232 1.932858 1.887774 1.988908 2.044137 2.056109 2.040863 2.011417 1.968398 1.912382 1.844115 1.764513 1.674642 1.575716 1.469072 1.356162 1.238532 1.117803 0.995655 0.873804 0.753983 0.637919 0.527316 0.423829 0.329050 0.244483 0.171529
0.522676 0.432381 0.728236 0.863135 0.865508 0.823090 0.793060 0.789365 0.672260 0.486442 0.400564 0.483904 0.564919 0.448879 0.058814 0.000000 0.000000 0.000000 0.000000 0.000000 0.000000 0.000000 0.000000 0.000000 0.000000 0.165493 0.291297 0.417587 0.550337 0.676399 0.796343 0.911943 1.025473 1.322802 1.613826 1.848803 2.049641 2.217804 2.317510 2.317487 2.243508 2.231537 2.267323 2.269243 2.252747 2.221369 2.175514 2.115776 2.042928 1.957918 1.861851 1.755982 1.641698 1.520504 1.394001 1.263875 1.131867 0.999761 0.869359 0.742460 0.620839 0.506226 0.400283 0.304587 0.220612
0.605448 0.599976 0.932436 1.078920 1.108040 1.113664 1.114788 1.125512 1.117730 0.944071 0.886298 0.926002 0.937762 0.860046 0.538143 0.441979 0.309821 0.157651 0.202549 0.364384 0.493060 0.501321 0.461093 0.446718 0.516403 0.631445 0.708373 0.741977 0.888437 1.023076 1.147191 1.263501 1.391160 1.606266 1.812070 1.979870 2.109790 2.257220 2.404006 2.492527 2.508902 2.480480 2.481064 2.479580 2.462110 2.428874 2.380291 2.316974 2.239722 2.149510 2.047482 1.934934 1.813298 1.684129 1.549084 1.409906 1.268399 1.126409 0.985805 0.848453 0.716197 0.590837 0.474104 0.367645 0.273000
0.802842 0.748579 0.927461 0.994104 1.000219 1.023548 1.056081 1.121331 1.040672 0.885828 0.993027 1.185658 1.568493 1.512808 1.344257 1.106396 0.844436 0.680241 0.681272 0.785959 0.878117 0.907850 0.899120 0.876680 0.894319 0.965736 1.019980 1.029081 1.168882 1.314501 1.446719 1.567669 1.690335 1.870440 2.022925 2.150268 2.259238 2.383085 2.519841 2.635513 2.702287 2.699428 2.686612 2.685047 2.666648 2.631641 2.580457 2.513727 2.432272 2.337099 2.229384 2.110462 1.981810 1.845029 1.780269 1.703199 1.580180 1.413484 1.203554 0.967926 0.811846 0.676196 0.549127 0.432349 0.327468
1.251289 1.109338 1.058787 0.910908 0.828523 0.838140 0.873144 0.937564 0.645407 0.612924 0.750268 1.366835 1.591665 1.586557 1.474563 1.270548 1.041273 0.887825 0.879264 0.966683 1.057582 1.127095 1.165289 1.183016 1.211328 1.257644 1.297827 1.318336 1.377342 1.533792 1.678271 1.816620 1.952653 2.098609 2.241754 2.364891 2.487288 2.604777 2.707985 2.794682 2.850965 2.873596 2.885031 2.883389 2.864112 2.827431 2.773788 2.703832 2.618406 2.518544 2.405453 2.280505 2.224059 2.222302 2.161684 2.055828 1.908206 1.714743 1.484065 1.233170 0.964865 0.760857 0.623979 0.497405 0.382799
2.421905 1.822891 1.336844 0.988280 0.782716 0.764466 0.785846 0.813137 0.706229 0.533484 0.870956 1.162312 1.281724 1.324293 1.258617 1.279586 1.557785 2.048159 2.682229 3.194763 3.534101 3.688838 3.724468 3.777822 3.943967 4.119676 3.968650 3.208187 1.878891 1.689211 1.853562 2.011565 2.163694 2.310251 2.450634 2.583008 2.704387 2.810910 2.899744 2.969850 3.022548 3.057449 3.074142 3.072429 3.052329 3.014082 2.958140 2.885166 2.796025 2.691775 2.602140 2.617526 2.594595 2.539567 2.453465 2.327364 2.159370 1.949433 1.709091 1.447946 1.168802 0.885213 0.697328 0.561552 0.437806
6.331523 5.932458 5.128269 3.963959 2.795746 1.905766 1.395792 1.319302 1.774806 2.651571 3.683155 4.635656 5.475529 6.206566 6.711589 6.929661 7.147585 7.582062 8.089046 8.424401 8.551262 8.545146 8.504270 8.501322 8.590735 8.689988 8.539430 7.877621 6.688112 5.110550 3.176392 2.158369 2.321884 2.477177 2.622424 2.755924 2.876112 2.981584 3.071109 3.143641 3.198334 3.234551 3.251870 3.250090 3.229230 3.189535 3.131466 3.055702 2.963127 2.925938 2.927506 3.305807 2.951221 2.775064 2.668973 2.526275 2.339878 2.120064 1.873781 1.602987 1.325908 1.055008 0.795336 0.623577 0.491347
9.891238 9.619601 9.059260 8.465063 7.820329 7.303821 7.062853 6.992262 7.268932 8.364025 9.502235 10.415194 11.257106 11.941456 12.362653 12.378263 12.266983 12.793976 13.377490 13.716582 13.789770 13.664040 13.554854 13.438153 13.362576 13.260632 12.991041 12.324318 11.226353 9.648855 7.645917 5.641893 3.995381 2.925704 2.765398 2.903555 3.027882 3.136945 3.229489 3.304448 3.360960 3.398376 3.416265 3.762824 3.515784 3.351853 3.291846 3.751821 5.387341 7.374431 8.940845 9.454498 8.993435 8.246652 7.503729 6.955060 6.739389 6.651162 6.458745 5.949696 5.130829 4.350025 3.601095 2.954494 2.494767
12.951394 12.794091 12.567209 12.656534 12.745294 12.724098 12.827215 12.712358 12.849462 13.963832 15.169356 16.050402 16.908068 17.502050 17.811552 17.489264 17.132671 17.734013 18.538195 18.952026 19.129677 18.976913 18.723181 18.384434 18.030565 17.687078 17.215839 16.479763 15.400376 13.667134 11.546250 9.593906 8.229986 7.522390 7.085912 6.376963 5.970896 7.325359 8.183107 8.712769 9.424566 10.238503 11.202688 11.920684 11.973858 11.677381 11.614811 12.146547 13.289599 14.631433 15.552979 15.769770 15.381913 14.679634 13.903239 13.257609 12.796417 12.327294 11.632741 10.587524 9.518835 8.660800 7.732800 6.814786 6.019293
15.565807 15.692704 15.966648 16.618122 17.304783 17.864189 18.374218 18.674879 18.913948 19.689600 20.514933 21.324930 22.091911 22.585674 22.798876 22.706440 22.595652 23.097557 23.700140 24.179516 24.458294 24.308075 23.835001 23.223257 22.552824 21.874992 21.192366 20.474243 19.372965 17.515045 15.398579 13.542182 12.460866 12.007463 12.109993 12.159688 12.734429 14.272334 15.224665 16.038378 17.052532 17.870451 18.799650 19.543066 19.844606 19.815336 19.810974 20.113071 20.712248 21.372824 21.854368 21.974491 21.748804 21.106583 20.254515 19.460674 18.632532 17.642384 16.352570 14.876951 13.643856 12.630668 11.451045 9.995986 8.586747
17.892775 18.270788 19.128113 20.267015 21.448517 22.494200 23.373213 24.020678 24.502134 24.970737 25.520844 26.169214 26.783247 27.179789 27.432940 27.648897 27.992342 28.297199 28.586020 29.270506 29.662804 29.449905 28.785091 27.874613 26.919931 25.974155 25.140440 24.453241 23.410564 21.707201 19.807583 18.175323 17.376263 17.527233 18.172249 19.257814 20.577826 22.287619 22.837858 23.357338 24.396505 25.335300 26.129564 26.543655 26.501642 26.623547 26.686987 26.688528 26.761801 27.029129 27.412912 27.639071 27.414949 26.830240 26.027025 25.057894 23.882166 22.414066 20.698301 19.256393 18.065281 16.770966 14.965859 12.629120 10.669113
20.149380 20.820272 22.155573 23.791340 25.378422 26.788683 27.946806 28.822248 29.436995 29.855049 30.175541 30.588772 31.058720 31.543507 32.033524 32.467499 32.975227 33.277538 33.548283 34.348667 34.674999 34.106430 33.568199 32.633301 31.464893 30.385477 29.502337 28.829662 27.952845 26.581787 25.019442 23.775040 23.371540 23.884184 25.062416 26.621042 28.325941 29.854746 30.436665 30.579119 31.566919 32.650391 33.222408 33.152767 32.471416 32.189545 31.995956 31.137003 31.395683 31.651371 31.655056 31.286760 31.717764 31.650087 30.895895 29.810591 28.490656 27.615131 26.325840 24.765022 23.254324 21.584536 19.296400 16.499836 13.589195
22.536381 23.592566 25.374210 27.355473 29.221163 30.952736 32.433689 33.528263 34.183884 34.498692 34.624611 34.819679 35.243515 35.919838 36.692265 37.420509 38.163841 38.748638 39.090668 40.024185 39.960743 39.084526 38.650734 37.929272 36.706078 34.869823 32.854485 33.143440 32.988594 31.879814 30.788992 30.115356 30.234943 30.915796 32.293900 34.495377 36.346226 37.410568 37.653011 37.759598 38.661148 39.585228 39.702717 39.226883 38.390423 37.641312 36.226776 34.679970 35.082676 35.714603 34.948288 34.215057 35.051830 35.644318 34.950840 34.315277 34.137112 33.365234 31.784359 29.903904 28.076511 26.180595 23.681267 20.659367 17.530231
25.036276 26.564447 28.766235 31.061052 33.221554 35.237473 36.991665 38.235844 38.880295 39.105186 39.139660 39.308903 39.864037 40.758614 41.873623 43.044262 44.131630 44.785191 45.237381 46.081768 46.314026 45.616974 45.069946 44.105057 42.837070 39.865505 36.853909 37.358814 38.035530 37.098579 36.578423 36.593170 37.363094 38.672501 40.339264 42.532791 44.215473 44.824253 44.428898 44.020100 45.147892 46.134640 45.758827 44.834488 44.276146 43.251411 41.404736 39.849030 40.183853 40.265701 39.797138 39.100677 39.427738 39.216793 39.266228 39.022179 38.828800 37.864895 36.357880 34.433193 32.348305 30.346836 27.789892 24.329020 20.866663
27.576847 29.708916 32.357079 35.001324 37.493786 39.790367 41.719742 42.995514 43.650330 43.984615 44.207890 44.607918 45.440392 46.671616 48.169209 49.695469 51.040447 51.965427 52.484535 53.060478 53.188595 52.763016 52.043900 50.435429 47.977226 46.392570 44.379456 43.516083 42.664398 41.718277 41.901569 42.709824 44.142933 46.084415 48.026867 49.870327 51.317757 52.206520 51.826725 51.309986 52.245556 52.872257 51.775372 50.205334 49.466206 48.112686 46.382591 45.422672 45.214130 44.755661 44.302979 43.930317 43.238277 43.949131 43.602997 42.481239 42.184689 41.374763 39.942066 38.210747 36.044884 33.780464 30.628645 26.869984 23.339756
30.300184 33.087498 36.150166 39.139881 41.963501 44.454311 46.409580 47.757820 48.591228 49.246025 49.938904 50.858135 52.148411 53.744244 55.473862 57.142216 58.505161 59.509682 60.143261 60.424057 60.344700 59.370800 57.854084 56.079872 53.178413 52.357456 51.672680 49.038628 46.892235 46.145348 46.749111 48.325413 50.312103 52.582317 54.592197 56.291122 57.708179 58.770630 59.186043 59.127209 59.431599 58.861782 56.991322 54.916367 53.634869 52.345364 50.957199 50.194321 49.500420 48.718372 47.979507 47.707432 48.632557 48.678509 48.075840 46.723011 46.126888 45.020454 43.333382 41.361534 39.181717 36.567589 33.426350 30.325867 28.112692
33.416889 36.759018 40.154575 43.436436 46.518898 49.054348 50.949356 52.436012 53.586601 54.730316 56.054214 57.682377 59.618073 61.552044 63.425186 65.051605 66.262657 67.065125 67.545105 67.739906 67.510513 65.481949 63.120735 62.832920 61.618290 59.686943 57.210262 54.458221 52.355743 51.442501 52.344521 54.058083 56.162704 58.276577 60.447495 62.123585 63.377003 64.311172 64.943817 65.136047 64.560432 63.508736 61.558548 59.070004 57.497211 55.970329 55.066574 54.389931 53.437241 52.272972 51.954681 53.088902 53.757164 53.472515 52.646088 51.065617 49.894455 48.403072 46.181675 43.787182 41.815948 39.651878 37.272362 35.328335 33.549366
36.848492 40.585274 44.304241 47.871395 51.138149 53.684261 55.607567 57.254284 58.786842 60.494801 62.434780 64.765816 67.336090 69.619637 71.533577 73.000320 73.981888 74.555229 74.804268 74.761635 74.303894 72.428734 69.969688 69.970078 69.048073 65.651085 62.579460 61.048656 59.304340 57.945732 58.541233 60.332806 62.190647 64.074982 66.124687 67.694962 68.585808 69.313629 69.828461 69.355118 68.055008 67.066360 65.069328 62.205498 60.283794 59.182068 58.631924 58.077339 56.845028 56.762825 57.436501 57.817974 58.166504 57.790596 56.353966 54.573578 53.057800 51.364162 48.834038 46.248592 44.363377 42.571098 40.617313 38.839813 36.901165
40.323616 44.420906 48.443924 52.295849 55.732758 58.399483 60.489292 62.346958 64.332863 66.572197 69.026237 71.838776 74.787010 77.274673 79.093155 80.392357 81.215958 81.580925 81.553604 81.184273 80.429359 78.791191 76.808563 75.874832 74.069504 70.971443 69.115234 67.793922 65.928116 64.746986 65.038567 66.740021 68.744568 70.475624 71.777397 72.084785 72.628403 73.745636 74.239204 73.345352 71.695824 70.538498 68.392540 65.282997 63.512493 62.814232 62.344948 61.224220 61.683407 62.129780 62.139240 62.287361 62.232506 61.437603 60.070957 58.185036 56.183304 54.332932 52.075371 49.554577 47.457401 45.343323 43.250607 41.259834 39.065929
43.684322 48.096954 52.376038 56.496532 60.167961 63.115791 65.506821 67.662712 70.030289 72.667664 75.512665 78.491173 81.377350 83.886780 85.637337 86.707321 87.223846 87.571037 87.391861 86.682335 85.636223 84.166794 82.321373 80.861328 78.370247 75.447975 74.337418 72.974091 71.120369 70.191322 70.729698 72.309464 74.547768 76.219933 76.644844 75.778412 75.823814 77.489426 78.086029 77.235710 75.689240 73.875175 71.397049 68.957718 67.553131 66.691025 65.556808 66.433556 66.743462 66.700562 66.203026 66.070770 65.761436 64.772278 63.179241 60.746803 58.822365 57.232513 55.230934 52.375694 49.299492 47.407013 45.208466 43.009045 41.054714
48.681847 52.702881 56.285408 60.286194 64.269958 67.601814 70.407303 72.958618 75.641754 78.483727 81.474548 84.312988 86.935715 89.254807 90.945091 91.675827 91.894653 92.157608 91.940559 90.983124 89.717171 88.199265 86.422501 84.622177 82.353470 79.343948 77.837883 77.534897 76.185638 75.082726 75.648682 77.124344 78.926247 80.536972 81.327667 80.710770 79.907578 80.491890 81.013000 80.151299 78.919014 76.714371 73.901657 71.926010 70.774948 70.114319 70.915596 71.183685 70.130943 69.272141 69.798553 69.519783 68.451439 67.570297 65.610016 63.022476 61.474941 60.078773 57.649899 54.123226 50.390945 48.790283 46.903610 44.634708 43.037170
53.507927 57.852417 61.746490 65.012856 67.789536 71.538559 74.778290 77.749367 80.703270 83.635979 86.547455 89.223213 91.430946 93.280022 94.766380 95.511360 95.622185 95.569489 94.970207 93.813400 92.345772 90.511665 88.432953 86.825783 85.088593 82.456169 80.828651 81.010918 80.672806 79.825508 80.399506 81.155846 82.383911 83.661591 84.654465 83.950783 81.211807 81.362480 82.083679 80.486130 80.013557 78.738449 76.286285 74.756088 75.165260 75.518654 75.713989 75.726936 73.602509 71.658989 72.585754 72.538879 70.868210 69.912544 68.464844 65.766815 63.416496 61.605240 59.117771 56.214611 52.653042 50.801701 49.084763 47.268673 45.470242
57.944469 62.530838 66.779877 70.338799 72.711128 74.594749 78.215294 81.506203 84.642914 87.578789 90.273102 92.626884 94.343933 95.688126 96.915810 97.607719 97.623535 97.124947 96.177963 94.537025 92.419083 90.741989 88.802734 87.242233 85.537880 83.987053 83.228851 83.180748 82.716187 82.802994 83.214149 83.785645 84.597565 85.564308 86.355064 84.634315 81.355255 81.967049 82.568176 80.406868 80.210930 79.592125 78.165192 79.507988 80.412155 80.862106 80.923546 80.415977 78.787247 76.601929 76.390961 75.332497 73.182571 71.630409 70.122375 67.408180 64.285744 62.508846 60.615887 58.210182 55.020374 52.326153 51.038048 49.771404 47.777260
61.998749 66.772461 71.230087 74.978073 77.311310 78.419975 80.408195 83.889145 87.093857 89.920998 92.316750 94.305733 95.765076 96.776726 97.576309 97.861839 97.405266 96.363609 95.349396 93.165321 90.584549 88.981285 87.092186 85.939072 84.702217 83.897491 83.935364 83.500618 83.098679 83.631393 84.349907 84.925636 85.590652 86.280098 86.672462 85.450615 83.658096 84.395027 84.472496 82.975868 82.545799 83.361496 83.342064 83.534958 84.178078 84.710861 84.463440 83.718742 82.318718 80.465431 79.109024 77.391350 74.893074 72.636803 70.796837 68.697319 66.183914 64.093147 62.005169 60.142681 57.515083 55.137539 53.758751 52.239971 49.906197
65.638824 70.519241 75.046608 78.802948 81.138397 82.259674 82.994980 84.815018 87.948418 90.602463 92.718422 94.431717 95.687286 96.414932 96.673653 96.507469 95.469849 93.968117 92.821907 91.101067 88.719528 86.307114 83.858986 83.309959 83.068100 82.597878 82.535622 82.611946 82.866867 83.658440 84.367096 84.832565 85.043808 85.341263 85.286507 84.600906 84.604889 85.216034 84.915512 85.962181 87.394791 87.967468 87.414703 86.843201 87.246223 87.099365 86.363785 85.542953 84.011017 82.279564 80.856316 78.998329 76.680351 74.450180 72.089493 69.878189 67.668907 64.964012 62.664001 60.921577 59.257923 57.806835 56.367966 54.298668 51.808258
68.868370 73.777451 78.234200 81.838196 84.250298 85.597916 86.521431 87.673508 89.123100 90.266121 91.789856 93.210716 94.168694 94.585556 94.465378 93.875763 92.692894 91.041306 89.541298 87.743118 85.797073 83.571548 81.375191 80.808281 80.418800 80.053558 80.207199 80.737114 80.893959 80.788086 82.597176 83.271774 82.626144 83.031425 83.321716 83.278587 84.000679 86.128944 87.530663 89.045143 90.260742 90.876259 90.647369 89.506859 88.476959 87.829391 87.162155 86.466286 84.878540 83.412544 81.711464 79.511108 77.379913 74.920380 73.039604 70.783371 68.413048 66.204628 63.929390 61.590836 59.897270 59.057999 57.740005 55.711285 53.404858
71.574661 76.507034 80.856804 84.384094 86.891296 88.575516 89.866417 91.218628 92.670509 93.756775 94.101944 93.652550 92.675079 92.012512 92.083481 92.041542 91.444054 90.011719 87.781967 85.180000 82.555939 80.130379 78.422432 77.517006 77.035942 77.008911 77.422699 78.159500 77.488235 76.834328 79.419563 80.921532 80.467941 82.448227 84.587196 86.128082 87.844055 88.937469 89.802490 91.155998 92.280174 92.760429 92.512695 90.869499 88.874985 88.017570 87.483078 86.950432 85.699860 84.028992 81.813522 79.248444 76.542267 74.238327 72.961563 70.992783 68.226074 66.854057 65.325607 63.127602 61.335342 60.084087 58.604744 56.821907 54.909416
73.748085 78.661186 82.923996 86.446190 89.156441 91.241211 92.967453 94.580910 95.936676 96.744263 96.829445 95.910614 94.373222 93.932487 93.851379 92.896950 92.567650 91.549911 88.813980 85.399384 83.769440 82.085648 80.131195 78.666870 78.134155 78.054138 78.327156 79.104271 79.577209 79.810562 82.110466 83.769249 84.647987 86.407860 87.997719 89.248611 90.233055 90.924728 91.874336 92.963051 93.481239 93.492378 93.381592 92.152054 90.020477 88.351074 87.944458 87.162369 85.834160 83.738533 81.120506 78.886307 76.622864 74.573555 73.304436 70.755737 67.827957 66.898102 65.927414 64.261604 62.656651 61.101921 59.563213 58.035568 56.468292
75.459663 80.336952 84.621330 88.207527 91.167648 93.658615 95.751495 97.237823 97.751854 98.309395 98.584419 97.506950 95.756378 95.337936 94.837212 93.050072 92.501755 92.452774 89.269821 85.479996 84.634926 84.049988 82.160995 80.772957 80.569481 80.822830 81.149963 81.901093 82.925674 84.070641 85.251030 86.470123 87.720367 88.812729 89.769676 91.045799 91.745461 92.156395 93.183907 94.042747 93.962563 93.450539 93.157104 92.795479 90.262772 87.575958 86.800140 86.071068 84.857162 82.617867 79.844147 78.347343 76.502457 73.991531 72.157364 70.404411 68.215401 67.200333 66.196159 64.733742 63.335823 61.982182 60.634930 59.283985 57.920761
76.820793 81.684151 86.077499 89.847916 93.007515 95.833557 98.309456 99.419548 98.868111 98.800110 99.607727 98.764275 96.620537 96.444939 96.820053 95.472282 93.992989 93.302574 91.366699 88.379784 87.216034 86.067200 84.636063 83.556198 83.345444 83.404419 83.667305 84.259460 85.210709 86.286377 87.156219 87.955513 89.322876 90.215881 90.855431 91.798103 92.328735 93.071098 93.824066 93.853088 93.709999 92.946609 91.875191 91.647751 90.076324 87.429741 86.119942 84.766472 83.715981 81.882416 79.292305 77.073624 74.048950 71.336884 70.154274 69.852440 68.761040 67.508919 66.307648 64.929390 63.554043 62.620831 61.259453 59.125095 57.804295
77.976830 82.848305 87.261620 91.203293 94.561508 97.512032 100.181557 101.542793 100.693558 100.416756 100.451958 98.895546 96.925858 97.347557 98.849609 98.197220 95.984100 94.598427 93.219406 91.125832 89.075180 87.899399 86.990913 86.269318 85.880684 85.716286 85.816032 86.317360 87.252090 88.243881 88.654137 88.808052 89.794975 91.129211 91.828880 92.042336 92.053185 93.081894 93.583199 92.891350 92.662758 91.979080 90.561844 89.928894 88.629753 86.947632 85.576904 84.048325 82.438606 80.595444 78.334442 74.966080 71.674850 70.336525 70.035789 69.371536 68.507477 67.418762 66.312469 64.964714 63.687714 63.108620 61.616207 58.653999 57.422527
78.998436 83.880707 88.206131 92.113487 95.522278 98.292343 100.671898 102.143860 102.075714 102.049095 101.624115 99.567261 97.396347 97.241577 98.533417 98.903526 96.993317 95.966148 94.678757 92.410828 90.363625 89.529221 88.965309 88.227280 87.733894 87.449684 87.399727 87.788673 88.613594 89.422997 89.801468 89.578232 89.982994 91.145279 92.073181 92.279022 92.209717 92.770950 92.880630 92.336838 91.913795 91.262749 89.947952 88.946518 87.340919 85.690849 84.229919 82.488281 80.610382 78.751945 76.809395 74.389359 72.060760 71.123367 70.004288 68.507851 67.746254 67.103958 66.194298 65.272232 64.379227 63.791645 62.438057 60.119087 58.956615
79.772385 84.699593 88.949631 92.639870 95.931023 98.408325 100.363449 102.151169 102.522972 102.803452 102.746712 101.768906 100.238319 98.484612 98.586510 98.932243 97.595802 96.869644 96.067261 94.141045 92.323792 91.299362 90.426826 89.624748 89.018021 88.589256 88.369949 88.511002 89.063675 89.613029 89.932526 90.007500 90.187637 90.850838 91.338303 91.441338 91.328110 91.480118 91.413918 91.032883 90.429764 89.561745 88.410934 87.046333 85.490013 83.760971 81.953362 80.156197 78.401886 76.716690 75.075523 73.482109 72.000854 70.676018 69.351234 68.098282 67.391258 66.684372 65.941826 65.355385 64.901459 63.632008 61.491764 60.144676 59.303108
80.197754 85.201607 89.395744 92.904526 95.932159 98.328903 100.161644 101.705467 102.165482 102.360970 102.896812 103.340454 103.109955 102.177490 101.634605 101.301102 99.664856 98.535599 97.092468 95.384834 93.862793 92.548645 91.468445 90.591270 89.844414 89.238197 88.853867 88.716904 88.878754 89.115593 89.279709 89.463875 89.751549 89.964058 90.059731 89.705444 89.220093 89.299980 89.257195 88.695656 87.934181 86.940132 85.710381 84.294960 82.720627 81.030602 79.185852 77.304428 75.938522 74.594284 73.179565 71.840622 70.621811 69.531288 68.595764 67.783768 67.004860 66.283089 65.699677 65.287003 64.832710 62.861160 61.172173 61.032848 60.861046
80.302345 85.324287 89.504105 92.895905 95.577751 97.669289 99.451744 100.927330 101.940544 102.468399 103.178558 103.993309 104.340439 104.190063 103.710426 102.744553 101.389854 99.653465 97.844254 96.168571 94.657043 93.324249 92.197739 91.209732 90.301979 89.542793 88.988136 88.657959 88.499306 88.441307 88.457710 88.579224 88.711159 88.660355 88.423820 87.984589 87.417999 87.168716 86.740097 86.012291 85.112099 84.031189 82.754295 81.326920 79.784225 78.188133 76.287369 74.462334 73.431030 72.530212 71.374222 70.317032 69.387474 68.560219 67.865746 67.251823 66.625969 66.032166 65.362427 64.768173 64.489769 63.659138 63.286030 64.108185 63.715324
80.140877 85.125320 89.298943 92.554260 94.928810 96.683708 98.260674 99.924698 101.542786 102.825554 103.631798 104.136139 104.437431 104.241592 103.646782 102.817474 101.735237 100.177452 98.426048 96.778290 95.274643 93.906967 92.684410 91.571289 90.518204 89.602837 88.870667 88.348145 87.985489 87.709816 87.560478 87.583008 87.582779 87.280571 86.680962 86.025536 85.415894 84.791389 84.042473 83.165604 82.151070 81.004120 79.709679 78.302994 76.849037 75.397972 73.896042 72.453568 71.543869 70.678192 69.785866 69.019020 68.373558 67.819115 67.358231 66.930420 66.277115 65.540916 64.834877 64.291733 64.686920 65.045326 65.404625 65.494560 65.003601
79.755196 84.646355 88.819809 91.972687 94.220001 95.865425 97.377350 99.117844 101.037033 102.772095 103.628326 103.656731 103.907433 103.823875 103.216522 102.572365 101.717285 100.486160 98.877769 97.254669 95.745392 94.332893 93.007668 91.740997 90.544228 89.479691 88.591728 87.888008 87.305962 86.811539 86.480652 86.353317 86.184647 85.649918 84.772568 83.863655 83.067924 82.249168 81.328423 80.321915 79.223877 78.029617 76.727989 75.385513 74.070801 72.834167 71.719345 70.750336 69.899071 69.146263 68.534035 68.047066 67.636337 67.295502 67.043808 66.717705 65.868980 64.821823 64.322762 64.586922 65.290504 65.789848 65.907059 65.719398 65.067551
79.189842 83.945984 88.007652 91.190407 93.509903 95.239937 96.832138 98.528046 100.384331 102.128944 103.091713 103.196053 103.214218 103.027397 102.634186 102.173485 101.555206 100.625740 99.220352 97.616959 96.090996 94.620865 93.179909 91.782814 90.472954 89.295395 88.256943 87.357674 86.542221 85.828621 85.266266 84.862236 84.439003 83.722061 82.729538 81.720039 80.784012 79.584961 78.200813 77.417015 76.466858 75.248245 73.950249 72.682724 71.546165 70.579887 69.783554 69.115494 68.520767 68.022316 67.658661 67.384087 67.154976 66.986313 66.843163 66.520302 65.872726 64.678001 64.095673 64.717361 65.482414 65.848961 65.962143 65.632698 64.817665
78.541351 83.150818 87.047829 90.229836 92.728241 94.671242 96.321220 97.809731 99.368881 100.748642 101.625298 101.898178 101.825447 101.924675 101.986069 101.822357 101.472618 100.726028 99.458076 97.896965 96.347565 94.797783 93.268143 91.798424 90.397423 89.095947 87.909935 86.802147 85.776253 84.868210 84.062759 83.356064 82.653870 81.644676 80.404106 79.454994 78.333153 76.870087 75.309021 74.658386 74.003990 72.753716 71.460396 70.294067 69.350189 68.664032 68.201721 67.890564 67.609367 67.342773 67.160484 66.913696 66.626419 66.770828 66.739586 66.341843 65.827095 65.139572 64.563461 64.899895 65.412697 65.758904 65.784981 65.287643 64.349564
77.974976 82.402664 86.190353 89.325172 91.930733 94.059143 95.689392 96.966026 98.133255 99.089676 99.709953 100.028389 100.344635 100.976402 101.493546 101.677483 101.513779 100.858711 99.633881 98.124001 96.555542 94.964279 93.372810 91.839226 90.353279 88.917801 87.556602 86.263824 85.070488 84.015785 83.065254 82.150894 81.217384 79.845718 78.408051 77.325508 76.160194 75.046036 73.827957 72.945450 71.975731 70.701408 69.467293 68.427017 67.684502 67.260803 67.092911 67.089409 67.118492 67.052124 66.989769 66.638855 66.315239 66.581482 66.609970 66.089684 65.545464 65.133469 64.925354 64.997086 65.301765 65.554939 65.460800 64.843811 63.798668
77.649567 81.889221 85.596016 88.715424 91.387222 93.585266 95.145424 96.173668 96.865547 97.446251 97.889656 98.386963 99.222572 100.303429 101.247192 101.726051 101.652748 101.015274 99.808701 98.365395 96.803032 95.182480 93.535995 91.911057 90.319115 88.745323 87.223297 85.795013 84.479126 83.301537 82.219559 81.169815 80.099815 78.827904 77.416138 76.300446 74.988136 73.921501 72.814514 71.641586 70.487778 69.279350 68.162033 67.276772 66.714554 66.488014 66.537575 66.761345 66.996880 67.056435 67.039169 66.911362 66.644875 66.626282 66.349266 65.741798 65.166794 64.832664 64.774094 64.893005 65.105911 65.274910 65.122238 64.459274 63.378971
77.658867 81.710457 85.298111 88.449387 91.167694 93.347000 94.758690 95.458572 95.701469 95.912979 96.359673 97.203506 98.523697 100.023575 101.270233 101.909813 101.860016 101.160454 100.042267 98.680840 97.131348 95.474487 93.762352 92.023308 90.307625 88.627190 86.986092 85.426895 83.981033 82.678406 81.483459 80.311760 79.135201 77.925484 76.680351 75.426186 74.181084 72.936813 71.754204 70.684242 69.645744 68.587311 67.635506 66.903015 66.492355 66.407951 66.599205 66.733208 66.709541 67.091919 67.237190 67.163765 66.918571 66.515648 66.016327 65.406158 64.884544 64.619133 64.642204 64.807976 64.943909 65.043091 64.859138 64.218117 63.213360
78.081253 81.939919 85.361458 88.467560 91.209518 93.319611 94.587555 95.081062 95.072517 95.055023 95.569916 96.787392 98.485207 100.225616 101.477180 102.036217 101.882469 101.200737 100.260849 99.023087 97.518135 95.833603 94.050117 92.218208 90.365562 88.532791 86.762184 85.088760 83.538048 82.135353 80.840790 79.584747 78.344704 77.092903 75.828636 74.583305 73.381401 72.213097 71.147888 70.245415 69.415871 68.568001 67.795853 66.989128 66.349800 66.679344 67.117516 66.908249 66.600365 67.089691 67.486328 67.298058 66.891602 66.312698 65.704071 65.150444 64.749252 64.588211 64.644081 64.801819 64.865517 64.836647 64.618317 64.093788 63.196903
78.995003 82.633713 85.885994 88.846527 91.460129 93.485176 94.725838 95.221382 95.234955 95.306961 95.921631 97.256470 99.058823 100.660393 101.504158 101.735901 101.508789 101.020172 100.364777 99.369972 97.982407 96.296875 94.443222 92.497566 90.512070 88.517265 86.600563 84.817360 83.185982 81.691544 80.312920 78.992058 77.696022 76.419968 75.178978 73.990532 72.872246 71.819923 70.885971 70.122513 69.516068 68.917274 68.348953 67.351212 66.566139 67.149368 67.888847 67.871117 67.605087 67.754425 67.771744 67.482803 66.815163 65.700447 64.920998 64.858932 64.790436 64.734947 64.798546 64.873604 64.804626 64.597260 64.207314 63.597858 63.024986
80.459793 83.878281 86.952171 89.754089 92.199806 94.091698 95.354126 96.050888 96.347420 96.690201 97.440620 98.719444 100.191917 101.126198 101.359726 101.217407 100.884445 100.598732 100.303772 99.658333 98.494316 96.830185 94.914612 92.863304 90.736000 88.606567 86.552628 84.648979 82.910454 81.310471 79.808929 78.365021 77.014236 75.785759 74.670662 73.616821 72.609573 71.631233 70.741936 70.044746 69.580742 69.213852 68.886406 68.430443 67.968155 68.316887 68.644341 68.711380 68.610382 68.358849 68.098228 67.760124 66.833496 65.237083 64.393341 64.764084 65.045143 65.020416 65.027451 64.933701 64.687332 64.392418 63.762222 63.012669 62.283100
82.424873 85.645309 88.548447 91.188774 93.508392 95.321640 96.618935 97.534149 98.165497 98.789558 99.643410 100.734467 101.609230 101.783569 101.402481 100.833710 100.383270 100.231438 100.207314 99.911224 98.825439 96.966270 95.214417 93.234200 91.002907 88.749969 86.574020 84.532349 82.636658 80.788849 78.991783 77.391357 76.054756 74.996399 74.121368 73.315147 72.476784 71.514702 70.632797 69.820122 69.190651 69.204903 69.232964 69.190865 69.187965 69.179588 69.207481 69.160851 69.003593 68.765266 68.463486 68.122307 67.477692 66.411583 65.683365 65.677948 65.622398 65.494324 65.356941 65.089264 64.699150 64.343117 63.890438 63.237057 61.806168
84.886734 87.876015 90.630394 93.131546 95.349556 97.162872 98.498512 99.526459 100.368362 101.160873 102.007484 102.758148 102.953094 102.427719 101.555649 100.812096 100.368553 100.279068 100.383644 100.246552 99.059303 97.072182 95.385780 93.546425 91.207024 88.840950 86.533211 84.339577 82.206856 79.983673 77.878685 76.133430 74.859924 74.034523 73.508263 73.038445 72.380272 71.446533 70.558220 69.532730 68.774666 68.968369 69.161682 69.009972 69.335999 69.508919 69.497574 69.439575 69.315979 69.115974 68.841637 68.526459 68.133621 67.631325 67.123184 66.704735 66.263985 65.806747 65.704941 65.376884 64.875061 64.457535 63.962395 63.309715 62.451263
87.754257 90.519363 93.110954 95.491631 97.616791 99.432396 100.863464 101.961731 102.851265 103.637337 104.246994 104.441444 103.967133 102.904999 101.813286 101.098999 100.860016 100.928085 101.032616 100.851105 99.848801 97.951508 96.034752 93.839912 91.360970 88.849159 86.395584 84.044762 81.584045 79.032486 76.691383 74.849503 73.631744 72.958984 72.704918 72.347923 71.354141 70.571045 70.258179 69.695885 69.091087 69.139915 68.899513 68.625923 69.152481 69.628990 69.650085 69.627434 69.563545 69.425720 69.218719 68.945786 68.638634 68.297073 67.940735 67.561035 66.852234 65.995018 65.645645 65.587479 65.153603 64.689384 63.952000 63.177544 62.875061
90.847229 93.452202 95.877945 98.119942 100.131798 101.889549 103.370338 104.523453 105.431190 106.095856 106.243568 105.822510 104.875420 103.579941 102.452660 101.850510 101.812805 102.057648 102.113480 101.752342 100.695053 98.857307 96.617516 94.129211 91.478477 88.791069 86.187683 83.599747 80.825752 78.022964 75.554047 73.609085 72.324165 71.765831 71.582664 70.882576 69.778542 69.374084 69.767403 69.711624 69.371582 69.226402 69.076920 68.954849 69.357140 69.625099 69.696800 69.539764 69.240166 69.370979 69.245132 69.262505 69.156120 68.903412 68.615288 68.040962 67.147102 66.433746 65.942772 65.759171 65.468620 64.959496 64.387703 63.745579 63.392967