64 64
2.345344 2.328830 2.312580 2.296565 2.280760 2.265148 2.249720 2.234471 2.219403 2.204524 2.189847 2.175393 2.161183 2.147246 2.133611 2.120315 2.107391 2.094878 2.082814 2.071236 2.060182 2.049686 2.039783 2.030501 2.021864 2.013895 2.006893 2.000887 1.995490 1.990688 1.986461 1.982786 1.979635 1.976975 1.974772 1.972985 1.971574 1.970495 1.969702 1.969152 1.968799 1.968597 1.968507 1.968486 1.968500 1.968515 1.968505 1.968437 1.968272 1.967979 1.967530 1.966894 1.966045 1.964957 1.963605 1.961965 1.960017 1.957741 1.955118 1.952135 1.948777 1.945034 1.940897 1.936360 1.931418
2.332554 2.315948 2.300201 2.284662 2.269308 2.254122 2.239096 2.224225 2.209514 2.194971 2.180612 2.166457 2.152531 2.138862 2.125484 2.112434 2.099748 2.087466 2.075628 2.064274 2.053444 2.043175 2.033502 2.024456 2.016065 2.008351 2.001330 1.995407 1.990191 1.985581 1.981557 1.978095 1.975167 1.972741 1.970780 1.969245 1.968092 1.967551 1.967551 1.967551 1.967551 1.967551 1.967551 1.967551 1.967551 1.967551 1.967691 1.967863 1.967942 1.967894 1.967691 1.967301 1.966698 1.965853 1.964741 1.963339 1.961624 1.959576 1.957176 1.954410 1.951262 1.947720 1.943777 1.939424 1.934657
2.320312 2.304014 2.288441 2.273351 2.258421 2.243635 2.228984 2.214466 2.200085 2.185852 2.171784 2.157902 2.144233 2.130807 2.117660 2.104829 2.092353 2.080274 2.068635 2.057477 2.046842 2.036769 2.027295 2.018454 2.010274 2.002781 1.995992 1.989989 1.984940 1.980507 1.976670 1.973407 1.970688 1.968481 1.967551 1.967551 1.967551 1.967551 1.967551 1.967551 1.967551 1.967551 1.967551 1.967551 1.967551 1.967551 1.967551 1.967551 1.967551 1.967630 1.967667 1.967518 1.967154 1.966547 1.965672 1.964502 1.963016 1.961193 1.959012 1.956459 1.953517 1.950175 1.946422 1.942252 1.937658
2.308486 2.292885 2.277407 2.262646 2.248113 2.233700 2.219398 2.205207 2.191132 2.177184 2.163382 2.149749 2.136312 2.123104 2.110163 2.097526 2.085235 2.073335 2.061869 2.050880 2.040413 2.030508 2.021204 2.012538 2.004540 1.997236 1.990647 1.984786 1.979769 1.975499 1.971835 1.968756 1.967551 1.967551 1.967551 1.967551 1.967551 1.967551 1.967551 1.967551 1.967551 1.967551 1.967551 1.967551 1.967551 1.967551 1.967551 1.967551 1.967551 1.967551 1.967551 1.967564 1.967434 1.967060 1.966414 1.965472 1.964210 1.962605 1.960639 1.958294 1.955555 1.952408 1.948843 1.944852 1.940430
2.297112 2.282165 2.267316 2.252554 2.238394 2.224328 2.210351 2.196462 2.182667 2.168981 2.155421 2.142013 2.128786 2.115774 2.103014 2.090549 2.078422 2.066676 2.055359 2.044516 2.034192 2.024430 2.015271 2.006752 1.998907 1.991763 1.985343 1.979662 1.974728 1.970589 1.967551 1.967551 1.967551 1.967551 1.967551 1.967551 1.967551 1.967551 1.967551 1.967551 1.967551 1.967551 1.967551 1.967551 1.967551 1.967551 1.967551 1.967551 1.967551 1.967551 1.967551 1.967551 1.967551 1.967407 1.966986 1.966264 1.965220 1.963829 1.962072 1.959930 1.957388 1.954432 1.951051 1.947236 1.942981
2.286224 2.271888 2.257626 2.243399 2.229269 2.215526 2.201849 2.188238 2.174701 2.161253 2.147914 2.134709 2.121670 2.108832 2.096235 2.083921 2.071935 2.060323 2.049134 2.038414 2.028211 2.018569 2.009531 2.001136 1.993418 1.986407 1.980127 1.974596 1.969823 1.967551 1.967551 1.967551 1.967551 1.967551 1.967551 1.967551 1.967551 1.967551 1.967551 1.967551 1.967551 1.967551 1.967551 1.967551 1.967551 1.967551 1.967551 1.967551 1.967551 1.967551 1.967551 1.967551 1.967551 1.967551 1.967403 1.966896 1.966062 1.964878 1.963323 1.961379 1.959028 1.956257 1.953055 1.949411 1.945319
2.275854 2.262085 2.248369 2.234665 2.220942 2.207298 2.193897 2.180542 2.167241 2.154010 2.140870 2.127849 2.114978 2.102295 2.089841 2.077658 2.065795 2.054298 2.043217 2.032602 2.022499 2.012957 2.004018 1.995724 1.988110 1.981208 1.975043 1.969634 1.967551 1.967551 1.967551 1.967551 1.967551 1.967551 1.967551 1.967551 1.967551 1.967551 1.967551 1.967551 1.967551 1.967551 1.967551 1.967551 1.967551 1.967551 1.967551 1.967551 1.967551 1.967551 1.967551 1.967551 1.967551 1.967551 1.967551 1.967382 1.966751 1.965766 1.964407 1.962653 1.960487 1.957896 1.954866 1.951387 1.947454
2.266024 2.252781 2.239573 2.226356 2.213096 2.199774 2.186499 2.173378 2.160292 2.147258 2.134298 2.121441 2.108721 2.096175 2.083845 2.071778 2.060020 2.048621 2.037632 2.027103 2.017083 2.007622 1.998763 1.990550 1.983020 1.976204 1.970131 1.967551 1.967551 1.967551 1.967551 1.967551 1.967551 1.967551 1.967551 1.967551 1.967551 1.967551 1.967551 1.967551 1.967551 1.967551 1.967551 1.967551 1.967551 1.967551 1.967551 1.967551 1.967551 1.967551 1.967551 1.967551 1.967551 1.967551 1.967551 1.967551 1.967303 1.966509 1.965337 1.963766 1.961778 1.959358 1.956494 1.953176 1.949395
2.260835 2.246341 2.231992 2.218493 2.205663 2.192749 2.179741 2.166749 2.153857 2.141001 2.128203 2.115493 2.102906 2.090481 2.078261 2.066293 2.054625 2.043309 2.032396 2.021939 2.011987 2.002590 1.993795 1.985645 1.978179 1.971431 1.967551 1.967551 1.967551 1.967551 1.967551 1.967551 1.967551 1.967551 1.967551 1.967551 1.967551 1.967551 1.967551 1.967551 1.967551 1.967551 1.967551 1.967551 1.967551 1.967551 1.967551 1.967551 1.967551 1.967551 1.967551 1.967551 1.967551 1.967551 1.967551 1.967551 1.967551 1.967121 1.966127 1.964730 1.962911 1.960656 1.957951 1.954785 1.951150
2.256742 2.242185 2.227774 2.213523 2.199447 2.186131 2.173479 2.160713 2.147938 2.135242 2.122589 2.110010 2.097541 2.085222 2.073097 2.061214 2.049624 2.038378 2.027528 2.017128 2.007230 1.997884 1.989138 1.981036 1.973618 1.967551 1.967551 1.967551 1.967551 1.967551 1.967551 1.967551 1.967551 1.967551 1.967551 1.967551 1.967551 1.967551 1.967551 1.967551 1.967551 1.967551 1.967551 1.967551 1.967551 1.967551 1.967551 1.967551 1.967551 1.967551 1.967551 1.967551 1.967551 1.967551 1.967551 1.967551 1.967551 1.967551 1.966789 1.965557 1.963900 1.961800 1.959245 1.956224 1.952728
2.252989 2.238375 2.223908 2.209602 2.195471 2.181529 2.167791 2.155160 2.142582 2.129982 2.117458 2.104995 2.092630 2.080404 2.068362 2.056553 2.045028 2.033840 2.023042 2.012688 2.002832 1.993525 1.984814 1.976747 1.969363 1.967551 1.967551 1.967551 1.967551 1.967551 1.967551 1.967551 1.967551 1.967551 1.967551 1.967551 1.967551 1.967551 1.967551 1.967551 1.967551 1.967551 1.967551 1.967551 1.967551 1.967551 1.967551 1.967551 1.967551 1.967551 1.967551 1.967551 1.967551 1.967551 1.967551 1.967551 1.967551 1.967551 1.967337 1.966260 1.964754 1.962801 1.960388 1.957504 1.954139
2.249581 2.234915 2.220397 2.206040 2.191860 2.177870 2.164084 2.150516 2.137691 2.125263 2.112811 2.100451 2.088177 2.076032 2.064062 2.052315 2.040846 2.029706 2.018950 2.008633 1.998809 1.989530 1.980845 1.972801 1.967551 1.967551 1.967551 1.967551 1.967551 1.967551 1.967551 1.967551 1.967551 1.967551 1.967551 1.967551 1.967551 1.967551 1.967551 1.967551 1.967551 1.967551 1.967551 1.967551 1.967551 1.967551 1.967551 1.967551 1.967551 1.967551 1.967551 1.967551 1.967551 1.967551 1.967551 1.967551 1.967551 1.967551 1.967551 1.966851 1.965485 1.963669 1.961389 1.958632 1.955389
2.246521 2.231809 2.217245 2.202843 2.188619 2.174585 2.160757 2.147148 2.133770 2.120993 2.108692 2.096378 2.084184 2.072109 2.060201 2.048509 2.037086 2.025985 2.015264 2.004976 1.995175 1.985916 1.977247 1.969216 1.967551 1.967551 1.967551 1.967551 1.967551 1.967551 1.967551 1.967551 1.967551 1.967551 1.967551 1.967551 1.967551 1.967551 1.967551 1.967551 1.967551 1.967551 1.967551 1.967551 1.967551 1.967551 1.967551 1.967551 1.967551 1.967551 1.967551 1.967551 1.967551 1.967551 1.967551 1.967551 1.967551 1.967551 1.967551 1.967339 1.966104 1.964414 1.962256 1.959617 1.956488
2.243814 2.229060 2.214455 2.200014 2.185750 2.171679 2.157813 2.144166 2.130753 2.117586 2.105009 2.092828 2.080652 2.068639 2.056784 2.045137 2.033753 2.022686 2.011992 2.001726 1.991943 1.982696 1.974036 1.967551 1.967551 1.967551 1.967551 1.967551 1.967551 1.967551 1.967551 1.967551 1.967551 1.967551 1.967551 1.967551 1.967551 1.967551 1.967551 1.967551 1.967551 1.967551 1.967551 1.967551 1.967551 1.967551 1.967551 1.967551 1.967551 1.967551 1.967551 1.967551 1.967551 1.967551 1.967551 1.967551 1.967551 1.967551 1.967551 1.967551 1.966620 1.965046 1.963000 1.960469 1.957443
2.241461 2.226671 2.212031 2.197556 2.183258 2.169153 2.155255 2.141577 2.128132 2.114935 2.101998 2.089703 2.077648 2.065622 2.053812 2.042206 2.030855 2.019815 2.009142 1.998893 1.989122 1.979883 1.971226 1.967551 1.967551 1.967551 1.967551 1.967551 1.967551 1.967551 1.967551 1.967551 1.967551 1.967551 1.967551 1.967551 1.967551 1.967551 1.967551 1.967551 1.967551 1.967551 1.967551 1.967551 1.967551 1.967551 1.967551 1.967551 1.967551 1.967551 1.967551 1.967551 1.967551 1.967551 1.967551 1.967551 1.967551 1.967551 1.967551 1.967551 1.967042 1.965572 1.963627 1.961193 1.958260
2.239465 2.224646 2.209976 2.195471 2.181144 2.167011 2.153085 2.139380 2.125909 2.112686 2.099724 2.087035 2.075057 2.063145 2.051306 2.039716 2.028393 2.017376 2.006721 1.996485 1.986722 1.977485 1.968827 1.967551 1.967551 1.967551 1.967551 1.967551 1.967551 1.967551 1.967551 1.967551 1.967551 1.967551 1.967551 1.967551 1.967551 1.967551 1.967551 1.967551 1.967551 1.967551 1.967551 1.967551 1.967551 1.967551 1.967551 1.967551 1.967551 1.967551 1.967551 1.967551 1.967551 1.967551 1.967551 1.967551 1.967551 1.967551 1.967551 1.967551 1.967380 1.966002 1.964146 1.961798 1.958948
2.237830 2.222985 2.208291 2.193762 2.179412 2.165256 2.151307 2.137580 2.124088 2.110843 2.097860 2.085152 2.072864 2.061068 2.049327 2.037715 2.026371 2.015374 2.004734 1.994507 1.984749 1.975513 1.967551 1.967551 1.967551 1.967551 1.967551 1.967551 1.967551 1.967551 1.967551 1.967551 1.967551 1.967551 1.967551 1.967551 1.967551 1.967551 1.967551 1.967551 1.967551 1.967551 1.967551 1.967551 1.967551 1.967551 1.967551 1.967551 1.967551 1.967551 1.967551 1.967551 1.967551 1.967551 1.967551 1.967551 1.967551 1.967551 1.967551 1.967551 1.967551 1.966342 1.964563 1.962290 1.959512
2.236556 2.221692 2.206979 2.192431 2.178063 2.163889 2.149923 2.136178 2.122669 2.109408 2.096409 2.083684 2.071247 2.059396 2.047749 2.036213 2.024867 2.013812 2.003184 1.992965 1.983209 1.973972 1.967551 1.967551 1.967551 1.967551 1.967551 1.967551 1.967551 1.967551 1.967551 1.967551 1.967551 1.967551 1.967551 1.967551 1.967551 1.967551 1.967551 1.967551 1.967551 1.967551 1.967551 1.967551 1.967551 1.967551 1.967551 1.967551 1.967551 1.967551 1.967551 1.967551 1.967551 1.967551 1.967551 1.967551 1.967551 1.967551 1.967551 1.967551 1.967551 1.966600 1.964886 1.962675 1.959957
2.235645 2.220767 2.206040 2.191479 2.177098 2.162911 2.148932 2.135175 2.121654 2.108382 2.095371 2.082635 2.070187 2.058137 2.046582 2.035121 2.023832 2.012795 2.002092 1.991862 1.982108 1.972868 1.967551 1.967551 1.967551 1.967551 1.967551 1.967551 1.967551 1.967551 1.967551 1.967551 1.967551 1.967551 1.967551 1.967551 1.967551 1.967551 1.967551 1.967551 1.967551 1.967551 1.967551 1.967551 1.967551 1.967551 1.967551 1.967551 1.967551 1.967551 1.967551 1.967551 1.967551 1.967551 1.967551 1.967551 1.967551 1.967551 1.967551 1.967551 1.967551 1.966781 1.965119 1.962959 1.960289
2.235097 2.220212 2.205477 2.190908 2.176519 2.162324 2.148338 2.134573 2.121045 2.107765 2.094748 2.082006 2.069551 2.057396 2.045834 2.034448 2.023216 2.012217 2.001532 1.991245 1.981449 1.972205 1.967551 1.967551 1.967551 1.967551 1.967551 1.967551 1.967551 1.967551 1.967551 1.967551 1.967551 1.967551 1.967551 1.967551 1.967551 1.967551 1.967551 1.967551 1.967551 1.967551 1.967551 1.967551 1.967551 1.967551 1.967551 1.967551 1.967551 1.967551 1.967551 1.967551 1.967551 1.967551 1.967551 1.967551 1.967551 1.967551 1.967551 1.967551 1.967551 1.966891 1.965267 1.963145 1.960512
2.234915 2.220026 2.205289 2.190717 2.176326 2.162128 2.148139 2.134373 2.120842 2.107560 2.094540 2.081796 2.069339 2.057181 2.045511 2.034199 2.023026 2.012066 2.001402 1.991115 1.981285 1.971990 1.967551 1.967551 1.967551 1.967551 1.967551 1.967551 1.967551 1.967551 1.967551 1.967551 1.967551 1.967551 1.967551 1.967551 1.967551 1.967551 1.967551 1.967551 1.967551 1.967551 1.967551 1.967551 1.967551 1.967551 1.967551 1.967551 1.967551 1.967551 1.967551 1.967551 1.967551 1.967551 1.967551 1.967551 1.967551 1.967551 1.967551 1.967551 1.967551 1.966933 1.965336 1.963238 1.960630
2.235097 2.220212 2.205477 2.190908 2.176519 2.162324 2.148338 2.134573 2.121045 2.107765 2.094748 2.082006 2.069551 2.057396 2.045619 2.034381 2.023267 2.012350 2.001710 1.991426 1.981577 1.972242 1.967551 1.967551 1.967551 1.967551 1.967551 1.967551 1.967551 1.967551 1.967551 1.967551 1.967551 1.967551 1.967551 1.967551 1.967551 1.967551 1.967551 1.967551 1.967551 1.967551 1.967551 1.967551 1.967551 1.967551 1.967551 1.967551 1.967551 1.967551 1.967551 1.967551 1.967551 1.967551 1.967551 1.967551 1.967551 1.967551 1.967551 1.967551 1.967551 1.966911 1.965326 1.963241 1.960644
2.235645 2.220767 2.206040 2.191479 2.177098 2.162911 2.148932 2.135175 2.121654 2.108382 2.095371 2.082635 2.070187 2.058039 2.046202 2.034999 2.023945 2.013073 2.002460 1.992182 1.982319 1.972947 1.967551 1.967551 1.967551 1.967551 1.967551 1.967551 1.967551 1.967551 1.967551 1.967551 1.967551 1.967551 1.967551 1.967551 1.967551 1.967551 1.967551 1.967551 1.967551 1.967551 1.967551 1.967551 1.967551 1.967551 1.967551 1.967551 1.967551 1.967551 1.967551 1.967551 1.967551 1.967551 1.967551 1.967551 1.967551 1.967551 1.967551 1.967551 1.967551 1.966828 1.965242 1.963156 1.960559
2.236556 2.221692 2.206979 2.192431 2.178063 2.163889 2.149923 2.136178 2.122669 2.109408 2.096409 2.083684 2.071247 2.059109 2.047282 2.036056 2.025064 2.014240 2.003657 1.993390 1.983517 1.974112 1.967551 1.967551 1.967551 1.967551 1.967551 1.967551 1.967551 1.967551 1.967551 1.967551 1.967551 1.967551 1.967551 1.967551 1.967551 1.967551 1.967551 1.967551 1.967551 1.967551 1.967551 1.967551 1.967551 1.967551 1.967551 1.967551 1.967551 1.967551 1.967551 1.967551 1.967551 1.967551 1.967551 1.967551 1.967551 1.967551 1.967551 1.967551 1.967551 1.966685 1.965085 1.962985 1.960374
2.237830 2.222985 2.208291 2.193762 2.179412 2.165256 2.151307 2.137580 2.124088 2.110843 2.097860 2.085152 2.072729 2.060606 2.048794 2.037557 2.026628 2.015854 2.005305 1.995054 1.985175 1.975742 1.967551 1.967551 1.967551 1.967551 1.967551 1.967551 1.967551 1.967551 1.967551 1.967551 1.967551 1.967551 1.967551 1.967551 1.967551 1.967551 1.967551 1.967551 1.967551 1.967551 1.967551 1.967551 1.967551 1.967551 1.967551 1.967551 1.967551 1.967551 1.967551 1.967551 1.967551 1.967551 1.967551 1.967551 1.967551 1.967551 1.967551 1.967551 1.967551 1.966483 1.964854 1.962727 1.960090
2.239465 2.224646 2.209976 2.195471 2.181144 2.167011 2.153085 2.139380 2.125909 2.112686 2.099724 2.087035 2.074633 2.062528 2.050735 2.039505 2.028639 2.017918 2.007406 1.997175 1.987296 1.977841 1.968880 1.967551 1.967551 1.967551 1.967551 1.967551 1.967551 1.967551 1.967551 1.967551 1.967551 1.967551 1.967551 1.967551 1.967551 1.967551 1.967551 1.967551 1.967551 1.967551 1.967551 1.967551 1.967551 1.967551 1.967551 1.967551 1.967551 1.967551 1.967551 1.967551 1.967551 1.967551 1.967551 1.967551 1.967551 1.967551 1.967551 1.967551 1.967410 1.966222 1.964551 1.962384 1.959708
2.241461 2.226671 2.212031 2.197556 2.183258 2.169153 2.155255 2.141577 2.128132 2.114935 2.101998 2.089334 2.076955 2.064874 2.053102 2.041904 2.031102 2.020435 2.009965 1.999759 1.989885 1.980413 1.971412 1.967551 1.967551 1.967551 1.967551 1.967551 1.967551 1.967551 1.967551 1.967551 1.967551 1.967551 1.967551 1.967551 1.967551 1.967551 1.967551 1.967551 1.967551 1.967551 1.967551 1.967551 1.967551 1.967551 1.967551 1.967551 1.967551 1.967551 1.967551 1.967551 1.967551 1.967551 1.967551 1.967551 1.967551 1.967551 1.967551 1.967551 1.967144 1.965899 1.964174 1.961953 1.959227
2.243814 2.229060 2.214455 2.200014 2.185750 2.171679 2.157813 2.144166 2.130753 2.117586 2.104679 2.092044 2.079693 2.067640 2.055895 2.044759 2.034020 2.023408 2.012983 2.002806 1.992944 1.983462 1.974427 1.967551 1.967551 1.967551 1.967551 1.967551 1.967551 1.967551 1.967551 1.967551 1.967551 1.967551 1.967551 1.967551 1.967551 1.967551 1.967551 1.967551 1.967551 1.967551 1.967551 1.967551 1.967551 1.967551 1.967551 1.967551 1.967551 1.967551 1.967551 1.967551 1.967551 1.967551 1.967551 1.967551 1.967551 1.967551 1.967551 1.967551 1.966830 1.965514 1.963720 1.961434 1.958644
2.246521 2.231809 2.217245 2.202843 2.188619 2.174585 2.160757 2.147148 2.133770 2.120638 2.107765 2.095163 2.082845 2.070823 2.059109 2.048072 2.037395 2.026841 2.016463 2.006321 1.996475 1.986990 1.977929 1.969354 1.967551 1.967551 1.967551 1.967551 1.967551 1.967551 1.967551 1.967551 1.967551 1.967551 1.967551 1.967551 1.967551 1.967551 1.967551 1.967551 1.967551 1.967551 1.967551 1.967551 1.967551 1.967551 1.967551 1.967551 1.967551 1.967551 1.967551 1.967551 1.967551 1.967551 1.967551 1.967551 1.967551 1.967551 1.967551 1.967404 1.966463 1.965063 1.963188 1.960822 1.957957
2.249581 2.234915 2.220397 2.206040 2.191860 2.177870 2.164084 2.150516 2.137180 2.124088 2.111253 2.098689 2.086408 2.074421 2.062742 2.051850 2.041234 2.030736 2.020409 2.010305 2.000482 1.991001 1.981922 1.973304 1.967551 1.967551 1.967551 1.967551 1.967551 1.967551 1.967551 1.967551 1.967551 1.967551 1.967551 1.967551 1.967551 1.967551 1.967551 1.967551 1.967551 1.967551 1.967551 1.967551 1.967551 1.967551 1.967551 1.967551 1.967551 1.967551 1.967551 1.967551 1.967551 1.967551 1.967551 1.967551 1.967551 1.967551 1.967551 1.967081 1.966040 1.964542 1.962572 1.960116 1.957163
2.252989 2.238375 2.223908 2.209602 2.195471 2.181529 2.167791 2.154269 2.140978 2.127930 2.115139 2.102617 2.090377 2.078430 2.066789 2.056096 2.045539 2.035097 2.024821 2.014760 2.004966 1.995497 1.986408 1.977756 1.969596 1.967551 1.967551 1.967551 1.967551 1.967551 1.967551 1.967551 1.967551 1.967551 1.967551 1.967551 1.967551 1.967551 1.967551 1.967551 1.967551 1.967551 1.967551 1.967551 1.967551 1.967551 1.967551 1.967551 1.967551 1.967551 1.967551 1.967551 1.967551 1.967551 1.967551 1.967551 1.967551 1.967551 1.967483 1.966825 1.965555 1.963947 1.961870 1.959311 1.956259
2.256742 2.242185 2.227774 2.213523 2.199447 2.185559 2.171873 2.158402 2.145161 2.132162 2.119419 2.106943 2.094748 2.082845 2.071383 2.060817 2.050318 2.039930 2.029704 2.019689 2.009930 2.000479 1.991389 1.982714 1.974505 1.967551 1.967551 1.967551 1.967551 1.967551 1.967551 1.967551 1.967551 1.967551 1.967551 1.967551 1.967551 1.967551 1.967551 1.967551 1.967551 1.967551 1.967551 1.967551 1.967551 1.967551 1.967551 1.967551 1.967551 1.967551 1.967551 1.967551 1.967551 1.967551 1.967551 1.967551 1.967551 1.967551 1.967520 1.966929 1.965704 1.963802 1.961182 1.958401 1.955239
2.260835 2.246341 2.231992 2.217802 2.203784 2.189955 2.176326 2.162911 2.149724 2.136779 2.124088 2.111663 2.099517 2.087662 2.076528 2.066018 2.055574 2.045241 2.035065 2.025094 2.015375 2.005950 1.996869 1.988181 1.979934 1.972178 1.967551 1.967551 1.967551 1.967551 1.967551 1.967551 1.967551 1.967551 1.967551 1.967551 1.967551 1.967551 1.967551 1.967551 1.967551 1.967551 1.967551 1.967551 1.967551 1.967551 1.967551 1.967551 1.967551 1.967551 1.967551 1.967551 1.967551 1.967551 1.967551 1.967551 1.967551 1.967873 1.967947 1.967447 1.966328 1.964549 1.962074 1.958868 1.954902
2.265264 2.250838 2.236556 2.222431 2.208478 2.194712 2.181144 2.167791 2.154663 2.141776 2.129141 2.116771 2.104679 2.092876 2.082163 2.071704 2.061314 2.051035 2.040910 2.030983 2.021302 2.011910 2.002847 1.994157 1.985887 1.978080 1.970781 1.967551 1.967551 1.967551 1.967551 1.967551 1.967551 1.967551 1.967551 1.967551 1.967551 1.967551 1.967551 1.967551 1.967551 1.967551 1.967551 1.967551 1.967551 1.967551 1.967551 1.967551 1.967551 1.967551 1.967551 1.967551 1.967551 1.967551 1.967551 1.967551 1.968044 1.968748 1.968933 1.968550 1.967554 1.965908 1.963576 1.960532 1.956750
2.270024 2.255671 2.241461 2.227407 2.213523 2.199825 2.186325 2.173036 2.159973 2.147148 2.134573 2.122263 2.110229 2.098739 2.088292 2.077881 2.067542 2.057315 2.047241 2.037362 2.027720 2.018361 2.009324 2.000644 1.992362 1.984521 1.977160 1.970317 1.967551 1.967551 1.967551 1.967551 1.967551 1.967551 1.967551 1.967551 1.967551 1.967551 1.967551 1.967551 1.967551 1.967551 1.967551 1.967551 1.967551 1.967551 1.967551 1.967551 1.967551 1.967551 1.967551 1.967551 1.967551 1.967551 1.967551 1.968214 1.969467 1.970259 1.970535 1.970246 1.969349 1.967806 1.965589 1.962669 1.959028
2.275109 2.260835 2.246701 2.232723 2.218915 2.205289 2.191860 2.178641 2.165646 2.152888 2.140379 2.128132 2.116159 2.105330 2.094920 2.084554 2.074264 2.064088 2.054065 2.044233 2.034635 2.025310 2.016298 2.007638 1.999360 1.991500 1.984095 1.977182 1.970791 1.967551 1.967551 1.967551 1.967551 1.967551 1.967551 1.967551 1.967551 1.967551 1.967551 1.967551 1.967551 1.967551 1.967551 1.967551 1.967551 1.967551 1.967551 1.967551 1.967551 1.967551 1.967551 1.967551 1.967551 1.967551 1.968615 1.970308 1.971600 1.972430 1.972741 1.972484 1.971617 1.970109 1.967925 1.965039 1.961435
2.280515 2.266324 2.252273 2.238375 2.224646 2.211097 2.197745 2.184601 2.171679 2.158991 2.146552 2.134373 2.122832 2.112431 2.102053 2.091726 2.081483 2.071357 2.061384 2.051601 2.042048 2.032761 2.023779 2.015139 2.006876 1.999014 1.991585 1.984621 1.978153 1.972208 1.967551 1.967551 1.967551 1.967551 1.967551 1.967551 1.967551 1.967551 1.967551 1.967551 1.967551 1.967551 1.967551 1.967551 1.967551 1.967551 1.967551 1.967551 1.967551 1.967551 1.967551 1.967551 1.967551 1.969489 1.971494 1.973155 1.974408 1.975187 1.975436 1.975109 1.974169 1.972579 1.970299 1.967307 1.963588
2.286234 2.272132 2.258167 2.244356 2.230710 2.217245 2.203973 2.190908 2.178063 2.165451 2.153085 2.140978 2.130426 2.120042 2.109692 2.099402 2.089202 2.079124 2.069201 2.059468 2.049962 2.040718 2.031771 2.023157 2.014908 2.007056 1.999622 1.992630 1.986109 1.980085 1.974580 1.969612 1.967551 1.967551 1.967551 1.967551 1.967551 1.967551 1.967551 1.967551 1.967551 1.967551 1.967551 1.967551 1.967551 1.967551 1.967551 1.967551 1.967551 1.967551 1.967551 1.968678 1.971067 1.973238 1.975120 1.976644 1.977739 1.978342 1.978399 1.977870 1.976716 1.974883 1.972337 1.969059 1.965033
2.292261 2.278252 2.264380 2.250659 2.237102 2.223723 2.210537 2.197556 2.184793 2.172260 2.159973 2.149038 2.138741 2.128409 2.118074 2.107771 2.097538 2.087415 2.077518 2.067836 2.058379 2.049181 2.040274 2.031692 2.023466 2.015625 2.008197 2.001200 1.994652 1.988575 1.982993 1.977922 1.973378 1.969369 1.967551 1.967551 1.967551 1.967551 1.967551 1.967551 1.967551 1.967551 1.967551 1.967551 1.967551 1.967551 1.967551 1.967551 1.967551 1.968781 1.971209 1.973552 1.975727 1.977666 1.979296 1.980541 1.981328 1.981601 1.981312 1.980425 1.978870 1.976602 1.973591 1.969815 1.965264
2.298588 2.284678 2.270903 2.257277 2.243814 2.230527 2.217430 2.204537 2.191860 2.179412 2.168171 2.158045 2.147867 2.137660 2.127452 2.117274 2.107161 2.097150 2.087278 2.077585 2.068108 2.058886 2.049953 2.041346 2.033094 2.025227 2.017770 2.010744 2.004167 1.998042 1.992386 1.987215 1.982540 1.978370 1.974710 1.971564 1.968929 1.967551 1.967551 1.967551 1.967551 1.967551 1.967551 1.967551 1.967551 1.967551 1.968682 1.970673 1.972797 1.974966 1.977094 1.979100 1.980920 1.982481 1.983701 1.984495 1.984804 1.984578 1.983781 1.982332 1.980169 1.977254 1.973557 1.969060 1.963754
2.305208 2.291402 2.277729 2.264203 2.250838 2.237648 2.224646 2.211844 2.199258 2.187908 2.177928 2.167898 2.157830 2.147742 2.137658 2.127606 2.117616 2.107721 2.097956 2.088357 2.078959 2.069800 2.060912 2.052330 2.044084 2.036202 2.028711 2.021634 2.014991 2.008798 2.003055 1.997775 1.992974 1.988662 1.984849 1.981550 1.978754 1.976461 1.974671 1.973383 1.972588 1.972270 1.972408 1.972967 1.973902 1.975153 1.976649 1.978308 1.980047 1.981782 1.983437 1.984953 1.986263 1.987277 1.987898 1.988062 1.987718 1.986831 1.985315 1.983086 1.980098 1.976314 1.971708 1.966264 1.959981
2.312116 2.298418 2.284851 2.271430 2.258167 2.245078 2.232175 2.219471 2.208384 2.198505 2.188592 2.178647 2.168681 2.158707 2.148745 2.138818 2.128954 2.119182 2.109533 2.100041 2.090739 2.081659 2.072837 2.064302 2.056087 2.048219 2.040725 2.033628 2.026951 2.020712 2.014927 2.009599 2.004731 2.000367 1.996478 1.993061 1.990128 1.987683 1.985731 1.984267 1.983274 1.982734 1.982617 1.982879 1.983466 1.984311 1.985339 1.986469 1.987625 1.988740 1.989765 1.990642 1.991270 1.991538 1.991377 1.990738 1.989585 1.987834 1.985374 1.982152 1.978122 1.973254 1.967526 1.960929 1.953468
2.319301 2.305716 2.292261 2.278949 2.265794 2.252810 2.240010 2.229761 2.219917 2.210063 2.200203 2.190336 2.180465 2.170601 2.160760 2.150961 2.141227 2.131585 2.122063 2.112691 2.103500 2.094521 2.085786 2.077326 2.069170 2.061346 2.053881 2.046801 2.040128 2.033882 2.028082 2.022823 2.018004 2.013602 2.009627 2.006092 2.003008 2.000382 1.998215 1.996496 1.995202 1.994307 1.993775 1.993557 1.993593 1.993817 1.994157 1.994547 1.994934 1.995282 1.995548 1.995617 1.995358 1.994701 1.993596 1.992010 1.989866 1.987020 1.983412 1.978991 1.973721 1.967575 1.960540 1.952616 1.943819
2.326756 2.313289 2.299950 2.286752 2.273709 2.262134 2.252220 2.242340 2.232482 2.222639 2.212811 2.203002 2.193220 2.183464 2.173743 2.164075 2.154478 2.144975 2.135591 2.126355 2.117293 2.108436 2.099813 2.091454 2.083388 2.075642 2.068244 2.061219 2.054630 2.048572 2.042895 2.037609 2.032722 2.028243 2.024153 2.020452 2.017149 2.014249 2.011750 2.009627 2.007858 2.006412 2.005248 2.004319 2.003568 2.002940 2.002382 2.001858 2.001353 2.000840 2.000189 1.999243 1.997930 1.996204 1.994034 1.991351 1.987978 1.983847 1.978905 1.973110 1.966430 1.958850 1.950366 1.940991 1.930756
2.334474 2.321129 2.307910 2.296222 2.286035 2.275955 2.265957 2.256022 2.246135 2.236289 2.226481 2.216712 2.206990 2.197324 2.187725 2.178193 2.168740 2.159387 2.150156 2.141072 2.132160 2.123448 2.114964 2.106736 2.098792 2.091160 2.084072 2.077358 2.070962 2.064894 2.059159 2.053766 2.048720 2.044029 2.039698 2.035717 2.032058 2.028725 2.025704 2.022966 2.020490 2.018248 2.016204 2.014318 2.012552 2.010876 2.009273 2.007753 2.006313 2.004798 2.003023 2.000914 1.998429 1.995543 1.992193 1.988171 1.983401 1.977826 1.971400 1.964091 1.955878 1.946757 1.936740 1.925856 1.914152
2.343742 2.332764 2.322037 2.311518 2.301170 2.290960 2.280863 2.270857 2.260929 2.251067 2.241267 2.231529 2.221857 2.212259 2.202746 2.193334 2.184034 2.174844 2.165781 2.156868 2.148128 2.139587 2.131269 2.123443 2.115985 2.108776 2.101820 2.095121 2.088684 2.082511 2.076606 2.070972 2.065613 2.060534 2.055736 2.051223 2.046991 2.043001 2.039211 2.035602 2.032159 2.028864 2.025698 2.022645 2.019699 2.016871 2.014201 2.011709 2.009211 2.006487 2.003464 2.000106 1.996396 1.992275 1.987504 1.981999 1.975700 1.968562 1.960548 1.951638 1.941826 1.931124 1.919560 1.907184 1.894063
2.361006 2.349759 2.338794 2.328069 2.317547 2.307194 2.296985 2.286897 2.276914 2.267024 2.257221 2.247504 2.237874 2.228336 2.218902 2.209583 2.200395 2.191355 2.182477 2.173759 2.165636 2.157700 2.149953 2.142399 2.135035 2.127861 2.120873 2.114071 2.107450 2.101010 2.094749 2.088669 2.082770 2.077055 2.071527 2.066187 2.061038 2.056070 2.051235 2.046489 2.041831 2.037263 2.032799 2.028461 2.024294 2.020369 2.016733 2.013162 2.009396 2.005369 2.001053 1.996438 1.991467 1.985872 1.979560 1.972473 1.964562 1.955793 1.946145 1.935612 1.924204 1.911953 1.898909 1.885142 1.870746
2.379593 2.368067 2.356855 2.345914 2.335206 2.324700 2.314367 2.304185 2.294136 2.284208 2.274394 2.264688 2.255092 2.245609 2.236249 2.227062 2.218393 2.209911 2.201616 2.193510 2.185586 2.177812 2.170174 2.162663 2.155270 2.147985 2.140797 2.133697 2.126677 2.119731 2.112856 2.106051 2.099319 2.092662 2.086089 2.079608 2.073229 2.066931 2.060709 2.054573 2.048515 2.042551 2.036738 2.031155 2.025913 2.021080 2.016378 2.011509 2.006418 2.001088 1.995516 1.989647 1.983177 1.976013 1.968095 1.959379 1.949830 1.939426 1.928164 1.916056 1.903134 1.889449 1.875076 1.860112 1.844676
2.399523 2.387713 2.376247 2.365082 2.354181 2.343512 2.333046 2.322760 2.312637 2.302662 2.293054 2.283674 2.274472 2.265445 2.256592 2.247911 2.239398 2.231049 2.222856 2.214809 2.206897 2.199104 2.191411 2.183772 2.176152 2.168533 2.160897 2.153230 2.145521 2.137762 2.129950 2.122088 2.114184 2.106250 2.098305 2.090372 2.082467 2.074582 2.066750 2.059016 2.051440 2.044101 2.037074 2.030499 2.024459 2.018602 2.012600 2.006419 2.000051 1.993504 1.986714 1.979347 1.971310 1.962548 1.953018 1.942686 1.931535 1.919562 1.906780 1.893224 1.878949 1.864031 1.848571 1.832692 1.816545
2.421348 2.409300 2.397655 2.386374 2.375422 2.364769 2.354391 2.344265 2.334374 2.324702 2.315236 2.305964 2.296877 2.287963 2.279212 2.270610 2.262146 2.253802 2.245559 2.237396 2.229289 2.221213 2.213138 2.205036 2.196878 2.188624 2.180220 2.171649 2.162900 2.153969 2.144860 2.135585 2.126166 2.116631 2.107021 2.097384 2.087736 2.078117 2.068605 2.059292 2.050294 2.041754 2.033844 2.026628 2.019621 2.012491 2.005225 1.997830 1.990318 1.982613 1.974351 1.965447 1.955851 1.945523 1.934432 1.922564 1.909919 1.896513 1.882383 1.867587 1.852204 1.836339 1.820118 1.803696 1.787253
2.446443 2.434165 2.422331 2.410902 2.399842 2.389117 2.378698 2.368560 2.358678 2.349030 2.339597 2.330357 2.321290 2.312377 2.303594 2.294919 2.286323 2.277778 2.269254 2.260717 2.252130 2.243458 2.234664 2.225712 2.216569 2.207206 2.197596 2.187723 2.177553 2.167076 2.156311 2.145290 2.134055 2.122666 2.111194 2.099707 2.088248 2.076921 2.065856 2.055207 2.045153 2.035907 2.027494 2.019315 2.011074 2.002761 1.994378 1.985944 1.977352 1.968221 1.958480 1.948084 1.936996 1.925191 1.912658 1.899401 1.885440 1.870814 1.855585 1.839835 1.823670 1.807222 1.790648 1.774113 1.757118
2.474204 2.461665 2.449611 2.437999 2.426787 2.415939 2.405420 2.395197 2.385239 2.375515 2.365995 2.356649 2.347444 2.338347 2.329324 2.320337 2.311346 2.302310 2.293186 2.283929 2.274493 2.264836 2.254915 2.244692 2.234135 2.223218 2.211925 2.200249 2.188196 2.175787 2.163054 2.150033 2.136790 2.123424 2.110049 2.096736 2.083605 2.070823 2.058580 2.047096 2.036623 2.027081 2.017744 2.008403 1.999064 1.989741 1.980451 1.971021 1.961067 1.950538 1.939395 1.927606 1.915151 1.902025 1.888234 1.873803 1.858775 1.843214 1.827206 1.810860 1.794311 1.777718 1.761175 1.744058 1.726234
2.504676 2.491830 2.479499 2.467635 2.456193 2.445130 2.434403 2.423971 2.413793 2.403828 2.394033 2.384366 2.374782 2.365234 2.355675 2.346053 2.336316 2.326411 2.316286 2.305887 2.295164 2.284071 2.272566 2.260617 2.248199 2.235298 2.221916 2.208068 2.193785 2.179120 2.164141 2.148941 2.133632 2.118354 2.103224 2.088353 2.073941 2.060219 2.047445 2.035898 2.025303 2.014876 2.004511 1.994224 1.984032 1.973970 1.963763 1.953068 1.941834 1.930017 1.917602 1.904578 1.890943 1.876710 1.861908 1.846583 1.830802 1.814656 1.798255 1.781736 1.765260 1.748766 1.731617 1.713797 1.695343
2.537714 2.524479 2.511776 2.499550 2.487750 2.476323 2.465219 2.454385 2.443770 2.433319 2.422980 2.412694 2.402404 2.392050 2.381572 2.370907 2.359993 2.348770 2.337178 2.325162 2.312673 2.299668 2.286116 2.271995 2.257299 2.242038 2.226240 2.209951 2.193242 2.176205 2.158956 2.141638 2.124418 2.107482 2.090958 2.075052 2.060022 2.046153 2.033718 2.022148 2.010724 1.999432 1.988294 1.977336 1.966599 1.955680 1.944327 1.932497 1.920151 1.907259 1.893800 1.879766 1.865192 1.850125 1.834616 1.818734 1.802573 1.786246 1.769890 1.753670 1.737239 1.720148 1.702426 1.684113 1.665257
2.572881 2.559130 2.545907 2.533150 2.520799 2.508793 2.497069 2.485565 2.474216 2.462955 2.451716 2.440429 2.429025 2.417433 2.405581 2.393401 2.380825 2.367789 2.354235 2.340112 2.325381 2.310013 2.293992 2.277323 2.260026 2.242144 2.223743 2.204914 2.185772 2.166461 2.147154 2.128050 2.109376 2.091322 2.074083 2.057948 2.043231 2.030111 2.017651 2.005363 1.993274 1.981405 1.969803 1.958477 1.946927 1.934998 1.922656 1.909870 1.896617 1.882884 1.868669 1.853981 1.838847 1.823309 1.807447 1.791394 1.775268 1.759206 1.743309 1.726972 1.710021 1.692487 1.674409 1.655837 1.636829
2.609347 2.594898 2.580948 2.567427 2.554265 2.541390 2.528730 2.516209 2.503751 2.491279 2.478714 2.465977 2.452989 2.439672 2.425950 2.411751 2.397011 2.381669 2.365677 2.348999 2.331613 2.313513 2.294714 2.275252 2.255188 2.234607 2.213624 2.192381 2.171049 2.149830 2.128955 2.108684 2.089281 2.070935 2.053948 2.038663 2.024974 2.011712 1.998700 1.985966 1.973543 1.961490 1.949698 1.937647 1.925266 1.912529 1.899410 1.885894 1.871982 1.857682 1.843010 1.827997 1.812691 1.797156 1.781478 1.765763 1.750144 1.734528 1.718355 1.701621 1.684356 1.666600 1.648402 1.629822 1.610928
2.645811 2.630424 2.615478 2.600895 2.586596 2.572498 2.558519 2.544573 2.530574 2.516436 2.502072 2.487398 2.472330 2.456789 2.440702 2.424003 2.406635 2.388555 2.369732 2.350154 2.329827 2.308782 2.287070 2.264774 2.242001 2.218889 2.195607 2.172357 2.149369 2.126904 2.105255 2.084736 2.065572 2.048051 2.032502 2.018252 2.004319 1.990712 1.977461 1.964621 1.952260 1.940055 1.927612 1.914903 1.901909 1.888612 1.875004 1.861084 1.846862 1.832361 1.817616 1.802678 1.787615 1.772516 1.757487 1.742636 1.727448 1.711667 1.695310 1.678409 1.661051 1.643308 1.625238 1.606900 1.588106
2.680394 2.663826 2.647584 2.631592 2.615781 2.600060 2.584339 2.568525 2.552526 2.536252 2.519613 2.502524 2.484906 2.466686 2.447802 2.428203 2.407851 2.386727 2.364830 2.342182 2.318829 2.294845 2.270331 2.245420 2.220275 2.195093 2.170103 2.145563 2.121764 2.099026 2.077694 2.058067 2.040391 2.024804 2.009984 1.995528 1.981465 1.967848 1.954745 1.942179 1.929612 1.916862 1.903909 1.890741 1.877348 1.863727 1.849884 1.835835 1.821606 1.807237 1.792783 1.778312 1.763914 1.749694 1.735527 1.720850 1.705646 1.689932 1.673735 1.657089 1.640040 1.622520 1.604372 1.585639 1.566370
2.710740 2.692647 2.674815 2.657146 2.639430 2.621677 2.603790 2.585675 2.567238 2.548393 2.529053 2.509143 2.488593 2.467349 2.445366 2.422620 2.399102 2.374827 2.349835 2.324190 2.297987 2.271352 2.244441 2.217443 2.190581 2.164111 2.138320 2.113523 2.090064 2.068311 2.048623 2.031219 2.015522 2.000270 1.985439 1.971085 1.957271 1.944073 1.931327 1.918491 1.905526 1.892421 1.879169 1.865767 1.852218 1.838536 1.824740 1.810861 1.796944 1.783045 1.769235 1.755603 1.742210 1.728524 1.714363 1.699739 1.684669 1.669179 1.653231 1.636678 1.619514 1.601739 1.583359 1.564382 1.544821
2.734094 2.714162 2.694365 2.674613 2.654817 2.634785 2.614358 2.593573 2.572343 2.550589 2.528241 2.505238 2.481534 2.457098 2.431916 2.405998 2.379375 2.352106 2.324277 2.296006 2.267440 2.238761 2.210184 2.181957 2.154360 2.127704 2.102327 2.078592 2.056883 2.037597 2.020744 2.004780 1.989258 1.974231 1.959767 1.945939 1.932807 1.919865 1.906857 1.893775 1.880614 1.867372 1.854054 1.840670 1.827235 1.813778 1.800332 1.786946 1.773677 1.760600 1.747803 1.734993 1.721766 1.708126 1.694085 1.679569 1.664483 1.648819 1.632569 1.615731 1.598303 1.580289 1.561696 1.542533 1.522812
2.747560 2.725475 2.703424 2.681295 2.658993 2.636436 2.613549 2.589986 2.565751 2.540918 2.515437 2.489276 2.462418 2.434866 2.406648 2.377815 2.348446 2.318650 2.288566 2.258367 2.228258 2.198478 2.169298 2.141019 2.113971 2.088513 2.065020 2.043888 2.025490 2.008898 1.992787 1.977184 1.962156 1.947778 1.934129 1.921058 1.908001 1.894924 1.881826 1.868709 1.855576 1.842439 1.829312 1.816218 1.803187 1.790260 1.777486 1.764926 1.752657 1.740575 1.728169 1.715376 1.702094 1.688301 1.673980 1.659117 1.643704 1.627730 1.611191 1.594086 1.576415 1.558182 1.539395 1.520065 1.500206
2.748665 2.724142 2.699540 2.674772 2.649758 2.624420 2.598691 2.572508 2.545823 2.518111 2.489618 2.460494 2.430762 2.400467 2.369684 2.338512 2.307084 2.275562 2.244140 2.213048 2.182542 2.152917 2.124491 2.097609 2.072642 2.049974 2.030006 2.012503 1.995905 1.979846 1.964369 1.949547 1.935459 1.922150 1.909058 1.895991 1.882951 1.869942 1.856971 1.844049 1.831191 1.818418 1.805758 1.793244 1.780922 1.768843 1.757071 1.745539 1.733698 1.721434 1.708728 1.695557 1.681905 1.667753 1.653088 1.637899 1.622176 1.605912 1.589105 1.571753 1.553859 1.535429 1.516469 1.496994 1.477018
2.734856 2.707859 2.680687 2.653270 2.625543 2.597453 2.568955 2.540019 2.510629 2.480786 2.450513 2.419168 2.387156 2.354812 2.322263 2.289660 2.257190 2.225068 2.193542 2.162888 2.133416 2.105457 2.079369 2.055526 2.034316 2.015818 1.998600 1.982154 1.966365 1.951228 1.936824 1.923240 1.910147 1.897114 1.884146 1.871249 1.858435 1.845714 1.833104 1.820625 1.808303 1.796154 1.784186 1.772435 1.760941 1.749699 1.738230 1.726391 1.714160 1.701515 1.688434 1.674900 1.660895 1.646405 1.631416 1.615920 1.599908 1.583377 1.566322 1.548745 1.530650 1.512043 1.492935 1.473338 1.453268
2.704048 2.674737 2.645190 2.615358 2.585203 2.554699 2.523834 2.492610 2.461050 2.429195 2.397110 2.364887 2.332635 2.299841 2.266675 2.233892 2.201725 2.170438 2.140320 2.111690 2.084891 2.060284 2.038236 2.018945 2.001194 1.984244 1.968150 1.952849 1.938271 1.924500 1.911415 1.898449 1.885569 1.872782 1.860097 1.847526 1.835078 1.822771 1.810620 1.798646 1.786878 1.775344 1.764083 1.753084 1.741898 1.730393 1.718544 1.706330 1.693729 1.680720 1.667285 1.653407 1.639070 1.624262 1.608972 1.593190 1.576912 1.560134 1.542854 1.525075 1.506803 1.488044 1.468809 1.449114 1.428975
2.655059 2.623830 2.592349 2.560596 2.528566 2.496267 2.463725 2.430980 2.398098 2.365164 2.332288 2.299604 2.267275 2.235490 2.204459 2.174229 2.143915 2.115083 2.088055 2.063169 2.040767 2.021069 2.002979 1.985714 1.969268 1.953736 1.939122 1.925292 1.912220 1.899327 1.886523 1.873821 1.861232 1.848768 1.836446 1.824281 1.812291 1.800498 1.788928 1.777610 1.766577 1.755785 1.744805 1.733552 1.722004 1.710136 1.697928 1.685358 1.672407 1.659055 1.645287 1.631086 1.616439 1.601336 1.585765 1.569722 1.553200 1.536199 1.518718 1.500762 1.482336 1.463449 1.444114 1.424346 1.404162