64 64
4.364492 4.153656 3.948264 3.748599 3.554940 3.367563 3.186733 3.012717 2.845774 2.686154 2.534105 2.389031 2.248584 2.112800 1.981906 1.856115 1.735641 1.619526 1.506377 1.396373 1.289701 1.186548 1.087093 0.991513 0.899989 0.812689 0.729783 0.651437 0.577809 0.509059 0.445338 0.386794 0.333571 0.285806 0.243633 0.207062 0.175846 0.148867 0.123961 0.101144 0.080483 0.062041 0.045880 0.032059 0.020637 0.011668 0.005206 0.001300 0.000000 0.000000 0.000000 0.000000 0.000000 0.000000 0.000000 0.000000 0.000000 0.000000 0.000000 0.000000 0.000000 0.000000 0.000000 0.000000 0.000000
4.170705 3.963785 3.762379 3.566770 3.377233 3.194039 3.017457 2.847743 2.685160 2.529952 2.382365 2.241108 2.104367 1.972349 1.845274 1.723357 1.606806 1.495478 1.387479 1.282646 1.181165 1.083217 0.988979 0.898627 0.812334 0.730268 0.652596 0.579478 0.511073 0.447534 0.389011 0.335648 0.287585 0.244958 0.207654 0.175546 0.148468 0.123961 0.101469 0.081060 0.062796 0.046741 0.032955 0.021496 0.012421 0.005782 0.001633 0.000021 0.000000 0.000000 0.000000 0.000000 0.000000 0.000000 0.000000 0.000000 0.000000 0.000000 0.000000 0.000000 0.000000 0.000000 0.000000 0.000000 0.000000
3.980763 3.777831 3.580484 3.389001 3.203656 3.024715 2.852446 2.687105 2.528946 2.378214 2.235095 2.097528 1.964523 1.836299 1.713073 1.595057 1.482457 1.375464 1.272622 1.172969 1.076685 0.983948 0.894934 0.809814 0.728758 0.651931 0.579496 0.511609 0.448428 0.390102 0.336776 0.288594 0.245661 0.207770 0.174939 0.147276 0.123239 0.101144 0.081060 0.063048 0.047175 0.033499 0.022079 0.012973 0.006235 0.001918 0.000070 0.000000 0.000000 0.000000 0.000000 0.000000 0.000000 0.000000 0.000000 0.000000 0.000000 0.000000 0.000000 0.000000 0.000000 0.000000 0.000000 0.000000 0.000000
3.794889 3.596017 3.402799 3.215512 3.034426 2.859807 2.691917 2.531011 2.377338 2.231144 2.092324 1.958462 1.829222 1.704820 1.585470 1.471380 1.362756 1.259797 1.161994 1.067525 0.976442 0.888922 0.805133 0.725247 0.649429 0.577841 0.510643 0.447988 0.390029 0.336913 0.288783 0.245648 0.207335 0.173946 0.145590 0.121801 0.100173 0.080483 0.062796 0.047175 0.033681 0.022374 0.013310 0.006547 0.002135 0.000127 0.000000 0.000000 0.000000 0.000000 0.000000 0.000000 0.000000 0.000000 0.000000 0.000000 0.000000 0.000000 0.000000 0.000000 0.000000 0.000000 0.000000 0.000000 0.000000
3.613309 3.418566 3.229544 3.046518 2.869757 2.699523 2.536075 2.379664 2.230541 2.088943 1.954208 1.824078 1.698631 1.578076 1.462626 1.352487 1.247861 1.148944 1.055780 0.966496 0.880616 0.798310 0.719748 0.645095 0.574513 0.508162 0.446196 0.388769 0.336028 0.288106 0.244860 0.206286 0.172498 0.143610 0.119661 0.098565 0.079337 0.062041 0.046741 0.033499 0.022374 0.013424 0.006705 0.002271 0.000174 0.000000 0.000000 0.000000 0.000000 0.000000 0.000000 0.000000 0.000000 0.000000 0.000000 0.000000 0.000000 0.000000 0.000000 0.000000 0.000000 0.000000 0.000000 0.000000 0.000000
3.436560 3.246079 3.061384 2.882742 2.710415 2.544663 2.385736 2.233886 2.089352 1.952375 1.821434 1.695003 1.573297 1.456532 1.344922 1.238674 1.137998 1.043094 0.954162 0.870059 0.789379 0.712286 0.638946 0.569521 0.504170 0.443050 0.386312 0.334104 0.286464 0.243249 0.204569 0.170540 0.141276 0.116884 0.096337 0.077633 0.060793 0.045880 0.032955 0.022079 0.013310 0.006705 0.002318 0.000200 0.000000 0.000000 0.000000 0.000000 0.000000 0.000000 0.000000 0.000000 0.000000 0.000000 0.000000 0.000000 0.000000 0.000000 0.000000 0.000000 0.000000 0.000000 0.000000 0.000000 0.000000
3.265451 3.079392 2.899178 2.725067 2.557317 2.396182 2.241906 2.094734 1.954904 1.822496 1.695272 1.572586 1.454654 1.341689 1.233898 1.131488 1.034663 0.943622 0.858562 0.779148 0.703420 0.631322 0.563031 0.498720 0.438558 0.382659 0.331119 0.283812 0.240779 0.202144 0.168025 0.138536 0.113788 0.093512 0.075392 0.059068 0.044603 0.032059 0.021496 0.012973 0.006547 0.002271 0.000200 0.000000 0.000000 0.000000 0.000000 0.000000 0.000000 0.000000 0.000000 0.000000 0.000000 0.000000 0.000000 0.000000 0.000000 0.000000 0.000000 0.000000 0.000000 0.000000 0.000000 0.000000 0.000000
3.100438 2.918954 2.743364 2.573924 2.410885 2.254491 2.104985 1.962607 1.827586 1.699522 1.576079 1.457205 1.343108 1.233997 1.130076 1.031551 0.938619 0.851478 0.770322 0.695243 0.624404 0.557177 0.493733 0.434241 0.378872 0.327623 0.280463 0.237538 0.198987 0.164918 0.135353 0.110396 0.090120 0.072640 0.056889 0.042931 0.030826 0.020637 0.012421 0.006235 0.002135 0.000174 0.000000 0.000000 0.000000 0.000000 0.000000 0.000000 0.000000 0.000000 0.000000 0.000000 0.000000 0.000000 0.000000 0.000000 0.000000 0.000000 0.000000 0.000000 0.000000 0.000000 0.000000 0.000000 0.000000
2.941961 2.765193 2.594365 2.429724 2.271515 2.119980 1.975355 1.837871 1.707757 1.583769 1.464172 1.349166 1.238957 1.133749 1.033744 0.939141 0.850137 0.766926 0.689699 0.618644 0.552683 0.490318 0.431711 0.376949 0.325959 0.278874 0.235839 0.196998 0.162491 0.132455 0.107025 0.086329 0.069408 0.054283 0.040886 0.029278 0.019519 0.011668 0.005782 0.001918 0.000127 0.000000 0.000000 0.000000 0.000000 0.000000 0.000000 0.000000 0.000000 0.000000 0.000000 0.000000 0.000000 0.000000 0.000000 0.000000 0.000000 0.000000 0.000000 0.000000 0.000000 0.000000 0.000000 0.000000 0.000000
2.790437 2.618517 2.452575 2.292853 2.139589 1.993018 1.853371 1.720876 1.595642 1.475539 1.359843 1.248756 1.142480 1.041215 0.945160 0.854511 0.769462 0.690205 0.616925 0.549810 0.488498 0.430940 0.376843 0.326318 0.279515 0.236577 0.197651 0.162876 0.132393 0.106336 0.084838 0.067585 0.052402 0.039050 0.027614 0.018173 0.010736 0.005206 0.001633 0.000070 0.000000 0.000000 0.000000 0.000000 0.000000 0.000000 0.000000 0.000000 0.000000 0.000000 0.000000 0.000000 0.000000 0.000000 0.000000 0.000000 0.000000 0.000000 0.000000 0.000000 0.000000 0.000000 0.000000 0.000000 0.000000
2.646260 2.479310 2.318370 2.163675 2.015458 1.873946 1.739369 1.611944 1.491282 1.375109 1.263360 1.156233 1.053928 0.956640 0.864564 0.777894 0.696820 0.621529 0.552208 0.489016 0.431807 0.378595 0.328790 0.282537 0.239977 0.201249 0.166493 0.135843 0.109432 0.087393 0.069752 0.054554 0.041067 0.029371 0.019551 0.011687 0.005860 0.002149 0.000634 0.000536 0.000454 0.000367 0.000280 0.000197 0.000122 0.000061 0.000018 0.000000 0.000000 0.000000 0.000000 0.000000 0.000000 0.000000 0.000000 0.000000 0.000000 0.000000 0.000000 0.000000 0.000000 0.000000 0.000000 0.000000 0.000000
2.509799 2.347929 2.192097 2.042528 1.899449 1.763085 1.633652 1.511370 1.394927 1.282728 1.174965 1.071835 0.973531 0.880244 0.792188 0.709574 0.632588 0.561390 0.495966 0.436435 0.382951 0.334180 0.288774 0.246872 0.208612 0.174131 0.143562 0.117039 0.094693 0.076653 0.061575 0.048085 0.036267 0.026200 0.017967 0.011648 0.007323 0.005072 0.003980 0.003129 0.002545 0.002243 0.002017 0.001780 0.001535 0.001287 0.001043 0.000809 0.000590 0.000395 0.000230 0.000104 0.000025 0.000000 0.000000 0.000000 0.000000 0.000000 0.000000 0.000000 0.000000 0.000000 0.000000 0.000000 0.000000
2.381397 2.224712 2.074079 1.929723 1.791865 1.660720 1.536504 1.419254 1.306810 1.198624 1.094925 0.995922 0.901804 0.812759 0.728971 0.650587 0.577612 0.510181 0.448455 0.392587 0.342733 0.298277 0.257262 0.219698 0.185721 0.155462 0.129055 0.106628 0.088311 0.073401 0.060041 0.048230 0.038049 0.029578 0.022897 0.018086 0.015190 0.013048 0.011089 0.009338 0.007821 0.006566 0.005600 0.004952 0.004526 0.004089 0.003640 0.003185 0.002731 0.002284 0.001853 0.001446 0.001071 0.000737 0.000454 0.000230 0.000077 0.000005 0.000000 0.000000 0.000000 0.000000 0.000000 0.000000 0.000000
2.261370 2.109957 1.964610 1.825546 1.692979 1.567120 1.448207 1.335677 1.227434 1.123527 1.024147 0.929474 0.839695 0.754922 0.675190 0.600658 0.531483 0.467824 0.409833 0.357659 0.311453 0.271071 0.234422 0.201168 0.171440 0.145368 0.123079 0.104703 0.089957 0.076854 0.065179 0.055011 0.046430 0.039514 0.034345 0.030842 0.027733 0.024748 0.021911 0.019248 0.016787 0.014556 0.012583 0.010897 0.009528 0.008508 0.007806 0.007126 0.006431 0.005729 0.005027 0.004333 0.003658 0.003008 0.002395 0.001828 0.001318 0.000875 0.000510 0.000235 0.000061 0.000000 0.000000 0.000000 0.000000
2.150006 2.003946 1.863958 1.730298 1.603201 1.482881 1.369533 1.261479 1.157601 1.058081 0.963094 0.872693 0.786992 0.706150 0.630323 0.559669 0.494339 0.434484 0.380251 0.331788 0.289237 0.252696 0.220374 0.191387 0.165860 0.143921 0.125696 0.111152 0.098428 0.087012 0.076982 0.068416 0.061392 0.055990 0.051880 0.047892 0.043967 0.040130 0.036406 0.032823 0.029409 0.026190 0.023198 0.020462 0.018013 0.015883 0.014103 0.012706 0.011687 0.010724 0.009747 0.008762 0.007780 0.006810 0.005861 0.004945 0.004071 0.003250 0.002495 0.001816 0.001226 0.000737 0.000362 0.000113 0.000004
2.047596 1.907063 1.772689 1.644690 1.523276 1.408650 1.300613 1.196988 1.097500 1.002224 0.911317 0.824939 0.743242 0.666380 0.594505 0.527764 0.466306 0.410273 0.359811 0.315060 0.276160 0.243249 0.215191 0.190411 0.169023 0.151153 0.136887 0.124658 0.113619 0.103846 0.095416 0.088405 0.082891 0.078135 0.073357 0.068583 0.063836 0.059141 0.054525 0.050015 0.045639 0.041426 0.037406 0.033610 0.030070 0.026817 0.023885 0.021308 0.019119 0.017354 0.016007 0.014726 0.013433 0.012136 0.010846 0.009574 0.008330 0.007126 0.005973 0.004884 0.003870 0.002946 0.002122 0.001413 0.000833
1.954737 1.819943 1.691339 1.569133 1.453518 1.344650 1.241313 1.141882 1.046504 0.955335 0.868524 0.786222 0.708578 0.635735 0.567841 0.505035 0.447461 0.395258 0.348563 0.307513 0.272245 0.242892 0.218897 0.198252 0.180928 0.167046 0.155421 0.144871 0.135469 0.127290 0.120410 0.114806 0.109414 0.103943 0.098413 0.092850 0.087277 0.081721 0.076208 0.070765 0.065423 0.060209 0.055154 0.050291 0.045651 0.041267 0.037174 0.033404 0.029995 0.026981 0.024399 0.022285 0.020608 0.018980 0.017343 0.015709 0.014089 0.012495 0.010938 0.009431 0.007987 0.006619 0.005340 0.004164 0.003104
1.871815 1.742893 1.620129 1.503659 1.393656 1.290107 1.190955 1.095703 1.004501 0.917495 0.834829 0.756646 0.683085 0.614286 0.550387 0.491525 0.437836 0.389452 0.346508 0.309137 0.277469 0.251636 0.231466 0.214871 0.201521 0.190584 0.180629 0.171707 0.163890 0.157252 0.151441 0.145510 0.139441 0.133253 0.126970 0.120617 0.114217 0.107797 0.101385 0.095008 0.088694 0.082476 0.076383 0.070448 0.064702 0.059181 0.053918 0.048949 0.044309 0.040036 0.036166 0.032738 0.029789 0.027359 0.025343 0.023342 0.021340 0.019349 0.017382 0.015451 0.013570 0.011751 0.010009 0.008357 0.006810
1.798788 1.675564 1.558448 1.447611 1.343217 1.244487 1.149575 1.058562 0.971586 0.888786 0.810298 0.736257 0.666798 0.602052 0.542151 0.487226 0.437405 0.392821 0.353599 0.319870 0.291760 0.269396 0.252826 0.240181 0.230001 0.220740 0.212398 0.205047 0.198724 0.192570 0.186197 0.179627 0.172879 0.165976 0.158941 0.151797 0.144571 0.137288 0.129976 0.122663 0.115379 0.108155 0.101022 0.094011 0.087158 0.080495 0.074058 0.067883 0.062007 0.056467 0.051302 0.046549 0.042249 0.038441 0.035165 0.032463 0.030073 0.027680 0.025296 0.022934 0.020608 0.018332 0.016119 0.013984 0.011943
1.735039 1.617563 1.506181 1.401052 1.302238 1.207870 1.117252 1.030519 0.947804 0.869237 0.794945 0.725058 0.659703 0.599003 0.543087 0.492078 0.446100 0.405279 0.369738 0.339601 0.314993 0.296037 0.282855 0.273515 0.265039 0.257373 0.250585 0.244393 0.237950 0.231234 0.224261 0.217053 0.209630 0.202014 0.194228 0.186297 0.178246 0.170103 0.161893 0.153647 0.145393 0.137164 0.128990 0.120905 0.112942 0.105137 0.097525 0.090142 0.083026 0.076215 0.069748 0.063665 0.058005 0.052810 0.048121 0.043980 0.040429 0.037475 0.034668 0.031869 0.029093 0.026352 0.023662 0.021037 0.018493
1.680686 1.569035 1.463452 1.364082 1.270327 1.180300 1.094010 1.011586 0.933149 0.858825 0.788734 0.722996 0.661731 0.605059 0.553100 0.505973 0.463797 0.426692 0.394778 0.368174 0.347001 0.331380 0.321003 0.313349 0.306446 0.300251 0.293963 0.287330 0.280366 0.273090 0.265521 0.257679 0.249584 0.241259 0.232727 0.224012 0.215142 0.206140 0.197037 0.187861 0.178642 0.169411 0.160200 0.151043 0.141973 0.133027 0.124240 0.115649 0.107292 0.099209 0.091438 0.084021 0.076998 0.070410 0.064302 0.058714 0.053690 0.049274 0.045510 0.042245 0.039011 0.035799 0.032625 0.029503 0.026449
1.635841 1.530068 1.430324 1.336687 1.247427 1.161767 1.079825 1.001720 0.927566 0.857480 0.791576 0.729967 0.672767 0.620090 0.572048 0.528756 0.490328 0.456879 0.428525 0.405381 0.387566 0.374829 0.365677 0.359423 0.353504 0.347173 0.340443 0.333328 0.325848 0.318017 0.309856 0.301384 0.292623 0.283595 0.274322 0.264830 0.255145 0.245294 0.235303 0.225203 0.215024 0.204798 0.194555 0.184331 0.174159 0.164076 0.154117 0.144322 0.134727 0.125372 0.116298 0.107547 0.099158 0.091176 0.083644 0.076604 0.070103 0.064183 0.058890 0.054271 0.050350 0.046662 0.042996 0.039370 0.035799
1.600559 1.500696 1.406810 1.318355 1.233494 1.152213 1.074621 1.000831 0.930947 0.865080 0.803336 0.745822 0.692647 0.643916 0.599737 0.560220 0.525474 0.495610 0.470739 0.450974 0.436083 0.424635 0.416276 0.410033 0.403750 0.397016 0.389847 0.382257 0.374263 0.365884 0.357136 0.348042 0.338621 0.328897 0.318891 0.308630 0.298139 0.287445 0.276575 0.265560 0.254430 0.243215 0.231949 0.220665 0.209399 0.198186 0.187063 0.176067 0.165239 0.154618 0.144245 0.134161 0.124410 0.115034 0.106077 0.097585 0.089602 0.082174 0.075348 0.069170 0.063687 0.058945 0.054761 0.050625 0.046530
1.574841 1.480895 1.392804 1.308897 1.228437 1.151529 1.078275 1.008778 0.943137 0.881454 0.823830 0.770364 0.721157 0.676312 0.635930 0.600116 0.568975 0.542612 0.521135 0.504298 0.490623 0.479312 0.470275 0.463417 0.456770 0.449638 0.442034 0.433974 0.425474 0.416552 0.407226 0.397516 0.387445 0.377033 0.366304 0.355284 0.343996 0.332470 0.320732 0.308812 0.296740 0.284548 0.272269 0.259936 0.247585 0.235252 0.222973 0.210787 0.198734 0.186854 0.175188 0.163778 0.152668 0.141902 0.131524 0.121581 0.112117 0.103181 0.094819 0.087079 0.080009 0.073657 0.068073 0.063250 0.058626
1.558632 1.470587 1.387678 1.308186 1.232113 1.159557 1.090613 1.025374 0.963934 0.906386 0.852825 0.803345 0.758041 0.717008 0.680345 0.648150 0.620523 0.597568 0.578917 0.562663 0.548569 0.536653 0.526938 0.519420 0.512416 0.504890 0.496857 0.488332 0.479333 0.469876 0.459980 0.449665 0.438952 0.427863 0.416422 0.404653 0.392583 0.380236 0.367642 0.354830 0.341830 0.328674 0.315395 0.302026 0.288602 0.275161 0.261738 0.248374 0.235107 0.221978 0.209028 0.196302 0.183842 0.171692 0.159900 0.148510 0.137569 0.127127 0.117230 0.107928 0.099270 0.091305 0.084084 0.077656 0.072070
1.551822 1.469546 1.391149 1.316049 1.244335 1.176095 1.111416 1.050386 0.993089 0.939614 0.890047 0.844478 0.802995 0.765689 0.732654 0.703982 0.679708 0.658871 0.640144 0.623483 0.608907 0.596434 0.586087 0.577888 0.570528 0.562614 0.554159 0.545177 0.535686 0.525703 0.515247 0.504337 0.492995 0.481242 0.469102 0.456598 0.443757 0.430605 0.417170 0.403481 0.389568 0.375463 0.361199 0.346809 0.332328 0.317794 0.303242 0.288713 0.274246 0.259881 0.245662 0.231630 0.217831 0.204309 0.191111 0.178283 0.165873 0.153930 0.142504 0.131643 0.121398 0.111821 0.102962 0.094872 0.087603
1.554250 1.477024 1.403015 1.332270 1.264869 1.200893 1.140421 1.083534 1.030310 0.980830 0.935176 0.893431 0.855677 0.822002 0.792395 0.766431 0.743471 0.722489 0.703482 0.686465 0.671458 0.658478 0.647546 0.638685 0.630945 0.622648 0.613777 0.604347 0.594374 0.583876 0.572871 0.561379 0.549420 0.537017 0.524191 0.510968 0.497373 0.483432 0.469172 0.454623 0.439815 0.424779 0.409547 0.394154 0.378634 0.363024 0.347362 0.331685 0.316034 0.300450 0.284976 0.269655 0.254531 0.239649 0.225058 0.210804 0.196935 0.183501 0.170552 0.158140 0.146314 0.135128 0.124633 0.114883 0.105929
1.565510 1.492695 1.423028 1.356584 1.293437 1.233658 1.177321 1.124498 1.075262 1.029690 0.987854 0.949833 0.915512 0.884566 0.857030 0.832137 0.809118 0.787984 0.768749 0.751428 0.736038 0.722599 0.711129 0.701652 0.693497 0.684825 0.675546 0.665677 0.655233 0.644230 0.632689 0.620628 0.608067 0.595029 0.581535 0.567609 0.553277 0.538565 0.523500 0.508110 0.492426 0.476479 0.460300 0.443924 0.427385 0.410720 0.393966 0.377162 0.360347 0.343564 0.326854 0.310260 0.293829 0.277605 0.261636 0.245970 0.230657 0.215744 0.201285 0.187331 0.173933 0.161145 0.149021 0.137614 0.126978
1.584781 1.516286 1.450900 1.388689 1.329720 1.274058 1.221769 1.172920 1.127576 1.085792 1.047283 1.011947 0.979823 0.950924 0.924292 0.899451 0.876407 0.855173 0.835761 0.818186 0.802463 0.788610 0.776649 0.766601 0.758010 0.748970 0.739293 0.728994 0.718090 0.706597 0.694534 0.681918 0.668772 0.655114 0.640970 0.626360 0.611311 0.595848 0.579998 0.563789 0.547251 0.530415 0.513312 0.495976 0.478442 0.460744 0.442922 0.425013 0.407057 0.389095 0.371170 0.353327 0.335608 0.318062 0.300734 0.283675 0.266933 0.250558 0.234604 0.219121 0.204163 0.189785 0.176040 0.162984 0.150672
1.611729 1.547484 1.486302 1.428242 1.373363 1.321723 1.273383 1.228232 1.186051 1.146869 1.110719 1.077636 1.047531 1.019366 0.992912 0.968172 0.945156 0.923872 0.904333 0.886551 0.870542 0.856325 0.843918 0.833345 0.824307 0.814907 0.804841 0.794125 0.782773 0.770803 0.758232 0.745079 0.731363 0.717106 0.702330 0.687058 0.671313 0.655121 0.638509 0.621504 0.604137 0.586436 0.568433 0.550162 0.531657 0.512953 0.494088 0.475099 0.456027 0.436913 0.417798 0.398727 0.379745 0.360899 0.342235 0.323804 0.305653 0.287836 0.270404 0.253410 0.236908 0.220953 0.205601 0.190907 0.176929
1.646017 1.585936 1.528867 1.474861 1.423862 1.375665 1.330287 1.287754 1.248091 1.211328 1.177492 1.146297 1.116800 1.088936 1.062709 1.038122 1.015181 0.993896 0.974276 0.956335 0.940087 0.925551 0.912744 0.901689 0.892204 0.882454 0.872011 0.860888 0.849102 0.836670 0.823608 0.809934 0.795669 0.780832 0.765446 0.749532 0.733115 0.716218 0.698869 0.681095 0.662923 0.644384 0.625509 0.606331 0.586883 0.567200 0.547320 0.527280 0.507119 0.486879 0.466603 0.446332 0.426113 0.405992 0.386018 0.366238 0.346703 0.327465 0.308577 0.290092 0.272064 0.254551 0.237607 0.221290 0.205659
1.687270 1.631112 1.577603 1.526761 1.478609 1.433164 1.390449 1.350484 1.313291 1.278895 1.246691 1.216051 1.186975 1.159459 1.133506 1.109118 1.086299 1.065058 1.045404 1.027350 1.010907 0.996096 0.982934 0.971441 0.961519 0.951428 0.940617 0.929102 0.916897 0.904018 0.890482 0.876308 0.861513 0.846118 0.830144 0.813613 0.796547 0.778972 0.760912 0.742395 0.723447 0.704100 0.684381 0.664325 0.643965 0.623334 0.602469 0.581408 0.560190 0.538855 0.517446 0.496005 0.474579 0.453213 0.431955 0.410854 0.389962 0.369329 0.349009 0.329056 0.309525 0.290474 0.271958 0.254037 0.236769
1.733470 1.680337 1.629779 1.581812 1.536449 1.493708 1.453602 1.416152 1.381298 1.348197 1.316597 1.286494 1.257882 1.230759 1.205125 1.180979 1.158327 1.137174 1.117529 1.099403 1.082811 1.067767 1.054292 1.042406 1.032062 1.021641 1.010476 0.998582 0.985973 0.972664 0.958674 0.944018 0.928715 0.912785 0.896247 0.879123 0.861437 0.843210 0.824468 0.805237 0.785544 0.765418 0.744888 0.723987 0.702745 0.681199 0.659383 0.637334 0.615091 0.592695 0.570186 0.547608 0.525006 0.502426 0.479917 0.457526 0.435305 0.413306 0.391582 0.370188 0.349180 0.328614 0.308550 0.289046 0.270161
1.782716 1.732560 1.684904 1.639756 1.597128 1.557031 1.519477 1.484157 1.450325 1.417938 1.386986 1.357460 1.329355 1.302665 1.277389 1.253526 1.231081 1.210057 1.190463 1.172309 1.155607 1.140374 1.126627 1.114389 1.103645 1.092906 1.081399 1.069141 1.056144 1.042425 1.027999 1.012882 0.997094 0.980653 0.963577 0.945888 0.927607 0.908758 0.889365 0.869451 0.849045 0.828174 0.806866 0.785153 0.763066 0.740639 0.717907 0.694905 0.671674 0.648251 0.624678 0.600998 0.577256 0.553497 0.529769 0.506121 0.482604 0.459271 0.436174 0.413368 0.390911 0.368860 0.347273 0.326210 0.305732
1.834776 1.787541 1.742726 1.700337 1.660380 1.622836 1.587020 1.552613 1.519599 1.487964 1.457695 1.428784 1.401222 1.375003 1.350123 1.326582 1.304382 1.283526 1.264020 1.245876 1.229105 1.213721 1.199745 1.187195 1.176079 1.165032 1.153197 1.140590 1.127224 1.113112 1.098271 1.082717 1.066468 1.049540 1.031953 1.013727 0.994883 0.975443 0.955429 0.934866 0.913780 0.892198 0.870148 0.847660 0.824764 0.801494 0.777883 0.753967 0.729784 0.705373 0.680774 0.656030 0.631185 0.606284 0.581375 0.556506 0.531729 0.507095 0.482659 0.458476 0.434601 0.411094 0.388013 0.365420 0.343375
1.889409 1.845030 1.802989 1.763288 1.725668 1.689464 1.654627 1.621135 1.588971 1.558120 1.528569 1.500306 1.473320 1.447605 1.423156 1.399971 1.378050 1.357396 1.338017 1.319919 1.303115 1.287621 1.273452 1.260631 1.249172 1.237830 1.225682 1.212743 1.199024 1.184540 1.169307 1.153338 1.136652 1.119266 1.101196 1.082462 1.063085 1.043086 1.022486 1.001308 0.979579 0.957322 0.934567 0.911341 0.887676 0.863601 0.839151 0.814361 0.789268 0.763909 0.738324 0.712556 0.686648 0.660645 0.634594 0.608544 0.582545 0.556649 0.530910 0.505384 0.480127 0.455197 0.430656 0.406563 0.382980
1.946365 1.904767 1.865378 1.827563 1.791099 1.755962 1.722129 1.689580 1.658296 1.628259 1.599453 1.571865 1.545485 1.520304 1.496316 1.473518 1.451908 1.431490 1.412269 1.394253 1.377452 1.361881 1.347558 1.334502 1.322734 1.311110 1.298665 1.285409 1.271358 1.256523 1.240919 1.224561 1.207465 1.189646 1.171123 1.151913 1.132036 1.111511 1.090359 1.068604 1.046267 1.023376 0.999954 0.976031 0.951636 0.926799 0.901552 0.875930 0.849969 0.823704 0.797177 0.770428 0.743499 0.716437 0.689285 0.662095 0.634915 0.607797 0.580795 0.553964 0.527363 0.501048 0.475080 0.449522 0.424435
2.005384 1.966104 1.928173 1.891562 1.856246 1.822198 1.789395 1.757813 1.727432 1.698231 1.670195 1.643309 1.617559 1.592938 1.569437 1.547053 1.525783 1.505630 1.486598 1.468694 1.451929 1.436317 1.421874 1.408619 1.396577 1.384685 1.371956 1.358403 1.344038 1.328873 1.312923 1.296201 1.278722 1.260501 1.241555 1.221901 1.201557 1.180541 1.158875 1.136578 1.113674 1.090186 1.066141 1.041562 1.016480 0.990924 0.964924 0.938514 0.911728 0.884604 0.857179 0.829494 0.801590 0.773512 0.745306 0.717019 0.688701 0.660404 0.632181 0.604088 0.576181 0.548521 0.521166 0.494179 0.467623
2.065130 2.027181 1.990528 1.955140 1.920992 1.888052 1.856296 1.825699 1.796239 1.767895 1.740648 1.714482 1.689385 1.665345 1.642354 1.620408 1.599503 1.579642 1.560826 1.543064 1.526365 1.510743 1.496212 1.482795 1.470511 1.458366 1.445371 1.431538 1.416879 1.401408 1.385135 1.368075 1.350241 1.331648 1.312311 1.292246 1.271470 1.250001 1.227857 1.205059 1.181628 1.157586 1.132958 1.107767 1.082043 1.055812 1.029104 1.001953 0.974391 0.946453 0.918177 0.889603 0.860771 0.831725 0.802510 0.773173 0.743764 0.714333 0.684934 0.655622 0.626454 0.597489 0.568788 0.540412 0.512426
2.124305 2.087700 2.052340 2.018190 1.985221 1.953403 1.922708 1.893110 1.864584 1.837110 1.810667 1.785239 1.760810 1.737369 1.714908 1.693420 1.672902 1.653355 1.634781 1.617186 1.600581 1.584978 1.570392 1.556843 1.544352 1.531967 1.518723 1.504630 1.489700 1.473944 1.457375 1.440003 1.421844 1.402909 1.383214 1.362773 1.341601 1.319715 1.297134 1.273874 1.249958 1.225405 1.200238 1.174481 1.148159 1.121301 1.093934 1.066088 1.037797 1.009095 0.980018 0.950604 0.920893 0.890928 0.860753 0.830415 0.799962 0.769446 0.738917 0.708433 0.678049 0.647825 0.617821 0.588099 0.558724
2.182819 2.147569 2.113509 2.080605 2.048824 2.018136 1.988509 1.959918 1.932337 1.905743 1.880115 1.855434 1.831686 1.808859 1.786942 1.765929 1.745816 1.726603 1.708292 1.690888 1.674402 1.658844 1.644232 1.630582 1.617918 1.605308 1.591831 1.577497 1.562317 1.546301 1.529461 1.511807 1.493352 1.474108 1.454088 1.433305 1.411775 1.389512 1.366532 1.342854 1.318495 1.293474 1.267814 1.241537 1.214666 1.187228 1.159250 1.130761 1.101792 1.072376 1.042548 1.012345 0.981807 0.950974 0.919891 0.888602 0.857156 0.825603 0.793996 0.762388 0.730836 0.699399 0.668138 0.637116 0.606395
2.240589 2.206697 2.173941 2.142285 2.111696 2.082139 2.053584 2.026004 1.999371 1.973661 1.948853 1.924927 1.901869 1.879665 1.858303 1.837778 1.818085 1.799223 1.781193 1.764001 1.747657 1.732171 1.717557 1.703836 1.691028 1.678210 1.664518 1.649963 1.634555 1.618303 1.601218 1.583310 1.564590 1.545069 1.524759 1.503672 1.481821 1.459220 1.435884 1.411829 1.387071 1.361630 1.335523 1.308774 1.281403 1.253435 1.224896 1.195814 1.166218 1.136141 1.105614 1.074676 1.043363 1.011716 0.979777 0.947590 0.915205 0.882668 0.850032 0.817352 0.784682 0.752082 0.719614 0.687337 0.655318
2.297537 2.265000 2.233546 2.203135 2.173733 2.145305 2.117821 2.091249 2.065563 2.040738 2.016752 1.993584 1.971220 1.949644 1.928846 1.908818 1.889556 1.871057 1.853325 1.836362 1.820179 1.804786 1.790197 1.776432 1.763508 1.750496 1.736608 1.721853 1.706239 1.689777 1.672475 1.654342 1.635388 1.615624 1.595058 1.573704 1.551571 1.528673 1.505023 1.480635 1.455524 1.429708 1.403203 1.376029 1.348208 1.319762 1.290714 1.261092 1.230923 1.200238 1.169068 1.137448 1.105415 1.073008 1.040267 1.007239 0.973966 0.940500 0.906890 0.873190 0.839456 0.805745 0.772118 0.738638 0.705369
2.353584 2.322395 2.292234 2.263060 2.234838 2.207532 2.181110 2.155540 2.130796 2.106852 2.083684 2.061274 2.039602 2.018657 1.998426 1.978901 1.960078 1.941954 1.924531 1.907814 1.891809 1.876528 1.861987 1.848201 1.835186 1.821997 1.807931 1.792996 1.777201 1.760554 1.743062 1.724734 1.705579 1.685605 1.664821 1.643236 1.620862 1.597708 1.573787 1.549111 1.523693 1.497549 1.470695 1.443148 1.414927 1.386054 1.356551 1.326442 1.295755 1.264516 1.232758 1.200513 1.167816 1.134706 1.101222 1.067406 1.033304 0.998963 0.964434 0.929770 0.895024 0.860256 0.825525 0.790892 0.756424
2.408660 2.378806 2.349924 2.321974 2.294918 2.268721 2.243349 2.218771 2.194958 2.171885 2.149529 2.127869 2.106887 2.086570 2.066906 2.047887 2.029508 2.011765 1.994662 1.978201 1.962390 1.947240 1.932765 1.918982 1.905898 1.892548 1.878323 1.863230 1.847277 1.830470 1.812817 1.794325 1.775000 1.754851 1.733884 1.712109 1.689533 1.666166 1.642017 1.617098 1.591420 1.564997 1.537843 1.509974 1.481406 1.452160 1.422255 1.391715 1.360564 1.328829 1.296540 1.263726 1.230424 1.196668 1.162497 1.127952 1.093078 1.057922 1.022531 0.986958 0.951258 0.915487 0.879706 0.843975 0.808361
2.462696 2.434158 2.406537 2.379791 2.353884 2.328778 2.304439 2.280836 2.257940 2.235726 2.214169 2.193249 2.172950 2.153256 2.134156 2.115641 2.097707 2.080350 2.063572 2.047377 2.031772 2.016768 2.002377 1.988617 1.975483 1.961990 1.947625 1.932395 1.916308 1.899368 1.881582 1.862956 1.843495 1.823206 1.802094 1.780167 1.757430 1.733891 1.709560 1.684444 1.658554 1.631901 1.604497 1.576357 1.547495 1.517930 1.487678 1.456763 1.425205 1.393032 1.360269 1.326946 1.293096 1.258754 1.223955 1.188741 1.153154 1.117240 1.081046 1.044623 1.008026 0.971311 0.934536 0.897763 0.861057
2.515627 2.488381 2.461997 2.436433 2.411650 2.387613 2.364285 2.341638 2.319639 2.298266 2.277493 2.257300 2.237671 2.218590 2.200047 2.182032 2.164541 2.147571 2.131123 2.115201 2.099812 2.084966 2.070676 2.056958 2.043788 2.030169 2.015683 2.000339 1.984141 1.967095 1.949205 1.930476 1.910912 1.890518 1.869298 1.847258 1.824402 1.800736 1.776266 1.751000 1.724946 1.698113 1.670511 1.642152 1.613050 1.583220 1.552678 1.521443 1.489538 1.456983 1.423806 1.390033 1.355695 1.320826 1.285461 1.249637 1.213398 1.176786 1.139850 1.102637 1.065202 1.027601 0.989890 0.952132 0.914391
2.567392 2.541409 2.516232 2.491821 2.468136 2.445139 2.422798 2.401080 2.379957 2.359402 2.339394 2.319911 2.300937 2.282457 2.264460 2.246938 2.229886 2.213300 2.197183 2.181539 2.166373 2.151695 2.137520 2.123862 2.110668 2.096938 2.082351 2.066915 2.050631 2.033505 2.015540 1.996740 1.977106 1.956643 1.935353 1.913240 1.890306 1.866556 1.841994 1.816624 1.790454 1.763491 1.735742 1.707218 1.677930 1.647890 1.617114 1.585619 1.553422 1.520546 1.487014 1.452851 1.418087 1.382752 1.346881 1.310510 1.273679 1.236432 1.198813 1.160872 1.122659 1.084231 1.045645 1.006960 0.968242
2.617933 2.593179 2.569177 2.545885 2.523264 2.501278 2.479892 2.459075 2.438799 2.419039 2.399772 2.380978 2.362639 2.344744 2.327281 2.310241 2.293619 2.277415 2.261627 2.246262 2.231324 2.216824 2.202774 2.189190 2.175980 2.162158 2.147491 2.131983 2.115638 2.098459 2.080449 2.061608 2.041939 2.021443 2.000121 1.977974 1.955005 1.931214 1.906604 1.881179 1.854943 1.827899 1.800056 1.771420 1.742000 1.711807 1.680853 1.649154 1.616726 1.583588 1.549761 1.515269 1.480139 1.444401 1.408086 1.371230 1.333871 1.296049 1.257811 1.219203 1.180274 1.141081 1.101679 1.062128 1.022492
2.667195 2.643632 2.620766 2.598556 2.576964 2.555951 2.535486 2.515539 2.496079 2.477084 2.458531 2.440401 2.422677 2.405347 2.388400 2.371829 2.355628 2.339797 2.324336 2.309249 2.294542 2.280226 2.266312 2.252816 2.239594 2.225696 2.210968 2.195413 2.179031 2.161827 2.143800 2.124951 2.105279 2.084786 2.063469 2.041329 2.018366 1.994578 1.969968 1.944534 1.918280 1.891207 1.863321 1.834626 1.805130 1.774839 1.743766 1.711921 1.679321 1.645980 1.611919 1.577160 1.541727 1.505647 1.468951 1.431672 1.393847 1.355516 1.316720 1.277507 1.237927 1.198030 1.157874 1.117518 1.077025
2.716199 2.692821 2.670941 2.649771 2.629165 2.609088 2.589506 2.570390 2.551713 2.533450 2.515582 2.498088 2.480954 2.464167 2.447718 2.431600 2.415807 2.400339 2.385199 2.370387 2.355912 2.341784 2.328014 2.314617 2.301386 2.287431 2.272661 2.257079 2.240686 2.223483 2.205469 2.186643 2.167003 2.146548 2.125275 2.103182 2.080267 2.056527 2.031960 2.006566 1.980342 1.953292 1.925415 1.896715 1.867196 1.836865 1.805728 1.773797 1.741083 1.707601 1.673367 1.638402 1.602727 1.566369 1.529355 1.491717 1.453490 1.414711 1.375423 1.335670 1.295499 1.254962 1.214115 1.173016 1.131727
2.768521 2.744004 2.721043 2.699666 2.679806 2.660620 2.641880 2.623556 2.605623 2.588058 2.570840 2.553952 2.537380 2.521112 2.505139 2.489455 2.474055 2.458940 2.444110 2.429570 2.415326 2.401389 2.387769 2.374480 2.361239 2.347245 2.332453 2.316868 2.300488 2.283312 2.265340 2.246569 2.226995 2.206614 2.185422 2.163416 2.140590 2.116941 2.092464 2.067155 2.041013 2.014034 1.986219 1.957568 1.928082 1.897765 1.866623 1.834663 1.801895 1.768332 1.733986 1.698877 1.663023 1.626449 1.589181 1.551247 1.512682 1.473521 1.433804 1.393573 1.352876 1.311764 1.270289 1.228509 1.186486
2.824333 2.798619 2.774365 2.751605 2.730372 2.710706 2.692542 2.674968 2.657739 2.640832 2.624229 2.607914 2.591873 2.576097 2.560575 2.545305 2.530281 2.515503 2.500975 2.486699 2.472684 2.458938 2.445472 2.432302 2.419048 2.405030 2.390237 2.374670 2.358327 2.341207 2.323306 2.304620 2.285145 2.264874 2.243802 2.221922 2.199228 2.175713 2.151370 2.126195 2.100182 2.073326 2.045624 2.017074 1.987676 1.957430 1.926340 1.894409 1.861647 1.828062 1.793666 1.758473 1.722503 1.685777 1.648317 1.610152 1.571313 1.531833 1.491751 1.451108 1.409950 1.368325 1.326286 1.283889 1.241194
2.883499 2.856524 2.830917 2.806712 2.783950 2.762668 2.742912 2.724727 2.707992 2.691703 2.675677 2.659899 2.644357 2.629042 2.613947 2.599066 2.584399 2.569944 2.555705 2.541686 2.527894 2.514338 2.501031 2.487985 2.474714 2.460690 2.445915 2.430388 2.414107 2.397069 2.379267 2.360699 2.341356 2.321230 2.300314 2.278600 2.256078 2.232740 2.208578 2.183583 2.157746 2.131063 2.103526 2.075131 2.045874 2.015755 1.984773 1.952930 1.920232 1.886685 1.852299 1.817086 1.781062 1.744246 1.706658 1.668325 1.629276 1.589541 1.549160 1.508168 1.466613 1.424540 1.382000 1.339050 1.295747
2.945887 2.917583 2.890556 2.864844 2.840488 2.817530 2.796020 2.776004 2.757538 2.740675 2.725118 2.709840 2.694762 2.679877 2.665179 2.650665 2.636332 2.622183 2.608219 2.594447 2.580872 2.567505 2.554358 2.541433 2.528147 2.514135 2.499398 2.483933 2.467738 2.450807 2.433135 2.414713 2.395535 2.375589 2.354867 2.333357 2.311049 2.287931 2.263993 2.239224 2.213613 2.187151 2.159830 2.131642 2.102581 2.072643 2.041825 2.010128 1.977552 1.944103 1.909787 1.874615 1.838599 1.801755 1.764102 1.725665 1.686469 1.646545 1.605927 1.564652 1.522763 1.480306 1.437330 1.393890 1.350044
3.011369 2.981666 2.953150 2.925862 2.899846 2.875149 2.851821 2.829915 2.809488 2.790598 2.773306 2.757675 2.743025 2.728538 2.714208 2.700032 2.686013 2.672149 2.658446 2.644909 2.631544 2.618362 2.605375 2.592555 2.579269 2.565286 2.550605 2.535224 2.519139 2.502342 2.484826 2.466582 2.447601 2.427870 2.407377 2.386110 2.364056 2.341200 2.317530 2.293032 2.267694 2.241503 2.214447 2.186518 2.157706 2.128004 2.097406 2.065911 2.033516 2.000223 1.966037 1.930966 1.895018 1.858209 1.820555 1.782076 1.742797 1.702746 1.661956 1.620461 1.578304 1.535527 1.492179 1.448313 1.403986
3.079819 3.048643 3.018566 2.989631 2.961887 2.935383 2.910175 2.886317 2.863870 2.842896 2.823460 2.805628 2.789468 2.774966 2.760972 2.747109 2.733378 2.719781 2.706322 2.693007 2.679845 2.666843 2.654014 2.641281 2.628009 2.614072 2.599467 2.584191 2.568238 2.551601 2.534270 2.516234 2.497481 2.477998 2.457771 2.436785 2.415023 2.392471 2.369112 2.344931 2.319911 2.294038 2.267298 2.239679 2.211167 2.181755 2.151432 2.120194 2.088037 2.054959 2.020963 1.986052 1.950234 1.913520 1.875925 1.837467 1.798168 1.758055 1.717156 1.675506 1.633143 1.590110 1.546453 1.502225 1.457480
3.151115 3.118390 3.086678 3.056024 3.026481 2.998103 2.970947 2.945073 2.920545 2.897429 2.875794 2.855709 2.837245 2.820478 2.805482 2.791844 2.778376 2.765023 2.751791 2.738686 2.725715 2.712889 2.700218 2.687552 2.674308 2.660433 2.645923 2.630773 2.614976 2.598524 2.581403 2.563604 2.545112 2.525910 2.505984 2.485315 2.463885 2.441677 2.418671 2.394850 2.370194 2.344687 2.318311 2.291051 2.262892 2.233821 2.203827 2.172902 2.141039 2.108233 2.074483 2.039792 2.004163 1.967606 1.930131 1.891756 1.852499 1.812385 1.771440 1.729697 1.687192 1.643966 1.600065 1.555537 1.510437
3.225140 3.190789 3.157365 3.124918 3.093503 3.063180 3.034009 3.006054 2.979384 2.954067 2.930176 2.907783 2.886967 2.867802 2.850368 2.834743 2.820961 2.807831 2.794807 2.781897 2.769108 2.756450 2.743934 2.731316 2.718116 2.704319 2.689922 2.674919 2.659300 2.643056 2.626175 2.608641 2.590439 2.571551 2.551959 2.531643 2.510584 2.488759 2.466148 2.442729 2.418482 2.393386 2.367422 2.340570 2.312813 2.284136 2.254524 2.223965 2.192450 2.159972 2.126526 2.092112 2.056732 2.020390 1.983096 1.944864 1.905711 1.865657 1.824728 1.782954 1.740370 1.697014 1.652929 1.608165 1.562773
3.301780 3.265723 3.230510 3.196194 3.162835 3.130496 3.099241 3.069139 3.040262 3.012683 2.986480 2.961727 2.938506 2.916897 2.896981 2.878842 2.862561 2.848221 2.835333 2.822603 2.809984 2.797487 2.785123 2.772536 2.759392 2.745689 2.731423 2.716586 2.701168 2.685157 2.668539 2.651299 2.633417 2.614874 2.595650 2.575723 2.555070 2.533667 2.511490 2.488517 2.464722 2.440082 2.414575 2.388179 2.360874 2.332640 2.303461 2.273321 2.242209 2.210113 2.177027 2.142947 2.107871 2.071803 2.034749 1.996719 1.957729 1.917796 1.876944 1.835201 1.792599 1.749174 1.704969 1.660030 1.614407
3.380925 3.343084 3.306003 3.269742 3.234365 3.199937 3.166529 3.134213 3.103066 3.073165 3.044590 3.017422 2.991746 2.967645 2.945204 2.924509 2.905645 2.888699 2.873757 2.860773 2.848313 2.835970 2.823736 2.811179 2.798105 2.784513 2.770395 2.755744 2.740547 2.724793 2.708464 2.691543 2.674010 2.655843 2.637020 2.617515 2.597304 2.576361 2.554658 2.532169 2.508868 2.484728 2.459723 2.433830 2.407023 2.379282 2.350586 2.320916 2.290258 2.258598 2.225926 2.192235 2.157520 2.121783 2.085025 2.047256 2.008488 1.968735 1.928020 1.886368 1.843807 1.800375 1.756109 1.711056 1.665264
3.462471 3.422765 3.383738 3.345455 3.307985 3.271397 3.235767 3.201171 3.167690 3.135405 3.104401 3.074763 3.046579 3.019938 2.994927 2.971635 2.950152 2.930567 2.912967 2.897440 2.884074 2.871876 2.859743 2.847226 2.834236 2.820768 2.806816 2.792369 2.777416 2.761940 2.745924 2.729350 2.712193 2.694432 2.676040 2.656991 2.637256 2.616808 2.595617 2.573652 2.550885 2.527287 2.502829 2.477481 2.451220 2.424018 2.395854 2.366704 2.336550 2.305378 2.273172 2.239923 2.205624 2.170272 2.133868 2.096417 2.057927 2.018413 1.977892 1.936389 1.893930 1.850548 1.806282 1.761174 1.715273
3.546318 3.504666 3.463615 3.423235 3.383598 3.344779 3.306856 3.269913 3.234033 3.199304 3.165813 3.133651 3.102909 3.073678 3.046052 3.020123 2.995983 2.973723 2.953436 2.935210 2.919137 2.905302 2.893131 2.880667 2.867774 2.854445 2.840675 2.826451 2.811760 2.796585 2.780906 2.764702 2.747950 2.730622 2.712692 2.694129 2.674905 2.654986 2.634342 2.612940 2.590746 2.567730 2.543859 2.519102 2.493430 2.466813 2.439226 2.410645 2.381046 2.350410 2.318722 2.285967 2.252136 2.217223 2.181226 2.144147 2.105992 2.066772 2.026504 1.985206 1.942906 1.899634 1.855425 1.810321 1.764368
3.632369 3.588691 3.545540 3.502987 3.461109 3.419987 3.379705 3.340349 3.302008 3.264773 3.228738 3.193997 3.160646 3.128778 3.098493 3.069885 3.043049 3.018082 2.995077 2.974126 2.955321 2.938752 2.924287 2.911502 2.898717 2.885542 2.871969 2.857986 2.843577 2.828723 2.813404 2.797595 2.781272 2.764405 2.746965 2.728920 2.710237 2.690882 2.670820 2.650015 2.628433 2.606037 2.582794 2.558668 2.533628 2.507640 2.480676 2.452708 2.423710 2.393660 2.362538 2.330328 2.297016 2.262594 2.227056 2.190402 2.152636 2.113764 2.073802 2.032766 1.990681 1.947574 1.903479 1.858436 1.812489
3.720532 3.674752 3.629423 3.584623 3.540433 3.496939 3.454230 3.412396 3.371532 3.331732 3.293097 3.255723 3.219711 3.185160 3.152171 3.120843 3.091276 3.063567 3.037812 3.014109 2.992550 2.973220 2.955899 2.940508 2.927075 2.914068 2.900708 2.886982 2.872872 2.858360 2.843421 2.828031 2.812161 2.795781 2.778859 2.761360 2.743249 2.724489 2.705042 2.684870 2.663934 2.642196 2.619618 2.596164 2.571795 2.546479 2.520180 2.492869 2.464518 2.435099 2.404590 2.372972 2.340228 2.306346 2.271319 2.235142 2.197815 2.159345 2.119742 2.079022 2.037205 1.994318 1.950393 1.905465 1.859580