64 64
32.753029 32.184265 31.615370 31.046883 30.479359 29.912344 29.344276 28.775631 28.206934 27.639334 27.074562 26.513147 25.955587 25.401514 24.848045 24.295311 23.743809 23.194036 22.646484 22.101646 21.560032 21.022133 20.488457 19.959488 19.435730 18.917675 18.405821 17.900644 17.402641 16.912291 16.430073 15.956454 15.491915 15.036907 14.591892 14.155827 13.727583 13.308760 12.899710 12.500771 12.112277 11.734562 11.367948 11.012746 10.669268 10.337814 10.018678 9.712150 9.418460 9.135130 8.860723 8.595496 8.337219 8.083655 7.835033 7.591595 7.353572 7.121197 6.894707 6.674327 6.460291 6.252827 6.052156 5.858505 5.672095
32.243622 31.673063 31.102577 30.532711 29.964008 29.396822 28.829380 28.261530 27.693823 27.126797 26.561291 25.999163 25.441057 24.886278 24.332117 23.778885 23.227072 22.677185 22.129709 21.585159 21.044014 20.506788 19.973974 19.446068 18.923569 18.406967 17.896761 17.393429 16.897465 16.409346 15.929548 15.458551 14.996817 14.544806 14.102974 13.669476 13.242642 12.823419 12.414004 12.014897 11.626445 11.248965 10.882789 10.528228 10.185595 9.855189 9.537304 9.232225 8.940230 8.659409 8.387695 8.125133 7.868476 7.616737 7.370160 7.128973 6.893412 6.663709 6.440097 6.222805 6.012058 5.808088 5.611112 5.421356 5.239038
31.727413 31.155365 30.583601 30.012655 29.443085 28.875431 28.308889 27.742142 27.175720 26.610163 26.046019 25.483902 24.925589 24.370329 23.815752 23.262302 22.710472 22.160751 21.613647 21.069656 20.529276 19.993006 19.461340 18.934784 18.413824 17.898966 17.390692 16.889490 16.395845 15.910240 15.433154 14.965050 14.506400 14.057658 13.619170 13.188408 12.764508 12.347903 11.939093 11.540093 11.151939 10.774962 10.409487 10.055828 9.714295 9.385188 9.068802 8.765422 8.475326 8.197153 7.928332 7.668163 7.413272 7.163513 6.919123 6.680332 6.447377 6.220486 5.999890 5.785816 5.578497 5.378148 5.184997 4.999258 4.821155
31.204956 30.631727 30.058981 29.487268 28.917133 28.349134 27.783403 27.218050 26.653210 26.089417 25.527227 24.967169 24.409796 23.854271 23.299564 22.746176 22.194605 21.645344 21.098892 20.555746 20.016413 19.481384 18.951155 18.426233 17.907106 17.394270 16.888210 16.389420 15.898376 15.415567 14.941463 14.476531 14.021241 13.576048 13.140964 12.713164 12.292431 11.879192 11.473873 11.076902 10.689371 10.313159 9.948645 9.596143 9.255961 8.928407 8.613768 8.312330 8.024372 7.748977 7.483239 7.225143 6.972169 6.724537 6.482480 6.246231 6.016019 5.792079 5.574636 5.363917 5.160150 4.963552 4.774348 4.592751 4.418979
30.676813 30.102699 29.529282 28.957108 28.386726 27.818682 27.253515 26.689848 26.126883 25.565155 25.005213 24.447594 23.892807 23.338608 22.784159 22.231117 21.680094 21.131569 20.586052 20.044041 19.506035 18.972530 18.444027 17.921017 17.404003 16.893471 16.389908 15.893806 15.405650 14.925911 14.455069 13.993586 13.541928 13.100554 12.668906 12.244300 11.826958 11.417306 11.015773 10.622779 10.238744 9.864147 9.500852 9.149763 8.811191 8.485434 8.172791 7.873538 7.587956 7.315478 7.052848 6.796626 6.545718 6.300358 6.060777 5.827209 5.599882 5.379027 5.164870 4.957636 4.757545 4.564827 4.379690 4.202355 4.033031
30.143547 29.568859 28.995071 28.422743 27.852421 27.284643 26.719980 26.158142 25.597347 25.037977 24.480576 23.925690 23.373671 22.821877 22.269703 21.717735 21.167534 20.620035 20.075737 19.535145 18.998749 18.467051 17.940548 17.419741 16.905117 16.397167 15.896385 15.403253 14.918253 14.441865 13.974554 13.516792 13.069039 12.631754 12.203534 11.782355 11.368632 10.962794 10.565268 10.176470 9.796820 9.426725 9.066589 8.717276 8.380559 8.056851 7.746445 7.449620 7.166654 6.897241 6.637363 6.383146 6.134450 5.891506 5.654546 5.423796 5.199490 4.981853 4.771113 4.567491 4.371210 4.182487 4.001539 3.828578 3.663816
29.605742 29.030779 28.456934 27.884760 27.314798 26.747602 26.183729 25.623550 25.065208 24.508486 23.953926 23.402061 22.852978 22.303837 21.754515 21.205559 20.657511 20.111351 19.568558 19.029659 18.495159 17.965553 17.441334 16.923000 16.411049 15.905964 15.408237 14.918349 14.436782 13.964012 13.500508 13.046738 12.603158 12.170155 11.745400 11.327868 10.917986 10.516187 10.122887 9.738504 9.363455 8.998141 8.642975 8.298345 7.964640 7.643227 7.335297 7.041142 6.761025 6.494842 6.237290 5.985231 5.738892 5.498505 5.264302 5.036512 4.815358 4.601072 4.393877 4.193994 4.001639 3.817032 3.640389 3.471918 3.311827
29.063974 28.489046 27.915451 27.343731 26.774446 26.208143 25.645372 25.086683 24.531084 23.977301 23.425867 22.877319 22.331305 21.785069 21.238853 20.693199 20.148651 19.605762 19.065121 18.528202 17.995874 17.468632 16.946978 16.431404 15.922397 15.420453 14.926057 14.439688 13.961825 13.492947 13.033515 12.584002 12.144855 11.716121 11.295043 10.881382 10.475565 10.078019 9.689160 9.309409 8.939172 8.578856 8.228863 7.889582 7.561395 7.244689 6.939912 6.648657 6.371625 6.108594 5.853148 5.603387 5.359550 5.121861 4.890553 4.665855 4.447989 4.237182 4.033657 3.837633 3.649327 3.468956 3.296730 3.132856 2.977541
28.518852 27.944262 27.371212 26.800261 26.231960 25.666853 25.105490 24.548429 23.995598 23.445038 22.897022 22.352081 21.809246 21.266159 20.723297 20.181196 19.640400 19.101456 18.564907 18.031313 17.501497 16.976904 16.458090 15.945546 15.439762 14.941232 14.450437 13.967854 13.493969 13.029246 12.574158 12.129160 11.694714 11.270180 10.853000 10.443426 10.041893 9.648817 9.264617 8.889704 8.524490 8.169376 7.824761 7.491030 7.168567 6.857746 6.558939 6.272504 5.998993 5.738632 5.485433 5.238117 4.996920 4.762067 4.533792 4.312315 4.097864 3.890664 3.690933 3.498890 3.314750 3.138724 2.971024 2.811857 2.661421
27.970974 27.397018 26.824825 26.254950 25.687935 25.124331 24.564690 24.009560 23.459379 22.912327 22.368008 21.826958 21.287388 20.747702 20.208441 19.670137 19.133341 18.598589 18.066427 17.537405 17.012070 16.490969 15.975266 15.466026 14.963738 14.468891 13.981965 13.503442 13.033794 12.573497 12.123011 11.682792 11.253300 10.832863 10.419798 10.014533 9.617496 9.229103 8.849769 8.479908 8.119925 7.770216 7.431175 7.103191 6.786644 6.481904 6.189337 5.909297 5.642110 5.385314 5.134629 4.889901 4.651482 4.419603 4.194490 3.976367 3.765461 3.561990 3.366173 3.178226 2.998364 2.826796 2.663732 2.509371 2.363915
27.420940 26.847927 26.276901 25.708399 25.142977 24.581182 24.023567 23.470678 22.923065 22.379799 21.839457 21.302462 20.766329 20.230289 19.694874 19.160610 18.628054 18.097742 17.570211 17.046015 16.525688 16.009781 15.498836 14.993443 14.494923 14.004024 13.521236 13.047032 12.581888 12.126273 11.680645 11.245466 10.820998 10.404699 9.995968 9.595226 9.202896 8.819397 8.445138 8.080530 7.725978 7.381874 7.048608 6.726564 6.416123 6.117650 5.831505 5.558043 5.297028 5.045297 4.799801 4.559088 4.323704 4.094931 3.873114 3.658472 3.451233 3.251611 3.059826 2.876091 2.700619 2.533615 2.375286 2.225833 2.085452
26.869379 26.297613 25.728046 25.161226 24.597698 24.038021 23.482733 22.932390 22.387537 21.848080 21.311998 20.779123 20.246675 19.714514 19.183182 18.653210 18.125134 17.599499 17.076839 16.557709 16.042633 15.532166 15.026836 14.527194 14.033768 13.547217 13.068830 12.599210 12.138829 11.688152 11.247640 10.817748 10.398154 9.986217 9.582030 9.186021 8.798607 8.420209 8.051227 7.692078 7.343152 7.004847 6.677549 6.361639 6.057489 5.765465 5.485925 5.219215 4.963752 4.717212 4.477261 4.242261 4.012512 3.788317 3.570105 3.359071 3.155620 2.959967 2.772328 2.592917 2.421939 2.259604 2.106112 1.961662 1.826449
26.316904 25.746685 25.178881 24.614042 24.052719 23.495457 22.942804 22.395308 21.853514 21.317808 20.786268 20.257545 19.729010 19.200974 18.673964 18.148518 17.625162 17.104446 16.586899 16.073065 15.563482 15.058686 14.559216 14.065604 13.578387 13.098093 12.625249 12.160546 11.705186 11.259703 10.824556 10.400202 9.985302 9.577930 9.178497 8.787430 8.405138 8.032040 7.668541 7.315042 6.971940 6.639627 6.318487 6.008893 5.711217 5.425823 5.153061 4.893002 4.642691 4.401472 4.167156 3.937955 3.714163 3.496081 3.284001 3.078220 2.879045 2.687476 2.504096 2.329114 2.162739 2.005171 1.856614 1.717261 1.587304
25.764143 25.195768 24.630026 24.067472 23.508650 22.954103 22.404385 21.860039 21.321606 20.789631 20.262901 19.738331 19.213947 18.690264 18.167816 17.647123 17.128731 16.613163 16.100964 15.592664 15.088804 14.589914 14.096531 13.609184 13.128407 12.654724 12.188659 11.730730 11.281450 10.841485 10.411954 9.993243 9.582943 9.180350 8.785879 8.399956 8.022989 7.655394 7.297569 6.949917 6.612832 6.286697 5.971894 5.668801 5.377779 5.099186 4.833374 4.579279 4.334244 4.098472 3.869879 3.646561 3.428811 3.216919 3.011182 2.811886 2.619319 2.433764 2.255502 2.085085 1.923411 1.770709 1.627180 1.493009 1.368395
25.211731 24.645494 24.082119 23.522148 22.966122 22.414595 21.868107 21.327204 20.792433 20.264326 19.742462 19.222082 18.702082 18.182987 17.665327 17.149626 16.636421 16.126238 15.619617 15.117082 14.619173 14.126419 13.639350 13.158497 12.684383 12.217535 11.758468 11.307699 10.865743 10.433098 10.010272 9.597096 9.191594 8.793982 8.404676 8.024097 7.652654 7.290755 6.938799 6.597183 6.266298 5.946527 5.638247 5.341828 5.057629 4.786010 4.527179 4.278423 4.038798 3.808602 3.585816 3.368461 3.156829 2.951208 2.751884 2.559146 2.373274 2.194547 2.023244 1.859638 1.703997 1.556591 1.418177 1.289279 1.170087
24.660292 24.096497 23.535780 22.978683 22.425755 21.877542 21.334581 20.797424 20.266603 19.742666 19.225378 18.709402 18.194012 17.679735 17.167097 16.656614 16.148825 15.644258 15.143434 14.646895 14.155161 13.668768 13.188235 12.714096 12.246868 11.787071 11.335222 10.891832 10.457409 10.032449 9.617455 9.211051 8.811514 8.419320 8.035381 7.660344 7.294619 6.938607 6.592708 6.257314 5.932812 5.619582 5.317998 5.028426 4.751224 4.486742 4.234194 3.990813 3.756730 3.532241 3.315341 3.104028 2.898589 2.699307 2.506467 2.320352 2.141238 1.969403 1.805117 1.648650 1.500267 1.360227 1.228787 1.106198 0.992723
24.110470 23.549408 22.991644 22.437721 21.888186 21.343576 20.804441 20.271315 19.744745 19.225262 18.712244 18.200899 17.690346 17.181110 16.673712 16.168674 15.666529 15.167793 14.673000 14.182671 13.697338 13.217523 12.743750 12.276540 11.816416 11.363886 10.919467 10.483665 10.056981 9.639914 9.232746 8.833053 8.440387 8.055210 7.677984 7.309160 6.949356 6.599420 6.259763 5.930771 5.612832 5.306318 5.011601 4.729045 4.459001 4.201730 3.954700 3.716828 3.488415 3.269754 3.058817 2.853618 2.654442 2.461568 2.275278 2.095849 1.923553 1.758663 1.601449 1.452172 1.311094 1.178471 1.054553 0.939586 0.833812
23.562904 23.004868 22.450348 21.899889 21.354036 20.813324 20.278301 19.749502 19.227463 18.712725 18.203671 17.697166 17.191669 16.687702 16.185770 15.686401 15.190110 14.697433 14.208882 13.724987 13.246270 12.773251 12.306449 11.846382 11.393566 10.948518 10.511735 10.083726 9.664991 9.256018 8.856302 8.463490 8.077865 7.699885 7.330006 6.968678 6.616344 6.273448 5.940423 5.618013 5.306807 5.007179 4.719499 4.444118 4.181392 3.930619 3.689062 3.456825 3.234209 3.021497 2.816593 2.617579 2.424732 2.238330 2.058650 1.885964 1.720542 1.562651 1.412556 1.270517 1.136787 1.011619 0.895259 0.787948 0.689924
23.018232 22.463507 21.912527 21.365822 20.823940 20.287415 19.756792 19.232605 18.715389 18.205490 17.700417 17.198807 16.698593 16.200100 15.703856 15.210365 14.720157 14.233748 13.751657 13.274406 12.802518 12.336505 11.876884 11.424170 10.978875 10.541503 10.112563 9.692548 9.281956 8.881254 8.488594 8.102823 7.724403 7.353782 6.991412 6.637738 6.293202 5.958240 5.633277 5.318738 5.015041 4.722604 4.442115 4.174073 3.918726 3.673588 3.437633 3.211158 2.994457 2.787810 2.589010 2.396245 2.209790 2.029921 1.856908 1.691018 1.532521 1.381676 1.238746 1.103984 0.977640 0.859962 0.751193 0.651568 0.561317
22.477098 21.925978 21.378817 20.836153 20.298525 19.766476 19.240534 18.721245 18.209131 17.703951 17.203106 16.706421 16.211697 15.718906 15.228552 14.741159 14.257239 13.777313 13.301893 12.831496 12.366642 11.907842 11.455606 11.010448 10.572871 10.143380 9.722478 9.310652 8.908395 8.515697 8.130081 7.751519 7.380458 7.017352 6.662646 6.316779 5.980191 5.653306 5.336555 5.030353 4.735110 4.451231 4.179111 3.919137 3.670559 3.430990 3.200759 2.980166 2.769497 2.569021 2.376391 2.189936 2.009934 1.836651 1.670355 1.511314 1.359788 1.216034 1.080309 0.952860 0.833937 0.723781 0.622628 0.530710 0.448254
21.940142 21.392910 20.849857 20.311512 19.778427 19.251131 18.730156 18.216042 17.709311 17.208693 16.712322 16.220602 15.731578 15.244691 14.760448 14.279357 13.801939 13.328697 12.860151 12.396815 11.939197 11.487812 11.043160 10.605754 10.176096 9.754682 9.342004 8.938556 8.544824 8.159639 7.781227 7.410024 7.046479 6.691041 6.344148 6.006237 5.677736 5.359077 5.050676 4.752944 4.466287 4.191109 3.927794 3.676574 3.434918 3.202069 2.978360 2.764112 2.559655 2.365451 2.179047 1.998963 1.825466 1.658822 1.499295 1.347146 1.202633 1.066008 0.937522 0.817421 0.705947 0.603337 0.509823 0.425632 0.350985
21.408010 20.864946 20.326277 19.792542 19.264273 18.742010 18.226280 17.717613 17.216402 16.720282 16.228622 15.741931 15.258821 14.778045 14.300114 13.825533 13.354814 12.888463 12.426995 11.970914 11.520734 11.076958 10.640086 10.210627 9.789073 9.375920 8.971658 8.576775 8.191512 7.813533 7.442478 7.078788 6.722910 6.375286 6.036351 5.706533 5.386265 5.075964 4.776045 4.486916 4.208976 3.942621 3.688235 3.444790 3.210007 2.984154 2.767557 2.560535 2.363401 2.176390 1.996836 1.823502 1.656676 1.496720 1.344006 1.198792 1.061328 0.931866 0.810652 0.697925 0.593925 0.498882 0.413024 0.336574 0.269748
20.881029 20.342718 19.808718 19.279863 18.756689 18.239733 17.729515 17.226576 16.730679 16.239288 15.752578 15.271063 14.794006 14.319543 13.848126 13.380254 12.916434 12.457172 12.002976 11.554351 11.111797 10.675819 10.246918 9.825588 9.412327 9.007621 8.611954 8.225810 7.848466 7.477834 7.114282 6.758251 6.410184 6.070515 5.739676 5.418092 5.106189 4.804378 4.513070 4.232667 3.963566 3.706155 3.460493 3.223955 2.996140 2.777376 2.567983 2.368275 2.178561 1.999007 1.826778 1.660864 1.501551 1.349125 1.203866 1.066049 0.935947 0.813826 0.699948 0.594620 0.498113 0.410653 0.332465 0.263764 0.204763
20.356121 19.824696 19.297153 18.774082 18.256304 17.744921 17.240492 16.743542 16.252707 15.766275 15.284754 14.808641 14.337708 13.869760 13.405049 12.944080 12.487352 12.035375 11.588641 11.147656 10.712920 10.284929 9.864182 9.451168 9.046373 8.650290 8.263393 7.886046 7.516114 7.152976 6.797073 6.448845 6.108728 5.777151 5.454544 5.141325 4.837914 4.544720 4.262144 3.990590 3.730443 3.482087 3.243971 3.014372 2.793620 2.582034 2.379931 2.187621 2.005408 1.833354 1.668477 1.510010 1.358236 1.213433 1.075876 0.945837 0.823582 0.709373 0.603465 0.506111 0.417556 0.338038 0.267791 0.207040 0.155651
19.832825 19.308531 18.788307 18.272739 17.762417 17.257912 16.759815 16.268908 15.783045 15.301811 14.825705 14.355228 13.890497 13.429255 12.971447 12.517571 12.068129 11.623615 11.184533 10.751375 10.324636 9.904814 9.492396 9.087871 8.691723 8.304433 7.926474 7.557356 7.194901 6.839397 6.491285 6.150994 5.818961 5.495607 5.181361 4.876632 4.581837 4.297377 4.023654 3.761060 3.509979 3.270118 3.038911 2.816346 2.602742 2.398420 2.203689 2.018856 1.844217 1.679693 1.522194 1.371198 1.226981 1.089817 0.959978 0.837729 0.723331 0.617041 0.519109 0.429782 0.349299 0.277895 0.215625 0.161667 0.116004
19.311749 18.794823 18.282146 17.774313 17.271900 16.775482 16.285637 15.801935 15.322074 14.846443 14.375981 13.911365 13.452939 12.998590 12.547873 12.101277 11.659301 11.222439 10.791185 10.366032 9.947470 9.535989 9.132073 8.736209 8.348872 7.970539 7.601610 7.240095 6.885253 6.537522 6.197331 5.865113 5.541292 5.226292 4.920526 4.624410 4.338346 4.062739 3.797978 3.544453 3.302463 3.069818 2.845610 2.630163 2.423793 2.226815 2.039534 1.862251 1.695260 1.538278 1.388176 1.244668 1.108024 0.978514 0.856403 0.741951 0.635415 0.537045 0.447089 0.365786 0.293268 0.228818 0.172374 0.124088 0.084105
18.793514 18.284170 17.779276 17.279398 16.785118 16.297009 15.815623 15.339170 14.866570 14.398372 13.935118 13.477353 13.025592 12.578318 12.134868 11.695736 11.261406 10.832374 10.409124 9.992151 9.581934 9.178964 8.783720 8.396678 8.018317 7.649103 7.288612 6.934690 6.587596 6.247766 5.915628 5.591608 5.276124 4.969594 4.672431 4.385040 4.107823 3.841175 3.585481 3.341128 3.107158 2.881475 2.664352 2.456108 2.257050 2.067492 1.887734 1.718071 1.558793 1.409348 1.266661 1.130653 1.001595 0.879745 0.765367 0.658716 0.560042 0.469592 0.387509 0.313159 0.246514 0.187734 0.136973 0.094380 0.060095
18.278742 17.777206 17.280298 16.788597 16.302668 15.823086 15.349912 14.880724 14.415574 13.955005 13.499561 13.049779 12.606197 12.167545 11.732433 11.301394 10.874975 10.453943 10.038870 9.630239 9.228537 8.834243 8.447828 8.069771 7.700538 7.340517 6.987756 6.641554 6.302339 5.970539 5.646578 5.330876 5.023846 4.725905 4.437456 4.158902 3.890634 3.633049 3.386525 3.150999 2.924007 2.705373 2.495415 2.294449 2.102781 1.920714 1.748547 1.586571 1.435066 1.293133 1.157873 1.029377 0.907908 0.793725 0.687081 0.588229 0.497262 0.413621 0.337371 0.268681 0.207713 0.154624 0.109565 0.072681 0.044074
17.768045 17.274532 16.785830 16.302517 15.825153 15.354302 14.888866 14.427130 13.969616 13.516863 13.069411 12.627791 12.192538 11.762840 11.336867 10.915111 10.498088 10.086326 9.680342 9.280652 8.887774 8.502311 8.124887 7.755962 7.396009 7.044521 6.699451 6.361098 6.029885 5.706236 5.390571 5.083301 4.784842 4.495597 4.215970 3.946353 3.687141 3.438714 3.201410 2.973269 2.753286 2.541780 2.339066 2.145452 1.961243 1.786735 1.622223 1.467991 1.324320 1.189856 1.062030 0.941049 0.827173 0.720653 0.621436 0.529123 0.443878 0.365876 0.295289 0.232279 0.177007 0.129474 0.089700 0.057789 0.033556
17.262047 16.776762 16.296476 15.821756 15.353162 14.891016 14.433037 13.978928 13.529226 13.084470 12.645185 12.211905 11.785157 11.364491 10.947795 10.535455 10.127985 9.725902 9.329720 8.939952 8.557104 8.181684 7.814187 7.455111 7.104815 6.761303 6.424100 6.093718 5.770627 5.455247 5.147989 4.849267 4.559483 4.279040 4.008333 3.747755 3.497689 3.258514 3.029330 2.808156 2.595260 2.390959 2.195560 2.009368 1.832684 1.665799 1.509000 1.362570 1.226783 1.099723 0.979333 0.865843 0.758938 0.658582 0.564961 0.478207 0.398405 0.325699 0.260227 0.202120 0.151501 0.108487 0.073187 0.045681 0.025351
16.761362 16.284508 15.812841 15.346916 14.887294 14.433315 13.982952 13.536647 13.094939 12.658347 12.227405 11.802636 11.384561 10.973010 10.565728 10.162937 9.765144 9.372872 8.986620 8.606895 8.234204 7.869040 7.511898 7.163271 6.822438 6.487621 6.159212 5.837653 5.523384 5.216840 4.918450 4.628636 4.347816 4.076401 3.814796 3.563400 3.322598 3.092255 2.870047 2.655919 2.450186 2.253160 2.065144 1.886434 1.717322 1.558089 1.409009 1.270348 1.142325 1.022156 0.907926 0.799812 0.697985 0.602614 0.513859 0.431878 0.356817 0.288820 0.228022 0.174550 0.128526 0.090065 0.059271 0.035986 0.019541
16.266607 15.798382 15.335527 14.878596 14.428021 13.981726 13.539148 13.100822 12.667270 12.239017 11.816581 11.400489 10.991255 10.588920 10.191171 9.798051 9.410066 9.027721 8.651519 8.281960 7.919540 7.564751 7.218078 6.879737 6.547642 6.221617 5.902100 5.589530 5.284338 4.986958 4.697805 4.417304 4.145864 3.883891 3.631782 3.389930 3.158598 2.935721 2.720663 2.513743 2.315273 2.125559 1.944900 1.773589 1.611910 1.460140 1.318371 1.186435 1.064333 0.949103 0.839794 0.736582 0.639639 0.549129 0.465211 0.388038 0.317754 0.254500 0.198409 0.149606 0.108209 0.074330 0.048049 0.028763 0.015428
15.778392 15.318990 14.865138 14.417390 13.975314 13.536780 13.102160 12.671977 12.246751 11.826996 11.413232 11.005977 10.605741 10.212717 9.824623 9.441296 9.063232 8.690933 8.324897 7.965614 7.613579 7.269273 6.933178 6.604129 6.280814 5.963674 5.653141 5.349648 5.053623 4.765488 4.485661 4.214555 3.952575 3.700120 3.457583 3.225350 3.002068 2.786348 2.578510 2.378865 2.187724 2.005386 1.832145 1.668048 1.513102 1.367530 1.231551 1.105371 0.988725 0.878467 0.774116 0.675844 0.583821 0.498207 0.419159 0.346827 0.281352 0.222874 0.171520 0.127413 0.090671 0.061401 0.039425 0.023496 0.011721
15.297326 14.846932 14.402274 13.963817 13.529625 13.099019 12.672516 12.250635 11.833893 11.422796 11.017860 10.619596 10.228511 9.844909 9.466582 9.093159 8.725127 8.362985 8.007220 7.658323 7.316775 6.983054 6.657070 6.336781 6.022333 5.714166 5.412703 5.118372 4.831594 4.552790 4.282365 4.020730 3.768284 3.525420 3.292525 3.069000 2.852878 2.644384 2.443830 2.251438 2.067234 1.891456 1.724348 1.566150 1.417091 1.277393 1.147269 1.026923 0.915658 0.810407 0.711048 0.617750 0.530678 0.449993 0.375845 0.308384 0.247748 0.194071 0.147481 0.108099 0.076035 0.051360 0.032955 0.018701 0.008443
14.824018 14.382814 13.947525 13.517783 13.091484 12.668967 12.250742 11.837318 11.429210 11.026925 10.630970 10.241848 9.860058 9.485988 9.117538 8.754123 8.396228 8.044344 7.698956 7.360541 7.029579 6.706474 6.389513 6.078070 5.772577 5.473463 5.181150 4.896060 4.618607 4.349204 4.088256 3.836163 3.593319 3.360111 3.136438 2.920019 2.710698 2.508755 2.314460 2.128080 1.949872 1.780086 1.618966 1.466747 1.323655 1.189908 1.065716 0.951278 0.845293 0.745081 0.650744 0.562449 0.480359 0.404630 0.335411 0.272846 0.217074 0.168224 0.126422 0.091785 0.064423 0.043658 0.027033 0.014349 0.005636
14.359066 13.927229 13.501398 13.079681 12.661427 12.247147 11.837349 11.432537 11.033215 10.639887 10.253058 9.873221 9.500873 9.136445 8.777969 8.424663 8.077005 7.735477 7.400557 7.072718 6.752433 6.439037 6.130888 5.828371 5.531910 5.241926 4.958838 4.683062 4.415005 4.155021 3.903424 3.660577 3.426842 3.202380 2.985167 2.774785 2.571517 2.375637 2.187413 2.007108 1.834975 1.671262 1.516208 1.370044 1.232993 1.105270 0.987082 0.878622 0.777789 0.682644 0.593356 0.510092 0.433008 0.362260 0.297993 0.240349 0.189463 0.145462 0.108468 0.078595 0.055460 0.036571 0.021569 0.010484 0.003344
13.900226 13.478645 13.062212 12.648944 12.239226 11.833594 11.432550 11.036618 10.646310 10.262135 9.884596 9.514195 9.151429 8.796758 8.448354 8.105249 7.767917 7.436831 7.112454 6.795252 6.485304 6.180646 5.881263 5.587563 5.299952 5.018825 4.744581 4.477606 4.218284 3.966989 3.724094 3.489955 3.264893 3.047215 2.836102 2.631840 2.434704 2.244966 2.062893 1.888740 1.722759 1.565193 1.416278 1.276242 1.145304 1.023675 0.911557 0.809029 0.713302 0.623249 0.539035 0.460824 0.388771 0.323025 0.263731 0.211028 0.165046 0.125911 0.093741 0.068216 0.047175 0.029961 0.016610 0.007151 0.001613
13.445076 13.033834 12.626197 12.221739 11.820979 11.424427 11.032596 10.645999 10.265139 9.890524 9.522650 9.162011 8.809099 8.464386 8.126171 7.793328 7.466320 7.145612 6.831669 6.524908 6.223792 5.927602 5.636741 5.351614 5.072618 4.800149 4.534597 4.276341 4.025762 3.783230 3.549108 3.323755 3.105935 2.894415 2.689484 2.491417 2.300491 2.116972 1.941123 1.773195 1.613438 1.462090 1.319384 1.185544 1.060785 0.945314 0.839332 0.742586 0.651988 0.567049 0.487930 0.414792 0.347787 0.287063 0.232759 0.185012 0.143951 0.109696 0.081867 0.058702 0.039387 0.023876 0.012203 0.004398 0.000488
12.994203 12.592496 12.193653 11.798136 11.406453 11.019110 10.636618 10.259481 9.888195 9.523262 9.165177 8.814425 8.471490 8.136845 7.808902 7.486398 7.169794 6.859547 6.556115 6.258862 5.966228 5.678579 5.396314 5.119833 4.849528 4.585789 4.328999 4.079533 3.837767 3.604066 3.378786 3.161118 2.949508 2.744225 2.545546 2.353751 2.169106 1.991878 1.822322 1.660689 1.507224 1.362161 1.225730 1.098150 0.979633 0.870383 0.770596 0.679449 0.594000 0.514192 0.440186 0.372139 0.310198 0.254509 0.205211 0.162433 0.126303 0.096327 0.071014 0.049710 0.032148 0.018366 0.008398 0.002271 0.000013
12.548593 12.155031 11.765107 11.378650 10.996166 10.618155 10.245121 9.877562 9.515971 9.160842 8.812658 8.471908 8.139062 7.814597 7.497002 7.184911 6.878783 6.579074 6.285781 5.997058 5.712977 5.433940 5.160339 4.892573 4.631026 4.376083 4.128121 3.887511 3.654623 3.429815 3.212570 3.001183 2.795860 2.596883 2.404530 2.219073 2.040779 1.869909 1.706713 1.551442 1.404332 1.265617 1.135520 1.014259 0.902043 0.799071 0.705535 0.619774 0.539489 0.464828 0.395949 0.333004 0.276141 0.225499 0.181215 0.143417 0.111431 0.083987 0.060793 0.041291 0.025508 0.013481 0.005241 0.000817 0.000000
12.108659 11.722397 11.341082 10.963800 10.590631 10.222068 9.858606 9.500740 9.148955 8.803739 8.465571 8.134931 7.812286 7.498104 7.190921 6.889316 6.593735 6.304524 6.020041 5.739868 5.464405 5.194043 4.929173 4.670185 4.417459 4.171372 3.932299 3.700604 3.476651 3.260124 3.049262 2.844202 2.645232 2.452629 2.266667 2.087615 1.915737 1.751287 1.594514 1.445664 1.304970 1.172661 1.048957 0.934073 0.828210 0.731568 0.644267 0.563711 0.488602 0.419100 0.355358 0.297527 0.245749 0.200164 0.160901 0.127021 0.097571 0.072504 0.051173 0.033499 0.019519 0.009270 0.002782 0.000083 0.000000
11.674842 11.295966 10.922307 10.554104 10.190358 9.831351 9.477572 9.129505 8.787635 8.452438 8.124393 7.803966 7.491625 7.187823 6.891120 6.600059 6.315084 6.035159 5.759221 5.487662 5.220875 4.959248 4.703167 4.453014 4.209164 3.971991 3.741862 3.519138 3.303630 3.093583 2.889086 2.690419 2.497866 2.311700 2.132193 1.959610 1.794206 1.636236 1.485944 1.343572 1.209349 1.083500 0.966242 0.857784 0.758327 0.668064 0.586766 0.511410 0.441486 0.377151 0.318554 0.265842 0.219156 0.178593 0.142943 0.111632 0.084711 0.061665 0.042209 0.026386 0.014232 0.005782 0.001068 0.000000 0.000000
11.247638 10.876243 10.510234 10.150132 9.795856 9.446509 9.102513 8.764349 8.432491 8.107417 7.789590 7.479475 7.177531 6.884210 6.598039 6.317576 6.042428 5.771030 5.503692 5.240801 4.982746 4.729909 4.482670 4.241404 4.006481 3.778272 3.557136 3.342955 3.134012 2.930362 2.732290 2.540079 2.354004 2.174335 2.001341 1.835281 1.676409 1.524975 1.381219 1.245376 1.117675 0.998337 0.887573 0.785589 0.692583 0.608744 0.533164 0.463016 0.398284 0.339120 0.285672 0.238084 0.196319 0.159047 0.126019 0.097301 0.072640 0.051514 0.033955 0.020004 0.009698 0.003070 0.000150 0.000000 0.000000
10.827529 10.463715 10.105453 9.753252 9.407625 9.068037 8.733921 8.405755 8.084009 7.769147 7.461633 7.161922 6.870467 6.587712 6.312122 6.041896 5.775329 5.512508 5.253820 4.999648 4.750376 4.506375 4.268023 4.035691 3.809744 3.590544 3.377993 3.170430 2.967908 2.770712 2.579126 2.393425 2.213883 2.040768 1.874341 1.714858 1.562570 1.417722 1.280551 1.151287 1.030156 0.917374 0.813148 0.717682 0.631168 0.553790 0.483610 0.418673 0.359135 0.305144 0.256846 0.213936 0.175190 0.140589 0.110205 0.083974 0.061290 0.042107 0.026466 0.014408 0.005969 0.001182 0.000000 0.000000 0.000000
10.414990 10.058857 9.708430 9.364228 9.026751 8.696430 8.372287 8.054213 7.742661 7.438101 7.140985 6.851761 6.570878 6.298769 6.033643 5.772179 5.514157 5.259959 5.009969 4.764560 4.524110 4.288991 4.059571 3.836215 3.619282 3.408655 3.202738 3.001612 2.805566 2.614882 2.429834 2.250699 2.077744 1.911232 1.751422 1.598565 1.452909 1.314694 1.184152 1.061512 0.946993 0.840807 0.743162 0.654251 0.574266 0.503202 0.438247 0.378521 0.324175 0.275355 0.231307 0.191231 0.155203 0.123295 0.095548 0.071419 0.050721 0.033499 0.019795 0.009650 0.003097 0.000168 0.000000 0.000000 0.000000
10.010509 9.662138 9.319641 8.983520 8.654278 8.332410 8.018094 7.710190 7.408922 7.114743 6.828105 6.549449 6.279212 6.017785 5.761676 5.508715 5.259280 5.013748 4.772492 4.535888 4.304301 4.078100 3.857648 3.643302 3.434876 3.230860 3.031392 2.836758 2.647241 2.463116 2.284659 2.112138 1.945817 1.785956 1.632809 1.486624 1.347643 1.216103 1.092233 0.976256 0.868387 0.768837 0.677805 0.595485 0.522062 0.456945 0.397214 0.342695 0.293429 0.248299 0.207039 0.169727 0.136438 0.107244 0.081783 0.059681 0.040987 0.025746 0.013999 0.005782 0.001132 0.000000 0.000000 0.000000 0.000000
9.614545 9.274028 8.939544 8.611588 8.290659 7.977252 7.671849 7.374165 7.083254 6.799533 6.523446 6.255429 5.995914 5.743947 5.496292 5.251871 5.011060 4.774229 4.541746 4.313976 4.091288 3.874036 3.662583 3.456610 3.254741 3.057180 2.864213 2.676120 2.493180 2.315663 2.143842 1.977979 1.818337 1.665170 1.518728 1.379254 1.246988 1.122161 1.004999 0.895721 0.794538 0.701654 0.617268 0.541568 0.474735 0.415161 0.360646 0.310853 0.264786 0.222487 0.184034 0.149506 0.118976 0.092271 0.068877 0.048820 0.032148 0.018904 0.009129 0.002859 0.000127 0.000000 0.000000 0.000000 0.000000
9.227569 8.894981 8.568589 8.248881 7.936347 7.631474 7.334742 7.046605 6.766120 6.492927 6.227458 5.970147 5.720420 5.477025 5.237857 5.002012 4.769857 4.541755 4.318074 4.099170 3.885405 3.677132 3.473835 3.274348 3.078934 2.887877 2.701457 2.519949 2.343627 2.172761 2.007618 1.848456 1.695532 1.549097 1.409398 1.276672 1.151156 1.033076 0.922655 0.820106 0.725637 0.639450 0.561736 0.492681 0.432325 0.377947 0.327512 0.280652 0.237455 0.198004 0.162376 0.130649 0.102774 0.078199 0.056889 0.038894 0.024260 0.013029 0.005241 0.000931 0.000000 0.000000 0.000000 0.000000 0.000000
8.850035 8.525458 8.207231 7.895839 7.591768 7.295502 7.007512 6.728271 6.457975 6.195372 5.940582 5.693292 5.452166 5.217391 4.986736 4.759491 4.536017 4.316673 4.101816 3.891803 3.686984 3.486547 3.289667 3.096630 2.907715 2.723204 2.543370 2.368489 2.198828 2.034652 1.876222 1.723798 1.577627 1.437960 1.305035 1.179091 1.060354 0.949052 0.845399 0.749607 0.661879 0.582411 0.511393 0.449005 0.394276 0.343297 0.295786 0.251833 0.211521 0.174934 0.142148 0.113190 0.087544 0.065090 0.045880 0.029961 0.017379 0.008175 0.002388 0.000052 0.000000 0.000000 0.000000 0.000000 0.000000
8.482393 8.165898 7.855907 7.552903 7.257365 6.969768 6.690584 6.420274 6.159300 5.907308 5.662682 5.424007 5.191522 4.965398 4.743282 4.524662 4.309889 4.099322 3.893311 3.692162 3.494768 3.300708 3.110264 2.923714 2.741338 2.563410 2.390204 2.221984 2.059019 1.901567 1.749887 1.604232 1.464847 1.331976 1.205856 1.086719 0.974791 0.870290 0.773429 0.684416 0.603449 0.530721 0.466345 0.409493 0.358106 0.310084 0.265513 0.224481 0.187071 0.153361 0.123419 0.096812 0.073323 0.053005 0.035908 0.022079 0.011563 0.004398 0.000624 0.000000 0.000000 0.000000 0.000000 0.000000 0.000000
8.125089 7.816741 7.515051 7.220500 6.933556 6.654692 6.384370 6.123049 5.871183 5.628708 5.392713 5.162643 4.938857 4.721405 4.507846 4.297864 4.091811 3.890038 3.692695 3.498538 3.307498 3.119854 2.935880 2.755857 2.580055 2.408746 2.242197 2.080673 1.924434 1.773739 1.628837 1.489979 1.357407 1.231359 1.112069 0.999764 0.894665 0.796986 0.706939 0.624722 0.550534 0.483946 0.424416 0.371848 0.323451 0.278400 0.236783 0.198685 0.164187 0.133367 0.105909 0.081493 0.060174 0.042004 0.027033 0.015306 0.006866 0.001752 0.000001 0.000000 0.000000 0.000000 0.000000 0.000000 0.000000
7.778553 7.478418 7.185091 6.899048 6.620756 6.350679 6.089273 5.836995 5.593884 5.358619 5.130977 4.909565 4.694531 4.485757 4.280765 4.079437 3.882115 3.688658 3.497923 3.310091 3.125438 2.944244 2.766776 2.593310 2.424114 2.259454 2.099595 1.944794 1.795311 1.651395 1.513298 1.381262 1.255524 1.136322 1.023881 0.918428 0.820175 0.729336 0.646115 0.570418 0.501544 0.439569 0.384613 0.335801 0.290403 0.248334 0.209682 0.174528 0.142954 0.114746 0.089510 0.067296 0.048158 0.032148 0.019313 0.009698 0.003344 0.000290 0.000000 0.000000 0.000000 0.000000 0.000000 0.000000 0.000000
7.443216 7.151347 6.866439 6.588964 6.319376 6.058136 5.805696 5.562120 5.326128 5.097908 4.877841 4.665136 4.458903 4.258794 4.062380 3.869710 3.680146 3.493003 3.308556 3.127081 2.948849 2.774133 2.603201 2.436321 2.273759 2.115775 1.962629 1.814577 1.671871 1.534761 1.403488 1.278292 1.159410 1.047069 0.941495 0.842905 0.751514 0.667385 0.589856 0.518932 0.454742 0.397417 0.347056 0.301441 0.259052 0.219976 0.184297 0.152096 0.123239 0.097288 0.074285 0.054283 0.037337 0.023496 0.012806 0.005312 0.001053 0.000000 0.000000 0.000000 0.000000 0.000000 0.000000 0.000000 0.000000
7.119492 6.835946 6.559509 6.290645 6.029809 5.777453 5.533621 5.297090 5.068072 4.846951 4.634104 4.429709 4.232317 4.040847 3.852895 3.667277 3.483883 3.302987 3.124859 2.949767 2.777985 2.609774 2.445403 2.285133 2.129228 1.977942 1.831532 1.690250 1.554341 1.424052 1.299621 1.181283 1.069268 0.963803 0.865107 0.773310 0.687837 0.608656 0.535912 0.469741 0.410273 0.357632 0.311442 0.268860 0.229488 0.193411 0.160713 0.131308 0.104749 0.081060 0.060297 0.042517 0.027771 0.016106 0.007570 0.002203 0.000045 0.000000 0.000000 0.000000 0.000000 0.000000 0.000000 0.000000 0.000000
6.807790 6.532613 6.264694 6.004490 5.752448 5.508553 5.271661 5.042027 4.820036 4.606065 4.400486 4.203665 4.015116 3.831722 3.650189 3.470690 3.293496 3.118873 2.947087 2.778406 2.613094 2.451412 2.293623 2.139986 1.990756 1.846188 1.706530 1.572032 1.442938 1.319483 1.201906 1.090437 0.985302 0.886642 0.793953 0.707233 0.626633 0.552301 0.484375 0.422992 0.368277 0.320354 0.277691 0.238148 0.201798 0.168727 0.138880 0.111816 0.087544 0.066123 0.047611 0.032059 0.019519 0.010038 0.003660 0.000426 0.000000 0.000000 0.000000 0.000000 0.000000 0.000000 0.000000 0.000000 0.000000
6.508506 6.241743 5.982384 5.730878 5.487099 5.250011 5.019937 4.797252 4.582336 4.375561 4.177294 3.987856 3.806364 3.629040 3.453569 3.280216 3.109244 2.940916 2.775497 2.613246 2.454423 2.299290 2.148101 2.001111 1.858573 1.720736 1.587846 1.460146 1.337873 1.221265 1.110551 1.005833 0.906672 0.813142 0.725405 0.643616 0.567923 0.498470 0.435395 0.378829 0.328898 0.285485 0.245893 0.209393 0.176070 0.145891 0.118422 0.093668 0.071689 0.052544 0.036286 0.022969 0.012640 0.005347 0.001132 0.000000 0.000000 0.000000 0.000000 0.000000 0.000000 0.000000 0.000000 0.000000 0.000000
6.222031 5.963721 5.712958 5.469444 5.232328 5.001974 4.778764 4.563076 4.355277 4.155742 3.964389 3.780440 3.604099 3.432685 3.263300 3.096112 2.931383 2.769370 2.610332 2.454528 2.302214 2.153642 2.009068 1.868739 1.732904 1.601809 1.475694 1.354798 1.239357 1.129348 1.024466 0.924869 0.830726 0.742198 0.659444 0.582616 0.511860 0.447316 0.389119 0.337398 0.292275 0.252670 0.216138 0.182683 0.152278 0.124504 0.099367 0.076929 0.057249 0.040384 0.026386 0.015306 0.007193 0.002091 0.000042 0.000000 0.000000 0.000000 0.000000 0.000000 0.000000 0.000000 0.000000 0.000000 0.000000
5.948736 5.698916 5.455789 5.218798 4.988325 4.764750 4.548450 4.339799 4.139084 3.945576 3.759228 3.580334 3.409028 3.242920 3.079638 2.918633 2.760161 2.604479 2.451838 2.302495 2.156699 2.014700 1.876749 1.743090 1.613967 1.489620 1.370267 1.255669 1.145824 1.040910 0.941100 0.846565 0.757470 0.673973 0.596230 0.524390 0.458596 0.398986 0.345692 0.298839 0.258433 0.221984 0.188513 0.157987 0.130005 0.104583 0.081783 0.061665 0.044287 0.029704 0.017968 0.009129 0.003233 0.000324 0.000000 0.000000 0.000000 0.000000 0.000000 0.000000 0.000000 0.000000 0.000000 0.000000 0.000000
5.688958 5.446340 5.209619 4.979178 4.755392 4.538639 4.329293 4.127048 3.931480 3.742884 3.561558 3.387784 3.221465 3.060117 2.902834 2.748026 2.595825 2.446484 2.300251 2.157376 2.018107 1.882690 1.751370 1.624384 1.501747 1.383312 1.269262 1.159781 1.055051 0.955246 0.860536 0.771090 0.687068 0.608627 0.535920 0.469092 0.408283 0.353629 0.305259 0.263295 0.226892 0.193516 0.162970 0.134876 0.109264 0.086196 0.065735 0.047939 0.032865 0.020566 0.011094 0.004496 0.000817 0.000000 0.000000 0.000000 0.000000 0.000000 0.000000 0.000000 0.000000 0.000000 0.000000 0.000000 0.000000
5.441311 5.204998 4.974730 4.750881 4.533826 4.323618 4.119652 3.922172 3.731477 3.547862 3.371616 3.203023 3.041628 2.885008 2.733134 2.584531 2.438610 2.295618 2.155799 2.019400 1.886663 1.757682 1.632343 1.510828 1.393328 1.280035 1.171128 1.066791 0.967201 0.872529 0.782944 0.698609 0.619684 0.546321 0.478670 0.416874 0.361069 0.311390 0.267961 0.230829 0.197658 0.167187 0.139073 0.113362 0.090120 0.069408 0.051287 0.035814 0.023044 0.013029 0.005820 0.001462 0.000000 0.000000 0.000000 0.000000 0.000000 0.000000 0.000000 0.000000 0.000000 0.000000 0.000000 0.000000 0.000000
5.205155 4.975193 4.751417 4.534046 4.322512 4.116968 3.917723 3.725073 3.539315 3.360741 3.189637 3.026285 2.869723 2.717854 2.570881 2.428385 2.288750 2.152110 2.018509 1.887961 1.760666 1.636821 1.516622 1.400256 1.287917 1.179786 1.076046 0.976876 0.882447 0.792930 0.708490 0.629288 0.555478 0.487211 0.424635 0.367887 0.317103 0.272414 0.233940 0.200911 0.170602 0.142558 0.116839 0.093512 0.072640 0.054283 0.038502 0.025351 0.014883 0.007151 0.002203 0.000083 0.000000 0.000000 0.000000 0.000000 0.000000 0.000000 0.000000 0.000000 0.000000 0.000000 0.000000 0.000000 0.000000
4.980775 4.757113 4.538834 4.326052 4.119074 3.918204 3.723743 3.535986 3.355228 3.181755 3.015851 2.857793 2.705956 2.558853 2.416677 2.279373 2.145300 2.013906 1.885389 1.759950 1.637784 1.519085 1.404046 1.292855 1.185694 1.082748 0.984197 0.890211 0.800963 0.716619 0.637341 0.563287 0.494608 0.431454 0.373965 0.322280 0.276530 0.236841 0.203256 0.173187 0.145300 0.119661 0.096337 0.075392 0.056889 0.040886 0.027442 0.016610 0.008443 0.002990 0.000299 0.000000 0.000000 0.000000 0.000000 0.000000 0.000000 0.000000 0.000000 0.000000 0.000000 0.000000 0.000000 0.000000 0.000000
4.767414 4.548212 4.334322 4.126047 3.923694 3.727561 3.537946 3.355145 3.179444 3.011129 2.850355 2.697199 2.549436 2.406221 2.267781 2.134335 2.005254 1.878939 1.755527 1.635217 1.518201 1.404669 1.294809 1.188808 1.086846 0.989102 0.895753 0.806970 0.722918 0.643761 0.569660 0.500766 0.437232 0.379200 0.326811 0.280198 0.239490 0.204801 0.174923 0.147276 0.121801 0.098565 0.077633 0.059068 0.042931 0.029278 0.018167 0.009650 0.003778 0.000600 0.000000 0.000000 0.000000 0.000000 0.000000 0.000000 0.000000 0.000000 0.000000 0.000000 0.000000 0.000000 0.000000 0.000000 0.000000
4.562271 4.347406 4.137971 3.934269 3.736560 3.545070 3.360065 3.181815 3.010581 2.846615 2.690170 2.541121 2.396998 2.257483 2.122798 1.993165 1.868630 1.747412 1.629125 1.513960 1.402110 1.293759 1.189096 1.088301 0.991551 0.899025 0.810892 0.727322 0.648478 0.574521 0.505606 0.441884 0.383502 0.330602 0.283319 0.241785 0.206079 0.175794 0.148468 0.123239 0.100173 0.079337 0.060793 0.044603 0.030826 0.019519 0.010736 0.004528 0.000946 0.000000 0.000000 0.000000 0.000000 0.000000 0.000000 0.000000 0.000000 0.000000 0.000000 0.000000 0.000000 0.000000 0.000000 0.000000 0.000000
4.364492 4.153656 3.948264 3.748599 3.554940 3.367563 3.186733 3.012717 2.845774 2.686154 2.534105 2.389031 2.248584 2.112800 1.981906 1.856115 1.735641 1.619526 1.506377 1.396373 1.289701 1.186548 1.087093 0.991513 0.899989 0.812689 0.729783 0.651437 0.577809 0.509059 0.445338 0.386794 0.333571 0.285806 0.243633 0.207062 0.175846 0.148867 0.123961 0.101144 0.080483 0.062041 0.045880 0.032059 0.020637 0.011668 0.005206 0.001300 0.000000 0.000000 0.000000 0.000000 0.000000 0.000000 0.000000 0.000000 0.000000 0.000000 0.000000 0.000000 0.000000 0.000000 0.000000 0.000000 0.000000