64 64
33.767567 33.064552 32.355648 31.641703 30.923546 30.200317 29.471901 28.739147 28.002901 27.264017 26.523363 25.781803 25.040211 24.299458 23.560413 22.823965 22.090979 21.362335 20.638906 19.921562 19.209875 18.502317 17.799658 17.102711 16.412291 15.729201 15.054242 14.388211 13.731902 13.086089 12.451548 11.829040 11.219319 10.623131 10.041199 9.474246 8.922975 8.388072 7.870219 7.370073 6.886361 6.417166 5.963081 5.524690 5.102570 4.697278 4.309355 3.939330 3.587714 3.254994 2.941649 2.648133 2.374415 2.117583 1.875358 1.648045 1.435948 1.239356 1.058544 0.893770 0.745277 0.613293 0.497892 0.397573 0.000000
33.883327 33.186600 32.483829 31.775867 31.062218 30.342405 29.617271 28.887644 28.154385 27.418343 26.680382 25.941368 25.202166 24.463655 23.726704 22.992191 22.260992 21.533981 20.812035 20.095486 19.382463 18.673399 17.969118 17.270428 16.578148 15.893086 15.216046 14.547824 13.889206 13.240987 12.603932 11.978811 11.366375 10.767372 10.182535 9.612582 9.058222 8.520144 7.999030 7.495392 7.006812 6.532687 6.073625 5.630218 5.203041 4.792656 4.399613 4.024437 3.667646 3.329732 3.011174 2.712433 2.433882 2.172921 1.926904 1.695812 1.479951 1.279613 1.095075 0.926597 0.774424 0.638786 0.519895 0.417600 0.000000
33.996281 33.306034 32.609592 31.906818 31.196932 30.480753 29.759108 29.032837 28.302782 27.569801 26.834755 26.098511 25.361929 24.625896 23.891266 23.158922 22.429743 21.704597 20.984241 20.267054 19.552885 18.842552 18.136885 17.436693 16.742796 16.056000 15.377115 14.706934 14.046256 13.395863 12.756530 12.129030 11.514118 10.912537 10.325026 9.752304 9.195084 8.654058 8.129911 7.622506 7.129233 6.650369 6.186519 5.738278 5.306230 4.890938 4.492951 4.112803 3.751010 3.408075 3.084476 2.780677 2.496701 2.229705 1.979363 1.744641 1.525162 1.321224 1.133102 0.961061 0.805346 0.666190 0.543807 0.438394 0.000000
34.106453 33.422871 32.732216 32.033562 31.327656 30.615318 29.897369 29.174664 28.448034 27.718334 26.986431 26.253176 25.519444 24.786104 24.054022 23.324083 22.597153 21.874107 21.154053 20.436073 19.720993 19.009634 18.302816 17.601360 16.906084 16.217793 15.537300 14.865405 14.202902 13.550576 12.909206 12.279564 11.662409 11.058485 10.468534 9.893278 9.333427 8.789686 8.262731 7.751229 7.253460 6.770044 6.301597 5.848714 5.411978 4.991961 4.589213 4.204273 3.837658 3.489877 3.161408 2.852723 2.563157 2.290073 2.033699 1.794419 1.571472 1.364079 1.172519 0.997056 0.837941 0.695404 0.569665 0.460922 0.000000
34.214355 33.536869 32.850567 32.156109 31.454338 30.746046 30.032013 29.313076 28.590084 27.863886 27.135340 26.405298 25.674635 24.944216 24.214914 23.487602 22.763151 22.041435 21.320950 20.602413 19.886658 19.174505 18.466780 17.764296 17.067877 16.378332 15.696476 15.023104 14.359010 13.704991 13.061824 12.430276 11.811113 11.205084 10.612926 10.035370 9.473126 8.926894 8.397133 7.881389 7.379317 6.891549 6.418695 5.961358 5.520126 5.095570 4.688247 4.298697 3.927442 3.574992 3.241831 2.928430 2.633080 2.354040 2.091723 1.846515 1.618795 1.408074 1.213221 1.034482 0.872108 0.726333 0.597374 0.485436 0.000000
34.322521 33.649490 32.967346 32.276897 31.578960 30.874371 30.163971 29.448614 28.729158 28.006472 27.281431 26.554829 25.827454 25.100185 24.373880 23.649418 22.927177 22.205479 21.484789 20.765938 20.049742 19.337034 18.628635 17.925367 17.228045 16.537489 15.854503 15.179893 14.514454 13.858980 13.214250 12.581038 11.960107 11.352207 10.758081 10.178456 9.614051 9.065562 8.532610 8.012819 7.506645 7.014717 6.537652 6.076056 5.630518 5.201614 4.789904 4.395930 4.020217 3.663279 3.325602 3.007473 2.706297 2.421439 2.153314 1.902313 1.668815 1.453183 1.255109 1.073242 0.907753 0.758881 0.626844 0.511690 0.000000
34.429890 33.761364 33.083569 32.397305 31.703396 31.002670 30.295965 29.584133 28.868032 28.148533 27.426512 26.702845 25.978420 25.254131 24.530869 23.809277 23.087664 22.366114 21.645458 20.926519 20.210123 19.497099 18.788263 18.084448 17.386465 16.695131 16.011257 15.335650 14.669106 14.012417 13.366363 12.731724 12.109262 11.499728 10.903870 10.322411 9.756074 9.205542 8.668995 8.145359 7.635279 7.139390 6.658310 6.192650 5.743002 5.309941 4.894032 4.495821 4.115838 3.754594 3.412584 3.089499 2.782640 2.492104 2.218307 1.961649 1.722509 1.501252 1.298227 1.113235 0.944780 0.792955 0.657983 0.539215 0.000000
34.536312 33.872471 33.199207 32.517315 31.827614 31.130932 30.428112 29.719999 29.007446 28.291330 27.572515 26.851889 26.130327 25.408730 24.687937 23.966780 23.244976 22.523373 21.802832 21.084044 20.367683 19.654575 18.945545 18.241417 17.543011 16.851143 16.166622 15.490256 14.822844 14.165178 13.518044 12.882215 12.258459 11.647529 11.050173 10.467114 9.899084 9.346247 8.806119 8.278843 7.765058 7.265410 6.780517 6.310988 5.857424 5.420401 5.000486 4.598229 4.214159 3.848795 3.502635 3.174334 2.861938 2.565869 2.286543 2.024366 1.779720 1.552974 1.344480 1.154569 0.983098 0.828467 0.690702 0.567868 0.000000
34.641785 33.982803 33.314236 32.636890 31.951580 31.259132 30.560381 29.856171 29.147364 28.434824 27.719412 27.002016 26.283518 25.564806 24.845156 24.123867 23.401787 22.679754 21.958641 21.239296 20.522585 19.809357 19.100361 18.396160 17.697571 17.005404 16.320477 15.643593 14.975554 14.317151 13.669172 13.032394 12.407581 11.795493 11.196873 10.612456 10.042962 9.487327 8.943828 8.413111 7.895830 7.392622 6.904115 6.430920 5.973637 5.532847 5.109120 4.703008 4.315045 3.945749 3.595481 3.261808 2.944024 2.642567 2.357860 2.090305 1.840296 1.608198 1.394370 1.199145 1.022845 0.865329 0.724674 0.597520 0.000000
34.746281 34.092323 33.428635 32.756016 32.075275 31.387236 30.692741 29.992626 29.287745 28.578960 27.867144 27.153179 26.437937 25.721119 25.001694 24.280479 23.558327 22.836086 22.114613 21.394766 20.677410 19.963398 19.253592 18.548855 17.850039 17.157810 16.472713 15.795549 15.127121 14.468223 13.819639 13.182151 12.556521 11.943510 11.343864 10.758322 10.187344 9.628625 9.081959 8.548012 8.027437 7.520875 7.028958 6.552296 6.091493 5.647136 5.219793 4.810019 4.418354 4.045316 3.690650 3.351748 3.028729 2.722036 2.432094 2.159312 1.904079 1.666773 1.447750 1.247350 1.065895 0.903686 0.759406 0.628044 0.000000
34.849804 34.201035 33.542389 32.874664 32.198673 31.515230 30.825161 30.129318 29.428551 28.723713 28.015684 27.305330 26.592649 25.876434 25.157440 24.436512 23.714497 22.992254 22.270634 21.550499 20.832710 20.118126 19.407610 18.702021 18.002218 17.309053 16.623379 15.946022 15.277448 14.618286 13.969340 13.331377 12.705166 12.091473 11.491036 10.904598 10.331594 9.769984 9.220362 8.683390 8.159730 7.650021 7.154894 6.674971 6.210853 5.763124 5.332364 4.919125 4.523950 4.147362 3.787961 3.443985 3.115889 2.804112 2.509087 2.231224 1.970919 1.728549 1.504475 1.299038 1.112565 0.945339 0.794966 0.659313 0.000000
34.952332 34.308918 33.655491 32.992832 32.321754 31.643070 30.957613 30.266224 29.569750 28.869045 28.164984 27.457750 26.746075 26.030640 25.312284 24.591848 23.870184 23.148148 22.426594 21.706383 20.988375 20.273434 19.562422 18.856197 18.155622 17.461552 16.774834 16.096323 15.426850 14.767260 14.118170 13.479971 12.853419 12.239277 11.638288 11.051067 10.475544 9.911257 9.358885 8.819103 8.292562 7.779912 7.281787 6.798804 6.331570 5.880675 5.446695 5.030190 4.631701 4.251537 3.887241 3.538353 3.205336 2.888636 2.588682 2.305892 2.040664 1.793377 1.564396 1.354066 1.162716 0.990086 0.833068 0.691353 0.000000
35.053867 34.415970 33.767914 33.110489 32.444500 31.770746 31.090076 30.403315 29.711313 29.014919 28.314457 27.608637 26.898092 26.183640 25.466125 24.746389 24.025288 23.303665 22.582388 21.862309 21.144295 20.429213 19.717916 19.011269 18.310139 17.615376 16.927832 16.248356 15.577796 14.916985 14.266750 13.627911 13.001180 12.386826 11.785519 11.196965 10.619046 10.052292 9.497387 8.955000 8.425791 7.910411 7.409490 6.923656 6.453513 5.999652 5.562656 5.143080 4.741477 4.357352 3.988323 3.634686 3.296910 2.975443 2.670720 2.383160 2.113161 1.861109 1.627370 1.412294 1.216211 1.037540 0.873988 0.725794 0.000000
35.154411 34.522182 33.879665 33.227627 32.566887 31.898247 31.222523 30.540565 29.853205 29.160824 28.462172 27.757822 27.048597 26.335335 25.618864 24.900032 24.179695 23.458698 22.737906 22.018173 21.300371 20.585354 19.873989 19.167137 18.465664 17.770420 17.082264 16.402044 15.730607 15.068787 14.417414 13.777310 13.149291 12.534159 11.932559 11.342057 10.761957 10.192951 9.635722 9.090943 8.559279 8.041376 7.537872 7.049391 6.576543 6.119923 5.680110 5.257669 4.853126 4.464632 4.091035 3.732817 3.390449 3.064380 2.755048 2.462874 2.188261 1.931599 1.693255 1.473581 1.272641 1.087518 0.917545 0.762986 0.000000
35.253960 34.627560 33.990730 33.344246 32.688911 32.025532 31.354937 30.677950 29.994951 29.304743 28.607885 27.905199 27.197502 26.485620 25.770405 25.052683 24.333315 23.613157 22.893055 22.173880 21.456493 20.741756 20.030535 19.323694 18.622089 17.926580 17.238024 16.557274 15.885172 15.222557 14.570257 13.929105 13.299906 12.683470 12.079628 11.486352 10.904140 10.333093 9.773755 9.226800 8.692890 8.172673 7.666795 7.175878 6.700532 6.241358 5.798932 5.373827 4.966079 4.573210 4.195219 3.832589 3.485794 3.155287 2.841510 2.544884 2.265819 2.004703 1.761908 1.537788 1.331303 1.139833 0.963562 0.802755 0.000000
35.352520 34.732090 34.101101 33.460327 32.810562 32.152615 31.487301 30.814960 30.134462 29.446383 28.751514 28.050688 27.344713 26.634420 25.920652 25.204243 24.486053 23.766930 23.047739 22.329327 21.612566 20.898321 20.187458 19.480833 18.779310 18.083750 17.395016 16.713942 16.041391 15.378194 14.725183 14.083189 13.453022 12.835405 12.228540 11.631968 11.046440 10.472696 9.911353 9.362433 8.826489 8.304175 7.796134 7.302989 6.825354 6.363832 5.919001 5.491430 5.079991 4.682921 4.300708 3.933839 3.582787 3.248013 2.929955 2.629044 2.345686 2.080276 1.833187 1.604645 1.391993 1.194304 1.011858 0.844926 0.000000
35.450096 34.835785 34.210785 33.575867 32.931820 32.279465 31.619036 30.949480 30.271425 29.585659 28.892977 28.194195 27.490143 26.781637 26.069517 25.354628 24.637817 23.919937 23.201855 22.484417 21.768494 21.054951 20.344656 19.638458 18.937233 18.241837 17.553122 16.871946 16.199160 15.535593 14.882083 14.239456 13.608534 12.989080 12.379206 11.779532 11.190812 10.613790 10.049197 9.497762 8.959954 8.435756 7.925761 7.430599 6.950885 6.487220 6.040190 5.610121 5.194700 4.793604 4.407346 4.036411 3.681276 3.342405 3.020237 2.715205 2.427720 2.158179 1.906957 1.673306 1.454526 1.250747 1.062257 0.889325 0.000000
35.546692 34.938644 34.319775 33.690861 33.052696 32.405384 31.747992 31.081192 30.405764 29.722498 29.032196 28.335657 27.633713 26.927191 26.216917 25.503748 24.788523 24.072092 23.355320 22.639063 21.924187 21.211555 20.502029 19.796478 19.095760 18.400736 17.712263 17.031195 16.358376 15.694654 15.040855 14.397813 13.766199 13.144163 12.531469 11.928888 11.337169 10.757060 10.189298 9.634607 9.093706 8.567289 8.055554 7.558587 7.077005 6.611407 6.162382 5.729276 5.310039 4.905101 4.514976 4.140152 3.781110 3.438312 3.112207 2.803224 2.511780 2.238270 1.982993 1.743488 1.518717 1.308985 1.114583 0.935783 0.000000
35.642330 35.040668 34.428082 33.805317 33.172279 32.528233 31.873892 31.210030 30.537415 29.856834 29.169090 28.474989 27.775349 27.071001 26.362774 25.651518 24.938074 24.223299 23.508041 22.793175 22.079552 21.368036 20.659496 19.954796 19.254795 18.560356 17.872334 17.191582 16.518948 15.855278 15.201405 14.558152 13.925056 13.300493 12.685178 12.079883 11.485361 10.902359 10.331621 9.773871 9.229824 8.700189 8.185653 7.686839 7.203597 6.736277 6.285347 5.848724 5.425852 5.017254 4.623442 4.244909 3.882137 3.535590 3.205719 2.892958 2.597723 2.320416 2.060392 1.815006 1.584385 1.368839 1.168660 0.984129 0.000000
35.737015 35.141884 34.535698 33.918037 33.288490 32.647789 31.996681 31.335928 30.666304 29.988592 29.303595 28.612116 27.914974 27.212996 26.507010 25.797867 25.086407 24.373484 23.659945 22.946667 22.234505 21.524315 20.816965 20.113325 19.414248 18.720598 18.033239 17.353014 16.680779 16.017374 15.363630 14.720087 14.084816 13.457922 12.840184 12.232372 11.635240 11.049543 10.476019 9.915401 9.368405 8.835738 8.318096 7.816158 7.330590 6.861718 6.408343 5.968305 5.541986 5.129912 4.732596 4.350536 3.984213 3.634096 3.300635 2.984270 2.685416 2.404390 2.138796 1.887674 1.651349 1.430131 1.224320 1.034195 0.000000
35.830761 35.242245 34.641033 34.027111 33.401184 32.764004 32.116299 31.458832 30.792376 30.117714 29.435648 28.746979 28.052519 27.353102 26.649555 25.942720 25.233440 24.522564 23.810955 23.099468 22.388962 21.680305 20.974352 20.271978 19.574036 18.881392 18.194897 17.515409 16.843779 16.180841 15.527441 14.882631 14.245325 13.616301 12.996338 12.386206 11.786663 11.198463 10.622352 10.059060 9.509307 8.973803 8.453245 7.948314 7.459679 6.987917 6.531133 6.087867 5.658289 5.242926 4.842291 4.456886 4.087195 3.733687 3.396816 3.077021 2.774725 2.489222 2.218018 1.961311 1.719431 1.492689 1.281391 1.085814 0.000000
35.923401 35.339703 34.742489 34.132462 33.510326 32.876823 32.232693 31.578686 30.915571 30.244143 29.565189 28.879509 28.187927 27.491257 26.790337 26.086000 25.379099 24.670473 23.960983 23.251490 22.542845 21.835920 21.131571 20.430666 19.734066 19.042631 18.357214 17.678669 17.007849 16.345596 15.692129 15.045585 14.406443 13.775485 13.153495 12.541242 11.939483 11.348983 10.770478 10.204707 9.652390 9.114240 8.590959 8.083225 7.591712 7.116165 6.654551 6.207299 5.774615 5.356151 4.952385 4.563819 4.190943 3.834226 3.494125 3.171080 2.865363 2.574533 2.297877 2.035739 1.788456 1.556344 1.339703 1.138824 0.000000
36.012535 35.433086 34.840027 34.234055 33.615871 32.986210 32.345814 31.695436 31.035847 30.367826 29.692158 29.009655 28.321127 27.627396 26.929291 26.227646 25.523315 24.817135 24.109964 23.402662 22.696079 21.991089 21.288548 20.589317 19.894262 19.204239 18.520105 17.842712 17.172909 16.511475 15.856879 15.208799 14.568019 13.935333 13.311513 12.697334 12.093562 11.500954 10.920254 10.352200 9.797519 9.256918 8.731104 8.220759 7.726479 7.246453 6.780148 6.328167 5.891101 5.469444 5.062735 4.671198 4.295321 3.935578 3.592431 3.266316 2.956283 2.660140 2.378191 2.110783 1.858254 1.620923 1.399096 1.193065 0.000000
36.097431 35.522377 34.933620 34.331852 33.717777 33.092125 32.455635 31.809050 31.153152 30.488707 29.816509 29.137363 28.452072 27.761465 27.066360 26.367603 25.666023 24.962490 24.257830 23.552917 22.848600 22.145742 21.445206 20.747852 20.054543 19.366138 18.683493 18.007456 17.338879 16.677385 16.021553 15.372136 14.729923 14.095699 13.470249 12.854347 12.248759 11.654244 11.071547 10.501408 9.944553 9.401697 8.873545 8.360782 7.863102 7.378603 6.907778 6.451241 6.009579 5.583378 5.173207 4.778886 4.400198 4.037617 3.691602 3.362285 3.047151 2.745864 2.458785 2.186269 1.928655 1.686264 1.459407 1.248376 0.000000
36.178059 35.607544 35.023239 34.425827 33.816021 33.194534 32.562107 31.919483 31.267445 30.606750 29.938192 29.262581 28.580709 27.893408 27.201490 26.505800 25.807178 25.106470 24.404518 23.702188 23.000330 22.299803 21.601475 20.906197 20.214842 19.528252 18.847294 18.172815 17.505264 16.842880 16.186014 15.535457 14.892007 14.256450 13.629573 13.012144 12.404939 11.808714 11.224219 10.652192 10.093364 9.548451 9.018154 8.503032 8.001229 7.512435 7.037270 6.576346 6.130263 5.699605 5.284942 4.886828 4.505445 4.140211 3.791518 3.457919 3.137794 2.831527 2.539488 2.262029 1.999492 1.752204 1.520476 1.304604 0.000000
36.254410 35.688580 35.108871 34.515961 33.910568 33.293400 32.665199 32.026707 31.378687 30.721914 30.057177 29.385267 28.706993 28.023170 27.334631 26.642195 25.946711 25.249020 24.549967 23.850409 23.151203 22.453211 21.757284 21.064285 20.375074 19.690508 19.011438 18.338682 17.670952 17.007828 16.350122 15.698627 15.054137 14.417451 13.789342 13.170590 12.561971 11.964236 11.378141 10.804424 10.243820 9.697041 9.164798 8.646557 8.140685 7.647772 7.168444 6.703314 6.252985 5.818042 5.399062 4.996597 4.611195 4.243238 3.891394 3.552973 3.228031 2.916960 2.620129 2.337896 2.070605 1.818585 1.582149 1.361597 0.000000
36.326759 35.765606 35.190529 34.602238 34.001404 33.388714 32.764889 32.130684 31.486853 30.834166 30.173407 29.505379 28.830877 28.150719 27.465733 26.776735 26.084572 25.390083 24.694118 23.997530 23.301170 22.605898 21.912567 21.222044 20.535177 19.852831 19.175852 18.503927 17.835754 17.172091 16.513742 15.861510 15.216187 14.578567 13.949430 13.329558 12.719719 12.120675 11.533180 10.957974 10.395789 9.847346 9.313073 8.791048 8.281291 7.784443 7.301130 6.831976 6.377576 5.938528 5.515402 5.108761 4.719151 4.347023 3.990342 3.647273 3.317694 3.001993 2.700545 2.413711 2.141835 1.885250 1.644272 1.419204 0.000000
36.397804 35.841167 35.270504 34.686504 34.089878 33.481354 32.861691 32.231636 31.591969 30.943474 30.286869 29.622890 28.952332 28.276011 27.594744 26.909370 26.220713 25.529615 24.836926 24.143494 23.450169 22.757809 22.067268 21.379410 20.695087 20.015152 19.339987 18.667965 17.999550 17.335543 16.676758 16.023985 15.378025 14.739673 14.109711 13.488915 12.878059 12.277907 11.689210 11.112715 10.549151 9.999237 9.462007 8.936336 8.422877 7.922276 7.435165 6.962162 6.503875 6.060897 5.633805 5.223165 4.829522 4.452105 4.089010 3.740653 3.406615 3.086463 2.780576 2.489313 2.213026 1.952049 1.706700 1.477283 0.000000
36.469978 35.917862 35.351578 34.771812 34.179295 33.574764 32.958954 32.332638 31.696611 31.051664 30.398621 29.738293 29.071495 28.399015 27.721647 27.040066 26.355091 25.667566 24.978334 24.288242 23.598141 22.908884 22.221329 21.536327 20.854740 20.177305 19.502638 18.830673 18.162207 17.498062 16.839033 16.185925 15.539532 14.900645 14.270054 13.648540 13.036869 12.435807 11.846113 11.268522 10.703777 10.152010 9.611375 9.082242 8.565268 8.061101 7.570374 7.093710 6.631718 6.184991 5.754113 5.339648 4.941718 4.558072 4.188702 3.834076 3.494650 3.170210 2.860062 2.564552 2.284031 2.018835 1.769287 1.535691 0.000000
36.547230 35.999798 35.438015 34.862564 34.274170 33.673565 33.061501 32.438747 31.806086 31.164335 30.514303 29.856831 29.192760 28.522949 27.848278 27.169619 26.487869 25.803898 25.118305 24.431736 23.745043 23.059078 22.374691 21.692739 21.014076 20.337967 19.663649 18.991928 18.323618 17.659525 17.000454 16.347206 15.700579 15.061361 14.430346 13.808308 13.196025 12.594256 12.003757 11.425279 10.859482 10.304854 9.761003 9.228601 8.708301 8.200753 7.706600 7.226459 6.760943 6.310655 5.876172 5.458022 5.054473 4.664721 4.289246 3.928524 3.583008 3.253142 2.938855 2.639278 2.354700 2.085464 1.831892 1.594291 0.000000
36.631519 36.088894 35.531727 34.960712 34.376564 33.780010 33.171803 32.552711 31.923525 31.285038 30.638075 29.983465 29.322060 28.654713 27.982286 27.305683 26.625772 25.943466 25.259670 24.575298 23.891272 23.208406 22.527308 21.848591 21.172142 20.496672 19.822893 19.151623 18.483662 17.819818 17.160904 16.507715 15.861053 15.221707 14.590466 13.968109 13.355409 12.753133 12.162036 11.582861 11.015190 10.457602 9.910728 9.375240 8.851807 8.341072 7.843676 7.360247 6.891399 6.437728 5.999823 5.577006 5.167528 4.771845 4.390442 4.023794 3.672363 3.336594 3.016917 2.713345 2.424895 2.151798 1.894380 1.652950 0.000000
36.722847 36.185135 35.632702 35.066238 34.486450 33.894070 33.289845 32.674541 32.048946 31.413853 30.770088 30.118473 29.459858 28.795097 28.125061 27.450630 26.772699 26.092159 25.409922 24.726898 24.044022 23.362206 22.682383 22.005041 21.328651 20.653496 19.980284 19.309639 18.642220 17.978832 17.320271 16.667343 16.020844 15.381567 14.750299 14.127823 13.514910 12.912327 12.320827 11.740777 11.170442 10.610081 10.060377 9.522004 8.995626 8.481894 7.981447 7.494921 7.022924 6.566061 6.124412 5.695901 5.280677 4.879243 4.492088 4.119694 3.762524 3.421026 3.095635 2.786768 2.494477 2.217702 1.956618 1.711537 0.000000
36.821190 36.288502 35.740913 35.179111 34.603806 34.015713 33.415588 32.804199 32.182312 31.550741 30.910294 30.261799 29.606102 28.944061 28.276537 27.604416 26.928581 26.249937 25.569393 24.887856 24.206251 23.525503 22.846371 22.167610 21.489471 20.812853 20.138630 19.467361 18.799767 18.136600 17.478445 16.825977 16.179840 15.540832 14.909739 14.287341 13.674416 13.071723 12.479984 11.897920 11.325072 10.762136 10.209797 9.668732 9.139601 8.623065 8.119761 7.630325 7.155372 6.695389 6.248568 5.814506 5.393719 4.986717 4.593996 4.216036 3.853305 3.506256 3.175324 2.860933 2.563489 2.283047 2.018480 1.769931 0.000000
36.926517 36.398964 35.856327 35.299301 34.728588 34.144897 33.548996 32.941628 32.323582 31.695648 31.058641 30.413393 29.760738 29.101540 28.436659 27.766968 27.093363 26.416746 25.738018 25.058096 24.377893 23.698305 23.018394 22.338030 21.658106 20.979523 20.303183 19.629984 18.960840 18.296459 17.637352 16.984377 16.338207 15.699406 15.068678 14.446559 13.833815 13.231213 12.638401 12.054084 11.478920 10.913607 10.358829 9.815264 9.283578 8.764430 8.258464 7.766311 7.288591 6.824214 6.372045 5.932615 5.506456 5.094074 4.695972 4.312631 3.944522 3.592102 3.255810 2.936073 2.633299 2.347882 2.079844 1.828008 0.000000
37.038807 36.516491 35.978916 35.426765 34.860752 34.281590 33.690010 33.086784 32.472691 31.848520 31.215073 30.573189 29.923702 29.267466 28.605347 27.938219 27.266973 26.592506 25.915724 25.237537 24.558868 23.879190 23.197990 22.516159 21.834585 21.154181 20.475838 19.800467 19.128979 18.462273 17.801268 17.146763 16.499166 15.859284 15.227948 14.605638 13.993015 13.390247 12.795487 12.209114 11.631831 11.064337 10.507316 9.961451 9.427405 8.905845 8.397408 7.902733 7.421481 6.951962 6.494633 6.050035 5.618695 5.201127 4.797829 4.409295 4.035994 3.678388 3.336919 3.012017 2.704092 2.413542 2.140743 1.885655 0.000000
37.158024 36.641037 36.108620 35.561470 35.000263 34.425720 33.838589 33.239616 32.629585 32.009285 31.379526 30.741123 30.094921 29.441771 28.782536 28.118093 27.449327 26.777134 26.102419 25.426098 24.748020 24.067369 23.385017 22.701853 22.018776 21.336676 20.656471 19.979061 19.305361 18.636280 17.972725 17.315605 16.665827 16.024229 15.391175 14.767394 14.153630 13.548397 12.951232 12.362857 11.783654 11.214176 10.655111 10.107143 9.570938 9.047160 8.536450 8.038973 7.552893 7.078432 6.616145 6.166575 5.730246 5.307683 4.899386 4.505851 4.127548 3.764944 3.418484 3.088600 2.775706 2.480202 2.202470 1.942871 0.000000
37.284111 36.772560 36.245411 35.703346 35.147049 34.577248 33.994656 33.400051 32.794209 32.177891 31.551920 30.917118 30.274323 29.624374 28.968145 28.306503 27.640339 26.970541 26.298023 25.622887 24.944180 24.262701 23.579332 22.894970 22.210510 21.526863 20.844929 20.165621 19.489845 18.818520 18.152557 17.492861 16.840347 16.195911 15.560461 14.934825 14.317799 13.708554 13.107891 12.516501 11.934648 11.362991 10.802073 10.252199 9.714035 9.188232 8.675262 8.173433 7.682635 7.203435 6.736389 6.282043 5.840928 5.413567 5.000465 4.602121 4.219011 3.851600 3.500338 3.165659 2.847983 2.547708 2.265222 2.000889 0.000000
37.417030 36.911015 36.389225 35.852341 35.301064 34.736092 34.158161 33.568031 32.966461 32.354244 31.732185 31.101093 30.461817 29.815193 29.162083 28.503361 27.839916 27.172636 26.501818 25.826424 25.147200 24.465017 23.780775 23.095350 22.409655 21.724586 21.041067 20.359989 19.682280 19.008848 18.340612 17.678476 17.023357 16.376160 15.737786 15.108283 14.486506 13.873104 13.268281 12.672724 12.087221 11.512489 10.948734 10.396549 9.856551 9.328889 8.812146 8.305830 7.810517 7.326781 6.855178 6.396257 5.950557 5.518600 5.100895 4.697940 4.310215 3.938191 3.582320 3.243038 2.920766 2.615908 2.328851 2.059966 0.000000
37.556736 37.056332 36.539993 36.008400 35.462227 34.902191 34.329021 33.743469 33.146290 32.538280 31.920231 31.292967 30.657318 30.014126 29.364260 28.708572 28.047966 27.382824 26.712120 26.036528 25.356920 24.674173 23.989183 23.302837 22.616037 21.929695 21.244717 20.562016 19.882509 19.207109 18.536730 17.872293 17.214701 16.564875 15.923292 15.288673 14.661565 14.042820 13.433282 12.833575 12.243861 11.664882 11.097413 10.542153 9.999240 9.467684 8.946568 8.435968 7.936352 7.448283 6.972333 6.509047 6.058963 5.622612 5.200502 4.793138 4.400999 4.024559 3.664273 3.320581 2.993906 2.684653 2.393213 2.119960 0.000000
37.703156 37.208447 36.697662 36.171440 35.630478 35.075481 34.507164 33.926281 33.333603 32.729897 32.115974 31.492641 30.860729 30.221085 29.574568 28.922035 28.263945 27.599285 26.928696 26.253035 25.573179 24.890003 24.204401 23.517271 22.829504 22.142023 21.455729 20.771536 20.090361 19.413130 18.740751 18.074142 17.414223 16.761736 16.115528 15.475845 14.843546 14.219485 13.604515 12.999476 12.405205 11.822070 11.250352 10.690813 10.143077 9.605915 9.079318 8.563811 8.059957 7.567771 7.087679 6.620232 6.165977 5.725436 5.299127 4.887555 4.491205 4.110549 3.746046 3.398139 3.067254 2.753798 2.458167 2.180733 0.000000
37.856224 37.367310 36.862152 36.341393 35.805729 35.255856 34.692497 34.116394 33.528309 32.929012 32.319313 31.700020 31.071951 30.435961 29.792902 29.143217 28.485950 27.821718 27.151375 26.475779 25.795807 25.112339 24.426266 23.738478 23.049887 22.361399 21.673925 20.988379 20.305683 19.626753 18.952511 18.283873 17.621717 16.965191 16.314192 15.669587 15.032240 14.403005 13.782738 13.172287 12.572492 11.984184 11.408136 10.843558 10.288961 9.744968 9.212271 8.691326 8.182099 7.685174 7.201047 6.729653 6.271430 5.826910 5.396609 4.981035 4.580676 4.196007 3.827490 3.475567 3.140668 2.823208 2.523575 2.242151 0.000000
38.015873 37.532837 37.033386 36.518185 35.987907 35.443241 34.884930 34.313690 33.730297 33.135521 32.530144 31.914991 31.290878 30.658649 30.018717 29.370165 28.713633 28.049961 27.379990 26.704592 26.024635 25.341009 24.654596 23.966293 23.277014 22.587650 21.899136 21.212374 20.528290 19.847801 19.171833 18.501299 17.835743 17.174709 16.519068 15.869685 15.227430 14.593164 13.967741 13.352020 12.746838 12.153036 11.570785 10.998834 10.437489 9.886720 9.347189 8.819584 8.304587 7.802379 7.313046 6.837188 6.375167 5.926879 5.492796 5.073429 4.669268 4.280790 3.908460 3.552725 3.214013 2.892742 2.589304 2.304082 0.000000
38.182030 37.704945 37.211285 36.701710 36.176903 35.637547 35.084370 34.518097 33.939487 33.349312 32.748363 32.137451 31.517387 30.888523 30.249998 29.602484 28.946817 28.283823 27.614363 26.939297 26.259493 25.575836 24.889221 24.200539 23.510696 22.820610 22.131187 21.443350 20.758015 20.076107 19.398546 18.725243 18.055468 17.390070 16.729929 16.075914 15.428897 14.789743 14.159315 13.538461 12.928040 12.328351 11.738163 11.158051 10.588774 10.031062 9.484871 8.950549 8.428785 7.920247 7.425546 6.944532 6.477555 6.025195 5.587540 5.164591 4.756835 4.364757 3.988822 3.629476 3.287153 2.962270 2.655227 2.366403 0.000000
38.354607 37.883537 37.395756 36.891895 36.372635 35.838669 35.290710 34.729485 34.155758 33.570274 32.973854 32.367279 31.750755 31.123541 30.486355 29.840006 29.185324 28.523149 27.854321 27.179710 26.500187 25.816641 25.129955 24.441029 23.750772 23.060089 22.369898 21.681116 20.994671 20.311483 19.631714 18.954500 18.280649 17.611038 16.946550 16.288052 15.636421 14.992528 14.357234 13.731403 13.115414 12.508090 11.909982 11.321868 10.744513 10.178683 9.625131 9.084234 8.555878 8.040699 7.539371 7.052542 6.580536 6.123160 5.680939 5.254378 4.843243 4.447774 4.068438 3.705690 3.359960 3.031669 2.721218 2.428990 0.000000
38.533527 38.068535 37.586697 37.088623 36.574993 36.046497 35.503845 34.947762 34.378990 33.798309 33.206490 32.603546 31.988909 31.363329 30.727606 30.082546 29.428978 28.767740 28.099678 27.425657 26.746553 26.063244 25.376619 24.687588 23.997042 23.305904 22.615078 21.925497 21.238075 20.553158 19.869827 19.188835 18.511063 17.837393 17.168701 16.505875 15.849777 15.201291 14.561288 13.930176 13.306842 12.691845 12.085979 11.490023 10.904754 10.330939 9.769334 9.220688 8.685656 8.164017 7.656178 7.162802 6.684534 6.221973 5.774906 5.343533 4.928394 4.529707 4.147187 3.781241 3.432310 3.100816 2.787159 2.491726 0.000000
38.718662 38.259846 37.784008 37.291805 36.783875 36.260929 35.723663 35.172794 34.609074 34.033268 33.445087 32.844257 32.231541 31.607714 30.973574 30.329922 29.677597 29.017420 28.350256 27.676954 26.998392 26.315456 25.629030 24.940018 24.249327 23.557861 22.866547 22.176298 21.487566 20.799442 20.112633 19.428013 18.746473 18.068892 17.396152 16.729143 16.068739 15.415815 14.770781 14.132589 13.501842 12.879343 12.265885 11.662258 11.069240 10.487605 9.918115 9.361522 8.818571 8.289989 7.775824 7.276079 6.791402 6.322432 5.869791 5.433708 5.013876 4.610792 4.224939 3.856009 3.504086 3.169594 2.852937 2.554501 0.000000
38.909958 38.457355 37.987598 37.501316 36.999168 36.481846 35.950035 35.404465 34.845840 34.273582 33.687771 33.089142 32.478462 31.856508 31.224066 30.581947 29.930984 29.271997 28.605850 27.933397 27.255508 26.573080 25.886986 25.198132 24.507423 23.815779 23.124100 22.432913 21.741329 21.050028 20.359888 19.671793 18.986635 18.305300 17.628674 16.957636 16.293074 15.635332 14.983463 14.338130 13.700147 13.070318 12.449440 11.838313 11.237716 10.648426 10.071219 9.506848 8.956060 8.419594 7.898173 7.392171 6.901267 6.426037 5.967105 5.525080 5.100476 4.692874 4.302520 3.929914 3.575174 3.237893 2.918440 2.617205 0.000000
39.107281 38.660950 38.197330 37.717056 37.220749 36.709126 36.182842 35.642475 35.087296 34.517673 33.934334 33.338024 32.729492 32.109524 31.478899 30.838440 30.188955 29.531290 28.866285 28.194809 27.517725 26.835928 26.150299 25.461737 24.771149 24.079447 23.387159 22.693451 21.998989 21.304661 20.611347 19.919937 19.231319 18.546381 17.866018 17.191111 16.521893 15.857548 15.198818 14.546525 13.901480 13.264497 12.636377 12.017922 11.409923 10.813157 10.228403 9.656423 9.097971 8.553785 8.024600 7.511128 7.013939 6.532630 6.067585 5.619421 5.188740 4.776125 4.381432 4.004474 3.645734 3.305605 2.983566 2.679738 0.000000
39.310520 38.870537 38.413113 37.938889 37.448502 36.942627 36.421513 35.884514 35.332233 34.765354 34.184597 33.590710 32.984444 32.366577 31.737890 31.099197 30.451319 29.795094 29.131361 28.460985 27.784840 27.103802 26.418764 25.730629 25.040293 24.348265 23.653761 22.957479 22.260296 21.563099 20.866764 20.172194 19.480278 18.791899 18.107958 17.428486 16.752890 16.081978 15.416569 14.757497 14.105569 13.461611 12.826430 12.200830 11.585601 10.981536 10.389415 9.809999 9.244058 8.692330 8.155549 7.634441 7.129712 6.642021 6.171048 5.716928 5.280262 4.861643 4.461637 4.080449 3.717539 3.373308 3.048214 2.741999 0.000000
39.521450 39.087795 38.636536 38.168297 37.683731 37.182598 36.664684 36.130634 35.581139 35.016903 34.438660 33.847160 33.243164 32.627464 32.000828 31.364029 30.717876 30.063211 29.400869 28.731728 28.056643 27.376497 26.692186 26.004604 25.314184 24.620220 23.923454 23.224754 22.525005 21.825090 21.125902 20.428329 19.733265 19.041609 18.353104 17.667501 16.985634 16.308336 15.636436 14.970765 14.312145 13.661398 13.019336 12.386769 11.764500 11.153315 10.554005 9.967339 9.394082 8.834987 8.290788 7.762219 7.249987 6.754791 6.277314 5.817418 5.374953 4.950509 4.544658 4.157962 3.790820 3.442599 3.113503 2.803968 0.000000
39.741863 39.314587 38.869541 38.407230 37.927032 37.429226 36.914444 36.383343 35.836609 35.274956 34.699100 34.109795 33.507809 32.893921 32.268936 31.633678 30.988983 30.335695 29.674685 29.006838 28.332937 27.653816 26.970360 26.282881 25.590782 24.894861 24.195982 23.495024 22.792862 22.090393 21.388506 20.688089 19.990004 19.293707 18.599358 17.907789 17.219837 16.536341 15.858136 15.186058 14.520932 13.863582 13.214829 12.575485 11.946360 11.328244 10.721927 10.128192 9.547804 8.981521 8.430086 7.894229 7.374673 6.872114 6.387248 5.920733 5.472636 5.042552 4.631039 4.238663 3.865963 3.513436 3.180527 2.867173 0.000000
39.971626 39.550781 39.111511 38.653297 38.176682 37.682270 37.170715 36.642651 36.098778 35.539795 34.966419 34.379410 33.779522 33.167549 32.544285 31.910553 31.267183 30.615030 29.954962 29.287853 28.614595 27.936096 27.252495 26.563416 25.869656 25.171928 24.471094 23.768028 23.063618 22.358753 21.654324 20.951042 20.248241 19.546417 18.846409 18.149063 17.455217 16.765717 16.081398 15.403104 14.731660 14.067902 13.412647 12.766717 12.130921 11.506063 10.892931 10.292314 9.704982 9.131697 8.573205 8.030249 7.503545 6.993807 6.501720 6.027965 5.573199 5.137603 4.720613 4.322738 3.944524 3.586500 3.249174 2.932189 0.000000
40.210564 39.795044 39.359825 38.905437 38.432480 37.941551 37.433296 36.908363 36.367432 35.811203 35.240414 34.655788 34.058102 33.448139 32.826694 32.194588 31.552654 30.901749 30.242720 29.576466 28.903866 28.224806 27.539190 26.847878 26.151760 25.451729 24.748680 24.043526 23.337025 22.629923 21.922642 21.214619 20.506603 19.799437 19.093967 18.391033 17.691488 16.996178 16.305944 15.621626 14.944062 14.274084 13.612525 12.960203 12.317934 11.686523 11.066770 10.459460 9.865374 9.285273 8.719917 8.170044 7.636382 7.119640 6.620519 6.139698 5.677841 5.235594 4.813213 4.410028 4.026482 3.663111 3.320427 2.998855 0.000000
40.456387 40.045101 39.613945 39.163460 38.694229 38.206863 37.701992 37.180267 36.642365 36.088989 35.520863 34.938721 34.343334 33.735481 33.115952 32.485577 31.845182 31.195620 30.537750 29.872419 29.199238 28.518450 27.830921 27.137520 26.439127 25.736641 25.030962 24.323006 23.613686 22.902958 22.190754 21.477831 20.764799 20.052486 19.341745 18.633425 17.928377 17.227451 16.531494 15.841353 15.157866 14.481874 13.814205 13.155689 12.507143 11.869378 11.243196 10.629389 10.028742 9.442024 8.869990 8.313392 7.772954 7.249401 6.743427 6.255724 5.786957 5.337778 4.908819 4.500368 4.111679 3.743146 3.395285 3.067774 0.000000
40.707680 40.300697 39.873669 39.427158 38.961731 38.478001 37.976593 37.458160 36.923378 36.372940 35.807560 35.228001 34.635002 34.029354 33.411846 32.783298 32.144543 31.496435 30.839657 30.173710 29.499123 28.816738 28.127434 27.432074 26.731550 26.026751 25.318584 24.607847 23.894112 23.177864 22.459976 21.741329 21.022800 20.305273 19.589458 18.875950 18.165600 17.459263 16.757784 16.062019 15.372812 14.691004 14.017428 13.352918 12.698295 12.054378 11.421967 10.801862 10.194850 9.601706 9.023193 8.460059 7.913042 7.382865 6.870228 6.375830 5.900337 5.444407 5.008677 4.593765 4.199958 3.826450 3.473484 3.139457 0.000000
40.964252 40.561619 40.138798 39.696323 39.234772 38.754753 38.256889 37.741825 37.210239 36.662827 36.100296 35.523399 34.932880 34.329533 33.714142 33.087528 32.450508 31.803532 31.146151 30.479109 29.803242 29.119402 28.428457 27.731274 27.028751 26.321783 25.610760 24.895388 24.176468 23.454874 22.731482 22.007172 21.282825 20.559332 19.837589 19.118479 18.402885 17.691338 16.984545 16.283360 15.588635 14.901214 14.221936 13.551638 12.891140 12.241270 11.602835 10.976635 10.363461 9.764091 9.179295 8.609825 8.056425 7.519816 7.000712 6.499805 6.017775 5.555281 5.112963 4.691445 4.291330 3.912873 3.554197 3.213720 0.000000
41.225895 40.827686 40.409119 39.970753 39.513149 39.036911 38.542660 38.031052 37.502739 36.958431 36.398830 35.824692 35.236744 34.635792 34.022614 33.398022 32.762005 32.114502 31.456337 30.788330 30.111319 29.426155 28.733706 28.034847 27.330429 26.620222 25.904581 25.184368 24.460443 23.733683 23.004967 22.275171 21.545191 20.815918 20.088245 19.363073 18.641294 17.923809 17.211515 16.505110 15.805074 15.112247 14.427475 13.751593 13.085432 12.429818 11.785562 11.153469 10.534335 9.928943 9.338069 8.762466 8.202879 7.660037 7.134658 6.627439 6.139065 5.670195 5.221478 4.793539 4.386985 4.002174 3.637123 3.290376 0.000000
41.492397 41.098663 40.684425 40.250225 39.796638 39.324257 38.833694 38.325607 37.800652 37.259529 36.702950 36.131649 35.546375 34.947903 34.336918 33.713051 33.076736 32.428768 31.769949 31.101109 30.423082 29.736731 29.042915 28.342089 27.634014 26.919489 26.199360 25.474487 24.745737 24.013987 23.280123 22.545027 21.809595 21.074726 20.341314 19.610262 18.882471 18.158842 17.440283 16.727678 16.021938 15.323848 14.633793 13.952539 13.280923 12.619772 11.969905 11.332130 10.707248 10.096042 9.499291 8.917755 8.352184 7.803312 7.271858 6.758525 6.264000 5.788948 5.334021 4.899850 4.487046 4.094803 3.722182 3.369242 0.000000
41.763550 41.374348 40.964485 40.534523 40.085011 39.616547 39.129745 38.625263 38.103745 37.565891 37.012409 36.444027 35.861511 35.265156 34.654697 34.030838 33.394356 32.746037 32.086693 31.417152 30.738255 30.050770 29.354500 28.649933 27.937891 27.219225 26.494780 25.765427 25.032038 24.295483 23.556656 22.816446 22.075750 21.335470 20.596506 19.859762 19.126148 18.396570 17.671928 16.953127 16.241072 15.536654 14.840763 14.154228 13.477367 12.810894 12.155630 11.512383 10.881960 10.265150 9.662730 9.075472 8.504124 7.949426 7.412100 6.892853 6.392376 5.911337 5.450399 5.010188 4.590838 4.190817 3.810424 3.450195 0.000000
42.039139 41.654507 41.249092 40.823410 40.378048 39.913570 39.430603 38.929790 38.411781 37.877270 37.326969 36.761562 36.180809 35.584984 34.974834 34.351097 33.714569 33.066032 32.406296 31.736183 31.055885 30.365480 29.665770 28.957582 28.241745 27.519112 26.790539 26.056890 25.319036 24.577864 23.834261 23.089128 22.343359 21.597853 20.853529 20.111290 19.372042 18.636702 17.906178 17.181372 16.463196 15.752541 15.050311 14.357389 13.674667 13.002948 12.342499 11.693996 11.058245 10.436043 9.828170 9.235398 8.658481 8.098164 7.555173 7.030217 6.523991 6.037169 5.570411 5.124302 4.697598 4.289980 3.902004 3.534203 0.000000
42.318935 41.938942 41.538013 41.116684 40.675510 40.215088 39.736019 39.238956 38.724529 38.193439 37.646011 37.081978 36.501995 35.906761 35.297035 34.673553 34.037106 33.388477 32.728161 32.056034 31.372826 30.679327 29.976347 29.264717 28.545269 27.818848 27.086327 26.348564 25.606436 24.860830 24.112644 23.362770 22.612118 21.861588 21.112093 20.364552 19.619871 18.878965 18.142754 17.412140 16.688034 15.971344 15.262969 14.563802 13.874731 13.196635 12.530387 11.876739 11.235878 10.608500 9.995386 9.397317 8.815044 8.249319 7.700869 7.170412 6.658642 6.166240 5.693868 5.241209 4.807095 4.392072 3.996696 3.621509 0.000000
42.602707 42.227402 41.831020 41.414093 40.977184 40.520870 40.045765 39.552502 39.041664 38.512989 37.966820 37.403835 36.824722 36.230209 35.621017 34.997913 34.361519 33.711697 33.049057 32.374374 31.688414 30.991993 30.285925 29.571026 28.848145 28.118124 27.381836 26.640144 25.893930 25.144085 24.391504 23.637087 22.881746 22.126387 21.371922 20.619272 19.869354 19.123081 18.381378 17.645153 16.915323 16.192795 15.478473 14.773257 14.078036 13.393700 12.721119 12.061158 11.414680 10.782298 10.164165 9.561009 8.973597 8.402678 7.848984 7.313235 6.796132 6.298354 5.820255 5.360422 4.919099 4.496862 4.094280 3.711897 0.000000
42.890247 42.519661 42.127869 41.715401 41.282799 40.830669 40.359585 39.869625 39.360722 38.833527 38.288677 37.726849 37.148727 36.555035 35.946419 35.322788 34.684677 34.032818 33.367958 32.690872 32.002346 31.303179 30.594189 29.876209 29.150068 28.416636 27.676762 26.931328 26.181221 25.427328 24.670549 23.911781 23.151947 22.391951 21.632717 20.875162 20.120205 19.368769 18.621777 17.880144 17.144793 16.416628 15.696564 14.985499 14.284332 13.593950 12.915236 12.249058 11.596277 10.957741 10.334289 9.726267 9.133934 8.558038 7.999314 7.458486 6.936259 6.433288 5.948553 5.481718 5.033382 4.604134 4.194541 3.805154 0.000000
43.181313 42.815487 42.428341 42.020378 41.592152 41.143970 40.675575 40.187496 39.680340 39.154728 38.611298 38.050732 37.473629 36.879940 36.270172 35.645016 35.005203 34.351460 33.684547 33.005230 32.314301 31.612566 30.900837 30.179947 29.450739 28.714071 27.970810 27.221827 26.468014 25.710262 24.949476 24.186560 23.422436 22.658003 21.894199 21.131939 20.372150 19.615757 18.863676 18.116844 17.376171 16.642576 15.916973 15.200269 14.493359 13.797140 13.112495 12.440300 11.781418 11.136703 10.506994 9.893124 9.295848 8.715190 8.151659 7.605968 7.078833 6.570019 6.078499 5.604864 5.149722 4.713662 4.297260 3.901068 0.000000
43.475662 43.114655 42.732182 42.328640 41.903744 41.457901 40.991646 40.505562 40.000237 39.476303 38.934261 38.374092 37.796322 37.201618 36.590660 35.964134 35.322777 34.667324 33.998516 33.317142 32.623985 31.919855 31.205564 30.481951 29.749851 29.010141 28.263674 27.511333 26.754011 25.992601 25.228010 24.461142 23.692919 22.924261 22.156088 21.389328 20.624910 19.863762 19.106810 18.354979 17.609194 16.870378 16.139446 15.417308 14.704863 14.003013 13.312646 12.634641 11.969862 11.319172 10.683412 10.063417 9.460004 8.873978 8.305816 7.755485 7.223283 6.707949 6.209857 5.729634 5.267894 4.825232 4.402224 3.999430 0.000000