64 64
44.543659 44.447025 44.340981 44.225571 44.100864 43.966930 43.823864 43.671745 43.510693 43.340816 43.162247 42.975113 42.780624 42.579899 42.373089 42.160347 41.941822 41.717697 41.488132 41.253319 41.013435 40.768684 40.516991 40.256279 39.986759 39.708652 39.422188 39.127609 38.825161 38.515106 38.197723 37.873276 37.542065 37.204376 36.860519 36.510818 36.155670 35.797337 35.436871 35.074593 34.710823 34.345875 33.980087 33.613789 33.247311 32.880981 32.515148 32.150139 31.786301 31.423964 31.063484 30.702209 30.337490 29.969696 29.599159 29.226257 28.851345 28.474792 28.096977 27.718262 27.339037 26.959673 26.580564 26.202091 25.824638
44.098122 43.994488 43.881588 43.759483 43.628231 43.487919 43.338631 43.180466 43.013535 42.837952 42.653858 42.461384 42.260857 42.053921 41.841076 41.622467 41.398270 41.168648 40.933777 40.693840 40.449036 40.199554 39.944439 39.680664 39.408264 39.127453 38.838474 38.541553 38.236954 37.924931 37.605762 37.279724 36.947105 36.608200 36.263325 35.912781 35.556896 35.196716 34.834476 34.470592 34.105389 33.739189 33.372318 33.005112 32.637897 32.271011 31.904797 31.539581 31.175713 30.813524 30.453369 30.092564 29.728497 29.361517 28.991985 28.620258 28.246693 27.871666 27.495541 27.118694 26.741508 26.364355 25.987621 25.611691 25.236946
43.636299 43.525745 43.406086 43.277367 43.139668 42.993076 42.837677 42.673576 42.500885 42.319725 42.130230 41.932549 41.726822 41.513847 41.295105 41.070789 40.841061 40.606094 40.366074 40.121185 39.871616 39.617577 39.358822 39.092129 38.816994 38.533630 38.242279 37.943176 37.636589 37.322762 37.001984 36.674522 36.340675 36.000740 35.655022 35.303833 34.947498 34.586388 34.222557 33.857262 33.490822 33.123566 32.755806 32.387894 32.020145 31.652912 31.286524 30.921314 30.557629 30.195808 29.836185 29.476009 29.112755 28.746763 28.378395 28.008009 27.635965 27.262630 26.888378 26.513582 26.138611 25.763851 25.389675 25.016479 24.644630
43.158707 43.041317 42.914970 42.779747 42.635708 42.482941 42.321545 42.151623 41.973289 41.786674 41.591915 41.389153 41.178547 40.960281 40.735786 40.505905 40.270798 40.030647 39.785633 39.535954 39.281799 39.023365 38.760803 38.491337 38.213608 37.927841 37.634277 37.333153 37.024734 36.709278 36.387058 36.058353 35.723457 35.382668 35.036293 34.684650 34.328056 33.966846 33.601830 33.235321 32.867836 32.499714 32.131279 31.762856 31.394791 31.027409 30.661057 30.296064 29.932774 29.571529 29.212662 28.853268 28.490982 28.126143 27.759109 27.390236 27.019882 26.648418 26.276215 25.903633 25.531057 25.158871 24.787437 24.417152 24.048386
42.665863 42.541725 42.408813 42.267174 42.116890 41.958061 41.790779 41.615158 41.431309 41.239372 41.039478 40.831779 40.616428 40.393604 40.163727 39.928432 39.688103 39.442928 39.193092 38.938786 38.680206 38.417568 38.151070 37.878956 37.598785 37.310772 37.015152 36.712173 36.402084 36.085159 35.761665 35.431896 35.096130 34.754677 34.407837 34.055923 33.699268 33.338192 32.973034 32.605492 32.237167 31.868383 31.499456 31.130741 30.762554 30.395237 30.029129 29.664566 29.301886 28.941433 28.583519 28.225075 27.863914 27.500391 27.134853 26.767654 26.399162 26.029739 25.659754 25.289570 24.919575 24.550133 24.181625 23.814430 23.448933
42.158325 42.027542 41.888142 41.740192 41.583786 41.419010 41.245960 41.064762 40.875530 40.678398 40.473503 40.261005 40.041065 39.813854 39.579544 39.339012 39.093620 38.843590 38.589096 38.330334 38.067513 37.800835 37.530521 37.255692 36.973228 36.683117 36.385601 36.080921 35.769341 35.451115 35.126530 34.795864 34.459408 34.117466 33.770344 33.418358 33.061829 32.701084 32.336468 31.968536 31.599564 31.230307 30.861107 30.492287 30.124191 29.757145 29.391487 29.027561 28.665705 28.306255 27.949499 27.592163 27.232292 26.870243 26.506365 26.141014 25.774551 25.407337 25.039742 24.672127 24.304880 23.938366 23.572956 23.209038 22.846985
41.636024 41.499317 41.353542 41.199398 41.036976 40.866364 40.687679 40.501030 40.306538 40.104355 39.894608 39.677460 39.453072 39.221626 38.983292 38.738293 38.488010 38.233284 37.974300 37.711262 37.444374 37.173843 36.899887 36.622246 36.337646 36.045597 35.746338 35.440125 35.127205 34.807854 34.482346 34.150963 33.814003 33.471756 33.124538 32.772667 32.416458 32.056240 31.692360 31.325151 30.955776 30.586254 30.216972 29.848263 29.480457 29.113886 28.748898 28.385818 28.024988 27.666754 27.311354 26.955273 26.596853 26.236439 25.874384 25.511044 25.146774 24.781940 24.416908 24.052040 23.687714 23.324295 22.962168 22.601704 22.243275
41.098896 40.957344 40.805607 40.645378 40.477058 40.300743 40.116535 39.924568 39.724960 39.517853 39.303398 39.081745 38.853065 38.617535 38.375343 38.126671 37.871925 37.612679 37.349384 37.082245 36.811470 36.537270 36.259865 35.979347 35.692757 35.398918 35.098087 34.790497 34.476418 34.156109 33.829849 33.497932 33.160641 32.818279 32.471153 32.119579 31.763882 31.404392 31.041443 30.675377 30.306574 29.936991 29.567829 29.199429 28.832117 28.466230 28.102108 27.740086 27.380505 27.023701 26.669832 26.315163 25.958351 25.599735 25.239666 24.878500 24.516592 24.154305 23.792000 23.430046 23.068813 22.708672 22.349993 21.993149 21.638519
40.547516 40.401257 40.244820 40.078743 39.904644 39.722740 39.533154 39.336002 39.131409 38.919529 38.700508 38.474503 38.241692 38.002243 37.756348 37.504204 37.246010 36.982468 36.715042 36.443981 36.169502 35.891819 35.611153 35.327717 35.039295 34.743835 34.441582 34.132782 33.817707 33.496613 33.169785 32.837502 32.500061 32.157761 31.810913 31.459833 31.104843 30.746269 30.384453 30.019726 29.652447 29.283283 28.914448 28.546558 28.179951 27.814957 27.451912 27.091156 26.733025 26.377861 26.025692 25.672596 25.317549 24.960884 24.602966 24.244137 23.884750 23.525171 23.165766 22.806892 22.448921 22.092224 21.737171 21.384127 21.033470
39.982628 39.831585 39.670784 39.500095 39.320370 39.133015 38.938171 38.735973 38.526546 38.310036 38.086597 37.856400 37.619602 37.376396 37.126968 36.871510 36.610233 36.343353 36.071968 35.797165 35.519176 35.238197 34.954460 34.668190 34.378006 34.081078 33.777569 33.467728 33.151821 32.830116 32.502888 32.170422 31.833014 31.490963 31.144581 30.794182 30.440086 30.082626 29.722130 29.358950 28.993420 28.625900 28.257618 27.890440 27.524738 27.160841 26.799080 26.439800 26.083332 25.730017 25.379704 25.028332 24.675205 24.320654 23.965038 23.608702 23.252007 22.895302 22.538960 22.183332 21.828796 21.475708 21.124443 20.775368 20.428858
39.404846 39.248924 39.083862 38.909142 38.724880 38.532204 38.332245 38.125137 37.911015 37.690029 37.462330 37.228088 36.987473 36.740669 36.487873 36.229279 35.965096 35.695538 35.420883 35.142532 34.861214 34.577129 34.290516 34.001598 33.709644 33.411407 33.106812 32.796097 32.479523 32.157379 31.829926 31.497452 31.160255 30.818640 30.472906 30.123379 29.770369 29.414209 29.055241 28.693798 28.330219 27.964870 27.598125 27.231869 26.867271 26.504675 26.144407 25.786808 25.432213 25.080956 24.732632 24.383141 24.032082 23.679806 23.326653 22.972971 22.619123 22.265457 21.912338 21.560123 21.209179 20.859871 20.512562 20.167624 19.825426
38.814770 38.654018 38.484680 38.306046 38.118084 37.920971 37.716038 37.504169 37.285500 37.060184 36.828377 36.590256 36.345982 36.095753 35.839756 35.578197 35.311279 35.039230 34.762264 34.480801 34.196339 33.909348 33.620056 33.328686 33.034981 32.735600 32.430061 32.118641 31.801582 31.479164 31.151661 30.819363 30.482561 30.141558 29.796658 29.448185 29.096451 28.741795 28.384541 28.025032 27.663605 27.300621 26.936428 26.571634 26.208351 25.847260 25.488689 25.132980 24.780458 24.431469 24.085255 23.737791 23.388962 23.039108 22.688576 22.337708 21.986866 21.636396 21.286659 20.938021 20.590832 20.245466 19.902279 19.561642 19.223915
38.213013 38.047546 37.873867 37.691429 37.499901 37.299431 37.090225 36.873741 36.650681 36.421188 36.185432 35.943588 35.695824 35.442333 35.183315 34.918961 34.649490 34.375126 34.096085 33.812614 33.525307 33.235603 32.943825 32.650208 32.354790 32.054417 31.748119 31.436150 31.118771 30.796251 30.468872 30.136929 29.800697 29.460489 29.116611 28.769382 28.419117 28.066143 27.710798 27.353416 26.994343 26.633923 26.272512 25.910469 25.548779 25.189394 24.832729 24.479107 24.128868 23.782349 23.438345 23.093061 22.746613 22.399336 22.051575 21.703678 21.355997 21.008884 20.662693 20.317781 19.974510 19.633242 19.294342 18.958168 18.625084
37.600197 37.430141 37.252110 37.065952 36.870987 36.667305 36.455078 36.234550 36.007248 35.773743 35.534203 35.288795 35.037712 34.781132 34.519257 34.252289 33.980450 33.703949 33.423027 33.137909 32.848835 32.556637 32.262577 31.966913 31.669844 31.368645 31.061747 30.749401 30.431870 30.109425 29.782351 29.450928 29.115450 28.776220 28.433548 28.087749 27.739136 27.388039 27.034796 26.679733 26.323204 25.965549 25.607117 25.248270 24.889362 24.531889 24.177322 23.825996 23.478245 23.134401 22.792681 22.449728 22.105810 21.761263 21.416428 21.071653 20.727291 20.383686 20.041191 19.700171 19.360977 19.023968 18.689508 18.357954 18.029663
36.976952 36.802441 36.620190 36.430275 36.232002 36.025246 35.810177 35.586964 35.355923 35.118561 34.875397 34.626595 34.372360 34.112858 33.848305 33.578903 33.304871 33.026428 32.743801 32.457230 32.166950 31.873222 31.577084 31.279575 30.980942 30.679081 30.371742 30.059185 29.741676 29.419476 29.092876 28.762156 28.427610 28.089542 27.748255 27.404064 27.057297 26.708263 26.357307 26.004765 25.650970 25.296265 24.941017 24.585564 24.230263 23.875546 23.523283 23.174454 22.829391 22.488426 22.149046 21.808571 21.467331 21.125660 20.783909 20.442406 20.101511 19.761568 19.422932 19.085949 18.750986 18.418392 18.088528 17.761745 17.438412
36.343941 36.165104 35.978764 35.785069 35.583611 35.373924 35.156158 34.930492 34.697113 34.456360 34.209732 33.957718 33.700489 33.438251 33.171200 32.899548 32.623501 32.343292 32.059151 31.771317 31.480026 31.185535 30.888107 30.588964 30.288935 29.986509 29.678902 29.366306 29.048977 28.727200 28.401245 28.071404 27.737968 27.401241 27.061523 26.719131 26.374386 26.027607 25.679131 25.329287 24.978416 24.626867 24.274986 23.923120 23.571629 23.220865 22.871428 22.525295 22.183117 21.845179 21.508221 21.170368 20.831951 20.493309 20.154781 19.816706 19.479427 19.143299 18.808662 18.475880 18.145296 17.817268 17.492149 17.170300 16.852066
35.701828 35.518791 35.328503 35.131100 34.926514 34.714027 34.493710 34.265739 34.030300 33.787590 33.537960 33.282887 33.022854 32.758049 32.488674 32.214943 31.937075 31.655291 31.369827 31.080914 30.788805 30.493744 30.195997 29.895861 29.594639 29.291744 28.984028 28.671551 28.354584 28.033398 27.708265 27.379478 27.047329 26.712116 26.374149 26.033735 25.691200 25.346861 25.001047 24.654097 24.306343 23.958130 23.609808 23.261721 22.914230 22.567677 22.222437 21.879322 21.540234 21.205379 20.870983 20.535894 20.200451 19.864983 19.529823 19.195318 18.861809 18.529640 18.199162 17.870718 17.544666 17.221350 16.901131 16.584356 16.271378
35.051285 34.864189 34.670090 34.469124 34.261398 34.046261 33.823536 33.593407 33.356052 33.111691 32.860508 32.602859 32.340187 32.072994 31.801479 31.525856 31.246349 30.963175 30.676575 30.386784 30.094048 29.798615 29.500748 29.200712 28.898846 28.595585 28.287926 27.975744 27.659302 27.338869 27.014734 26.687176 26.356491 26.022974 25.686939 25.348684 25.008537 24.666817 24.323854 23.979982 23.635529 23.290844 22.946272 22.602152 22.258846 21.916700 21.576073 21.237328 20.901545 20.569801 20.238108 19.905933 19.573605 19.241451 18.909809 18.579018 18.249420 17.921358 17.595177 17.271223 16.949844 16.631390 16.316212 16.004662 15.697083
34.393005 34.201992 34.004215 33.799835 33.588989 33.371330 33.146339 32.914204 32.675095 32.429230 32.176804 31.918037 31.653255 31.383852 31.110378 30.833048 30.552086 30.267712 29.980164 29.689680 29.396507 29.100906 28.803120 28.503420 28.202072 27.898846 27.591406 27.279680 26.963932 26.644434 26.321465 25.995308 25.666260 25.334618 25.000683 24.664772 24.327196 23.988281 23.648350 23.307734 22.966770 22.625797 22.285152 21.945192 21.606262 21.268703 20.932884 20.599150 20.267864 19.939226 19.610378 19.281254 18.952179 18.623484 18.295502 17.968567 17.643026 17.319214 16.997475 16.678150 16.361591 16.048143 15.738150 15.431960 15.129921
33.727684 33.532890 33.331589 33.123936 32.910076 32.689957 32.462852 32.228855 31.988148 31.740932 31.487421 31.227829 30.962387 30.691381 30.416134 30.137281 29.855047 29.569660 29.281359 28.990381 28.696968 28.401382 28.103872 27.804714 27.504162 27.202095 26.895285 26.584181 26.269295 25.950897 25.629263 25.304680 24.977448 24.647852 24.316196 23.982803 23.647978 23.312046 22.975327 22.638155 22.300858 21.963778 21.627251 21.291628 20.957253 20.624470 20.293636 19.965107 19.639229 19.314430 18.988565 18.662628 18.336948 18.011852 17.687668 17.364735 17.043385 16.723961 16.406803 16.092251 15.780648 15.472342 15.167673 14.866985 14.570625
33.056034 32.857597 32.652920 32.442142 32.225426 32.002872 31.773800 31.538094 31.295933 31.047535 30.793091 30.532841 30.266994 29.995796 29.719511 29.439320 29.156008 28.869801 28.580933 28.289650 27.996193 27.700823 27.403790 27.105362 26.805809 26.505146 26.200136 25.890055 25.576199 25.259068 24.938942 24.616108 24.290854 23.963480 23.634289 23.303587 22.971689 22.638912 22.305588 21.972031 21.638584 21.305576 20.973351 20.642246 20.312607 19.984779 19.659115 19.335960 19.015671 18.695614 18.373440 18.050831 17.728682 17.407318 17.087070 16.768269 16.451254 16.136356 15.823914 15.514272 15.207764 14.904734 14.605524 14.310472 14.019922
32.378765 32.176842 31.968927 31.755178 31.535749 31.310808 31.079922 30.842655 30.599205 30.349770 30.094566 29.833807 29.567726 29.296555 29.020550 28.739952 28.455746 28.168909 27.879665 27.588272 27.294968 27.000004 26.703642 26.406151 26.107790 25.808687 25.505756 25.197882 24.885460 24.569767 24.251316 23.930399 23.607300 23.282318 22.955757 22.627922 22.299126 21.969685 21.639923 21.310165 20.980740 20.651985 20.324232 19.997824 19.673096 19.350403 19.030083 18.712486 18.397812 18.082539 17.765326 17.446615 17.128132 16.810638 16.494461 16.179930 15.867382 15.557142 15.249556 14.944951 14.643670 14.346052 14.052432 13.763145 13.478537
31.696606 31.491339 31.280346 31.063778 30.841793 30.614567 30.381960 30.143291 29.898701 29.648392 29.392582 29.131481 28.865326 28.594351 28.318810 28.038942 27.755024 27.467770 27.178345 26.887028 26.594069 26.299711 26.004219 25.707855 25.410885 25.113503 24.812799 24.507412 24.197618 23.883804 23.567198 23.248362 22.927589 22.605173 22.281410 21.956615 21.631090 21.305159 20.979137 20.653347 20.328121 20.003788 19.680685 19.359142 19.039509 18.722118 18.407314 18.095448 17.786285 17.475920 17.163837 16.850389 16.536064 16.222569 15.910595 15.600466 15.292513 14.987068 14.684460 14.385027 14.089102 13.797020 13.509119 13.225729 12.947186
31.010292 30.801830 30.587904 30.368671 30.144289 29.914938 29.680672 29.440754 29.195179 28.944151 28.687895 28.426615 28.160551 27.889938 27.615028 27.336063 27.053310 26.767040 26.477749 26.186707 25.894283 25.600727 25.306297 25.011257 24.715878 24.420389 24.122066 23.819309 23.512405 23.201651 22.887398 22.570814 22.252533 21.932846 21.612057 21.290466 20.968388 20.646133 20.324017 20.002369 19.681511 19.361774 19.043489 18.726986 18.412609 18.100695 17.791580 17.485611 17.181816 16.876474 16.569645 16.261673 15.952906 15.643856 15.336212 15.030614 14.727386 14.426859 14.129362 13.835224 13.544783 13.258365 12.976303 12.698929 12.426577
30.320578 30.109056 29.892357 29.670618 29.443995 29.212673 28.976814 28.735798 28.489399 28.237814 27.981268 27.719976 27.454166 27.184082 26.909967 26.632071 26.350658 26.065996 25.778362 25.488096 25.196402 24.903835 24.610668 24.317150 24.023554 23.730133 23.434338 23.134361 22.830492 22.523029 22.212276 21.898556 21.582932 21.266146 20.948494 20.630278 20.311806 19.993397 19.675362 19.358021 19.041698 18.726723 18.413422 18.102127 17.793175 17.486898 17.183640 16.883730 16.585119 16.284918 15.983458 15.681076 15.378119 15.074940 14.772054 14.471109 14.172731 13.877249 13.584987 13.296269 13.011428 12.730793 12.454695 12.183457 11.917410
29.628654 29.413773 29.194447 28.970352 28.741653 28.508530 28.271156 28.029194 27.782125 27.530140 27.273472 27.012325 26.746937 26.477543 26.204390 25.927731 25.647831 25.364946 25.079365 24.791355 24.501207 24.209831 23.918114 23.626308 23.334694 23.043526 22.750401 22.453354 22.152672 21.848652 21.541588 21.231796 20.919594 20.605867 20.291519 19.976843 19.662148 19.347746 19.033955 18.721085 18.409464 18.099413 17.791262 17.485336 17.181971 16.881496 16.584251 16.290480 15.996907 15.701962 15.405977 15.109302 14.812263 14.515221 14.218531 13.922680 13.629273 13.338955 13.052043 12.768867 12.489748 12.215017 11.944994 11.680006 11.419891
28.935467 28.716721 28.494930 28.268646 28.038027 27.803259 27.564516 27.321711 27.074125 26.821909 26.565266 26.304428 26.039621 25.771086 25.499063 25.223812 24.945583 24.664658 24.381290 24.095776 23.808392 23.519428 23.229427 22.939533 22.650085 22.361359 22.071049 21.777081 21.479729 21.179293 20.876068 20.570370 20.262503 19.952793 19.641926 19.330952 19.020195 18.709969 18.400576 18.092342 17.785583 17.480621 17.177780 16.877384 16.579762 16.285250 15.994169 15.706328 15.417888 15.128305 14.837909 14.547039 14.256030 13.965235 13.675001 13.385677 13.097723 12.812686 12.531244 12.253723 11.980443 11.711724 11.447848 11.188277 10.932056
28.241623 28.018843 27.794567 27.566248 27.333876 27.097626 26.857683 26.614117 26.366177 26.113873 25.857430 25.597061 25.333000 25.065483 24.794758 24.521076 24.244694 23.965885 23.684912 23.402054 23.117601 22.831837 22.545057 22.257599 21.970516 21.684412 21.397060 21.106312 20.812435 20.515728 20.216488 19.915022 19.611641 19.306662 19.000412 18.693398 18.386738 18.080839 17.776012 17.472570 17.170828 16.871109 16.573732 16.279018 15.987305 15.698901 15.414147 15.131958 14.848756 14.564642 14.279935 13.994976 13.710102 13.425654 13.141978 12.859423 12.578341 12.299143 12.023287 11.751530 11.484194 11.221233 10.962233 10.706470 10.454123
27.546577 27.321030 27.094124 26.863934 26.629963 26.392397 26.151417 25.907190 25.659050 25.406826 25.150732 24.890993 24.627840 24.361509 24.092245 23.820299 23.545929 23.269402 22.990984 22.710960 22.429604 22.147213 21.864069 21.580475 21.296734 21.013470 20.729223 20.441830 20.151571 19.858738 19.563620 19.266533 18.967777 18.667675 18.366539 18.064707 17.762547 17.461136 17.161030 16.862534 16.565966 16.271645 15.979881 15.691007 15.405338 15.123203 14.844919 14.568067 14.290203 14.011654 13.732740 13.453796 13.175156 12.897154 12.620135 12.344442 12.070429 11.798443 11.528851 11.262794 11.000628 10.742239 10.486976 10.235048 9.986706
26.850653 26.622692 26.393845 26.162458 25.927059 25.688337 25.446491 25.201706 24.953524 24.701532 24.445953 24.187004 23.924921 23.659935 23.392296 23.122246 22.850054 22.575977 22.300287 22.023258 21.745169 21.466309 21.186968 20.907440 20.628029 20.349033 20.068306 19.784412 19.497908 19.209084 18.918236 18.625664 18.331675 18.036583 17.740705 17.444366 17.147896 16.851627 16.556391 16.262993 15.971750 15.682973 15.396981 15.114088 14.834619 14.558888 14.286980 14.015330 13.742908 13.470023 13.197000 12.924166 12.651852 12.380391 12.110123 11.841391 11.574533 11.309818 11.047072 10.786535 10.528786 10.274056 10.022585 9.774620 9.530409
26.154543 25.924347 25.693569 25.461678 25.225863 24.986223 24.743666 24.498463 24.250372 23.998775 23.743868 23.485874 23.225016 22.961536 22.695686 22.427702 22.157845 21.886379 21.613575 21.339705 21.065048 20.789886 20.514511 20.239216 19.964294 19.690058 19.414234 19.134773 18.852209 18.567535 18.281086 17.993164 17.704081 17.414137 17.123652 16.832947 16.542349 16.252188 15.962793 15.674706 15.388932 15.105847 14.825768 14.549002 14.275870 14.006691 13.740778 13.474432 13.207541 12.940413 12.673374 12.406740 12.140846 11.876018 11.612591 11.350851 11.090669 10.832250 10.575903 10.321314 10.068168 9.817211 9.569660 9.325783 9.085833
25.458952 25.226696 24.994160 24.761425 24.525858 24.286543 24.043728 23.798265 23.550381 23.299332 23.045254 22.788364 22.528898 22.267090 22.003180 21.737419 21.470066 21.201378 20.931620 20.661072 20.390007 20.118708 19.847462 19.576555 19.306292 19.036963 18.766190 18.492035 18.214809 17.934843 17.652931 17.369797 17.085743 16.801081 16.516121 16.231182 15.946587 15.662660 15.379735 15.098145 14.818253 14.541004 14.266973 13.996473 13.729820 13.467323 13.206980 12.946030 12.684758 12.423485 12.162515 11.902174 11.642788 11.384628 11.127600 10.871904 10.617855 10.365725 10.115040 9.865700 9.617983 9.372179 9.128791 8.889132 8.653563
24.764587 24.530441 24.296324 24.062456 23.827272 23.588638 23.346754 23.101862 22.854319 22.603981 22.350887 22.095264 21.837345 21.577362 21.315556 21.052179 20.787483 20.521730 20.255186 19.988117 19.720800 19.453522 19.186563 18.920212 18.654757 18.390490 18.124876 17.856131 17.584578 17.310528 17.034311 16.756298 16.477409 16.198154 15.918847 15.639800 15.361337 15.083773 14.807438 14.532668 14.259790 13.989145 13.721321 13.457224 13.197180 12.941319 12.686241 12.430773 12.175216 11.919876 11.665066 11.411026 11.157681 10.905268 10.654083 10.404425 10.156493 9.909732 9.664221 9.420238 9.178062 8.937971 8.700249 8.465242 8.234177
24.072153 23.836298 23.600777 23.365814 23.130859 22.893049 22.652283 22.408785 22.162735 21.913490 21.661541 21.407345 21.151129 20.893127 20.633587 20.372749 20.110870 19.848209 19.585028 19.321598 19.058193 18.795090 18.532574 18.270927 18.010441 17.751373 17.491020 17.227798 16.962015 16.693993 16.424044 16.152502 15.879705 15.606089 15.332556 15.059525 14.787310 14.516230 14.246611 13.978778 13.713060 13.449791 13.189301 12.931959 12.678652 12.428947 12.179210 11.929310 11.679544 11.430075 11.180882 10.932243 10.684444 10.437777 10.192531 9.948743 9.705906 9.464234 9.224003 8.985483 8.748949 8.514678 8.282948 8.054042 7.828241
23.382357 23.144968 22.908226 22.672348 22.437370 22.200531 21.961023 21.719070 21.474892 21.227934 20.977947 20.725372 20.471016 20.215157 19.958031 19.699890 19.440983 19.181568 18.921909 18.662271 18.402927 18.144157 17.886234 17.629448 17.374081 17.120350 16.865358 16.607756 16.347845 16.085947 15.822371 15.557444 15.291499 15.024874 14.757904 14.491066 14.225222 13.960743 13.697953 13.437170 13.178726 12.922943 12.670156 12.420692 12.174889 11.930832 11.686502 11.441944 11.197314 10.952888 10.708935 10.465738 10.223580 9.982750 9.743006 9.504087 9.266259 9.029785 8.794935 8.561975 8.331182 8.102829 7.877190 7.654543 7.435166
22.695913 22.457170 22.219385 21.982769 21.747549 21.511833 21.273735 21.033470 20.791279 20.546770 20.299511 20.049759 19.797773 19.544205 19.289654 19.034361 18.778582 18.522568 18.266582 18.010891 17.755760 17.501469 17.248291 16.996510 16.746412 16.498137 16.248606 15.996721 15.742783 15.487101 15.229994 14.971778 14.712780 14.453336 14.193782 13.934458 13.675712 13.418003 13.162151 12.908532 12.657468 12.409283 12.164298 11.922848 11.684841 11.446607 11.207233 10.967390 10.727680 10.488380 10.249761 10.012097 9.775608 9.539829 9.304816 9.070821 8.838102 8.606923 8.377552 8.150253 7.925295 7.702953 7.483497 7.267201 7.054339
22.013527 21.773613 21.534962 21.297789 21.062319 20.827698 20.591150 20.352724 20.112658 19.870716 19.626322 19.379711 19.131140 18.880873 18.629215 18.376925 18.124420 17.871960 17.619795 17.368196 17.117428 16.867765 16.619482 16.372852 16.128166 15.885448 15.641476 15.395401 15.147526 14.898160 14.647610 14.396196 14.144239 13.892068 13.640017 13.388422 13.137625 12.887966 12.639800 12.393536 12.149955 11.909378 11.671909 11.437843 11.206187 10.973543 10.739968 10.505754 10.271224 10.037142 9.803944 9.571621 9.339778 9.108641 8.878456 8.649479 8.421968 8.196181 7.972383 7.750838 7.531810 7.315567 7.102383 6.892520 6.686257
21.335913 21.095009 20.855669 20.618120 20.382582 20.148872 19.914022 19.677582 19.439781 19.200521 18.959122 18.715782 18.470757 18.224318 17.976719 17.728245 17.479248 17.230484 16.982292 16.734932 16.488674 16.243782 16.000532 15.759199 15.520063 15.283001 15.044677 14.804501 14.562779 14.319815 14.075914 13.831387 13.586555 13.341744 13.097280 12.853497 12.610731 12.369318 12.129488 11.891447 11.655519 11.422042 11.191683 10.964880 10.738900 10.511924 10.284223 10.056085 9.827801 9.599644 9.371362 9.143414 8.916115 8.689712 8.464453 8.240592 8.018381 7.798080 7.579947 7.364241 7.151228 6.941174 6.734344 6.531001 6.331417
20.663773 20.422060 20.182220 19.944473 19.709049 19.476101 19.243092 19.008774 18.773388 18.536922 18.298649 18.058712 17.817366 17.574875 17.331503 17.087521 16.843203 16.598839 16.354809 16.111832 15.870224 15.630245 15.392170 15.156271 14.922826 14.691493 14.458896 14.224710 13.989228 13.752751 13.515578 13.278025 13.040401 12.803030 12.566190 12.330073 12.094981 11.861227 11.629128 11.399000 11.171165 10.945944 10.723660 10.503988 10.283546 10.062305 9.840544 9.618551 9.396376 9.173690 8.950727 8.727756 8.505142 8.283569 8.063332 7.844676 7.627858 7.413129 7.200747 6.990970 6.784058 6.580269 6.379872 6.183127 5.990295
19.997822 19.755478 19.515316 19.277555 19.042423 18.810139 18.579098 18.347054 18.114216 17.880663 17.645639 17.409235 17.171696 16.933285 16.694260 16.454895 16.215464 15.976244 15.737518 15.499575 15.262803 15.027876 14.795114 14.564780 14.337154 14.111612 13.884829 13.656713 13.427555 13.197641 12.967207 12.736492 12.505787 12.275394 12.045610 11.816734 11.589082 11.362959 11.138676 10.916546 10.696885 10.480009 10.266237 10.053748 9.839934 9.625076 9.409440 9.192980 8.975920 8.758517 8.541025 8.323712 8.106840 7.890684 7.675601 7.462241 7.250898 7.041829 6.835282 6.631512 6.430778 6.233335 6.039446 5.849371 5.663363
19.338760 19.095968 18.855661 18.618067 18.383404 18.151897 17.922775 17.693134 17.462994 17.232471 17.000828 16.768078 16.534470 16.300259 16.065708 15.831086 15.596661 15.362709 15.129513 14.897356 14.666526 14.437311 14.210064 13.985433 13.763733 13.543921 13.322854 13.100609 12.877457 12.653675 12.429537 12.205333 11.981353 11.757885 11.535227 11.313683 11.093551 10.875136 10.658749 10.444695 10.233284 10.024832 9.819344 9.613477 9.406461 9.198227 8.988652 8.778006 8.566566 8.354622 8.142680 7.931097 7.720142 7.510078 7.301177 7.093706 6.887997 6.684663 6.484030 6.286345 6.091864 5.900841 5.713531 5.530191 5.351076
18.685986 18.443764 18.203869 17.966667 17.732679 17.502140 17.274847 17.047754 16.820446 16.593073 16.364937 16.135963 15.906404 15.676512 15.446541 15.216753 14.987411 14.758785 14.531142 14.304760 14.079908 13.856874 13.635933 13.417364 13.201468 12.987055 12.771484 12.554962 12.337756 12.120136 11.902381 11.684771 11.467591 11.251130 11.035683 10.821542 10.609006 10.398376 10.189957 9.984051 9.780964 9.581003 9.382917 9.183526 8.982474 8.779996 8.576354 8.371819 8.166661 7.961161 7.755598 7.550256 7.345423 7.141519 6.938953 6.737990 6.538904 6.341967 6.147462 5.955935 5.767778 5.583241 5.402576 5.226038 5.053875
18.036566 17.795540 17.557098 17.321499 17.089003 16.859865 16.634430 16.410099 16.185797 15.961716 15.737185 15.512067 15.286606 15.061054 14.835663 14.610693 14.386401 14.163057 13.940927 13.720278 13.501389 13.284530 13.069979 12.858019 12.648928 12.440636 12.230940 12.020230 11.809049 11.597672 11.386374 11.175436 10.965134 10.755754 10.547589 10.340925 10.136059 9.933286 9.732904 9.535212 9.340513 9.148872 8.956705 8.762783 8.567357 8.370687 8.173029 7.974654 7.775830 7.576829 7.377930 7.179410 6.981558 6.784656 6.588990 6.394855 6.202551 6.012506 5.825045 5.640436 5.458957 5.280982 5.107025 4.937345 4.772019
17.390665 17.150990 16.914160 16.680431 16.450062 16.223307 16.000420 15.779367 15.558294 15.337627 15.116823 14.895679 14.674437 14.453341 14.232647 14.012609 13.793486 13.575538 13.359030 13.144234 12.931414 12.720842 12.512794 12.307550 12.105335 11.903470 11.700409 11.496437 11.291842 11.086915 10.882151 10.677954 10.474601 10.272374 10.071558 9.872440 9.675308 9.480456 9.288174 9.098711 8.911899 8.726645 8.539778 8.351345 8.161592 7.970777 7.779154 7.586987 7.394540 7.202085 7.009893 6.818242 6.627410 6.437678 6.249332 6.062657 5.877939 5.695470 5.515532 5.338423 5.164428 4.993891 4.827170 4.664534 4.504858
16.748959 16.510794 16.275736 16.044037 15.815952 15.591736 15.371643 15.154437 14.937506 14.721024 14.504440 14.287506 14.070593 13.854073 13.638186 13.423195 13.209349 12.996908 12.786138 12.577299 12.370658 12.166482 11.965044 11.766613 11.571267 11.375881 11.179514 10.982441 10.784950 10.587326 10.389864 10.192853 9.996605 9.801594 9.608192 9.416681 9.227346 9.040426 8.855785 8.673590 8.494006 8.314104 8.132586 7.949687 7.765655 7.580740 7.395195 7.209278 7.023252 6.837383 6.651938 6.467193 6.283422 6.100901 5.919908 5.740726 5.563638 5.388927 5.216880 5.047776 4.881907 4.719554 4.561003 4.406177 4.251976
16.112139 15.875647 15.642510 15.412996 15.187349 14.965826 14.748678 14.535273 14.322604 14.110620 13.898812 13.686876 13.475073 13.263670 13.052929 12.843135 12.634675 12.427853 12.222923 12.020147 11.819790 11.622114 11.427383 11.235870 11.047348 10.858496 10.668869 10.478752 10.288414 10.098146 9.908232 9.718960 9.530627 9.343531 9.157965 8.974163 8.792140 8.612217 8.434647 8.259684 8.086428 7.911729 7.735602 7.558283 7.380013 7.201037 7.021610 6.841983 6.662416 6.483171 6.304512 6.126707 5.950028 5.774748 5.601139 5.429481 5.260051 5.093129 4.928992 4.767922 4.610200 4.456105 4.305915 4.157738 4.009450
15.480885 15.246215 15.015165 14.787985 14.564931 14.346255 14.132206 13.922576 13.714273 13.506891 13.299957 13.093119 12.886632 12.680758 12.475765 12.271920 12.069490 11.868753 11.669975 11.473440 11.279464 11.088385 10.900464 10.715965 10.534195 10.351923 10.169090 9.985970 9.802835 9.619967 9.437643 9.256155 9.075788 8.896688 8.718834 8.542482 8.367906 8.195372 8.025151 7.857427 7.689440 7.519985 7.349292 7.177590 7.005119 6.832124 6.658850 6.485549 6.312475 6.139886 5.968044 5.797211 5.627652 5.459641 5.293443 5.129334 4.967585 4.808473 4.652269 4.499249 4.349617 4.203584 4.060650 3.917759 3.774740
14.855881 14.623189 14.394371 14.169687 13.949375 13.733698 13.522895 13.317036 13.113211 12.910535 12.708563 12.506910 12.305831 12.105581 11.906427 11.708626 11.512449 11.318165 11.126044 10.936356 10.749374 10.565372 10.384628 10.207413 10.032394 9.856770 9.680773 9.504693 9.328802 9.153372 8.978670 8.804699 8.631607 8.459650 8.289091 8.120192 7.953217 7.788432 7.626105 7.465249 7.302876 7.139055 6.974034 6.808060 6.641426 6.474443 6.307356 6.140412 5.973863 5.807958 5.642957 5.479120 5.316710 5.155989 4.997200 4.840563 4.686337 4.534776 4.386130 4.240661 4.098617 3.960168 3.822670 3.684942 3.547194
14.237804 14.007243 13.780816 13.558772 13.341357 13.128821 12.921414 12.719345 12.520099 12.322231 12.125312 11.928934 11.733347 11.538808 11.345573 11.153906 10.964066 10.776321 10.590936 10.408179 10.228317 10.051620 9.878359 9.708807 9.540762 9.372225 9.203461 9.034746 8.866220 8.697939 8.530159 8.363133 8.197124 8.032393 7.869205 7.707817 7.548497 7.391510 7.236945 7.081849 6.925240 6.767350 6.608422 6.448696 6.288413 6.127825 5.967178 5.806730 5.646728 5.487432 5.329127 5.172087 5.016557 4.862787 4.711027 4.561530 4.414542 4.270317 4.129107 3.991159 3.856727 3.724555 3.592118 3.459560 3.327090
13.627331 13.399053 13.175165 12.955912 12.741539 12.532299 12.328430 12.130183 11.935618 11.742656 11.550877 11.359856 11.169847 10.981100 10.793869 10.608414 10.424992 10.243863 10.065292 9.889540 9.716874 9.547559 9.381858 9.219915 9.058796 8.897284 8.735430 8.573473 8.411660 8.250239 8.089462 7.929583 7.770861 7.613547 7.457903 7.304185 7.152657 7.003576 6.855641 6.706177 6.555337 6.403356 6.250466 6.096910 5.942923 5.788751 5.634640 5.480836 5.327592 5.175156 5.023783 4.873724 4.725235 4.578571 4.433984 4.291731 4.152062 4.015234 3.881497 3.751101 3.623799 3.496644 3.369273 3.241889 3.114702
13.025126 12.799286 12.578085 12.361773 12.150590 11.944787 11.744601 11.550283 11.360441 11.172484 10.985923 10.800344 10.615992 10.433117 10.251970 10.072802 9.895872 9.721434 9.549749 9.381077 9.215679 9.053809 8.895620 8.740757 8.585947 8.430717 8.275297 8.119931 7.964865 7.810340 7.656605 7.503911 7.352505 7.202647 7.054585 6.908570 6.764868 6.623369 6.481006 6.337186 6.192135 6.046076 5.899244 5.751872 5.604198 5.456457 5.308896 5.161755 5.015281 4.869721 4.725323 4.582335 4.441011 4.301597 4.164342 4.029497 3.897314 3.768039 3.641917 3.519150 3.397352 3.275223 3.152961 3.030770 2.908849
12.431863 12.208607 11.990244 11.777018 11.569170 11.366945 11.170583 10.980330 10.795237 10.612373 10.431110 10.251049 10.072432 9.895506 9.720514 9.547709 9.377343 9.209667 9.044898 8.883152 8.724659 8.569650 8.418360 8.269945 8.121282 7.972357 7.823409 7.674671 7.526383 7.378787 7.232126 7.086644 6.942594 6.800215 6.659762 6.521485 6.385631 6.250314 6.113469 5.975308 5.836057 5.695938 5.555175 5.414001 5.272648 5.131351 4.990348 4.849882 4.710189 4.571515 4.434100 4.298194 4.164039 4.031883 3.901968 3.774540 3.649845 3.528126 3.409626 3.293149 3.176289 3.059186 2.942035 2.825032 2.708377
11.848196 11.627674 11.412294 11.202297 10.997926 10.799425 10.607026 10.420973 10.240664 10.062984 9.887095 9.712626 9.539814 9.368906 9.200067 9.033487 8.869396 8.708021 8.549595 8.394349 8.242519 8.094333 7.950023 7.807838 7.665347 7.522762 7.380313 7.238231 7.096752 6.956114 6.816553 6.678315 6.541640 6.406770 6.273953 6.143431 6.014709 5.884773 5.753456 5.620968 5.487526 5.353353 5.218669 5.083701 4.948679 4.813835 4.679399 4.545611 4.412704 4.280921 4.150498 4.021676 3.894696 3.769798 3.647225 3.527216 3.410009 3.295847 3.184380 3.072804 2.960881 2.848799 2.736752 2.624935 2.513542
11.274784 11.057141 10.844889 10.638263 10.437510 10.242865 10.054565 9.872849 9.697351 9.524845 9.354228 9.185147 9.017830 8.852495 8.689377 8.528690 8.370667 8.215532 8.063514 7.914845 7.769750 7.628456 7.491119 7.354983 7.218695 7.082476 6.946552 6.811150 6.676505 6.542849 6.410411 6.279435 6.150156 6.022819 5.897655 5.774822 5.651717 5.527171 5.401387 5.274576 5.146953 5.018731 4.890132 4.761374 4.632688 4.504299 4.376436 4.249327 4.123212 3.998318 3.874888 3.753149 3.633342 3.515702 3.400469 3.287873 3.178153 3.071409 2.965117 2.858381 2.751387 2.644320 2.537371 2.430732 2.324592
10.712187 10.497505 10.288430 10.085194 9.888025 9.697157 9.512808 9.335204 9.164188 8.996593 8.831020 8.667179 8.505286 8.345562 8.188229 8.033510 7.881626 7.732804 7.587267 7.445237 7.306943 7.172606 7.042005 6.911927 6.781863 6.652030 6.522655 6.393954 6.266161 6.139503 6.014213 5.890517 5.768655 5.648858 5.531365 5.414935 5.297074 5.177920 5.057677 4.936547 4.814741 4.692475 4.569961 4.447418 4.325068 4.203131 4.081839 3.961412 3.842082 3.724079 3.607632 3.492974 3.380336 3.269949 3.162046 3.056858 2.954614 2.853595 2.752041 2.650136 2.548063 2.446003 2.344143 2.242668 2.141773
10.159056 9.947325 9.741418 9.541562 9.347986 9.160919 8.980584 8.807194 8.640739 8.478134 8.317685 8.159152 8.002755 7.848710 7.697235 7.548550 7.402875 7.260430 7.121434 6.986114 6.854680 6.727360 6.603206 6.479204 6.355382 6.231957 6.109143 5.987163 5.866240 5.746597 5.628460 5.512062 5.397625 5.285384 5.175081 5.063804 4.951187 4.837430 4.722725 4.607278 4.491293 4.374979 4.258548 4.142217 4.026197 3.910714 3.795985 3.682233 3.569684 3.458562 3.349095 3.241507 3.136028 3.032883 2.932300 2.834506 2.738622 2.642235 2.545411 2.448327 2.351161 2.254094 2.157310 2.060990 1.965322
9.615206 9.406568 9.203970 9.007635 8.817791 8.634665 8.458472 8.289434 8.127627 7.970091 7.814835 7.661681 7.510846 7.362547 7.216997 7.074410 6.935005 6.799001 6.666608 6.538050 6.413536 6.293289 6.175246 6.057339 5.939777 5.822771 5.706535 5.591289 5.477242 5.364624 5.253655 5.144557 5.037555 4.932828 4.828019 4.721835 4.614464 4.506098 4.396930 4.287160 4.176992 4.066628 3.956275 3.846146 3.736454 3.627413 3.519239 3.412154 3.306376 3.202124 3.099623 2.999094 2.900759 2.804841 2.711562 2.620600 2.529347 2.437582 2.345473 2.253195 2.160924 2.068836 1.977111 1.885929 1.795473
9.081258 8.875858 8.676708 8.484034 8.298060 8.119005 7.947091 7.782535 7.625470 7.473076 7.323074 7.175366 7.030161 6.887673 6.748107 6.611680 6.478606 6.349093 6.223362 6.101618 5.984079 5.870756 5.758649 5.646848 5.535557 5.424981 5.315331 5.206822 5.099668 4.994079 4.890279 4.788486 4.688921 4.590391 4.490520 4.389423 4.287292 4.184314 4.080680 3.976583 3.872220 3.767797 3.663514 3.559579 3.456203 3.353592 3.251965 3.151530 3.052509 2.955113 2.859560 2.766071 2.674862 2.586152 2.499944 2.413785 2.327041 2.239882 2.152472 2.064983 1.977588 1.890462 1.803778 1.717715 1.632450
8.557836 8.355812 8.160249 7.971370 7.789400 7.614553 7.447048 7.287097 7.134874 6.987687 6.843008 6.700805 6.561291 6.424667 6.291146 6.160934 6.034245 5.911282 5.792258 5.677382 5.566864 5.460084 5.353925 5.248238 5.143223 5.039085 4.936028 4.834260 4.733993 4.635439 4.538810 4.444323 4.351614 4.257914 4.162970 4.066957 3.970062 3.872464 3.774350 3.675915 3.577350 3.478856 3.380630 3.282876 3.185799 3.089605 2.994506 2.900706 2.808420 2.717861 2.629238 2.542767 2.458664 2.377090 2.295965 2.214197 2.131945 2.049372 1.966643 1.883924 1.801386 1.719200 1.637537 1.556571 1.476475
8.045553 7.847044 7.655205 7.470257 7.292416 7.121904 6.958935 6.803716 6.656440 6.514517 6.375217 6.238584 6.104812 5.974113 5.846690 5.722745 5.602489 5.486124 5.373857 5.265892 5.162438 5.061776 4.961572 4.862002 4.763268 4.665568 4.569103 4.474078 4.380701 4.289174 4.199712 4.112391 4.024713 3.935776 3.845755 3.754817 3.663145 3.570915 3.478311 3.385525 3.292744 3.200163 3.107978 3.016388 2.925593 2.835797 2.747204 2.660017 2.574447 2.490698 2.408981 2.329505 2.252476 2.176319 2.099466 2.022070 1.944291 1.866286 1.788215 1.710247 1.632543 1.555274 1.478607 1.402712 1.327760
7.545012 7.350154 7.162171 6.981282 6.807707 6.641657 6.483345 6.332977 6.190756 6.054145 5.920287 5.789270 5.661301 5.536575 5.415297 5.297668 5.183892 5.074167 4.968699 4.867688 4.771185 4.676322 4.582074 4.488625 4.396171 4.304907 4.215031 4.126742 4.040247 3.955742 3.873436 3.791616 3.708536 3.624357 3.539246 3.453370 3.366905 3.280029 3.192923 3.105768 3.018754 2.932065 2.845904 2.760456 2.675921 2.592499 2.510389 2.429790 2.350908 2.273946 2.199105 2.126591 2.055294 1.983284 1.910681 1.837639 1.764308 1.690847 1.617413 1.544168 1.471273 1.398895 1.327197 1.256347 1.186511
7.056814 6.865739 6.681745 6.505043 6.335854 6.174390 6.020855 5.875459 5.738402 5.607148 5.478778 5.353432 5.231310 5.112606 4.997521 4.886251 4.778996 4.675952 4.577320 4.483295 4.393277 4.304204 4.215906 4.128575 4.042395 3.957561 3.874267 3.792708 3.713083 3.635591 3.559342 3.481948 3.403453 3.324017 3.243802 3.162972 3.081701 3.000161 2.918530 2.836989 2.755719 2.674906 2.594740 2.515411 2.437113 2.360037 2.284382 2.210343 2.138120 2.067908 1.999912 1.933345 1.866096 1.798211 1.729837 1.661121 1.592215 1.523272 1.454448 1.385900 1.317790 1.250273 1.183514 1.117677 1.052926
6.581545 6.394385 6.214504 6.042116 5.877438 5.720676 5.572037 5.431726 5.299939 5.174080 5.051248 4.931623 4.815392 4.702753 4.593900 4.489027 4.388330 4.292004 4.200240 4.113235 4.029175 3.945883 3.863533 3.782311 3.702399 3.623986 3.547261 3.472419 3.399650 3.328612 3.256723 3.183743 3.109819 3.035110 2.959774 2.883974 2.807876 2.731652 2.655477 2.579525 2.503974 2.429010 2.354816 2.281577 2.209483 2.138726 2.069493 2.001980 1.936380 1.872887 1.810941 1.748357 1.685101 1.621317 1.557145 1.492731 1.428223 1.363773 1.299530 1.235651 1.172290 1.109604 1.047753 0.986898 0.927197
6.119783 5.936664 5.761023 5.593070 5.433019 5.281082 5.137453 5.002336 4.875928 4.755488 4.638241 4.524373 4.414077 4.307542 4.204960 4.106520 4.012415 3.922836 3.837969 3.757780 3.679331 3.601814 3.525402 3.450278 3.376621 3.304613 3.234444 3.166298 3.100159 3.033583 2.965930 2.897346 2.827978 2.757977 2.687501 2.616707 2.545762 2.474830 2.404085 2.333695 2.263839 2.194695 2.126441 2.059262 1.993341 1.928866 1.866021 1.804997 1.745983 1.688556 1.630531 1.571809 1.512524 1.452814 1.392818 1.332677 1.272539 1.212549 1.152856 1.093613 1.034970 0.977082 0.920104 0.864193 0.809505
5.672095 5.493141 5.321861 5.158463 5.003161 4.856155 4.717647 4.587834 4.466895 4.351905 4.240282 4.132215 4.027891 3.927495 3.831214 3.739239 3.651755 3.568948 3.491002 3.417039 3.344189 3.272437 3.201949 3.132909 3.065490 2.999871 2.936236 2.874721 2.813254 2.750737 2.687304 2.623098 2.558264 2.492950 2.427310 2.361500 2.295681 2.230017 2.164672 2.099818 2.035623 1.972266 1.909921 1.848765 1.788981 1.730752 1.674255 1.619680 1.566676 1.513095 1.458797 1.403912 1.348569 1.292904 1.237054 1.181157 1.125356 1.069795 1.014619 0.959976 0.906016 0.852889 0.800746 0.749742 0.700029