64 64
0.744411 0.748324 0.752074 0.755648 0.759033 0.762214 0.765177 0.767909 0.770395 0.772623 0.774579 0.776249 0.777621 0.778681 0.779418 0.779817 0.779890 0.779890 0.779890 0.779890 0.779890 0.779890 0.779890 0.779890 0.779890 0.779890 0.779890 0.779890 0.779890 0.779890 0.779890 0.779890 0.779890 0.779890 0.779890 0.779890 0.779890 0.779890 0.779890 0.779890 0.779890 0.779890 0.779890 0.779890 0.815146 0.855183 0.894207 0.932164 0.968999 1.004662 1.039100 1.072264 1.104105 1.134575 1.163628 1.191218 1.217302 1.241839 1.264787 1.286107 1.305762 1.323715 1.339933 1.354383 1.367035
0.751542 0.755001 0.758292 0.761404 0.764321 0.767031 0.769519 0.771773 0.773780 0.775525 0.776995 0.778179 0.779063 0.779634 0.779881 0.779890 0.779890 0.779890 0.779890 0.779890 0.779890 0.779890 0.779890 0.779890 0.779890 0.779890 0.779890 0.779890 0.779890 0.779890 0.779890 0.779890 0.779890 0.779890 0.779890 0.779890 0.779890 0.779890 0.779890 0.779890 0.779890 0.779890 0.779890 0.807812 0.847499 0.886227 0.923940 0.960586 0.996111 1.030465 1.063596 1.095455 1.125994 1.155167 1.182927 1.209231 1.234036 1.257300 1.278982 1.299046 1.317453 1.334170 1.349161 1.362396 1.373845
0.757899 0.760909 0.763747 0.766400 0.768855 0.771098 0.773118 0.774899 0.776430 0.777698 0.778690 0.779392 0.779794 0.779890 0.779890 0.779890 0.779890 0.779890 0.779890 0.779890 0.779890 0.779890 0.779890 0.779890 0.779890 0.779890 0.779890 0.779890 0.779890 0.779890 0.779890 0.779890 0.779890 0.779890 0.779890 0.779890 0.779890 0.779890 0.779890 0.779890 0.779890 0.779890 0.801772 0.841049 0.879419 0.916827 0.953220 0.988544 1.022749 1.055783 1.087597 1.118142 1.147371 1.175238 1.201697 1.226706 1.250221 1.272204 1.292613 1.311412 1.328564 1.344035 1.357793 1.369805 1.380043
0.763471 0.766036 0.768425 0.770625 0.772623 0.774406 0.775962 0.777277 0.778338 0.779134 0.779652 0.779880 0.779890 0.779890 0.779890 0.779890 0.779890 0.779890 0.779890 0.779890 0.779890 0.779890 0.779890 0.779890 0.779890 0.779890 0.779890 0.779890 0.779890 0.779890 0.779890 0.779890 0.779890 0.779890 0.779890 0.779890 0.779890 0.779890 0.779890 0.779890 0.779890 0.797049 0.835857 0.873810 0.910853 0.946932 0.981995 1.015990 1.048865 1.080571 1.111060 1.140282 1.168192 1.194744 1.219894 1.243599 1.265818 1.286511 1.305639 1.323166 1.339056 1.353276 1.365792 1.376575 1.385596
0.768246 0.770372 0.772318 0.774070 0.775617 0.776945 0.778042 0.778896 0.779494 0.779825 0.779890 0.779890 0.779890 0.779890 0.779890 0.779890 0.779890 0.779890 0.779890 0.779890 0.779890 0.779890 0.779890 0.779890 0.779890 0.779890 0.779890 0.779890 0.779890 0.779890 0.779890 0.779890 0.779890 0.779890 0.779890 0.779890 0.779890 0.779890 0.779890 0.779890 0.793663 0.831946 0.869424 0.906043 0.941751 0.976493 1.010218 1.042874 1.074412 1.104782 1.133936 1.161829 1.188411 1.213641 1.237475 1.259869 1.280785 1.300182 1.318023 1.334271 1.348893 1.361854 1.373124 1.382672 1.390471
0.772215 0.773908 0.775416 0.776726 0.777827 0.778705 0.779350 0.779749 0.779890 0.779890 0.779890 0.779890 0.779890 0.779890 0.779890 0.779890 0.779890 0.779890 0.779890 0.779890 0.779890 0.779890 0.779890 0.779890 0.779890 0.779890 0.779890 0.779890 0.779890 0.779890 0.779890 0.779890 0.779890 0.779890 0.779890 0.779890 0.779890 0.779890 0.779890 0.791626 0.829329 0.866278 0.902419 0.937697 0.972061 1.005458 1.037838 1.069149 1.099342 1.128369 1.156183 1.182737 1.207987 1.231888 1.254398 1.275476 1.295082 1.313177 1.329725 1.344689 1.358037 1.369735 1.379754 1.388062 1.394635
0.775368 0.776633 0.777709 0.778583 0.779244 0.779680 0.779878 0.779890 0.779890 0.779890 0.779890 0.779890 0.779890 0.779890 0.779890 0.779890 0.779890 0.779890 0.779890 0.779890 0.779890 0.779890 0.779890 0.779890 0.779890 0.779890 0.779890 0.779890 0.779890 0.779890 0.779890 0.779890 0.779890 0.779890 0.779890 0.779890 0.779890 0.779890 0.790946 0.828018 0.864386 0.899994 0.934790 0.968721 1.001734 1.033780 1.064807 1.094766 1.123608 1.151286 1.177753 1.202964 1.226874 1.249441 1.270622 1.290378 1.308669 1.325458 1.340707 1.354383 1.366453 1.376884 1.385646 1.392712 1.398054
0.777698 0.778541 0.779190 0.779634 0.779861 0.779890 0.779890 0.779890 0.779890 0.779890 0.779890 0.779890 0.779890 0.779890 0.779890 0.779890 0.779890 0.779890 0.779890 0.779890 0.779890 0.779890 0.779890 0.779890 0.779890 0.779890 0.779890 0.779890 0.779890 0.779890 0.779890 0.779890 0.779890 0.779890 0.779890 0.779890 0.779890 0.791626 0.828018 0.863754 0.898779 0.933040 0.966485 0.999062 1.030720 1.061408 1.091077 1.119679 1.147164 1.173488 1.198602 1.222465 1.245031 1.266258 1.286107 1.304536 1.321508 1.336985 1.350933 1.363317 1.374104 1.383265 1.390768 1.396588 1.400697
0.779196 0.779623 0.779852 0.779890 0.779890 0.779890 0.779890 0.779890 0.779890 0.779890 0.779890 0.779890 0.779890 0.779890 0.779890 0.779890 0.779890 0.779890 0.779890 0.779890 0.779890 0.779890 0.779890 0.779890 0.779890 0.779890 0.779890 0.779890 0.779890 0.779890 0.779890 0.779890 0.779890 0.779890 0.779890 0.779890 0.793663 0.829329 0.864386 0.898779 0.932456 0.965365 0.997454 1.028672 1.058969 1.088295 1.116601 1.143840 1.169964 1.194928 1.218687 1.241196 1.262414 1.282299 1.300810 1.317909 1.333558 1.347722 1.360364 1.371453 1.380956 1.388843 1.395086 1.399657 1.402532
0.779856 0.779890 0.779890 0.779890 0.779890 0.779890 0.779890 0.779890 0.779890 0.779890 0.779890 0.779890 0.779890 0.779890 0.779890 0.779890 0.779890 0.779890 0.779890 0.779890 0.779890 0.779890 0.779890 0.779890 0.779890 0.779890 0.779890 0.779890 0.779890 0.779890 0.779890 0.779890 0.779890 0.779890 0.779890 0.797049 0.831946 0.866278 0.899994 0.933040 0.965365 0.996917 1.027646 1.057501 1.086432 1.114392 1.141331 1.167204 1.191963 1.215564 1.237963 1.259116 1.278982 1.297521 1.314692 1.330458 1.344783 1.357629 1.368965 1.378756 1.386973 1.393586 1.398566 1.401888 1.403527
0.779890 0.779890 0.779890 0.779890 0.779890 0.779890 0.779890 0.779890 0.779890 0.779890 0.779890 0.779890 0.779890 0.779890 0.779890 0.779890 0.779890 0.779890 0.779890 0.779890 0.779890 0.779890 0.779890 0.779890 0.779890 0.779890 0.779890 0.779890 0.779890 0.779890 0.779890 0.779890 0.779890 0.779890 0.801772 0.835857 0.869424 0.902419 0.934790 0.966485 0.997454 1.027646 1.057011 1.085499 1.113061 1.139651 1.165221 1.189724 1.213115 1.235350 1.256387 1.276181 1.294694 1.311884 1.327714 1.342145 1.355143 1.366672 1.376699 1.385192 1.392122 1.397459 1.401177 1.403250 1.403710
0.779890 0.779890 0.779890 0.779890 0.779890 0.779890 0.779890 0.779890 0.779890 0.779890 0.779890 0.779890 0.779890 0.779890 0.779890 0.779890 0.779890 0.779890 0.779890 0.779890 0.779890 0.779890 0.779890 0.779890 0.779890 0.779890 0.779890 0.779890 0.779890 0.779890 0.779890 0.779890 0.779890 0.807812 0.841049 0.873810 0.906043 0.937697 0.968721 0.999062 1.028672 1.057501 1.085499 1.112617 1.138809 1.164026 1.188223 1.211355 1.233377 1.254245 1.273916 1.292351 1.309509 1.325349 1.339836 1.352932 1.364602 1.374812 1.383531 1.390726 1.396369 1.400431 1.402886 1.403710 1.403710
0.779890 0.779890 0.779890 0.779890 0.779890 0.779890 0.779890 0.779890 0.779890 0.779890 0.779890 0.779890 0.779890 0.779890 0.779890 0.779890 0.779890 0.779890 0.779890 0.779890 0.779890 0.779890 0.779890 0.779890 0.779890 0.779890 0.779890 0.779890 0.779890 0.779890 0.779890 0.782410 0.815146 0.847499 0.879419 0.910853 0.941751 0.972061 1.001734 1.030720 1.058969 1.086432 1.113061 1.138809 1.163628 1.187471 1.210295 1.232054 1.252704 1.272204 1.290510 1.307584 1.323386 1.337877 1.351021 1.362781 1.373124 1.382016 1.389426 1.395324 1.399681 1.402469 1.403663 1.403710 1.403710
0.779890 0.779890 0.779890 0.779890 0.779890 0.779890 0.779890 0.779890 0.779890 0.779890 0.779890 0.779890 0.779890 0.779890 0.779890 0.779890 0.779890 0.779890 0.779890 0.779890 0.779890 0.779890 0.779890 0.779890 0.779890 0.779890 0.779890 0.779890 0.779890 0.779890 0.791966 0.823746 0.855183 0.886227 0.916827 0.946932 0.976493 1.005458 1.033780 1.061408 1.088295 1.114392 1.139651 1.164026 1.187471 1.209941 1.231390 1.251775 1.271055 1.289185 1.306128 1.321841 1.336287 1.349429 1.361230 1.371656 1.380673 1.388248 1.394351 1.398953 1.402025 1.403542 1.403710 1.403710 1.403710
0.779890 0.779890 0.779890 0.779890 0.779890 0.779890 0.779890 0.779890 0.779890 0.779890 0.779890 0.779890 0.779890 0.779890 0.779890 0.779890 0.779890 0.779890 0.779890 0.779890 0.779890 0.779890 0.779890 0.779890 0.779890 0.779890 0.779890 0.779890 0.779890 0.802781 0.833578 0.864070 0.894207 0.923940 0.953220 0.981995 1.010218 1.037838 1.064807 1.091077 1.116601 1.141331 1.165221 1.188223 1.210295 1.231390 1.251465 1.270478 1.288387 1.305150 1.320727 1.335081 1.348174 1.359968 1.370428 1.379521 1.387213 1.393474 1.398273 1.401581 1.403372 1.403710 1.403710 1.403710 1.403710
0.779890 0.779890 0.779890 0.779890 0.779890 0.779890 0.779890 0.779890 0.779890 0.779890 0.779890 0.779890 0.779890 0.779890 0.779890 0.779890 0.779890 0.779890 0.779890 0.779890 0.779890 0.779890 0.779890 0.779890 0.779890 0.779890 0.779890 0.784807 0.814814 0.844602 0.874123 0.903326 0.932164 0.960586 0.988544 1.015990 1.042874 1.069149 1.094766 1.119679 1.143840 1.167204 1.189724 1.211355 1.232054 1.251775 1.270478 1.288120 1.304659 1.320056 1.334271 1.347268 1.359008 1.369456 1.378578 1.386341 1.392712 1.397661 1.401159 1.403177 1.403710 1.403710 1.403710 1.403710 1.403710
0.779890 0.779890 0.779890 0.779890 0.779890 0.779890 0.779890 0.779890 0.779890 0.779890 0.779890 0.779890 0.779890 0.779890 0.779890 0.779890 0.779890 0.779890 0.779890 0.779890 0.779890 0.779890 0.779890 0.779890 0.779890 0.779890 0.799076 0.828018 0.856776 0.885302 0.913546 0.941462 0.968999 0.996111 1.022749 1.048865 1.074412 1.099342 1.123608 1.147164 1.169964 1.191963 1.213115 1.233377 1.252704 1.271055 1.288387 1.304659 1.319831 1.333864 1.346720 1.358362 1.368753 1.377859 1.385646 1.392082 1.397135 1.400777 1.402977 1.403710 1.403710 1.403710 1.403710 1.403710 1.403710
0.779890 0.779890 0.779890 0.779890 0.779890 0.779890 0.779890 0.779890 0.779890 0.779890 0.779890 0.779890 0.779890 0.779890 0.779890 0.779890 0.779890 0.779890 0.779890 0.779890 0.779890 0.779890 0.779890 0.779890 0.786516 0.814482 0.842342 0.870052 0.897562 0.924825 0.951795 0.978423 1.004662 1.030465 1.055783 1.080571 1.104782 1.128369 1.151286 1.173488 1.194928 1.215564 1.235350 1.254245 1.272204 1.289185 1.305150 1.320056 1.333864 1.346537 1.358037 1.368328 1.377374 1.385141 1.391598 1.396712 1.400452 1.402790 1.403698 1.403710 1.403710 1.403710 1.403710 1.403710 1.403710
0.779890 0.779890 0.779890 0.779890 0.779890 0.779890 0.779890 0.779890 0.779890 0.779890 0.779890 0.779890 0.779890 0.779890 0.779890 0.779890 0.779890 0.779890 0.779890 0.779890 0.779890 0.779890 0.779890 0.804125 0.830965 0.857731 0.884376 0.910853 0.937117 0.963120 0.988816 1.014158 1.039100 1.063596 1.087597 1.111060 1.133936 1.156183 1.177753 1.198602 1.218687 1.237963 1.256387 1.273916 1.290510 1.306128 1.320727 1.334271 1.346720 1.358037 1.368185 1.377129 1.384835 1.391269 1.396400 1.400197 1.402629 1.403670 1.403710 1.403710 1.403710 1.403710 1.403710 1.403710 1.403710
0.779890 0.779890 0.779890 0.779890 0.779890 0.779890 0.779890 0.779890 0.779890 0.779890 0.779890 0.779890 0.779890 0.779890 0.779890 0.779890 0.779890 0.779890 0.779890 0.779890 0.779890 0.797049 0.822757 0.848463 0.874123 0.899690 0.925120 0.950368 0.975387 1.000132 1.024557 1.048617 1.072264 1.095455 1.118142 1.140282 1.161829 1.182737 1.202964 1.222465 1.241196 1.259116 1.276181 1.292351 1.307584 1.321841 1.335081 1.347268 1.358362 1.368328 1.377129 1.384732 1.391104 1.396210 1.400021 1.402507 1.403638 1.403710 1.403710 1.403710 1.403710 1.403710 1.403710 1.403710 1.403710
0.779890 0.779890 0.779890 0.779890 0.779890 0.779890 0.779890 0.779890 0.779890 0.779890 0.779890 0.779890 0.779890 0.779890 0.779890 0.779890 0.779890 0.779890 0.779890 0.793324 0.817800 0.842342 0.866908 0.891453 0.915934 0.940305 0.964524 0.988544 1.012322 1.035812 1.058969 1.081748 1.104105 1.125994 1.147371 1.168192 1.188411 1.207987 1.226874 1.245031 1.262414 1.278982 1.294694 1.309509 1.323386 1.336287 1.348174 1.359008 1.368753 1.377374 1.384835 1.391104 1.396146 1.399932 1.402430 1.403612 1.403710 1.403710 1.403710 1.403710 1.403710 1.403710 1.403710 1.403710 1.403710
0.779890 0.779890 0.779890 0.779890 0.779890 0.779890 0.779890 0.779890 0.779890 0.779890 0.779890 0.779890 0.779890 0.779890 0.779890 0.779890 0.779890 0.792985 0.816142 0.839429 0.862805 0.886227 0.909653 0.933040 0.956345 0.979524 1.002534 1.025331 1.047870 1.070109 1.092002 1.113505 1.134575 1.155167 1.175238 1.194744 1.213641 1.231888 1.249441 1.266258 1.282299 1.297521 1.311884 1.325349 1.337877 1.349429 1.359968 1.369456 1.377859 1.385141 1.391269 1.396210 1.399932 1.402404 1.403597 1.403710 1.403710 1.403710 1.403710 1.403710 1.403710 1.403710 1.403710 1.403710 1.403710
0.779890 0.779890 0.779890 0.779890 0.779890 0.779890 0.779890 0.779890 0.779890 0.779890 0.779890 0.779890 0.779890 0.779890 0.779890 0.796035 0.817800 0.839754 0.861856 0.884067 0.906345 0.928649 0.950939 0.973172 0.995304 1.017295 1.039100 1.060678 1.081984 1.102975 1.123608 1.143840 1.163628 1.182927 1.201697 1.219894 1.237475 1.254398 1.270622 1.286107 1.300810 1.314692 1.327714 1.339836 1.351021 1.361230 1.370428 1.378578 1.385646 1.391598 1.396400 1.400021 1.402430 1.403597 1.403710 1.403710 1.403710 1.403710 1.403710 1.403710 1.403710 1.403710 1.403710 1.403710 1.403710
0.779890 0.779890 0.779890 0.779890 0.779890 0.779890 0.779890 0.779890 0.779890 0.779890 0.779890 0.779890 0.782410 0.802445 0.822757 0.843311 0.864070 0.884993 0.906043 0.927181 0.948365 0.969557 0.990714 1.011796 1.032762 1.053568 1.074174 1.094536 1.114613 1.134362 1.153741 1.172707 1.191218 1.209231 1.226706 1.243599 1.259869 1.275476 1.290378 1.304536 1.317909 1.330458 1.342145 1.352932 1.362781 1.371656 1.379521 1.386341 1.392082 1.396712 1.400197 1.402507 1.403612 1.403710 1.403710 1.403710 1.403710 1.403710 1.403710 1.403710 1.403710 1.403710 1.403710 1.403710 1.403710
0.779890 0.779890 0.779890 0.779890 0.779890 0.779890 0.779890 0.779890 0.779890 0.779890 0.793663 0.812152 0.830965 0.850068 0.869424 0.888998 0.908752 0.928649 0.948652 0.968721 0.988816 1.008899 1.028929 1.048865 1.068668 1.088295 1.107706 1.126859 1.145713 1.164226 1.182356 1.200062 1.217302 1.234036 1.250221 1.265818 1.280785 1.295082 1.308669 1.321508 1.333558 1.344783 1.355143 1.364602 1.373124 1.380673 1.387213 1.392712 1.397135 1.400452 1.402629 1.403638 1.403710 1.403710 1.403710 1.403710 1.403710 1.403710 1.403710 1.403710 1.403710 1.403710 1.403710 1.403710 1.403710
0.779890 0.779890 0.779890 0.779890 0.779890 0.779890 0.779890 0.791626 0.808146 0.825062 0.842342 0.859955 0.877865 0.896039 0.914442 0.933040 0.951795 0.970671 0.989630 1.008635 1.027646 1.046625 1.065533 1.084329 1.102975 1.121429 1.139651 1.157601 1.175238 1.192520 1.209409 1.225862 1.241839 1.257300 1.272204 1.286511 1.300182 1.313177 1.325458 1.336985 1.347722 1.357629 1.366672 1.374812 1.382016 1.388248 1.393474 1.397661 1.400777 1.402790 1.403670 1.403710 1.403710 1.403710 1.403710 1.403710 1.403710 1.403710 1.403710 1.403710 1.403710 1.403710 1.403710 1.403710 1.403710
0.779890 0.779890 0.779890 0.782410 0.796373 0.810819 0.825720 0.841049 0.856776 0.872872 0.889305 0.906043 0.923055 0.940305 0.957761 0.975387 0.993148 1.011007 1.028929 1.046875 1.064807 1.082688 1.100480 1.118142 1.135637 1.152924 1.169964 1.186718 1.203144 1.219205 1.234858 1.250065 1.264787 1.278982 1.292613 1.305639 1.318023 1.329725 1.340707 1.350933 1.360364 1.368965 1.376699 1.383531 1.389426 1.394351 1.398273 1.401159 1.402977 1.403698 1.403710 1.403710 1.403710 1.403710 1.403710 1.403710 1.403710 1.403710 1.403710 1.403710 1.403710 1.403710 1.403710 1.403710 1.403710
0.796035 0.807812 0.820116 0.832925 0.846213 0.859955 0.874123 0.888690 0.903628 0.918908 0.934498 0.950368 0.966485 0.982817 0.999330 1.015990 1.032762 1.049610 1.066499 1.083392 1.100252 1.117042 1.133724 1.150259 1.166610 1.182737 1.198602 1.214167 1.229391 1.244236 1.258663 1.272633 1.286107 1.299046 1.311412 1.323166 1.334271 1.344689 1.354383 1.363317 1.371453 1.378756 1.385192 1.390726 1.395324 1.398953 1.401581 1.403177 1.403710 1.403710 1.403710 1.403710 1.403710 1.403710 1.403710 1.403710 1.403710 1.403710 1.403710 1.403710 1.403710 1.403710 1.403710 1.403710 1.403710
0.846534 0.857731 0.869424 0.881591 0.894207 0.907248 0.920687 0.934498 0.948652 0.963120 0.977872 0.992878 1.008106 1.023525 1.039100 1.054800 1.070589 1.086432 1.102296 1.118142 1.133936 1.149642 1.165221 1.180636 1.195850 1.210825 1.225524 1.239907 1.253937 1.267576 1.280785 1.293526 1.305762 1.317453 1.328564 1.339056 1.348893 1.358037 1.366453 1.374104 1.380956 1.386973 1.392122 1.396369 1.399681 1.402025 1.403372 1.403710 1.403710 1.403710 1.403710 1.403710 1.403710 1.403710 1.403710 1.403710 1.403710 1.403710 1.403710 1.403710 1.403710 1.403710 1.403710 1.403710 1.403710
0.895123 0.905742 0.916827 0.928356 0.940305 0.952650 0.965365 0.978423 0.991797 1.005458 1.019378 1.033526 1.047870 1.062381 1.077026 1.091771 1.106583 1.121429 1.136273 1.151081 1.165817 1.180444 1.194928 1.209231 1.223317 1.237149 1.250688 1.263900 1.276744 1.289185 1.301186 1.312708 1.323715 1.334170 1.344035 1.353276 1.361854 1.369735 1.376884 1.383265 1.388843 1.393586 1.397459 1.400431 1.402469 1.403542 1.403710 1.403710 1.403710 1.403710 1.403710 1.403710 1.403710 1.403710 1.403710 1.403710 1.403710 1.403710 1.403710 1.403710 1.403710 1.403710 1.403710 1.403710 1.403710
0.941751 0.951795 0.962276 0.973172 0.984458 0.996111 1.008106 1.020417 1.033016 1.045877 1.058969 1.072264 1.085732 1.099342 1.113061 1.126859 1.140702 1.154556 1.168389 1.182165 1.195850 1.209409 1.222806 1.236006 1.248972 1.261668 1.274059 1.286107 1.297776 1.309029 1.319831 1.330145 1.339933 1.349161 1.357793 1.365792 1.373124 1.379754 1.385646 1.390768 1.395086 1.398566 1.401177 1.402886 1.403663 1.403710 1.403710 1.403710 1.403710 1.403710 1.403710 1.403710 1.403710 1.403710 1.403710 1.403710 1.403710 1.403710 1.403710 1.403710 1.403710 1.403710 1.403710 1.403710 1.403710
0.986368 0.995842 1.005724 1.015990 1.026618 1.037585 1.048865 1.060434 1.072264 1.084329 1.096601 1.109050 1.121647 1.134362 1.147164 1.160022 1.172902 1.185773 1.198602 1.211355 1.223998 1.236496 1.248815 1.260920 1.272776 1.284347 1.295598 1.306493 1.316996 1.327073 1.336686 1.345802 1.354383 1.362396 1.369805 1.376575 1.382672 1.388062 1.392712 1.396588 1.399657 1.401888 1.403250 1.403710 1.403710 1.403710 1.403710 1.403710 1.403710 1.403710 1.403710 1.403710 1.403710 1.403710 1.403710 1.403710 1.403710 1.403710 1.403710 1.403710 1.403710 1.403710 1.403710 1.403710 1.425689
1.028929 1.037838 1.047123 1.056765 1.066740 1.077026 1.087597 1.098430 1.109497 1.120773 1.132231 1.143840 1.155573 1.167402 1.179293 1.191218 1.203144 1.215041 1.226874 1.238612 1.250221 1.261668 1.272919 1.283939 1.294694 1.305150 1.315271 1.325024 1.334373 1.343283 1.351720 1.359649 1.367035 1.373845 1.380043 1.385596 1.390471 1.394635 1.398054 1.400697 1.402532 1.403527 1.403710 1.403710 1.403710 1.403710 1.403710 1.403710 1.403710 1.403710 1.403710 1.403710 1.403710 1.403710 1.403710 1.403710 1.403710 1.403710 1.403710 1.403710 1.403710 1.403710 1.403710 1.403710 1.453608
1.069389 1.077737 1.086432 1.095455 1.104782 1.114392 1.124260 1.134362 1.144673 1.155167 1.165817 1.176594 1.187471 1.198420 1.209409 1.220409 1.231390 1.242320 1.253167 1.263900 1.274485 1.284890 1.295082 1.305027 1.314692 1.324043 1.333047 1.341668 1.349874 1.357629 1.364901 1.371656 1.377859 1.383478 1.388478 1.392828 1.396494 1.399445 1.401648 1.403072 1.403686 1.403710 1.403710 1.403710 1.403710 1.403710 1.403710 1.403710 1.403710 1.403710 1.403710 1.403710 1.403710 1.403710 1.403710 1.403710 1.403710 1.403710 1.403710 1.403710 1.403710 1.403710 1.403710 1.431477 1.481638
1.107706 1.115498 1.123608 1.132017 1.140702 1.149642 1.158813 1.168192 1.177753 1.187471 1.197320 1.207273 1.217302 1.227379 1.237475 1.247559 1.257603 1.267576 1.277446 1.287183 1.296754 1.306128 1.315271 1.324153 1.332739 1.340996 1.348893 1.356395 1.363469 1.370083 1.376202 1.381795 1.386828 1.391269 1.395086 1.398246 1.400717 1.402469 1.403470 1.403710 1.403710 1.403710 1.403710 1.403710 1.403710 1.403710 1.403710 1.403710 1.403710 1.403710 1.403710 1.403710 1.403710 1.403710 1.403710 1.403710 1.403710 1.403710 1.403710 1.403710 1.403710 1.403710 1.410515 1.460771 1.509732
1.143840 1.151081 1.158611 1.166411 1.174461 1.182737 1.191218 1.199880 1.208698 1.217649 1.226706 1.235842 1.245031 1.254245 1.263455 1.272633 1.281749 1.290774 1.299678 1.308429 1.316996 1.325349 1.333456 1.341285 1.348803 1.355979 1.362781 1.369176 1.375131 1.380616 1.385596 1.390041 1.393918 1.397195 1.399841 1.401826 1.403117 1.403684 1.403710 1.403710 1.403710 1.403710 1.403710 1.403710 1.403710 1.403710 1.403710 1.403710 1.403710 1.403710 1.403710 1.403710 1.403710 1.403710 1.403710 1.403710 1.403710 1.403710 1.403710 1.403710 1.403710 1.403710 1.441065 1.490102 1.537844
1.177753 1.184448 1.191404 1.198602 1.206022 1.213641 1.221439 1.229391 1.237475 1.245665 1.253937 1.262265 1.270622 1.278982 1.287317 1.295598 1.303797 1.311884 1.319831 1.327607 1.335182 1.342526 1.349607 1.356395 1.362858 1.368965 1.374684 1.379985 1.384835 1.389203 1.393058 1.396369 1.399104 1.401232 1.402723 1.403546 1.403710 1.403710 1.403710 1.403710 1.403710 1.403710 1.403710 1.403710 1.403710 1.403710 1.403710 1.403710 1.403710 1.403710 1.403710 1.403710 1.403710 1.403710 1.403710 1.403710 1.403710 1.403710 1.403710 1.403710 1.403710 1.422591 1.471623 1.519421 1.565926
1.209409 1.215564 1.221952 1.228554 1.235350 1.242320 1.249441 1.256691 1.264048 1.271486 1.278982 1.286511 1.294046 1.301561 1.309029 1.316423 1.323715 1.330876 1.337877 1.344689 1.351284 1.357629 1.363697 1.369456 1.374876 1.379927 1.384578 1.388798 1.392556 1.395823 1.398566 1.400757 1.402364 1.403359 1.403710 1.403710 1.403710 1.403710 1.403710 1.403710 1.403710 1.403710 1.403710 1.403710 1.403710 1.403710 1.403710 1.403710 1.403710 1.403710 1.403710 1.403710 1.403710 1.403710 1.403710 1.403710 1.403710 1.403710 1.403710 1.403710 1.405416 1.454364 1.502138 1.548680 1.593930
1.238774 1.244395 1.250221 1.256234 1.262414 1.268741 1.275193 1.281749 1.288387 1.295082 1.301811 1.308549 1.315271 1.321952 1.328564 1.335081 1.341477 1.347722 1.353788 1.359649 1.365274 1.370634 1.375701 1.380445 1.384835 1.388843 1.392439 1.395592 1.398273 1.400452 1.402099 1.403185 1.403681 1.403710 1.403710 1.403710 1.403710 1.403710 1.403710 1.403710 1.403710 1.403710 1.403710 1.403710 1.403710 1.403710 1.403710 1.403710 1.403710 1.403710 1.403710 1.403710 1.403710 1.403710 1.403710 1.403710 1.403710 1.403710 1.403710 1.403710 1.438388 1.486062 1.532562 1.577829 1.621806
1.265818 1.270911 1.276181 1.281612 1.287183 1.292874 1.298666 1.304536 1.310463 1.316423 1.322394 1.328352 1.334271 1.340127 1.345894 1.351546 1.357055 1.362396 1.367541 1.372461 1.377129 1.381517 1.385596 1.389337 1.392712 1.395691 1.398246 1.400347 1.401965 1.403072 1.403638 1.403710 1.403710 1.403710 1.403710 1.403710 1.403710 1.403710 1.403710 1.403710 1.403710 1.403710 1.403710 1.403710 1.403710 1.403710 1.403710 1.403710 1.403710 1.403710 1.403710 1.403710 1.403710 1.403710 1.403710 1.403710 1.403710 1.403710 1.403710 1.423754 1.471250 1.517633 1.562842 1.606820 1.649508
1.290510 1.295082 1.299804 1.304659 1.309628 1.314692 1.319831 1.325024 1.330249 1.335485 1.340707 1.345894 1.351021 1.356063 1.360995 1.365792 1.370428 1.374876 1.379111 1.383104 1.386828 1.390257 1.393361 1.396114 1.398487 1.400452 1.401980 1.403044 1.403615 1.403710 1.403710 1.403710 1.403710 1.403710 1.403710 1.403710 1.403710 1.403710 1.403710 1.403710 1.403710 1.403710 1.403710 1.403710 1.403710 1.403710 1.403710 1.403710 1.403710 1.403710 1.403710 1.403710 1.403710 1.403710 1.403710 1.403710 1.403710 1.403710 1.410515 1.457760 1.503951 1.549027 1.592930 1.635603 1.676987
1.312825 1.316882 1.321062 1.325349 1.329725 1.334170 1.338664 1.343189 1.347722 1.352241 1.356726 1.361152 1.365496 1.369735 1.373845 1.377799 1.381573 1.385141 1.388478 1.391557 1.394351 1.396834 1.398978 1.400757 1.402143 1.403108 1.403626 1.403710 1.403710 1.403710 1.403710 1.403710 1.403710 1.403710 1.403710 1.403710 1.403710 1.403710 1.403710 1.403710 1.403710 1.403710 1.403710 1.403710 1.403710 1.403710 1.403710 1.403710 1.403710 1.403710 1.403710 1.403710 1.403710 1.403710 1.403710 1.403710 1.403710 1.403710 1.445641 1.491567 1.536438 1.580193 1.622775 1.664127 1.704192
1.332739 1.336287 1.339933 1.343660 1.347449 1.351284 1.355143 1.359008 1.362858 1.366672 1.370428 1.374104 1.377678 1.381125 1.384423 1.387546 1.390471 1.393173 1.395625 1.397803 1.399681 1.401232 1.402430 1.403250 1.403663 1.403710 1.403710 1.403710 1.403710 1.403710 1.403710 1.403710 1.403710 1.403710 1.403710 1.403710 1.403710 1.403710 1.403710 1.403710 1.403710 1.403710 1.403710 1.403710 1.403710 1.403710 1.403710 1.403710 1.403710 1.403710 1.403710 1.403710 1.403710 1.403710 1.403710 1.403710 1.403710 1.434938 1.480529 1.525123 1.568659 1.611079 1.652326 1.692344 1.731077
1.350228 1.353276 1.356395 1.359569 1.362781 1.366013 1.369246 1.372461 1.375638 1.378756 1.381795 1.384732 1.387546 1.390214 1.392712 1.395017 1.397106 1.398953 1.400535 1.401826 1.402801 1.403435 1.403703 1.403710 1.403710 1.403710 1.403710 1.403710 1.403710 1.403710 1.403710 1.403710 1.403710 1.403710 1.403710 1.403710 1.403710 1.403710 1.403710 1.403710 1.403710 1.403710 1.403710 1.403710 1.403710 1.403710 1.403710 1.403710 1.403710 1.403710 1.403710 1.403710 1.403710 1.403710 1.403710 1.403710 1.425689 1.470878 1.515125 1.558372 1.600561 1.641634 1.681533 1.720204 1.757592
1.365274 1.367828 1.370428 1.373058 1.375701 1.378340 1.380956 1.383531 1.386045 1.388478 1.390810 1.393020 1.395086 1.396986 1.398697 1.400197 1.401462 1.402469 1.403194 1.403612 1.403710 1.403710 1.403710 1.403710 1.403710 1.403710 1.403710 1.403710 1.403710 1.403710 1.403710 1.403710 1.403710 1.403710 1.403710 1.403710 1.403710 1.403710 1.403710 1.403710 1.403710 1.403710 1.403710 1.403710 1.403710 1.403710 1.403710 1.403710 1.403710 1.403710 1.403710 1.403710 1.403710 1.403710 1.403710 1.417930 1.462649 1.506484 1.549375 1.591264 1.632092 1.671805 1.710344 1.747656 1.783687
1.377859 1.379927 1.382016 1.384110 1.386193 1.388248 1.390257 1.392202 1.394063 1.395823 1.397459 1.398953 1.400283 1.401427 1.402364 1.403072 1.403527 1.403708 1.403710 1.403710 1.403710 1.403710 1.403710 1.403710 1.403710 1.403710 1.403710 1.403710 1.403710 1.403710 1.403710 1.403710 1.403710 1.403710 1.403710 1.403710 1.403710 1.403710 1.403710 1.403710 1.403710 1.403710 1.403710 1.403710 1.403710 1.403710 1.403710 1.403710 1.403710 1.403710 1.403710 1.403710 1.403710 1.403710 1.411688 1.455874 1.499232 1.541701 1.583225 1.623744 1.663201 1.701541 1.738710 1.774652 1.809315
1.387969 1.389559 1.391145 1.392712 1.394244 1.395724 1.397135 1.398461 1.399681 1.400777 1.401730 1.402520 1.403126 1.403527 1.403704 1.403710 1.403710 1.403710 1.403710 1.403710 1.403710 1.403710 1.403710 1.403710 1.403710 1.403710 1.403710 1.403710 1.403710 1.403710 1.403710 1.403710 1.403710 1.403710 1.403710 1.403710 1.403710 1.403710 1.403710 1.403710 1.403710 1.403710 1.403710 1.403710 1.403710 1.403710 1.403710 1.403710 1.403710 1.403710 1.403710 1.403710 1.403710 1.406987 1.450579 1.493397 1.535382 1.576476 1.616621 1.655759 1.693834 1.730793 1.766580 1.801142 1.834427
1.395592 1.396712 1.397803 1.398852 1.399841 1.400757 1.401581 1.402297 1.402886 1.403331 1.403612 1.403710 1.403710 1.403710 1.403710 1.403710 1.403710 1.403710 1.403710 1.403710 1.403710 1.403710 1.403710 1.403710 1.403710 1.403710 1.403710 1.403710 1.403710 1.403710 1.403710 1.403710 1.403710 1.403710 1.403710 1.403710 1.403710 1.403710 1.403710 1.403710 1.403710 1.403710 1.403710 1.403710 1.403710 1.403710 1.403710 1.403710 1.403710 1.403710 1.403710 1.403710 1.403843 1.446782 1.489001 1.530442 1.571044 1.610753 1.649508 1.687256 1.723940 1.759508 1.793904 1.827076 1.858974
1.400717 1.401375 1.401980 1.402520 1.402977 1.403338 1.403585 1.403703 1.403710 1.403710 1.403710 1.403710 1.403710 1.403710 1.403710 1.403710 1.403710 1.403710 1.403710 1.403710 1.403710 1.403710 1.403710 1.403710 1.403710 1.403710 1.403710 1.403710 1.403710 1.403710 1.403710 1.403710 1.403710 1.403710 1.403710 1.403710 1.403710 1.403710 1.403710 1.403710 1.403710 1.403710 1.403710 1.403710 1.403710 1.403710 1.403710 1.403710 1.403710 1.403710 1.403710 1.403710 1.444498 1.486062 1.526898 1.566952 1.606163 1.644476 1.681835 1.718184 1.753469 1.787635 1.820632 1.852407 1.882909
1.403338 1.403542 1.403670 1.403710 1.403710 1.403710 1.403710 1.403710 1.403710 1.403710 1.403710 1.403710 1.403710 1.403710 1.403710 1.403710 1.403710 1.403710 1.403710 1.403710 1.403710 1.403710 1.403710 1.403710 1.403710 1.403710 1.403710 1.403710 1.403710 1.403710 1.403710 1.403710 1.403710 1.403710 1.403710 1.403710 1.403710 1.403710 1.403710 1.403710 1.403710 1.403710 1.403710 1.403710 1.403710 1.403710 1.403710 1.403710 1.403710 1.403710 1.403710 1.443737 1.484589 1.524767 1.564214 1.602872 1.640684 1.677594 1.713548 1.748489 1.782366 1.815125 1.846715 1.877084 1.906184
1.403710 1.403710 1.403710 1.403710 1.403710 1.403710 1.403710 1.403710 1.403710 1.403710 1.403710 1.403710 1.403710 1.403710 1.403710 1.403710 1.403710 1.403710 1.403710 1.403710 1.403710 1.403710 1.403710 1.403710 1.403710 1.403710 1.403710 1.403710 1.403710 1.403710 1.403710 1.403710 1.403710 1.403710 1.403710 1.403710 1.403710 1.403710 1.403710 1.403710 1.403710 1.403710 1.403710 1.403710 1.403710 1.403710 1.403710 1.403710 1.403710 1.403843 1.444498 1.484589 1.524056 1.562842 1.600892 1.638147 1.674552 1.710052 1.744593 1.778121 1.810583 1.841927 1.872103 1.901061 1.928752
1.403710 1.403710 1.403710 1.403710 1.403710 1.403710 1.403710 1.403710 1.403710 1.403710 1.403710 1.403710 1.403710 1.403710 1.403710 1.403710 1.403710 1.403710 1.403710 1.403710 1.403710 1.403710 1.403710 1.403710 1.403710 1.403710 1.403710 1.403710 1.403710 1.403710 1.403710 1.403710 1.403710 1.403710 1.403710 1.403710 1.403710 1.403710 1.403710 1.403710 1.403710 1.403710 1.403710 1.403710 1.403710 1.403710 1.403710 1.403710 1.406987 1.446782 1.486062 1.524767 1.562842 1.600231 1.636876 1.672721 1.707714 1.741797 1.774919 1.807027 1.838068 1.867992 1.896749 1.924290 1.950566
1.403710 1.403710 1.403710 1.403710 1.403710 1.403710 1.403710 1.403710 1.403710 1.403710 1.403710 1.403710 1.403710 1.403710 1.403710 1.403710 1.403710 1.403710 1.403710 1.403710 1.403710 1.403710 1.403710 1.403710 1.403710 1.403710 1.403710 1.403710 1.403710 1.403710 1.403710 1.403710 1.403710 1.403710 1.403710 1.403710 1.403710 1.403710 1.403710 1.403710 1.403710 1.403710 1.403710 1.403710 1.403710 1.403710 1.403710 1.411688 1.450579 1.489001 1.526898 1.564214 1.600892 1.636876 1.672110 1.706541 1.740115 1.772777 1.804475 1.835157 1.864773 1.893271 1.920603 1.946722 1.971579
1.403710 1.403710 1.403710 1.403710 1.403710 1.403710 1.403710 1.403710 1.403710 1.403710 1.403710 1.403710 1.403710 1.403710 1.403710 1.403710 1.403710 1.403710 1.403710 1.403710 1.403710 1.403710 1.403710 1.403710 1.403710 1.403710 1.403710 1.403710 1.403710 1.403710 1.403710 1.403710 1.403710 1.403710 1.403710 1.403710 1.403710 1.403710 1.403710 1.403710 1.403710 1.403710 1.403710 1.403710 1.403710 1.403710 1.417930 1.455874 1.493397 1.530442 1.566952 1.602872 1.638147 1.672721 1.706541 1.739553 1.771703 1.802939 1.833208 1.862461 1.890646 1.917715 1.943619 1.968312 1.991747
1.403710 1.403710 1.403710 1.403710 1.403710 1.403710 1.403710 1.403710 1.403710 1.403710 1.403710 1.403710 1.403710 1.403710 1.403710 1.403710 1.403710 1.403710 1.403710 1.403710 1.403710 1.403710 1.403710 1.403710 1.403710 1.403710 1.403710 1.403710 1.403710 1.403710 1.403710 1.403710 1.403710 1.403710 1.403710 1.403710 1.403710 1.403710 1.403710 1.403710 1.403710 1.403710 1.403710 1.403710 1.403710 1.425689 1.462649 1.499232 1.535382 1.571044 1.606163 1.640684 1.674552 1.707714 1.740115 1.771703 1.802426 1.832232 1.861069 1.888888 1.915640 1.941277 1.965750 1.989014 2.011023
1.403710 1.403710 1.403710 1.403710 1.403710 1.403710 1.403710 1.403710 1.403710 1.403710 1.403710 1.403710 1.403710 1.403710 1.403710 1.403710 1.403710 1.403710 1.403710 1.403710 1.403710 1.403710 1.403710 1.403710 1.403710 1.403710 1.403710 1.403710 1.403710 1.403710 1.403710 1.403710 1.403710 1.403710 1.403710 1.403710 1.403710 1.403710 1.403710 1.403710 1.403710 1.403710 1.403710 1.403710 1.434938 1.470878 1.506484 1.541701 1.576476 1.610753 1.644476 1.677594 1.710052 1.741797 1.772777 1.802939 1.832232 1.860604 1.888007 1.914391 1.939707 1.963909 1.986948 2.008781 2.029363
1.403710 1.403710 1.403710 1.403710 1.403710 1.403710 1.403710 1.403710 1.403710 1.403710 1.403710 1.403710 1.403710 1.403710 1.403710 1.403710 1.403710 1.403710 1.403710 1.403710 1.403710 1.403710 1.403710 1.403710 1.403710 1.403710 1.403710 1.403710 1.403710 1.403710 1.403710 1.403710 1.403710 1.403710 1.403710 1.403710 1.403710 1.403710 1.403710 1.403710 1.403710 1.403710 1.410515 1.445641 1.480529 1.515125 1.549375 1.583225 1.616621 1.649508 1.681835 1.713548 1.744593 1.774919 1.804475 1.833208 1.861069 1.888007 1.913974 1.938920 1.962799 1.985564 2.007170 2.027571 2.046725
1.403710 1.403710 1.403710 1.403710 1.403710 1.403710 1.403710 1.403710 1.403710 1.403710 1.403710 1.403710 1.403710 1.403710 1.403710 1.403710 1.403710 1.403710 1.403710 1.403710 1.403710 1.403710 1.403710 1.403710 1.403710 1.403710 1.403710 1.403710 1.403710 1.403710 1.403710 1.403710 1.403710 1.403710 1.403710 1.403710 1.403710 1.403710 1.403710 1.403710 1.403710 1.423754 1.457760 1.491567 1.525123 1.558372 1.591264 1.623744 1.655759 1.687256 1.718184 1.748489 1.778121 1.807027 1.835157 1.862461 1.888888 1.914391 1.938920 1.962429 1.984870 2.006198 2.026369 2.045338 2.063064
1.403710 1.403710 1.403710 1.403710 1.403710 1.403710 1.403710 1.403710 1.403710 1.403710 1.403710 1.403710 1.403710 1.403710 1.403710 1.403710 1.403710 1.403710 1.403710 1.403710 1.403710 1.403710 1.403710 1.403710 1.403710 1.403710 1.403710 1.403710 1.403710 1.403710 1.403710 1.403710 1.403710 1.403710 1.403710 1.403710 1.403710 1.403710 1.403710 1.405416 1.438388 1.471250 1.503951 1.536438 1.568659 1.600561 1.632092 1.663201 1.693834 1.723940 1.753469 1.782366 1.810583 1.838068 1.864773 1.890646 1.915640 1.939707 1.962799 1.984870 2.005874 2.025766 2.044503 2.062041 2.078339
1.403710 1.403710 1.403710 1.403710 1.403710 1.403710 1.403710 1.403710 1.403710 1.403710 1.403710 1.403710 1.403710 1.403710 1.403710 1.403710 1.403710 1.403710 1.403710 1.403710 1.403710 1.403710 1.403710 1.403710 1.403710 1.403710 1.403710 1.403710 1.403710 1.403710 1.403710 1.403710 1.403710 1.403710 1.403710 1.403710 1.403710 1.403710 1.422591 1.454364 1.486062 1.517633 1.549027 1.580193 1.611079 1.641634 1.671805 1.701541 1.730793 1.759508 1.787635 1.815125 1.841927 1.867992 1.893271 1.917715 1.941277 1.963909 1.985564 2.006198 2.025766 2.044223 2.061527 2.077636 2.092510
1.403710 1.403710 1.403710 1.403710 1.403710 1.403710 1.403710 1.403710 1.403710 1.403710 1.403710 1.403710 1.403710 1.403710 1.403710 1.403710 1.403710 1.403710 1.403710 1.403710 1.403710 1.403710 1.403710 1.403710 1.403710 1.403710 1.403710 1.403710 1.403710 1.403710 1.403710 1.403710 1.403710 1.403710 1.403710 1.403710 1.410515 1.441065 1.471623 1.502138 1.532562 1.562842 1.592930 1.622775 1.652326 1.681533 1.710344 1.738710 1.766580 1.793904 1.820632 1.846715 1.872103 1.896749 1.920603 1.943619 1.965750 1.986948 2.007170 2.026369 2.044503 2.061527 2.077401 2.092084 2.105534
1.403710 1.403710 1.403710 1.403710 1.403710 1.403710 1.403710 1.403710 1.403710 1.403710 1.403710 1.403710 1.403710 1.403710 1.403710 1.403710 1.403710 1.403710 1.403710 1.403710 1.403710 1.403710 1.403710 1.403710 1.403710 1.403710 1.403710 1.403710 1.403710 1.403710 1.403710 1.403710 1.403710 1.403710 1.403710 1.431477 1.460771 1.490102 1.519421 1.548680 1.577829 1.606820 1.635603 1.664127 1.692344 1.720204 1.747656 1.774652 1.801142 1.827076 1.852407 1.877084 1.901061 1.924290 1.946722 1.968312 1.989014 2.008781 2.027571 2.045338 2.062041 2.077636 2.092084 2.105343 2.117374
1.403710 1.403710 1.403710 1.403710 1.403710 1.403710 1.403710 1.403710 1.403710 1.403710 1.403710 1.403710 1.403710 1.403710 1.403710 1.403710 1.403710 1.403710 1.403710 1.403710 1.403710 1.403710 1.403710 1.403710 1.403710 1.403710 1.403710 1.403710 1.403710 1.403710 1.403710 1.403710 1.403710 1.425689 1.453608 1.481638 1.509732 1.537844 1.565926 1.593930 1.621806 1.649508 1.676987 1.704192 1.731077 1.757592 1.783687 1.809315 1.834427 1.858974 1.882909 1.906184 1.928752 1.950566 1.971579 1.991747 2.011023 2.029363 2.046725 2.063064 2.078339 2.092510 2.105534 2.117374 2.127992
1.403710 1.403710 1.403710 1.403710 1.403710 1.403710 1.403710 1.403710 1.403710 1.403710 1.403710 1.403710 1.403710 1.403710 1.403710 1.403710 1.403710 1.403710 1.403710 1.403710 1.403710 1.403710 1.403710 1.403710 1.403710 1.403710 1.403710 1.403710 1.403710 1.403710 1.403710 1.423754 1.450199 1.476826 1.503589 1.530442 1.557338 1.584233 1.611079 1.637829 1.664436 1.690851 1.717027 1.742917 1.768471 1.793644 1.818385 1.842648 1.866385 1.889548 1.912091 1.933967 1.955129 1.975532 1.995130 2.013878 2.031733 2.048651 2.064588 2.079504 2.093357 2.106107 2.117714 2.128141 2.137350
1.403710 1.403710 1.403710 1.403710 1.403710 1.403710 1.403710 1.403710 1.403710 1.403710 1.403710 1.403710 1.403710 1.403710 1.403710 1.403710 1.403710 1.403710 1.403710 1.403710 1.403710 1.403710 1.403710 1.403710 1.403710 1.403710 1.403710 1.403710 1.403710 1.425689 1.450579 1.475713 1.501050 1.526543 1.552152 1.577829 1.603531 1.629211 1.654824 1.680323 1.705661 1.730793 1.755670 1.780247 1.804475 1.828308 1.851698 1.874600 1.896966 1.918749 1.939904 1.960384 1.980145 1.999142 2.017329 2.034663 2.051102 2.066602 2.081121 2.094619 2.107055 2.118390 2.128586 2.137606 2.145412