64 64
0.000000 0.000000 0.000000 0.000000 0.000000 0.000000 0.000000 0.000000 0.000000 0.000000 0.000000 0.000000 0.000000 0.000000 0.000000 0.000000 0.000000 0.000000 0.000000 0.000000 0.000000 0.000000 0.000000 0.000000 0.000000 0.000000 0.000000 0.000000 0.000000 0.000000 0.000000 0.000000 0.000000 0.000000 0.000000 0.000000 0.000000 0.000000 0.000000 0.000000 0.000000 0.000000 0.000000 0.000000 0.000000 0.000000 0.000000 0.000000 0.000000 0.000000 0.000000 0.000000 0.000000 0.000000 0.000000 0.000000 0.000000 0.000000 0.000000 0.000000 0.000000 0.000000 0.000000 0.000000 0.000000
0.000000 0.000000 0.000000 0.000000 0.000000 0.000000 0.000000 0.000000 0.000000 0.000000 0.000000 0.000000 0.000000 0.000000 0.000000 0.000000 0.000000 0.000000 0.000000 0.000000 0.000000 0.000000 0.000000 0.000000 0.000000 0.000000 0.000000 0.000000 0.000000 0.000000 0.000000 0.000000 0.000000 0.000000 0.000000 0.000000 0.000000 0.000000 0.000000 0.000000 0.000000 0.000000 0.000000 0.000000 0.000000 0.000000 0.000000 0.000000 0.000000 0.000000 0.000000 0.000000 0.000000 0.000000 0.000000 0.000000 0.000000 0.000000 0.000000 0.000000 0.000000 0.000000 0.000000 0.000000 0.000000
0.000000 0.000000 0.000000 0.000000 0.000000 0.000000 0.000000 0.000000 0.000000 0.000000 0.000000 0.000000 0.000000 0.000000 0.000000 0.000000 0.000000 0.000000 0.000000 0.000000 0.000000 0.000000 0.000000 0.000000 0.000000 0.000000 0.000000 0.000000 0.000000 0.000000 0.000000 0.000000 0.000000 0.000000 0.000000 0.000000 0.000000 0.000000 0.000000 0.000000 0.000000 0.000000 0.000000 0.000000 0.000000 0.000000 0.000000 0.000000 0.000000 0.000000 0.000000 0.000000 0.000000 0.000000 0.000000 0.000000 0.000000 0.000000 0.000000 0.000000 0.000000 0.000000 0.000000 0.000000 0.000000
0.001421 0.001203 0.000973 0.000743 0.000523 0.000324 0.000161 0.000048 0.000001 0.000000 0.000000 0.000000 0.000000 0.000000 0.000000 0.000000 0.000000 0.000000 0.000000 0.000000 0.000000 0.000000 0.000000 0.000000 0.000000 0.000000 0.000000 0.000000 0.000000 0.000000 0.000000 0.000000 0.000000 0.000000 0.000000 0.000000 0.000000 0.000000 0.000000 0.000000 0.000000 0.000000 0.000000 0.000000 0.000000 0.000000 0.000000 0.000000 0.000000 0.000000 0.000000 0.000000 0.000000 0.000000 0.000000 0.000000 0.000000 0.000000 0.000000 0.000000 0.000000 0.000000 0.000000 0.000000 0.000000
0.007000 0.006499 0.005945 0.005347 0.004717 0.004067 0.003412 0.002765 0.002143 0.001564 0.001047 0.000611 0.000276 0.000065 0.000000 0.000000 0.000000 0.000000 0.000000 0.000000 0.000000 0.000000 0.000000 0.000000 0.000000 0.000000 0.000000 0.000000 0.000000 0.000000 0.000000 0.000000 0.000000 0.000000 0.000000 0.000000 0.000000 0.000000 0.000000 0.000000 0.000000 0.000000 0.000000 0.000000 0.000000 0.000000 0.000000 0.000000 0.000000 0.000000 0.000000 0.000000 0.000000 0.000000 0.000000 0.000000 0.000000 0.000000 0.000000 0.000000 0.000000 0.000000 0.000000 0.000000 0.000000
0.016799 0.016011 0.015126 0.014154 0.013106 0.011997 0.010839 0.009648 0.008442 0.007237 0.006054 0.004912 0.003833 0.002839 0.001954 0.001203 0.000611 0.000205 0.000012 0.000000 0.000000 0.000000 0.000000 0.000000 0.000000 0.000000 0.000000 0.000000 0.000000 0.000000 0.000000 0.000000 0.000000 0.000000 0.000000 0.000000 0.000000 0.000000 0.000000 0.000000 0.000000 0.000000 0.000000 0.000000 0.000000 0.000000 0.000000 0.000000 0.000000 0.000000 0.000000 0.000000 0.000000 0.000000 0.000000 0.000000 0.000000 0.000000 0.000000 0.000000 0.000000 0.000000 0.000000 0.000000 0.000000
0.030809 0.029728 0.028506 0.027153 0.025681 0.024103 0.022434 0.020690 0.018888 0.017046 0.015184 0.013323 0.011486 0.009695 0.007974 0.006349 0.004846 0.003494 0.002319 0.001352 0.000622 0.000161 0.000000 0.000000 0.000000 0.000000 0.000000 0.000000 0.000000 0.000000 0.000000 0.000000 0.000000 0.000000 0.000000 0.000000 0.000000 0.000000 0.000000 0.000000 0.000000 0.000000 0.000000 0.000000 0.000000 0.000000 0.000000 0.000000 0.000000 0.000000 0.000000 0.000000 0.000000 0.000000 0.000000 0.000000 0.000000 0.000000 0.000000 0.000000 0.000000 0.000000 0.000000 0.000000 0.000000
0.049015 0.047637 0.046071 0.044331 0.042426 0.040372 0.038183 0.035876 0.033467 0.030977 0.028425 0.025834 0.023224 0.020621 0.018050 0.015536 0.013106 0.010790 0.008615 0.006613 0.004814 0.003250 0.001954 0.000959 0.000300 0.000011 0.000000 0.000000 0.000000 0.000000 0.000000 0.000000 0.000000 0.000000 0.000000 0.000000 0.000000 0.000000 0.000000 0.000000 0.000000 0.000000 0.000000 0.000000 0.000000 0.000000 0.000000 0.000000 0.000000 0.000000 0.000000 0.000000 0.000000 0.000000 0.000000 0.000000 0.000000 0.000000 0.000000 0.000000 0.000000 0.000000 0.000000 0.000000 0.000000
0.071399 0.069718 0.067804 0.065669 0.063325 0.060787 0.058069 0.055189 0.052164 0.049015 0.045762 0.042426 0.039032 0.035604 0.032167 0.028748 0.025376 0.022079 0.018888 0.015832 0.012945 0.010259 0.007807 0.005625 0.003746 0.002208 0.001047 0.000300 0.000003 0.000000 0.000000 0.000000 0.000000 0.000000 0.000000 0.000000 0.000000 0.000000 0.000000 0.000000 0.000000 0.000000 0.000000 0.000000 0.000000 0.000000 0.000000 0.000000 0.000000 0.000000 0.000000 0.000000 0.000000 0.000000 0.000000 0.000000 0.000000 0.000000 0.000000 0.000000 0.000000 0.000000 0.000000 0.000000 0.000000
0.098082 0.095992 0.093682 0.091146 0.088356 0.085326 0.082071 0.078609 0.074958 0.071139 0.067172 0.063081 0.058890 0.054622 0.050306 0.045968 0.041637 0.037344 0.033118 0.028992 0.024998 0.021171 0.017544 0.014154 0.011036 0.008227 0.005766 0.003689 0.002037 0.000848 0.000161 0.000000 0.000000 0.000000 0.000000 0.000000 0.000000 0.000000 0.000000 0.000000 0.000000 0.000000 0.000000 0.000000 0.000000 0.000000 0.000000 0.000000 0.000000 0.000000 0.000000 0.000000 0.000000 0.000000 0.000000 0.000000 0.000000 0.000000 0.000000 0.000000 0.000000 0.000000 0.000000 0.000000 0.000000
0.131660 0.128780 0.125596 0.122136 0.118429 0.114509 0.110409 0.106168 0.101823 0.097324 0.092633 0.087774 0.082773 0.077654 0.072444 0.067172 0.061868 0.056562 0.051286 0.046071 0.040954 0.035967 0.031146 0.026528 0.022150 0.018050 0.014266 0.010839 0.007807 0.005211 0.003093 0.001492 0.000451 0.000012 0.000000 0.000000 0.000000 0.000000 0.000000 0.000000 0.000000 0.000000 0.000000 0.000000 0.000000 0.000000 0.000000 0.000000 0.000000 0.000000 0.000000 0.000000 0.000000 0.000000 0.000000 0.000000 0.000000 0.000000 0.000000 0.000000 0.000000 0.000000 0.000000 0.000000 0.000000
0.173075 0.169391 0.165319 0.160887 0.156124 0.151065 0.145746 0.140203 0.134479 0.128617 0.122662 0.116661 0.110665 0.104670 0.098554 0.092335 0.086042 0.079708 0.073365 0.067047 0.060787 0.054622 0.048589 0.042724 0.037066 0.031654 0.026528 0.021728 0.017294 0.013269 0.009695 0.006613 0.004067 0.002100 0.000756 0.000077 0.000000 0.000000 0.000000 0.000000 0.000000 0.000000 0.000000 0.000000 0.000000 0.000000 0.000000 0.000000 0.000000 0.000000 0.000000 0.000000 0.000000 0.000000 0.000000 0.000000 0.000000 0.000000 0.000000 0.000000 0.000000 0.000000 0.000000 0.000000 0.000000
0.222284 0.217784 0.212809 0.207388 0.201552 0.195336 0.188776 0.181912 0.174785 0.167441 0.159925 0.152287 0.144578 0.136851 0.129162 0.121568 0.114129 0.106753 0.099327 0.091888 0.084470 0.077110 0.069846 0.062716 0.055759 0.049015 0.042525 0.036331 0.030475 0.024998 0.019945 0.015360 0.011285 0.007766 0.004846 0.002572 0.000988 0.000138 0.000000 0.000000 0.000000 0.000000 0.000000 0.000000 0.000000 0.000000 0.000000 0.000000 0.000000 0.000000 0.000000 0.000000 0.000000 0.000000 0.000000 0.000000 0.000000 0.000000 0.000000 0.000000 0.000000 0.000000 0.000000 0.000000 0.000000
0.279237 0.273907 0.268015 0.261590 0.254664 0.247272 0.239453 0.231246 0.222695 0.213846 0.204745 0.195443 0.185994 0.176451 0.166872 0.157317 0.147845 0.138520 0.129407 0.120573 0.111971 0.103400 0.094887 0.086474 0.078198 0.070104 0.062231 0.054622 0.047321 0.040372 0.033819 0.027706 0.022079 0.016984 0.012466 0.008572 0.005347 0.002839 0.001093 0.000155 0.000000 0.000000 0.000000 0.000000 0.000000 0.000000 0.000000 0.000000 0.000000 0.000000 0.000000 0.000000 0.000000 0.000000 0.000000 0.000000 0.000000 0.000000 0.000000 0.000000 0.000000 0.000000 0.000000 0.000000 0.000000
0.343876 0.337704 0.330881 0.323436 0.315403 0.306819 0.297721 0.288152 0.278155 0.267776 0.257067 0.246077 0.234860 0.223474 0.211977 0.200429 0.188893 0.177434 0.166118 0.155014 0.144192 0.133723 0.123680 0.113963 0.104352 0.094887 0.085612 0.076569 0.067804 0.059361 0.051286 0.043624 0.036423 0.029728 0.023588 0.018050 0.013160 0.008968 0.005520 0.002864 0.001047 0.000117 0.000000 0.000000 0.000000 0.000000 0.000000 0.000000 0.000000 0.000000 0.000000 0.000000 0.000000 0.000000 0.000000 0.000000 0.000000 0.000000 0.000000 0.000000 0.000000 0.000000 0.000000 0.000000 0.000000
0.416134 0.409108 0.401340 0.392861 0.383706 0.373912 0.363517 0.352565 0.341101 0.329173 0.316830 0.304127 0.291119 0.277863 0.264419 0.250849 0.237219 0.223594 0.210042 0.196635 0.183443 0.170540 0.158001 0.145904 0.134325 0.123329 0.112633 0.102137 0.091888 0.081931 0.072313 0.063081 0.054284 0.045968 0.038183 0.030977 0.024400 0.018498 0.013323 0.008923 0.005347 0.002644 0.000861 0.000048 0.000000 0.000000 0.000000 0.000000 0.000000 0.000000 0.000000 0.000000 0.000000 0.000000 0.000000 0.000000 0.000000 0.000000 0.000000 0.000000 0.000000 0.000000 0.000000 0.000000 0.000000
0.495937 0.488045 0.479320 0.469793 0.459500 0.448479 0.436770 0.424417 0.411466 0.397965 0.383969 0.369529 0.354703 0.339550 0.324133 0.308513 0.292759 0.276937 0.261118 0.245374 0.229779 0.214407 0.199337 0.184646 0.170415 0.156725 0.143658 0.131298 0.119535 0.108045 0.096865 0.086081 0.075758 0.065933 0.056642 0.047926 0.039825 0.032378 0.025630 0.019624 0.014404 0.010015 0.006504 0.003918 0.002304 0.001710 0.001658 0.001574 0.001459 0.001319 0.001157 0.000979 0.000792 0.000605 0.000425 0.000264 0.000131 0.000039 0.000000 0.000000 0.000000 0.000000 0.000000 0.000000 0.000000
0.583206 0.574436 0.564741 0.554153 0.542707 0.530443 0.517403 0.503629 0.489171 0.474079 0.458405 0.442206 0.425539 0.408465 0.391047 0.373351 0.355444 0.337396 0.319279 0.301166 0.283134 0.265260 0.247623 0.230303 0.213382 0.196998 0.181299 0.166355 0.152233 0.139004 0.126644 0.114718 0.103192 0.092104 0.081493 0.071399 0.061863 0.052927 0.044635 0.037032 0.030163 0.024075 0.018815 0.014431 0.010974 0.008491 0.007035 0.006593 0.006355 0.006054 0.005698 0.005290 0.004839 0.004352 0.003840 0.003311 0.002777 0.002250 0.001744 0.001273 0.000852 0.000497 0.000225 0.000053 0.000000
0.677851 0.668194 0.657516 0.645853 0.633240 0.619718 0.605328 0.590118 0.574135 0.557430 0.540059 0.522078 0.503546 0.484526 0.465084 0.445283 0.425196 0.404894 0.384449 0.363938 0.343447 0.323194 0.303286 0.283785 0.264750 0.246249 0.228347 0.211112 0.194616 0.178931 0.164131 0.150291 0.137428 0.125065 0.113120 0.101633 0.090647 0.080204 0.070351 0.061132 0.052594 0.044785 0.037755 0.031551 0.026225 0.021829 0.018413 0.016030 0.014734 0.014229 0.013674 0.013032 0.012312 0.011520 0.010668 0.009765 0.008822 0.007853 0.006871 0.005891 0.004928 0.003998 0.003120 0.002311 0.001590
0.779778 0.769221 0.757550 0.744799 0.731005 0.716210 0.700456 0.683791 0.666264 0.647929 0.628840 0.609056 0.588637 0.567648 0.546155 0.524226 0.501933 0.479478 0.457053 0.434707 0.412496 0.390475 0.368704 0.347246 0.326163 0.305522 0.285391 0.265841 0.246944 0.228773 0.211405 0.194918 0.179390 0.164902 0.151472 0.138579 0.126128 0.114163 0.102731 0.091878 0.081652 0.072102 0.063279 0.055233 0.048016 0.041680 0.036280 0.031868 0.028499 0.026228 0.025077 0.024198 0.023203 0.022101 0.020903 0.019618 0.018260 0.016840 0.015374 0.013874 0.012359 0.010845 0.009349 0.007891 0.006490
0.889172 0.877419 0.864741 0.850889 0.835901 0.819819 0.802685 0.784549 0.765462 0.745476 0.724650 0.703042 0.680716 0.657744 0.634413 0.610867 0.587152 0.563314 0.539402 0.515469 0.491572 0.467768 0.444117 0.420684 0.397532 0.374729 0.352346 0.330455 0.309129 0.288445 0.268480 0.249314 0.231028 0.213705 0.197429 0.182284 0.168249 0.154746 0.141719 0.129215 0.117282 0.105972 0.095337 0.085427 0.076296 0.067999 0.060589 0.054122 0.048655 0.044243 0.040943 0.038813 0.037500 0.036083 0.034533 0.032861 0.031079 0.029201 0.027241 0.025214 0.023137 0.021027 0.018904 0.016825 0.015413
1.008617 0.994636 0.979797 0.964172 0.947821 0.930437 0.911910 0.892288 0.871622 0.849969 0.827390 0.804181 0.780534 0.756486 0.732076 0.707345 0.682340 0.657108 0.631700 0.606169 0.580574 0.554970 0.529424 0.503997 0.478756 0.453772 0.429114 0.404858 0.381078 0.357854 0.335263 0.313389 0.292313 0.272121 0.252899 0.234735 0.217717 0.201935 0.187254 0.173082 0.159426 0.146338 0.133870 0.122076 0.111010 0.100728 0.091286 0.082740 0.075148 0.068569 0.063060 0.058680 0.055489 0.053451 0.051544 0.049478 0.047266 0.044921 0.042459 0.039896 0.037248 0.034534 0.032253 0.030829 0.030240
1.138641 1.122402 1.105179 1.087048 1.068091 1.048387 1.028027 1.006892 0.984765 0.961987 0.938599 0.914632 0.890118 0.865095 0.839602 0.813682 0.787380 0.760746 0.733832 0.706692 0.679385 0.651970 0.624510 0.597073 0.569726 0.542539 0.515586 0.488943 0.462724 0.437025 0.411915 0.387466 0.363750 0.340846 0.318833 0.297792 0.277808 0.258968 0.241359 0.225072 0.209728 0.194861 0.180525 0.166775 0.153669 0.141267 0.129628 0.118818 0.108901 0.099942 0.092010 0.085175 0.079506 0.075075 0.071957 0.069451 0.066802 0.064026 0.061153 0.058186 0.055355 0.053350 0.052187 0.051838 0.052273
1.279102 1.260573 1.240935 1.220266 1.198648 1.176176 1.153277 1.130187 1.106968 1.083582 1.059548 1.034824 1.009444 0.983444 0.956864 0.929749 0.902145 0.874102 0.845673 0.816913 0.787883 0.758642 0.729310 0.700018 0.670819 0.641767 0.612919 0.584337 0.556085 0.528231 0.500844 0.473998 0.447768 0.422234 0.397475 0.373578 0.350628 0.328712 0.307923 0.288353 0.270096 0.253194 0.236972 0.221247 0.206077 0.191524 0.177651 0.164521 0.152202 0.140762 0.130271 0.120856 0.112661 0.105745 0.100167 0.095983 0.092870 0.089718 0.086499 0.083943 0.082320 0.081611 0.081718 0.082554 0.084089
1.429846 1.408998 1.386915 1.363737 1.339979 1.315778 1.291190 1.266276 1.241100 1.215728 1.190232 1.164619 1.138371 1.111393 1.083724 1.055410 1.026498 0.997049 0.967254 0.937195 0.906913 0.876446 0.845841 0.815147 0.784413 0.753697 0.723058 0.692556 0.662258 0.632232 0.602552 0.573290 0.544526 0.516338 0.488811 0.462031 0.436085 0.411064 0.387062 0.364173 0.342495 0.322126 0.303168 0.285412 0.268158 0.251433 0.235311 0.220013 0.205645 0.192251 0.179877 0.168570 0.158382 0.149366 0.141577 0.135073 0.129914 0.126343 0.123883 0.122262 0.121458 0.121456 0.122239 0.123794 0.126114
1.590708 1.567626 1.543759 1.519207 1.494022 1.468255 1.441963 1.415210 1.388057 1.360577 1.332840 1.304921 1.276901 1.248794 1.220165 1.191025 1.161394 1.131301 1.100775 1.069849 1.038564 1.006961 0.975083 0.942983 0.910711 0.878325 0.845885 0.813454 0.781099 0.748891 0.716900 0.685207 0.653888 0.623026 0.592707 0.563018 0.534050 0.505895 0.478650 0.452410 0.427276 0.403348 0.380734 0.359695 0.340436 0.322224 0.304742 0.288028 0.272124 0.257075 0.242928 0.229731 0.217537 0.206401 0.196379 0.187564 0.180795 0.176439 0.174484 0.173807 0.173832 0.174540 0.175916 0.177947 0.180623
1.762406 1.738258 1.713237 1.687391 1.660766 1.633421 1.605412 1.576802 1.547657 1.518048 1.488057 1.457980 1.427973 1.398092 1.368396 1.338835 1.308758 1.278081 1.246832 1.215046 1.182762 1.150024 1.116876 1.083368 1.049556 1.015496 0.981249 0.946881 0.912457 0.878052 0.843739 0.809597 0.775707 0.742151 0.709018 0.676397 0.644382 0.613066 0.582547 0.552953 0.524636 0.497776 0.472445 0.448718 0.426671 0.406383 0.387568 0.369435 0.351988 0.335275 0.319343 0.304242 0.290027 0.276752 0.264728 0.254881 0.247312 0.242041 0.239095 0.238497 0.239357 0.240781 0.242752 0.245258 0.248289
1.946579 1.921416 1.895236 1.868084 1.840013 1.811077 1.781337 1.750859 1.719945 1.688799 1.657461 1.625986 1.594422 1.562831 1.531272 1.499809 1.468514 1.437215 1.405251 1.372612 1.339335 1.305464 1.271047 1.236133 1.200778 1.165039 1.128980 1.092666 1.056166 1.019554 0.982906 0.946300 0.909820 0.873553 0.837586 0.802014 0.766963 0.732795 0.699745 0.667875 0.637256 0.607958 0.580055 0.553622 0.528738 0.505483 0.483942 0.464115 0.445120 0.426734 0.409007 0.391989 0.375738 0.360941 0.348264 0.337728 0.329353 0.323162 0.319182 0.317437 0.317955 0.320079 0.322649 0.325631 0.329015
2.143068 2.116884 2.089539 2.061075 2.031548 2.001142 1.970217 1.938819 1.906985 1.874757 1.842178 1.809300 1.776177 1.742867 1.709433 1.675942 1.642463 1.609073 1.575848 1.542360 1.508097 1.473099 1.437412 1.401092 1.364193 1.326774 1.288898 1.250632 1.212047 1.173219 1.134223 1.095141 1.056059 1.017097 0.978505 0.940691 0.903728 0.867674 0.832594 0.798555 0.765627 0.733880 0.703391 0.674237 0.646499 0.620259 0.595602 0.572616 0.551390 0.531323 0.511792 0.492911 0.475677 0.460426 0.447176 0.435949 0.426765 0.419649 0.414626 0.411723 0.410968 0.412391 0.415495 0.418953 0.422688
2.351645 2.324440 2.295932 2.266505 2.236360 2.205516 2.174001 2.141851 2.109100 2.075791 2.041971 2.007690 1.973003 1.937969 1.902654 1.867123 1.831450 1.795710 1.759984 1.724353 1.688849 1.652728 1.615778 1.578053 1.539609 1.500507 1.460810 1.420588 1.379912 1.338857 1.297522 1.256043 1.214864 1.174224 1.134174 1.094768 1.056064 1.018127 0.981016 0.944804 0.909559 0.875355 0.842270 0.810382 0.779774 0.750529 0.722736 0.696485 0.671865 0.648971 0.627789 0.608380 0.590817 0.575115 0.561294 0.549414 0.539512 0.531600 0.525691 0.521802 0.519952 0.520163 0.522458 0.526438 0.530665
2.572135 2.544455 2.515855 2.486348 2.455954 2.424695 2.392600 2.359702 2.326040 2.291653 2.256592 2.220907 2.184652 2.147891 2.110688 2.073109 2.035231 1.997130 1.958887 1.920588 1.882324 1.844185 1.805935 1.766807 1.726819 1.686032 1.644513 1.602331 1.559608 1.516509 1.473568 1.430919 1.388607 1.346683 1.305196 1.264205 1.223765 1.183944 1.144804 1.106414 1.068848 1.032180 0.996489 0.961856 0.928364 0.896099 0.865152 0.835613 0.807577 0.781658 0.758941 0.739362 0.721836 0.706115 0.692202 0.680104 0.669829 0.661388 0.654795 0.650067 0.647224 0.646288 0.647283 0.650238 0.654811
2.806192 2.778780 2.750280 2.720706 2.690076 2.658413 2.625746 2.592109 2.557539 2.522081 2.485779 2.448690 2.410867 2.372374 2.333275 2.293643 2.253548 2.213076 2.172304 2.131322 2.090220 2.049094 2.008043 1.967135 1.925605 1.883143 1.839878 1.796008 1.752102 1.708253 1.664502 1.620888 1.577457 1.534260 1.491346 1.448777 1.406608 1.364905 1.323735 1.283168 1.243277 1.204139 1.165834 1.128444 1.092066 1.056926 1.023143 0.990789 0.960667 0.933585 0.909581 0.888695 0.870938 0.855325 0.841363 0.829057 0.818414 0.809448 0.802172 0.796603 0.792762 0.790670 0.790355 0.791844 0.795171
3.054437 3.027311 2.998928 2.969299 2.938446 2.906390 2.873161 2.838793 2.803321 2.766793 2.729256 2.690761 2.651370 2.611140 2.570143 2.528449 2.486133 2.443276 2.399966 2.356286 2.312334 2.268202 2.223996 2.179833 2.135889 2.092019 2.047931 2.003681 1.959297 1.914814 1.870270 1.825707 1.781171 1.736712 1.692383 1.648243 1.604350 1.560771 1.517573 1.474828 1.432610 1.391131 1.350586 1.311035 1.272539 1.235163 1.198992 1.165058 1.133968 1.105761 1.080474 1.058149 1.038828 1.022556 1.008556 0.996050 0.985047 0.975560 0.967602 0.961190 0.956346 0.953094 0.951457 0.951469 0.953159
3.316575 3.289752 3.261501 3.231835 3.200770 3.168333 3.134549 3.099456 3.063092 3.025500 2.986727 2.946831 2.905868 2.863904 2.821004 2.777243 2.732697 2.687451 2.641588 2.595201 2.548383 2.501251 2.453982 2.406787 2.360376 2.314926 2.270413 2.225866 2.181027 2.135929 2.090612 2.045116 1.999491 1.953784 1.908050 1.862348 1.816739 1.771298 1.726314 1.681936 1.638212 1.595193 1.552936 1.511496 1.470939 1.431386 1.394006 1.359275 1.327228 1.297905 1.271342 1.247580 1.226667 1.208644 1.193558 1.180847 1.169491 1.159486 1.150847 1.143592 1.137742 1.133320 1.130354 1.128876 1.128917
3.592297 3.565795 3.537692 3.508001 3.476739 3.443931 3.409605 3.373797 3.336544 3.297893 3.257891 3.216594 3.174062 3.130359 3.085555 3.039724 2.992943 2.945298 2.896878 2.847783 2.798198 2.748267 2.698721 2.649838 2.601683 2.554325 2.507835 2.462287 2.417016 2.371326 2.325254 2.278845 2.232144 2.185204 2.138080 2.091071 2.044371 1.998015 1.952042 1.906497 1.861427 1.816885 1.772925 1.729609 1.687097 1.646649 1.608651 1.573140 1.540149 1.509718 1.481886 1.456694 1.434187 1.414411 1.397414 1.383247 1.371488 1.360971 1.351654 1.343554 1.336695 1.331099 1.326796 1.323816 1.322193
3.881281 3.855119 3.827178 3.797477 3.766031 3.732864 3.698006 3.661489 3.623357 3.583651 3.542425 3.499731 3.455632 3.410190 3.363481 3.315576 3.266557 3.216515 3.165621 3.113994 3.062229 3.010841 2.959890 2.909435 2.859544 2.810286 2.761733 2.713961 2.667050 2.620714 2.573909 2.526604 2.478978 2.431385 2.383861 2.336432 2.289130 2.241991 2.195053 2.148362 2.101964 2.055915 2.010269 1.965221 1.922087 1.881206 1.842611 1.806335 1.772413 1.740884 1.711789 1.685171 1.661074 1.639546 1.620636 1.604392 1.590870 1.579741 1.569749 1.560805 1.552934 1.546159 1.540511 1.536019 1.532722
4.183194 4.157385 4.129626 4.099928 4.068310 4.034797 3.999415 3.962202 3.923198 3.882446 3.839999 3.795912 3.750247 3.703070 3.654454 3.604474 3.553281 3.501014 3.447994 3.395022 3.342203 3.289591 3.237247 3.185233 3.133616 3.082465 3.031855 2.981863 2.932570 2.884069 2.836647 2.789324 2.741847 2.694232 2.646503 2.598685 2.550811 2.502916 2.455037 2.407221 2.359518 2.311978 2.264816 2.219384 2.176009 2.134719 2.095544 2.058519 2.023680 1.991066 1.960719 1.932681 1.906996 1.883716 1.862888 1.844564 1.828801 1.815652 1.804843 1.795056 1.786171 1.778214 1.771214 1.765202 1.760218
4.497684 4.472248 4.444685 4.415006 4.383230 4.349380 4.313488 4.275588 4.235718 4.193928 4.150265 4.104790 4.057564 4.008654 3.958163 3.906266 3.853082 3.799433 3.745667 3.691828 3.637973 3.584154 3.530432 3.476870 3.423538 3.370505 3.317846 3.265703 3.214591 3.164649 3.115930 3.068456 3.021179 2.973580 2.925679 2.877505 2.829087 2.780462 2.731669 2.682753 2.633763 2.584907 2.537574 2.492100 2.448508 2.406829 2.367095 2.329339 2.293598 2.259911 2.228319 2.198867 2.171602 2.146569 2.123824 2.103418 2.085406 2.069845 2.056797 2.046003 2.036103 2.026960 2.018602 2.011063 2.004381
4.824394 4.799346 4.771993 4.742347 4.710427 4.676256 4.639865 4.601285 4.560561 4.517737 4.472869 4.426011 4.377232 4.326697 4.274521 4.221114 4.167302 4.113155 4.058718 4.004035 3.949159 3.894151 3.839067 3.783973 3.728937 3.674145 3.620145 3.567041 3.514873 3.463693 3.413554 3.364513 3.316629 3.269081 3.221044 3.172544 3.123614 3.074287 3.024605 2.974612 2.924493 2.875657 2.828480 2.782987 2.739206 2.697161 2.656888 2.618418 2.581790 2.547042 2.514217 2.483360 2.454517 2.427739 2.403076 2.380584 2.360320 2.342343 2.326710 2.313489 2.302409 2.292077 2.282356 2.273283 2.264894
5.162950 5.138307 5.111181 5.081583 5.049531 5.015050 4.978168 4.938924 4.897353 4.853507 4.807437 4.759250 4.709104 4.657103 4.604130 4.550570 4.496460 4.441840 4.386751 4.331244 4.275371 4.219189 4.162760 4.106274 4.050322 3.994996 3.940337 3.886385 3.833189 3.780796 3.729262 3.678643 3.628999 3.580395 3.532236 3.483446 3.434034 3.384034 3.333490 3.282544 3.232604 3.184129 3.137139 3.091657 3.047708 3.005322 2.964529 2.925365 2.887864 2.852071 2.818024 2.785769 2.755357 2.726835 2.700257 2.675680 2.653161 2.632758 2.614537 2.598561 2.584896 2.573228 2.562142 2.551528 2.541424
5.512967 5.488746 5.461863 5.432327 5.400158 5.365378 5.328021 5.288118 5.245713 5.200856 5.153712 5.104380 5.053181 5.001081 4.948185 4.894527 4.840144 4.785071 4.729357 4.673047 4.616196 4.558957 4.501966 4.445350 4.389141 4.333371 4.278082 4.223316 4.169118 4.115540 4.062633 4.010456 3.959073 3.908547 3.858946 3.809833 3.759969 3.709328 3.658004 3.607364 3.557996 3.509914 3.463140 3.417694 3.373605 3.330899 3.289609 3.249767 3.211414 3.174587 3.139330 3.105690 3.073715 3.043455 3.014967 2.988304 2.963527 2.940699 2.919882 2.901141 2.884548 2.870169 2.857608 2.845448 2.833622
5.874052 5.850269 5.823641 5.794182 5.761911 5.726847 5.689024 5.648476 5.605280 5.559605 5.511510 5.461708 5.410890 5.359071 5.306285 5.252559 5.197927 5.142429 5.086111 5.029059 4.971923 4.914923 4.858086 4.801437 4.745006 4.688828 4.632944 4.577392 4.522223 4.467484 4.413230 4.359523 4.306420 4.253992 4.202302 4.151428 4.101032 4.049794 3.998859 3.949002 3.900237 3.852581 3.806053 3.760674 3.716470 3.673466 3.631699 3.591201 3.552011 3.514168 3.477714 3.442697 3.409169 3.377178 3.346782 3.318037 3.291005 3.265746 3.242328 3.220819 3.201288 3.183805 3.168449 3.154679 3.141125
6.245796 6.222467 6.196111 6.166743 6.134382 6.099048 6.060771 6.019678 5.975893 5.929527 5.881606 5.832474 5.782146 5.730644 5.677993 5.624222 5.569370 5.513472 5.457050 5.400548 5.343981 5.287364 5.230720 5.174075 5.117461 5.060910 5.004462 4.948158 4.892044 4.836175 4.780603 4.725387 4.670588 4.616275 4.562520 4.509392 4.456974 4.405988 4.356051 4.307014 4.258888 4.211689 4.165435 4.120148 4.075855 4.032580 3.990359 3.949225 3.909214 3.870367 3.832731 3.796353 3.761280 3.727565 3.695269 3.664446 3.635158 3.607470 3.581450 3.557166 3.534689 3.514094 3.495459 3.478860 3.463556
6.627784 6.604923 6.578855 6.549593 6.517154 6.481572 6.443004 6.401527 6.357419 6.311777 6.264734 6.216305 6.166501 6.115342 6.062855 6.009070 5.954241 5.899082 5.843650 5.787950 5.731997 5.675804 5.619395 5.562793 5.506032 5.449142 5.392163 5.335139 5.278116 5.221143 5.164279 5.107578 5.051111 4.994938 4.939134 4.883772 4.829665 4.778205 4.729123 4.680940 4.633485 4.586775 4.540825 4.495660 4.451303 4.407781 4.365127 4.323375 4.282564 4.242734 4.203929 4.166199 4.129593 4.094166 4.059974 4.027078 3.995540 3.965423 3.936800 3.909737 3.884312 3.860598 3.838674 3.818621 3.800521
7.019588 6.997211 6.971445 6.942304 6.909835 6.874202 6.835450 6.794088 6.751117 6.706563 6.660433 6.612735 6.563485 6.512698 6.460438 6.407435 6.353966 6.300032 6.245633 6.190778 6.135479 6.079752 6.023616 5.967098 5.910225 5.853034 5.795559 5.737847 5.679944 5.621899 5.563769 5.505615 5.447500 5.389492 5.331662 5.274552 5.219774 5.167498 5.117780 5.070304 5.023553 4.977363 4.931748 4.886732 4.842337 4.798591 4.755527 4.713180 4.671587 4.630789 4.590834 4.551767 4.513640 4.476510 4.440432 4.405467 4.371682 4.339142 4.307915 4.278075 4.249698 4.222859 4.197642 4.174126 4.152396
7.420887 7.398893 7.373445 7.344503 7.312211 7.276591 7.238428 7.198516 7.156843 7.113411 7.068223 7.021289 6.972618 6.922563 6.871846 6.820484 6.768472 6.715807 6.662488 6.608522 6.553923 6.498701 6.442880 6.386482 6.329537 6.272079 6.214147 6.155778 6.097027 6.037941 5.978577 5.918996 5.859261 5.799443 5.739843 5.682159 5.626762 5.573699 5.523018 5.474774 5.428605 5.382963 5.337712 5.292873 5.248467 5.204522 5.161073 5.118150 5.075795 5.034049 4.992957 4.952568 4.912935 4.874110 4.836156 4.799134 4.763108 4.728146 4.694320 4.661703 4.630373 4.600409 4.571892 4.544906 4.519541
7.831923 7.809525 7.784511 7.755955 7.723891 7.689330 7.652855 7.614450 7.574110 7.531831 7.487617 7.441507 7.394284 7.346260 7.297421 7.247752 7.197244 7.145892 7.093698 7.040666 6.986805 6.932171 6.876794 6.820686 6.763866 6.706357 6.648183 6.589380 6.529988 6.470054 6.409625 6.348757 6.287513 6.226026 6.165875 6.107759 6.051718 5.997804 5.946075 5.896581 5.849384 5.804036 5.758996 5.714174 5.669607 5.625329 5.581386 5.537820 5.494685 5.452010 5.409798 5.368101 5.326975 5.286471 5.246653 5.207581 5.169322 5.131947 5.095524 5.060134 5.025852 4.992760 4.960943 4.930486 4.901477
8.252319 8.228946 8.204368 8.176280 8.145683 8.113017 8.078258 8.041395 8.002418 7.961323 7.918359 7.874388 7.829460 7.783548 7.736636 7.688756 7.639966 7.590242 7.539567 7.487926 7.435314 7.381728 7.327173 7.271662 7.215205 7.157830 7.099565 7.040437 6.980493 6.919772 6.858327 6.796214 6.733496 6.671371 6.611023 6.552496 6.495838 6.441098 6.388332 6.337593 6.288943 6.242446 6.197503 6.152620 6.107765 6.062976 6.018298 5.973776 5.929459 5.885407 5.841681 5.798346 5.755471 5.713133 5.671410 5.630300 5.589817 5.550034 5.511024 5.472864 5.435633 5.399415 5.364299 5.330367 5.297713
8.681732 8.657449 8.632654 8.606380 8.577885 8.547141 8.514132 8.478840 8.441257 8.401999 8.361675 8.320386 8.278126 8.234849 8.190511 8.145074 8.098506 8.050783 8.001884 7.951797 7.900511 7.848026 7.794342 7.739470 7.683427 7.626231 7.567913 7.508502 7.448041 7.386572 7.324147 7.260823 7.197294 7.135214 7.074697 7.015789 6.958539 6.902997 6.849216 6.797252 6.747169 6.699028 6.652894 6.607951 6.562831 6.517549 6.472153 6.426685 6.381201 6.335758 6.290416 6.245242 6.200309 6.155691 6.111470 6.067730 6.024560 5.982054 5.940310 5.899377 5.859203 5.819865 5.781448 5.744054 5.708194
9.119748 9.094728 9.070449 9.046340 9.019974 8.991188 8.959957 8.926459 8.891722 8.855985 8.819184 8.781256 8.742146 8.701803 8.660184 8.617246 8.572959 8.527292 8.480226 8.431743 8.381834 8.330496 8.277731 8.223547 8.167957 8.110988 8.052658 7.993007 7.932067 7.869889 7.806521 7.742270 7.678953 7.616945 7.556290 7.497031 7.439217 7.382896 7.328124 7.274957 7.223458 7.173689 7.125719 7.079614 7.034249 6.988495 6.942399 6.896002 6.849363 6.802538 6.755591 6.708587 6.661600 6.614708 6.567992 6.521538 6.475437 6.429785 6.384682 6.340227 6.296534 6.253786 6.212624 6.173094 6.135117
9.566000 9.541664 9.518251 9.495645 9.471670 9.445397 9.417002 9.387436 9.356742 9.324846 9.291677 9.257174 9.221272 9.183924 9.145078 9.104695 9.062742 9.019186 8.974002 8.927176 8.878695 8.828554 8.776757 8.723308 8.668219 8.611516 8.553221 8.493365 8.431990 8.369143 8.304899 8.240843 8.177847 8.115948 8.055184 7.995604 7.937250 7.880174 7.824436 7.770088 7.717193 7.665816 7.616025 7.567890 7.521456 7.475246 7.428464 7.381158 7.333378 7.285185 7.236642 7.187818 7.138785 7.089625 7.040418 6.991253 6.942222 6.893423 6.844957 6.797067 6.750439 6.705204 6.661440 6.619221 6.578628
10.021337 9.998297 9.976394 9.955582 9.934723 9.911899 9.887888 9.862632 9.836045 9.808048 9.778572 9.747547 9.714912 9.680614 9.644600 9.606830 9.567262 9.525867 9.482618 9.437500 9.390498 9.341603 9.290820 9.238151 9.183609 9.127217 9.068996 9.008983 8.947213 8.883729 8.819464 8.755981 8.693340 8.631582 8.570742 8.510867 8.452003 8.394203 8.337521 8.282014 8.227743 8.174776 8.123179 8.073030 8.024399 7.977221 7.929773 7.881570 7.832665 7.783119 7.732991 7.682358 7.631289 7.579866 7.528174 7.476301 7.424344 7.372554 7.321662 7.271804 7.223046 7.175452 7.129103 7.084073 7.040444
10.487123 10.466279 10.446401 10.427444 10.409868 10.391782 10.372340 10.351452 10.329031 10.304994 10.279265 10.251778 10.222467 10.191273 10.158144 10.123037 10.085909 10.046727 10.005467 9.962104 9.916626 9.869028 9.819305 9.767464 9.713514 9.657475 9.599376 9.539245 9.477118 9.413373 9.349906 9.287031 9.224782 9.163195 9.102308 9.042171 8.982826 8.924324 8.866724 8.810081 8.754457 8.699923 8.646543 8.594396 8.543550 8.494087 8.445726 8.396646 8.346632 8.295744 8.244048 8.191616 8.138519 8.084844 8.030672 7.976217 7.922266 7.868994 7.816460 7.764727 7.713863 7.663934 7.615016 7.567193 7.520545
10.964140 10.945554 10.927781 10.911716 10.897844 10.884569 10.869755 10.853291 10.835092 10.815068 10.793147 10.769251 10.743316 10.715278 10.685088 10.652696 10.618060 10.581144 10.541917 10.500361 10.456460 10.410202 10.361588 10.310617 10.257304 10.201669 10.143730 10.083523 10.021117 9.958161 9.895555 9.833323 9.771501 9.710119 9.649220 9.588848 9.529049 9.469874 9.411381 9.353625 9.296672 9.240591 9.185448 9.131315 9.078276 9.026407 8.975793 8.925776 8.874666 8.822454 8.769203 8.714982 8.659874 8.604002 8.548177 8.492692 8.437598 8.382948 8.328799 8.275219 8.222272 8.170030 8.118568 8.067971 8.018320
11.451774 11.435561 11.421117 11.408787 11.398476 11.389647 11.379513 11.367533 11.353606 11.337651 11.319586 11.299332 11.276826 11.252001 11.224799 11.195174 11.163078 11.128477 11.091334 11.051633 11.009355 10.964486 10.917024 10.866974 10.814341 10.759149 10.701416 10.641176 10.579281 10.517441 10.455732 10.394180 10.332814 10.271671 10.210790 10.150213 10.089991 10.030170 9.970812 9.911969 9.853712 9.796105 9.739217 9.683125 9.627908 9.573645 9.520426 9.468337 9.416153 9.362629 9.307837 9.251846 9.195311 9.138793 9.082332 9.025976 8.969772 8.913774 8.858044 8.802644 8.747640 8.693109 8.639127 8.585776 8.533139
11.949494 11.936979 11.926508 11.917985 11.911313 11.906389 11.900987 11.893538 11.883941 11.872105 11.857948 11.841391 11.822363 11.800796 11.776632 11.749824 11.720316 11.688077 11.653070 11.615273 11.574660 11.531225 11.484962 11.435875 11.383972 11.329267 11.271786 11.211780 11.151205 11.090518 11.029742 10.968903 10.908031 10.847157 10.786325 10.725575 10.664958 10.604521 10.544323 10.484422 10.424882 10.365772 10.307165 10.249133 10.191758 10.135123 10.079315 10.024426 9.970454 9.915640 9.859589 9.803190 9.746538 9.689664 9.632607 9.575414 9.518135 9.460824 9.403539 9.346349 9.289319 9.232526 9.176047 9.119965 9.064367
12.458013 12.449708 12.443283 12.438638 12.435679 12.434316 12.433538 12.430671 12.425449 12.417781 12.407581 12.394769 12.379267 12.361010 12.339933 12.315986 12.289117 12.259286 12.226458 12.190605 12.151711 12.109756 12.064742 12.016664 11.965529 11.911358 11.854168 11.795350 11.736184 11.676686 11.616879 11.556787 11.496439 11.435871 11.375117 11.314226 11.253243 11.192217 11.131208 11.070274 11.009479 10.948895 10.888587 10.828640 10.769132 10.710142 10.651767 10.594091 10.537252 10.481809 10.426101 10.369867 10.313136 10.255942 10.198329 10.140336 10.082016 10.023423 9.964619 9.905668 9.846644 9.787616 9.728665 9.669879 9.611343
12.977083 12.973062 12.970757 12.970067 12.970895 12.973141 12.976517 12.978275 12.977475 12.974024 12.967827 12.958805 12.946879 12.931974 12.914032 12.892992 12.868807 12.841432 12.810828 12.776969 12.739838 12.699408 12.655683 12.608657 12.558337 12.504745 12.448375 12.391218 12.333497 12.275226 12.216420 12.157109 12.097322 12.037089 11.976448 11.915445 11.854126 11.792542 11.730749 11.668810 11.606789 11.544750 11.482774 11.420931 11.359309 11.297994 11.237066 11.177024 11.118810 11.062512 11.007214 10.951187 10.894420 10.836948 10.778813 10.720056 10.660733 10.600895 10.540606 10.479928 10.418933 10.357702 10.296311 10.234845 10.173397
13.506022 13.506353 13.508241 13.511577 13.516260 13.522184 13.529263 13.535690 13.539360 13.540167 13.538018 13.532830 13.524520 13.513014 13.498249 13.480165 13.458706 13.433830 13.405496 13.373677 13.338347 13.299491 13.257100 13.211171 13.161715 13.108779 13.054118 12.998663 12.942418 12.885405 12.827640 12.769143 12.709948 12.650083 12.589585 12.528503 12.466877 12.404765 12.342220 12.279302 12.216079 12.152617 12.088997 12.025288 11.961579 11.897993 11.835550 11.774709 11.715512 11.658013 11.602229 11.546450 11.489686 11.431976 11.373359 11.313878 11.253587 11.192540 11.130796 11.068425 11.005499 10.942093 10.878289 10.814175 10.749844
14.044135 14.048890 14.055037 14.062461 14.071067 14.080746 14.091397 14.102246 14.110422 14.115532 14.117473 14.116161 14.111512 14.103447 14.091901 14.076814 14.058125 14.035791 14.009770 13.980036 13.946552 13.909313 13.868298 13.823510 13.774958 13.723369 13.670658 13.616938 13.562211 13.506491 13.449794 13.392147 13.333573 13.274108 13.213787 13.152656 13.090759 13.028144 12.964876 12.901011 12.836615 12.771756 12.706516 12.640969 12.575499 12.511224 12.448289 12.386727 12.326597 12.267941 12.210815 12.154943 12.098224 12.040317 11.981256 11.921089 11.859869 11.797647 11.734488 11.670460 11.605633 11.540086 11.473902 11.407169 11.339982
14.590720 14.599962 14.610434 14.622017 14.634610 14.648107 14.662397 14.677259 14.689983 14.699430 14.705505 14.708109 14.707160 14.702576 14.694292 14.682240 14.666365 14.646616 14.622950 14.595339 14.563750 14.528164 14.488573 14.444972 14.397462 14.347977 14.297256 14.245302 14.192121 14.137729 14.082136 14.025368 13.967451 13.908418 13.848307 13.787157 13.725015 13.661936 13.597971 13.533187 13.467649 13.401425 13.334595 13.267990 13.202420 13.137920 13.074535 13.012311 12.951288 12.891524 12.833070 12.775983 12.719313 12.661244 12.601784 12.540969 12.478856 12.415501 12.350963 12.285310 12.218618 12.150965 12.082435 12.013117 11.943105
15.145064 15.158863 15.173721 15.189529 15.206174 15.223549 15.241542 15.260053 15.277349 15.291180 15.301416 15.307976 15.310763 15.309704 15.304721 15.295745 15.282721 15.265597 15.244329 15.218880 15.189224 15.155338 15.117213 15.074839 15.029099 14.981850 14.933150 14.882997 14.831394 14.778358 14.723905 14.668047 14.610820 14.552253 14.492380 14.431242 14.368891 14.305373 14.240747 14.175074 14.108425 14.040939 13.973823 13.907487 13.841963 13.777289 13.713510 13.650661 13.588804 13.527976 13.468243 13.409652 13.352211 13.294024 13.234203 13.172784 13.109815 13.045362 12.979482 12.912247 12.843724 12.774001 12.703157 12.631291 12.558490
15.706455 15.724869 15.744180 15.764271 15.785031 15.806345 15.828106 15.850202 15.871832 15.890068 15.904510 15.915056 15.921619 15.924118 15.922468 15.916609 15.906477 15.892019 15.873185 15.849943 15.822264 15.790117 15.753499 15.712522 15.669207 15.624228 15.577578 15.529256 15.479269 15.427623 15.374334 15.319425 15.262916 15.204844 15.145242 15.084151 15.021619 14.957692 14.892437 14.825912 14.758452 14.691348 14.624773 14.558754 14.493330 14.428534 14.364405 14.300995 14.238342 14.176508 14.115537 14.055495 13.996434 13.937918 13.877771 13.815784 13.752004 13.686491 13.619310 13.550527 13.480218 13.408459 13.335342 13.260957 13.185404
16.274176 16.297262 16.321081 16.345514 16.370449 16.395765 16.421350 16.447092 16.472719 16.495398 16.514072 16.528643 16.539015 16.545103 16.546829 16.544121 16.536917 16.525156 16.508801 16.487804 16.462135 16.431770 16.396698 16.357821 16.317022 16.274342 16.229771 16.183311 16.134966 16.084742 16.032654 15.978718 15.922962 15.865417 15.806118 15.745103 15.682422 15.618124 15.552269 15.485474 15.418900 15.352611 15.286628 15.220981 15.155707 15.090838 15.026419 14.962488 14.899101 14.836304 14.774147 14.712700 14.652014 14.592158 14.531731 14.469215 14.404665 14.338137 14.269692 14.199401 14.127338 14.053587 13.978234 13.901376 13.823103
16.847496 16.875313 16.903704 16.932535 16.961700 16.991072 17.020538 17.049982 17.079304 17.106453 17.129393 17.148018 17.162228 17.171942 17.177073 17.177551 17.173311 17.164289 17.150444 17.131729 17.108114 17.079573 17.046202 17.010025 16.971767 16.931414 16.888956 16.844389 16.797714 16.748941 16.698080 16.645155 16.590179 16.533192 16.474224 16.413321 16.350523 16.285885 16.220337 16.154812 16.089327 16.023905 15.958568 15.893348 15.828278 15.763389 15.698729 15.634335 15.570258 15.506551 15.443264 15.380461 15.318195 15.256541 15.195318 15.132318 15.067039 14.999534 14.929868 14.858109 14.784338 14.708632 14.631085 14.551784 14.470836