64 64
15.631037 15.773715 15.920380 16.070887 16.225094 16.382835 16.542517 16.703136 16.864538 17.026554 17.189133 17.353817 17.521036 17.690626 17.862432 18.036280 18.212013 18.389471 18.568499 18.748938 18.930634 19.112562 19.295076 19.479187 19.664701 19.851454 20.039259 20.227959 20.417372 20.607336 20.797686 20.988262 21.178896 21.369444 21.559225 21.746843 21.932087 22.114788 22.294785 22.471931 22.646074 22.817078 22.985500 23.153379 23.320742 23.487452 23.653387 23.818415 23.982409 24.144754 24.304131 24.460358 24.613312 24.762869 24.908916 25.051344 25.190048 25.324938 25.455921 25.582914 25.705845 25.824640 25.939489 26.052639 26.164013
16.334408 16.479326 16.628052 16.780434 16.936337 17.095608 17.257843 17.421124 17.584972 17.749235 17.914289 18.081724 18.251503 18.423452 18.597414 18.773226 18.950718 19.129740 19.310125 19.491722 19.674370 19.858068 20.043346 20.230009 20.417875 20.606773 20.796526 20.986958 21.177896 21.369181 21.560638 21.752117 21.943445 22.134474 22.325050 22.514103 22.700550 22.884228 23.064980 23.242655 23.417103 23.588186 23.757421 23.926073 24.094000 24.261074 24.427155 24.592125 24.755863 24.918251 25.078279 25.234938 25.388103 25.537649 25.683475 25.825455 25.963495 26.097507 26.227392 26.353073 26.474480 26.591539 26.705055 26.817139 26.927839
17.045156 17.192232 17.342926 17.497101 17.654602 17.815298 17.979038 18.144854 18.311069 18.477482 18.645250 18.815336 18.987562 19.161770 19.337788 19.515453 19.694605 19.875082 20.056726 20.239376 20.422876 20.607798 20.795525 20.984629 21.174732 21.365662 21.557240 21.749290 21.941647 22.134136 22.326597 22.518860 22.710773 22.902180 23.092920 23.282791 23.470343 23.654898 23.836308 24.014410 24.189064 24.360374 24.530470 24.699778 24.868164 25.035482 25.201611 25.366421 25.529799 25.691612 25.851702 26.008696 26.161976 26.311426 26.456930 26.598377 26.735668 26.868715 26.997419 27.121712 27.241510 27.356764 27.469208 27.580137 27.689486
17.762377 17.911518 18.064093 18.219969 18.378988 18.541016 18.705904 18.873457 19.041939 19.210602 19.381113 19.553732 19.728306 19.904659 20.082630 20.262049 20.442753 20.624582 20.807375 20.990976 21.175240 21.361498 21.550730 21.742125 21.934349 22.127193 22.320477 22.514036 22.707685 22.901270 23.094614 23.287560 23.479948 23.671621 23.862425 24.052212 24.240559 24.425894 24.607857 24.786293 24.961058 25.132866 25.303713 25.473568 25.642288 25.809746 25.975811 26.140360 26.303263 26.464417 26.623690 26.780725 26.934027 27.083279 27.228374 27.369200 27.505655 27.637653 27.765095 27.887920 28.006037 28.119638 28.231018 28.340689 28.448601
18.485161 18.636274 18.790648 18.948128 19.108572 19.271837 19.437780 19.606255 19.776703 19.947821 20.120953 20.296009 20.472816 20.651211 20.831022 21.012089 21.194237 21.377314 21.561152 21.745605 21.930714 22.118279 22.308632 22.501581 22.695797 22.890436 23.085314 23.280258 23.475096 23.669657 23.863775 24.057289 24.250040 24.441868 24.632622 24.822163 25.010326 25.196316 25.378733 25.557402 25.732189 25.904724 26.076206 26.246494 26.415443 26.582932 26.748827 26.912996 27.075329 27.235708 27.394012 27.550144 27.703346 27.852318 27.996908 28.137022 28.272554 28.403418 28.529520 28.650793 28.767155 28.879339 28.989555 29.097883 29.204264
19.212593 19.365589 19.521662 19.680660 19.842442 20.006855 20.173763 20.343014 20.514479 20.688223 20.863871 21.041245 21.220179 21.400507 21.582047 21.764648 21.948139 22.132355 22.317141 22.502335 22.688440 22.877186 23.068535 23.262320 23.458164 23.654476 23.850822 24.047037 24.242941 24.438364 24.633141 24.827112 25.020113 25.211994 25.402597 25.591770 25.779381 25.965261 26.148029 26.326838 26.501778 26.675032 26.847027 27.017626 27.186703 27.354109 27.519718 27.683413 27.845066 28.004570 28.161806 28.316671 28.469044 28.617630 28.761629 28.900942 29.035463 29.165113 29.289797 29.409437 29.523973 29.634943 29.743900 29.850792 29.955553
19.943760 20.098551 20.256226 20.416643 20.579668 20.745140 20.912922 21.082867 21.255018 21.430902 21.608953 21.788530 21.969479 22.151625 22.334789 22.518814 22.703537 22.888788 23.074411 23.260239 23.447468 23.637278 23.829496 24.023975 24.220545 24.418386 24.616089 24.813448 25.010296 25.206469 25.401793 25.596106 25.789248 25.981064 26.171402 26.360119 26.547064 26.732100 26.914858 27.093702 27.269003 27.442852 27.615248 27.786053 27.955126 28.122341 28.287561 28.450666 28.611542 28.770069 28.926136 29.079639 29.230476 29.378328 29.521646 29.660067 29.793503 29.921848 30.045031 30.162968 30.275728 30.385530 30.493141 30.598503 30.701550
20.677744 20.834227 20.993416 21.155167 21.319340 21.485781 21.654341 21.824881 21.997879 22.174986 22.355278 22.536955 22.719803 22.903650 23.088329 23.273670 23.459515 23.645691 23.832041 24.018517 24.206858 24.397598 24.590570 24.785616 24.982574 25.181248 25.380175 25.578571 25.776251 25.973049 26.168800 26.363340 26.556513 26.748159 26.938131 27.126278 27.312450 27.496525 27.678354 27.857111 28.032946 28.207270 28.379951 28.550837 28.719809 28.886717 29.051437 29.213854 29.373842 29.531290 29.686089 29.838129 29.987318 30.133556 30.276079 30.413525 30.545773 30.672743 30.794344 30.910500 31.021658 31.130201 31.236366 31.340099 31.441355
21.413639 21.571716 21.732323 21.895309 22.060532 22.227844 22.397097 22.568146 22.742117 22.920134 23.101954 23.285603 23.470236 23.655676 23.841751 24.028299 24.215151 24.402145 24.589115 24.776333 24.965670 25.157213 25.350813 25.546299 25.743525 25.942314 26.142178 26.341484 26.539877 26.737185 26.933250 27.127905 27.320999 27.512367 27.701859 27.889326 28.074635 28.257637 28.438211 28.616308 28.792686 28.967375 29.140219 29.311085 29.479824 29.646320 29.810434 29.972050 30.131046 30.287323 30.440752 30.591236 30.738684 30.882994 31.024042 31.160421 31.291414 31.416918 31.536858 31.651159 31.760870 31.868052 31.972683 32.074699 32.174068
22.150526 22.310104 22.472029 22.636160 22.802338 22.970427 23.140272 23.311840 23.486782 23.665607 23.848158 24.033571 24.219870 24.406788 24.594145 24.781790 24.969536 25.157236 25.344721 25.532759 25.722956 25.915180 26.109282 26.305092 26.502451 26.701206 26.901190 27.101274 27.300259 27.497967 27.694233 27.888889 28.081785 28.272760 28.461664 28.648357 28.832691 29.014532 29.193741 29.370703 29.547337 29.722261 29.895149 30.065868 30.234274 30.400240 30.563646 30.724356 30.882265 31.037254 31.189217 31.338058 31.483665 31.625957 31.764843 31.899902 32.029541 32.153507 32.271713 32.384102 32.492477 32.598202 32.701199 32.801418 32.898815
22.887495 23.048471 23.211617 23.376791 23.543835 23.712605 23.882952 24.055140 24.230946 24.410458 24.593536 24.779955 24.967804 25.156078 25.344608 25.533228 25.721766 25.910057 26.097956 26.286865 26.477791 26.670570 26.865042 27.061052 27.258427 27.457022 27.656666 27.857052 28.056503 28.254488 28.450830 28.645378 28.837967 29.028446 29.216660 29.402464 29.585726 29.766293 29.944052 30.119963 30.295990 30.471031 30.643843 30.814304 30.982264 31.147593 31.310169 31.469873 31.626589 31.780197 31.930599 32.077690 32.221375 32.361561 32.498165 32.631104 32.759312 32.881657 32.998051 33.108593 33.215595 33.319763 33.421040 33.519371 33.614704
23.623642 23.785917 23.950188 24.116308 24.284113 24.453468 24.624228 24.797117 24.973671 25.153767 25.337255 25.523979 25.713131 25.902649 26.092228 26.281712 26.470924 26.659704 26.848028 27.037720 27.229244 27.422453 27.617172 27.813253 28.010525 28.208832 28.408024 28.607935 28.807707 29.005846 29.202154 29.396477 29.588648 29.778519 29.965933 30.150753 30.332834 30.512039 30.688248 30.863203 31.038151 31.212799 31.385424 31.555504 31.722897 31.887484 32.049129 32.207722 32.363136 32.515266 32.664009 32.809261 32.950928 33.088924 33.223160 33.353558 33.479881 33.600521 33.715031 33.823833 33.929356 34.031887 34.131351 34.227703 34.320889
24.358055 24.521534 24.686832 24.853794 25.022270 25.192118 25.363195 25.536850 25.714029 25.894592 26.078381 26.265242 26.454967 26.645607 26.836123 27.026350 27.216124 27.405275 27.594072 27.784403 27.976406 28.169909 28.364752 28.560778 28.757824 28.955734 29.154343 29.353502 29.552980 29.751156 29.947315 30.141294 30.332933 30.522089 30.708599 30.892328 31.073128 31.250875 31.425598 31.599516 31.773266 31.946716 32.118996 32.288586 32.455307 32.619034 32.779640 32.937008 33.091030 33.241581 33.388577 33.531895 33.671463 33.807178 33.938961 34.066734 34.190437 34.309277 34.421814 34.528961 34.632915 34.733704 34.831272 34.925552 35.016514
25.089859 25.254429 25.420650 25.588354 25.757402 25.927645 26.099070 26.273401 26.451109 26.632023 26.815998 27.002884 27.192526 27.384056 27.575392 27.766256 27.956478 28.145893 28.335161 28.526014 28.718357 28.912025 29.106865 29.302715 29.499405 29.696793 29.894711 30.093002 30.291519 30.489536 30.685429 30.878952 31.069954 31.258278 31.443783 31.626312 31.805737 31.981918 32.155231 32.328003 32.500431 32.672405 32.843712 33.012688 33.178616 33.341381 33.500839 33.656891 33.809410 33.958294 34.103432 34.244740 34.382103 34.515461 34.644714 34.769798 34.890633 35.007076 35.117588 35.223145 35.325436 35.424393 35.519962 35.612095 35.700748
25.818138 25.983704 26.150745 26.319094 26.488617 26.659159 26.830969 27.005875 27.183975 27.365137 27.549191 27.735994 27.925385 28.117126 28.309164 28.500538 28.691092 28.880657 29.070410 29.261644 29.454197 29.647907 29.842615 30.038158 30.234379 30.431120 30.628220 30.825529 31.022898 31.220121 31.415627 31.608582 31.798828 31.986217 32.170605 32.351837 32.529785 32.704315 32.876274 33.047775 33.218777 33.389153 33.558784 33.726959 33.891991 34.053673 34.211880 34.366501 34.517422 34.664536 34.807739 34.946926 35.082020 35.212933 35.339581 35.461891 35.579788 35.693226 35.801605 35.905556 36.006084 36.103119 36.196606 36.286510 36.372776
26.542017 26.708479 26.876234 27.045135 27.215031 27.385777 27.558002 27.733355 27.911747 28.093031 28.277052 28.463657 28.652693 28.844004 29.036558 29.228334 29.419102 29.608747 29.798918 29.990410 30.183037 30.376661 30.571108 30.766220 30.961845 31.157820 31.353989 31.550203 31.746304 31.942141 32.137047 32.329323 32.518707 32.705051 32.888218 33.068050 33.244427 33.417202 33.587849 33.757961 33.927410 34.096077 34.263851 34.430553 34.594570 34.755066 34.911919 35.065018 35.214241 35.359486 35.500656 35.637646 35.770382 35.898766 36.022724 36.142189 36.257084 36.367359 36.473137 36.575382 36.674057 36.769077 36.860413 36.947994 37.031788
27.260637 27.427879 27.596251 27.765593 27.935768 28.106615 28.279264 28.454948 28.633512 28.814817 28.998688 29.184988 29.373556 29.564247 29.756721 29.948780 30.139654 30.329363 30.519823 30.711420 30.903999 31.097401 31.291466 31.486025 31.680925 31.876017 32.071136 32.266136 32.460857 32.655163 32.848846 33.040321 33.228733 33.413933 33.595772 33.774113 33.948811 34.119797 34.289093 34.457695 34.625481 34.792339 34.958134 35.122761 35.285545 35.444748 35.600143 35.751602 35.899033 36.042316 36.181362 36.316078 36.446369 36.572136 36.693340 36.809883 36.921707 37.028763 37.131485 37.231842 37.328564 37.421486 37.510567 37.595741 37.676994
27.973108 28.141029 28.309914 28.479605 28.649952 28.820848 28.993874 29.169773 29.348396 29.529594 29.713213 29.899097 30.087091 30.277046 30.468807 30.661020 30.851881 31.041639 31.232237 31.423813 31.616213 31.809265 32.002811 32.196701 32.390759 32.584839 32.778797 32.972466 33.165703 33.358353 33.550274 33.740753 33.928085 34.112026 34.292439 34.469181 34.642113 34.811325 34.979153 35.146133 35.312145 35.477066 35.640789 35.803185 35.964108 36.121899 36.275719 36.425461 36.570995 36.712231 36.849060 36.981400 37.109165 37.232262 37.350624 37.464184 37.572868 37.676636 37.776287 37.874146 37.968819 38.059559 38.146305 38.229004 38.307636
28.678589 28.847088 29.016376 29.186314 29.356735 29.527678 29.700958 29.876953 30.055519 30.236498 30.419744 30.605101 30.792416 30.981541 31.172312 31.364218 31.554949 31.744705 31.935314 32.126743 32.318825 32.511398 32.704304 32.897388 33.090488 33.283443 33.476120 33.668343 33.859978 34.050880 34.240887 34.429802 34.615940 34.798523 34.977402 35.152443 35.323505 35.490967 35.657207 35.822453 35.986576 36.149464 36.310993 36.471058 36.629536 36.785732 36.937889 37.085789 37.229336 37.368431 37.502964 37.632851 37.758003 37.878345 37.993797 38.104305 38.209793 38.310207 38.406807 38.501621 38.594082 38.682549 38.766872 38.847019 38.922951
29.376228 29.545202 29.714796 29.884867 30.055262 30.226240 30.399651 30.575628 30.754017 30.934669 31.117435 31.302155 31.488682 31.676859 31.866537 32.057552 32.248039 32.437733 32.628223 32.819359 33.010990 33.202957 33.395096 33.587254 33.779266 33.970985 34.162254 34.352932 34.542862 34.731895 34.919891 35.106705 35.291489 35.472607 35.649853 35.823097 35.992210 36.157902 36.322441 36.485828 36.647949 36.808685 36.967930 37.125553 37.281464 37.435471 37.585850 37.731823 37.873295 38.010147 38.142300 38.269642 38.392113 38.509621 38.622101 38.729488 38.831711 38.928730 39.022255 39.113922 39.203606 39.289707 39.371536 39.449055 39.522209
30.065195 30.234529 30.404324 30.574436 30.744713 30.915686 31.089111 31.264950 31.443047 31.623257 31.805426 31.989401 32.175034 32.362167 32.550648 32.740334 32.930332 33.119892 33.310120 33.500835 33.691891 33.883118 34.074364 34.265472 34.456280 34.646637 34.836399 35.025410 35.213516 35.400581 35.586464 35.771015 35.953957 36.133499 36.309017 36.480370 36.647430 36.811337 36.974049 37.135471 37.295486 37.453960 37.610806 37.765903 37.919136 38.070400 38.218861 38.362812 38.502102 38.636631 38.766312 38.891041 39.010750 39.125359 39.234783 39.338978 39.437885 39.531490 39.621899 39.710331 39.796719 39.880329 39.959579 40.034386 40.104702
30.744675 30.914261 31.084154 31.254198 31.424253 31.595181 31.768501 31.944080 32.121773 32.301430 32.482887 32.666016 32.850636 33.036621 33.223808 33.412045 33.601059 33.790382 33.980206 34.170368 34.360706 34.551071 34.741299 34.931229 35.120712 35.309601 35.497730 35.684967 35.871151 36.056145 36.239803 36.421989 36.602570 36.780430 36.954113 37.123482 37.288403 37.450485 37.611256 37.770596 37.928387 38.084511 38.238853 38.391312 38.541779 38.690147 38.836174 38.978008 39.115028 39.247150 39.374268 39.496307 39.613178 39.724804 39.831131 39.932079 40.027607 40.117794 40.205002 40.290119 40.373077 40.453716 40.530312 40.602329 40.669739
31.413961 31.583582 31.753466 31.923347 32.093082 32.263916 32.437000 32.612206 32.789375 32.968357 33.149002 33.331165 33.514679 33.699413 33.885201 34.071896 34.259464 34.448406 34.637684 34.827156 35.016651 35.206020 35.395100 35.583740 35.771782 35.959076 36.145466 36.330811 36.514973 36.697788 36.879135 37.058861 37.236843 37.412651 37.584408 37.751694 37.914421 38.074585 38.233303 38.390457 38.545910 38.699570 38.851318 39.001049 39.148651 39.294029 39.437080 39.576691 39.711357 39.840981 39.965462 40.084728 40.198689 40.307274 40.410423 40.508064 40.600163 40.686920 40.770859 40.852573 40.932026 41.009190 41.083054 41.152214 41.216640
32.072353 32.241718 32.411484 32.581100 32.750435 32.921062 33.093803 33.268520 33.445049 33.623253 33.802967 33.984058 34.166363 34.349735 34.534027 34.719090 34.904987 35.093163 35.281773 35.470425 35.658947 35.847195 36.035004 36.222229 36.408707 36.594296 36.778831 36.962193 37.144211 37.324757 37.503681 37.680862 37.856152 38.029419 38.199150 38.364265 38.524757 38.682896 38.839447 38.994289 39.147320 39.298409 39.447460 39.594364 39.739017 39.881313 40.021168 40.158169 40.290390 40.417431 40.539196 40.655613 40.766590 40.872074 40.971981 41.066265 41.154873 41.238186 41.318768 41.397018 41.472904 41.546391 41.617149 41.683388 41.744774
32.719067 32.887871 33.057423 33.226662 33.395554 33.565853 33.738132 33.912231 34.088017 34.265316 34.443996 34.623909 34.804893 34.986816 35.169514 35.352833 35.536999 35.723919 35.911716 36.099411 36.286831 36.473831 36.660248 36.845940 37.030739 37.214500 37.397079 37.578339 37.758125 37.936291 38.112709 38.287243 38.459763 38.630127 38.797634 38.960480 39.118702 39.274689 39.428959 39.581394 39.731876 39.880306 40.026558 40.170551 40.312157 40.451294 40.587868 40.721764 40.851452 40.975826 41.094803 41.208290 41.316219 41.418526 41.515141 41.606010 41.691078 41.770920 41.848076 41.922794 41.995029 42.064774 42.131981 42.195221 42.253498
33.353302 33.521301 33.690521 33.859283 34.027664 34.197517 34.369205 34.542580 34.717487 34.893787 35.071327 35.249947 35.429516 35.609875 35.790878 35.972374 36.154732 36.339943 36.526779 36.713383 36.899578 37.085197 37.270103 37.454132 37.637142 37.818974 37.999481 38.178524 38.355972 38.531670 38.705482 38.877281 39.046936 39.214310 39.379162 39.539654 39.695541 39.849274 40.001152 40.151066 40.298916 40.444569 40.587940 40.728916 40.867393 41.003284 41.136497 41.266933 41.393898 41.515518 41.631630 41.742123 41.846931 41.946011 42.039265 42.126663 42.208153 42.284489 42.358139 42.429241 42.497784 42.563721 42.627037 42.687111 42.742218
33.974308 34.141373 34.310032 34.478226 34.646015 34.815304 34.986282 35.158810 35.332741 35.507919 35.684196 35.861435 36.039474 36.218174 36.397385 36.576965 36.757431 36.940708 37.126240 37.311623 37.496452 37.680573 37.863838 38.046093 38.227192 38.406975 38.585308 38.762047 38.937050 39.110180 39.281296 39.450279 39.616970 39.781281 39.943069 40.101109 40.254612 40.405960 40.555340 40.702633 40.847729 40.990528 41.130917 41.268791 41.404057 41.536621 41.666397 41.793282 41.917084 42.035881 42.149040 42.256470 42.358105 42.453884 42.543736 42.627602 42.705463 42.778252 42.848324 42.915764 42.980537 43.042614 43.101974 43.158478 43.210361
34.581337 34.747383 34.915237 35.082760 35.249874 35.418472 35.588623 35.760189 35.933022 36.106976 36.281891 36.457630 36.634052 36.811001 36.988323 37.165886 37.344360 37.525604 37.709393 37.893417 38.076759 38.259262 38.440765 38.621128 38.800205 38.977829 39.153885 39.328209 39.500675 39.671143 39.839470 40.005531 40.169205 40.330360 40.488884 40.644207 40.795227 40.944099 41.090866 41.235432 41.377689 41.517532 41.654839 41.789528 41.921505 42.050667 42.176926 42.300198 42.420406 42.536301 42.646439 42.750740 42.849133 42.941551 43.027939 43.108246 43.182430 43.251629 43.318062 43.381763 43.442703 43.500866 43.556229 43.608768 43.657372
35.173656 35.338608 35.505436 35.672180 35.838524 36.006310 36.175514 36.346008 36.517628 36.690243 36.863682 37.037834 37.212524 37.387611 37.562969 37.738426 37.914833 38.093906 38.275566 38.458107 38.639828 38.820583 39.000206 39.178562 39.355492 39.530876 39.704533 39.876347 40.046165 40.213879 40.379337 40.542404 40.702969 40.860893 41.016083 41.168316 41.316784 41.463051 41.607109 41.748848 41.888161 42.024940 42.159092 42.290512 42.419113 42.544796 42.667469 42.787060 42.903484 43.016201 43.123249 43.224358 43.319439 43.408447 43.491318 43.568016 43.638493 43.704037 43.766769 43.826672 43.883732 43.937923 43.989231 44.037651 44.082703
35.750580 35.914333 36.079929 36.245792 36.411282 36.578129 36.746269 36.915569 37.085876 37.257034 37.428909 37.601357 37.774220 37.947369 38.120644 38.293911 38.468132 38.644943 38.824223 39.005020 39.184998 39.363876 39.541512 39.717751 39.892426 40.065430 40.236607 40.405804 40.572903 40.737762 40.900253 41.060246 41.217621 41.372253 41.524025 41.672829 41.818645 41.962204 42.103447 42.242264 42.378532 42.512177 42.643070 42.771141 42.896282 43.018414 43.137436 43.253281 43.365864 43.475025 43.578907 43.676750 43.768467 43.854019 43.933334 44.006367 44.073093 44.134941 44.193901 44.249947 44.303070 44.353249 44.400467 44.444702 44.485874
36.311398 36.473892 36.638096 36.802948 36.967464 37.133255 37.300217 37.468208 37.637081 37.806690 37.976887 38.147530 38.318466 38.489571 38.660686 38.831676 39.003624 39.178059 39.354839 39.533527 39.711639 39.888531 40.064045 40.238041 40.410374 40.580894 40.749481 40.915970 41.080246 41.242172 41.401611 41.558449 41.712555 41.863823 42.012115 42.157341 42.300243 42.440990 42.579311 42.715096 42.848240 42.978645 43.106213 43.230843 43.352451 43.470955 43.586262 43.698292 43.806976 43.912235 44.012897 44.107414 44.195717 44.277744 44.353451 44.422794 44.485729 44.543823 44.598946 44.651081 44.700211 44.746326 44.789394 44.829437 44.866413
36.855465 37.016609 37.179344 37.342976 37.506428 37.671043 37.836708 38.003277 38.170609 38.338551 38.506966 38.675701 38.844631 39.013596 39.182457 39.351078 39.520641 39.692593 39.866787 40.043026 40.219147 40.393921 40.567204 40.738857 40.908722 41.076672 41.242550 41.406246 41.567604 41.726509 41.882824 42.036419 42.187187 42.335011 42.479763 42.621349 42.761005 42.898834 43.034130 43.166798 43.296719 43.423798 43.547947 43.669071 43.787071 43.901882 44.013409 44.121567 44.226299 44.327522 44.424698 44.515831 44.600662 44.679119 44.751183 44.816784 44.875896 44.930176 44.981407 45.029583 45.074684 45.116684 45.155582 45.191368 45.224045
37.382137 37.541851 37.703041 37.865273 38.027534 38.190865 38.355114 38.520149 38.685829 38.851997 39.018532 39.185268 39.352081 39.518818 39.685349 39.851521 40.018589 40.187943 40.359444 40.532932 40.706924 40.879475 41.050411 41.219597 41.386898 41.552162 41.715260 41.876053 42.034412 42.190201 42.343304 42.493599 42.640957 42.785263 42.926418 43.064304 43.200397 43.335205 43.467381 43.596832 43.723434 43.847118 43.967766 44.085300 44.199627 44.310680 44.418358 44.522591 44.623322 44.720455 44.813835 44.901524 44.982826 45.057690 45.126057 45.187878 45.243153 45.293556 45.340843 45.385002 45.426010 45.463860 45.498547 45.530060 45.558395
37.890785 38.049000 38.208572 38.369240 38.530205 38.692112 38.854839 39.018227 39.182144 39.346447 39.510990 39.675629 39.840229 40.004646 40.168751 40.332390 40.496876 40.663528 40.832222 41.002811 41.174423 41.344624 41.513107 41.679726 41.844349 42.006832 42.167042 42.324848 42.480114 42.632706 42.782528 42.929428 43.073311 43.214050 43.351536 43.485676 43.618011 43.749599 43.878559 44.004696 44.127903 44.248096 44.365170 44.479046 44.589630 44.696854 44.800617 44.900875 44.997543 45.090553 45.179848 45.264050 45.341782 45.412983 45.477615 45.535648 45.587032 45.633503 45.676796 45.716888 45.753773 45.787437 45.817879 45.845081 45.869064
38.380821 38.537449 38.695328 38.854282 39.013832 39.174213 39.335289 39.496925 39.658978 39.821304 39.983765 40.146210 40.308506 40.470524 40.632107 40.793140 40.954922 41.118782 41.284573 41.452175 41.621101 41.788837 41.954754 42.118694 42.280544 42.440144 42.597370 42.752102 42.904182 43.053516 43.199970 43.343418 43.483753 43.620857 43.754627 43.884949 44.013451 44.141525 44.267181 44.389919 44.509647 44.626266 44.739689 44.849827 44.956612 45.059940 45.159752 45.255974 45.348537 45.437378 45.522442 45.602989 45.677086 45.744602 45.805466 45.859661 45.907143 45.949635 45.988876 46.024864 46.057583 46.087013 46.113182 46.136051 46.155651
38.851673 39.006645 39.162746 39.319862 39.477871 39.636604 39.795925 39.955700 40.115780 40.276028 40.436295 40.596462 40.756371 40.915894 41.074886 41.233223 41.392200 41.553154 41.715958 41.880459 42.046448 42.211613 42.374847 42.536007 42.694977 42.851604 43.005760 43.157318 43.306156 43.452129 43.595142 43.735062 43.871788 44.005203 44.135197 44.261669 44.386257 44.510540 44.632801 44.752052 44.868206 44.981182 45.090878 45.197220 45.300121 45.399513 45.495316 45.587456 45.675869 45.760506 45.841297 45.917931 45.988373 46.052151 46.109215 46.159542 46.203098 46.241554 46.276699 46.308537 46.337044 46.362225 46.384083 46.402607 46.417801
39.302803 39.456039 39.610302 39.765472 39.921787 40.078762 40.236225 40.394024 40.552029 40.710087 40.868084 41.025856 41.183292 41.340237 41.496559 41.652115 41.808189 41.966152 42.125862 42.287186 42.449993 42.612461 42.772903 42.931190 43.087177 43.240738 43.391735 43.540035 43.685535 43.828083 43.967587 44.103920 44.236965 44.366627 44.492794 44.615372 44.735966 44.856228 44.974979 45.090668 45.203171 45.312428 45.418335 45.520805 45.619778 45.715160 45.806904 45.894913 45.979145 46.059532 46.136024 46.208523 46.275253 46.335258 46.388489 46.434933 46.474548 46.508915 46.539925 46.567566 46.591835 46.612732 46.630257 46.644405 46.655193
39.733681 39.885101 40.037457 40.190609 40.345085 40.500187 40.655666 40.811382 40.967209 41.122993 41.278610 41.433922 41.588783 41.743061 41.896633 42.049355 42.202419 42.357281 42.513809 42.671860 42.831314 42.990932 43.148487 43.303783 43.456696 43.607098 43.754841 43.899811 44.041882 44.180950 44.316864 44.449539 44.578854 44.704720 44.827003 44.945633 45.062168 45.178303 45.293346 45.405376 45.514160 45.619614 45.721657 45.820202 45.915176 46.006516 46.094139 46.177986 46.257996 46.334099 46.406261 46.474426 46.537399 46.593597 46.642979 46.685501 46.721165 46.751400 46.778225 46.801636 46.821636 46.838226 46.851398 46.861156 46.867519
40.143810 40.293343 40.443722 40.594807 40.747280 40.900391 41.053780 41.207321 41.360859 41.514275 41.667423 41.820168 41.972374 42.123913 42.274647 42.424454 42.574421 42.726093 42.879345 43.034046 43.190056 43.346603 43.501156 43.653370 43.803112 43.950256 44.094677 44.236229 44.374809 44.510292 44.642574 44.771530 44.897057 45.019054 45.137428 45.252068 45.364468 45.476391 45.587517 45.695808 45.800804 45.902390 46.000496 46.095062 46.185989 46.273220 46.356689 46.436314 46.512066 46.583874 46.651688 46.715454 46.774506 46.826870 46.872364 46.910957 46.942631 46.968719 46.991325 47.010479 47.026173 47.038422 47.047222 47.052582 47.054512
40.532719 40.680294 40.828625 40.977581 41.127914 41.278927 41.430122 41.581375 41.732525 41.883465 42.034061 42.184158 42.333622 42.482342 42.630177 42.776989 42.923767 43.072163 43.222050 43.373302 43.525810 43.679070 43.830528 43.979557 44.126038 44.269836 44.410835 44.548897 44.683910 44.815754 44.944317 45.069504 45.191193 45.309288 45.423687 45.534302 45.642502 45.750168 45.857166 45.961647 46.062759 46.160419 46.254543 46.345051 46.431881 46.514965 46.594227 46.669621 46.741070 46.808537 46.871975 46.931332 46.986294 47.034790 47.076382 47.111023 47.138710 47.160606 47.178955 47.193810 47.205185 47.213070 47.217487 47.218437 47.215927
40.899975 41.045525 41.191746 41.338486 41.486576 41.635376 41.784264 41.933128 42.081806 42.230175 42.378113 42.525475 42.672131 42.817947 42.962795 43.106560 43.250076 43.395084 43.541523 43.689262 43.838161 43.987965 44.136219 44.281979 44.425102 44.565479 44.702976 44.837456 44.968830 45.096977 45.221783 45.343128 45.460922 45.575066 45.685455 45.792007 45.895950 45.999294 46.101982 46.202576 46.299751 46.393410 46.483475 46.569885 46.652573 46.731453 46.806473 46.877579 46.944721 47.007828 47.066872 47.121803 47.172520 47.217117 47.254772 47.285461 47.309151 47.326832 47.340893 47.351429 47.358456 47.361973 47.361977 47.358505 47.351559
41.245155 41.388611 41.532650 41.677135 41.822849 41.969326 42.115814 42.262177 42.408283 42.554001 42.699196 42.843742 42.987492 43.130337 43.272141 43.412777 43.552937 43.694496 43.837402 43.981541 44.126770 44.272934 44.417896 44.560295 44.699970 44.836838 44.970753 45.101608 45.229267 45.353638 45.474609 45.592072 45.705925 45.816071 45.922417 46.024868 46.124508 46.223473 46.321732 46.418327 46.511482 46.601089 46.687046 46.769306 46.847786 46.922440 46.993183 47.059975 47.122768 47.181492 47.236130 47.286625 47.332947 47.373638 47.407349 47.434052 47.453743 47.467205 47.476944 47.483139 47.485794 47.484921 47.480522 47.472622 47.461235
41.567875 41.709179 41.850964 41.993134 42.136368 42.280422 42.424404 42.568184 42.711620 42.854584 42.996956 43.138596 43.279377 43.419170 43.557858 43.695301 43.832050 43.970062 44.109356 44.249809 44.391293 44.533688 44.675251 44.814182 44.950344 45.083611 45.213879 45.341011 45.464905 45.585449 45.702530 45.816059 45.925922 46.032036 46.134293 46.232616 46.327915 46.422436 46.516216 46.608646 46.697723 46.783211 46.865013 46.943069 47.017303 47.087673 47.154110 47.216560 47.274986 47.329315 47.379528 47.425587 47.467449 47.504158 47.533897 47.556622 47.572304 47.581543 47.586945 47.588764 47.587044 47.581764 47.572948 47.560627 47.544811
41.867786 42.006851 42.146339 42.286118 42.426807 42.568325 42.709698 42.850784 42.991459 43.131592 43.271046 43.409706 43.547436 43.684116 43.819618 43.953804 44.087090 44.221466 44.357071 44.493771 44.631443 44.769955 44.908005 45.043381 45.175934 45.305538 45.432068 45.555424 45.675476 45.792133 45.905285 46.014816 46.120655 46.222691 46.320831 46.415009 46.505917 46.595951 46.685200 46.773331 46.858273 46.939575 47.017159 47.090969 47.160931 47.226986 47.289089 47.347168 47.401196 47.451122 47.496906 47.538513 47.575912 47.608524 47.634289 47.653015 47.664688 47.669739 47.670757 47.668201 47.662071 47.652382 47.639156 47.622398 47.602161
42.144543 42.281315 42.418446 42.555790 42.693832 42.832718 42.971382 43.109692 43.247501 43.384716 43.521175 43.656784 43.791386 43.924877 44.057125 44.188004 44.317764 44.448444 44.580269 44.713150 44.846935 44.981514 45.115894 45.247643 45.376503 45.502357 45.625092 45.744595 45.860752 45.973465 46.082626 46.188129 46.289890 46.387817 46.481812 46.571812 46.658325 46.743820 46.828506 46.912189 46.992931 47.070007 47.143330 47.212845 47.278488 47.340195 47.397926 47.451618 47.501244 47.546738 47.588097 47.625248 47.658195 47.686607 47.708397 47.723122 47.730789 47.731659 47.728291 47.721325 47.710789 47.696678 47.679039 47.657867 47.633198
42.397854 42.532272 42.666965 42.801815 42.937180 43.073326 43.209183 43.344608 43.479485 43.613689 43.747082 43.879543 44.010948 44.141186 44.270123 44.397640 44.523830 44.650730 44.778725 44.907692 45.037540 45.168118 45.298706 45.426739 45.551830 45.673862 45.792736 45.908325 46.020523 46.129234 46.234356 46.335793 46.433449 46.527229 46.617058 46.702850 46.784958 46.865871 46.945934 47.025070 47.101562 47.174355 47.243374 47.308556 47.369835 47.427174 47.480507 47.529793 47.574997 47.616066 47.652977 47.685692 47.714176 47.738319 47.756111 47.766842 47.770504 47.767239 47.759453 47.748081 47.733128 47.714607 47.692539 47.666958 47.637886
42.627434 42.759441 42.891655 43.023964 43.156570 43.289894 43.422836 43.555305 43.687153 43.818260 43.948502 44.077763 44.205906 44.332813 44.458374 44.582470 44.705082 44.828114 44.952190 45.077206 45.203041 45.329563 45.456253 45.580482 45.701729 45.819878 45.934811 46.046421 46.154617 46.259281 46.360321 46.457642 46.551147 46.640766 46.726395 46.807961 46.885666 46.961948 47.037369 47.111851 47.184040 47.252502 47.317165 47.377983 47.434875 47.487812 47.536736 47.581604 47.622372 47.658997 47.691463 47.719742 47.743790 47.763592 47.777386 47.784122 47.783791 47.776432 47.764229 47.748428 47.729057 47.706112 47.679638 47.649658 47.616196
42.833065 42.962582 43.092262 43.221970 43.351807 43.482185 43.612148 43.741550 43.870281 43.998219 44.125237 44.251209 44.376022 44.499557 44.621685 44.742290 44.861309 44.980412 45.100513 45.221504 45.343269 45.465679 45.588360 45.708710 45.826046 45.940235 46.051170 46.158756 46.262886 46.363453 46.460377 46.553532 46.642872 46.728283 46.809692 46.887028 46.960350 47.031967 47.102695 47.172474 47.240280 47.304375 47.364655 47.421055 47.473534 47.522045 47.566536 47.606960 47.643291 47.675484 47.703506 47.727352 47.746979 47.762383 47.772179 47.774921 47.770603 47.759232 47.742592 47.722366 47.698563 47.671215 47.640335 47.605968 47.568146
43.014500 43.141487 43.268581 43.395645 43.522667 43.650028 43.776890 43.903160 44.028702 44.153385 44.277100 44.399727 44.521145 44.641224 44.759865 44.876957 44.992367 45.107471 45.223534 45.340435 45.458073 45.576324 45.694897 45.811306 45.924648 46.034813 46.141701 46.245197 46.345215 46.441643 46.534389 46.623375 46.708504 46.789692 46.866871 46.939953 47.008923 47.075832 47.141850 47.206902 47.270237 47.329903 47.385754 47.437725 47.485767 47.529823 47.569866 47.605850 47.637726 47.665485 47.689087 47.708496 47.723721 47.734722 47.740494 47.739246 47.730961 47.715637 47.694584 47.669914 47.641689 47.609932 47.574669 47.535934 47.493759
43.171585 43.295982 43.420429 43.544796 43.669006 43.793236 43.916931 44.039974 44.162231 44.283588 44.403934 44.523148 44.641106 44.757683 44.872799 44.986309 45.098103 45.209167 45.321117 45.433884 45.547340 45.661377 45.775787 45.888165 45.997448 46.103535 46.206306 46.305668 46.401520 46.493763 46.582310 46.667076 46.747974 46.824921 46.897850 46.966675 47.031338 47.093513 47.154781 47.215088 47.273869 47.329075 47.380466 47.427979 47.471554 47.511150 47.546726 47.578255 47.605690 47.629009 47.648182 47.663197 47.674026 47.680656 47.682354 47.677143 47.664898 47.645638 47.620239 47.591141 47.558502 47.522346 47.482708 47.439617 47.393124
43.304146 43.425900 43.547657 43.669292 43.790688 43.911701 44.032131 44.151863 44.270763 44.388725 44.505634 44.621361 44.735798 44.848831 44.960350 45.070229 45.178383 45.285404 45.393192 45.501755 45.610989 45.720772 45.830940 45.939224 46.044388 46.146324 46.244926 46.340096 46.431744 46.519772 46.604088 46.684608 46.761253 46.833946 46.902599 46.967155 47.027546 47.084991 47.141487 47.197029 47.251190 47.301910 47.348808 47.391827 47.430916 47.466030 47.497143 47.524208 47.547207 47.566093 47.580856 47.591476 47.597942 47.600239 47.597839 47.588650 47.572475 47.549301 47.519669 47.486130 47.449078 47.408543 47.364544 47.317139 47.266346
43.412071 43.531128 43.650146 43.768997 43.887573 44.005306 44.122387 44.238728 44.354202 44.468689 44.582092 44.694275 44.805138 44.914562 45.022442 45.128662 45.233120 45.336128 45.439701 45.544014 45.648956 45.754448 45.860321 45.964443 46.065422 46.163155 46.257542 46.348480 46.435879 46.519650 46.599697 46.675945 46.748318 46.816723 46.881115 46.941395 46.997528 47.050285 47.102005 47.152740 47.202244 47.248447 47.290821 47.329327 47.363918 47.394535 47.421177 47.443783 47.462330 47.476803 47.487171 47.493420 47.495548 47.493534 47.487022 47.473881 47.453781 47.426723 47.392960 47.355003 47.313560 47.268646 47.220325 47.168610 47.113560
43.495262 43.611580 43.727806 43.843834 43.959549 44.073982 44.187634 44.300510 44.412472 44.523430 44.633247 44.741833 44.849060 44.954834 45.059025 45.161549 45.262280 45.361313 45.460606 45.560619 45.661251 45.762390 45.863922 45.963814 46.060551 46.154034 46.244148 46.330814 46.413925 46.493401 46.569164 46.641113 46.709187 46.773308 46.833412 46.889427 46.941299 46.989452 47.036358 47.082302 47.127090 47.168739 47.206573 47.240547 47.270615 47.296757 47.318905 47.337055 47.351170 47.361237 47.367229 47.369129 47.366943 47.360649 47.350018 47.332954 47.308956 47.278049 47.240295 47.197922 47.152084 47.102829 47.050194 46.994213 46.934937
43.553669 43.667179 43.780579 43.893749 44.006554 44.117683 44.227825 44.337147 44.445545 44.552898 44.659092 44.764015 44.867569 44.969627 45.070095 45.168865 45.265842 45.360954 45.455929 45.551590 45.647858 45.744617 45.841774 45.937378 46.029819 46.118992 46.204788 46.287140 46.365925 46.441082 46.512516 46.580166 46.643932 46.703758 46.759575 46.811317 46.858921 46.902576 46.944664 46.985790 47.025837 47.062904 47.096172 47.125603 47.151150 47.172783 47.190453 47.204155 47.213844 47.219513 47.221153 47.218739 47.212265 47.201736 47.186996 47.166023 47.138145 47.103416 47.061836 47.015057 46.964859 46.911270 46.854355 46.794128 46.730663
43.587246 43.697914 43.808441 43.918705 44.028576 44.136402 44.242966 44.348671 44.453419 44.557106 44.659603 44.760815 44.860630 44.958942 45.055645 45.150642 45.243820 45.335087 45.425682 45.516975 45.608837 45.701187 45.793919 45.885185 45.973267 46.058079 46.139526 46.217514 46.291954 46.362766 46.429863 46.493168 46.552624 46.608147 46.659668 46.707142 46.750511 46.789772 46.827015 46.863335 46.898621 46.931087 46.959774 46.984646 47.005650 47.022774 47.035969 47.045227 47.050510 47.051811 47.049122 47.042408 47.031689 47.016956 46.998127 46.973259 46.941555 46.903030 46.857708 46.806625 46.752079 46.694195 46.633026 46.568604 46.500988
43.595993 43.703781 43.811390 43.918720 44.025600 44.130157 44.233055 44.335075 44.436115 44.536072 44.634830 44.732273 44.828308 44.922829 45.015728 45.106903 45.196266 45.283710 45.369968 45.456829 45.544254 45.632164 45.720444 45.807308 45.890995 45.971409 46.048454 46.122051 46.192116 46.258549 46.321281 46.380253 46.435375 46.486588 46.533829 46.577049 46.616180 46.651180 46.683582 46.715076 46.745598 46.773441 46.797535 46.817829 46.834305 46.846916 46.855640 46.860462 46.861355 46.858311 46.851307 46.840343 46.825413 46.806522 46.783634 46.754894 46.719379 46.677097 46.628090 46.572876 46.514011 46.451859 46.386467 46.317879 46.246159
43.579945 43.684807 43.789467 43.893822 43.997673 44.098999 44.198166 44.296432 44.393700 44.489872 44.584820 44.678455 44.770664 44.861351 44.950413 45.037754 45.123264 45.206871 45.288872 45.371265 45.454227 45.537663 45.621475 45.703892 45.783119 45.859089 45.931709 46.000881 46.066525 46.128559 46.186928 46.241547 46.292336 46.339241 46.382210 46.421173 46.456089 46.486897 46.514545 46.541222 46.566967 46.590164 46.609646 46.625366 46.637295 46.645412 46.649673 46.650074 46.646603 46.639225 46.627953 46.612759 46.593670 46.570663 46.543743 46.511173 46.471878 46.425884 46.373219 46.314091 46.250927 46.184528 46.114952 46.042252 45.966461
43.539162 43.641048 43.742725 43.844078 43.944851 44.042938 44.138367 44.232822 44.326263 44.418583 44.509678 44.599453 44.687798 44.774609 44.859798 44.943268 45.024921 45.104649 45.182526 45.260422 45.338898 45.417828 45.497150 45.575054 45.649796 45.721291 45.789436 45.854156 45.915375 45.973003 46.026981 46.077225 46.123680 46.166283 46.204979 46.239700 46.270409 46.297073 46.320118 46.341976 46.362942 46.381485 46.396347 46.407494 46.414879 46.418507 46.418324 46.414318 46.406490 46.394825 46.379299 46.359928 46.336704 46.309639 46.278736 46.242359 46.199322 46.149654 46.093388 46.030575 45.963142 45.892540 45.818817 45.742027 45.662235
43.473732 43.572613 43.671265 43.769581 43.867226 43.962029 44.053780 44.144352 44.233906 44.322330 44.409519 44.495388 44.579826 44.662746 44.744034 44.823612 44.901367 44.977226 45.051102 45.124466 45.198406 45.272835 45.347641 45.421001 45.491219 45.558182 45.621834 45.682079 45.738838 45.792038 45.841618 45.887493 45.929615 45.967918 46.002346 46.032852 46.059387 46.081913 46.100540 46.117588 46.133778 46.147671 46.157909 46.164471 46.167336 46.166462 46.161846 46.153473 46.141315 46.125370 46.105648 46.082127 46.054829 46.023750 45.988907 45.948757 45.902023 45.848736 45.788914 45.722603 45.650982 45.576214 45.498390 45.417572 45.333820
43.383774 43.479607 43.575199 43.670460 43.764923 43.856388 43.944553 44.031181 44.116787 44.201260 44.284515 44.366436 44.446938 44.525909 44.603275 44.678928 44.752785 44.824745 44.894737 44.963604 45.032993 45.102882 45.173164 45.241932 45.307571 45.369995 45.429108 45.484859 45.537151 45.585915 45.631081 45.672588 45.710381 45.744392 45.774570 45.800877 45.823254 45.841675 45.856091 45.868340 45.879776 45.888992 45.894608 45.896591 45.894932 45.889595 45.880562 45.867821 45.851368 45.831200 45.807297 45.779682 45.748356 45.713314 45.674591 45.630707 45.580303 45.523430 45.460110 45.390385 45.314831 45.235935 45.154057 45.069252 44.981590
43.269436 43.362190 43.454704 43.546875 43.638084 43.726173 43.810844 43.893482 43.975094 44.055573 44.134834 44.212765 44.289288 44.364307 44.437714 44.509426 44.579361 44.647434 44.713539 44.778046 44.842869 44.908207 44.973946 45.038086 45.099117 45.156963 45.211525 45.262753 45.310562 45.354877 45.395634 45.432774 45.466232 45.495968 45.521919 45.544041 45.562290 45.576630 45.587021 45.594540 45.601238 45.605778 45.606773 45.604183 45.598007 45.588219 45.574791 45.557728 45.536999 45.512638 45.484612 45.452938 45.417625 45.378689 45.336140 45.288559 45.234539 45.174133 45.107361 45.034279 44.955078 44.872082 44.786201 44.697472 44.605961
43.130901 43.220547 43.309956 43.399006 43.486897 43.571571 43.652832 43.731457 43.809017 43.885460 43.960686 44.034615 44.107124 44.178146 44.247581 44.315342 44.381348 44.445503 44.507732 44.568058 44.628307 44.689079 44.750259 44.809738 44.866135 44.919365 44.969368 45.016052 45.059361 45.099220 45.135563 45.168335 45.197491 45.222958 45.244690 45.262661 45.276810 45.287106 45.293526 45.296532 45.298515 45.298382 45.294754 45.287609 45.276924 45.262703 45.244904 45.223530 45.198582 45.170059 45.137947 45.102272 45.063034 45.020256 44.973942 44.922699 44.865116 44.801216 44.731064 44.654690 44.572147 44.485119 44.395271 44.302673 44.207375
42.968391 43.054886 43.141144 43.227077 43.311573 43.392788 43.470608 43.545338 43.618816 43.691181 43.762333 43.832199 43.900681 43.967686 44.033127 44.096924 44.158978 44.219227 44.277565 44.333942 44.389591 44.445797 44.502411 44.557175 44.608906 44.657509 44.702919 44.745056 44.783855 44.819260 44.851192 44.879608 44.904461 44.925674 44.943222 44.957050 44.967140 44.973438 44.975918 44.974686 44.971977 44.967163 44.958931 44.947231 44.932068 44.913422 44.891289 44.865654 44.836502 44.803860 44.767719 44.728092 44.684986 44.638416 44.588417 44.533558 44.472446 44.405125 44.331638 44.252029 44.166363 44.075478 43.981720 43.885303 43.786285
42.782127 42.865448 42.948555 43.031326 43.112339 43.190067 43.264416 43.335407 43.404739 43.472984 43.540047 43.605820 43.670242 43.733215 43.794651 43.854462 43.912575 43.968899 44.023361 44.075882 44.127052 44.178677 44.230694 44.280739 44.327774 44.371727 44.412533 44.450108 44.484398 44.515347 44.542877 44.566944 44.587498 44.604485 44.617870 44.627598 44.633648 44.635986 44.634575 44.629406 44.622025 44.612549 44.599697 44.583477 44.563854 44.540813 44.514366 44.484493 44.451195 44.414482 44.374352 44.330822 44.283909 44.233627 44.180000 44.121567 44.056984 43.986290 43.909531 43.826756 43.738026 43.643654 43.546051 43.445873 43.343193
42.572380 42.652508 42.732433 42.812008 42.889473 42.963673 43.034527 43.101940 43.167103 43.231186 43.294106 43.355782 43.416122 43.475037 43.532444 43.588272 43.642426 43.694843 43.745426 43.794117 43.841045 43.888081 43.935486 43.980770 44.023094 44.062382 44.098568 44.131584 44.161366 44.187847 44.210983 44.230717 44.246986 44.259773 44.269012 44.274685 44.276741 44.275150 44.269901 44.260960 44.249088 44.234943 44.217522 44.196774 44.172714 44.145317 44.114586 44.080517 44.043110 44.002369 43.958309 43.910938 43.860279 43.806343 43.749161 43.687206 43.619202 43.545189 43.465229 43.379353 43.287636 43.190144 43.088757 42.984890 42.878605