64 64
0.000000 0.000000 0.000000 0.000000 0.000000 0.000000 0.000000 0.000000 0.000000 0.000000 0.000000 0.000000 0.000000 0.000000 0.000000 0.000000 0.000000 0.000000 0.000000 0.000000 0.000000 0.000199 0.002763 0.008280 0.016743 0.028581 0.045870 0.068855 0.097540 0.135413 0.187314 0.253427 0.333662 0.427918 0.536112 0.659601 0.799732 0.958540 1.135982 1.331841 1.547270 1.784968 2.046408 2.331300 2.639314 2.970105 3.323303 3.699362 4.102330 4.535000 4.998240 5.492897 6.018634 6.574812 7.160760 7.775780 8.419262 9.091695 9.793527 10.524177 11.282740 12.068285 12.879859 13.716479 14.577142
0.000000 0.000000 0.000000 0.000000 0.000000 0.000000 0.000000 0.000000 0.000000 0.000000 0.000000 0.000000 0.000000 0.000000 0.000000 0.000000 0.000000 0.000000 0.000000 0.000000 0.000000 0.000047 0.002047 0.006989 0.014867 0.025782 0.041684 0.063259 0.090477 0.125550 0.174143 0.236896 0.313722 0.404519 0.509172 0.627968 0.762994 0.916538 1.088653 1.279124 1.489008 1.721199 1.977087 2.256378 2.558747 2.883849 3.231409 3.603506 4.003760 4.434271 4.895175 5.386318 5.908442 6.461017 7.043375 7.654816 8.294727 8.963491 9.661694 10.388731 11.143703 11.925680 12.733708 13.566813 14.423988
0.000000 0.000000 0.000000 0.000000 0.000000 0.000000 0.000000 0.000000 0.000000 0.000000 0.000000 0.000000 0.000000 0.000000 0.000000 0.000000 0.000000 0.000000 0.000000 0.000000 0.000000 0.000000 0.001409 0.005749 0.013013 0.023190 0.037653 0.057765 0.083495 0.116174 0.161326 0.220584 0.293863 0.381063 0.482069 0.596756 0.726532 0.874623 1.041223 1.226116 1.430238 1.656667 1.906741 2.180166 2.476619 2.795760 3.138270 3.507001 3.904370 4.332379 4.790793 5.279063 5.797245 6.345858 6.924261 7.531885 8.169046 8.835202 9.529678 10.252747 11.003767 11.781813 12.585938 13.415157 14.268480
0.000000 0.000000 0.000000 0.000000 0.000000 0.000000 0.000000 0.000000 0.000000 0.000000 0.000000 0.000000 0.000000 0.000000 0.000000 0.000000 0.000000 0.000000 0.000000 0.000000 0.000000 0.000000 0.000867 0.004577 0.011200 0.020726 0.033820 0.052416 0.076606 0.107224 0.148967 0.204599 0.274198 0.357663 0.454884 0.565736 0.690509 0.832969 0.993868 1.172996 1.371147 1.591562 1.835565 2.102861 2.393135 2.706288 3.044866 3.409987 3.804286 4.229445 4.685020 5.170465 5.685205 6.229501 6.803717 7.408229 8.042538 8.705862 9.397391 10.116407 10.863123 11.636881 12.436734 13.261710 14.110812
0.000000 0.000000 0.000000 0.000000 0.000000 0.000000 0.000000 0.000000 0.000000 0.000000 0.000000 0.000000 0.000000 0.000000 0.000000 0.000000 0.000000 0.000000 0.000000 0.000000 0.000000 0.000000 0.000440 0.003494 0.009449 0.018295 0.030230 0.047260 0.069858 0.098464 0.137175 0.189053 0.254839 0.334437 0.427738 0.534616 0.655055 0.791749 0.946768 1.119947 1.311928 1.526080 1.763757 2.024670 2.308556 2.616830 2.951374 3.312614 3.703640 4.125604 4.577994 5.060262 5.571835 6.112232 6.682963 7.284253 7.915355 8.575490 9.263849 9.979597 10.721961 11.491076 12.286300 13.106673 13.951191
0.000000 0.000000 0.000000 0.000000 0.000000 0.000000 0.000000 0.000000 0.000000 0.000000 0.000000 0.000000 0.000000 0.000000 0.000000 0.000000 0.000000 0.000000 0.000000 0.000000 0.000000 0.000000 0.000147 0.002519 0.007779 0.015918 0.026930 0.042344 0.063300 0.089963 0.125980 0.174057 0.235904 0.311505 0.400752 0.503525 0.619721 0.751144 0.900107 1.067160 1.252782 1.460425 1.691529 1.945804 2.223879 2.527720 2.857957 3.215081 3.602572 4.021003 4.469861 4.948603 5.456734 5.994751 6.562396 7.160116 7.787662 8.444251 9.129081 9.841318 10.580104 11.344599 12.134845 12.950253 13.789827
0.000000 0.000000 0.000000 0.000000 0.000000 0.000000 0.000000 0.000000 0.000000 0.000000 0.000000 0.000000 0.000000 0.000000 0.000000 0.000000 0.000000 0.000000 0.000000 0.000000 0.000000 0.000000 0.000009 0.001672 0.006211 0.013617 0.023876 0.037716 0.056981 0.081774 0.115073 0.159730 0.217512 0.288989 0.374054 0.472589 0.584459 0.711087 0.854073 1.014826 1.193912 1.394809 1.619095 1.867006 2.139836 2.439124 2.764784 3.117612 3.501233 3.915791 4.360774 4.835686 5.341021 5.876612 6.441803 7.035990 7.659626 8.312319 8.993265 9.701632 10.436564 11.197178 11.982584 12.792670 13.626947
0.000000 0.000000 0.000000 0.000000 0.000000 0.000000 0.000000 0.000000 0.000000 0.000000 0.000000 0.000000 0.000000 0.000000 0.000000 0.000000 0.000000 0.000000 0.000000 0.000000 0.000000 0.000000 0.000000 0.000975 0.004768 0.011414 0.020901 0.033427 0.050953 0.073933 0.104480 0.146141 0.199789 0.267018 0.347775 0.441943 0.549391 0.671119 0.808836 0.963145 1.135530 1.329446 1.546882 1.788995 2.056742 2.351213 2.672027 3.020362 3.399782 3.810130 4.250911 4.722568 5.225119 5.757939 6.320374 6.911737 7.531428 8.179874 8.856582 9.560722 10.291445 11.047865 11.829077 12.634157 13.462836
0.000000 0.000000 0.000000 0.000000 0.000000 0.000000 0.000000 0.000000 0.000000 0.000000 0.000000 0.000000 0.000000 0.000000 0.000000 0.000000 0.000000 0.000000 0.000000 0.000000 0.000000 0.000000 0.000000 0.000448 0.003471 0.009332 0.018022 0.029527 0.045268 0.066435 0.094290 0.132953 0.182859 0.245720 0.322047 0.411724 0.514624 0.631369 0.763940 0.912316 1.077850 1.264587 1.475828 1.712077 1.974771 2.264166 2.579872 2.923497 3.298387 3.704191 4.141219 4.609745 5.109175 5.638884 6.198216 6.786488 7.402986 8.047108 8.719227 9.418790 10.144941 10.896810 11.673487 12.474237 13.298944
0.000000 0.000000 0.000000 0.000000 0.000000 0.000000 0.000000 0.000000 0.000000 0.000000 0.000000 0.000000 0.000000 0.000000 0.000000 0.000000 0.000000 0.000000 0.000000 0.000000 0.000000 0.000000 0.000000 0.000116 0.002343 0.007396 0.015263 0.025929 0.039980 0.059288 0.084591 0.120155 0.166797 0.225228 0.297006 0.382072 0.480300 0.591996 0.719266 0.862250 1.021093 1.201099 1.406196 1.636706 1.894104 2.178165 2.488503 2.827190 3.197222 3.598743 4.032307 4.497370 4.993342 5.519595 6.075482 6.660315 7.273386 7.913958 8.581399 9.276031 9.997263 10.744224 11.516387 12.313586 13.134870
0.000000 0.000000 0.000000 0.000000 0.000000 0.000000 0.000000 0.000000 0.000000 0.000000 0.000000 0.000000 0.000000 0.000000 0.000000 0.000000 0.000000 0.000000 0.000000 0.000000 0.000000 0.000000 0.000000 0.000000 0.001409 0.005628 0.012648 0.022454 0.035143 0.052548 0.075477 0.107842 0.151236 0.205677 0.272791 0.353128 0.446566 0.553167 0.674984 0.812449 0.965685 1.139461 1.338193 1.563072 1.814927 2.093402 2.398115 2.731620 3.096846 3.494560 3.924333 4.385603 4.877781 5.400242 5.952338 6.533387 7.142683 7.779487 8.443037 9.132664 9.848624 10.590921 11.359254 12.152664 12.970178
0.000000 0.000000 0.000000 0.000000 0.000000 0.000000 0.000000 0.000000 0.000000 0.000000 0.000000 0.000000 0.000000 0.000000 0.000000 0.000000 0.000000 0.000000 0.000000 0.000000 0.000000 0.000000 0.000000 0.000000 0.000691 0.004055 0.010204 0.019125 0.030801 0.046272 0.067041 0.096111 0.136158 0.187115 0.249544 0.325039 0.413571 0.515050 0.631265 0.763091 0.911659 1.079878 1.272224 1.491363 1.737431 2.010072 2.308941 2.637161 2.998194 3.391802 3.817461 4.274610 4.762661 5.280995 5.828961 6.405884 7.011055 7.643740 8.303184 8.988610 9.700074 10.438210 11.202393 11.991674 12.805079
0.000000 0.000000 0.000000 0.000000 0.000000 0.000000 0.000000 0.000000 0.000000 0.000000 0.000000 0.000000 0.000000 0.000000 0.000000 0.000000 0.000000 0.000000 0.000000 0.000000 0.000000 0.000000 0.000000 0.000000 0.000216 0.002701 0.007956 0.015969 0.026722 0.040518 0.059260 0.085062 0.121667 0.169129 0.227408 0.297951 0.381464 0.477815 0.588287 0.714939 0.858960 1.022003 1.208610 1.421773 1.661811 1.928375 2.221249 2.544825 2.901452 3.290639 3.711862 4.164565 4.648161 5.162032 5.705532 6.277986 6.878691 7.506912 8.161942 8.843892 9.552289 10.286309 11.046013 11.830826 12.639780
0.000000 0.000000 0.000000 0.000000 0.000000 0.000000 0.000000 0.000000 0.000000 0.000000 0.000000 0.000000 0.000000 0.000000 0.000000 0.000000 0.000000 0.000000 0.000000 0.000000 0.000000 0.000000 0.000000 0.000000 0.000008 0.001592 0.005931 0.013013 0.022820 0.035345 0.052030 0.074797 0.107867 0.151740 0.206342 0.272015 0.350402 0.441561 0.546414 0.668382 0.807708 0.965474 1.147265 1.354496 1.588271 1.848516 2.135996 2.454879 2.806792 3.191246 3.607715 4.055649 4.534461 5.043541 5.582242 6.149890 6.745785 7.369281 8.020595 8.699206 9.404280 10.134944 10.890326 11.670338 12.474505
0.000000 0.000000 0.000000 0.000000 0.000000 0.000000 0.000000 0.000000 0.000000 0.000000 0.000000 0.000000 0.000000 0.000000 0.000000 0.000000 0.000000 0.000000 0.000000 0.000000 0.000000 0.000000 0.000000 0.000000 0.000000 0.000755 0.004157 0.010285 0.019125 0.030658 0.045400 0.065419 0.094864 0.135057 0.185924 0.247382 0.320539 0.406402 0.506386 0.623570 0.758058 0.910656 1.087545 1.289628 1.517014 1.771216 2.053609 2.367501 2.714394 3.093801 3.505203 3.948050 4.421758 4.925719 5.459288 6.021796 6.612657 7.232166 7.879796 8.554734 9.256143 9.983158 10.734892 11.510432 12.309479
0.000000 0.000000 0.000000 0.000000 0.000000 0.000000 0.000000 0.000000 0.000000 0.000000 0.000000 0.000000 0.000000 0.000000 0.000000 0.000000 0.000000 0.000000 0.000000 0.000000 0.000000 0.000000 0.000000 0.000000 0.000000 0.000216 0.002660 0.007814 0.015664 0.026192 0.039433 0.057034 0.082767 0.119191 0.166233 0.223812 0.292034 0.372893 0.468399 0.580661 0.710171 0.857796 1.029560 1.226466 1.448429 1.697175 1.974265 2.282870 2.624441 2.998496 3.404520 3.841963 4.310247 4.808764 5.336876 5.894042 6.480626 7.096117 7.739734 8.410663 9.108073 9.831101 10.578860 11.350444 12.144918
0.000000 0.000000 0.000000 0.000000 0.000000 0.000000 0.000000 0.000000 0.000000 0.000000 0.000000 0.000000 0.000000 0.000000 0.000000 0.000000 0.000000 0.000000 0.000000 0.000000 0.000000 0.000000 0.000000 0.000000 0.000000 0.000002 0.001468 0.005628 0.012468 0.021970 0.034115 0.049583 0.071688 0.104256 0.147387 0.200998 0.265032 0.341528 0.432605 0.539812 0.664206 0.807062 0.973481 1.165013 1.382600 1.626581 1.898142 2.201172 2.537124 2.905524 3.305861 3.737589 4.200133 4.692889 5.215345 5.767930 6.350173 6.961324 7.600600 8.267192 8.960273 9.678978 10.422425 11.189708 11.979896
0.000000 0.000000 0.000000 0.000000 0.000000 0.000000 0.000000 0.000000 0.000000 0.000000 0.000000 0.000000 0.000000 0.000000 0.000000 0.000000 0.000000 0.000000 0.000000 0.000000 0.000000 0.000000 0.000000 0.000000 0.000000 0.000000 0.000611 0.003757 0.009566 0.018022 0.029105 0.042893 0.061737 0.090369 0.129503 0.179061 0.239544 0.312436 0.399115 0.501182 0.620438 0.758624 0.919483 1.106076 1.319338 1.558957 1.825428 2.122600 2.452637 2.815084 3.209431 3.635138 4.091630 4.578417 5.095977 5.643910 6.221496 6.827984 7.462595 8.124527 8.812946 9.526997 10.265797 11.028445 11.814011
0.000000 0.000000 0.000000 0.000000 0.000000 0.000000 0.000000 0.000000 0.000000 0.000000 0.000000 0.000000 0.000000 0.000000 0.000000 0.000000 0.000000 0.000000 0.000000 0.000000 0.000000 0.000000 0.000000 0.000000 0.000000 0.000000 0.000116 0.002229 0.006989 0.014379 0.024381 0.036973 0.053029 0.077645 0.112702 0.158204 0.215637 0.285495 0.367942 0.464933 0.579124 0.712583 0.868013 1.050083 1.258799 1.493832 1.755815 2.047349 2.371182 2.727381 3.115441 3.534820 3.985036 4.466596 4.979208 5.522180 6.094795 6.696303 7.325930 7.982874 8.666306 9.375372 10.109195 10.866872 11.647480
0.000000 0.000000 0.000000 0.000000 0.000000 0.000000 0.000000 0.000000 0.000000 0.000000 0.000000 0.000000 0.000000 0.000000 0.000000 0.000000 0.000000 0.000000 0.000000 0.000000 0.000000 0.000000 0.000000 0.000000 0.000000 0.000000 0.000000 0.001076 0.004768 0.011073 0.019974 0.031450 0.045587 0.066202 0.097105 0.139030 0.193406 0.260169 0.339190 0.431228 0.540412 0.669055 0.819831 0.997185 1.201139 1.431364 1.688636 1.975243 2.292965 2.642627 3.024103 3.436904 3.881547 4.357878 4.865236 5.402940 5.970273 6.566488 7.190813 7.842450 8.520572 9.224330 9.952847 10.705224 11.480540
0.000000 0.000000 0.000000 0.000000 0.000000 0.000000 0.000000 0.000000 0.000000 0.000000 0.000000 0.000000 0.000000 0.000000 0.000000 0.000000 0.000000 0.000000 0.000000 0.000000 0.000000 0.000000 0.000000 0.000000 0.000000 0.000000 0.000000 0.000325 0.002932 0.008136 0.015918 0.026258 0.039135 0.056161 0.082941 0.121715 0.172947 0.236525 0.312323 0.400239 0.504448 0.628731 0.775112 0.947543 1.146521 1.371720 1.624041 1.905504 2.217891 2.561037 2.935653 3.342513 3.781655 4.252458 4.754268 5.286401 5.848145 6.438757 7.057467 7.703480 8.375975 9.074098 9.796986 10.543761 11.314151
0.000000 0.000000 0.000000 0.000000 0.000000 0.000000 0.000000 0.000000 0.000000 0.000000 0.000000 0.000000 0.000000 0.000000 0.000000 0.000000 0.000000 0.000000 0.000000 0.000000 0.000000 0.000000 0.000000 0.000000 0.000000 0.000000 0.000000 0.000009 0.001514 0.005598 0.012244 0.021432 0.033140 0.047641 0.070764 0.106354 0.154358 0.214665 0.287151 0.371816 0.471563 0.591964 0.734013 0.901314 1.095107 1.315068 1.562199 1.838265 2.145115 2.482562 2.851100 3.252207 3.685563 4.150547 4.646512 5.172774 5.728626 6.313328 6.926114 7.566190 8.232738 8.924914 9.642056 10.383975 11.149794
0.000000 0.000000 0.000000 0.000000 0.000000 0.000000 0.000000 0.000000 0.000000 0.000000 0.000000 0.000000 0.000000 0.000000 0.000000 0.000000 0.000000 0.000000 0.000000 0.000000 0.000000 0.000000 0.000000 0.000000 0.000000 0.000000 0.000000 0.000000 0.000545 0.003494 0.008987 0.017006 0.027527 0.040631 0.060719 0.093044 0.137737 0.194689 0.263776 0.345277 0.442389 0.558876 0.696652 0.858665 1.047065 1.261579 1.503280 1.773711 2.074741 2.406920 2.770858 3.166187 3.593473 4.052352 4.542179 5.062276 5.611936 6.190426 6.796982 7.430815 8.091105 8.777535 9.489735 10.226779 10.987720
0.000000 0.000000 0.000000 0.000000 0.000000 0.000000 0.000000 0.000000 0.000000 0.000000 0.000000 0.000000 0.000000 0.000000 0.000000 0.000000 0.000000 0.000000 0.000000 0.000000 0.000000 0.000000 0.000000 0.000000 0.000000 0.000000 0.000000 0.000000 0.000055 0.001854 0.006180 0.013013 0.022332 0.034793 0.052897 0.081879 0.123182 0.176697 0.242303 0.321068 0.416279 0.529589 0.663045 0.819759 1.002566 1.211427 1.447461 1.712028 2.007344 2.334789 2.693977 3.084390 3.505595 3.958087 4.441490 4.955129 5.498304 6.070282 6.670309 7.297644 7.952246 8.633509 9.340532 10.072398 10.828163
0.000000 0.000000 0.000000 0.000000 0.000000 0.000000 0.000000 0.000000 0.000000 0.000000 0.000000 0.000000 0.000000 0.000000 0.000000 0.000000 0.000000 0.000000 0.000000 0.000000 0.000000 0.000000 0.000000 0.000000 0.000000 0.000000 0.000000 0.000000 0.000000 0.000712 0.003855 0.009488 0.017643 0.029904 0.047203 0.072959 0.110794 0.160794 0.222871 0.299603 0.393002 0.503650 0.633328 0.784768 0.961785 1.164790 1.394923 1.653602 1.943875 2.266335 2.620499 3.005847 3.421834 3.867966 4.344661 4.851558 5.387959 5.953135 6.546520 7.168160 7.817316 8.493120 9.194677 9.921070 10.671356
0.000000 0.000000 0.000000 0.000000 0.000000 0.000000 0.000000 0.000000 0.000000 0.000000 0.000000 0.000000 0.000000 0.000000 0.000000 0.000000 0.000000 0.000000 0.000000 0.000000 0.000000 0.000000 0.000000 0.000000 0.000000 0.000000 0.000000 0.000000 0.000000 0.000100 0.002047 0.006465 0.013855 0.025962 0.042897 0.066379 0.100673 0.147081 0.206111 0.280941 0.372421 0.480588 0.607285 0.753860 0.924893 1.121848 1.345901 1.599462 1.884529 2.201736 2.550599 2.930602 3.341205 3.781831 4.251922 4.751796 5.281135 5.839598 6.427190 7.043117 7.686542 8.356600 9.052400 9.773028 10.517545
0.000000 0.000000 0.000000 0.000000 0.000000 0.000000 0.000000 0.000000 0.000000 0.000000 0.000000 0.000000 0.000000 0.000000 0.000000 0.000000 0.000000 0.000000 0.000000 0.000000 0.000000 0.000000 0.000000 0.000000 0.000000 0.000000 0.000000 0.000000 0.000000 0.000000 0.000788 0.003988 0.011046 0.022972 0.039723 0.061865 0.092920 0.135742 0.192322 0.265142 0.354590 0.460489 0.584126 0.726976 0.892071 1.082781 1.301353 1.549876 1.829477 2.141164 2.484456 2.858843 3.263783 3.698704 4.163005 4.656071 5.178669 5.731172 6.312798 6.922733 7.560151 8.224179 8.913938 9.628511 10.366964
0.000000 0.000000 0.000000 0.000000 0.000000 0.000000 0.000000 0.000000 0.000000 0.000000 0.000000 0.000000 0.000000 0.000000 0.000000 0.000000 0.000000 0.000000 0.000000 0.000000 0.000000 0.000000 0.000000 0.000000 0.000000 0.000000 0.000000 0.000000 0.000000 0.000000 0.000112 0.002374 0.009223 0.020939 0.037480 0.058915 0.087592 0.127349 0.181564 0.252263 0.339570 0.443303 0.563888 0.703214 0.863473 1.048295 1.261697 1.504991 1.778895 2.084801 2.422257 2.790758 3.189760 3.618697 4.076987 4.564784 5.081876 5.628175 6.203567 6.807242 7.438370 8.096095 8.779528 9.487763 10.219870
0.000000 0.000000 0.000000 0.000000 0.000000 0.000000 0.000000 0.000000 0.000000 0.000000 0.000000 0.000000 0.000000 0.000000 0.000000 0.000000 0.000000 0.000000 0.000000 0.000000 0.000000 0.000000 0.000000 0.000000 0.000000 0.000000 0.000000 0.000000 0.000000 0.000000 0.000000 0.001778 0.008392 0.019870 0.036172 0.057253 0.084282 0.122057 0.173897 0.242368 0.327422 0.428881 0.546666 0.682485 0.838631 1.019069 1.227089 1.464937 1.732964 2.032832 2.364192 2.726536 3.119332 3.542058 3.995021 4.477928 4.990092 5.530804 6.099719 6.696864 7.321437 7.972577 8.649410 9.351028 10.076504
0.000000 0.000000 0.000000 0.000000 0.000000 0.000000 0.000000 0.000000 0.000000 0.000000 0.000000 0.000000 0.000000 0.000000 0.000000 0.000000 0.000000 0.000000 0.000000 0.000000 0.000000 0.000000 0.000000 0.000000 0.000000 0.000000 0.000000 0.000000 0.000000 0.000000 0.000110 0.002206 0.008557 0.019769 0.035804 0.056616 0.083213 0.119691 0.169380 0.235518 0.318211 0.417284 0.532542 0.664892 0.817897 0.994574 1.197692 1.429876 1.691865 1.985443 2.310447 2.666378 3.052782 3.470072 3.917918 4.395668 4.902640 5.438121 6.001373 6.591833 7.209581 7.853871 8.523829 9.218554 9.937325
0.000000 0.000000 0.000000 0.000000 0.000000 0.000000 0.000000 0.000000 0.000000 0.000000 0.000000 0.000000 0.000000 0.000000 0.000000 0.000000 0.000000 0.000000 0.000000 0.000000 0.000000 0.000000 0.000000 0.000000 0.000000 0.000000 0.000000 0.000000 0.000000 0.000000 0.000581 0.003575 0.009724 0.020644 0.036383 0.056991 0.084061 0.119688 0.168050 0.231774 0.312002 0.408580 0.521317 0.651051 0.801233 0.974278 1.173157 1.399976 1.655785 1.942824 2.261222 2.610590 2.991424 3.403389 3.845862 4.318195 4.819707 5.349691 5.907410 6.492102 7.103039 7.740213 8.403028 9.091102 9.803994
0.000000 0.000000 0.000000 0.000000 0.000000 0.000000 0.000000 0.000000 0.000000 0.000000 0.000000 0.000000 0.000000 0.000000 0.000000 0.000000 0.000000 0.000000 0.000000 0.000000 0.000000 0.000000 0.000000 0.000000 0.000000 0.000000 0.000000 0.000000 0.000000 0.000002 0.001397 0.005356 0.011899 0.022499 0.037915 0.058769 0.086620 0.122037 0.169328 0.231201 0.308858 0.402835 0.513212 0.641301 0.788720 0.958301 1.152759 1.375011 1.624909 1.905167 2.216838 2.560487 2.935799 3.342188 3.779036 4.245694 4.741487 5.265707 5.817625 6.396481 7.001491 7.631897 8.288169 8.970192 9.677021
0.000000 0.000000 0.000000 0.000000 0.000000 0.000000 0.000000 0.000000 0.000000 0.000000 0.000000 0.000000 0.000000 0.000000 0.000000 0.000000 0.000000 0.000000 0.000000 0.000000 0.000000 0.000000 0.000000 0.000000 0.000000 0.000000 0.000000 0.000000 0.000000 0.000206 0.002531 0.007436 0.014906 0.025341 0.040457 0.061973 0.090571 0.126344 0.172961 0.233571 0.308844 0.400144 0.508882 0.635549 0.780451 0.946622 1.136616 1.354137 1.599110 1.872795 2.178586 2.516533 2.886084 3.286655 3.717627 4.178357 4.668172 5.186371 5.732226 6.304977 6.904033 7.529401 8.180322 8.856119 9.556631
0.000000 0.000000 0.000000 0.000000 0.000000 0.000000 0.000000 0.000000 0.000000 0.000000 0.000000 0.000000 0.000000 0.000000 0.000000 0.000000 0.000000 0.000000 0.000000 0.000000 0.000000 0.000000 0.000000 0.000000 0.000000 0.000000 0.000000 0.000000 0.000000 0.000718 0.003956 0.009787 0.018199 0.029175 0.044371 0.066579 0.095883 0.132428 0.178925 0.238253 0.311961 0.401157 0.508386 0.633529 0.776395 0.939129 1.124860 1.337442 1.577524 1.846689 2.146892 2.478906 2.842459 3.236968 3.661820 4.116376 4.599964 5.111885 5.651413 6.218173 6.812129 7.432464 8.078321 8.748814 9.443059
0.000000 0.000000 0.000000 0.000000 0.000000 0.000000 0.000000 0.000000 0.000000 0.000000 0.000000 0.000000 0.000000 0.000000 0.000000 0.000000 0.000000 0.000000 0.000000 0.000000 0.000000 0.000000 0.000000 0.000000 0.000000 0.000000 0.000000 0.000000 0.000007 0.001515 0.005644 0.012383 0.021716 0.033635 0.049705 0.072564 0.102529 0.139882 0.186765 0.245250 0.317689 0.406146 0.511759 0.635267 0.776426 0.935914 1.117615 1.325147 1.561181 1.826111 2.121663 2.447781 2.805104 3.193316 3.611809 4.059944 4.537056 5.042449 5.575989 6.137517 6.726224 7.341278 7.981819 8.646964 9.335813
0.000000 0.000000 0.000000 0.000000 0.000000 0.000000 0.000000 0.000000 0.000000 0.000000 0.000000 0.000000 0.000000 0.000000 0.000000 0.000000 0.000000 0.000000 0.000000 0.000000 0.000000 0.000000 0.000000 0.000000 0.000000 0.000000 0.000000 0.000000 0.000206 0.002570 0.007571 0.015196 0.025429 0.038557 0.056391 0.079903 0.110486 0.148616 0.196316 0.254505 0.326408 0.414598 0.519034 0.640800 0.780197 0.937075 1.114769 1.318366 1.550450 1.811081 2.101887 2.423056 2.774199 3.155884 3.567782 4.009257 4.479663 4.979078 5.507215 6.063293 6.646510 7.256034 7.891012 8.550558 9.233780
0.000000 0.000000 0.000000 0.000000 0.000000 0.000000 0.000000 0.000000 0.000000 0.000000 0.000000 0.000000 0.000000 0.000000 0.000000 0.000000 0.000000 0.000000 0.000000 0.000000 0.000000 0.000000 0.000000 0.000000 0.000000 0.000000 0.000000 0.000000 0.000658 0.003859 0.009710 0.018199 0.029311 0.044032 0.063785 0.088572 0.119730 0.158598 0.207138 0.265912 0.338159 0.425977 0.529980 0.650165 0.787691 0.942580 1.117220 1.317503 1.545446 1.801733 2.087566 2.403695 2.749610 3.124857 3.529928 3.964556 4.428965 4.922795 5.445292 5.995687 6.573175 7.176929 7.806096 8.459798 9.137678
0.000000 0.000000 0.000000 0.000000 0.000000 0.000000 0.000000 0.000000 0.000000 0.000000 0.000000 0.000000 0.000000 0.000000 0.000000 0.000000 0.000000 0.000000 0.000000 0.000000 0.000000 0.000000 0.000000 0.000000 0.000000 0.000000 0.000000 0.000000 0.001340 0.005356 0.012036 0.021367 0.033443 0.050003 0.071635 0.098300 0.130237 0.169798 0.219135 0.279661 0.352761 0.440281 0.543798 0.663292 0.798942 0.952639 1.125406 1.322514 1.546279 1.798160 2.078845 2.389705 2.730279 3.100030 3.498523 3.927101 4.385756 4.873774 5.390407 5.934884 6.506408 7.104151 7.727324 8.375845 9.049052
0.000000 0.000000 0.000000 0.000000 0.000000 0.000000 0.000000 0.000000 0.000000 0.000000 0.000000 0.000000 0.000000 0.000000 0.000000 0.000000 0.000000 0.000000 0.000000 0.000000 0.000000 0.000000 0.000000 0.000000 0.000000 0.000000 0.000000 0.000110 0.002230 0.007038 0.014524 0.024675 0.038045 0.056416 0.079886 0.108415 0.141960 0.182183 0.232767 0.295244 0.369663 0.457515 0.560436 0.679326 0.814566 0.967622 1.139352 1.333179 1.553067 1.800360 2.075863 2.381233 2.716240 3.080461 3.474340 3.897520 4.350205 4.832191 5.342735 5.881069 6.446396 7.038095 7.656174 8.299836 8.968151
0.000000 0.000000 0.000000 0.000000 0.000000 0.000000 0.000000 0.000000 0.000000 0.000000 0.000000 0.000000 0.000000 0.000000 0.000000 0.000000 0.000000 0.000000 0.000000 0.000000 0.000000 0.000000 0.000000 0.000000 0.000000 0.000000 0.000000 0.000427 0.003303 0.008881 0.017150 0.028098 0.043076 0.063216 0.088481 0.118832 0.154223 0.195805 0.248143 0.312485 0.388711 0.477297 0.579898 0.698452 0.834383 0.987532 1.158477 1.349569 1.565847 1.808441 2.078767 2.378427 2.707771 3.067310 3.456693 3.875300 4.322484 4.798223 5.302458 5.834424 6.393726 6.980325 7.593365 8.231946 8.895144
0.000000 0.000000 0.000000 0.000000 0.000000 0.000000 0.000000 0.000000 0.000000 0.000000 0.000000 0.000000 0.000000 0.000000 0.000000 0.000000 0.000000 0.000000 0.000000 0.000000 0.000000 0.000000 0.000000 0.000000 0.000000 0.000000 0.000000 0.000927 0.004537 0.010862 0.019890 0.031809 0.048485 0.070349 0.097365 0.129493 0.166685 0.210818 0.265203 0.331323 0.409348 0.499180 0.602329 0.721432 0.857967 1.011720 1.182429 1.371677 1.584321 1.822523 2.087698 2.381562 2.706095 3.060991 3.445662 3.859492 4.301836 4.772017 5.269753 5.795757 6.349881 6.931274 7.539063 8.172350 8.830211
0.000000 0.000000 0.000000 0.000000 0.000000 0.000000 0.000000 0.000000 0.000000 0.000000 0.000000 0.000000 0.000000 0.000000 0.000000 0.000000 0.000000 0.000000 0.000000 0.000000 0.000000 0.000000 0.000000 0.000000 0.000000 0.000000 0.000008 0.001591 0.005910 0.012958 0.022721 0.035890 0.054221 0.077765 0.106486 0.140343 0.179396 0.226540 0.283819 0.351692 0.431427 0.523009 0.627941 0.748254 0.885288 1.039536 1.210722 1.399027 1.608518 1.842673 2.102793 2.391830 2.711588 3.061634 3.441381 3.850219 4.287501 4.752571 5.245545 5.766355 6.315121 6.891104 7.493433 8.121213 8.773521
0.000000 0.000000 0.000000 0.000000 0.000000 0.000000 0.000000 0.000000 0.000000 0.000000 0.000000 0.000000 0.000000 0.000000 0.000000 0.000000 0.000000 0.000000 0.000000 0.000000 0.000000 0.000000 0.000000 0.000000 0.000000 0.000000 0.000140 0.002397 0.007402 0.015147 0.025627 0.040294 0.060232 0.085410 0.115790 0.151330 0.192731 0.242851 0.303148 0.373534 0.454886 0.548979 0.656577 0.778642 0.916316 1.070948 1.242514 1.430912 1.638338 1.868645 2.125058 2.409589 2.724372 3.069364 3.443981 3.847612 4.279664 4.740400 5.229467 5.746108 6.289601 6.859971 7.456635 8.078699 8.725245
0.000000 0.000000 0.000000 0.000000 0.000000 0.000000 0.000000 0.000000 0.000000 0.000000 0.000000 0.000000 0.000000 0.000000 0.000000 0.000000 0.000000 0.000000 0.000000 0.000000 0.000000 0.000000 0.000000 0.000000 0.000000 0.000000 0.000419 0.003325 0.008992 0.017409 0.028767 0.044971 0.066472 0.093236 0.125226 0.162494 0.206653 0.259661 0.322884 0.396233 0.480182 0.577222 0.687800 0.811916 0.950994 1.105925 1.277758 1.466267 1.673042 1.901383 2.154785 2.434960 2.744572 3.084308 3.453590 3.851892 4.279584 4.736271 5.221225 5.733696 6.272898 6.838033 7.428829 8.044973 8.685551
0.000000 0.000000 0.000000 0.000000 0.000000 0.000000 0.000000 0.000000 0.000000 0.000000 0.000000 0.000000 0.000000 0.000000 0.000000 0.000000 0.000000 0.000000 0.000000 0.000000 0.000000 0.000000 0.000000 0.000000 0.000000 0.000000 0.000825 0.004356 0.010658 0.019723 0.032183 0.049876 0.072891 0.101193 0.134744 0.174177 0.221078 0.276880 0.342935 0.419356 0.507478 0.607644 0.721103 0.847939 0.988642 1.144436 1.316423 1.505045 1.712335 1.940576 2.191577 2.467966 2.772307 3.106593 3.470454 3.864343 4.287854 4.740292 5.220933 5.729024 6.263789 6.824424 7.410101 8.020210 8.655635
0.000000 0.000000 0.000000 0.000000 0.000000 0.000000 0.000000 0.000000 0.000000 0.000000 0.000000 0.000000 0.000000 0.000000 0.000000 0.000000 0.000000 0.000000 0.000000 0.000000 0.000000 0.000000 0.000000 0.000000 0.000000 0.000000 0.001340 0.005470 0.012383 0.022068 0.035830 0.054965 0.079445 0.109234 0.144347 0.186345 0.235923 0.294475 0.363411 0.443869 0.536395 0.640836 0.757429 0.887319 1.030429 1.187889 1.360396 1.549995 1.758319 1.986977 2.237351 2.510666 2.809876 3.138540 3.497766 3.887172 4.306098 4.753858 5.229741 5.733006 6.262889 6.818606 7.399397 8.005565 8.636698
0.000000 0.000000 0.000000 0.000000 0.000000 0.000000 0.000000 0.000000 0.000000 0.000000 0.000000 0.000000 0.000000 0.000000 0.000000 0.000000 0.000000 0.000000 0.000000 0.000000 0.000000 0.000000 0.000000 0.000000 0.000000 0.000045 0.001948 0.006651 0.014147 0.024534 0.039665 0.060262 0.086382 0.117966 0.155468 0.200592 0.253398 0.315166 0.387999 0.473025 0.570123 0.679135 0.799897 0.932863 1.078973 1.238304 1.412768 1.603934 1.813298 2.042669 2.292663 2.564629 2.859890 3.183863 3.538523 3.923236 4.337347 4.780170 5.250998 5.749089 6.273689 6.824109 7.400769 8.003163 8.630400
0.000000 0.000000 0.000000 0.000000 0.000000 0.000000 0.000000 0.000000 0.000000 0.000000 0.000000 0.000000 0.000000 0.000000 0.000000 0.000000 0.000000 0.000000 0.000000 0.000000 0.000000 0.000000 0.000000 0.000000 0.000000 0.000189 0.002642 0.008099 0.016586 0.028484 0.045738 0.068553 0.096873 0.130645 0.171222 0.219562 0.275576 0.340744 0.418027 0.507526 0.609097 0.722580 0.847808 0.984602 1.133640 1.295967 1.473318 1.666795 1.877217 2.107219 2.357167 2.628521 2.922923 3.242913 3.592826 3.972663 4.381768 4.819460 5.285032 5.777750 6.296997 6.843273 7.416053 8.014471 8.637638
0.000000 0.000000 0.000000 0.000000 0.000000 0.000000 0.000000 0.000000 0.000000 0.000000 0.000000 0.000000 0.000000 0.000000 0.000000 0.000000 0.000000 0.000000 0.000000 0.000000 0.000000 0.000000 0.000000 0.000172 0.000665 0.001865 0.005850 0.012878 0.022908 0.036810 0.056267 0.081266 0.111749 0.147964 0.191707 0.243206 0.302398 0.371708 0.453367 0.547242 0.653186 0.771037 0.900625 1.041770 1.194478 1.360904 1.541724 1.737944 1.950020 2.180513 2.430868 2.702621 2.997313 3.315389 3.660754 4.035531 4.439445 4.871817 5.331940 5.819245 6.334309 6.876614 7.445321 8.039562 8.658451
0.000000 0.000000 0.000000 0.000000 0.000000 0.000000 0.000000 0.000000 0.000000 0.000000 0.000000 0.000000 0.000000 0.000000 0.000000 0.000000 0.000000 0.000000 0.000000 0.000011 0.000321 0.001026 0.002090 0.003477 0.005150 0.007793 0.013370 0.021960 0.033530 0.049578 0.071203 0.098349 0.130957 0.169987 0.216838 0.271436 0.334356 0.407958 0.493893 0.592043 0.702256 0.824369 0.958209 1.103644 1.261699 1.432712 1.617579 1.816722 2.031326 2.262535 2.514299 2.787102 3.082219 3.399787 3.741892 4.111922 4.510462 4.937327 5.391971 5.875033 6.386048 6.924194 7.488633 8.078503 8.692913
0.000000 0.000000 0.000000 0.000000 0.000000 0.000000 0.000000 0.000000 0.000000 0.000000 0.000000 0.000000 0.000000 0.000000 0.000000 0.000000 0.000004 0.000321 0.001120 0.002362 0.004008 0.006017 0.008352 0.010974 0.013848 0.018010 0.025170 0.035314 0.048536 0.066737 0.090493 0.119747 0.154550 0.196627 0.246527 0.304346 0.371560 0.449365 0.539476 0.641798 0.756173 0.882438 1.020417 1.170838 1.334397 1.510861 1.700072 1.902941 2.120101 2.354044 2.607564 2.881841 3.177283 3.495013 3.835114 4.201247 4.594888 5.016200 5.466529 5.945478 6.452260 6.986062 7.546044 8.131345 8.741084
0.000000 0.000000 0.000000 0.000000 0.000000 0.000000 0.000000 0.000000 0.000000 0.000000 0.000000 0.000000 0.000000 0.000000 0.000172 0.000907 0.002179 0.003947 0.006168 0.008801 0.011806 0.015141 0.018768 0.022648 0.026743 0.032485 0.041220 0.052907 0.067914 0.088231 0.114080 0.145402 0.182719 0.227796 0.280682 0.342403 0.413881 0.495803 0.589987 0.696370 0.814799 0.945104 1.087619 1.243429 1.412373 1.594216 1.788708 1.995708 2.216966 2.454401 2.710531 2.986280 3.282432 3.600194 3.939705 4.302510 4.692005 5.109769 5.555956 6.030615 6.532989 7.062260 7.617596 8.198143 8.803013
0.000000 0.000000 0.000000 0.000000 0.000000 0.000000 0.000000 0.000000 0.000000 0.000000 0.000000 0.000013 0.000483 0.001596 0.003308 0.005575 0.008352 0.011595 0.015262 0.019309 0.023695 0.028379 0.033319 0.038476 0.043844 0.051182 0.061483 0.074702 0.091608 0.114003 0.141905 0.175258 0.215389 0.263401 0.319607 0.385517 0.461186 0.547142 0.645290 0.755627 0.877996 1.012429 1.160156 1.321236 1.495445 1.682540 1.882274 2.095003 2.321698 2.563266 2.822264 3.100193 3.397497 3.715225 4.054516 4.415528 4.802209 5.217238 5.660169 6.130475 6.628260 7.152822 7.703331 8.278930 8.878740
0.000000 0.000000 0.000000 0.000000 0.000000 0.000000 0.000000 0.000000 0.000000 0.000082 0.000809 0.002247 0.004351 0.007074 0.010371 0.014195 0.018500 0.023243 0.028379 0.033862 0.039652 0.045705 0.051979 0.058433 0.065139 0.074065 0.085920 0.100660 0.119597 0.144125 0.174175 0.209880 0.253080 0.304188 0.364526 0.434732 0.514678 0.604731 0.706849 0.821113 0.947386 1.086719 1.239583 1.405758 1.585020 1.777126 1.982219 2.201340 2.434292 2.680901 2.942821 3.223235 3.522130 3.840153 4.178994 4.540241 4.925827 5.337967 5.777857 6.244797 6.738094 7.257772 7.803271 8.373742 8.968307
0.000000 0.000000 0.000000 0.000000 0.000000 0.000000 0.000000 0.000148 0.001057 0.002752 0.005184 0.008307 0.012072 0.016431 0.021337 0.026742 0.032601 0.038866 0.045492 0.052435 0.059649 0.067092 0.074773 0.082718 0.091090 0.101953 0.115779 0.132549 0.153986 0.180953 0.213380 0.251912 0.298273 0.353048 0.417694 0.492171 0.576349 0.670441 0.776428 0.894507 1.025220 1.169609 1.327486 1.498630 1.682810 1.879979 2.091259 2.316630 2.555787 2.808418 3.074522 3.357220 3.658182 3.977128 4.316198 4.678111 5.063193 5.472800 5.909109 6.372424 6.862011 7.377124 7.917439 8.482599 9.071735
0.000000 0.000000 0.000000 0.000000 0.000000 0.000166 0.001169 0.003037 0.005720 0.009170 0.013336 0.018169 0.023620 0.029639 0.036178 0.043189 0.050623 0.058443 0.066741 0.075499 0.084647 0.094120 0.103851 0.113778 0.124197 0.137209 0.153115 0.172040 0.195945 0.225318 0.260094 0.301692 0.351234 0.410199 0.479080 0.557752 0.646081 0.744146 0.853886 0.975930 1.111596 1.260917 1.423678 1.599659 1.788678 1.991771 2.209205 2.440685 2.685904 2.944546 3.216286 3.502393 3.805301 4.126774 4.467814 4.830289 5.215200 5.623703 6.056444 6.515610 7.000889 7.511532 8.046767 8.606021 9.189208
0.000000 0.000000 0.000000 0.000126 0.001120 0.003063 0.005905 0.009594 0.014079 0.019309 0.025234 0.031803 0.038964 0.046667 0.054997 0.064016 0.073650 0.083826 0.094469 0.105508 0.116874 0.128496 0.140310 0.152248 0.164758 0.179918 0.197902 0.219059 0.245401 0.277145 0.314425 0.359116 0.412335 0.475499 0.548539 0.631325 0.723724 0.825700 0.939108 1.065813 1.206328 1.360452 1.527968 1.708649 1.903219 2.112371 2.335819 2.573265 2.824397 3.088897 3.366432 3.657391 3.963778 4.288681 4.633009 4.996569 5.381654 5.789153 6.220073 6.675000 7.155777 7.661752 8.192159 8.746206 9.323122
0.000000 0.000051 0.000921 0.002828 0.005720 0.009546 0.014253 0.019789 0.026102 0.033138 0.040856 0.049423 0.058862 0.069095 0.080041 0.091621 0.103758 0.116376 0.129399 0.142754 0.156369 0.170173 0.184098 0.198077 0.212714 0.230019 0.250077 0.273529 0.302273 0.336353 0.376351 0.424182 0.481515 0.548802 0.625921 0.712741 0.809124 0.914958 1.032514 1.163989 1.309226 1.468022 1.640156 1.825938 2.026468 2.241535 2.470850 2.714112 2.971007 3.241211 3.524390 3.820644 4.133235 4.462583 4.810116 5.176479 5.561983 5.968788 6.398325 6.850539 7.326626 7.827743 8.353121 8.901982 9.473517
0.000617 0.002362 0.005184 0.009031 0.013848 0.019583 0.026181 0.033593 0.042003 0.051487 0.061962 0.073343 0.085547 0.098490 0.112092 0.126270 0.140945 0.156040 0.171477 0.187181 0.203076 0.219093 0.235160 0.251208 0.267997 0.287443 0.309570 0.335366 0.366477 0.402855 0.445763 0.497205 0.558626 0.629957 0.711073 0.801840 0.902120 1.011946 1.134151 1.270267 1.420096 1.583427 1.760256 1.951832 2.158180 2.379016 2.614048 2.862974 3.125475 3.401225 3.689953 3.992866 4.311653 4.647099 4.998819 5.368124 5.755667 6.162424 6.590443 7.040944 7.513383 8.009449 8.529608 9.073078 9.639169
0.004351 0.008088 0.012889 0.018701 0.025469 0.033271 0.042354 0.052642 0.064048 0.076484 0.089864 0.104100 0.119106 0.134798 0.151091 0.167904 0.185153 0.202759 0.220643 0.238726 0.256934 0.275193 0.293429 0.311574 0.330533 0.352117 0.376308 0.404479 0.437921 0.476668 0.522635 0.578084 0.643515 0.718807 0.803835 0.898462 1.002548 1.117035 1.243826 1.384452 1.538737 1.706496 1.888796 2.086090 2.298106 2.524561 2.765157 3.019590 3.287537 3.568672 3.863812 4.173753 4.498687 4.840068 5.197602 5.570926 5.961131 6.369165 6.796288 7.244884 7.715201 8.206806 8.721554 9.259522 9.820985
0.012403 0.017682 0.024173 0.032185 0.041778 0.052728 0.064934 0.078304 0.092749 0.108178 0.124502 0.141631 0.159479 0.177956 0.196978 0.216460 0.236316 0.256466 0.276828 0.297323 0.317872 0.338401 0.358835 0.379102 0.400243 0.423960 0.450238 0.480774 0.516508 0.557791 0.607241 0.666664 0.736022 0.815191 0.904043 1.002440 1.110626 1.230029 1.361343 1.506345 1.664948 1.837681 2.025599 2.228462 2.445996 2.677914 2.923917 3.183696 3.456926 3.743927 4.045981 4.362781 4.694037 5.041162 5.404359 5.783179 6.177273 6.587513 7.015312 7.462211 7.930285 8.419248 8.928935 9.462185 10.019122
0.026999 0.034151 0.043013 0.053514 0.065584 0.079154 0.094155 0.110520 0.128044 0.146505 0.165811 0.185872 0.206597 0.227897 0.249681 0.271866 0.294363 0.317089 0.339959 0.362894 0.385813 0.408640 0.431297 0.453711 0.477041 0.502884 0.531285 0.564149 0.602137 0.646149 0.699468 0.762785 0.835984 0.918942 1.011527 1.113633 1.226505 1.350718 1.486502 1.635742 1.798803 1.977029 2.170414 2.378695 2.601592 2.838816 3.090064 3.355023 3.633628 3.927341 4.236135 4.559618 4.897388 5.250072 5.618732 6.002927 6.402195 6.816187 7.245624 7.692389 8.158407 8.644795 9.152202 9.681239 10.233468
0.050110 0.059903 0.071346 0.084365 0.098890 0.114849 0.132172 0.150790 0.170634 0.191637 0.213732 0.236752 0.260389 0.284544 0.309126 0.334045 0.359213 0.384544 0.409953 0.435357 0.460673 0.485824 0.510729 0.535315 0.560835 0.588796 0.619345 0.654499 0.694707 0.741975 0.799153 0.866279 0.943233 1.029889 1.126116 1.232350 1.349971 1.478887 1.619098 1.772467 1.940697 2.124291 2.322993 2.536534 2.764635 3.007001 3.263329 3.533337 3.818259 4.118590 4.433948 4.763938 5.108151 5.466486 5.840405 6.229771 6.634118 7.052960 7.485943 7.933869 8.398914 8.883802 9.389673 9.916296 10.463907
0.082577 0.095042 0.109094 0.124661 0.141667 0.160041 0.179710 0.200603 0.222650 0.245782 0.269930 0.295029 0.321014 0.347819 0.375227 0.402912 0.430781 0.458747 0.486723 0.514622 0.542361 0.569861 0.597039 0.623820 0.651527 0.681596 0.714308 0.751710 0.794230 0.845179 0.906131 0.976978 1.057597 1.147859 1.247709 1.358550 1.480812 1.614318 1.758925 1.916909 2.090406 2.279215 2.483075 2.701718 2.934859 3.182204 3.443444 3.719162 4.010578 4.317349 4.639090 4.975401 5.325872 5.690091 6.069061 6.463387 6.872599 7.296211 7.733729 8.184762 8.650976 9.135851 9.640671 10.165431 10.710052
0.124318 0.139483 0.156174 0.174314 0.193827 0.214640 0.236677 0.259866 0.284135 0.309415 0.335634 0.362725 0.390622 0.419260 0.448574 0.478504 0.508974 0.539603 0.570171 0.600592 0.630780 0.660652 0.690127 0.719126 0.749012 0.781181 0.816058 0.855669 0.900896 0.955588 1.020230 1.094707 1.178898 1.272672 1.376596 1.492015 1.618807 1.756787 1.905961 2.069068 2.247679 2.441544 2.650405 2.873986 3.112000 3.364154 3.630472 3.912530 4.210261 4.523291 4.851228 5.193674 5.550211 5.920417 6.304380 6.703453 7.117314 7.545477 7.987444 8.443074 8.913143 9.399366 9.904078 10.427663 10.970099