64 64
0.986033 0.905161 0.830070 0.760949 0.696711 0.635768 0.577349 0.521134 0.467242 0.415795 0.366909 0.320700 0.277281 0.236764 0.199257 0.164866 0.133694 0.105842 0.081408 0.060485 0.043164 0.029534 0.019354 0.011363 0.005460 0.001682 0.000063 0.000000 0.000000 0.000000 0.000000 0.000000 0.000000 0.000000 0.000000 0.000000 0.000000 0.000000 0.000000 0.000000 0.000000 0.000000 0.000000 0.000000 0.000000 0.000000 0.000000 0.000000 0.000000 0.000000 0.000000 0.000000 0.000000 0.000000 0.000000 0.000000 0.000000 0.000000 0.000000 0.000000 0.000000 0.000000 0.000000 0.000000 0.000000
1.089122 1.001588 0.919832 0.844051 0.774048 0.707723 0.644863 0.584898 0.527247 0.472035 0.419380 0.369400 0.322213 0.277930 0.236663 0.198520 0.163608 0.132028 0.103881 0.079263 0.058268 0.040986 0.027503 0.017593 0.009947 0.004443 0.001116 0.000000 0.000000 0.000000 0.000000 0.000000 0.000000 0.000000 0.000000 0.000000 0.000000 0.000000 0.000000 0.000000 0.000000 0.000000 0.000000 0.000000 0.000000 0.000000 0.000000 0.000000 0.000000 0.000000 0.000000 0.000000 0.000000 0.000000 0.000000 0.000000 0.000000 0.000000 0.000000 0.000000 0.000000 0.000000 0.000000 0.000000 0.000000
1.198051 1.103856 1.015437 0.932992 0.856700 0.784944 0.716646 0.651974 0.590542 0.531556 0.475124 0.421366 0.370400 0.322342 0.277305 0.235401 0.196737 0.161418 0.129547 0.101222 0.076540 0.055592 0.038468 0.025252 0.015701 0.008469 0.003432 0.000624 0.000000 0.000000 0.000000 0.000000 0.000000 0.000000 0.000000 0.000000 0.000000 0.000000 0.000000 0.000000 0.000000 0.000000 0.000000 0.000000 0.000000 0.000000 0.000000 0.000000 0.000000 0.000000 0.000000 0.000000 0.000000 0.000000 0.000000 0.000000 0.000000 0.000000 0.000000 0.000000 0.000000 0.000000 0.000000 0.000000 0.000000
1.312606 1.211754 1.116674 1.027570 0.944636 0.867296 0.793540 0.723405 0.657058 0.594242 0.534027 0.476484 0.421732 0.369892 0.321078 0.275404 0.232980 0.193913 0.158308 0.126266 0.097886 0.073262 0.052485 0.035642 0.022818 0.013718 0.006969 0.002468 0.000247 0.000000 0.000000 0.000000 0.000000 0.000000 0.000000 0.000000 0.000000 0.000000 0.000000 0.000000 0.000000 0.000000 0.000000 0.000000 0.000000 0.000000 0.000000 0.000000 0.000000 0.000000 0.000000 0.000000 0.000000 0.000000 0.000000 0.000000 0.000000 0.000000 0.000000 0.000000 0.000000 0.000000 0.000000 0.000000 0.000000
1.432564 1.325066 1.223333 1.127575 1.037991 0.954612 0.875382 0.799767 0.727938 0.660064 0.595969 0.534637 0.476096 0.420469 0.367872 0.318423 0.272232 0.229411 0.190065 0.154299 0.122213 0.093904 0.069465 0.048986 0.032552 0.020246 0.011685 0.005491 0.001596 0.000032 0.000000 0.000000 0.000000 0.000000 0.000000 0.000000 0.000000 0.000000 0.000000 0.000000 0.000000 0.000000 0.000000 0.000000 0.000000 0.000000 0.000000 0.000000 0.000000 0.000000 0.000000 0.000000 0.000000 0.000000 0.000000 0.000000 0.000000 0.000000 0.000000 0.000000 0.000000 0.000000 0.000000 0.000000 0.000000
1.557702 1.443570 1.335197 1.232796 1.136571 1.046723 0.962004 0.880895 0.803570 0.730201 0.660957 0.595705 0.533374 0.473957 0.417576 0.364347 0.314387 0.267807 0.224716 0.185220 0.149423 0.117423 0.089316 0.065193 0.045143 0.029249 0.017592 0.009650 0.004082 0.000864 0.000000 0.000000 0.000000 0.000000 0.000000 0.000000 0.000000 0.000000 0.000000 0.000000 0.000000 0.000000 0.000000 0.000000 0.000000 0.000000 0.000000 0.000000 0.000000 0.000000 0.000000 0.000000 0.000000 0.000000 0.000000 0.000000 0.000000 0.000000 0.000000 0.000000 0.000000 0.000000 0.000000 0.000000 0.000000
1.687790 1.567041 1.452044 1.343017 1.240166 1.143696 1.053232 0.966621 0.883790 0.804914 0.730167 0.659718 0.593447 0.530241 0.470074 0.413066 0.359334 0.308993 0.262155 0.218928 0.179416 0.143721 0.111941 0.084170 0.060498 0.041011 0.025792 0.014918 0.007663 0.002794 0.000325 0.000000 0.000000 0.000000 0.000000 0.000000 0.000000 0.000000 0.000000 0.000000 0.000000 0.000000 0.000000 0.000000 0.000000 0.000000 0.000000 0.000000 0.000000 0.000000 0.000000 0.000000 0.000000 0.000000 0.000000 0.000000 0.000000 0.000000 0.000000 0.000000 0.000000 0.000000 0.000000 0.000000 0.000000
1.823179 1.696080 1.574738 1.459358 1.350144 1.247293 1.150895 1.058930 0.970700 0.886381 0.806147 0.730168 0.658617 0.591359 0.527252 0.466273 0.408549 0.354205 0.303364 0.256147 0.212674 0.173061 0.137425 0.105877 0.078527 0.055443 0.036658 0.022250 0.012296 0.005779 0.001682 0.000034 0.000000 0.000000 0.000000 0.000000 0.000000 0.000000 0.000000 0.000000 0.000000 0.000000 0.000000 0.000000 0.000000 0.000000 0.000000 0.000000 0.000000 0.000000 0.000000 0.000000 0.000000 0.000000 0.000000 0.000000 0.000000 0.000000 0.000000 0.000000 0.000000 0.000000 0.000000 0.000000 0.000000
1.967148 1.833936 1.706426 1.584825 1.469341 1.360176 1.257529 1.160213 1.066587 0.976822 0.891095 0.809582 0.732456 0.659887 0.591702 0.526730 0.464972 0.406556 0.351608 0.300250 0.252607 0.208796 0.168936 0.133142 0.101526 0.074200 0.051269 0.032838 0.019009 0.009849 0.004055 0.000804 0.000000 0.000000 0.000000 0.000000 0.000000 0.000000 0.000000 0.000000 0.000000 0.000000 0.000000 0.000000 0.000000 0.000000 0.000000 0.000000 0.000000 0.000000 0.000000 0.000000 0.000000 0.000000 0.000000 0.000000 0.000000 0.000000 0.000000 0.000000 0.000000 0.000000 0.000000 0.000000 0.000000
2.120041 1.980756 1.847113 1.719326 1.597606 1.482156 1.373182 1.270286 1.171323 1.076246 0.985222 0.898406 0.815963 0.738052 0.664830 0.596033 0.530479 0.468195 0.409304 0.353927 0.302184 0.254194 0.210078 0.169954 0.133940 0.102152 0.074707 0.051716 0.033295 0.019552 0.010466 0.004515 0.001287 0.000419 0.000070 0.000001 0.000000 0.000000 0.000000 0.000000 0.000000 0.000000 0.000000 0.000000 0.000000 0.000000 0.000000 0.000000 0.000000 0.000000 0.000000 0.000000 0.000000 0.000000 0.000000 0.000000 0.000000 0.000000 0.000000 0.000000 0.000000 0.000000 0.000000 0.000000 0.000000
2.281604 2.136287 1.996629 1.862946 1.735422 1.614243 1.499589 1.391495 1.287823 1.187940 1.092008 1.000192 0.912656 0.829563 0.751073 0.677348 0.607997 0.541877 0.479059 0.419667 0.363824 0.311653 0.263276 0.218814 0.178387 0.142116 0.110118 0.082509 0.059406 0.040922 0.027169 0.017924 0.011571 0.007947 0.005868 0.004051 0.002550 0.001421 0.000724 0.000327 0.000077 0.000000 0.000000 0.000000 0.000000 0.000000 0.000000 0.000000 0.000000 0.000000 0.000000 0.000000 0.000000 0.000000 0.000000 0.000000 0.000000 0.000000 0.000000 0.000000 0.000000 0.000000 0.000000 0.000000 0.000000
2.453003 2.302592 2.157861 2.019001 1.886202 1.759651 1.639531 1.526024 1.417667 1.312994 1.212173 1.115371 1.022754 0.934488 0.850738 0.771668 0.697439 0.627476 0.560737 0.497336 0.437396 0.381044 0.328403 0.279598 0.234752 0.193987 0.157424 0.125184 0.097383 0.074140 0.055568 0.041781 0.032217 0.025376 0.021061 0.017394 0.013958 0.010808 0.008007 0.005616 0.003701 0.002329 0.001426 0.000724 0.000243 0.000014 0.000000 0.000000 0.000000 0.000000 0.000000 0.000000 0.000000 0.000000 0.000000 0.000000 0.000000 0.000000 0.000000 0.000000 0.000000 0.000000 0.000000 0.000000 0.000000
2.637222 2.481912 2.332175 2.188203 2.050190 1.918326 1.792796 1.673785 1.560633 1.451194 1.345504 1.243733 1.146051 1.052627 0.963628 0.879220 0.799569 0.724840 0.654191 0.586787 0.522755 0.462224 0.405320 0.352171 0.302901 0.257637 0.216501 0.179617 0.147106 0.119087 0.095679 0.076997 0.063155 0.053077 0.045662 0.040075 0.034667 0.029460 0.024517 0.019901 0.015680 0.011922 0.008699 0.006082 0.004147 0.002750 0.001603 0.000738 0.000191 0.000000 0.000000 0.000000 0.000000 0.000000 0.000000 0.000000 0.000000 0.000000 0.000000 0.000000 0.000000 0.000000 0.000000 0.000000 0.000000
2.834103 2.673966 2.519292 2.370276 2.227115 2.090000 1.959120 1.834661 1.716490 1.602311 1.491776 1.385058 1.282330 1.183763 1.089529 0.999795 0.914734 0.834508 0.759259 0.687862 0.619747 0.555042 0.493879 0.436385 0.382691 0.332923 0.287208 0.245673 0.208440 0.175633 0.147374 0.123779 0.104968 0.090974 0.080230 0.072057 0.064645 0.057346 0.050224 0.043345 0.036777 0.030592 0.024863 0.019663 0.015071 0.011164 0.008023 0.005710 0.003855 0.002317 0.001137 0.000355 0.000012 0.000000 0.000000 0.000000 0.000000 0.000000 0.000000 0.000000 0.000000 0.000000 0.000000 0.000000 0.000000
3.043344 2.878457 2.718921 2.564932 2.416691 2.274391 2.138225 2.008381 1.884998 1.766107 1.650753 1.539112 1.431360 1.327672 1.228220 1.133178 1.042716 0.957006 0.876217 0.800394 0.728205 0.659335 0.593917 0.532084 0.473966 0.419694 0.369398 0.323206 0.281245 0.243640 0.210516 0.181995 0.158198 0.139243 0.124888 0.113395 0.103850 0.094424 0.085087 0.075906 0.066953 0.058300 0.050022 0.042197 0.034902 0.028219 0.022230 0.017019 0.012671 0.009273 0.006671 0.004443 0.002619 0.001242 0.000355 0.000004 0.000000 0.000000 0.000000 0.000000 0.000000 0.000000 0.000000 0.000000 0.000000
3.264640 3.095082 2.930760 2.771874 2.618625 2.471210 2.329824 2.194661 2.065908 1.942328 1.822185 1.705650 1.592900 1.484112 1.379465 1.279131 1.183289 1.092109 1.005765 0.924425 0.847953 0.774929 0.705265 0.639098 0.576562 0.517788 0.462910 0.412059 0.365364 0.322955 0.284959 0.251500 0.222703 0.198689 0.179578 0.164611 0.152229 0.140643 0.129056 0.117538 0.106161 0.095000 0.084133 0.073638 0.063596 0.054091 0.045207 0.037031 0.029650 0.023153 0.017631 0.013175 0.009758 0.006839 0.004376 0.002416 0.001005 0.000191 0.000000 0.000000 0.000000 0.000000 0.000000 0.000000 0.000000
3.497670 3.323524 3.154496 2.990790 2.832611 2.680153 2.533621 2.393205 2.259099 2.130712 2.005815 1.884415 1.766697 1.652836 1.543017 1.437417 1.336212 1.239581 1.147697 1.060735 0.978866 0.901638 0.827742 0.757250 0.690302 0.627032 0.567574 0.512065 0.460636 0.413419 0.370544 0.332139 0.298333 0.269248 0.245008 0.225703 0.209851 0.195943 0.182072 0.168181 0.154343 0.140636 0.127139 0.113934 0.101103 0.088732 0.076907 0.065718 0.055255 0.045609 0.036873 0.029142 0.022511 0.017075 0.012855 0.009260 0.006181 0.003668 0.001769 0.000535 0.000014 0.000000 0.000000 0.000000 0.000000
3.742105 3.563457 3.389808 3.221364 3.058331 2.900910 2.749303 2.603707 2.464319 2.330985 2.201368 2.075140 1.952484 1.833583 1.718619 1.607778 1.501236 1.399174 1.301772 1.209204 1.121646 1.039271 0.961154 0.886351 0.815000 0.747241 0.683210 0.623047 0.566885 0.514859 0.467103 0.423749 0.384925 0.350760 0.321379 0.296906 0.277162 0.260257 0.244069 0.227770 0.211435 0.195145 0.178980 0.163023 0.147361 0.132081 0.117271 0.103024 0.089431 0.076587 0.064588 0.053531 0.043512 0.034632 0.026990 0.020684 0.015738 0.011498 0.007843 0.004824 0.002491 0.000896 0.000091 0.000000 0.000000
3.997606 3.814546 3.636362 3.463264 3.295462 3.133157 2.976555 2.825856 2.681256 2.542862 2.408565 2.277544 2.149987 2.026078 1.906004 1.789950 1.678098 1.570632 1.467732 1.369581 1.276354 1.188228 1.105302 1.026201 0.950462 0.878224 0.809629 0.744818 0.683927 0.627096 0.574459 0.526152 0.482307 0.443056 0.408527 0.378848 0.354143 0.333619 0.314968 0.296228 0.277362 0.258452 0.239581 0.220835 0.202302 0.184070 0.166232 0.148882 0.132114 0.116026 0.100715 0.086281 0.072825 0.060448 0.049252 0.039341 0.030818 0.023787 0.018217 0.013384 0.009210 0.005748 0.003051 0.001172 0.000164
4.263825 4.076444 3.893817 3.716155 3.543668 3.376563 3.215048 3.059323 2.909590 2.766047 2.627112 2.491340 2.358921 2.230040 2.104889 1.983655 1.866525 1.753683 1.645316 1.541604 1.442730 1.348875 1.260213 1.176591 1.096479 1.019777 0.946630 0.877180 0.811569 0.749937 0.692423 0.639165 0.590299 0.545960 0.506278 0.471384 0.441407 0.416416 0.394685 0.373471 0.352040 0.330476 0.308864 0.287290 0.265846 0.244622 0.223715 0.203219 0.183232 0.163854 0.145185 0.127326 0.110383 0.094458 0.079657 0.066086 0.053852 0.043061 0.033822 0.026240 0.020144 0.014785 0.010167 0.006342 0.003367
4.540403 4.348798 4.161819 3.979683 3.802602 3.630787 3.464442 3.303777 3.148991 3.000287 2.856706 2.716227 2.578986 2.445177 2.314987 2.188611 2.066235 1.948051 1.834245 1.725002 1.620508 1.520946 1.426496 1.337336 1.252837 1.171688 1.094068 1.020144 0.950043 0.883888 0.821800 0.763907 0.710331 0.661198 0.616630 0.576752 0.541687 0.511555 0.486021 0.462269 0.438211 0.413874 0.389344 0.364717 0.340092 0.315570 0.291258 0.267266 0.243707 0.220697 0.198356 0.176807 0.156176 0.136591 0.118134 0.100853 0.084855 0.070250 0.057150 0.045664 0.035903 0.027977 0.021408 0.015609 0.010636
4.826976 4.631245 4.440011 4.253498 4.071915 3.895477 3.724392 3.558871 3.399117 3.245337 3.097035 2.951896 2.809880 2.671183 2.535998 2.404518 2.276936 2.153445 2.034233 1.919493 1.809497 1.704543 1.604781 1.510366 1.421422 1.336625 1.255257 1.177445 1.103312 1.032985 0.966590 0.904254 0.846104 0.792267 0.742869 0.698037 0.657897 0.622575 0.592195 0.565377 0.538663 0.511515 0.484028 0.456297 0.428423 0.400511 0.372670 0.345012 0.317654 0.290715 0.264318 0.238590 0.213657 0.189655 0.166714 0.144975 0.124574 0.105653 0.088355 0.072822 0.059061 0.047095 0.037040 0.028939 0.021940
5.123170 4.923412 4.728026 4.537230 4.351243 4.170277 3.994545 3.824257 3.659624 3.500848 3.347776 3.198027 3.051285 2.907748 2.767610 2.631087 2.498600 2.370390 2.246612 2.127420 2.012975 1.903430 1.798941 1.699662 1.605748 1.517072 1.431994 1.350323 1.272187 1.197716 1.127036 1.060278 0.997570 0.939044 0.884827 0.835050 0.789841 0.749330 0.713642 0.682689 0.653276 0.623287 0.592806 0.561933 0.530771 0.499427 0.468012 0.436643 0.405437 0.374518 0.344012 0.314047 0.284757 0.256276 0.228742 0.202296 0.177080 0.153240 0.130921 0.110272 0.091444 0.074587 0.059853 0.047397 0.037288
5.428602 5.224923 5.025484 4.830510 4.640214 4.454817 4.274532 4.099572 3.930149 3.766470 3.608598 3.454291 3.303092 3.155386 3.011330 2.871083 2.734801 2.602643 2.474768 2.351331 2.232496 2.118416 2.009252 1.905158 1.806294 1.712812 1.624026 1.538534 1.456427 1.377839 1.302901 1.231744 1.164500 1.101300 1.042279 0.987567 0.937298 0.891602 0.850610 0.814454 0.781919 0.749058 0.715551 0.681500 0.647011 0.612194 0.577163 0.542037 0.506937 0.471989 0.437321 0.403068 0.369363 0.336347 0.304160 0.272945 0.242851 0.214024 0.186616 0.160780 0.136669 0.114437 0.094243 0.076244 0.060596
5.742883 5.535389 5.332005 5.132953 4.938454 4.748726 4.563986 4.384450 4.210348 4.042246 3.880452 3.722987 3.568698 3.417743 3.270280 3.126466 2.986461 2.850425 2.718520 2.590905 2.467738 2.349184 2.235400 2.126545 2.022778 1.924258 1.831093 1.741814 1.655773 1.573102 1.493934 1.418403 1.346646 1.278794 1.214985 1.155354 1.100036 1.049163 1.002873 0.961297 0.924449 0.888684 0.852118 0.814855 0.777003 0.738675 0.699988 0.661061 0.622022 0.582997 0.544120 0.505526 0.467354 0.429746 0.392846 0.356804 0.321769 0.287892 0.255330 0.224238 0.194773 0.167096 0.141368 0.117749 0.096403
6.065616 5.854417 5.647195 5.444175 5.245576 5.051625 4.862932 4.679930 4.502780 4.331649 4.166696 4.006392 3.849099 3.694979 3.544187 3.396884 3.253232 3.113393 2.977526 2.845798 2.718366 2.595398 2.477053 2.363493 2.254879 2.151372 2.053132 1.959893 1.869954 1.783233 1.699866 1.619993 1.543747 1.471268 1.402693 1.338160 1.277806 1.221770 1.170190 1.123201 1.080940 1.042008 1.002352 0.961845 0.920594 0.878719 0.836335 0.793568 0.750546 0.707399 0.664266 0.621281 0.578589 0.536336 0.494671 0.453743 0.413707 0.374719 0.336939 0.300525 0.265640 0.232448 0.201115 0.171804 0.144684
6.396400 6.181609 5.970662 5.763998 5.562332 5.365860 5.174748 4.989165 4.809274 4.635240 4.467224 4.304132 4.143925 3.986721 3.832683 3.681974 3.534751 3.391183 3.251430 3.115659 2.984032 2.856715 2.733871 2.615664 2.502260 2.393820 2.290507 2.192481 2.098682 2.007951 1.920422 1.836236 1.755533 1.678451 1.605133 1.535719 1.470349 1.409165 1.352306 1.299914 1.252127 1.208857 1.166083 1.122301 1.077620 1.032160 0.986042 0.939396 0.892350 0.845039 0.797602 0.750180 0.702921 0.655972 0.609486 0.563618 0.518525 0.474367 0.431307 0.389510 0.349140 0.310367 0.273359 0.238286 0.205321
6.734842 6.517167 6.304010 6.095539 5.891925 5.693338 5.499947 5.311918 5.129417 4.952612 4.781662 4.615818 4.452784 4.292589 4.135391 3.981355 3.830645 3.683426 3.539862 3.400120 3.264370 3.132771 3.005495 2.882705 2.764571 2.651254 2.542923 2.439739 2.341663 2.246959 2.155305 2.066843 1.981714 1.900062 1.822027 1.747756 1.677391 1.611076 1.548956 1.491173 1.437870 1.389188 1.343130 1.296040 1.247897 1.198821 1.148936 1.098372 1.047261 0.995745 0.943962 0.892059 0.840185 0.788491 0.737134 0.686273 0.636068 0.586684 0.538287 0.491045 0.445129 0.400711 0.357964 0.317061 0.278181
7.083311 6.864337 6.649713 6.439607 6.234189 6.033630 5.838100 5.647765 5.462791 5.283346 5.109594 4.941051 4.775282 4.612184 4.451914 4.294638 4.140524 3.989736 3.842440 3.698807 3.559002 3.423195 3.291555 3.164250 3.041449 2.923317 2.810025 2.701739 2.598623 2.499952 2.404214 2.311512 2.221992 2.135799 2.053079 1.973979 1.898643 1.827221 1.759858 1.696701 1.637895 1.583586 1.533294 1.482871 1.431235 1.378510 1.324823 1.270307 1.215098 1.159335 1.103166 1.046737 0.990203 0.933718 0.877443 0.821538 0.766171 0.711506 0.657718 0.604974 0.553452 0.503328 0.454779 0.407983 0.363121
7.443409 7.223292 7.007354 6.795760 6.588685 6.386299 6.188772 5.996270 5.808962 5.627013 5.450591 5.279414 5.111008 4.945098 4.781847 4.621420 4.463986 4.309712 4.158770 4.011320 3.867541 3.727601 3.591668 3.459916 3.332516 3.209635 3.091445 2.978114 2.869812 2.766606 2.666825 2.569927 2.476053 2.385358 2.297985 2.214085 2.133807 2.057302 1.984719 1.916208 1.851917 1.791996 1.736487 1.682584 1.627429 1.571025 1.513504 1.455003 1.395657 1.335613 1.275018 1.214025 1.152789 1.091470 1.030229 0.969235 0.908654 0.848659 0.789424 0.731125 0.673942 0.618053 0.563643 0.510892 0.459987
7.814686 7.593578 7.376475 7.163546 6.954963 6.750898 6.551517 6.356993 6.167489 5.983175 5.804217 5.630487 5.459539 5.290913 5.124772 4.961286 4.800622 4.642951 4.488440 4.337260 4.189586 4.045589 3.905441 3.769315 3.637384 3.509822 3.386799 3.268488 3.155060 3.046684 2.942813 2.841758 2.743575 2.648413 2.556424 2.467759 2.382571 2.301012 2.223235 2.149392 2.079638 2.014121 1.952996 1.894959 1.836257 1.776148 1.714764 1.652245 1.588731 1.524371 1.459315 1.393719 1.327740 1.261544 1.195297 1.129166 1.063326 0.997953 0.933222 0.869317 0.806418 0.744712 0.684382 0.625619 0.568609
8.196672 7.974730 7.756617 7.542505 7.332565 7.126966 6.925881 6.729475 6.537919 6.351378 6.170023 5.993833 5.820441 5.649197 5.480261 5.313808 5.150006 4.989024 4.831034 4.676209 4.524723 4.376750 4.232464 4.092041 3.955655 3.823482 3.695694 3.572469 3.453977 3.340394 3.231831 3.126669 3.024217 2.924633 2.828067 2.734673 2.644608 2.558026 2.475086 2.395939 2.320745 2.249656 2.182830 2.119831 2.057493 1.993651 1.928375 1.861811 1.794097 1.725387 1.655836 1.585600 1.514843 1.443733 1.372436 1.301129 1.229985 1.159187 1.088915 1.019354 0.950689 0.883113 0.816812 0.751980 0.688811
8.588895 8.366274 8.147308 7.932166 7.721020 7.514040 7.311395 7.113255 6.919789 6.731167 6.547552 6.369005 6.193270 6.019505 5.847874 5.678551 5.511703 5.347501 5.186124 5.027740 4.872528 4.720662 4.572320 4.427677 4.286914 4.150204 4.017726 3.889657 3.766172 3.647445 3.533653 3.424305 3.317636 3.213671 3.112569 3.014488 2.919585 2.828016 2.739943 2.655524 2.574917 2.498280 2.425775 2.357413 2.290887 2.223291 2.154101 2.083461 2.011520 1.938430 1.864351 1.789444 1.713873 1.637810 1.561428 1.484903 1.408416 1.332151 1.256293 1.181029 1.106553 1.033056 0.960734 0.889783 0.820400
8.990873 8.767733 8.548067 8.332049 8.119850 7.911639 7.707588 7.507861 7.312632 7.122068 6.936337 6.755548 6.577571 6.401387 6.227160 6.055061 5.885264 5.717941 5.553266 5.391414 5.232564 5.076893 4.924579 4.775802 4.630739 4.489572 4.352477 4.219637 4.091227 3.967427 3.848413 3.734308 3.623466 3.515171 3.409580 3.306852 3.207152 3.110635 3.017466 2.927807 2.841820 2.759667 2.681508 2.607504 2.536203 2.464816 2.391686 2.316948 2.240751 2.163256 2.084619 2.005009 1.924592 1.843545 1.762039 1.680262 1.598392 1.516619 1.435134 1.354127 1.273794 1.194333 1.115942 1.038822 0.963175
9.402117 9.178612 8.958407 8.741673 8.528573 8.319284 8.113974 7.912810 7.715965 7.523607 7.335900 7.152991 6.972879 6.794378 6.617657 6.442887 6.270238 6.099887 5.932011 5.766784 5.604387 5.445001 5.288801 5.135973 4.986696 4.841149 4.699521 4.561985 4.428725 4.299924 4.175761 4.056412 3.941341 3.828764 3.718733 3.611405 3.506950 3.405526 3.307303 3.212442 3.121109 3.033469 2.949689 2.869930 2.793530 2.717963 2.640870 2.562011 2.481536 2.399606 2.316386 2.232044 2.146751 2.060687 1.974028 1.886961 1.799675 1.712359 1.625207 1.538417 1.452187 1.366719 1.282215 1.198881 1.116924
9.822126 9.598423 9.377835 9.160535 8.946695 8.736479 8.530066 8.327616 8.129304 7.935296 7.745765 7.560860 7.378721 7.198009 7.018897 6.841553 6.666156 6.492877 6.321898 6.153393 5.987542 5.824530 5.664538 5.507746 5.354342 5.204504 5.058417 4.916268 4.778239 4.644512 4.515268 4.390694 4.270879 4.154074 4.039652 3.927776 3.818614 3.712329 3.609092 3.509069 3.412428 3.319340 3.229970 3.144487 3.062744 2.982452 2.901379 2.818377 2.733602 2.647217 2.559387 2.470288 2.380092 2.288980 2.197139 2.104754 2.012017 1.919123 1.826271 1.733660 1.641495 1.549980 1.459323 1.369734 1.281424
10.250402 10.026656 9.805845 9.588140 9.373712 9.162731 8.955361 8.751780 8.552150 8.356645 8.165431 7.978673 7.794612 7.611796 7.430398 7.250588 7.072543 6.896439 6.722454 6.550766 6.381563 6.215021 6.051328 5.890665 5.733220 5.579177 5.428723 5.282043 5.139323 5.000748 4.866507 4.736780 4.611749 4.490713 4.371953 4.255579 4.141759 4.030661 3.922457 3.817316 3.715412 3.616914 3.521992 3.430822 3.343520 3.258140 3.172928 3.085764 2.996667 2.905806 2.813347 2.719466 2.624342 2.528160 2.431106 2.333374 2.235157 2.136655 2.038070 1.939605 1.841470 1.743873 1.647025 1.551142 1.456439
10.686437 10.462807 10.241934 10.023982 9.809125 9.597528 9.389364 9.184800 8.984007 8.787150 8.594404 8.405933 8.220063 8.035253 7.851674 7.669505 7.488917 7.310089 7.133201 6.958436 6.785975 6.616001 6.448699 6.284262 6.122869 5.964714 5.809977 5.658855 5.511529 5.368193 5.229031 5.094229 4.963974 4.838281 4.715242 4.594425 4.476002 4.360142 4.247020 4.136809 4.029685 3.925819 3.825388 3.728567 3.635530 3.545043 3.455219 3.363878 3.270445 3.175085 3.077977 2.979293 2.879219 2.777943 2.675653 2.572548 2.468824 2.364687 2.260340 2.155992 2.051855 1.948142 1.845072 1.742859 1.641726
11.129708 10.906360 10.685583 10.467546 10.252417 10.040364 9.831557 9.626167 9.424362 9.226308 9.032180 8.842142 8.654569 8.467876 8.282229 8.097807 7.914784 7.733339 7.553655 7.375911 7.200295 7.026990 6.856184 6.688064 6.522821 6.360642 6.201719 6.046240 5.894399 5.746385 5.602385 5.462594 5.327195 5.196380 5.069115 4.943912 4.820941 4.700374 4.582386 4.467157 4.354859 4.245674 4.139779 4.037349 3.938566 3.842835 3.747950 3.652415 3.554627 3.454756 3.352979 3.249476 3.144434 3.038041 2.930496 2.821995 2.712741 2.602942 2.492807 2.382548 2.272382 2.162525 2.053200 1.944626 1.837031
11.579703 11.356795 11.136277 10.918311 10.703070 10.490720 10.281429 10.075366 9.872702 9.673605 9.478245 9.286788 9.097631 8.909164 8.721560 8.534996 8.349647 8.165693 7.983317 7.802702 7.624032 7.447500 7.273286 7.101587 6.932590 6.766487 6.603470 6.443731 6.287465 6.134861 5.986115 5.841416 5.700958 5.564929 5.433154 5.303629 5.176172 5.050953 4.928156 4.807959 4.690545 4.576089 4.464777 4.356785 4.252300 4.151161 4.051056 3.951059 3.848906 3.744509 3.638050 3.529710 3.419681 3.308157 3.195335 3.081419 2.966614 2.851134 2.735186 2.618994 2.502772 2.386746 2.271138 2.156177 2.042091
12.035894 11.813591 11.593489 11.375761 11.160564 10.948075 10.738457 10.531879 10.328511 10.128523 9.932083 9.739361 9.548732 9.358608 9.169158 8.980562 8.792998 8.606645 8.421687 8.238307 8.056691 7.877035 7.699519 7.524343 7.351693 7.181764 7.014752 6.850849 6.690251 6.533152 6.379747 6.230233 6.084802 5.943644 5.806942 5.673159 5.541274 5.411466 5.283917 5.158813 5.036334 4.916662 4.799984 4.686481 4.576343 4.469659 4.364349 4.259487 4.152956 4.044024 3.932869 3.819680 3.704651 3.587979 3.469865 3.350517 3.230146 3.108962 2.987186 2.865037 2.742740 2.620521 2.498609 2.377233 2.256629
12.497756 12.276218 12.056696 11.839360 11.624372 11.411901 11.202111 10.995178 10.791264 10.590539 10.393174 10.199337 10.007351 9.815682 9.624503 9.433991 9.244323 9.055683 8.868253 8.682219 8.497769 8.315092 8.134384 7.955832 7.779634 7.605983 7.435073 7.267105 7.102273 6.940776 6.782807 6.628570 6.478254 6.332059 6.190181 6.052073 5.915827 5.781495 5.649257 5.519304 5.391817 5.266988 5.144997 5.026040 4.910296 4.797957 4.687459 4.577374 4.466450 4.352970 4.237111 4.119063 3.999023 3.877192 3.753773 3.628980 3.503024 3.376124 3.248500 3.120380 2.991988 2.863557 2.735319 2.607510 2.480366
12.964755 12.744144 12.525366 12.308582 12.093962 11.881668 11.671869 11.464732 11.260430 11.059125 10.860991 10.666187 10.472966 10.279871 10.087075 9.894762 9.703108 9.512290 9.322503 9.133924 8.946749 8.761168 8.577371 8.395554 8.215911 8.038641 7.863942 7.692009 7.523044 7.357246 7.194814 7.035945 6.880841 6.729699 6.582720 6.439938 6.299399 6.160606 6.023747 5.889009 5.756577 5.626647 5.499406 5.375046 5.253755 5.135726 5.020009 4.904610 4.789042 4.671010 4.550439 4.427524 4.302464 4.175463 4.046731 3.916482 3.784931 3.652301 3.518819 3.384710 3.250211 3.115552 2.980972 2.846711 2.713011
13.436358 13.216836 12.998963 12.782893 12.568799 12.356843 12.147194 11.940019 11.735479 11.533751 11.335001 11.139387 10.945042 10.750638 10.556347 10.362346 10.168819 9.975943 9.783912 9.592906 9.403118 9.214742 9.027967 8.842995 8.660019 8.479236 8.300851 8.125061 7.952065 7.782071 7.615273 7.451876 7.292080 7.136089 6.984100 6.836317 6.691553 6.548367 6.406953 6.267494 6.130187 5.995219 5.862789 5.733085 5.606307 5.482646 5.361613 5.240923 5.120388 4.997797 4.872511 4.744723 4.614637 4.482461 4.348409 4.212693 4.075540 3.937171 3.797819 3.657714 3.517093 3.376194 3.235260 3.094534 2.954262
13.912031 13.693760 13.476947 13.261756 13.048350 12.836894 12.627549 12.420490 12.215879 12.013884 11.814674 11.618393 11.423046 11.227454 11.031782 10.836218 10.640935 10.446119 10.251957 10.058638 9.866353 9.675294 9.485657 9.297641 9.111443 8.927259 8.745296 8.565757 8.388839 8.214749 8.043691 7.875865 7.711481 7.550739 7.393840 7.240990 7.091839 6.944337 6.798437 6.654330 6.512211 6.372274 6.234720 6.099739 5.967533 5.838298 5.711876 5.585920 5.460124 5.332977 5.202972 5.070309 4.935194 4.797840 4.658461 4.517277 4.374514 4.230402 4.085173 3.939063 3.792313 3.645166 3.497868 3.350665 3.203812
14.391236 14.174375 13.958787 13.744633 13.532076 13.321273 13.112399 12.905615 12.701087 12.498982 12.299473 12.102664 11.906442 11.709777 11.512849 11.315835 11.118917 10.922280 10.726110 10.530594 10.335928 10.142303 9.949922 9.758973 9.569665 9.382194 9.196765 9.013584 8.832852 8.654778 8.479565 8.307417 8.138547 7.973156 7.811449 7.653633 7.499810 7.348064 7.197754 7.049069 6.902212 6.757376 6.614765 6.474573 6.337007 6.202261 6.070397 5.939209 5.808027 5.676186 5.541461 5.403924 5.263780 5.121245 4.976540 4.829884 4.681510 4.531651 4.380543 4.228424 4.075542 3.922141 3.768473 3.614789 3.461344
14.873430 14.658139 14.443939 14.230982 14.019430 13.809449 13.601200 13.394852 13.190565 12.988512 12.788857 12.591666 12.394680 12.197069 11.999002 11.800665 11.602232 11.403891 11.205829 11.008237 10.811311 10.615240 10.420226 10.226466 10.034163 9.843517 9.654740 9.468031 9.283600 9.101647 8.922388 8.746030 8.572780 8.402844 8.236434 8.073756 7.915015 7.759097 7.604450 7.451265 7.299743 7.150082 7.002485 6.857155 6.714294 6.574108 6.436769 6.300378 6.163846 6.027047 5.887611 5.745201 5.600031 5.452318 5.302286 5.150163 4.996180 4.840572 4.683583 4.525457 4.366440 4.206783 4.046742 3.886575 3.726536
15.358076 15.144521 14.931865 14.720264 14.509882 14.300877 14.093415 13.887659 13.683776 13.481931 13.282291 13.084844 12.887219 12.688783 12.489702 12.290161 12.090334 11.890411 11.690581 11.491035 11.291964 11.093568 10.896041 10.699589 10.504410 10.310711 10.118697 9.928578 9.740557 9.554847 9.371655 9.191195 9.013676 8.839306 8.668299 8.500862 8.337209 8.176971 8.018071 7.860464 7.704354 7.549942 7.397436 7.247039 7.098959 6.953401 6.810573 6.669016 6.527171 6.385189 6.241042 6.093768 5.943575 5.790692 5.635337 5.477750 5.318159 5.156808 4.993944 4.829812 4.664664 4.498754 4.332343 4.165690 3.999057
15.844637 15.632972 15.422020 15.211938 15.002879 14.795017 14.588498 14.383498 14.180174 13.978695 13.779229 13.581648 13.383512 13.184372 12.984401 12.783775 12.582680 12.381303 12.179827 11.978445 11.777358 11.576754 11.376840 11.177812 10.979880 10.783241 10.588115 10.394699 10.203209 10.013853 9.826844 9.642398 9.460723 9.282031 9.106536 8.934455 8.765994 8.601229 8.438153 8.276206 8.115587 7.956505 7.799165 7.643779 7.490554 7.339702 7.191429 7.044709 6.897584 6.750229 6.601375 6.449241 6.294038 6.135988 5.975323 5.812275 5.647087 5.480001 5.311266 5.141132 4.969859 4.797701 4.624925 4.451792 4.278572
16.332573 16.122955 15.913867 15.705460 15.497893 15.291322 15.085912 14.881823 14.679219 14.478267 14.279129 14.081532 13.883008 13.683290 13.482550 13.280970 13.078728 12.876015 12.673019 12.469930 12.266944 12.064261 11.862080 11.660602 11.460035 11.260583 11.062460 10.865872 10.671030 10.478152 10.287443 10.099125 9.913410 9.730513 9.550648 9.374029 9.200874 9.031394 8.864232 8.698026 8.532981 8.369310 8.207221 8.046926 7.888636 7.732564 7.578923 7.427027 7.274666 7.121931 6.968218 6.811237 6.651032 6.487828 6.321862 6.153369 5.982591 5.809778 5.635180 5.459059 5.281669 5.103271 4.924137 4.744534 4.564732
16.821342 16.613934 16.406868 16.200294 15.994370 15.789258 15.585109 15.382092 15.180368 14.980098 14.781447 14.583943 14.385154 14.184981 13.983601 13.781188 13.577929 13.374006 13.169613 12.964941 12.760185 12.555546 12.351221 12.147419 11.944343 11.742203 11.541206 11.341567 11.143498 10.947214 10.752928 10.560859 10.371222 10.184237 10.000116 9.819079 9.641343 9.467127 9.295834 9.125458 8.956076 8.787902 8.621146 8.456023 8.292748 8.131541 7.972612 7.815542 7.657994 7.499916 7.341177 7.179362 7.014169 6.845826 6.674571 6.500642 6.324292 6.145765 5.965323 5.783222 5.599727 5.415104 5.229627 5.043563 4.857192
17.310417 17.105373 16.900482 16.695898 16.491781 16.288277 16.085554 15.883767 15.683078 15.483653 15.285652 15.088331 14.889402 14.688901 14.487000 14.283885 14.079731 13.874728 13.669066 13.462936 13.256537 13.050069 12.843728 12.637726 12.432269 12.227563 12.023820 11.821255 11.620082 11.420518 11.222777 11.027079 10.833645 10.642691 10.454434 10.269096 10.086900 9.908061 9.732487 9.558031 9.384398 9.211807 9.040473 8.870608 8.702438 8.536177 8.372041 8.209821 8.047131 7.883762 7.719847 7.553217 7.383053 7.209587 7.033058 6.853714 6.671803 6.487583 6.301309 6.113247 5.923665 5.732832 5.541024 5.348519 5.155594
17.799255 17.596729 17.394175 17.191740 16.989580 16.787848 16.586704 16.386307 16.186813 15.988388 15.791193 15.594139 15.395195 15.194491 14.992203 14.788507 14.583589 14.377630 14.170827 13.963369 13.755453 13.547283 13.339058 13.130984 12.923270 12.716127 12.509765 12.304402 12.100252 11.897533 11.696463 11.497263 11.300153 11.105352 10.913086 10.723572 10.537036 10.353690 10.173717 9.995268 9.817477 9.640561 9.464738 9.290224 9.117244 8.946014 8.776763 8.609423 8.441643 8.273035 8.103825 7.932398 7.757280 7.578712 7.396931 7.212191 7.024741 6.834846 6.642759 6.448756 6.253106 6.056084 5.857967 5.659037 5.459577
18.287333 18.087481 17.887413 17.687283 17.487236 17.287436 17.088026 16.889174 16.691032 16.493765 16.297537 16.100821 15.901988 15.701208 15.498653 15.294509 15.088950 14.882170 14.674355 14.465693 14.256393 14.046653 13.836668 13.626654 13.416815 13.207362 12.998512 12.790478 12.583481 12.377735 12.173465 11.970889 11.770229 11.571712 11.375558 11.181991 10.991235 10.803513 10.619047 10.436697 10.254840 10.073694 9.893473 9.714401 9.536702 9.360600 9.186318 9.013906 8.841091 8.667295 8.492756 8.316493 8.136447 7.952796 7.765788 7.575673 7.382710 7.187158 6.989286 6.789365 6.587671 6.384481 6.180079 5.974749 5.768777
18.774120 18.577093 18.379667 18.181992 17.984217 17.786497 17.588984 17.391832 17.195200 16.999249 16.804113 16.607819 16.409224 16.208496 16.005808 15.801341 15.595271 15.387794 15.179093 14.969368 14.758812 14.547624 14.336016 14.124191 13.912357 13.700730 13.489521 13.278951 13.069234 12.860595 12.653251 12.447428 12.243351 12.041243 11.841330 11.643839 11.448993 11.257016 11.068139 10.881836 10.696012 10.510731 10.326208 10.142672 9.960349 9.779465 9.600247 9.422823 9.245028 9.066108 8.886287 8.705094 8.520141 8.331436 8.139222 7.943759 7.745307 7.544127 7.340497 7.134685 6.926973 6.717644 6.506982 6.295279 6.082823
19.259094 19.065041 18.870407 18.675344 18.479994 18.284510 18.089045 17.893749 17.698784 17.504307 17.310339 17.114594 16.916359 16.715807 16.513113 16.308451 16.102005 15.893957 15.684506 15.473842 15.262160 15.049667 14.836564 14.623060 14.409364 14.195691 13.982262 13.769281 13.556983 13.345578 13.135298 12.926362 12.718996 12.513433 12.309890 12.108603 11.909795 11.713695 11.520534 11.330205 11.140512 10.951192 10.762469 10.574569 10.387718 10.202151 10.018091 9.835725 9.653013 9.469021 9.283987 9.097779 8.907951 8.714215 8.516828 8.316047 8.112132 7.905357 7.695994 7.484324 7.270624 7.055184 6.838293 6.620248 6.401338
19.741737 19.550808 19.359118 19.166815 18.974039 18.780947 18.587681 18.394402 18.201256 18.008410 17.815660 17.620592 17.422844 17.222599 17.020025 16.815296 16.608601 16.400122 16.190046 15.978576 15.765903 15.552232 15.337771 15.122721 14.907298 14.691719 14.476194 14.260945 14.046195 13.832163 13.619077 13.407162 13.196644 12.987753 12.780717 12.575767 12.373130 12.173039 11.975724 11.781322 11.587866 11.394608 11.201781 11.009615 10.818339 10.628185 10.439387 10.252155 10.064590 9.875595 9.685410 9.494127 9.299454 9.100721 8.898190 8.692121 8.482782 8.270441 8.055382 7.837882 7.618230 7.396713 7.173630 6.949273 6.723948
20.221529 20.033875 19.845276 19.655884 19.465836 19.275286 19.084373 18.893259 18.702093 18.511028 18.319538 18.125267 17.928139 17.728327 17.525999 17.321337 17.114519 16.905735 16.695173 16.483030 16.269499 16.054787 15.839098 15.622638 15.405623 15.188273 14.970791 14.753408 14.536343 14.319821 14.104065 13.889307 13.675772 13.463695 13.253299 13.044820 12.838490 12.634542 12.433203 12.234707 12.037586 11.840500 11.643674 11.447344 11.251746 11.057110 10.863674 10.671664 10.479313 10.285380 10.090108 9.893715 9.694226 9.490534 9.282893 9.071572 8.856840 8.638972 8.418253 8.194963 7.969393 7.741841 7.512601 7.281974 7.050265
20.697969 20.513727 20.328373 20.142038 19.954868 19.767010 19.578604 19.389809 19.200768 19.011644 18.821438 18.628084 18.431702 18.232447 18.030497 17.826031 17.619223 17.410267 17.199347 16.986662 16.772411 16.556787 16.340010 16.122280 15.903811 15.684816 15.465521 15.246143 15.026901 14.808023 14.589741 14.372277 14.155866 13.940732 13.727116 13.515248 13.305362 13.097691 12.892468 12.689931 12.489200 12.288385 12.087669 11.887285 11.687466 11.488453 11.290483 11.093793 10.896726 10.697926 10.497637 10.296114 10.091849 9.883229 9.670520 9.453984 9.233899 9.010544 8.784204 8.555161 8.323717 8.090167 7.854812 7.617957 7.379910
21.170549 20.989870 20.807896 20.624769 20.440622 20.255606 20.069857 19.883530 19.696772 19.509741 19.320810 19.128508 18.932991 18.734425 18.532980 18.328836 18.122171 17.913174 17.702032 17.488941 17.274097 17.057709 16.839973 16.621107 16.401321 16.180832 15.959857 15.738618 15.517344 15.296252 15.075578 14.855550 14.636398 14.418359 14.201658 13.986544 13.773239 13.561984 13.353017 13.146571 12.942225 12.737792 12.533293 12.328958 12.125031 11.921748 11.719353 11.518086 11.316372 11.112776 10.907546 10.700936 10.491892 10.278387 10.060646 9.838939 9.613543 9.384741 9.152821 8.918074 8.680799 8.441296 8.199872 7.956834 7.712494
21.638775 21.461800 21.283350 21.103573 20.922600 20.740568 20.557625 20.373917 20.189594 20.004715 19.817135 19.626005 19.431480 19.233727 19.032919 18.829229 18.622837 18.413929 18.202698 17.989338 17.774040 17.557014 17.338463 17.118599 16.897636 16.675785 16.453272 16.230318 16.007145 15.783982 15.561061 15.338610 15.116861 14.896052 14.676416 14.458187 14.241611 14.026916 13.814345 13.604136 13.396180 13.188241 12.980070 12.771898 12.563973 12.356532 12.149818 11.944085 11.737800 11.529484 11.319385 11.107764 10.893927 10.675579 10.452850 10.226015 9.995352 9.761149 9.523698 9.283291 9.040234 8.794827 8.547381 8.298209 8.047625
22.102158 21.929020 21.754246 21.577959 21.400299 21.221401 21.041410 20.860470 20.678728 20.495987 20.309881 20.120047 19.926640 19.729828 19.529779 19.326675 19.120687 18.912004 18.700817 18.487316 18.271704 18.054180 17.834951 17.614227 17.392221 17.169157 16.945246 16.720716 16.495790 16.270699 16.045670 15.820942 15.596742 15.373305 15.150877 14.929687 14.709977 14.491987 14.275955 14.062125 13.850594 13.639262 13.427528 13.215633 13.003820 12.792332 12.581421 12.371326 12.160550 11.947592 11.732706 11.516154 11.297522 11.074376 10.846706 10.614790 10.378911 10.139356 9.896421 9.650407 9.401616 9.150358 8.896944 8.641690 8.384916
22.560215 22.391060 22.220089 22.047436 21.873230 21.697613 21.520714 21.342690 21.163675 20.983042 20.798527 20.610107 20.417948 20.222202 20.023050 19.820654 19.615202 19.406878 19.195869 18.982370 18.766573 18.548685 18.328918 18.107473 17.884573 17.660427 17.435261 17.209301 16.982765 16.755888 16.528902 16.302036 16.075529 15.849616 15.624536 15.400529 15.177836 14.956696 14.737351 14.520041 14.304985 14.090373 13.875196 13.659693 13.444108 13.228692 13.013689 12.799356 12.584167 12.366651 12.147059 11.925657 11.702247 11.474352 11.241791 11.004844 10.763797 10.518942 10.270580 10.019011 9.764542 9.507483 9.248158 8.986879 8.723972
23.012474 22.847431 22.680407 22.511528 22.340914 22.168709 21.995056 21.820089 21.643951 21.465363 21.282560 21.095680 20.904890 20.710340 20.512199 20.310652 20.105867 19.898029 19.687332 19.473961 19.258125 19.040018 18.819843 18.597826 18.374166 18.149084 17.922808 17.695559 17.467560 17.239040 17.010237 16.781387 16.552719 16.324474 16.096893 15.870217 15.644687 15.420546 15.198033 14.977401 14.758883 14.541112 14.322605 14.103609 13.884374 13.665145 13.446173 13.227715 13.008201 12.786205 12.561993 12.335824 12.107670 11.875075 11.637676 11.395749 11.149590 10.899492 10.645756 10.388686 10.128599 9.865803 9.600622 9.333378 9.064401
23.458469 23.297672 23.134724 22.969748 22.802872 22.634232 22.463953 22.292189 22.119017 21.942442 21.761473 21.576258 21.386955 21.193724 20.996733 20.796154 20.592165 20.384951 20.174694 19.961594 19.745852 19.527658 19.307226 19.084764 18.860491 18.634623 18.407379 18.179031 17.949839 17.720005 17.489752 17.259296 17.028864 16.798687 16.568991 16.340012 16.111982 15.885138 15.659725 15.435983 15.214153 14.993275 14.771493 14.549012 14.326089 14.102981 13.879949 13.657248 13.433243 13.206610 12.977624 12.746563 12.513529 12.276171 12.033935 11.787086 11.535872 11.280585 11.021537 10.759028 10.493380 10.224909 9.953938 9.680793 9.405806