64 64
0.000000 0.000000 0.000000 0.000000 0.000000 0.000000 0.000000 0.000000 0.000000 0.000000 0.000000 0.002310 0.011552 0.029782 0.058905 0.098876 0.149638 0.211122 0.283250 0.365933 0.460998 0.571748 0.700015 0.845996 1.009491 1.190287 1.388163 1.604811 1.841382 2.097568 2.373048 2.667480 2.980498 3.311726 3.660766 4.027202 4.410731 4.811674 5.229713 5.665894 6.120304 6.592358 7.081752 7.587958 8.110292 8.648056 9.200530 9.766994 10.347218 10.942140 11.551097 12.173285 12.807889 13.454082 14.111815 14.781740 15.463655 16.156750 16.860065 17.572641 18.293512 19.021709 19.756273 20.496220 21.240576
0.000000 0.000000 0.000000 0.000000 0.000000 0.000000 0.000000 0.000000 0.000000 0.000000 0.000000 0.000972 0.008211 0.024345 0.051340 0.089149 0.137717 0.196976 0.266850 0.347251 0.440719 0.549628 0.674542 0.817052 0.977048 1.154317 1.349053 1.563564 1.798000 2.052053 2.325407 2.617714 2.928620 3.257740 3.604685 3.969034 4.350362 4.748217 5.163491 5.597549 6.049895 6.519927 7.007032 7.510583 8.029931 8.564606 9.114098 9.677936 10.257164 10.851357 11.459715 12.081435 12.715701 13.362188 14.021701 14.693490 15.376677 16.070374 16.774199 17.487465 18.209204 18.938448 19.674234 20.415581 21.161522
0.000000 0.000000 0.000000 0.000000 0.000000 0.000000 0.000000 0.000000 0.000000 0.000000 0.000000 0.000268 0.005446 0.019391 0.044157 0.079704 0.125976 0.182907 0.250421 0.328489 0.420245 0.527428 0.649908 0.788783 0.945112 1.118683 1.310674 1.522852 1.754953 2.006673 2.277691 2.567671 2.876251 3.203054 3.547686 3.909736 4.288772 4.685009 5.099632 5.532212 5.982372 6.450199 6.935156 7.436614 7.953930 8.486449 9.033568 9.596261 10.174523 10.767800 11.375374 11.996435 12.630425 13.278251 13.939384 14.612947 15.298052 15.993808 16.699305 17.413647 18.136110 18.866234 19.603075 20.345655 21.093004
0.000000 0.000000 0.000000 0.000000 0.000000 0.000000 0.000000 0.000000 0.000000 0.000000 0.000000 0.000061 0.003317 0.014983 0.037425 0.070610 0.114485 0.168985 0.234035 0.309747 0.399634 0.504931 0.625508 0.761294 0.913791 1.083649 1.273100 1.482750 1.712317 1.961502 2.229985 2.517429 2.823475 3.147751 3.489859 3.849391 4.226181 4.621609 5.035535 5.467452 5.916829 6.383118 6.865846 7.365012 7.880097 8.410440 8.956621 9.519169 10.097353 10.690432 11.297640 11.918279 12.553185 13.202293 13.864861 14.540002 15.226838 15.924473 16.631998 17.348507 18.073090 18.804827 19.542795 20.286440 21.035028
0.000000 0.000000 0.000000 0.000000 0.000000 0.000000 0.000000 0.000000 0.000000 0.000000 0.000000 0.000000 0.001886 0.011190 0.031212 0.061939 0.103319 0.155287 0.217770 0.291083 0.378945 0.482197 0.600711 0.734347 0.883199 1.049673 1.236410 1.443337 1.670175 1.916626 2.182371 2.467077 2.770382 3.091919 3.431293 3.788129 4.163589 4.558070 4.971082 5.402112 5.850636 6.316103 6.797957 7.295619 7.808507 8.337173 8.882918 9.445117 10.023036 10.615931 11.223043 11.844810 12.481642 13.132705 13.797160 14.474154 15.162822 15.862296 16.571692 17.290178 18.016878 18.750877 19.491253 20.237080 20.987432
0.000000 0.000000 0.000000 0.000000 0.000000 0.000000 0.000000 0.000000 0.000000 0.000000 0.000000 0.000000 0.001119 0.008079 0.025588 0.053763 0.092550 0.141889 0.201706 0.272561 0.358244 0.459294 0.575586 0.706978 0.853318 1.016855 1.200688 1.404701 1.628616 1.872134 2.134942 2.416703 2.717066 3.035656 3.372087 3.726862 4.101131 4.494450 4.906329 5.336253 5.783700 6.248123 6.728960 7.225641 7.737843 8.266883 8.812481 9.374144 9.951594 10.544099 11.151582 11.774963 12.413511 13.066399 13.732774 14.411796 15.102595 15.804300 16.516026 17.236885 17.965984 18.702419 19.445284 20.193666 20.946659
0.000000 0.000000 0.000000 0.000000 0.000000 0.000000 0.000000 0.000000 0.000000 0.000000 0.000000 0.000000 0.000568 0.005723 0.020628 0.046157 0.082258 0.128871 0.185923 0.254248 0.337599 0.436292 0.550203 0.679192 0.823387 0.985247 1.166023 1.366931 1.587727 1.828119 2.087790 2.366409 2.663623 2.979064 3.312685 3.666005 4.038871 4.430811 4.841335 5.269934 5.716084 6.179237 6.658838 7.154343 7.666833 8.196591 8.742962 9.305274 9.882842 10.475239 11.083938 11.708726 12.348783 13.003279 13.671372 14.352206 15.044921 15.748640 16.462481 17.185556 17.916965 18.655815 19.401184 20.152168 20.907854
0.000000 0.000000 0.000000 0.000000 0.000000 0.000000 0.000000 0.000000 0.000000 0.000000 0.000000 0.000000 0.000190 0.004133 0.016408 0.039200 0.072522 0.116314 0.170506 0.236217 0.317084 0.413266 0.524640 0.651068 0.793382 0.953887 1.132503 1.330119 1.547608 1.784679 2.041018 2.316294 2.610160 2.922281 3.253943 3.605624 3.976872 4.367219 4.776174 5.203227 5.647858 6.109520 6.587656 7.082654 7.595579 8.125824 8.672737 9.235644 9.813891 10.408412 11.019351 11.645948 12.287443 12.943338 13.612929 14.295364 14.989780 15.695300 16.411043 17.136120 17.869623 18.610662 19.358322 20.111692 20.870352
0.000000 0.000000 0.000000 0.000000 0.000000 0.000000 0.000000 0.000000 0.000000 0.000000 0.000000 0.000000 0.000011 0.002831 0.013003 0.032971 0.063424 0.104304 0.155542 0.218541 0.296776 0.390296 0.498979 0.622699 0.763352 0.922313 1.099383 1.294364 1.508357 1.741914 1.994727 2.266465 2.556782 2.866161 3.195955 3.545789 3.915208 4.303746 4.710913 5.136204 5.579094 6.039042 6.515852 7.010975 7.524109 8.054614 8.601834 9.165101 9.744667 10.341441 10.954711 11.583713 12.227665 12.885777 13.557249 14.241258 14.937158 15.644262 16.361685 17.088539 17.823925 18.566935 19.316668 20.072987 20.835758
0.000000 0.000000 0.000000 0.000000 0.000000 0.000000 0.000000 0.000000 0.000000 0.000000 0.000000 0.000000 0.000000 0.001731 0.010430 0.027552 0.055048 0.092927 0.141120 0.201301 0.276756 0.367464 0.473304 0.594422 0.733352 0.890583 1.065917 1.259139 1.470078 1.699935 1.949028 2.217033 2.503839 2.811077 3.138798 3.486573 3.853951 4.240467 4.645632 5.068940 5.509872 5.967923 6.444294 6.939346 7.452456 7.982989 8.530288 9.094036 9.675518 10.274314 10.889674 11.520838 12.167021 12.827433 13.501271 14.187712 14.885929 15.595083 16.314323 17.042805 17.779846 18.524630 19.277271 20.037428 20.804136
0.000000 0.000000 0.000000 0.000000 0.000000 0.000000 0.000000 0.000000 0.000000 0.000000 0.000000 0.000000 0.000000 0.000872 0.008167 0.023028 0.047482 0.082271 0.127331 0.184580 0.257110 0.344857 0.447704 0.566419 0.703440 0.858754 1.032163 1.223454 1.432396 1.658848 1.904034 2.168113 2.452159 2.757106 3.082548 3.428057 3.793185 4.177465 4.580412 5.001523 5.440276 5.897028 6.373051 6.867804 7.380665 7.910992 8.458176 9.023250 9.606443 10.207020 10.824230 11.457313 12.105485 12.767953 13.443914 14.132545 14.833016 15.544488 16.266108 16.997015 17.736404 18.484573 19.241077 20.004978 20.775421
0.000000 0.000000 0.000000 0.000000 0.000000 0.000000 0.000000 0.000000 0.000000 0.000000 0.000000 0.000000 0.000000 0.000296 0.006117 0.019374 0.040812 0.072428 0.114266 0.168463 0.237926 0.322569 0.422274 0.538750 0.673683 0.826894 0.998191 1.187360 1.394170 1.618377 1.859861 2.120330 2.401875 2.704329 3.027287 3.370323 3.732990 4.114823 4.515340 4.934037 5.370644 5.826719 6.302170 6.796395 7.308773 7.838667 8.386296 8.952773 9.537436 10.139551 10.758371 11.393132 12.043050 12.707333 13.385172 14.075747 14.778225 15.491767 16.215521 16.948732 17.691801 18.444195 19.204985 19.973242 20.748028
0.000000 0.000000 0.000000 0.000000 0.000000 0.000000 0.000000 0.000000 0.000000 0.000000 0.000000 0.000000 0.000000 0.000043 0.004325 0.016013 0.035128 0.063488 0.102023 0.153041 0.219296 0.300691 0.397262 0.511484 0.644146 0.795072 0.964071 1.150928 1.355418 1.577292 1.816330 2.074221 2.353068 2.652831 2.973103 3.313460 3.673458 4.052636 4.450511 4.866579 5.301813 5.757048 6.231701 6.725168 7.236835 7.766304 8.314970 8.882607 9.468499 10.071914 10.692101 11.328294 11.979710 12.645559 13.325029 14.017301 14.721542 15.436910 16.162697 16.899376 17.646370 18.402754 19.167608 19.939991 20.718960
0.000000 0.000000 0.000000 0.000000 0.000000 0.000000 0.000000 0.000000 0.000000 0.000000 0.000000 0.000000 0.000000 0.000000 0.002836 0.012889 0.030297 0.055548 0.090697 0.138410 0.201318 0.279324 0.372900 0.484692 0.614906 0.763365 0.929881 1.114240 1.316218 1.535567 1.772780 2.029548 2.305830 2.602698 2.920083 3.257557 3.614682 3.990994 4.386014 4.799772 5.233901 5.688067 6.161693 6.654178 7.164904 7.694685 8.244203 8.812761 9.399640 10.004109 10.625416 11.262795 11.915465 12.582635 13.263490 13.957211 14.662965 15.380079 16.109074 16.849371 17.600056 18.360201 19.128881 19.905157 20.688084
0.000000 0.000000 0.000000 0.000000 0.000000 0.000000 0.000000 0.000000 0.000000 0.000000 0.000000 0.000000 0.000000 0.000000 0.001698 0.010049 0.025726 0.048701 0.080386 0.124663 0.184090 0.258570 0.349263 0.458452 0.586039 0.731851 0.895700 1.077376 1.276654 1.493392 1.729328 1.984939 2.259902 2.554025 2.868323 3.202713 3.556759 3.929999 4.321999 4.734160 5.166959 5.619835 6.092209 6.583483 7.093553 7.623880 8.174011 8.743246 9.330870 9.936147 10.558330 11.196650 11.850326 12.518565 13.200554 13.895476 14.602661 15.322687 16.054995 16.798674 17.552811 18.316481 19.088758 19.868687 20.655344
0.000000 0.000000 0.000000 0.000000 0.000000 0.000000 0.000000 0.000000 0.000000 0.000000 0.000000 0.000000 0.000000 0.000000 0.000959 0.007545 0.021425 0.042572 0.071191 0.111903 0.167716 0.238546 0.326431 0.432843 0.557629 0.700617 0.861619 1.040427 1.236819 1.451464 1.686028 1.940275 2.213883 2.506513 2.817919 3.149025 3.499788 3.869751 4.259227 4.669805 5.101054 5.552414 6.023313 6.513188 7.023278 7.553912 8.104413 8.674083 9.262206 9.868047 10.490858 11.129869 11.784303 12.453362 13.136240 13.832253 14.542023 15.265043 16.000420 16.747242 17.504599 18.271555 19.047182 19.830542 20.620680
0.000000 0.000000 0.000000 0.000000 0.000000 0.000000 0.000000 0.000000 0.000000 0.000000 0.000000 0.000000 0.000000 0.000000 0.000554 0.005429 0.017448 0.036702 0.063157 0.100232 0.152301 0.219518 0.304486 0.407952 0.529762 0.669749 0.827725 1.003485 1.196941 1.409946 1.642936 1.895615 2.167661 2.458738 2.768489 3.096596 3.443877 3.810467 4.197998 4.606771 5.036249 5.485874 5.955067 6.444007 6.954100 7.484801 8.035433 8.605292 9.193669 9.799829 10.423018 11.062471 11.717413 12.387043 13.070657 13.768889 14.481335 15.207110 15.945317 16.695044 17.455374 18.225378 19.004122 19.790665 20.584051
0.000000 0.000000 0.000000 0.000000 0.000000 0.000000 0.000000 0.000000 0.000000 0.000000 0.000000 0.000000 0.000000 0.000000 0.000250 0.003755 0.013849 0.031147 0.055613 0.089756 0.137954 0.201630 0.283516 0.383866 0.502531 0.639342 0.794116 0.966647 1.157669 1.368898 1.600114 1.851021 2.121300 2.410613 2.718606 3.044903 3.389133 3.752894 4.138377 4.545130 4.972616 5.420282 5.887652 6.376190 6.886052 7.416581 7.967096 8.536902 9.125286 9.731514 10.354835 10.994484 11.649681 12.319689 13.005107 13.705695 14.420578 15.148864 15.889655 16.642044 17.405107 18.177916 18.959536 19.749020 20.545416
0.000000 0.000000 0.000000 0.000000 0.000000 0.000000 0.000000 0.000000 0.000000 0.000000 0.000000 0.000000 0.000000 0.000000 0.000059 0.002578 0.010687 0.025966 0.048379 0.080272 0.124786 0.184970 0.263611 0.360680 0.476030 0.609495 0.760891 0.930138 1.119129 1.328386 1.557628 1.806562 2.074867 2.362209 2.668236 2.992571 3.334967 3.697220 4.080439 4.484953 4.910231 5.355716 5.821769 6.309778 6.819164 7.349277 7.899435 8.468946 9.057089 9.663138 10.286342 10.925934 11.581152 12.252501 12.939957 13.642660 14.359730 15.090281 15.833414 16.588219 17.353769 18.129139 18.913383 19.705570 20.504730
0.000000 0.000000 0.000000 0.000000 0.000000 0.000000 0.000000 0.000000 0.000000 0.000000 0.000000 0.000000 0.000000 0.000000 0.000000 0.001772 0.008020 0.021219 0.041518 0.071090 0.112883 0.169631 0.244866 0.338490 0.450360 0.580309 0.728156 0.894563 1.081392 1.288479 1.515550 1.762308 2.028437 2.313603 2.617454 2.939615 3.280702 3.642368 4.024227 4.426320 4.849171 5.292390 5.757559 6.244800 6.753474 7.282931 7.832489 8.401454 8.989113 9.594733 10.217568 10.856854 11.512883 12.185946 12.875194 13.579762 14.298778 15.031349 15.776576 16.533546 17.301338 18.079020 18.865652 19.660288 20.461973
0.000000 0.000000 0.000000 0.000000 0.000000 0.000000 0.000000 0.000000 0.000000 0.000000 0.000000 0.000000 0.000000 0.000000 0.000000 0.001091 0.005908 0.016967 0.035092 0.062243 0.101612 0.155708 0.227379 0.317399 0.425622 0.551889 0.696084 0.860054 1.044529 1.249254 1.473956 1.718339 1.982089 2.264873 2.566339 2.886247 3.226430 3.587282 3.968352 4.369174 4.789515 5.230955 5.695069 6.181305 6.689028 7.217584 7.766298 8.334473 8.921397 9.526344 10.148561 10.788068 11.445490 12.120020 12.810809 13.516997 14.237710 14.972053 15.719126 16.478016 17.247799 18.027542 18.816309 19.613153 20.417112
0.000000 0.000000 0.000000 0.000000 0.000000 0.000000 0.000000 0.000000 0.000000 0.000000 0.000000 0.000000 0.000000 0.000000 0.000000 0.000554 0.004396 0.013275 0.029167 0.053804 0.090774 0.142934 0.211253 0.297509 0.401927 0.524346 0.665249 0.826687 1.008619 1.210790 1.432927 1.674736 1.935907 2.216106 2.514984 2.833080 3.172195 3.532002 3.912053 4.311882 4.731126 5.171517 5.634341 6.119336 6.625869 7.153283 7.700907 8.268049 8.853992 9.458014 10.079858 10.720405 11.378968 12.054716 12.746804 13.454362 14.176519 14.912384 15.661053 16.421612 17.193134 17.974693 18.765345 19.564140 20.370131
0.000000 0.000000 0.000000 0.000000 0.000000 0.000000 0.000000 0.000000 0.000000 0.000000 0.000000 0.000000 0.000000 0.000000 0.000000 0.000186 0.003169 0.010206 0.023809 0.045850 0.080425 0.130535 0.196509 0.278930 0.379383 0.497805 0.635819 0.794543 0.973743 1.173168 1.392547 1.631587 1.889978 2.167392 2.463547 2.780231 3.118050 3.476587 3.855388 4.253989 4.672791 5.113419 5.575428 6.058943 6.564044 7.090077 7.636369 8.202228 8.786944 9.390038 10.012497 10.653864 11.313325 11.990043 12.683176 13.391858 14.115208 14.852339 15.602350 16.364326 17.137341 17.920458 18.712746 19.513248 20.321012
0.000000 0.000000 0.000000 0.000000 0.000000 0.000000 0.000000 0.000000 0.000000 0.000000 0.000000 0.000000 0.000000 0.000000 0.000000 0.000011 0.002103 0.007825 0.019084 0.038461 0.070628 0.118540 0.182285 0.261772 0.358105 0.472744 0.607881 0.763706 0.939988 1.136478 1.352907 1.588983 1.844398 2.118824 2.412608 2.727754 3.064057 3.421091 3.798413 4.195622 4.614337 5.055020 5.517128 6.000095 6.503611 7.028020 7.572736 8.137071 8.720383 9.323560 9.946520 10.588459 11.248569 11.926008 12.619935 13.329484 14.053778 14.791925 15.543026 16.306164 17.080414 17.864845 18.658510 19.460533 20.270945
0.000000 0.000000 0.000000 0.000000 0.000000 0.000000 0.000000 0.000000 0.000000 0.000000 0.000000 0.000000 0.000000 0.000000 0.000000 0.000000 0.001226 0.005998 0.015062 0.031719 0.061446 0.107014 0.168382 0.245459 0.338211 0.449436 0.581517 0.734263 0.907443 1.100812 1.314099 1.547019 1.799263 2.070515 2.362328 2.675715 3.010275 3.365582 3.741192 4.137320 4.555790 4.996274 5.458225 5.941080 6.444252 6.967172 7.510068 8.072634 8.655363 9.258727 9.881937 10.524202 11.184709 11.862619 12.557090 13.267253 13.992234 14.731146 15.483082 16.247128 17.022358 17.807842 18.602879 19.407587 20.221102
0.000000 0.000000 0.000000 0.000000 0.000000 0.000000 0.000000 0.000000 0.000000 0.000000 0.000000 0.000000 0.000000 0.000000 0.000000 0.000000 0.000564 0.004366 0.011812 0.025710 0.052951 0.096029 0.154871 0.229390 0.319621 0.427970 0.556819 0.706305 0.876203 1.066265 1.276225 1.505796 1.754676 2.022951 2.312773 2.624182 2.956773 3.310127 3.683813 4.079210 4.497184 4.937212 5.398748 5.881233 6.384076 6.906673 7.448402 8.009656 8.592257 9.195556 9.818772 10.461116 11.121765 11.799896 12.494655 13.205179 13.930597 14.670016 15.422529 16.187227 16.963182 17.749952 18.547571 19.355070 20.171450
0.000000 0.000000 0.000000 0.000000 0.000000 0.000000 0.000000 0.000000 0.000000 0.000000 0.000000 0.000000 0.000000 0.000000 0.000000 0.000000 0.000146 0.002948 0.009304 0.020565 0.045212 0.085657 0.141829 0.213641 0.301729 0.408301 0.533879 0.679930 0.846364 1.032936 1.239383 1.465419 1.710743 1.976401 2.264015 2.573225 2.903628 3.254802 3.626713 4.021327 4.438554 4.877872 5.338740 5.820592 6.322845 6.844894 7.386381 7.948539 8.531080 9.134069 9.757044 10.399215 11.059760 11.737855 12.432652 13.143285 13.868879 14.608546 15.361384 16.126478 16.903673 17.692812 18.492903 19.302950 20.121956
0.000000 0.000000 0.000000 0.000000 0.000000 0.000000 0.000000 0.000000 0.000000 0.000000 0.000000 0.000000 0.000000 0.000000 0.000000 0.000000 0.000000 0.001772 0.007081 0.016391 0.038308 0.075980 0.129337 0.198298 0.284529 0.389400 0.512764 0.655235 0.818028 1.000932 1.203681 1.425997 1.667723 1.930939 2.216131 2.522922 2.850914 3.199687 3.570135 3.963717 4.379946 4.818299 5.278239 5.759201 6.260603 6.781871 7.324017 7.887258 8.470902 9.074239 9.696780 10.338526 10.998714 11.676525 12.371101 13.081588 13.807104 14.546766 15.299686 16.065962 16.845234 17.636528 18.438850 19.251205 20.072599
0.000000 0.000000 0.000000 0.000000 0.000000 0.000000 0.000000 0.000000 0.000000 0.000000 0.000000 0.000000 0.000000 0.000000 0.000000 0.000000 0.000000 0.000870 0.005101 0.013201 0.032315 0.067076 0.117478 0.183701 0.268076 0.371073 0.492545 0.632323 0.791301 0.970357 1.169230 1.387640 1.626067 1.886645 2.169200 2.473357 2.798717 3.145009 3.514129 3.906427 4.321405 4.758542 5.217299 5.697112 6.197400 6.718495 7.261393 7.825448 8.409969 9.014238 9.637526 10.279081 10.938663 11.615931 12.310035 13.020114 13.745297 14.484754 15.238741 16.006769 16.787876 17.581083 18.385397 19.199823 20.023359
0.000000 0.000000 0.000000 0.000000 0.000000 0.000000 0.000000 0.000000 0.000000 0.000000 0.000000 0.000000 0.000000 0.000000 0.000000 0.000000 0.000000 0.000272 0.003398 0.010502 0.027318 0.059031 0.106340 0.170076 0.252428 0.353381 0.472785 0.610477 0.766291 0.941324 1.136142 1.350468 1.585872 1.843602 2.123307 2.424613 2.747125 3.091185 3.458749 3.849515 4.262990 4.698657 5.155972 5.634378 6.133643 6.655141 7.198527 7.763127 8.348250 8.953181 9.577188 10.219520 10.879405 11.556108 12.249483 12.958902 13.683600 14.423937 15.179357 15.948895 16.731592 17.526468 18.332531 19.148785 19.974222
0.000000 0.000000 0.000000 0.000000 0.000000 0.000000 0.000000 0.000000 0.000000 0.000000 0.000000 0.000000 0.000000 0.000000 0.000000 0.000000 0.000000 0.000010 0.002003 0.008162 0.023335 0.051935 0.096023 0.157485 0.237648 0.336385 0.453551 0.588981 0.742494 0.913946 1.104534 1.314871 1.547225 1.801899 2.078543 2.376786 2.696234 3.038291 3.404050 3.793037 4.204762 4.638702 5.094325 5.571100 6.070165 6.591827 7.135431 7.700311 8.285762 8.891081 9.515532 10.158360 10.818805 11.496075 12.189371 12.898129 13.623475 14.364923 15.121528 15.892334 16.676374 17.472673 18.280235 19.098070 19.925163
0.000000 0.000000 0.000000 0.000000 0.000000 0.000000 0.000000 0.000000 0.000000 0.000000 0.000000 0.000000 0.000000 0.000000 0.000000 0.000000 0.000000 0.000000 0.000950 0.006146 0.019829 0.045877 0.086854 0.145991 0.223800 0.320155 0.434911 0.567906 0.718958 0.887869 1.074527 1.281112 1.510216 1.761628 2.035003 2.329969 2.646403 2.986392 3.350104 3.737064 4.146785 4.578748 5.032417 5.508105 6.007016 6.528576 7.072133 7.637015 8.222528 8.827959 9.452578 10.095634 10.756351 11.433955 12.127805 12.838447 13.565331 14.307705 15.065253 15.837082 16.622221 17.419695 18.228516 19.047682 19.876186
0.000000 0.000000 0.000000 0.000000 0.000000 0.000000 0.000000 0.000000 0.000000 0.000000 0.000000 0.000000 0.000000 0.000000 0.000000 0.000000 0.000000 0.000000 0.000272 0.004479 0.016705 0.040841 0.079011 0.135663 0.210955 0.304761 0.416939 0.547327 0.695744 0.861995 1.045871 1.249286 1.474938 1.722886 1.992784 2.284263 2.597872 2.935553 3.296973 3.681664 4.089133 4.518866 4.970571 5.445735 5.944228 6.465420 7.008659 7.573276 8.158576 8.763845 9.388354 10.031353 10.692072 11.369890 12.065413 12.778115 13.507118 14.251535 15.010473 15.783139 16.569132 17.367537 18.177361 18.997612 19.827278
0.000000 0.000000 0.000000 0.000000 0.000000 0.000000 0.000000 0.000000 0.000000 0.000000 0.000000 0.000000 0.000000 0.000000 0.000000 0.000000 0.000000 0.000000 0.000003 0.003186 0.014014 0.036232 0.072563 0.126573 0.199187 0.290280 0.399713 0.527323 0.672933 0.836348 1.017627 1.219156 1.441490 1.685771 1.951987 2.239782 2.550719 2.885852 3.244739 3.626912 4.031881 4.459136 4.909592 5.384027 5.881838 6.402394 6.945047 7.509125 8.093938 8.698771 9.322896 9.965560 10.626141 11.305283 12.002526 12.717008 13.447863 14.194198 14.955115 15.729692 16.517006 17.316187 18.126772 18.947857 19.778437
0.000000 0.000000 0.000000 0.000000 0.000000 0.000000 0.000000 0.000000 0.000000 0.000000 0.000000 0.000000 0.000000 0.000000 0.000000 0.000000 0.000000 0.000000 0.000000 0.002295 0.011813 0.032139 0.067350 0.118796 0.188572 0.276791 0.383313 0.507978 0.650610 0.811015 0.989861 1.189442 1.409657 1.650388 1.912719 2.196875 2.505018 2.837368 3.193479 3.572892 3.975117 4.400159 4.849579 5.323023 5.819887 6.339539 6.881336 7.444606 8.028658 8.632778 9.256240 9.898394 10.559916 11.240440 11.939130 12.655128 13.387562 14.135539 14.898159 15.674503 16.463646 17.264647 18.076555 18.898426 19.729670
0.000000 0.000000 0.000000 0.000000 0.000000 0.000000 0.000000 0.000000 0.000000 0.000000 0.000000 0.000000 0.000000 0.000000 0.000000 0.000000 0.000000 0.000000 0.000000 0.001835 0.010158 0.028744 0.062737 0.112411 0.179193 0.264378 0.367826 0.489381 0.628867 0.786090 0.962638 1.160067 1.378117 1.616513 1.875095 2.155736 2.460853 2.790181 3.143282 3.519691 3.918969 4.342451 4.790577 5.262768 5.758417 6.276903 6.817576 7.379764 7.962781 8.565915 9.188494 9.831165 10.493732 11.175366 11.875236 12.592472 13.326207 14.075553 14.839602 15.617441 16.408136 17.210751 18.024334 18.847925 19.680559
0.000000 0.000000 0.000000 0.000000 0.000000 0.000000 0.000000 0.000000 0.000000 0.000000 0.000000 0.000000 0.000000 0.000000 0.000000 0.000000 0.000000 0.000000 0.000000 0.001821 0.008982 0.026082 0.058716 0.107009 0.171133 0.253126 0.353340 0.471622 0.607795 0.761818 0.936024 1.131097 1.346780 1.582793 1.838839 2.116453 2.418311 2.744386 3.094236 3.467402 3.864172 4.286067 4.732640 5.203315 5.697489 6.214538 6.753816 7.314653 7.896362 8.498251 9.120872 9.764256 10.427600 11.110077 11.810847 12.529050 13.263815 14.014251 14.779454 15.558506 16.350477 17.154430 17.969410 18.794460 19.628662
0.000000 0.000000 0.000000 0.000000 0.000000 0.000000 0.000000 0.000000 0.000000 0.000000 0.000000 0.000000 0.000000 0.000000 0.000000 0.000000 0.000000 0.000000 0.000000 0.001918 0.008249 0.024192 0.055326 0.102095 0.164424 0.243127 0.339950 0.454796 0.587494 0.738425 0.910091 1.102607 1.315716 1.549140 1.802729 2.078640 2.377485 2.700069 3.046435 3.416224 3.811010 4.231061 4.675821 5.144721 5.637156 6.152503 6.690116 7.249331 7.829458 8.430858 9.053862 9.697689 10.361538 11.044580 11.745977 12.464871 13.200391 13.951641 14.717716 15.497706 16.290678 17.095686 17.911791 18.738220 19.574896
0.000000 0.000000 0.000000 0.000000 0.000000 0.000000 0.000000 0.000000 0.000000 0.000000 0.000000 0.000000 0.000000 0.000000 0.000000 0.000000 0.000000 0.000000 0.000000 0.001978 0.008140 0.023116 0.052612 0.097716 0.158354 0.234475 0.327750 0.439004 0.568065 0.715988 0.884917 1.074676 1.285007 1.515638 1.766827 2.040901 2.337855 2.657336 2.999981 3.366884 3.759542 4.177495 4.620188 5.087050 5.577482 6.090860 6.626544 7.183866 7.762915 8.364365 8.987481 9.631483 10.295560 10.978896 11.680649 12.399961 13.135950 13.887737 14.654413 15.435059 16.228750 17.034542 17.851891 18.680634 19.519802
0.000000 0.000000 0.000000 0.000000 0.000000 0.000000 0.000000 0.000000 0.000000 0.000000 0.000000 0.000000 0.000000 0.000000 0.000000 0.000000 0.000000 0.000000 0.000000 0.001999 0.008524 0.022901 0.050619 0.093918 0.152722 0.226943 0.316841 0.424347 0.549624 0.694584 0.860583 1.047386 1.254739 1.482371 1.731197 2.003193 2.298070 2.615461 2.955116 3.319554 3.709835 4.125433 4.565804 5.030370 5.518537 6.029683 6.563168 7.118817 7.697566 8.298800 8.921761 9.565662 10.229701 10.913058 11.614887 12.334332 13.070524 13.822567 14.589559 15.370586 16.164715 16.971645 17.791065 18.621975 19.463367
0.000000 0.000000 0.000000 0.000000 0.000000 0.000000 0.000000 0.000000 0.000000 0.000000 0.000000 0.000000 0.000000 0.000000 0.000000 0.000000 0.000000 0.000000 0.000000 0.001978 0.009000 0.023519 0.049400 0.090754 0.147583 0.219798 0.307296 0.410931 0.532435 0.674300 0.837174 1.020825 1.225003 1.449444 1.695903 1.965583 2.258144 2.573218 2.911395 3.274273 3.661958 4.074952 4.512742 4.974753 5.460391 5.969041 6.500306 7.055234 7.633445 8.234199 8.856731 9.500264 10.163989 10.847087 11.548718 12.268025 13.004134 13.756154 14.523188 15.304325 16.099480 16.908176 17.729427 18.562233 19.405586
0.000000 0.000000 0.000000 0.000000 0.000000 0.000000 0.000000 0.000000 0.000000 0.000000 0.000000 0.000000 0.000000 0.000000 0.000000 0.000000 0.000000 0.000000 0.000000 0.001918 0.009533 0.024682 0.049008 0.088280 0.142993 0.213061 0.298379 0.398866 0.516640 0.655222 0.814781 0.995087 1.195891 1.417104 1.661018 1.928146 2.218149 2.530786 2.867841 3.229681 3.615852 4.026125 4.461079 4.920278 5.403131 5.909090 6.439111 6.993187 7.570595 8.170599 8.792436 9.435325 10.098461 10.781031 11.482183 12.201074 12.936822 13.688543 14.455379 15.237378 16.033962 16.844156 17.666969 18.501404 19.346451
0.000000 0.000000 0.000000 0.000000 0.000000 0.000000 0.000000 0.000000 0.000000 0.000000 0.000000 0.000000 0.000000 0.000000 0.000000 0.000000 0.000000 0.000000 0.000000 0.001878 0.010105 0.025878 0.049500 0.086554 0.139014 0.206792 0.289787 0.387882 0.502329 0.637444 0.793499 0.970268 1.167503 1.385483 1.626620 1.890961 2.178168 2.488763 2.824497 3.185034 3.569924 3.978690 4.410897 4.867028 5.346837 5.850901 6.379758 6.932715 7.509057 8.108043 8.728912 9.370887 10.033161 10.714924 11.415326 12.133518 12.868628 13.619852 14.387331 15.170425 15.968175 16.779596 17.603704 18.439497 19.285967
0.000000 0.000000 0.000000 0.000000 0.000000 0.000000 0.000000 0.000000 0.000000 0.000000 0.000000 0.000000 0.000000 0.000000 0.000000 0.000000 0.000000 0.000000 0.000000 0.001929 0.010696 0.027017 0.050875 0.085640 0.135709 0.201059 0.281590 0.377185 0.489509 0.621060 0.773426 0.946470 1.139945 1.354662 1.592791 1.854112 2.138355 2.447259 2.781410 3.140384 3.523726 3.930962 4.361590 4.815093 5.292264 5.794860 6.322292 6.873870 7.448875 8.046576 8.666210 9.306997 9.968139 10.648815 11.348189 12.065411 12.799719 13.551325 14.319561 15.103485 15.902123 16.714508 17.539637 18.376520 19.224148
0.000000 0.000000 0.000000 0.000000 0.000000 0.000000 0.000000 0.000000 0.000000 0.000000 0.000000 0.000000 0.000000 0.000000 0.000000 0.000000 0.000000 0.000000 0.000000 0.002058 0.011289 0.028084 0.052424 0.085601 0.133146 0.195930 0.273857 0.366870 0.477270 0.606172 0.754666 0.923797 1.113323 1.324729 1.559622 1.817692 2.099277 2.406328 2.738640 3.095787 3.477315 3.882753 4.311603 4.763605 5.240068 5.741019 6.266767 6.816700 7.390110 7.986255 8.604382 9.243711 9.903443 10.582762 11.280833 11.996934 12.731329 13.483362 14.252092 15.036571 15.835836 16.648903 17.474787 18.312489 19.160997
0.000000 0.000000 0.000000 0.000000 0.000000 0.000000 0.000000 0.000000 0.000000 0.000000 0.000000 0.000000 0.000000 0.000000 0.000000 0.000000 0.000000 0.000000 0.000000 0.002251 0.011872 0.029065 0.053808 0.086443 0.131395 0.191480 0.266666 0.357090 0.465388 0.592165 0.737325 0.902361 1.087809 1.295775 1.527207 1.781806 2.061085 2.366030 2.696245 3.051303 3.430756 3.834128 4.260961 4.712338 5.188574 5.689068 6.213236 6.761266 7.332809 7.927137 8.543486 9.181087 9.839137 10.516823 11.213448 11.929316 12.663807 13.415995 14.184946 14.969715 15.769324 16.582809 17.409174 18.247419 19.096539
0.000000 0.000000 0.000000 0.000000 0.000000 0.000000 0.000000 0.000000 0.000000 0.000000 0.000000 0.000000 0.000000 0.000000 0.000000 0.000000 0.000000 0.000000 0.000000 0.002497 0.012433 0.029946 0.055015 0.087626 0.130532 0.187784 0.260092 0.347905 0.453926 0.578399 0.721158 0.882273 1.063591 1.267897 1.495645 1.746928 2.023845 2.326434 2.654293 3.007004 3.384115 3.785159 4.210562 4.661402 5.137134 5.637162 6.160863 6.707594 7.277042 7.869278 8.483585 9.119186 9.775282 10.451178 11.147230 11.862861 12.597176 13.349251 14.118153 14.902933 15.702625 16.516254 17.342829 18.181351 19.030807
0.000000 0.000000 0.000000 0.000000 0.000000 0.000000 0.000000 0.000000 0.000000 0.000000 0.000000 0.000000 0.000000 0.000000 0.000000 0.000000 0.000000 0.000000 0.000000 0.002786 0.012961 0.030718 0.056035 0.088885 0.130523 0.184922 0.254219 0.339378 0.442949 0.564943 0.705192 0.863514 1.040769 1.241199 1.465041 1.713323 1.987630 2.287609 2.612859 2.962963 3.337472 3.736268 4.160801 4.610830 5.085784 5.585066 6.108055 6.654107 7.222556 7.812754 8.424748 9.058076 9.712033 10.386992 11.082477 11.797605 12.531473 13.283169 14.051749 14.836274 15.635770 16.449268 17.275780 18.114298 18.963821
0.000000 0.000000 0.000000 0.000000 0.000000 0.000000 0.000000 0.000000 0.000000 0.000000 0.000000 0.000000 0.000000 0.000000 0.000000 0.000000 0.000000 0.000000 0.000042 0.003111 0.013451 0.031374 0.056861 0.089883 0.130774 0.182975 0.249132 0.331578 0.432527 0.551865 0.689428 0.845033 1.019419 1.215787 1.435648 1.681064 1.952516 2.249632 2.572020 2.919259 3.290945 3.688294 4.111718 4.560663 5.034565 5.532822 6.054818 6.599910 7.167428 7.756693 8.366989 8.997880 9.650507 10.324576 11.019230 11.733585 12.466740 13.217783 13.985772 14.769766 15.568798 16.381891 17.208065 18.046310 18.896397
0.000000 0.000000 0.000000 0.000000 0.000000 0.000000 0.000000 0.000000 0.000000 0.000000 0.000000 0.000000 0.000000 0.000000 0.000000 0.000000 0.000000 0.000000 0.000140 0.003467 0.013895 0.031909 0.057487 0.090602 0.131221 0.181801 0.244918 0.324577 0.422735 0.539245 0.673946 0.826656 0.998578 1.191772 1.407908 1.650233 1.918582 2.212590 2.531863 2.875985 3.245370 3.641317 4.063359 4.510952 4.983522 5.480479 6.001201 6.545046 7.111350 7.699430 8.308589 8.939166 9.591056 10.263976 10.957530 11.670847 12.403022 13.153139 13.920265 14.703460 15.501752 16.314171 17.139744 17.978489 18.829956
0.000000 0.000000 0.000000 0.000000 0.000000 0.000000 0.000000 0.000000 0.000000 0.000000 0.000000 0.000000 0.000000 0.000000 0.000000 0.000000 0.000000 0.000000 0.000283 0.003852 0.014293 0.032319 0.057910 0.091037 0.131665 0.180795 0.241712 0.318451 0.413649 0.527161 0.658827 0.808466 0.977801 1.168422 1.381919 1.620914 1.885919 2.176571 2.492477 2.833463 3.201107 3.595385 4.015780 4.461744 4.932713 5.428088 5.947256 6.489573 7.054379 7.640987 8.249575 8.880294 9.532372 10.205008 10.897429 11.609438 12.340360 13.089285 13.855282 14.637398 15.434676 16.246206 17.072151 17.911949 18.764538
0.000000 0.000000 0.000000 0.000000 0.000000 0.000000 0.000000 0.000000 0.000000 0.000000 0.000000 0.000000 0.000000 0.000000 0.000000 0.000000 0.000000 0.000000 0.000456 0.004265 0.014643 0.032605 0.058129 0.091189 0.131748 0.179962 0.239145 0.313282 0.405355 0.515701 0.644159 0.790597 0.957163 1.145256 1.357133 1.593197 1.854618 2.141670 2.453963 2.792518 3.158213 3.550556 3.969035 4.413102 4.882194 5.375711 5.893045 6.433555 6.996574 7.582068 8.190469 8.821051 9.473032 10.145616 10.837985 11.549300 12.278814 13.026276 13.790866 14.571635 15.367734 16.179443 17.006113 17.846701 18.700159
0.000000 0.000000 0.000000 0.000000 0.000000 0.000000 0.000000 0.000000 0.000000 0.000000 0.000000 0.000000 0.000000 0.000000 0.000000 0.000000 0.000000 0.000000 0.000648 0.004708 0.014947 0.032767 0.058147 0.091059 0.131468 0.179331 0.236734 0.309097 0.397938 0.504951 0.630034 0.773156 0.936745 1.122499 1.332534 1.566688 1.824774 2.107983 2.416927 2.753262 3.116748 3.506897 3.923190 4.365090 4.832028 5.323416 5.838637 6.377054 6.938415 7.523375 8.131311 8.761469 9.413069 10.085312 10.777381 11.488442 12.217637 12.964100 13.727079 14.506374 15.302417 16.114513 16.941647 17.782768 18.636833
0.000000 0.000000 0.000000 0.000000 0.000000 0.000000 0.000000 0.000000 0.000000 0.000000 0.000000 0.000000 0.000000 0.000000 0.000000 0.000000 0.000000 0.000000 0.000849 0.005185 0.015210 0.032811 0.057968 0.090653 0.130830 0.178458 0.234521 0.305201 0.391488 0.495006 0.616548 0.756230 0.916641 1.100208 1.308158 1.540220 1.796096 2.075662 2.381903 2.715763 3.076781 3.464469 3.878314 4.317776 4.782291 5.271272 5.784105 6.320353 6.880779 7.464954 8.072144 8.701591 9.352521 10.024133 10.715616 11.426131 12.154823 12.900824 13.663408 14.443044 15.239206 16.051437 16.878771 17.720169 18.574579
0.000000 0.000000 0.000000 0.000000 0.000000 0.000000 0.000000 0.000000 0.000000 0.000000 0.000000 0.000000 0.000000 0.000000 0.000000 0.000000 0.000000 0.000000 0.001049 0.005668 0.015437 0.032743 0.057598 0.089977 0.129842 0.177152 0.232554 0.301399 0.385785 0.485961 0.603799 0.739907 0.897184 1.078442 1.284070 1.513795 1.767326 2.045103 2.348959 2.680090 3.038382 3.423349 3.834481 4.271239 4.733061 5.219360 5.729580 6.264417 6.823740 7.406849 8.013008 8.641460 9.291433 9.962131 10.652735 11.362412 12.090308 12.835722 13.599161 14.380022 15.177340 15.990144 16.817518 17.658930 18.513422
0.000000 0.000000 0.000000 0.000000 0.000000 0.000000 0.000000 0.000000 0.000000 0.000000 0.000000 0.000000 0.000000 0.000000 0.000000 0.000000 0.000000 0.000000 0.001239 0.006104 0.015637 0.032570 0.057047 0.089039 0.128512 0.175422 0.230615 0.297744 0.380115 0.477889 0.591890 0.724281 0.878554 1.057268 1.260335 1.487484 1.738526 2.015171 2.317841 2.646320 3.001629 3.383617 3.791772 4.225560 4.684419 5.167767 5.675980 6.209403 6.767350 7.349111 7.953955 8.581131 9.229862 9.899353 10.588793 11.297342 12.024292 12.770206 13.534537 14.316337 15.114653 15.928507 16.756918 17.598879 18.453392
0.000000 0.000000 0.000000 0.000000 0.000000 0.000000 0.000000 0.000000 0.000000 0.000000 0.000000 0.000000 0.000000 0.000000 0.000000 0.000000 0.000000 0.000000 0.001413 0.006487 0.015820 0.032306 0.056326 0.087853 0.126853 0.173282 0.228196 0.294290 0.374496 0.470073 0.580931 0.709452 0.860819 1.036759 1.237028 1.461362 1.710391 1.985752 2.287147 2.614187 2.966606 3.345356 3.750274 4.180825 4.636455 5.117131 5.623634 6.155372 6.711661 7.291795 7.895047 8.520659 9.167867 9.835865 10.523846 11.231083 11.958152 12.704618 13.469552 14.252014 15.051043 15.865662 16.694893 17.537725 18.393154
0.000000 0.000000 0.000000 0.000000 0.000000 0.000000 0.000000 0.000000 0.000000 0.000000 0.000000 0.000000 0.000000 0.000000 0.000000 0.000000 0.000000 0.000000 0.001564 0.006809 0.016001 0.031963 0.055448 0.086432 0.124879 0.170746 0.225290 0.290968 0.368992 0.462219 0.570659 0.695668 0.844057 1.016992 1.214231 1.435647 1.683070 1.956891 2.256749 2.582257 2.933002 3.308655 3.710076 4.137130 4.589483 5.068085 5.572602 6.102384 6.656739 7.234971 7.836348 8.460117 9.105507 9.771729 10.458023 11.164954 11.892242 12.638975 13.404234 14.187069 14.986526 15.801629 16.631392 17.474815 18.330879
0.000000 0.000000 0.000000 0.000000 0.000000 0.000000 0.000000 0.000000 0.000000 0.000000 0.000000 0.000000 0.000000 0.000000 0.000000 0.000000 0.000000 0.000000 0.001686 0.007064 0.016194 0.031556 0.054431 0.084793 0.122607 0.167831 0.221905 0.287140 0.363668 0.454396 0.560301 0.683078 0.828349 0.998051 1.192028 1.410983 1.656611 1.928636 2.226697 2.550410 2.899364 3.273118 3.671275 4.094599 4.544361 5.020690 5.522955 6.050505 6.602654 7.178703 7.777923 8.399564 9.042860 9.707033 10.392553 11.099372 11.826595 12.573316 13.338610 14.121538 14.921136 15.736435 16.566444 17.410166 18.266582
0.000000 0.000000 0.000000 0.000000 0.000000 0.000000 0.000000 0.000000 0.000000 0.000000 0.000000 0.000000 0.000000 0.000000 0.000000 0.000000 0.000000 0.000000 0.001776 0.007250 0.016415 0.031103 0.053292 0.082954 0.120057 0.164559 0.218056 0.282726 0.358510 0.446676 0.549896 0.670782 0.813781 0.980025 1.170633 1.387487 1.631066 1.901040 2.197047 2.518703 2.865597 3.237294 3.633335 4.054018 4.501226 4.975017 5.474762 5.999809 6.549477 7.123066 7.719851 8.339086 8.980001 9.642868 10.327946 11.034369 11.761246 12.507668 13.272720 14.055449 14.854905 15.670115 16.500084 17.343819 18.200821
0.000000 0.000000 0.000000 0.000000 0.000000 0.000000 0.000000 0.000000 0.000000 0.000000 0.000000 0.000000 0.000000 0.000000 0.000000 0.000000 0.000000 0.000000 0.001832 0.007362 0.016585 0.030626 0.052052 0.080938 0.117251 0.160950 0.213761 0.277743 0.352831 0.439135 0.539533 0.658556 0.799748 0.963009 1.150649 1.365216 1.606500 1.874168 2.167861 2.487199 2.831769 3.201142 3.595143 4.014907 4.460155 4.931143 5.428099 5.950373 6.497287 7.068141 7.662216 8.278760 8.917786 9.579885 10.264240 10.969986 11.696233 12.442081 13.206599 13.988852 14.787878 15.602707 16.432404 17.276737 18.134924
0.000000 0.000000 0.000000 0.000000 0.000000 0.000000 0.000000 0.000000 0.000000 0.000000 0.000000 0.000000 0.000000 0.000000 0.000000 0.000000 0.000000 0.000000 0.001851 0.007400 0.016643 0.030145 0.050733 0.078767 0.114213 0.157030 0.209041 0.272214 0.346481 0.431764 0.529445 0.646452 0.785615 0.946825 1.132200 1.344236 1.582974 1.848082 2.139208 2.455968 2.797953 3.164764 3.557341 3.975951 4.420061 4.889113 5.383047 5.902279 6.446167 7.014014 7.605099 8.219169 8.857077 9.518129 10.201482 10.906271 11.631611 12.376595 13.140299 13.921784 14.720097 15.534450 16.364687 17.209881 18.068975
0.000000 0.000000 0.000000 0.000000 0.000000 0.000000 0.000000 0.000000 0.000000 0.000000 0.000000 0.000000 0.000000 0.000000 0.000000 0.000000 0.000000 0.000000 0.001832 0.007362 0.016585 0.029686 0.049362 0.076468 0.110970 0.152827 0.203921 0.266164 0.339489 0.423815 0.519747 0.634529 0.771443 0.930980 1.115220 1.324615 1.560561 1.822861 2.111163 2.425086 2.764225 3.128860 3.519997 3.937177 4.379872 4.847522 5.339551 5.855615 6.396208 6.960774 7.548840 8.161374 8.797918 9.457649 10.139724 10.843277 11.567424 12.311262 13.073870 13.854304 14.651996 15.466725 16.297493 17.143265 18.003002
0.000000 0.000000 0.000000 0.000000 0.000000 0.000000 0.000000 0.000000 0.000000 0.000000 0.000000 0.000000 0.000000 0.000000 0.000000 0.000000 0.000000 0.000000 0.001776 0.007250 0.016415 0.029274 0.047966 0.074068 0.107550 0.148370 0.198430 0.259624 0.331884 0.415131 0.510354 0.622849 0.757307 0.915529 1.098640 1.306401 1.539338 1.798581 2.083806 2.394636 2.730864 3.093736 3.483161 3.898639 4.339639 4.805608 5.295970 5.810119 6.347505 6.908587 7.494604 8.105463 8.740371 9.398503 10.079021 10.781059 11.503736 12.246145 13.007370 13.787071 14.584888 15.399820 16.230846 17.076935 17.937033
0.000000 0.000000 0.000000 0.000000 0.000000 0.000000 0.000000 0.000000 0.000000 0.000000 0.000000 0.000000 0.000000 0.000000 0.000000 0.000000 0.000000 0.000000 0.001686 0.007064 0.016132 0.028882 0.046573 0.071599 0.103985 0.143691 0.192600 0.252626 0.323700 0.405745 0.500423 0.611484 0.743648 0.900507 1.082247 1.288628 1.519388 1.775325 2.057224 2.364708 2.698560 3.059445 3.446891 3.860393 4.299423 4.763431 5.251840 5.764050 6.299433 6.858542 7.442581 8.051495 8.684494 9.340754 10.019436 10.719683 11.440601 12.181317 12.941689 13.721216 14.518913 15.333775 16.164789 17.010908 17.871099